seed,date,strategy,NYSE:MTZ,NASDAQ:FIVN,NASDAQ:PCRX,NASDAQ:ITCI,NASDAQ:VRRM,NYSE:ENVA,NYSE:EVRG,NASDAQ:WIX,NYSE:FDP,NYSE:ETRN,NYSE:OC,NASDAQ:KIDS,NYSE:ARCH,NYSE:MDU,NASDAQ:SFM,NYSE:MTRN,NYSE:KMT,NYSE:LXFR,NASDAQ:ADBE,NASDAQ:CGBD,NASDAQ:PRDO,NASDAQ:GBDC,NASDAQ:IDXX,NYSE:VVV,NYSE:LXU,NYSE:CHGG,NYSE:PGR,NYSE:CACI,NASDAQ:LKFN,NYSE:TMHC,NASDAQ:NBTB,NYSE:MAN,NYSE:MS,NYSE:TFC,NYSE:HRTG,NASDAQ:PBYI,NYSE:CNP,NASDAQ:SEDG,NYSE:OLN,NYSE:PBH,NASDAQ:SPT,NASDAQ:SRCE,NYSE:DDS,NYSE:SFBS,NYSE:KGC,NASDAQ:CHTR,NASDAQ:POOL,NASDAQ:UBSI,NYSE:STC,NASDAQ:SLGN
6,2020-03-18,Simple + Baseline,-1.6973072935753384e-08,-1.5817567944174648e-07,0.09999992730691538,-3.259946095244297e-08,7.970108822640112e-09,1.2022820537205873e-07,0.0999999212449881,-2.1687495763919583e-08,0.09999987304973977,1.5723783652623427e-08,-2.881855043977968e-08,-2.1059833182961953e-08,2.667116257023565e-08,2.5489863839273118e-08,-4.062728972960247e-08,2.1977413690151095e-08,-2.0561539646949383e-08,0.09999988567047816,-1.5248610374121887e-07,6.088942549837136e-08,1.1603573800624949e-08,1.1365117911006903e-08,-3.306207048932827e-08,3.369558117038853e-08,-3.965964483526337e-08,-4.64280685127786e-09,-6.716959578682005e-08,-2.1103384884689187e-08,-3.368314341725833e-08,1.4152009166449139e-08,0.09999992926660492,-3.865374848014485e-08,-3.132877797236963e-08,1.4164039585158865e-06,-2.7438961171747123e-08,0.09999989581253713,-1.3660002585654016e-09,-2.9171472842744008e-08,-4.294133656351081e-08,0.09999991429170564,-2.7191088228781505e-08,-1.3309201087935893e-08,0.09999988496228611,0.09999992694248439,-2.255460804246354e-09,1.8029878056120394e-07,0.09999990514959405,-3.6947906528931495e-08,-9.909102243428616e-09,-5.734922055213994e-08
6,2020-03-19,Simple + Baseline,-2.9542820513837613e-08,-1.0771301757590931e-07,-8.536548606577319e-06,-3.408315209156586e-08,-9.407039502287653e-09,6.272852725974996e-08,2.9707770568604773e-06,0.10000232194327222,0.09999990326581984,-6.485419219250281e-09,-3.4366259179333794e-08,-2.9399906196051852e-08,6.74242192602279e-09,-3.2853919895286257e-09,-3.739607258440011e-08,-4.272235771998991e-09,-2.1165240678090404e-08,0.09999991049678035,-1.0585881364772629e-07,0.10000230955996828,-4.8667233552861185e-09,-9.477794212370942e-09,-3.101299707205395e-08,1.0339453050727716e-08,-4.0339935393126836e-08,-1.6809006616541975e-08,-4.951229301667784e-08,-2.770682354365168e-08,-3.5193289884141916e-08,-8.863365061706961e-09,-8.587983600769975e-07,-3.007424303770568e-08,-3.1191737321093803e-08,8.112954841701744e-07,-2.8350501807944425e-08,0.09999990961360321,-9.411750596300944e-09,-2.948694816588782e-08,0.10000234061528976,0.09999992893971373,-3.0101767411961014e-08,-2.329610203259728e-08,0.09999990498738538,0.0999999359976142,-9.499722102133108e-09,8.845692892782734e-08,0.0999999231444187,-3.733464563931747e-08,-2.105726595102328e-08,-4.6726408190513825e-08
6,2020-03-20,Simple + Baseline,3.6325850039536125e-08,0.09999888815960109,0.10000018896301892,0.1000004158528648,3.9700279332935866e-08,2.185281722522894e-08,-3.993008387412223e-08,4.0391177259888793e-10,0.0999999585280924,0.10000000019399684,1.794802978838297e-08,-9.849139970472618e-07,4.864693786219077e-08,2.288002530192666e-08,1.1369333998568313e-07,2.3906445196650824e-08,-1.0068172743078013e-08,0.09999995876906598,8.108558443084957e-08,1.159337162267216e-08,6.320041449182207e-08,2.8456375621191703e-08,-1.0480743260299472e-07,3.9732538482959275e-08,1.1163480752572117e-07,5.77780319514896e-08,1.4259376925983148e-07,9.567715234463e-08,3.897017179244015e-10,3.0081194467427766e-08,-1.0558680595468216e-07,-1.3613895606846917e-07,8.933142389494926e-08,0.10000038667489584,1.0045821948364585e-07,0.10000008038460013,1.1900790089061984e-07,2.1922130817653098e-08,-3.669332105180337e-09,0.10000000888148551,1.3479313476399425e-07,2.3470487054755344e-08,0.10000000710268844,-3.877825295225631e-08,4.2578976166427964e-08,8.843460663812647e-08,-8.516832513633976e-08,1.0805261631863893e-08,6.277571052549315e-08,-6.54752059650497e-08
6,2020-03-23,Simple + Baseline,-4.4389925146299823e-08,0.09999978577224089,1.321175588886362e-07,0.10000020203989024,-1.0097088059365878e-08,-3.147111351285869e-08,-2.1389667950611347e-08,-5.6460445968639254e-08,0.1000000953003115,0.04270429296731967,-1.1217809964998791e-07,-7.013821455534755e-08,1.9620585877341018e-08,-4.033161038607085e-08,3.3998007813875694e-07,-5.515346057097101e-08,-1.9388970387432284e-08,0.09999993256066968,0.09999410774480831,-2.973382156813175e-08,1.0302146494387109e-08,-1.5198127236853026e-08,2.218964157060101e-07,2.730582113848975e-08,0.0999999530332493,0.09999992953560208,4.991525399615914e-07,4.402191100771219e-08,-1.3903061850086267e-07,-3.447004490571709e-08,-4.342024453395233e-08,1.3179467074639537e-07,1.2983145909547312e-07,1.4431880298133278e-07,7.622197796251146e-10,0.10000000588842681,1.524171782068612e-07,-9.423653215238597e-08,-1.7357411496445805e-08,0.10000007745357604,1.4536432180276616e-07,-8.928988117517108e-08,0.0329718660842812,-9.19743674828329e-08,-6.284363874381763e-08,0.024328604659180623,-1.1267419932903567e-07,-1.4067918139498854e-07,-3.0824335635394932e-09,4.808030309989498e-07
6,2020-03-24,Simple + Baseline,2.4147217985617196e-08,0.10000001121429405,2.8233979693714e-09,0.10000003378136084,3.673999907732597e-08,1.0865649316919804e-08,-1.3350777501824703e-07,4.12206207555303e-09,0.09999980342174473,0.048764111550611444,-5.453803195354408e-08,9.808193112333477e-08,1.1658859163777179e-07,2.4626997033740815e-08,1.0835297389585143e-07,2.2851715091496096e-08,-6.095595747697322e-08,0.09999981620995328,-2.256746780204246e-07,1.194776269865829e-08,6.316591588129094e-08,3.177349847820844e-08,-7.988973475444286e-08,-1.0089117443295586e-08,0.10000002374834087,0.1000000439407996,3.480473351846647e-07,5.57608656918131e-08,-7.217424848722288e-08,-1.168935779879001e-08,-1.0452597245049831e-07,-9.312002591555222e-08,-4.902608625653699e-08,-1.8312338501390807e-08,2.5225489885847428e-08,0.09999993696024942,2.3558058623074012e-08,-8.06208157017329e-08,3.5315428316223776e-08,0.09999988794816853,4.6202460574318666e-08,-2.1579380688435653e-08,0.0677509574695121,-8.702232761856082e-08,-5.822471569716475e-08,0.0834854694612676,-1.5928028792617813e-07,-8.348573433763764e-08,3.3621111408221414e-08,1.855013049741137e-07
6,2020-03-25,Simple + Baseline,7.404118612582576e-09,0.10000000431962483,1.7004541208127323e-08,0.10000000903160619,1.0565853641410173e-08,1.901985823358239e-09,-8.6690342666869e-09,5.494028326411939e-09,0.09999995895364441,2.8137360476513284e-09,1.373619092892798e-09,7.708459745399758e-09,1.5507449299174524e-08,3.113090635513195e-09,1.1095472165467818e-08,-1.27472610916725e-09,3.9050044051614745e-09,0.0999999784401991,-5.201959827558566e-08,3.3598814907654585e-09,5.50343037739952e-09,1.1072432040433877e-08,-6.570767993302527e-09,7.498641983265175e-09,0.10000001580392376,0.09999999350974342,8.203480136503871e-08,1.6767688352412016e-08,-1.6340352889122947e-08,0.10000000763032794,-1.1874428234322172e-08,-8.310972744799019e-09,2.0964925063301473e-09,7.664811813143384e-09,-1.1323809098054408e-08,0.10000001238441739,1.0677076898374269e-08,-1.2254632427552224e-09,1.4813164533225284e-08,0.0999999885872881,0.06385773327758468,-7.456863042948299e-10,4.342230745582067e-09,-9.397134265365587e-09,-8.376479863248111e-09,0.03614217195071599,-2.1665712813161576e-08,-1.1520863915571476e-08,9.026749947786914e-09,3.2681339570797986e-08
6,2020-03-26,Simple + Baseline,1.6468275382188329e-06,0.10000235971328052,1.0158948172372387e-06,0.1000008005772353,4.010672240212799e-07,3.5386937404851337e-07,-6.406164186984432e-07,0.019246302837316938,0.10000281904124939,4.273285951085233e-07,1.3662026420710781e-06,2.387807317055691e-06,9.277437174297629e-07,5.31468021143451e-07,-1.6705400074015587e-06,8.845045665020898e-07,-1.8792280155463336e-07,0.08071232942461286,3.7736040011451867e-06,4.964184223089846e-07,1.9322151832105514e-07,5.575098321378575e-07,-9.780196412136702e-07,-2.901997004809312e-09,0.1000035728065839,0.10000142985580386,-2.3136235802801106e-06,4.2180238452711866e-07,3.1006599482646354e-07,0.1000020828817464,6.880745971531493e-07,-1.021477209200355e-06,-2.525455839625788e-07,-5.844428470618797e-07,2.9430382935734303e-07,0.10000399057003626,-8.113288264127796e-07,6.405254579850233e-07,1.3816264569859526e-06,0.0999999420100135,1.9857517825629465e-06,8.185269524043474e-07,1.0719395139237224e-06,1.109979977247551e-06,6.589773343472581e-07,0.10000283970991562,2.658693707158114e-06,1.528837317733022e-06,1.2348985757553817e-06,2.014922062069411e-07
6,2020-03-27,Simple + Baseline,-2.383401305433587e-08,0.09999971336200032,2.01375849292161e-08,0.09999999460630253,1.6752920923901014e-08,4.922519984392061e-08,-1.1308002045652887e-07,3.731850506830641e-10,-2.3536430588499205e-07,5.660612531691558e-09,3.153953080098766e-08,-4.162993670086716e-07,1.6500439091000638e-07,-6.859754087708804e-09,-5.364438342758692e-07,-4.204861382475444e-09,1.9786215689760464e-08,-1.2070938982814224e-07,-3.537462126397911e-07,8.326146430582469e-09,2.2423021631273213e-08,5.791817668016991e-08,0.050749410147638244,4.0539416244324685e-08,0.10000001565615572,0.09999996642876971,-6.21729332405055e-07,0.09999995663631621,-5.8041610982391015e-08,0.0005924212207320955,-1.6368550547280747e-07,-9.594455294266903e-08,-1.5217659971665095e-08,-1.0674737257776268e-07,-1.8899071913314115e-07,0.09999996012378992,0.04866129443848356,7.724885420262663e-08,9.854418836947218e-08,0.09999979683630594,2.2764383435242127e-07,-9.60442197720163e-09,4.562692880909818e-08,-1.0328201194034522e-07,9.267174603164507e-08,0.09999989211062262,0.09999984212555377,-1.5816939947334085e-08,1.761363933886266e-09,-5.411691172417247e-08
6,2020-03-30,Simple + Baseline,-3.3850599633158234e-07,0.10000109577428487,-1.7741569975542062e-07,0.100000683769899,-4.48366935667232e-08,1.1228278374886094e-07,5.632689417977e-07,-3.899099798298767e-07,-7.324781492040199e-07,-4.801448621232414e-07,1.026501869045806e-07,0.0999994713607197,-2.390581757296615e-07,-2.2239029470489804e-07,3.177450894343739e-07,-2.8481171752940936e-07,6.462865663922288e-07,-2.7590563717202894e-07,-4.517412085419349e-07,-2.418338122478017e-07,3.8270741496337425e-07,9.280366440213454e-09,0.08462681229508015,2.699183323879302e-07,0.10000035816426214,0.10000005994644397,1.1636716265978076e-06,0.0048220565814320075,-2.697110760801739e-07,0.010545842811463197,-3.6599614107141335e-07,7.236830042088539e-07,4.850552670363966e-07,1.5829169164294525e-07,2.2523473448732617e-07,0.09999962112245422,1.2240767019796535e-06,4.036433679166602e-07,-2.7193788072994904e-07,0.10000026207405747,2.724943537065302e-07,-1.2783167931934138e-07,-8.077510044551012e-08,-4.770831801294171e-07,4.637625373838843e-07,0.10000049073515545,0.09999994714614922,-1.4779901218891741e-07,4.6272637597470194e-08,1.3464966800034933e-06
6,2020-03-31,Simple + Baseline,0.07477121601534158,0.10000010438849342,-1.2723525940982461e-08,0.09999997135861906,-2.8625100565169167e-08,-4.480041351644443e-08,-4.470314066553395e-08,-6.633671330795247e-08,7.043941972067749e-08,7.728843981776289e-08,-1.1800955701274541e-07,0.0252490135239364,2.3751635001160368e-08,-5.835926892219932e-08,1.152793493856832e-07,-3.435359444399813e-08,-5.96165193278745e-08,0.07248547198082936,-1.6397571813461081e-07,-2.6298331200705282e-08,-9.534972113321853e-08,-8.733365714549304e-08,0.0999997279869486,-4.3398035076304034e-08,0.09999978527178317,0.09999987082821982,2.167354597460358e-07,-1.9609571728718265e-07,5.008790616342068e-09,-9.859188601784959e-08,-4.2071311009986714e-08,1.047452706811995e-07,-7.5619826363446e-09,-3.749916582873621e-08,9.341693155795684e-08,0.09999984297135797,-6.677906611377403e-08,-5.669019660706619e-08,-8.028495883112041e-08,0.09999990694704858,-2.349280006805289e-08,-5.031769966715601e-08,8.832951499097873e-09,-7.440590572850597e-08,-5.920339179229077e-08,-2.1814017632235765e-07,0.09018104058210183,-3.107101181344869e-08,-7.705107075490141e-08,0.037315336796537805
6,2020-04-01,Simple + Baseline,1.9807495387694252e-07,0.09999886909206021,0.032710911332095145,0.1000001403573029,1.5185893033540122e-07,1.7951029637861937e-07,-2.704716686424271e-07,2.290573231385835e-07,-8.963315382359458e-07,0.06589678826985935,9.768396059906098e-08,-8.875650469233397e-07,-1.800403459291827e-07,2.0405645563383218e-07,-7.419198167900743e-07,1.0237725854452443e-07,-1.8783466296798664e-07,-4.970833688209039e-07,-9.358349304116245e-07,1.6366022843759263e-07,1.0860519818708741e-07,2.5678608470988756e-07,0.09999968144570524,2.1293630424267572e-07,1.6726678923462406e-07,0.09999979598322177,-8.635472783531329e-07,0.001402966152610348,-3.549512769988531e-07,2.71065032952499e-07,-7.223075025800697e-07,-7.22407635062505e-07,4.087292086349453e-08,1.4051701614286774e-07,-7.698035788716981e-07,0.10000028838653716,1.2719343259894269e-07,2.6266985396636513e-08,1.533863128790091e-07,0.09999964183671818,8.996479151890915e-08,-1.7818519607445603e-08,1.1736484953867895e-07,-2.6267386236565194e-07,-2.295769429202647e-07,0.09999949845604754,0.09999921536495737,-3.7111775845409465e-07,1.5036529562054687e-07,0.09999793362185182
6,2020-04-02,Simple + Baseline,-4.0893726815356444e-08,0.09999547192681431,0.03270173128012823,-7.689587044619939e-08,1.1687855385084889e-07,5.003033329241502e-07,-1.5332240308125485e-06,2.6484910102119913e-07,-3.0233509164673457e-06,0.10000018159671376,-4.216721666659425e-07,-2.1277356013216843e-06,-2.040040661425434e-08,4.254597674310244e-07,-2.488244059035984e-06,2.897310734439419e-07,-9.90197146122441e-07,-2.3822929495025974e-06,-2.863239042873944e-06,3.381792676313852e-07,2.9338779464439127e-07,4.523282775129789e-07,0.0999976947388528,3.0504719814367764e-07,4.5030786135393637e-08,0.09999981367722895,-2.235324567649692e-06,0.06734819790549389,-1.2930442160046426e-06,4.2192399461021597e-07,-3.03367828990675e-06,-2.0538892986798886e-06,-6.08158533024218e-07,-2.2904791526118487e-07,-2.024885597353293e-06,0.09999974333697888,2.353112307833724e-07,-5.187710774615533e-07,-1.2710404990785954e-07,0.0999973334138506,-1.0371605109782247e-07,-5.72764539337358e-07,-1.9822891922562323e-07,-1.7099047099233343e-06,-5.080400138527962e-07,0.09999705478095691,0.09999616088582497,-1.7068763902848316e-06,1.3516596148671106e-07,0.09999570586286664
6,2020-04-03,Simple + Baseline,-1.6421050740649584e-06,0.09999676989658793,-1.6163012620570955e-06,0.08566524737384702,-1.0806318079470213e-06,-2.2546875818241168e-07,7.453378627815317e-07,-9.13323698528901e-07,1.3744618425795238e-06,0.09999797076838676,-6.159168913900673e-07,-2.974604737128485e-06,-1.7271757597427755e-06,-1.060105078700767e-06,-2.4704923935003353e-06,-9.880252627956202e-07,-7.467575487000821e-07,0.02617845476113535,-3.48973945757934e-06,-4.174713518259883e-07,-1.5593574776927978e-06,-5.977594005164831e-07,0.099999503646182,3.757272171684501e-08,-6.186760085225469e-07,0.09999822331492028,-1.721684518990673e-06,-1.8283899350596722e-06,-7.657557459888607e-07,-1.4745221334954627e-07,-1.3996021092023503e-06,6.53204694203042e-07,3.8257549761562667e-07,3.8369514367300816e-07,-1.1181829665666568e-06,0.09999978040019183,-5.2867452314873366e-08,9.03884284728369e-07,-1.8383314309809373e-06,0.09999856511922757,-1.2124191648733006e-06,-8.823969232433574e-07,1.1508503723576671e-06,-7.689655276961903e-07,0.015088261335445153,0.09999861240006823,0.0731169399548388,-5.18817143813604e-07,-1.226671041405894e-06,0.0999922808663883
6,2020-04-06,Simple + Baseline,-8.014162850051024e-07,0.09999470183590078,-5.00608764577388e-06,0.09460366597294059,-7.168928540548665e-07,4.120558275952082e-07,1.5856095717248695e-07,2.68715116517801e-07,-2.2918197597202956e-07,0.09999764314980512,-1.4487844642857877e-08,-3.5648940056173516e-06,-2.189446061868926e-06,-9.104084766250572e-07,-7.826724217247686e-06,-7.240719223643257e-07,-2.5827311380559754e-07,0.0005260069852152551,-4.806684479941619e-06,-3.640731368367515e-07,-1.7412331392350482e-06,-7.236033211343334e-07,0.0999991022168708,8.789476422792282e-07,-1.1137649799417932e-07,0.0999969635095413,-6.408370947506741e-06,-2.1025082792948516e-06,-1.549044832828689e-06,1.2040774400261152e-06,-4.359221899588083e-06,-6.521875873177779e-07,1.241451058022731e-06,2.1891369910713693e-07,-4.245927545205303e-06,0.1000017092495389,3.6004201788466724e-08,2.0920443864929142e-06,-1.5368918524785892e-06,0.0999950917563907,-3.786677068362178e-07,-9.510940425100299e-07,1.7474745414708233e-06,-1.36787530752466e-06,0.0049488898388849,0.0999981231918671,0.09999832811142485,-8.078327750901074e-07,-6.298158430118943e-07,0.09998653782709607
6,2020-04-07,Simple + Baseline,0.04273348106312396,0.09999831891447794,-1.1250623469588873e-06,0.03658313255004399,-8.704197907362009e-08,-6.982367208324247e-08,8.27543714363965e-09,3.4656826572471335e-08,6.966348531606527e-08,0.09999988138536971,-4.685717225569089e-08,0.09999977895591718,-2.6029805223249524e-07,-2.076957221123495e-07,-2.705453823539851e-06,-1.6184466299651292e-07,-3.9693485366936654e-08,-1.9128683440337752e-07,-1.2018333945994472e-06,-7.524926705212218e-08,-3.3428300853182176e-07,-1.677686581233162e-07,0.09999987299350029,2.4269456377763357e-08,9.856690949083381e-08,0.09999944950309439,-1.8751883307794972e-06,-6.170823599860651e-07,-1.6191793182406713e-07,4.343826422544691e-08,-8.723041781128017e-07,-9.505547760014603e-08,-3.808337020426481e-08,-1.1793383506558636e-07,-1.1807668271457913e-06,0.08252462659329708,-1.6045046312392716e-07,1.5095324409291488e-07,6.9509294381360665e-09,0.09999885051363135,1.1167477742499662e-07,-1.7782921126193437e-07,7.897127999096417e-08,-7.65463840098508e-08,0.004949293522275222,0.09999957168454304,0.03323045454509666,-1.395630923505004e-07,-1.8165273851524516e-07,0.09999502696757352
6,2020-04-08,Simple + Baseline,0.10000014920137623,0.09999409567543424,-1.2085484684237691e-06,0.09999610629104845,-5.084283850525308e-07,-4.410384396494762e-07,-1.8140645851858624e-06,4.380802481081736e-07,1.662899309922372e-06,0.09986417453812707,-7.521979020639233e-07,4.213035452121901e-07,4.1754323450128666e-08,5.88857511283313e-07,-4.871906625743956e-06,8.206328728034368e-07,-2.259092420662048e-06,9.81295757485326e-07,1.1600221858443976e-06,5.929103665241715e-07,-1.9594935603288927e-06,-8.763024959863052e-07,0.0999935204214344,-2.0574110724523888e-06,-7.562374757036173e-07,0.09287873942796242,-7.2167324474127045e-06,-2.98933024793611e-06,1.5694360436656056e-06,-9.757903566068462e-07,3.100101427654195e-07,-3.0823283813724603e-06,-2.8199026476640377e-06,-1.9468343386792675e-06,-1.3027485248367649e-06,0.0667450554787145,-3.643998135234393e-06,-1.9326820769120105e-06,-6.07012946318426e-07,0.09999723602898787,-2.174291435648345e-06,6.194765956013219e-07,1.9641870950122149e-07,1.6882282950753176e-06,-2.4495284238376757e-06,0.09999601444834154,0.04058624443482707,5.953102960342888e-07,-1.0991318524514437e-06,0.09998675032330007
6,2020-04-09,Simple + Baseline,0.10000003369661609,0.09999810063242294,-2.819135860455489e-07,0.07096747919376935,-5.7143288924735756e-08,-2.004622925156304e-08,-1.8179665298705356e-07,1.4480196849681713e-08,2.3738238461200313e-07,0.01873891686510492,-9.467403229401881e-08,0.043471635984751685,-3.7798594745883895e-08,5.523878417336854e-08,-1.6395787871388136e-06,1.1408351485700904e-07,-2.5357512428946146e-07,0.04407497984213215,3.972009214286129e-07,1.5841502849282287e-08,0.006754597594523063,-7.11136132197506e-08,0.09999863373892977,-1.4876991589920532e-07,-8.355092774710994e-08,0.10000015762932585,-1.958925121309833e-06,-6.564913686459284e-07,2.912871742410001e-07,-7.738734841675958e-08,1.3761531145947527e-07,-4.98247223056215e-07,-3.8787174417330735e-07,-2.457363500757901e-07,-2.0753812936868518e-07,0.06674443535464769,-4.338066764243271e-07,-2.492473112791473e-07,0.07242659481521542,0.09999945499935192,-3.27852635513969e-07,9.985532098442213e-08,-4.797362051358839e-08,2.308105631814381e-08,0.06734624103756791,0.00949054758256,3.863970590820616e-08,1.3269790041276865e-07,-1.8738458740554428e-07,0.09999478146589776
6,2020-04-13,Simple + Baseline,5.7652432250271135e-08,0.0999988235309475,-2.8870043283996956e-07,0.07096518039827988,1.1720332066738298e-08,2.9065223980739676e-08,-9.799950375626892e-08,5.557513476706392e-08,-2.484231846789979e-08,0.0723073797417779,6.186123327282445e-09,0.043470746946671274,-1.9296881398060578e-07,8.70974615723557e-09,-1.2738853212065915e-06,1.6085486959487527e-08,-1.5075984229420444e-07,0.02642150089672383,1.7540355445357292e-08,1.6319175846725013e-08,0.006752783237992168,-5.058979309002368e-08,0.0800868894819515,-2.8888663282120036e-08,9.264501277008441e-08,0.09999983406617077,-1.2186803513903524e-06,-3.910907062632488e-07,1.3013181384384474e-07,4.3813920881330395e-08,-7.612542997017524e-08,-4.31581033863856e-07,-1.2355992835430997e-07,-9.893364238279734e-08,-4.065173695619372e-07,0.10000007998729704,-2.5170285015860933e-07,-3.284446863508393e-08,0.06790853252101653,0.09999942981339512,1.7432278695110553e-08,8.952585016070836e-08,1.0898114985019818e-07,6.352065111757505e-08,0.09999975879333262,0.032096912909506746,-8.7558664012199e-08,1.9519523858232363e-08,-1.0964984357160304e-07,0.09999670625222228
6,2020-04-14,Simple + Baseline,4.071787178674279e-07,0.0999882932346084,-2.67831401009912e-06,0.017262932888672148,9.091050747455872e-07,1.5866996889307265e-06,-2.740198233253687e-06,1.0580106839022199e-06,-3.6429975471503316e-06,0.10000041957899085,-5.676356781745103e-07,0.05741585462582133,3.305463734941671e-07,1.1239916011481281e-06,-7.054374118376345e-06,7.282466062143882e-07,-1.33285587072014e-06,-4.4633572528147735e-06,-2.850020424915939e-06,1.0324950312188252e-06,-4.0534099351290116e-07,1.5276559511884915e-06,0.08006740723522295,1.0375280519650723e-06,-3.1419503586972743e-07,0.09999719530637509,-8.498694616398946e-06,-1.4226847782537344e-07,-2.729446540815279e-06,1.243308555011023e-06,-5.4806567859538685e-06,-3.389154043276167e-06,-8.081052712611979e-07,2.206070266568679e-07,-5.351905151229735e-06,0.1000002312874218,4.662878439454078e-07,-2.7386450243857134e-07,0.04534927670886173,0.09999246609239841,1.575010380680351e-06,-1.6721664097922345e-07,1.566668980388209e-06,-2.037548448080048e-06,0.09999633511642313,0.099991826838016,-4.444598294817255e-06,-2.2015415967596544e-06,9.396478232912655e-07,0.0999836333588882
6,2020-04-15,Simple + Baseline,2.4253509287280814e-07,0.09999689837827452,-4.5996997758979675e-07,0.017265218705567256,2.0978102858916946e-08,-2.3199232832277459e-07,-2.3220805727647474e-07,1.3030262847758505e-07,1.6596814878154854e-07,0.10000015207908877,5.5560874903624426e-08,0.08275274759565973,1.5113973557752864e-07,5.109462065762099e-08,-2.209131464059487e-06,2.1122134208650764e-07,-2.1400256436040122e-08,-4.594203300607202e-07,-2.1965952364365585e-07,-1.3518122940190234e-07,2.1936080450983996e-07,5.1089397256597186e-09,0.10000098663998025,1.075258695993302e-06,8.820443740384702e-08,0.1000003110786808,-2.099550371622347e-06,1.8129036669860118e-07,-3.389346529912731e-07,2.2195881744559478e-08,-1.0386982542237138e-06,-7.044066069366454e-07,-3.308809316463196e-07,6.009811897941167e-08,-1.1583897781731278e-06,0.10000017154838219,7.738358313450158e-08,-7.684268729039503e-08,6.539912634771771e-08,0.09999898388120443,-2.0807335098159473e-07,-7.384745244782765e-08,-1.719887827611582e-07,7.412452054002717e-08,0.09999973604547817,0.09999827932795348,-3.3136994053223006e-07,-9.949338575394802e-08,2.9709433303905724e-07,0.09999391468669476
6,2020-04-16,Simple + Baseline,9.670229073111659e-08,0.09999721846000949,-8.261181190110327e-07,0.06643299503600428,1.5472271663583725e-07,4.045552404433983e-07,-1.094140694910826e-06,1.8732460123447158e-07,-1.2524801983000617e-06,0.10000019625152241,-3.039948382880291e-07,0.07493125824536773,4.262916640784224e-08,2.613123065256583e-07,-2.4313960624249027e-06,2.7546594936255174e-07,-5.513187428084098e-07,-1.5244865699078409e-06,-8.989201314638023e-07,1.9938432179418204e-07,2.348857497221995e-07,3.7607822545744494e-07,0.09999823422326055,2.0044279364462125e-07,-1.1307647060478005e-07,0.036684984039271805,-2.286573672101812e-06,0.021984273578623835,-7.424555186087616e-07,3.0446232539011694e-07,-2.0667038366163643e-06,-1.4604057051208977e-06,-5.672092475451685e-07,-1.7770998460606215e-07,-1.4627429322373847e-06,0.09999985031578784,1.1319935426232495e-07,-3.0663565422611413e-07,-6.577298950199567e-08,0.09999787376010259,1.1331302271933457e-07,-3.3871363654071936e-07,2.0557309395278636e-07,-9.152464417013235e-07,0.09999904630616775,0.09999762486560676,-1.3473172649207421e-06,-8.845484097526268e-07,1.525631466305091e-07,0.09999475399685007
6,2020-04-17,Simple + Baseline,7.016568535346168e-07,0.09999081454664498,0.027895366272283076,0.06642966151869727,9.176417058834194e-07,1.0355315745896983e-06,-2.3230007130664052e-06,7.770727910105325e-07,-3.7677628447689776e-06,0.1000003583328698,2.0980335883075402e-07,0.0749289615826278,4.1318754784200045e-08,1.140363994281372e-06,-6.284861239023273e-06,8.953848213471391e-07,-1.3208881744368808e-06,-2.8803550994937154e-06,-3.1523648719568692e-06,1.0523078261600281e-06,7.738261844797193e-07,1.3345271348480401e-06,0.09999533852379934,6.331862513090872e-07,6.396752936327809e-07,0.013917068354183916,-4.421435355096931e-06,0.016897071944362636,-9.035473567966348e-07,9.816782632852522e-07,-3.152292289164066e-06,-4.217572899156208e-06,-1.2372263217352768e-06,5.562855415880043e-07,-4.293302859901355e-06,0.10000037637617898,1.4163657467567244e-07,-7.14155636530074e-07,9.125130052591296e-07,0.09999525086430794,-2.1579720948453296e-08,5.1773181011623196e-08,1.7837417868554799e-07,-6.248072435709754e-07,0.0999977376823119,0.09999431730193283,-3.4647547905279937e-06,-1.0233736872336618e-06,6.388465078188132e-07,0.09998790909606
6,2020-04-20,Simple + Baseline,-1.709958220494729e-07,0.09999533136248812,0.0676974710847456,0.06642773406300205,-2.6958437465704183e-08,-1.2114170146119685e-07,-3.7420440282404795e-07,-1.4775344849905945e-07,-5.191505265547165e-07,0.09999990664876088,-1.6213070998258076e-07,0.051992395049121565,-2.2884673013840864e-07,-2.536460336275899e-07,-2.865464019970479e-06,-1.6257281301361456e-07,-3.522732168664781e-07,-3.4099135228154196e-07,-1.5229196593204882e-06,4.926943520457118e-08,-2.2183340226542145e-07,1.179650575228939e-07,0.09999843694825718,-2.5862435768609512e-08,-1.3691664366749555e-08,0.013914178092519432,-1.6330176806292979e-06,-5.394540449553698e-07,-1.0494874071813626e-07,-4.435174882278404e-08,-7.213081811300418e-07,-9.284095382435456e-07,-4.1117430204912175e-07,2.7395468392737406e-07,-1.7001156313685568e-06,0.10000009618424138,-2.777240760601662e-07,-2.8828824593157434e-07,2.7038547246080807e-07,0.09999852520781906,-8.214415731228596e-08,-9.67626328392992e-08,8.931426552647801e-08,1.457310654684777e-07,0.0999992072847288,0.09999739215102485,-7.972997948445064e-07,-2.2352104885275497e-07,-3.7471489594553517e-07,0.09999411707834958
6,2020-04-21,Simple + Baseline,-2.4457307518608678e-08,0.09999718093662018,0.06188704903361594,0.09195750387683883,-1.2499142926663243e-08,5.635397919807644e-08,-2.9146127461340046e-07,-2.1150092846629323e-10,-4.848324892781925e-07,0.09999994228259093,-1.750682225399208e-07,0.03226629197108714,-3.0207819421587723e-07,-5.707484661367423e-08,-1.7789513280970053e-06,-1.4736970777854673e-07,-2.4603386177236193e-07,-5.112470214118754e-07,-1.184692784879664e-06,6.080787548353681e-08,-1.864343584610836e-07,9.973511044229907e-08,0.09999910473475389,1.1790351642115983e-07,-2.083682290821584e-07,0.013910896543039765,-1.2916477655123865e-06,-2.091677936631223e-07,-4.585416566669413e-07,1.457014607965822e-07,-7.866270480631111e-07,-6.254194585692763e-07,-1.4239079830984624e-07,2.1444887237945178e-07,-1.2248650411314377e-06,0.10000016076470514,5.831702543718228e-09,-8.296940340642263e-08,8.427436478507422e-08,0.09999916118419244,1.367301711582073e-08,-2.718868815640188e-07,2.2755483871783437e-07,-2.2184336327568368e-07,0.09999930907958293,0.09999827595188453,-5.911532433525135e-07,-4.23479393812543e-07,-1.0875320816252791e-07,0.0999961545712139
6,2020-04-22,Simple + Baseline,-3.3508052373111917e-09,0.09999423056499729,0.06819552597836402,0.09194983353736035,2.4342570032821084e-07,2.81161712698456e-07,-1.7988900849092042e-06,0.02249027213980499,-1.5109709031693981e-06,0.09999981589956927,-2.862898378774718e-07,-6.531022174753782e-07,-1.9101231971572324e-07,1.8381035323324681e-07,-5.2472499368237525e-06,1.0808217845010826e-07,-1.6547398952645957e-06,-1.099559672766143e-06,-2.203603687448929e-06,5.504604130034964e-07,-2.7090815547921954e-07,4.917392309842628e-07,0.09999585823623594,-2.4163584119771325e-07,4.555836104430276e-07,0.017421336785376846,-3.2781566247797e-06,-1.2008061327846945e-06,-7.919026120522288e-08,2.7745760814171876e-08,-1.3302337664294293e-06,-3.0060925443707035e-06,-1.6857209492879237e-06,-2.7057190414030326e-08,-2.1082314370517427e-06,0.09999993267304141,-1.0737910947487802e-06,-1.0560294056079905e-06,2.3147665648603357e-07,0.09999724254505708,-6.994032366275314e-07,-1.4718849676494548e-07,-1.5041858635990906e-07,-2.6965394935023554e-07,0.09999812710753334,0.0999964158746542,-1.982225824411829e-06,-6.024216875694611e-07,-4.4311432085589244e-07,0.09999316412113218
6,2020-04-23,Simple + Baseline,-3.3221390878769245e-09,0.09999806167124713,0.0681961864465694,0.06647354042309747,8.52610136695324e-09,-4.246220738648166e-08,-2.42102946798309e-07,-5.604161897262703e-09,-1.7073748356334913e-07,0.10000004449260172,-4.642563393827495e-08,-1.9083389694971658e-08,-4.9987931245399724e-08,-2.2319103471376468e-08,-1.8076401372006658e-06,0.047922576245670666,-1.8510712112220436e-07,-5.607074567807165e-08,-5.518472387678e-07,-1.432932599142605e-08,-3.357704443635563e-08,2.3095045026111134e-08,0.09999903212395365,-5.196397935037421e-08,2.7185973369355815e-08,0.01742174956407865,-8.701812818150883e-07,-2.460958392310283e-07,2.9927654650865984e-08,-3.6670296451430105e-08,-2.6607602776448694e-07,-4.85521875975601e-07,-2.979983657299613e-07,1.2320813393576367e-09,-5.360877295505542e-07,0.10000003570951421,-1.6703024774872845e-07,-1.1727741474442533e-07,7.53248034702486e-08,0.09999942015947093,-7.066106046520814e-08,-2.579798488123982e-08,-4.454494068691064e-08,2.5312617839114245e-08,0.09999984610169456,0.09999894197946552,-3.009020219853579e-07,-7.024017424112596e-08,-9.280996079887683e-08,0.09999730237939042
6,2020-04-24,Simple + Baseline,-3.112445959673531e-08,0.09999910075987653,0.06819501894058448,0.046382742103413324,4.64147707163905e-10,8.519079260150054e-08,-5.661905891605965e-08,-1.683031289474467e-08,-3.351802946153128e-07,0.09999986808889265,1.933050793289634e-09,-1.843725051690181e-07,-3.343763988042403e-08,9.142022234505736e-09,-9.464983397249289e-07,0.0696130137003805,5.688994753439613e-08,-2.428328639330462e-07,-3.273882948448226e-07,-1.516581889641157e-08,7.4133864316376e-09,1.0714560045657583e-08,0.09247185042977045,6.708141224414256e-08,-2.832978364645365e-08,0.023344936831289013,-4.880449139997146e-07,-5.879504514906109e-08,-1.1751180393404292e-07,6.762928180586319e-08,-3.5358913225270985e-07,-1.4485383789567524e-07,-1.3442674753950383e-08,-1.0036425088157447e-07,-3.1827876821078737e-07,0.09999989869016457,8.101118671774837e-08,7.896730247495199e-08,-7.940474746216382e-08,0.09999963119990536,-2.363918693143724e-08,-5.2715953957144526e-08,-5.894886492968461e-09,-2.1056577747704728e-07,0.10000006798014986,0.09999951215875273,-2.0503954154562304e-07,-1.021959667750849e-07,-4.474020669151646e-08,0.09999843281535871
6,2020-04-27,Simple + Baseline,-1.4447976218135142e-06,0.10000101407241836,0.0887638152675997,-1.1595435349791993e-06,-5.983352038356538e-07,-8.198892017042405e-07,1.1817910853927506e-06,-1.8659186690187631e-06,1.080150501397507e-06,0.09999886586898657,-6.386598822679118e-07,6.207804103309198e-07,3.7692334337094964e-08,-1.626865955858083e-06,5.460409649363101e-08,0.06959768119145533,2.8638232708505955e-07,1.0320796409039676e-06,8.288899956564626e-07,-9.191211436657295e-07,-4.380665212364289e-07,-8.575223888743258e-07,0.06839061783198781,-7.682888430126776e-07,1.6511251346152958e-07,0.0732506141334255,2.7055184632019817e-06,-6.551947506158406e-07,5.440471499739178e-07,-9.125345324742878e-07,7.796129250367692e-07,1.1291801524108526e-06,-1.996901653836373e-07,-3.1883359695241933e-07,8.441448491449966e-07,0.09999919801414744,-8.474893499838382e-08,-1.561174423554884e-07,-9.708361603608582e-07,0.10000043143683665,-8.885520429709695e-08,-5.455323155158967e-07,-4.2995657379707905e-07,1.8952068792459766e-07,0.09999959030524376,0.1000007839005708,8.617921540428945e-07,-5.000801762793659e-09,-1.4228033857076717e-06,0.10000195554680534
6,2020-04-28,Simple + Baseline,-5.790966172403334e-07,0.09999660409542943,0.08875520124598542,-2.088676449265781e-06,-5.841715716246323e-07,2.891136892075819e-07,-9.241128747274682e-07,-6.415689890157371e-07,-9.336760043591083e-07,0.0999978416556895,-7.905104804683872e-08,-1.280312687829365e-06,-9.747110602444675e-07,-2.2194235623909544e-07,-4.780728307005833e-06,0.04781562940889124,-1.112965502812901e-06,-7.926240731305578e-07,-6.715722316365977e-07,1.1492583329907243e-07,-1.625920091638387e-06,-1.9344544122582106e-07,-3.430991635869074e-06,-8.81770167446691e-07,-2.83275192057651e-07,0.08751252223283365,-3.4481980397356884e-06,-1.7029235108333667e-06,-6.201424051711528e-07,0.02739446518566823,-1.3482746422803243e-06,-2.2465545910931583e-06,-1.7870756922781217e-06,-1.3878662943806822e-06,-2.5043607633738115e-06,0.09999894823548139,-1.081693552793241e-06,-3.9256179798571667e-07,-1.1063586491113676e-06,0.09999685258781996,-1.5774035862182063e-06,-4.440303658184055e-07,2.241177712348834e-07,-7.478773803878055e-07,0.09999835486232804,0.09999804173365583,0.04858462698652575,-4.3365244029799475e-07,-1.2454419271235068e-06,0.09999447253647696
6,2020-04-29,Simple + Baseline,-8.322686783898346e-08,0.09999842972830052,0.0887549142590828,0.07378299330875568,-9.022917460677945e-08,4.383763449457834e-08,-2.2715086776163682e-07,-8.17605859781997e-08,-2.0595756106121647e-07,0.0999996770146427,-1.560568341740188e-08,0.0380950494133479,-9.578249783343646e-08,-3.063661635607983e-08,-2.1875828157611354e-06,0.055169929870231886,-2.882085011695037e-07,0.018553754940260018,-1.9501683699485755e-07,-2.148267003438047e-08,-3.2175530733141166e-07,-4.099764749360672e-08,-1.1287498002662592e-06,-1.2632134898766173e-07,-7.125055324419339e-09,0.08403220321870329,-1.4322461460337766e-06,-5.403696285385073e-07,-9.385573481300261e-08,0.041629038840206516,-4.080442209837371e-07,-5.935241849731017e-07,-3.863197245370451e-07,-2.201090127525141e-07,-7.360462423763047e-07,0.09999987512037628,-2.2058936713278078e-07,-8.750705958388196e-08,-2.379326484098918e-07,0.09999895886752193,-3.0923444654314374e-07,-8.448394596946358e-08,6.82871757149712e-08,-1.6263778601964462e-07,0.09999961441594085,-2.8585154074452884e-07,-9.292491546087778e-08,-1.1606794298767579e-07,-2.5798680460580114e-07,0.09999686285304692
6,2020-04-30,Simple + Baseline,3.8189062201677207e-07,0.09999637682160369,0.06759037065904161,-2.355531556435749e-07,6.881850888519628e-07,5.010027669405611e-07,-3.0252005201134073e-07,2.2840280597384952e-07,-1.5014561065498353e-06,0.09999956150249269,5.504376376209005e-07,0.10000045878021958,-2.43554033286922e-07,6.987015799662548e-08,-3.889562787772129e-06,0.03562182244261997,2.486319386788088e-07,-3.488882609673555e-07,-1.46453176140841e-06,4.0428161856229674e-07,1.111454030600709e-07,6.110994321468034e-07,0.06277996782015505,7.867363958476798e-07,5.744469378856379e-07,0.09999873816236823,-2.385325860355684e-06,-8.401000107593248e-08,-3.735285764604064e-07,0.03402719968216248,-6.704847669709436e-07,-8.205034592103106e-07,4.215721948514864e-08,8.710687026469941e-07,-2.003970893084746e-06,0.10000062609522069,4.5881472573798725e-07,4.454457888034063e-07,6.723405549374364e-07,0.0999982025612506,6.106234310356297e-07,1.345331048543945e-07,4.238007556182879e-07,2.1222351222958922e-07,0.09999883088210061,-1.8872403061716184e-06,-8.904417924349082e-07,2.5029955064368097e-08,2.4085644953282347e-07,0.0999956786362451
6,2020-05-01,Simple + Baseline,-5.5006633393435716e-08,0.09999905867762798,1.8904774029982375e-07,7.421031840665427e-08,-4.432282554454753e-08,-4.883779820265281e-08,1.0463880909941011e-07,1.0391857820194346e-07,-2.3601647204701028e-07,0.10000006105478006,-1.2840177692123133e-07,0.019826157357383484,-4.757130829196042e-08,-7.708435273949831e-08,-9.626890936172046e-07,0.035621922491834254,1.878115878938246e-07,-1.3009857106468727e-08,3.7999799078665557e-07,-3.7881101440478086e-08,0.003175871395982627,5.372325799374252e-08,0.0627814193186552,2.001833536698871e-07,1.5250133568605323e-08,0.09999968337816853,-3.0325730708085e-07,1.0583823593673473e-07,-1.17055106063323e-07,0.03396531141490105,-2.3094117266361732e-08,1.8052242389164642e-07,1.7150660484962423e-07,4.875111652433691e-08,-5.568434171286513e-07,0.10000020663915862,1.277070397532079e-07,9.617480150752458e-08,-1.8109104786015996e-08,0.0999997820552208,2.840899672114397e-07,-8.941893041959795e-08,-9.533173868019235e-08,-7.042877516582613e-08,0.10000014428587693,0.10000088645330593,0.04463137009688866,-4.72598012772104e-08,4.1978844137890166e-08,0.09999872816722756
6,2020-05-04,Simple + Baseline,-7.47374129476901e-07,0.0999983489656421,0.049172004465834626,-1.1112341897377795e-06,-8.044486465230629e-07,-3.1736668818628657e-07,-5.31193444114772e-07,-5.567978765563441e-07,7.186707192909523e-07,0.09999966781279013,-9.114775145330328e-07,-2.0950653078057754e-07,-3.255410842932454e-07,-5.111081790712401e-08,0.002693162897489903,0.021492262536329187,-1.2251766660474982e-06,6.014196659832996e-08,5.476749850595617e-08,-1.6388834201580013e-08,-9.836517992505733e-07,-1.5762001556123888e-07,0.06277740672743216,-9.555283289263257e-07,-7.69973106208153e-07,0.09999983074209563,-1.3349690375995517e-09,-1.1908391073367292e-06,5.720725930776064e-07,0.03394698938938275,6.56080204418017e-07,-4.964539828042261e-07,-1.2392078193027357e-06,-4.995919994516877e-07,5.411788521481969e-07,0.09999941093753544,-1.5706323996401601e-06,-1.1559651430981249e-06,-4.654934260787536e-07,0.10000020173630118,-1.5523282544087296e-06,-9.44205808730302e-08,-3.330599363966391e-07,2.9333437338211417e-08,0.09999948479686803,0.09999953864516394,0.0299418132933374,-2.704219570276704e-07,-1.1605383429068802e-06,0.09999695027503601
6,2020-05-05,Simple + Baseline,-2.4894188879076616e-07,0.09999847608129415,0.04916930288522012,-3.632733120416321e-07,-2.1946850479604778e-07,6.160390861899492e-08,-3.85560809734596e-07,-1.1777403050712028e-07,-1.1550227209153384e-07,0.0999999730886722,-4.197705701576424e-07,-4.991714539560304e-07,1.601700896007187e-07,6.476019415447492e-08,0.01529987876524009,-2.0980274362707364e-07,-3.3329465781180055e-07,-7.298058380779388e-07,-5.126613497188362e-07,2.446677551791915e-08,-4.952077929697046e-07,1.7812002453233238e-07,0.06277570376351126,3.062482930394653e-08,-3.15786265284134e-07,0.09999961359919778,-1.974333951871386e-07,-4.886502521880581e-07,-5.37904395411546e-07,0.04283325641752267,-7.23558128377999e-07,-2.629411171856433e-07,-2.9801568960482536e-07,-2.839628592615498e-07,-2.4159062201814897e-07,0.0999995885948932,-2.3949377917953375e-07,-2.570681845803126e-07,-1.4452702268441094e-07,0.09999877276457782,-1.2700395459935994e-07,-2.7082866601429704e-07,-2.6719171908504113e-09,-6.553978698610711e-07,0.09999965054229236,0.09999907509514482,0.02993891133390218,-6.08306598832399e-07,-3.521854115215484e-07,0.09999793932844034
6,2020-05-06,Simple + Baseline,-1.0594825248342223e-07,0.09999930293106964,0.04916815728568118,-1.6571780746691938e-07,-1.1633287173273531e-07,-1.2823869321406353e-08,8.596707243977175e-08,-2.801950103583262e-08,3.1115347159015605e-08,0.09999976888992368,-7.318485202775224e-08,-3.811609264437373e-07,-4.490983210733853e-08,-1.6383537047802894e-08,0.09999965116131385,-1.34880643134549e-07,-1.8459056328529012e-08,-2.251831181804632e-07,-2.1989818695397982e-07,-4.519558363619647e-08,-2.8993967588006554e-07,-4.8338824637093286e-09,0.04947090454061261,-5.447480018116069e-09,-7.593282417093253e-08,0.09999984422099652,-2.1391167108867166e-07,-1.703131998764614e-07,-2.1942282488237242e-07,0.05165980843702917,-3.678825860995549e-07,-9.944343138494552e-08,1.8587298580103145e-08,-1.251563808709708e-07,-3.7987512801820104e-07,0.09999991545736304,1.401899278561953e-09,-2.1804656609118464e-08,-1.0478515276945535e-07,0.09999944508148034,-9.033743936847457e-08,-9.848921126525034e-08,6.666700344674022e-08,-2.8926873485582394e-07,0.09999998181012436,0.027879120984856245,0.021829731909100744,-2.157574918933403e-07,-1.1978233567555494e-07,0.09999864593716797
6,2020-05-07,Simple + Baseline,-1.0361112484683988e-07,0.09999878451468848,0.036863429096467865,-4.3845456976743e-07,1.0837692413871662e-07,2.7443349761963005e-08,-2.79100316899022e-07,-2.633125672702966e-07,-2.2553304274657818e-07,0.10000008991521166,-2.3390185404246623e-07,-1.9900975700161153e-08,1.9460438357418397e-07,-1.822242087612118e-07,0.09999928776100964,-3.316721672371976e-07,-2.4078527338498276e-08,-2.695378977986743e-07,-6.829760992809334e-07,-1.4160779027105044e-08,-3.1978359841978286e-07,1.9513791665786468e-07,0.04946949260726249,1.1910767668746e-07,6.280863260674274e-08,0.099999633461115,-8.112611572588744e-08,-4.994166725359912e-07,-3.659942030037577e-07,0.00976594950999085,-2.6601998629643855e-07,-2.3572798092039107e-08,-2.2820665256556724e-07,-5.05385480016642e-08,-1.0042560318122046e-06,0.09999977874458828,-1.0237607681014219e-09,-2.2733188311715486e-07,2.639761579491847e-07,0.09999864742968996,0.10000021342293931,-2.3908934122805176e-07,-7.706244001106852e-08,-2.644415952186714e-07,0.09999940181322077,0.027876380423928995,-8.347975150848572e-07,-3.208187114715541e-07,-1.4111394005885116e-07,0.0760359552772216
6,2020-05-08,Simple + Baseline,-2.9025355351795306e-08,0.09999922898963286,0.009015395449588232,0.013512108894080159,1.1580424091560387e-07,5.7403461092147496e-08,-1.740945053435507e-07,-9.286300747614304e-08,-2.414182439830995e-07,0.10000006038664859,-3.7941906311874666e-08,8.003156319470008e-08,7.097477604253733e-08,-5.922735497487543e-08,0.09999951101155947,-1.0148814491192387e-07,4.122341643740383e-08,-1.7071726218294692e-07,-4.315505071540715e-07,-5.092871934578355e-09,0.0384890016329939,6.894643691705115e-08,0.01349410108031279,9.498584443695452e-08,6.35381572648678e-08,0.0999999173243241,-3.353164151524135e-08,-1.8788963426464173e-07,-7.4715359895214e-08,0.02158191733049632,-1.2257474387188166e-07,-2.7681820044414136e-09,-5.748715584768888e-08,5.9562289695263904e-08,-4.146377802956915e-07,0.09999996594370077,1.0316936682758514e-07,-6.468323987834956e-08,1.1628804469674968e-07,0.0999992710780564,0.10000017599539793,-6.129962877282951e-08,-3.7284992273838397e-08,-3.1450808594663994e-08,0.09999982027590502,0.027875770995548853,-4.729445807981134e-07,-1.7963714894227602e-07,-1.324670728254568e-08,0.0760359808498895
6,2020-05-11,Simple + Baseline,-2.7259483272629283e-07,0.09999922537810006,0.036411061017943086,0.013510147290390986,-8.340510457902254e-08,-1.2644238584806763e-07,1.669588448119739e-07,0.014240221281053737,1.6879103709383274e-07,0.09999966144459686,-1.5972117655499802e-07,-4.745895805589765e-08,-1.1311573111921832e-07,-2.1457942664301425e-07,0.09999957323987174,-4.28853567174291e-07,7.688397894449555e-08,-1.4034345224451385e-07,-1.900446642096752e-07,6.593025967828897e-10,0.03848543842552949,1.7391934813819848e-07,0.053660399702824456,5.3052375556299993e-08,-8.475597779877676e-08,0.0999995373255544,-6.8436873471846e-08,-1.9403606925795548e-07,-4.675470014543397e-07,0.012862832272373012,-2.1542093725700617e-07,6.676203027136039e-08,-3.049094324265555e-08,-1.2377276450280127e-07,-9.70639443309611e-07,0.0999999432518838,-6.296802680851325e-08,3.4294547980846314e-08,9.415289029090384e-08,0.09999913299238623,0.10000024796272096,-3.0347557874819353e-07,7.898746778453574e-08,-2.914226514193437e-07,0.09999959086932993,-4.244770986799802e-07,0.0007018185575649663,-3.332774423912171e-07,-3.6871497373457954e-07,0.03013597222958623
6,2020-05-12,Simple + Baseline,-1.8520352610735893e-07,0.09999932451225645,0.0364100757660505,0.09999987675336432,-6.698177309387921e-08,8.089248135924107e-09,1.4872629813870432e-08,0.014238508804828168,-1.841880636865729e-07,0.0999998523114861,-1.5488853583231166e-07,-1.6048133851856922e-07,5.866511930283476e-08,-1.589165413035159e-07,0.09999959433255548,-2.702183450813108e-07,9.209125365224411e-08,-1.2385573087936392e-07,-2.9214436471062345e-07,-1.4705554605706438e-07,0.025861897262094327,-7.432786553024549e-08,0.022795430418535136,2.6568683030889392e-08,2.020391607824161e-09,0.09999983130622873,2.5396580594218875e-07,-1.6991436819106181e-07,-1.3739422960953187e-07,-8.402768120782252e-08,-2.2921945135021184e-07,1.2684030619478768e-07,3.11953986148479e-08,-7.761047425956225e-08,-3.4454788105582004e-07,0.0999997582031241,1.0549893811731102e-07,-1.0937917075435306e-07,-1.7610102299775512e-07,0.09999941795278267,0.10000003720408443,-1.1759722441156476e-07,-8.368782709816814e-08,-2.2262605828684649e-07,0.09999994169944747,-4.3748489512422717e-07,0.0007005713395308987,-1.6431737667788014e-07,-1.5950349717038803e-07,-5.044463780182425e-07
6,2020-05-13,Simple + Baseline,-8.602775884532406e-07,0.09999833142781671,-1.0288081769448636e-06,0.0999994476850279,5.067595573228709e-07,3.661134693459123e-07,2.662377430457096e-07,0.042367774642647855,-1.888236015204729e-06,0.08284276661752404,-1.8030498974913369e-07,-7.226995191064668e-07,-2.0098790203489406e-09,-6.680054186103947e-07,0.09999908636190635,-1.1216857954909602e-06,1.2762779390092927e-06,-1.6254316077106434e-06,-8.694795665115507e-07,-2.6434688805519843e-07,0.03656646933862682,1.7540800070748496e-06,0.03753714342655323,1.5160563609364236e-06,4.052431931172057e-07,0.0999991797559919,1.3491859348534064e-06,5.966925048234978e-07,-3.503912391854766e-06,7.686888882407101e-07,-2.74433419153012e-06,1.3602083964607246e-06,5.808320990657851e-07,-3.429050913806846e-07,-8.761410909800971e-07,0.09999880350147987,1.643048989928066e-06,5.911047414514771e-07,1.4323848945169676e-07,0.09999713202402617,0.10000181036220583,-1.0476933830555147e-06,-6.984769733163652e-08,-2.424096199916641e-06,0.10000011555703903,-1.0838846041046242e-06,0.0006996290354134921,-4.370049348240316e-07,-2.3637562852390962e-07,1.196658483241842e-06
6,2020-05-14,Simple + Baseline,-1.3067614828242864e-07,0.09999934750077513,-2.5220137562658e-07,0.06524865526799702,8.83065776538691e-09,3.981853085732617e-08,8.301224983401489e-08,0.10000004146864262,-3.5526273444486603e-07,0.08238999276958027,-6.146519907918073e-09,-1.6556132978129492e-07,1.1658167028936844e-08,-8.336648870168349e-08,0.09999965363339576,-1.7895658759872923e-07,2.336320268461735e-07,-3.051428625957517e-07,-2.978203492885539e-07,-8.695328834209553e-09,0.014828185578210253,2.57947068524924e-07,0.03753708670132539,1.9432445465498198e-07,5.28521587226036e-08,0.09999987988798027,5.740018882145261e-07,6.643201980281904e-08,-6.93900552999637e-07,7.476012644462626e-08,-8.096725290921569e-07,3.504103526210314e-07,1.7361642490091064e-07,-3.555722163729095e-08,-2.8265820827134497e-07,0.09999986329886025,3.328986084279735e-07,2.7896585479123943e-08,3.330468599097351e-08,0.09999902072237259,0.1000000075064781,-2.0955194830681605e-07,1.5243467193836607e-08,-4.863093500286377e-07,0.09999999136417564,-4.509478361141415e-07,1.6923401382191613e-08,-8.085806559403152e-08,-3.373147967474026e-08,5.937058471351703e-07
6,2020-05-15,Simple + Baseline,-1.2013324278446756e-08,0.09999977776910401,-4.78568690887499e-08,0.09448469098330159,3.157031988253799e-09,-1.1120922772127156e-08,3.785944638422741e-08,0.1000000067520541,-2.7349770796314162e-08,0.08903556858824893,6.543519334373254e-09,-2.5275109175424363e-08,5.938852023851783e-09,-1.303230637782371e-08,0.09999993389623993,-1.4813917018596717e-08,3.819627531206202e-08,-3.7590323547719265e-08,-8.940285181638794e-08,8.062043820803919e-09,-3.103490592065184e-10,5.588342491006154e-08,0.01648003809082821,1.6625751802601264e-08,1.0715499507182875e-08,0.1000000094910869,2.70069988066789e-07,3.547974337360638e-08,-1.2211439689184984e-07,4.967119164247263e-09,-2.2529309634774573e-07,1.1106795731278235e-07,3.4283250700781476e-08,-5.239322490753644e-09,-4.768894394678756e-08,0.09999998143125091,6.544639884517792e-08,4.105303571358803e-09,1.7816466816251755e-08,0.09999969298395862,0.1000000203512943,-3.318728998449316e-08,-1.56364039631327e-09,-7.870818665360852e-08,0.10000003364539678,-1.4017715929199234e-07,5.6468156329457075e-08,4.28766663219167e-09,-3.232173103532768e-09,3.943068218706406e-07
6,2020-05-18,Simple + Baseline,-6.270721004418218e-08,0.09999927401218768,-2.9850463724629094e-07,0.0999999716867047,-8.824292244373543e-08,7.472546745596787e-08,-3.5846532126433826e-07,0.09925091757879206,-2.559112014599571e-07,0.07956544443203509,-1.5062344765451376e-07,-3.9523379647978093e-07,1.663382512146517e-07,1.3508545309211234e-07,0.08392273591401343,-2.680479584537593e-09,-1.4964954344000776e-07,-3.779337087583263e-07,-3.002464391191993e-07,1.0830663695391045e-07,0.03726841784454276,2.0742492981313776e-07,-5.243755741320373e-07,6.455836530236343e-08,-3.502202927128662e-08,0.0999999115616964,-1.0536949388553039e-07,-1.0472260251121407e-07,-1.4654832714240092e-07,-1.3830721091929282e-08,-2.871328862323308e-07,-2.4643973659072747e-07,-7.132161166082028e-08,-8.370503642161148e-08,-1.7731183913859271e-07,0.09999990799771227,3.472307012341291e-08,-3.65042727321373e-08,2.1893327212671105e-09,0.09999943807412778,0.09999998873388617,-1.5722052280909378e-08,-1.4685860989144345e-08,-2.680066182691379e-07,0.09999979599932639,-9.611948023065948e-07,-4.5579092032590057e-07,-2.47254558247207e-07,-5.82638412318923e-08,-3.015433030900733e-07
6,2020-05-19,Simple + Baseline,-1.874224388840966e-08,0.09999961545091442,-8.56889996678658e-08,0.0999999905156448,-2.606420079158822e-09,3.013726566525593e-08,-8.606459661501466e-08,0.08707584518786189,-3.275753635741204e-08,0.09173588175339521,2.0151419522118945e-09,-1.1669345534304825e-07,2.5923016928262055e-08,3.826229771061959e-08,0.08392269550460778,1.2998498754216727e-09,-4.151140352472307e-08,-7.90638684832276e-08,-9.124337954095092e-08,1.7403051612001163e-12,0.0372682695129393,3.350265124401015e-08,-2.0523097584901387e-07,3.6573444875520517e-09,1.7513447351652835e-08,0.0999999701997559,-7.745430446472767e-08,-3.883822223644022e-08,-1.1327480523451673e-08,4.416410715110656e-09,-9.853743081687034e-08,-7.212832849459387e-08,-1.3181706338124512e-08,1.371966123310225e-10,-7.876883219685376e-08,0.09999998385307836,-2.643844543889892e-09,-1.923503025359934e-08,7.100944527009113e-09,0.09999974830929644,0.09999996883751996,2.747829055329638e-08,-3.0547471847705155e-09,-4.9644850697279895e-08,0.09999994843994402,-4.939364608914469e-07,-1.6316862207593698e-07,-5.318486414587427e-08,-1.3149665173671375e-08,-1.599033931020222e-07
6,2020-05-20,Simple + Baseline,8.215426474286313e-09,0.09999984471563189,-7.920158376553769e-08,0.10000003186292131,-1.5977931679397855e-08,-4.141434111425996e-09,-3.2929088663604526e-08,0.09999997290648668,-7.061297624780803e-09,0.09173574896684028,-2.3134211503575475e-08,-2.0159446645638412e-08,1.494517402975019e-08,-1.3145755740701754e-08,0.08392270642097824,-1.654469987839494e-08,-7.510192630825204e-09,-1.4383919516993657e-08,-4.974288991569976e-08,-1.2943575496411785e-08,0.02434255068384715,7.748272849792647e-09,-7.540799607387596e-08,-1.5394634712888772e-08,-6.040145890279328e-09,0.1000000005301266,-9.982506619334173e-09,-6.127992802943707e-09,3.672606866053597e-08,-1.7707042083738926e-08,-4.13523298471209e-08,-2.761306801106772e-08,-9.820511017337086e-09,2.1427297076251186e-08,-2.5220638215456123e-08,0.10000001256300152,2.542141472675912e-08,-9.192906300421877e-09,-8.214310375530152e-10,0.0999999279001838,0.09999998697863079,1.2099308350284847e-08,-7.728032342206398e-09,1.975107794988273e-08,0.099999989357327,-2.164509696712362e-07,-5.261096666502105e-08,-1.7313975925679838e-08,-1.1493342038238808e-08,-7.235785360837992e-08
6,2020-05-21,Simple + Baseline,-1.0630889592848316e-07,0.09999955949543086,-1.436028227329112e-07,0.08654558242272507,-1.1737528313097331e-07,-3.0910454606385893e-09,1.4283032123788737e-07,0.09999983233270963,-7.918612950103277e-08,0.0917329373541063,2.1869889111590838e-08,-2.4088824532221405e-07,-5.224428001844266e-08,-2.2183720772687607e-08,0.017566166864369584,-8.492258245241671e-08,2.0803782977801906e-08,1.4023705099540602e-09,-2.7359788673530874e-07,-4.203220322248502e-09,0.06504950808560232,4.542054359902734e-08,1.9204649961857984e-08,-1.4749281821008673e-09,-5.85308330212521e-08,0.0999999660480572,-1.0182384689635621e-07,-2.415476315080735e-07,2.98285512282761e-08,-1.5169803921163097e-08,-7.605857616303013e-09,7.585584311532997e-08,4.586559625890156e-08,5.962504774311536e-08,7.85916309335601e-08,0.09999991378904623,1.322312910818667e-07,4.726248474346501e-08,-4.64894068866623e-08,0.10000005047455542,0.09999989319718083,7.887398778435312e-09,3.1892886124672546e-08,2.107641453007147e-08,0.09999996378945362,-2.5720176690353936e-07,0.03910842425307377,-1.4568869373657849e-08,-1.2290211542931687e-07,-5.835474112556909e-07
6,2020-05-22,Simple + Baseline,-3.232855934902321e-08,0.0999997919864138,-6.192005579605406e-08,0.06796915674723929,-3.681135925972835e-08,-3.733297298925573e-09,6.25455096808183e-08,0.09999994280740898,-3.919600079353231e-08,0.0917325659190723,8.997294105190829e-09,-9.042052966387888e-08,-1.1009559915747415e-08,-8.18509277970446e-09,0.010985922689833009,-2.9515098529870716e-08,1.157136250840073e-08,-3.4204220195470944e-10,-1.5196201496538115e-07,-2.150704508009046e-09,0.07844660245226537,1.9967856870422572e-08,3.05484407019281e-08,1.729476453821916e-09,-1.3650011065065264e-08,0.09999999706531662,-3.431561811670202e-08,-9.851513826045015e-08,1.578047949353499e-08,-7.601898505803006e-09,-1.631523338975674e-09,4.054070632657059e-08,2.1926444974873132e-08,1.769294769898762e-08,5.804746051911628e-08,0.09999996929268092,5.736787360469211e-08,1.1644523894409435e-08,-1.6525482094317726e-08,0.100000041053616,0.09999997714378284,3.46172608027363e-09,-1.6582013950262785e-09,5.557837397397391e-09,0.10000000536090861,-1.2506011904322742e-07,0.05086678659540178,-5.926658829158069e-09,-4.337312834375323e-08,-3.1067114588576595e-07
6,2020-05-26,Simple + Baseline,-3.6705472552607195e-08,0.09999982488977056,-1.267454159705964e-07,0.005061809279975916,-4.5460615367784014e-08,2.994056639849616e-08,4.3911486554054135e-08,0.09999997307948044,1.7018115825251152e-08,0.09999985864060162,3.4896310754354217e-09,-1.0630210685338842e-07,-2.2191523357694997e-08,1.0521354329453796e-08,0.010985459120697011,-2.5685767260660064e-08,-8.153626867402569e-09,-5.8311027551621686e-09,-1.3066152994491914e-07,-4.6216551559653594e-09,0.09999991140513284,-3.24051203483902e-08,-8.472334836447786e-08,-2.1566121026602845e-08,-2.630808363141766e-09,0.0999999595084445,-1.623201801117677e-07,-1.083685032679692e-07,-3.411143274552788e-08,0.0007578823545382562,-3.559192656417298e-08,-2.985396390244997e-08,-2.861561051225594e-08,-3.857234918088303e-08,-1.2807399656242056e-07,0.09999996623343914,-1.1967400102613759e-08,3.73928367614459e-08,-6.022050651392819e-09,0.09999986703348872,0.09999983724926574,-9.704801953072996e-09,4.295816548709963e-08,-3.324602219069782e-08,0.0969724210008343,-1.833693694232705e-07,0.08622512107692819,-4.10739269569934e-09,-5.115415148679109e-08,-5.558370623632737e-07
6,2020-05-27,Simple + Baseline,-9.619136139156354e-07,0.0999959187691696,-2.4310878285056386e-06,-1.9866102163650466e-06,-5.868609810863609e-07,6.111143039904681e-07,-1.5263820168281216e-06,0.09999972879075564,-1.2161324641302859e-06,0.09999866019945713,-1.1326260884983776e-06,-3.1413828977505904e-06,5.407591328638569e-07,3.5227483421609815e-07,0.010974149693137045,-7.466335157998921e-07,-8.50923682200232e-07,-1.5739137762545955e-06,-2.4657709172139648e-06,1.3185946322810762e-07,0.09999784078723149,1.5193958298938892e-07,-2.942150471118684e-06,3.043508951965771e-07,1.4717397004665507e-07,0.09999850702645816,-3.2418301769381426e-06,-2.756602250444382e-06,-1.2775318874118018e-06,0.031056103163163054,-2.3611784507338146e-06,-1.7824761244681774e-06,-1.2910653960632103e-06,-1.1076500001132916e-06,-4.8759357947772715e-06,0.0672407965575216,-2.0071782913659957e-07,-2.1154404452075245e-07,2.0980502637049322e-07,0.0999920725619209,0.09999844124358444,-6.655558886563525e-07,1.4730206898130894e-07,-2.328120178769458e-06,0.09080949496819964,-7.116595869765388e-06,0.09999487792009239,-1.325201765425995e-06,-1.0373511754104233e-06,-6.009501207719323e-06
6,2020-05-28,Simple + Baseline,-3.006491429634851e-07,0.0999970843257738,-2.4346347451661346e-06,-8.680070484901622e-07,-4.2155108113109864e-07,3.008670120734522e-07,-1.0295587668578572e-06,0.09999915103485386,-1.0181636082128864e-06,0.09999940859162702,-6.611186663991584e-07,-1.6097529293846962e-06,5.809493034595489e-07,3.0990890264337493e-07,0.01637557670120569,-4.0008398465148297e-07,-1.7740338866130503e-07,-1.5033764027502004e-06,-2.0677317061623056e-06,1.4183275402607565e-07,0.09999871079227433,5.629075521701457e-07,-2.143491707036388e-06,4.0607415106687304e-07,-2.019958227311209e-07,0.09999923333497016,-1.466446705237993e-06,-1.1664486746620663e-06,-1.0219547721659092e-06,0.028646386546150017,-1.5238826045892735e-06,-3.72703915538523e-07,-4.572199123220401e-07,-9.32678745841091e-07,-2.1752477351852855e-06,0.06722791051974836,2.371916295894977e-07,2.920424765527936e-07,-1.8298011735125187e-07,0.09999476152517095,0.09999974914796235,-4.2359821991951944e-07,-6.453381250599711e-08,-1.5989503501143054e-06,0.0877994534522656,-5.147303696569233e-06,0.09999662941365564,-1.0136911997956774e-06,-7.282077540700166e-07,-3.762562710908074e-06
6,2020-05-29,Simple + Baseline,-1.7217124652094534e-06,0.09999846726288746,-1.2983329969044065e-06,-1.347042933957222e-06,-1.4834071803033698e-06,-5.204414850065554e-07,1.4649760839940823e-08,0.09999856321739688,5.369774099740346e-07,0.09999912057221083,-1.897085638078572e-06,-1.0901696076417174e-06,-7.687132900089681e-08,-5.021791221905539e-07,0.043831073440357506,-1.5509411662495671e-06,-9.262585603033392e-07,-6.893607071059689e-07,-5.519782819294343e-07,-5.99382698296604e-07,0.09999770290442542,-4.4114885625303355e-07,0.0008484178308853767,-7.354296798140862e-07,-2.3026412958969536e-07,0.0999990766040858,2.1264749464278735e-06,-1.5406736094473111e-06,-5.948639774139992e-07,0.028629938860548407,-5.015117824629917e-07,-2.8204373113030583e-08,-9.998505877091575e-07,-1.0051073833197548e-06,-1.4816064821586717e-06,0.04726902279049256,-5.139804465510002e-07,-9.066627145677793e-07,-7.401304585064827e-07,0.09999742396525807,0.09999871199432075,-8.676591108124719e-07,-2.688375502594133e-07,-1.2105031439278987e-06,0.07946601115159413,-2.919985582559193e-06,0.09999792628819362,-1.1770820615847856e-06,-1.3697080649539417e-06,-2.352150819199757e-06
6,2020-06-01,Simple + Baseline,-8.848884081570407e-07,0.09999882120941014,-9.67187693905831e-07,-9.983119802315276e-07,-8.039400701393038e-07,-3.0127452410888873e-07,-3.662644615474117e-07,0.09999928755998612,5.2781606878564525e-08,0.09999954590438183,-1.007163846675537e-06,-7.785705973954365e-07,-2.544063779508831e-07,-5.110626830715692e-07,0.043828415173609164,-8.229755998529215e-07,-6.306064692561378e-07,-5.231659272378277e-07,-7.477195209804176e-07,-2.9734242891492963e-07,0.09999870509294016,-5.317174908045423e-07,0.0008470260717145613,-5.666684494983694e-07,-2.287507215376145e-07,0.09999956068179425,5.876783439998717e-07,-1.3120881131790218e-06,-4.753033521714167e-07,0.028625441348099828,-6.79262395944799e-07,-4.4644591518173397e-07,-8.441757103770978e-07,-7.081704999633633e-07,-1.1346680521354654e-06,0.04726670002291762,-6.327742269755519e-07,-6.211735332516922e-07,-5.319741716093725e-07,0.09999839501160501,0.09999924220564006,-6.520756582367931e-07,-2.602332348535917e-07,-7.73158668209804e-07,0.0794656294456844,-2.134606804346939e-06,0.09999874046738505,-7.763015702622883e-07,-9.73193463501662e-07,-1.96955052115563e-06
6,2020-06-02,Simple + Baseline,-5.076727790323635e-07,0.09999915458366412,-6.63473673362626e-07,-2.8783306312686563e-07,-3.1570608608605506e-07,4.563400958452641e-08,-1.9041618901423354e-07,0.09999978904468367,-2.5224292255433346e-07,0.09999978177156618,-6.270107529381951e-07,-5.484320764270546e-07,2.0383506571797935e-07,-3.8678493730370476e-08,0.045748563527892486,-5.058777853540778e-07,-1.86669820216764e-07,-8.107151207949349e-07,-3.830844953831037e-07,-3.8821419726741926e-08,0.09999920982579151,2.3814203196454677e-07,0.016884329467752236,1.5616762555272853e-07,-9.71180953051648e-08,0.09999958291415223,3.6839999788008166e-07,-4.206016924403377e-07,-9.100908563357434e-07,0.025187553003670742,-7.870543717246945e-07,-2.1264737596152906e-07,-2.662534261971345e-07,-3.6840915073578924e-07,-9.259848363663061e-07,0.0670520807535313,1.347777706691361e-07,-3.2726019555572246e-08,-1.1885530808141343e-07,0.09999842244222866,0.10000004378055756,-3.5505976045617365e-07,2.4019267315631602e-08,-8.258807123645335e-07,0.04514620621715481,-1.5769311696417022e-06,0.09999866800155452,-5.928354016083688e-07,-4.2201593621346023e-07,-1.2847784535725092e-06
6,2020-06-03,Simple + Baseline,-3.426166937357266e-07,0.09999928932288799,-4.871076157470632e-07,-2.3915282550642596e-07,-1.9999691237862676e-07,7.518509602561433e-08,7.373120374649412e-08,0.09999981123295698,-2.0012307283491558e-07,0.0999994870741505,-2.350927253179958e-07,-4.0759065036565786e-07,2.9028930413586775e-08,-6.13512484232114e-08,0.04574712793956799,-3.8222051386346205e-07,2.7501769429216964e-09,-3.6013234817727794e-07,-3.6651154873637653e-07,-7.800672269230948e-08,0.0999994592649335,7.319532908868591e-08,0.04015239181127241,1.0606143965981044e-07,4.155434003729721e-08,0.09999966279588073,-4.263995759114445e-08,-3.112994226360491e-07,-4.308285612486493e-07,0.031576612197861925,-4.4205431685119977e-07,-9.718209755418269e-08,-7.275199050012222e-08,-1.6019812146391593e-07,-8.797503662104491e-07,0.06391581941956215,1.8396697937357872e-07,3.676041985999101e-09,-5.699158303983526e-08,0.0999988587762743,0.09999986390189465,-1.857558239779225e-07,5.0365817253908886e-08,-4.5312205346632743e-07,0.018621340306141484,-1.1474388526048179e-06,0.09999912232029697,-3.09299769064485e-07,-2.2487948761677395e-07,-1.306824300536423e-06
6,2020-06-04,Simple + Baseline,-1.3298874459045976e-06,0.09999926613237346,0.0020325405882639135,-1.085878301012736e-06,-8.481636395961206e-07,-4.219350670769393e-07,-2.2210607625127555e-07,0.0999991123988148,5.009516039777027e-07,0.09999933481367652,-1.2975688069024166e-06,-5.779860175173762e-07,4.227544419087519e-09,-4.354195600659801e-07,0.04574598450025013,-9.473824822948478e-07,-1.0984092745271773e-06,-4.3241497856673984e-07,-1.9388699620135538e-07,-2.96391531603287e-07,0.09999795975055056,-3.0239757348730175e-07,0.04015047164738317,-6.679340341955039e-07,-1.7734185480638823e-07,0.09999936508118992,3.300693727831085e-07,-1.806641399853374e-06,-2.563840450453406e-07,0.0315641736618564,-6.747167463347787e-08,-3.746781073630157e-07,-1.353590948539917e-06,-6.437073614874134e-07,-1.110971742865921e-06,0.04732959665016264,-7.210702100530458e-07,-7.623872229442078e-07,-5.109767000526933e-07,0.099998831291507,0.09999885789973327,-6.493640577058431e-07,-3.258384876479171e-07,-7.431416421322362e-07,0.033209998664782,-1.5803736062658452e-06,0.09999853185390653,-7.889471938153292e-07,-1.2571696769555534e-06,-1.5730301361792975e-06
6,2020-06-05,Simple + Baseline,-8.718785925229612e-07,0.09999919755921685,0.032146423662004354,-7.734028569746634e-07,-4.4965984384295197e-07,-1.5222290909530504e-07,3.350481455126617e-07,0.09999919936661195,-2.593259760956124e-07,0.09999884458365521,-8.473931441616723e-07,9.666016283913187e-09,-3.977161827946959e-07,-4.368385941699247e-07,0.02255788524808009,-1.2930253673229673e-06,-2.2980674552327045e-07,-8.088005827149625e-07,-3.3878045365860313e-07,-1.982244872967656e-07,0.09999827731706934,3.4388317730437596e-07,0.03617364461635288,-8.762583905352481e-08,-2.8661755679819243e-07,0.09999910147537887,1.1536300402974494e-07,-7.625675425314825e-07,-1.1093515227670898e-06,0.04010379458487562,-4.7136149055604654e-07,-3.3649265742938844e-07,-5.853931029807943e-07,-2.594902464476603e-07,-1.7827051644361258e-06,0.035843558565851294,1.681186950753357e-07,-4.341914134514193e-08,-2.698818562616881e-07,0.0999984922169772,0.10000006649092615,-6.052757803931523e-07,3.370750692144551e-07,-5.829869079664179e-07,0.03320145600767049,-2.592930900931086e-06,0.09999906372797815,-8.591944426624711e-07,-1.021455284683394e-06,-1.5932332060968595e-06
6,2020-06-08,Simple + Baseline,-1.5844553481138087e-06,0.09999974064607933,0.032139647444061996,-8.988729091794984e-07,-1.1666348186980823e-06,-2.1419698747011425e-07,1.47091021357774e-07,0.09999947553925466,-1.8154181655066328e-06,0.09999779008967931,-1.7958059252721756e-06,-2.0992917064690934e-06,-8.132102769872413e-07,-6.031745556913548e-07,0.01577145540984055,-2.3729781590351015e-06,-5.997049844571368e-07,-2.655442874785583e-06,-5.774474798391054e-07,-3.6416206224997484e-07,0.09999694439138372,7.572779543130915e-07,0.024720286136035965,2.357874647852242e-07,-1.1079278254562488e-06,0.09999902715039159,-4.431386683805342e-07,-4.42774527750796e-07,-2.848012680272831e-06,0.03632302571764349,-2.104114611892936e-06,-1.4151757998237675e-06,-1.0784088183260862e-06,-1.6261797633241432e-06,-4.9114992393383285e-06,0.05791252717082435,5.623426635959224e-07,3.155464592902103e-07,-1.278603773967524e-06,0.0999951099632033,0.1000002640965651,-1.5227392464398938e-06,2.6705847864574403e-07,-2.9907034317463015e-06,0.03319556728773879,-2.9776445422549193e-06,0.09999748358089368,-2.7719776547921905e-06,-2.2549303024393575e-06,-3.280978280162704e-06
6,2020-06-09,Simple + Baseline,-1.6178580679756062e-06,0.09999907359862545,0.03213284865099231,-1.3033494480334117e-06,-9.106887875231839e-07,-1.785239710559817e-08,2.616126014156061e-07,0.09999957407340078,-1.5999074134078928e-06,0.09999767033866472,-1.37828553709973e-06,-2.211876418314748e-06,-6.100173779833212e-07,-6.371479081832648e-07,0.015766170249635517,-2.1293689324988912e-06,-3.2245229212807597e-07,-1.851783263932626e-06,-1.260523848377165e-06,-4.6998895996080945e-07,0.0999974109070325,1.9405451509423193e-07,0.012125210882912945,3.4160358017410747e-07,-5.603575544816169e-07,0.09999906475291179,-1.5001821721926318e-06,-9.086471492559382e-07,-2.275185796971095e-06,0.03389730015335609,-2.4875705325599463e-06,-1.097613933940105e-06,-9.628258066121377e-07,-1.522822481899912e-06,-5.125684775424619e-06,0.06361751392569803,6.745417808250912e-07,1.773571484113457e-07,-9.299872824655084e-07,0.09999455106533409,0.09999965153855739,-1.5082130697763289e-06,8.75036686285382e-08,-2.6157768151549938e-06,0.04252505694344169,-3.009761712893264e-06,0.0999968366298326,-2.147181887335041e-06,-1.7789115867372038e-06,-4.895699704328122e-06
6,2020-06-10,Simple + Baseline,-6.305327414180778e-07,0.09999970293175296,0.0170801757275292,-5.821172296308413e-07,-2.019070110481771e-07,-8.177519289534679e-08,5.718736397451227e-07,0.09999971436409237,-2.791191835951362e-07,0.0999990835965069,-4.330100393755089e-07,-5.08115274520332e-07,-2.0720825435908705e-07,-2.692884330383119e-07,1.933212135438206e-07,-8.018710000023704e-07,-4.825931608840482e-09,-4.238528273033663e-07,-2.7132940195382234e-07,-1.7505397338892352e-07,0.09999888475329524,6.824012824300211e-08,0.038539855424336994,1.1495311961839024e-07,-1.0186496321279395e-07,0.09999969974515784,-2.649383951114008e-07,-2.2998734538870796e-07,-5.563379644206174e-07,0.03271743109779098,-6.893494334128667e-07,-7.077964207200611e-08,-2.5992425680084953e-07,-3.1699225726689803e-07,-2.2305900124191285e-06,0.05105677189849297,4.213867978686525e-07,1.6941133322116798e-08,-1.9509894212607952e-07,0.09999757656570922,0.09999997216599336,-4.298693003680634e-07,6.371737265027583e-09,-7.278337152340616e-07,0.06062699047438085,-1.3774002140793872e-06,0.09999876973972605,-6.082725126396691e-07,-6.595319041935799e-07,-2.4324545350217246e-06
6,2020-06-11,Simple + Baseline,-2.0822611364361334e-07,0.09999927934472475,-4.89389753171864e-07,-3.3901540977387264e-07,-2.261456989293514e-07,1.4950935938214497e-08,-4.921796453915105e-07,0.09999971500492014,-2.3400880853517295e-07,0.09999972861062945,-4.135487524085978e-07,-5.604502554989918e-07,3.166525301168304e-09,2.9245236817054103e-08,0.062229994161222914,-4.1227681285298967e-07,-2.4826537809726787e-07,-4.851500814484214e-07,-6.597284389467229e-07,4.0076773418977945e-08,0.09999931836436508,1.9693255185602422e-07,0.03853814698726193,-7.037975992258785e-09,-1.2491409521831208e-07,0.09999956523613412,-5.71379533458341e-07,-3.163940749124573e-07,-4.3099320877787394e-07,0.010618038417838871,-4.073019351853876e-07,-3.247221074702754e-07,-3.0170883838882384e-07,-2.2348811093354256e-07,-1.2740002952274348e-06,0.028008692901285333,-1.9777490169203057e-07,-3.0543226523801386e-08,-9.506909110040636e-08,0.09999835668974269,0.09999996563262487,-1.9026802246513713e-07,1.3633081555134258e-07,-4.3094280296843015e-07,0.06062384157175579,-1.5698259177129585e-06,0.0999989711284902,-3.801534650715609e-07,-4.2979272008657736e-07,-1.9544430260565482e-06
6,2020-06-12,Simple + Baseline,-1.512534432393018e-07,0.09999818567516928,-2.2954248584320044e-06,-8.861574095796814e-07,-9.30298423190693e-07,5.823420045859794e-07,-1.6504212842415287e-06,0.09999953078988046,-4.7649756245840275e-07,0.09999875280302048,-1.5719185320369897e-07,-1.1223853355553528e-06,-3.306600495025904e-07,9.225575164889893e-07,0.02292119905596523,0.021631350498098875,-9.311854332363591e-07,-7.675065817585098e-07,-9.687682333219354e-07,3.009142547615418e-07,0.09999835989007548,1.1334871722548755e-06,0.018880201007697543,-4.0645536958872155e-07,-1.1637113817418887e-07,0.09999996715405446,-3.656818103861078e-06,-5.042804948795869e-07,-5.674559064591911e-07,0.05154039846597169,-1.248412793194973e-06,-3.185792701065459e-06,-1.2635128083976959e-06,-1.3946527229968358e-06,-1.3223915263198055e-06,-8.597072518572364e-07,-9.173162622430253e-07,7.545273326852283e-07,-5.437239333604897e-07,0.09999672060102623,0.09999857694589043,-1.679779149241722e-07,1.0219824527496934e-06,-1.2052761110437412e-06,0.08929397499402976,-2.613640484419552e-06,0.09577555134642589,-7.736238536080967e-07,-1.3218301722805807e-06,-4.718485606142299e-06
6,2020-06-15,Simple + Baseline,9.012330063385415e-08,0.09999939212492961,-4.7529670084477123e-07,-1.4739264383004954e-07,-1.4937322737547014e-08,1.195512507159641e-07,-4.162049957492761e-07,0.10000009381143538,-9.942087588794172e-08,0.09999991832444192,9.035582349463315e-08,-9.626953602471944e-08,-7.858410213219194e-08,3.347941651049047e-07,0.0073134972110268145,9.889746606266502e-08,-1.7513270679269542e-07,-1.7873540362814846e-07,-1.9608509525043847e-07,1.320038135227312e-07,0.09999977295808826,4.005153626439877e-07,0.09999993247870809,3.122677638408254e-08,1.577335212296694e-08,0.10000011070078767,-1.5248321970357442e-06,7.554756109309429e-08,-1.2529439345391914e-07,0.02252548436569727,-2.885711888443428e-07,-8.499944864944611e-07,-2.3250647987028532e-07,-1.232348941447125e-07,-3.813839867961022e-07,2.6514310584929704e-09,-6.839034539378468e-08,0.02323708372550249,2.7108021716476696e-08,0.09999892629919775,0.09999988195427562,4.521445324321904e-08,1.2609922011603433e-07,-1.9175897911721757e-07,0.10000002222059366,-1.0163288318263691e-06,0.04693343435234108,-9.609807929225176e-08,-1.3965831027955704e-07,-2.2257423938046454e-06
6,2020-06-16,Simple + Baseline,-8.513340648248658e-08,0.09999989511169252,-1.7045824694387e-07,-1.5297758204210162e-08,-8.110861862060317e-08,-4.201242966508786e-08,-1.1073726824432639e-07,0.10000000501952032,5.174184998795883e-08,0.08001585646420938,-8.444473918840206e-08,-5.36658637684678e-08,-3.76791128707342e-09,4.5700558450890624e-08,2.3369222244301092e-07,-5.461263733273182e-08,-9.678074342133153e-08,-7.202445345968502e-08,1.5140467785266694e-09,-2.9362468116501383e-08,0.09999985023990939,-1.175594710795645e-08,0.09999998777882789,-6.278867219093947e-08,-3.629779703465425e-08,0.10000000530495871,-5.908301475780998e-07,5.237098711792045e-08,-8.413878829254311e-08,-7.31109427935272e-08,-1.0034001845588844e-07,-2.5216112373156743e-07,-1.3079150551685175e-07,-1.0903559611829961e-07,-1.690900759811363e-07,2.8692394731868928e-08,-7.85449970484166e-08,0.06992828247567678,-7.42981244227448e-08,0.0500602586082574,0.09999992805441596,-5.476865228592177e-08,-1.3824173115281015e-09,-1.0927010674891428e-07,0.10000004281636073,-4.5037902034369106e-07,0.10000004793197738,-1.1467441497107591e-07,-1.0284872833443114e-07,-1.0688505800570573e-06
6,2020-06-17,Simple + Baseline,3.0377588283454265e-08,0.09999612277648638,-9.64107369604647e-07,-1.775825627861085e-07,-2.4886671961723517e-07,2.6300603443153e-07,-3.5393080285586193e-07,0.09999944597253305,-7.491340743688966e-07,0.09999872910415862,2.538170685430667e-07,-1.9941375885149944e-06,9.604186713804949e-09,3.765973221931606e-07,-1.6883434786820762e-06,7.916903269315346e-08,0.01126655787643121,-9.472466695133279e-08,-2.3340442742456424e-06,2.3937152686943796e-07,0.061505926512437956,-3.331773185383711e-07,0.09999873079963509,0.024046917226444316,1.8498723546726643e-07,0.09999898539568272,-2.229499217437875e-06,-9.075779977299858e-07,4.3789058204273245e-07,-4.2482746998409536e-08,1.3416238826388931e-07,-2.579146673984772e-07,2.1031468236928273e-07,3.9446995005959596e-07,-6.667799606478247e-07,-1.9896057277830974e-07,-3.433135602063404e-07,0.06219933168894053,-9.849703984570632e-09,0.06508283654282777,0.09999840882917618,3.616590802700353e-07,1.6029342122553052e-08,2.6219707230253865e-07,0.07592627885190667,-2.1921799200563103e-06,0.0999992889339855,3.0677639023113065e-07,1.935861915422693e-07,-5.508820610821506e-06
6,2020-06-18,Simple + Baseline,6.203416573896645e-09,0.09999831164955987,0.0018577424442620565,-4.2854010985151176e-08,4.141508946568814e-08,5.5307214290646514e-08,-2.2387747165025955e-07,0.09999990934190336,-3.258143906346766e-07,0.099999875421649,-4.266918105170188e-08,-5.115732627187158e-07,1.363850392502548e-07,2.014267882989424e-08,-7.91779094292353e-07,-7.042069727306751e-09,0.03928269597268826,-7.230164114142605e-08,-1.080379892019143e-06,2.878013596985166e-08,0.08725328724623498,8.407701924925222e-10,0.09999949173323747,9.750579330624187e-08,2.3477742197000882e-08,0.09999976373912597,7.870717619518838e-07,-3.635522651235717e-07,-1.4463356498452363e-07,3.953626960489059e-08,-3.829393243808625e-08,-3.3226155168868236e-09,4.3581066574846976e-08,7.110461549960504e-08,-2.974980289105107e-07,-9.07382020827526e-09,-2.8192877387177242e-08,0.019999279045640715,8.1052485125727e-08,0.06508252176508787,0.09999986075086983,3.1529697180075226e-09,-3.850855755741389e-08,1.6817262301325627e-08,0.04153627280538369,-1.275405403479976e-06,0.0999996212529017,7.26718266008682e-08,8.202183267262544e-08,0.04499505639466697
6,2020-06-19,Simple + Baseline,-6.717253043034296e-07,0.09999867676385578,0.009810668761130159,0.0648319199406945,-6.538199544212667e-07,-1.295996399322176e-07,-4.339808336198167e-07,0.09999946924011971,5.118818132621411e-08,0.09999936034336838,-9.25649228534546e-07,-6.070582642819791e-07,-3.0208166193257073e-07,-3.978570050623306e-08,0.013738792275309848,-7.563771680588141e-07,-1.0266677027073254e-06,-4.975352720605298e-07,-1.4821705796983578e-06,-1.541766829921705e-07,0.08725002089679154,-6.956596491782974e-08,0.09999876552379368,-5.371119942748633e-07,-2.1746991197812971e-07,0.09999910108183523,-3.971162854096289e-07,-5.502124183312356e-07,-8.105298712361834e-07,-3.286490691885058e-07,-1.3937519624311197e-07,-8.77918235106817e-07,-8.181328442419927e-07,-6.362895782214615e-08,-1.4996589598126196e-06,4.2778768985501695e-07,-6.928466854094364e-07,-5.234654803824001e-07,-2.9955959259581353e-07,0.08286819171218045,0.09999931931139296,-6.038880690988197e-07,2.881692645958622e-07,-3.8863599733583417e-07,0.041529533336241806,-2.6425567534168355e-06,0.0999986894398067,-7.173415443507445e-07,-6.644537941600218e-07,-2.7475924674083665e-06
6,2020-06-22,Simple + Baseline,-8.707888690202187e-07,0.09999878928610777,0.009803840432110612,0.09999952345357169,-1.0092740800081927e-06,9.456121856778032e-08,-1.8145084202538596e-06,0.0999993172315344,-1.0098975974755661e-06,0.09999969384710487,-1.5091730111256365e-06,-2.227030083428573e-06,1.8994663535711253e-07,4.911402245979571e-07,0.04518261130112607,-8.564336412272081e-07,-1.2863198781349802e-06,-1.618339280536548e-06,-2.4354562700332933e-06,-1.1192952428178958e-07,0.054582612335940486,2.369625463961594e-07,0.09999804941131502,-2.239553649113873e-07,-1.6225993599402834e-07,0.09999941760739041,-7.296301091697239e-07,-2.0532605598904388e-07,-1.541807770494717e-06,-4.417123372742306e-07,-1.2343088304708087e-06,-1.7867744656203938e-06,-1.3431535133071491e-06,-1.2770619932747117e-06,-1.9110816019396372e-06,-2.632712726188806e-07,-1.9335929310445585e-07,-8.529305987441695e-07,-7.13346272754004e-07,-1.908605845808042e-06,0.09999912358545458,-9.971581720099425e-07,-3.386216951298787e-07,-1.7910043593578095e-06,0.09048114931037159,-2.729404490903818e-06,0.09999548071877461,-1.7250583650798668e-06,-5.102167096600561e-07,-2.9849679103587727e-06
6,2020-06-23,Simple + Baseline,-1.7896016917576925e-07,0.09999957425210239,0.033071138576331933,0.09999992652982953,-1.7648700278048476e-07,4.3835508340208055e-08,-4.342056425385011e-07,0.09999981454457656,-1.918645375920859e-07,0.09999990167576837,-3.083741446706703e-07,-6.026939885181802e-07,8.372605881884518e-08,1.464095164702103e-07,0.04518271152181451,-2.075011296998475e-07,-2.2169550507771753e-07,-3.326158300840762e-07,0.017107691236610222,-3.2413078980057115e-08,0.004828560482243445,8.612955072203005e-08,0.040306997196270324,-1.8309867813613564e-08,2.519229738002215e-08,0.09999992542736025,-1.7247115888555847e-07,4.258501393748256e-08,-3.4785343501994704e-07,-3.962127526515589e-08,-3.126219208236813e-07,0.04417207154165239,-3.4478136473942913e-07,-2.2117894448518651e-07,-6.685332303433482e-07,-6.284519560319175e-09,5.73243738130018e-08,0.015342342380626222,-9.683457319343493e-08,-6.972333753147195e-07,0.0999998132272563,-1.9137839480558525e-07,-9.276272272987971e-09,-4.0660230421379725e-07,0.10000004732451781,-1.2701730668855779e-06,0.09999837973841959,-3.5344811380868005e-07,-8.852550312080629e-08,-1.449976665423045e-06
6,2020-06-24,Simple + Baseline,-1.1495405091520177e-07,0.09999491836201983,0.017174440028682923,0.09999949438156108,-1.2930026614711754e-07,6.920947973828498e-07,-4.116671291065562e-06,0.09999767940124867,-3.463865444126663e-06,0.09999994154965948,-1.6901156544199214e-06,-2.3468323890812535e-06,1.563382109532088e-06,7.124554809648079e-07,0.08838008943150703,-8.166737168437684e-07,-1.0859798951084815e-08,-2.2409086616944946e-06,0.017095582694903355,5.183019683621055e-07,0.030914394579591,1.5702759608865376e-06,-4.915185041842916e-06,1.6542760719524503e-06,-2.6658510011010414e-07,0.0999968069793848,-2.2743957331589668e-06,-1.2185654649162293e-06,-6.17213806383697e-07,3.0861861140289997e-07,-2.744591083212188e-07,0.004764050871275074,1.0521747372436923e-07,1.1996160765683445e-06,-1.0016528815147304e-06,-7.547510015788118e-08,2.5413530366570424e-07,0.04173291622602663,1.0553242684635354e-06,-2.4708408985345375e-06,0.10000070535209811,9.218320791787581e-08,3.592123410715446e-07,-2.2987058329195948e-07,0.09999732677617203,-1.801011273801089e-05,0.09999207644859752,-1.2822865044359897e-07,-3.1692981734967774e-07,-3.7458043115966655e-06
6,2020-06-25,Simple + Baseline,6.703243896637574e-08,0.09999099410769216,0.017165879808147728,0.09999771099823511,-2.599360206994017e-07,1.2341979915319447e-06,-3.6473808723296462e-06,0.09999737339887886,-2.8738996640237336e-06,0.09999773303334843,-6.480799170344787e-08,-3.4135173172162476e-06,4.076496716180167e-07,4.781765646222282e-07,0.09998716318914469,0.004362478413441606,1.6061063163465944e-07,-1.2264836851427522e-06,0.0170818085628118,2.095454858813578e-07,-2.13364299294437e-06,-8.010219485327909e-08,-6.8741970284420834e-06,6.536072054456693e-07,6.237924332032774e-07,0.09999669884005294,-7.004781980887575e-06,-3.340434489268789e-06,-6.096082173376159e-07,6.770423686159868e-07,-8.279032519877389e-07,0.048111891667718176,-8.516846417039925e-07,2.952872883896989e-07,-3.941131887055209e-06,-1.461920234114734e-06,-1.4076587093825382e-06,0.013395748424125147,5.712255440846303e-07,-8.186123354702884e-06,0.09999813285670738,3.257042768898653e-07,6.671208829475479e-07,-4.1832157673183943e-07,0.09999726115188261,-1.6043629749955388e-05,0.09999289325307685,4.044908284283235e-07,-9.31921383337039e-07,-1.4872957092635915e-05
6,2020-06-26,Simple + Baseline,-1.7992659213401493e-07,0.09999627983722874,0.017165443843018324,0.0999989598472037,-1.2844204154776487e-07,1.1562554172505e-07,-1.0114057067842432e-06,0.09999918259358795,-8.02674110992865e-07,0.0999992398241889,-1.5757786185892233e-07,-8.693336797977072e-07,7.886261352523646e-08,7.008622408272168e-08,0.0999935213768617,0.0181433387163332,6.028037414842712e-08,-3.3825755776381984e-07,0.03500371175362718,-1.5626182031100708e-07,-1.0134144862712015e-06,-4.016370104320023e-08,0.011733514518739474,-6.509382089754395e-08,6.817566805858178e-08,0.09999906590562549,-3.4153819063158808e-06,-1.1519176665302353e-06,-4.479068177105715e-07,4.706493670337125e-08,-2.705499898301437e-07,0.01800518639689775,-4.675846083079479e-07,-1.4304633646103953e-07,-1.934521653925576e-06,-1.93153693961082e-07,-3.65329179826838e-07,-3.009121643950721e-08,3.594485325686949e-08,-3.5932986343416705e-06,0.09999962528905192,-4.3538563642792397e-10,9.728749336444103e-08,-2.7262685927640005e-07,0.09999909150604061,-8.280590915840094e-06,0.09999717730030033,-1.7143401372553214e-09,-4.741226997013902e-07,-8.103850089950234e-06
6,2020-06-29,Simple + Baseline,2.325599933743425e-08,0.09999868962318927,0.10000007575774425,0.09999974273413123,3.780377830967855e-08,4.62989110587506e-08,-1.2797815477017925e-07,0.09999982955058073,-4.112421662128252e-09,0.0707372793398767,7.375283330433245e-08,-9.55554268614024e-08,1.2442135630133776e-07,1.5021007545432867e-07,0.09999718114853322,0.018143336771078985,9.604845028477195e-08,1.5155058140016578e-07,2.2579259876866553e-07,5.776110107061604e-08,-2.00404192997709e-07,9.656784670739028e-08,2.8138098615163936e-07,8.094307608848099e-08,5.6589998614956804e-08,0.09999985880902329,-1.2862504764835525e-06,-1.6657272332537957e-07,5.5988935591827176e-08,0.016447977405069043,1.2811312364062584e-07,1.455359404058132e-07,3.049948292324442e-08,5.10741511346657e-08,-5.317879614508116e-07,2.0208224159557486e-08,4.098740427963949e-08,4.839821327294574e-08,1.4887787898897005e-07,-1.1587205523315105e-06,0.09999991640772724,1.6491909097409245e-07,6.075128153328267e-08,1.3213452009860513e-09,0.09468571068076181,-3.879916472492778e-06,0.09999913846669359,1.8084579549748858e-07,8.535020164617717e-08,-3.952829389503483e-06
6,2020-06-30,Simple + Baseline,-2.583469146253208e-08,0.09999952472275125,0.09999985077542577,0.09999990877632708,-1.0518857035061555e-08,3.085963949069678e-08,-6.768964438444693e-08,0.09999997860867733,-1.106712939017674e-07,0.05370424185119369,-1.7444094159009807e-08,-1.3834472777563644e-08,4.091400448746783e-08,7.784806908204566e-08,0.09999862601801003,-4.128859326574804e-09,-1.3646712007255665e-08,-2.9414185242208413e-08,0.018668382051134493,8.628421892540963e-09,-1.002958627613859e-07,6.301995035272523e-08,1.0935862266374689e-07,-2.2933258724335507e-08,-1.8447416563137857e-08,0.09999999721553528,-6.297143085768213e-07,3.9088582637366696e-08,-9.599436586839467e-08,0.031011452531576594,8.832118173501587e-08,-6.27803180791053e-08,-1.0369005249999162e-07,-8.897906736681432e-08,-3.3110994015069976e-07,1.1025865597980848e-08,3.7126930629679234e-08,2.6357655532281373e-08,-2.6115850860343933e-08,-5.450099126674589e-07,0.0999999976500486,-1.3955455999664816e-07,2.475707765274573e-09,-1.1412394387973579e-07,0.09662473093377297,-1.9516433176848287e-06,0.09999957922990295,-1.7742494886332683e-07,3.0405947814635824e-08,-2.1344562983053157e-06
6,2020-07-01,Simple + Baseline,-1.3478699500674319e-08,0.09999968736852873,0.09999989566969876,0.09999992118682531,-2.3368520963090233e-08,1.050809078394041e-08,-8.975406747485623e-08,0.09999994245552764,-5.295337226259859e-08,0.07397104978471325,-3.166197454095215e-08,-4.283601321881523e-08,9.949446708239601e-09,3.051045587390705e-08,0.09999926709513868,-2.6078678916661155e-08,-2.934095645286654e-08,-3.445241369363151e-08,0.01866812674978842,0.007366734927690743,-6.727548671035136e-08,-1.2176605472995327e-09,-6.825034868121375e-08,-8.13994928175924e-09,-8.006851846827731e-09,0.09999993921927879,-3.7772335988657867e-07,-1.975749485740477e-08,-4.537941358094233e-08,-1.723154635630425e-09,-2.149998604597916e-08,-7.036429466188041e-08,-5.773896891483606e-08,-3.366882492783798e-08,-2.100557838912742e-07,-1.8954592991087777e-08,-4.719181281508762e-08,-2.853518353625771e-08,3.973007273156886e-09,-2.8373825813772163e-07,0.09999994552228342,-4.5001237314377364e-08,4.499062715278175e-09,-4.8594422585171144e-08,0.09999993093461919,-1.1076047775575947e-06,0.0999997329436046,-6.155541388338896e-08,-1.787976878075247e-08,-1.2384318849415937e-06
6,2020-07-02,Simple + Baseline,-8.914410791900749e-07,0.09999897170203545,0.09999792767283634,0.09999536213034323,-1.170227770115302e-06,-3.5801011416227066e-07,-1.6056166260669534e-06,0.09999811265151905,-4.0402031713883704e-07,0.08201668637919961,-2.042788375700621e-06,-7.606013952594561e-07,-1.661375617030811e-07,-1.424791093910382e-07,0.09938182497581084,-1.0085841697703661e-06,-1.2411250726702988e-06,-1.3805886523873078e-06,0.018663976872813907,-4.5625836355968467e-07,-1.3844839757527559e-06,-4.3067997287605605e-07,-2.5106972365598363e-06,-8.697758522845252e-07,-6.934147081789629e-07,0.09999876231662512,-1.0171867802469079e-06,-1.7433466376184425e-07,-1.3349962072776852e-06,-8.351667613821804e-07,-1.0279009342183635e-06,-1.6499988627423496e-06,-1.6655412557243074e-06,-1.3210037771929234e-06,-2.3943236494861713e-06,-6.201999138340231e-07,-1.569023460157749e-06,-8.936431418014398e-07,-5.159943551018292e-07,-5.664108940537195e-07,0.09999893872543623,-1.1223073494099556e-06,-1.1777883927563967e-07,-1.5753207728093715e-06,0.0999962096029117,-2.7756146216345612e-06,0.09999688846262669,-1.3222967504252337e-06,-1.6613870879353481e-06,-1.978090520012352e-06
6,2020-07-06,Simple + Baseline,1.8607373508590655e-08,0.10000008191947526,0.09999975090525814,4.034559233897448e-07,-1.6735439278504802e-08,4.9535019188978e-08,-1.8077815430083485e-07,0.09999986866786766,1.5913866951688129e-07,0.10000022603994382,-2.2027141096876138e-07,1.1095321875255736e-07,1.181712521083032e-07,1.5443514281757172e-07,0.10000137354454104,2.0383862055244698e-08,-4.144434047291107e-08,-7.643398932787139e-08,0.10000122829050444,5.004909220867232e-08,5.381656156125271e-07,1.0708866242429171e-07,-5.35394149712225e-07,-1.2801206596937854e-09,3.98795606852871e-08,0.09999999108634361,5.202499596511359e-08,3.4774013855697735e-07,-7.313671294900152e-08,2.3781040602335186e-08,-4.272873581073756e-09,-1.6935069223708589e-07,-1.8255669268113996e-07,-7.191991614886311e-08,-5.037964366852902e-07,7.000459006853663e-08,-1.5789323178064376e-07,3.0900364519910116e-08,6.61121070751887e-08,1.9148381959039586e-07,0.10000003458788734,-2.963465848742396e-08,6.317525189323073e-08,-1.2544421030837967e-07,0.09999934496182161,-7.788316521676508e-07,0.09999929566069479,-6.788279961476419e-08,-1.8480207416086944e-07,-3.944487355029849e-07
6,2020-07-07,Simple + Baseline,6.3494171286651816e-09,0.10000004511353129,0.09999994338990811,0.027564554727442545,1.5233513045337092e-09,3.984058055202114e-09,-5.251483057986773e-08,0.0999999797372964,8.311002743030172e-09,0.10000000758980863,-4.6172817587291416e-08,1.1328185392568477e-08,1.7464600815116404e-08,3.1960953474540275e-08,0.10000002808299817,9.180379882149795e-09,-5.3532901521823985e-09,-1.3066386381266889e-08,0.10000001595690965,-1.842870520399483e-10,1.6169243543342237e-07,2.6443815731309667e-08,-2.068482775693578e-07,1.5101556780647186e-09,2.6630010512348284e-09,0.10000000573479259,3.33603287098255e-08,1.416790133793032e-07,-1.1359165042327708e-08,1.6521084431266884e-09,3.970239489996773e-09,-3.8689142850524565e-08,-4.6868573300191415e-08,-1.058358515370421e-08,-1.9463569328823742e-07,1.3107980326082475e-08,-3.936352940032397e-08,8.870001977975534e-09,1.3742887147586605e-09,1.2415118586767218e-08,0.1000000167777243,-2.011376674872392e-09,5.999428098136166e-09,-2.3723357319663413e-08,0.07243648195309156,-3.8764388234234096e-07,0.0999997483176832,-1.0624052337404085e-08,-5.267248615457165e-08,-1.900030823875558e-07
6,2020-07-08,Simple + Baseline,1.3880310691769086e-09,0.10000001994075433,0.09999998621150946,0.0531758047259346,4.838503666474466e-10,5.214589170925444e-12,-1.7445962824324557e-08,0.09999999667624727,2.3214335631827317e-09,0.10000000215960153,-9.801522120691396e-09,3.3311119304538167e-09,2.4499164369915772e-09,6.256143897067221e-09,0.10000001505223842,2.524378721783022e-09,-1.039869384136245e-09,-2.57353855512479e-09,0.10000001136074638,-1.2283558172284632e-10,4.801911790196481e-08,6.04534273255816e-09,-8.390811569419068e-08,6.495444256535507e-10,1.517130911608735e-10,0.10000000248677518,1.67109835477513e-08,5.6164784676997096e-08,-2.071956001683196e-09,1.915726393643494e-10,1.0398003722994218e-09,-9.691393109080805e-09,-1.2692743272952417e-08,-1.7469537458498426e-09,-7.836574942273549e-08,1.914955561337099e-09,-1.011859475306969e-08,0.04385590408734184,-9.403579962035315e-11,5.961057835819111e-09,0.10000000478489662,-2.957465409385754e-10,4.882317874477371e-10,-4.709388434917602e-09,0.0029687400859667646,-1.9869169107333996e-07,0.09999990533665476,-1.953791603350424e-09,-1.6229200288625332e-08,-9.74306560274576e-08
6,2020-07-09,Simple + Baseline,1.0471640492002349e-07,0.10000004818872985,0.10000001952292563,0.053175983255079017,5.556691807183574e-08,2.0411218399027828e-08,6.948427212103922e-08,0.10000009576540846,8.595838921210378e-09,0.10000002436061478,-1.5269298356849929e-07,5.407138114065972e-08,-3.914386736850828e-08,5.3518787234065246e-08,0.10000011237233924,1.261964263890444e-07,-1.748090461715521e-07,-6.284244666964174e-08,0.10000003701426458,-1.4587477875478984e-08,9.626945332546523e-08,2.1482774316101412e-08,7.174034332571152e-08,-1.1394558560813886e-07,6.823362668777056e-09,0.10000001913458816,6.394779497584136e-08,7.498169546019372e-08,-2.252487374670518e-08,1.1860498760840918e-07,4.804657038017035e-08,2.4108605195832404e-07,3.431348042161822e-08,-1.1289485827773787e-08,6.7057572683478555e-09,6.207110521686391e-08,-2.7768588980867485e-08,0.027136958762711452,-2.99984876274901e-08,1.0391435081810239e-08,0.10000004886454097,4.403110353407089e-08,-3.1593554381198074e-08,-3.49045264076174e-09,0.01968608968497106,4.2558964520617207e-08,0.10000001272771483,-1.6107482943686033e-07,-6.626557257966602e-08,2.6120398479824474e-08
6,2020-07-10,Simple + Baseline,2.5043799077969327e-07,0.09999626619165466,0.09999723615709138,0.060678439308954876,7.659769229158192e-08,8.74824377957416e-07,-3.2332278362650853e-06,0.09999856755393118,-2.279761445568473e-06,0.07000648705505581,-5.068013184026482e-07,-1.4785481550607329e-06,5.18183888155971e-07,7.545434084695164e-07,0.09999221144295228,-3.093776710020776e-07,-4.722398951921863e-07,-1.4568063334196252e-06,0.09999267610190239,2.271093077217318e-07,0.0024729510768721308,-7.333283636333159e-08,-3.5235116878548756e-06,1.172520246543924e-07,1.7072921708078983e-07,0.09999835114655484,-6.5918708728428365e-06,-3.536667767357916e-07,-1.3927071951042784e-06,5.306810018861551e-07,-1.732668115473903e-06,-1.7166937473175356e-06,-1.2166952877399852e-06,-2.827826346000268e-07,-2.5857184253568324e-06,-3.692541477697474e-08,-9.64979249600754e-07,0.047248419971200384,3.300517845358919e-07,-4.91921278996948e-06,0.09999872011806406,-2.4019920727596654e-07,2.3574667108914328e-07,-1.2931372539390951e-06,0.01967847308532281,-8.660591720316707e-06,0.09999324172001967,-7.750633727928113e-07,-4.419232181667087e-07,-9.546170655576575e-06
6,2020-07-13,Simple + Baseline,-9.30382072123759e-07,0.0999987334782841,0.0999981355425074,-1.3484367755734605e-06,-1.2144454714351063e-06,-3.910932566046499e-07,-6.684649418553486e-07,0.09999819442683026,8.766332722650539e-09,0.07000140075204477,-1.0199456356159077e-06,-3.6727337243153823e-07,-2.6836668014265066e-07,-3.257617072444693e-07,0.09999602473412747,-1.1147322562848318e-06,-3.2005139070445324e-07,-4.0812985117081963e-07,0.04880720886005364,-6.207591498353188e-07,0.09999793081872274,-6.949041312130815e-07,-1.4799726332512647e-06,-1.0804780441606907e-06,-2.0993662738382674e-07,0.0999989675027478,-2.8730951823118747e-06,1.7890566627511324e-07,-1.1259004053405348e-06,-7.35694853234499e-07,-7.055361907692482e-07,0.017923122818933112,-1.2688503328008329e-06,-1.0837920675254976e-06,-1.582313577454221e-06,-4.673852169880612e-07,-8.816536059562702e-07,0.04724450828875694,-5.042384650616637e-07,-1.9631131653833863e-06,0.09999892110046409,-8.732942642910566e-07,-2.13393068722422e-07,-1.056912509956798e-06,0.016078907253622383,-4.374462792965868e-06,0.09999695773544005,-6.690377475328171e-07,-1.5036643203869923e-06,-4.85554209754559e-06
6,2020-07-14,Simple + Baseline,-3.2353490789495696e-07,0.09999968082623668,0.09999919432651663,-4.461101806555161e-07,-4.1285698085495594e-07,-5.244718334492857e-08,-3.6946817572070776e-07,0.09999950756229482,-1.0410748115150834e-07,0.05404857081874121,-5.288920131333242e-07,-1.0362719108072776e-07,-7.675897311573971e-08,-6.449591418336705e-08,0.0999979235477731,-4.6101165172023876e-07,-2.300759856678384e-07,-3.217329171742021e-07,0.005245469468492313,-9.449126577739201e-08,0.09999911236413697,-2.3854110701683013e-07,-7.889788444966713e-07,-3.546318663757441e-07,-7.632385805186554e-08,0.0999996527629805,-1.5520860740632874e-06,4.446589149433524e-07,-6.01829021068471e-07,-1.515858122441202e-07,-5.035100316774647e-07,-4.741968588648457e-07,-6.839274204411197e-07,-4.920057148672806e-07,-1.0106379745744334e-06,-2.759386756678275e-08,-4.282818868867582e-07,0.0875090826019532,-2.0664497866896498e-07,-1.0607327035275088e-06,0.09999967235987312,-4.25842394429748e-07,-6.720432196654433e-08,-5.915041456617076e-07,0.05322292067515012,-2.3982333792926417e-06,0.09999845686228792,-4.002378552019817e-07,-6.913920998580067e-07,-2.870936626473098e-06
6,2020-07-15,Simple + Baseline,-1.327606324183048e-07,0.09958252024920844,0.09999988561074293,-1.869579667971563e-07,-9.356312696687261e-08,-8.371640576630055e-08,-1.6185366352340838e-07,0.09999989372155127,4.349094653285346e-09,0.027727011772712713,0.005450207333006815,2.313389021645488e-08,-4.562977544206989e-08,-5.99677661612616e-08,0.09999926519751746,-9.860736720260127e-08,-1.73158874237006e-07,-1.6699615681703216e-07,0.005245478011286694,3.134151808571933e-08,0.09999977408150149,8.055972687968036e-08,-3.6649819023623924e-07,-7.412880166864169e-08,-6.866209247572389e-08,0.09999992482927603,-7.254057033576555e-07,2.724004156084497e-07,-1.8745149359314815e-07,-1.3782730281507878e-07,-2.3267494424908004e-07,0.008781010923957734,-2.223234515334655e-07,-1.0645218884132539e-07,-3.811894078632433e-07,1.2262584664467556e-07,-8.103320717869465e-08,0.09999993286306176,-1.0763652758980557e-08,-4.169805313438223e-07,0.09999998045265933,-1.6480219357196988e-07,-1.2620393545709327e-08,-2.3476606966699685e-07,0.05322294322841346,-1.1938062569324579e-06,0.09999936294082999,-2.0276985161054495e-07,-2.846803470298469e-07,-1.4192009795072376e-06
6,2020-07-16,Simple + Baseline,-5.016194734150394e-07,0.05759861856037906,0.10000001823046935,6.49166246605935e-08,5.309968592711796e-08,4.277688674945055e-08,-6.185893295341369e-07,0.10000014575050842,-1.1682881853443838e-06,0.02077449752526974,0.023008228667478925,1.4490985028763984e-09,-2.517393749044043e-07,-1.8532519061930245e-08,0.10000039006442922,-2.9543545911727975e-07,-7.413115641794693e-07,-1.251354833058479e-06,0.01637158562151496,3.1455906774761477e-07,0.100000059321128,9.852359531888132e-07,0.04040006376429053,4.864299159091941e-07,-3.508742500960162e-07,0.09999953665036102,-9.133992382142973e-07,9.418860091254093e-07,-9.839462225419005e-07,-1.7636022992360918e-07,-1.8748395802089518e-06,-1.4461049468712276e-06,-4.726171183316894e-07,-2.1374420425555856e-07,-9.471991893222346e-07,8.272437104056295e-07,6.311230329868154e-07,0.10000017940869439,9.768349351678306e-08,-1.8524347691493326e-06,0.1000004471352679,-7.355103394455972e-07,6.568065507247122e-08,-1.5548579152998372e-06,0.04186395379270197,-9.451519544094761e-07,0.09999779567255952,-9.767530381656335e-07,-5.009505799054351e-07,-1.2381834176391075e-06
6,2020-07-17,Simple + Baseline,5.873283657942189e-08,0.057591663756964735,0.09999805471413047,-5.264567144204071e-07,-6.885215779963461e-09,6.1024980153297e-07,-2.6176543398564397e-06,0.0999994003683425,-1.8132305459071054e-06,0.02808717471642799,0.06843014894919572,-1.7982726316872249e-06,4.648771583098162e-07,4.7092144053452816e-07,0.09999695117301528,5.5225223780899614e-08,-2.1792676152790838e-07,-9.764605550661101e-07,0.016365625555644282,3.5391349339165876e-07,0.08683285423130563,-2.0520006826216844e-08,0.04039431359632068,4.1793841459046647e-07,1.7021122786507392e-07,0.09999890905920655,-5.049309623873137e-06,-4.3872345966735127e-07,-6.226439923984285e-07,2.952131784974256e-07,-1.3796632137643055e-06,-1.1329261975537792e-06,-6.48596494903815e-07,-1.9952251807077053e-07,-1.956787589363578e-06,-4.475578838336498e-07,-7.839338960581337e-07,0.09999972852854325,2.6990395087915856e-07,-4.084084136756098e-06,0.09999912565101621,-1.751498146912413e-07,-2.1211215966675078e-07,-9.091920619804385e-07,0.002344354832334831,-6.228533419756364e-06,0.09999508982642957,-3.7434812916932454e-07,-1.4856327864923562e-07,-3.7604483925108704e-06
6,2020-07-20,Simple + Baseline,-2.949334438135389e-08,0.057589491069563514,0.08917104504423774,-2.1880116778971806e-07,2.4672568645823726e-07,5.875939477159263e-07,-1.5250399736207488e-06,0.09999963995964153,-1.386218920210105e-06,0.0031659563021241314,0.05962988405767807,4.6601794381109894e-07,9.5827163674087e-08,2.100673856942532e-07,0.09999738049563062,-4.057624168871202e-07,-2.5855294765285185e-07,-8.582425255021751e-07,0.08513042678070651,2.244679000286577e-07,0.08573622208573657,2.0887544906784457e-07,0.040394389808009995,-4.906188180838905e-07,2.0976451255701914e-07,0.09999934609820114,-3.606732606263737e-06,4.789178161615105e-07,-1.080638922601822e-06,0.011407510620199363,-8.809358404266818e-07,-1.6845343794875138e-06,-7.538027553949047e-07,2.597970864763377e-07,-2.0976276012867623e-06,4.445446787775891e-07,1.0436224861523403e-07,0.06780666849141098,1.3029571038809557e-07,-2.9482095959519682e-06,0.10000041222117118,-1.1716215644633799e-08,2.9095161126137866e-07,-4.689305531209867e-07,-9.344704198839834e-07,-5.415598915560689e-06,0.09999660325710966,-1.989207647839853e-07,-2.7059553928328564e-08,-3.63839796744143e-06
