seed,date,strategy,NYSE:MYE,NASDAQ:AXON,NASDAQ:SATS,NYSE:GRC,NYSE:FHI,NASDAQ:ROKU,NASDAQ:FIVN,NASDAQ:EBAY,NYSE:SCL,NASDAQ:ROST,NYSE:KW,NYSE:INSP,NYSE:DBI,NYSE:FDP,NYSE:AVNS,NASDAQ:TXN,NYSE:IEX,NYSE:HLIO,NASDAQ:GEVO,NASDAQ:PCRX,NASDAQ:TCBI,NASDAQ:EXPE,NYSE:ONTO,NASDAQ:PTCT,NASDAQ:ITRI,NASDAQ:OTTR,NYSE:ALL,NYSE:MCD,NYSE:GNRC,NYSE:AN,NYSE:RJF,NYSE:ALLY,NYSE:MCK,NYSE:AG,NYSE:AON,NYSE:YETI,NYSE:ETRN,NASDAQ:COST,NYSE:VZ,NASDAQ:MU,NASDAQ:SRCL,NYSE:CNP,NASDAQ:CMCSA,NYSE:HOG,NASDAQ:RMBS,NASDAQ:BRP,NYSE:ECL,NASDAQ:PAAS,NASDAQ:PLMR,NASDAQ:NMIH
24,2020-03-18,Simple + Baseline,-3.251441467515776e-08,3.216983208395602e-07,1.1151530446214241e-07,-9.405445574218678e-08,-9.082998849213531e-08,0.09999996077267906,8.99079519013005e-08,-3.3934516847871586e-08,0.09999996046996744,-9.364857414642697e-08,-4.17310485017992e-08,-6.776441173442872e-08,-7.76168485021826e-10,0.09999997776305959,3.2082012236608584e-07,4.3552325883049244e-08,-5.366110376383162e-08,-1.4270133762550282e-07,-4.008197345522577e-08,0.09999995437752573,-5.168623085977091e-09,-7.432513915071572e-08,-2.4426315794677737e-09,0.09999996060199183,-5.315969900570915e-09,0.09999997150309621,-9.305375732701639e-08,1.0685255598412168e-07,8.897109461683658e-08,-3.909745057852143e-08,-9.275098101958648e-09,-3.7131194685592797e-09,0.09999997194712863,-9.233050356707436e-08,4.870809747566621e-08,-9.440267970851939e-08,-3.42531303072154e-08,0.09999995632280989,0.09999995606060846,-1.9827413481744987e-07,-8.412159586505248e-08,-8.356028889906905e-08,1.0328096659862222e-07,-8.65803682866321e-08,2.9081628307160845e-07,0.09999996304869174,5.095569213062229e-07,-5.431192293340994e-09,-6.049202858655997e-08,-5.01135048542064e-09
24,2020-03-19,Simple + Baseline,1.848005690718736e-07,0.10000023121151626,0.10000013081224861,1.484719137435541e-07,0.1000000272243908,0.10000017851939683,2.5637284119341997e-07,1.8428975140273025e-07,-7.508428117246654e-06,1.489323731599836e-07,1.7943860427620348e-07,1.6403034577413682e-07,0.1000018910030629,0.10000018834567266,3.9249951966036944e-07,2.2922857988322153e-07,1.720966898850002e-07,0.10000000197739789,1.8144527610895365e-07,0.10000017494196144,2.0100232157279646e-07,1.6051454047989968e-07,2.0347412981775295e-07,0.10000017830379068,2.0041034919298606e-07,0.10000018494606423,1.499013855390587e-07,2.659278381607731e-07,2.5598020900394057e-07,1.8068175325466083e-07,1.9884011476528714e-07,2.0246369998526033e-07,-4.611676346479917e-07,1.4999974587136452e-07,2.3250631399521038e-07,1.4855345710639317e-07,1.8356100824318386e-07,3.9043535667817425e-06,2.200837148335317e-06,8.746639263874743e-08,1.5496778408542219e-07,1.555621481704369e-07,2.643237277140072e-07,1.5392099239605232e-07,3.737318433181766e-07,-8.565621474654777e-06,5.023011813195182e-07,2.0126928196156653e-07,1.6848599017906711e-07,2.0225981440530272e-07
24,2020-03-20,Simple + Baseline,8.51082532295296e-09,3.041652031058677e-08,0.10000005638401169,3.4327907036526405e-08,1.9389474912033837e-08,0.10000008319077602,1.7392788337840426e-07,1.5399372953441044e-07,-2.976568050177551e-07,4.0884989491604825e-08,4.3541389107127944e-08,5.0423149224974365e-08,0.011337217684213656,0.10000004629472657,1.5366924783602662e-07,9.572353932244956e-08,4.493761888794914e-08,3.338945358260253e-08,3.332567389557908e-08,0.10000009337109385,2.2337072815631427e-08,4.064284180748689e-08,2.1105627521366028e-08,0.10000014490049768,1.6251045285638454e-08,2.3434367744821886e-08,5.644235917499766e-08,6.692714816644459e-08,1.0503768886929619e-07,2.6566134749253824e-08,1.5792525727847125e-07,2.664516935384475e-08,-6.352981371346343e-08,4.699300196486821e-08,1.9809491674324363e-07,3.247380291625112e-08,0.09736668518345278,0.0912934733293224,0.10000022077126984,6.744080221062148e-08,5.5948260275842985e-08,4.701324298892193e-08,8.57161066824926e-08,5.650895026571156e-08,5.043089167323237e-08,0.1000000355622568,8.783692436817033e-08,2.6877047662522395e-08,0.10000003869323563,2.9788253137263512e-08
24,2020-03-23,Simple + Baseline,-2.958748668734886e-07,0.09999941709500962,0.09999963839805126,-5.13765020574138e-07,-4.223332966571288e-07,0.09999990843954665,0.100001513020841,2.941861436646721e-06,1.7257731192605936e-07,-4.7636560622556886e-07,-3.0965571701443493e-07,-3.375081926784119e-07,0.008504283617368139,0.10000140603303415,1.689230237339389e-06,3.430458728795027e-07,-4.517942067858685e-07,-4.5104096859719334e-07,1.9836865477316276e-07,2.0312257844795675e-07,-4.944615509685108e-07,-3.498959610245807e-07,-2.1833931524868994e-07,0.10000093387765513,-4.2361758582051516e-07,-2.428127726022238e-07,4.002858018298186e-08,-3.0277730673521844e-07,3.8078487211137037e-07,-4.678975890284282e-07,2.687209981383663e-06,-4.0620311366237176e-07,2.6737793711474248e-06,-2.371159347918536e-07,2.5778254908108194e-06,-5.158497663696856e-07,-2.4554614162692424e-07,4.756539369122031e-06,0.09147964100971584,0.09999993099505618,-6.093225591420536e-08,1.0837085014047154e-07,1.9930664937680626e-07,6.965420996274036e-07,-4.788925813865702e-07,0.10000203589809194,-1.7350896674666982e-07,-2.427705307285396e-07,0.10000019825427103,-4.7486091355247293e-07
24,2020-03-24,Simple + Baseline,-5.953792747681056e-09,0.09999995176202242,0.09999994313326281,-3.892890687450126e-08,-1.4673026247422625e-08,0.09999998537108157,0.10000033227121964,5.962869806157068e-07,1.4369657100551326e-08,-3.0134873489364776e-08,-3.714610088854119e-08,-2.3410244103878768e-08,0.03414147183561423,0.10000024187388568,1.329501968752544e-07,6.172103713767735e-08,-5.31622184192688e-08,-5.487692985315813e-08,2.646197273957431e-08,1.7249598724972528e-08,-1.4609528827341524e-08,-1.7007647382629352e-08,-2.2031248024549852e-09,0.10000025395352852,-1.3913076176578804e-08,-1.521380184061214e-08,1.0514089286062274e-08,-1.8862511209603214e-08,5.503759188059746e-08,-2.3762278226110516e-08,1.1212014372302325e-07,-8.818236682310482e-09,4.102811914496796e-07,0.030196815397159037,2.989442637287056e-07,-1.7797813663889616e-08,-1.6318713598028514e-08,1.9610415471929795e-06,0.03565719467573778,0.09999999589024744,-1.2111491869733309e-08,1.42049357061748e-08,4.008002897060602e-08,2.7555479516173267e-08,-3.583016807012604e-08,0.10000049000774332,-1.919520946076055e-09,-9.330198369518755e-10,0.1000000171659854,-1.4441610909970823e-08
24,2020-03-25,Simple + Baseline,6.08899824506319e-08,0.09999980866911959,0.09999957096628151,-1.4598949606995605e-07,-1.0096223987149402e-08,0.09999951429101027,0.09999910841900383,-5.911918027408213e-07,-3.5523844252716277e-07,-1.2894812205601097e-07,-2.527650900426865e-07,-1.3100083496045193e-07,0.025856512309613895,0.09999930441588485,-2.5638121236563916e-07,-4.917105555021212e-07,-2.5170355241884004e-07,-2.024628377533494e-07,-1.0016568349425254e-07,-4.6674067063371453e-07,4.512286486950815e-08,0.09999986817262298,-1.722547897278891e-08,0.09999872227930741,5.872429078383652e-09,-2.927248562017867e-07,-2.511118546805337e-07,-8.537327330925852e-08,-3.858564610936734e-07,-1.502215150068817e-08,-3.4906621935453754e-07,-4.744266363360407e-08,-4.0349418516730315e-07,-1.204580033884216e-07,-2.993626937908358e-07,-8.606817586319774e-08,7.556654718801719e-08,-1.2685685491943809e-06,-4.542941812303696e-06,0.09999963734490588,-3.0401705101055603e-07,-1.251197090178573e-07,-7.362950999015176e-07,-6.964649537646182e-08,-2.4291033964870564e-07,0.09999936775446444,-5.486197842041715e-08,-4.4098011499928e-08,0.0741615314494213,4.487331978686122e-09
24,2020-03-26,Simple + Baseline,6.506983328984118e-08,0.10000048634091452,0.10000086618594416,4.93473742885703e-07,1.2446032651899642e-07,0.10000047908089033,0.10000129155074095,7.909123990543312e-07,1.4365538012133517e-07,0.08896715524492176,3.4060606685938994e-07,4.062186722893566e-07,0.018002413375524887,0.0930081004678923,3.025224641009998e-07,6.61896189189397e-07,5.605068683810308e-07,1.9449128156638343e-07,5.673261978696189e-07,5.88381399637247e-07,1.4684294583126694e-07,4.928810240139502e-07,2.946608160431508e-07,0.1000011280655305,1.9471590757714066e-07,2.2297736642056541e-07,7.289874770578154e-07,3.623223075523992e-07,6.375720706508651e-07,3.4680662959479646e-07,4.7293452071262335e-07,2.73504777845415e-07,5.374623345682058e-07,3.6313118505778544e-07,6.620678597392931e-07,2.734278700240414e-07,2.4104854888892395e-07,1.2571023269416772e-06,8.829026671380826e-08,0.10000076557747303,6.221186976129054e-07,5.654107040569252e-07,6.833967207676445e-07,1.8213015289587432e-07,4.351704786144194e-07,0.10000068777694537,1.7157176245997402e-07,1.7724580088857103e-07,0.10000076787951752,1.7513321413585187e-07
24,2020-03-27,Simple + Baseline,2.10793608485812e-08,0.10000004368433178,0.08250272684656301,4.9756859903357976e-08,1.618059003161508e-08,0.09999998845552209,0.10000015102097362,2.876678546101196e-08,-1.0153788936921109e-07,5.207551152830593e-08,1.6051147669700723e-08,5.334643773623136e-08,0.018058950461155396,-2.1781725868804323e-07,-4.442978101537142e-08,-1.7689481016539488e-08,3.0703281423687456e-08,-6.876890015068305e-08,9.027707748793024e-08,1.2880883945346604e-08,2.8566986675473246e-08,7.420380504564685e-08,4.0133009323748485e-08,0.10000008087927002,3.502660616613455e-08,-6.094717470880266e-08,1.0168464856329883e-07,3.4516353349327895e-08,4.07574004659615e-08,5.980787597747413e-08,-1.444730506337895e-08,4.260273756425229e-08,-4.2871816396058864e-08,3.072382327698994e-08,2.058478659198586e-08,3.973249841727926e-08,4.446014787687922e-08,7.055053773466938e-08,0.0999993842512902,0.10000005270373118,4.69323607089275e-08,0.09943796846684011,-2.518172308058027e-08,3.5432901300537643e-09,2.971192613329191e-08,0.10000002519011754,-8.727796209203521e-09,6.809445955814414e-09,0.10000008956855432,2.1312055558588672e-08
24,2020-03-30,Simple + Baseline,3.550976474192195e-07,0.1000008463273544,7.0313505372127905e-06,4.959465308548316e-07,2.1085754102583313e-07,0.10000021251856693,0.09999874645847208,-1.572166446159161e-06,-5.636747884130145e-07,0.10000050168520828,1.4106290581594106e-07,1.3447071477797044e-07,3.0215509140086425e-07,-5.608032034806485e-07,-7.668004489812089e-07,-1.5105987233621934e-07,-6.138235581340071e-08,1.2609311741558622e-07,1.002672489993114e-07,0.09999963725880065,3.8743593974741416e-07,4.779745568449319e-07,2.2290890431975208e-07,0.0999999510064273,6.025321418961795e-07,-2.0621621954499484e-07,-2.3775916988594004e-07,2.0939190485437974e-07,-1.0379355858730654e-07,7.995483857631253e-07,-8.491831639077226e-07,2.9769955903809405e-07,-1.0577967250442165e-06,2.732399308556403e-07,-1.1194717486985488e-06,2.821650843904163e-07,5.659979108944024e-07,-1.7433856428211867e-06,0.09999717559193222,0.10000002871292346,-5.312483637046781e-07,-7.46761800483942e-08,-2.763969685056687e-07,-8.404233951294177e-08,4.1104907120879175e-07,0.09999937821060283,-1.4562869529610042e-07,1.8114012031189437e-07,0.09999998731855929,3.98974577881186e-08
24,2020-03-31,Simple + Baseline,7.357447339916568e-08,0.10000041091059626,0.03621221127033793,-4.5340176651272394e-08,-1.0037092660889643e-07,0.10000021381771534,0.0999980415872054,-1.2924264629131519e-06,-9.300137127744408e-07,0.10000059791442868,-7.098737354353275e-08,0.00011980188340263827,1.6964875490205604e-07,-1.4884266126431451e-06,-7.357688715803582e-07,-1.1097323416398193e-06,0.09999909722842965,-1.086537032363362e-06,7.144502982558266e-07,0.0999984647267454,2.1985613281110502e-07,9.092191236536204e-07,3.9108796266526763e-07,0.09999715307697978,3.0560332961046886e-07,-7.830452197395522e-07,-5.271633260786849e-08,1.325120094307072e-07,-7.352651562578524e-07,6.227757906288905e-07,-8.598561075089465e-07,5.689016294327006e-07,-1.4491835821020958e-06,6.786330023783164e-07,-5.564991848169589e-07,5.452127114937224e-07,-1.0264486750308243e-07,-3.819844794490329e-06,0.09999515574934013,0.018505286789095795,-9.369996676712036e-07,6.654202532600394e-07,-1.3322366749647093e-06,1.0254664097297866e-07,1.6791115821802847e-07,0.04518465551435776,-1.285556113054309e-07,3.307276183775104e-07,0.09999975690000208,1.8076587023790696e-07
24,2020-04-01,Simple + Baseline,-7.119177803537847e-08,0.07520914334560594,0.02479020816192643,-3.116675487233527e-08,-7.2943116187009885e-09,0.10000004494097252,0.09999977283354852,6.679198310596815e-08,5.930131675602423e-08,0.10000006054509485,5.383220229623549e-08,3.2650941413855186e-08,-5.6322711578595175e-08,3.4448914942278274e-08,5.4593480396809596e-08,-6.494379610564792e-08,0.09999993495044941,-8.47871363961098e-08,1.338067393030904e-07,0.09999994843832646,-5.497768838229827e-08,1.9376637666924956e-08,-2.0304174444461762e-08,0.0999995360876673,-7.87406203886825e-08,-1.1093528896158837e-08,1.3955845202639348e-07,5.203597564362238e-08,1.802321137731677e-08,-3.675568967589685e-08,1.0727362077455646e-07,-1.6557639664149692e-08,1.0749524375653876e-07,-4.1034191961497784e-08,1.0862845616026092e-07,7.939193857678718e-09,-4.603950863326668e-09,0.10000147117016552,0.09999884227818115,8.293807128779557e-08,9.674444269220575e-08,1.226560019202523e-07,-1.0173482759600707e-07,2.7866370362767113e-08,3.5046181073825535e-08,2.5317120417287033e-07,3.247391041291535e-08,-4.254561925806793e-08,0.10000009907753338,1.149058233466713e-08
24,2020-04-02,Simple + Baseline,-7.514936193552459e-09,-8.529538930321818e-10,9.849972910411901e-09,-1.2074188463493035e-09,8.508313582709655e-10,0.10000001625613618,0.09999996294515047,2.3334341424364524e-08,1.7500501928543271e-09,0.09999999483233976,-1.0853439479687165e-09,6.6009979612261305e-09,-1.965546903074695e-09,8.21881566584878e-09,2.911759830707739e-09,-1.1106755736316724e-08,0.09999999739753894,-2.0837584700181443e-08,2.382713422151292e-09,0.10000000779607617,-1.4646942944283093e-08,-9.1779819873332e-09,-7.120189280633681e-09,0.09999989457603883,-1.0385163164094403e-08,3.799613806303501e-09,5.389337537701162e-09,1.242615489951043e-08,2.2814471087219158e-09,-1.471149413763112e-08,-2.040391253788203e-09,-9.021146700544438e-09,1.886978906284418e-08,-9.284835733155277e-09,2.116833225991309e-08,-7.973443118677748e-09,0.04497819349791011,0.10000010059071267,0.09999959565527257,0.05502221045601425,4.987058857075345e-09,4.935641103463979e-09,-2.0956812388546957e-08,-3.183465958598246e-09,3.0486033456308343e-09,4.793294032018214e-08,-2.679456950639265e-09,-1.0448964991452829e-08,0.10000001930007521,-8.087600206246745e-09
24,2020-04-03,Simple + Baseline,9.813904845649401e-08,0.019024735281529093,0.02653642022492546,-2.940977079894905e-07,3.372684907110391e-07,0.09999886183364268,0.09999759068716048,-1.853962831384991e-06,-8.328944664762519e-07,0.003579905301097237,-1.679582312453386e-07,9.01929022807409e-08,2.1381470895734195e-07,-3.1761631908232657e-07,-5.819484204767533e-07,-8.563930520654135e-07,0.09999924960069859,-1.0803908069515242e-09,-6.506026088534798e-07,0.05088295654516078,1.5168884458212127e-07,-4.0401092469174496e-07,-6.043919629871271e-07,0.09999898786216047,-3.261281071380787e-08,-3.782104829089805e-07,-9.621138056771692e-07,0.10000015822242908,-2.4716404759730314e-07,-4.260967758174125e-08,-4.050515043824443e-07,-2.97120727905736e-07,-4.929890986067706e-07,-6.734587450444247e-07,-1.1375013358092923e-06,-9.263743460648183e-08,0.10000010816653365,0.09999788542330466,0.09999808570187241,0.0999988249647192,-3.0402671247002026e-07,-4.512375149629372e-07,-1.1315837813619264e-06,-2.217680196357198e-07,-2.4467617355067754e-07,-4.3758798096810717e-07,6.645756549651423e-08,-5.84762483181831e-07,-5.296342048490209e-08,4.1835621194402035e-08
24,2020-04-06,Simple + Baseline,3.9787993959032114e-07,0.019027403170002413,0.011266194131842943,-2.342992089862293e-07,-4.201138765679475e-08,0.09999894253956038,0.09999509630769719,-4.567342851365752e-06,-1.7203161502588389e-06,0.06976918108083598,-6.057585191884172e-07,-2.417929895816215e-07,3.9314684307129644e-07,-1.7536043862844998e-06,-1.545409359533626e-06,-2.029493090781881e-06,0.09999705890521511,-5.605904165965341e-07,-7.124418801848749e-07,-2.682451869766559e-06,4.8856352075073077e-08,2.0463923177808505e-07,-1.2994232705559576e-07,0.09999701454157399,4.63145978043062e-07,-1.3123328159391103e-06,-1.5234614266510869e-06,0.09999909711802431,-1.1942939811094915e-06,5.190978534675683e-07,-1.8237649274652394e-06,1.8866475716172767e-07,-2.7957430876432625e-06,-4.008934471326512e-07,-2.4600544817190004e-06,5.65127284205242e-08,0.09999998224012008,0.0999928506918358,0.09999310798699253,0.09999845913045392,-1.5359000205436684e-06,-6.312410620808867e-07,-2.2377804552347835e-06,-2.1488289157621857e-07,-5.642485889773051e-07,-1.1396146306830814e-06,-9.098415428821995e-07,-2.3083204462706705e-07,-7.709509283335928e-07,-5.468438312523934e-08
24,2020-04-07,Simple + Baseline,3.703602209638048e-07,0.07945697106131824,-2.8609518891253124e-08,-5.360618381306162e-07,8.746683739704504e-07,0.0999974567520563,0.09999260227875852,-4.058327276940637e-06,-1.9850410511167995e-06,-3.2543745782193146e-07,-1.4162783480428966e-07,2.548234229189998e-07,6.36422147591169e-07,-1.7713756077187411e-06,-1.5254575798107276e-06,-2.8586133235612307e-06,0.09999820677917827,7.482336600185762e-08,-1.6649435589549868e-06,0.020613647817143227,5.231236125699118e-07,-7.963807087836991e-07,-1.4985850211364775e-06,0.09999722436498336,1.3757581495979267e-07,-1.01178870430237e-06,-2.498579060163584e-06,0.09999989403772458,-9.470271077740827e-07,1.3947851648180806e-07,-1.425749178578216e-06,-5.547731276187736e-07,-2.0982706967585865e-06,-1.5329294396370905e-06,-2.4518720485700515e-06,-6.980998679551087e-08,0.1000000662504057,0.09999157292607591,0.09999112247792753,0.09999715444142727,-7.85272367353683e-07,-1.0799944069032843e-06,-3.236841998182403e-06,-3.9394784506722564e-07,-6.1434183953e-07,-1.1086256636475875e-06,-4.313363415228037e-08,-1.4198464851215015e-06,-5.124601961802994e-07,7.423687725212541e-08
24,2020-04-08,Simple + Baseline,-5.454677978869469e-08,0.09999970153825058,-7.40403814723681e-07,-3.65707705421585e-07,-1.529152513532535e-07,0.099999261218156,0.09999616525316336,-1.8047400886953363e-06,-8.152250984190799e-07,0.01122682127911952,-5.942003314571458e-07,-3.286559855099707e-08,5.2512376812216784e-08,-9.99929525875838e-07,-3.0227423258791923e-07,-1.2888457694431833e-06,0.09999862405504507,-6.714207484334373e-07,-3.683655972690626e-07,0.02060997047692199,5.8806437117081746e-08,4.952421428658538e-08,-8.357085171899613e-08,0.09999761492652812,-1.616549583233847e-07,-6.274138920292071e-07,-7.567180979639223e-07,0.02837370775802102,-4.4472837650871483e-07,-1.036033920120471e-08,-4.1484103742742334e-07,9.561886266884671e-08,-8.726402634361041e-07,-5.886278262045918e-08,0.03982670322604607,8.775430493543203e-08,0.09999961031836253,0.09999351327327761,0.0999936390715619,0.09999931744880435,-6.344867767297818e-07,3.534763118682868e-08,-1.7671326699031368e-06,1.5414997982689417e-07,-4.135379755494672e-07,-5.768380946561353e-07,8.752400073184254e-08,-4.976588906626202e-08,-2.4183990521670224e-07,5.013510225265402e-08
24,2020-04-09,Simple + Baseline,4.55606548858894e-09,0.09999975830886021,-3.3759487408797733e-07,-9.79330639632565e-08,-1.1450387644141254e-07,0.09999974651146075,0.09999832851983419,-1.0006859758618766e-06,5.7286875390815296e-08,-3.3689971981311165e-07,-2.464354285145938e-07,-2.668039661261946e-07,-2.5991400706594325e-08,-1.6910255582660204e-07,-1.5006685303993282e-07,-3.7560108818112765e-07,0.09999935200603428,1.418210814525498e-07,-2.395350708020423e-07,0.09999950802164918,-1.245578222623588e-07,-3.068417542496924e-07,-1.393952844635998e-07,0.09999920639794424,-3.5155793894645904e-08,-8.292199376485791e-08,-5.232950116860851e-07,0.052135920635268486,-2.7713762174432015e-07,-2.0863874905164853e-07,-3.6559420832343985e-07,-1.710496656939432e-07,-4.129282226785921e-07,-2.1588572688062907e-07,0.03982278904478351,-2.6681815624505705e-07,0.0718711549541452,0.0031702572446133275,0.09999678229722692,0.09999959108402635,-2.3923916942623023e-07,0.0330162931165969,-4.4585022049753745e-07,-1.289928469856211e-07,-2.369469065588914e-07,-5.274244476168934e-07,-2.174640564734193e-07,-5.266594925316761e-08,-3.650846965616095e-07,-1.8346273376260183e-07
24,2020-04-13,Simple + Baseline,7.133521223188606e-07,0.10000195772215513,2.5833134586337918e-06,2.2863311825067483e-06,1.59497335859791e-07,0.10000268284887902,0.10000162325767795,0.04900500927194331,2.4847646690301505e-07,3.417442943447533e-07,-1.3591150302883191e-06,2.2325121671800617e-07,6.759629006981537e-07,1.6280983016320007e-06,-4.657604209967794e-07,1.5501434244149447e-06,0.1000003898307535,2.643779386774112e-06,-1.620186247741132e-06,0.10000098642500427,-1.3375524371678483e-07,-6.281677849906788e-08,2.0965542173208216e-07,0.10000524493522887,1.0553243428155348e-06,1.0449358286240618e-06,-7.632014686487009e-07,1.0670917743391227e-06,6.958044857179592e-07,9.954629344818546e-07,-1.2922731246585116e-06,-2.8805497082887464e-07,-1.741342258548985e-07,0.05096035095543584,-5.913801780108288e-07,-8.192915007089269e-07,0.1000018574084775,1.1372005227447378e-05,0.09999858262035911,0.1000012181472022,-8.387569665523724e-07,-8.629994318686631e-07,8.591665517774961e-07,-2.518849260832924e-07,5.63721519942812e-07,-1.1968405552242649e-06,-3.646996733041923e-07,-8.454830219680814e-08,1.7133359255596242e-06,-1.369316019719292e-06
24,2020-04-14,Simple + Baseline,-5.751469424966612e-07,0.09999695311612847,-5.110125449182596e-06,-2.001299985919711e-06,-1.829049921547243e-07,0.09999672507780531,0.09999462261871088,0.039052386197024704,-1.6048506213074702e-06,-4.853124218798402e-07,1.7279899314191165e-07,0.026410446875619744,-4.802959816354197e-07,-2.917244044515216e-06,5.390299662436389e-07,-4.905714285660462e-06,0.09999489873166909,-3.105488745377982e-06,1.043656625878557e-06,0.09999607342116565,3.267711090423712e-07,-2.280686888894349e-08,-2.8640172725987197e-07,0.09999293842191181,-1.1907501160230266e-06,-2.1505667570070907e-06,-4.5436268158893204e-07,-1.219883734576668e-06,-8.971527919853002e-07,-1.0594813205704597e-06,3.717249866581394e-07,7.619185819990876e-07,-1.6358764016630378e-06,0.03461905287078424,-7.48960181633675e-07,5.241078557364174e-07,0.09999729819364735,-3.0906966496407325e-06,0.09998697671655613,0.09999683804812746,-3.519676951549703e-07,7.676655216152938e-07,-4.330083480246306e-06,8.740981307531947e-07,-1.703214712611345e-06,-2.7103152334388683e-07,3.815129760403134e-07,1.3599757701488226e-07,-1.5568027301392052e-06,1.280060529498413e-06
24,2020-04-15,Simple + Baseline,-3.0626112722406595e-07,0.10000152581622648,5.644720364646669e-07,5.232545341406581e-07,1.5511894859540737e-06,0.10000049697845963,0.09999994035162231,0.10000028166332205,-1.6934072229771729e-06,1.3433688311085683e-06,-1.4236677126735922e-06,0.026293136322589603,1.0191143334503178e-06,7.281582541976502e-07,1.461990876981133e-07,8.489783360248134e-07,0.10000116282398437,-4.620269812026641e-07,-2.1291700843903596e-06,0.07949001133262432,2.1250651812915943e-07,4.173052144011239e-07,-1.412194629439554e-07,0.09999934927713315,-2.668835870248552e-07,1.09198758369476e-06,5.556079971330399e-07,4.691776890312441e-06,8.428095408294355e-07,6.663470248893446e-07,7.301939633587518e-07,-1.3468593562543382e-07,2.3043349608491796e-06,8.613933380813106e-07,4.3661453566680415e-06,1.0628157901576465e-06,0.09999981676767371,-6.564977989324697e-07,0.09999588465949906,0.09419597194180156,-1.0384228617723538e-06,1.8410957920433628e-06,-1.466647637464298e-06,3.0353435537764863e-08,1.0217611736641987e-06,-3.863128784738004e-07,2.84189019551631e-06,-4.918210195867459e-07,2.520488743311122e-06,2.4436202755251567e-07
24,2020-04-16,Simple + Baseline,1.1963858378362605e-07,0.09999994017884349,-2.456984753386032e-08,3.6547836410607553e-07,2.0976463353859063e-07,0.09999996017453859,0.09999975978269597,0.09999968790726012,-1.874622641745898e-07,1.9510905381892772e-07,-3.2126089076226507e-07,0.1000004623382058,3.1182940767423175e-08,7.491584514938673e-08,4.2590055474122394e-07,-9.027648388567546e-08,0.1000000528546742,-1.2116149121078533e-07,-3.602716428350985e-07,3.6402369861190255e-07,1.5130669818286106e-07,-6.423675341707341e-08,-2.1040504184474886e-08,0.09999998378726672,3.297825908488687e-08,3.5837847957239405e-07,2.3680099848953536e-07,8.718537702398617e-07,6.104760413453557e-07,9.760145417795745e-08,1.7231404674594001e-07,9.758945755650254e-08,5.424561175020109e-07,0.00983932060477072,9.140438933393713e-07,4.515771306278952e-08,0.0999999950880756,0.07812082901058119,0.0999971948220042,0.012037682276008793,6.202882350669876e-08,1.3109810450695868e-07,-5.947663523062007e-07,2.376280937179158e-07,-3.0276011228727476e-08,-3.222568551218448e-07,2.2779304644226707e-07,-7.063177808439841e-08,8.429713754657038e-07,-6.981720083952116e-08
24,2020-04-17,Simple + Baseline,2.5544565219591266e-07,0.0999993864946219,-1.9757051016537334e-06,-1.63834416229972e-07,-1.1844051912766267e-06,0.09999854299075676,0.09999207582069626,0.09999264015220789,-2.2477220875704003e-06,-4.4265638944149305e-07,-2.839166687646981e-06,0.09999826715200086,3.6603406081960265e-07,-2.6505353923732268e-06,-1.6329060113939721e-06,-1.6011281501182338e-06,0.09999507276476523,-6.492226853811595e-07,-1.381368534536181e-06,0.09999520108621533,-4.373928328135168e-07,-1.5573601922761564e-08,4.15930799616679e-07,0.09999124590818191,1.7395968838364138e-07,-1.6553982331699444e-06,-2.588830846735712e-06,-9.80167580208168e-07,-2.2645701970162555e-06,-1.8182714511882702e-07,-2.2574963629994456e-06,2.5807801084302317e-07,-2.9414598036541217e-06,2.818959017740561e-07,-1.6122954515615842e-06,-4.5573040560314607e-07,0.09999850385772503,-1.6723509650011537e-05,0.09998322387043544,0.00011764536507508674,-3.6340434061759283e-06,-7.155019987548882e-07,-3.366666218687691e-06,-3.5354374087288083e-07,-1.6098579298021336e-06,-2.868792697225699e-06,-9.603856391004903e-07,3.5311667498423093e-07,-1.241115767747152e-06,-2.2007654493116246e-07
24,2020-04-20,Simple + Baseline,-1.0134032893996438e-07,0.09999991951094367,-2.0515000574605074e-07,-2.758499195133457e-08,-1.6368779206555372e-07,0.10000004753139335,0.09999785998484136,0.0999982514703362,8.048575019756716e-08,-1.4325734450309387e-07,-3.366693639975432e-07,0.08057851265814323,-6.156828980521623e-08,6.862958526459e-08,-1.4444060002611164e-07,5.897624432328533e-08,0.09999903676415658,1.31176977153201e-07,-1.3118555559498863e-07,0.09999927184114894,-1.390801065244518e-07,-1.1438508268789418e-07,-6.294470733590613e-08,0.09999794621596911,-8.500227012635097e-08,-4.152950563160649e-08,-4.572981513744625e-07,-1.3638062393501767e-07,-3.150142036885051e-07,-1.407176484000749e-07,-2.499960823744541e-07,-1.3603574906699584e-07,-2.8948238289154763e-07,9.025282943231168e-09,-1.7082921073269572e-07,-1.595444794463243e-07,0.0999999616720737,-6.4089343727198886e-06,0.09999379400487136,2.8403519423939833e-07,-4.831400631005156e-07,-2.0600412420374242e-07,-3.755916100288308e-07,-1.2879461073480267e-07,-1.8841406518729175e-07,-1.7559388058384419e-07,-1.496496819468562e-07,0.006089856121824654,0.01335696826514033,-1.3974981426137023e-07
24,2020-04-21,Simple + Baseline,-1.3766536182525003e-07,0.03848631428276942,-8.239047210594447e-07,-7.786686024256915e-07,-6.279535708478972e-07,0.09999933393715386,0.09999716989216068,0.0999978811020208,-3.3897361991183766e-07,-8.538934630887471e-07,-6.198618934639071e-07,0.08509134466641705,-1.0978644324099453e-07,-1.377522753477753e-07,-5.805311272129214e-07,-6.43287142890863e-07,0.0999983199867791,-7.650201875907311e-08,-4.743098027268293e-07,0.09999874092641445,-3.582748129500863e-07,-5.31322783414787e-07,-6.128351458818733e-07,0.09999803123591458,-4.4503171934803355e-07,-5.753884077913037e-07,-1.481795205120525e-06,-1.1784510213973128e-06,-9.81765827774786e-07,-5.4418767861611e-07,-8.038269565987089e-07,-3.9483544651552437e-07,-8.972086780352374e-07,-3.0097113594877496e-07,-1.15409319142457e-06,-4.80896763881114e-07,0.09999917677454728,0.0018007812814851605,0.09999548326500093,-7.063362853447911e-07,-9.971777479011522e-07,-1.0004336997866572e-06,-6.956034030497302e-07,-3.4305300292964606e-07,-7.060783265768276e-07,-6.449512553880685e-07,-7.65839337493708e-07,0.07466127509223566,-8.087632405982542e-07,-2.334118523174928e-07
24,2020-04-22,Simple + Baseline,3.5356047963783173e-07,0.032193968578848764,-1.2946816410165013e-06,-4.29367639616956e-07,1.5257200739645798e-07,0.09999879366047305,0.09999460918029937,0.09999520101082561,-2.168155554334359e-06,1.0555410767821241e-07,-1.1305921620244894e-06,0.04138593211615621,4.990214797402507e-07,-2.2654245507432704e-06,-8.372673282936722e-07,-2.2441796820036556e-06,0.09999717852191083,-1.178369060022525e-06,-6.744708651217304e-07,0.09999841544435852,4.015736528498534e-07,2.757854349632363e-07,-1.2791524206589637e-08,0.09999604899531617,2.4890853671343294e-07,-1.1474811392124182e-06,-1.4196322860452535e-06,0.04188272664783535,-1.0678428205219875e-06,2.5765625068399673e-07,-1.4350876845497382e-06,3.39451224249237e-07,-2.247803550007103e-06,-8.125512688290829e-08,-1.209995210279667e-06,3.041097584961874e-07,0.09999932857571449,-1.2817832521668451e-05,0.0999888589027105,-1.0204206817567062e-06,-1.602499549648556e-06,-1.828426753188632e-07,-2.98556364165187e-06,2.3517678447443925e-07,-5.413698809757005e-07,-1.6649234348520444e-06,-5.7581634819880044e-08,0.08460796990763537,-5.671720217223864e-07,1.219100833807288e-07
24,2020-04-23,Simple + Baseline,1.8316029915839326e-07,-1.2499927355275695e-07,-1.1288081733951845e-06,-3.8719998961920156e-07,1.5492882156755669e-07,0.09999900649856194,0.09999491689578743,0.09999628408675378,-1.7335197510106393e-06,1.584724610176207e-07,-8.649812399347774e-07,0.051156630715620446,3.269774906538968e-07,-2.171262764308717e-06,-6.49598877942869e-07,-2.20492154977214e-06,0.09999777718726131,-1.313900040561514e-06,-4.78544239149917e-07,0.09999877021308665,2.9581695862414876e-07,2.2552853647164194e-07,-3.892643613166249e-09,0.09999629446796171,1.3867400307629414e-07,-1.001197321577683e-06,-1.0522592021430117e-06,0.03722250896555117,-8.550842273314862e-07,1.7983690133940778e-07,-1.1026312707166356e-06,2.6021530441788963e-07,-2.037527771020878e-06,0.011681634393327952,-8.768227999550397e-07,2.72997070120757e-07,0.09999950918997898,-1.0801005226009062e-05,0.09999033877619035,-8.974378015272038e-07,-1.3033268790105285e-06,2.1727883446871594e-08,-2.974725623239838e-06,1.7660322807702623e-07,-4.533460256691306e-07,-1.3245776164208215e-06,2.39357944047558e-08,0.10000000556308133,-3.8984043745261655e-07,6.493594548815744e-08
24,2020-04-24,Simple + Baseline,-5.133376234122453e-08,-6.321431704814915e-08,-3.1784176872669847e-07,-1.3483152331901478e-07,-1.1691828289257622e-08,0.09999986057175042,0.09999809145390771,0.09999883123602343,-2.7312814649527203e-07,9.117586297729083e-09,-1.8975017472102638e-07,0.08744915788114119,-2.1840400997592188e-08,-4.5004370834695865e-07,-9.612915076240729e-08,-6.366785880450832e-07,0.09999934017038,-3.5879766424756974e-07,-7.682956296489736e-08,0.09999977404309915,7.236385335312035e-09,4.967365146764693e-08,-2.689752148076961e-08,0.0999988852884138,-3.918341420028781e-08,-1.888321924092719e-07,-2.1137939620923202e-07,4.553448237952981e-08,-1.951287869180058e-07,7.723190333397934e-09,-2.3795045173337024e-07,-8.943170868872693e-09,-4.942476501592398e-07,0.012571803924979138,-1.7703683079969526e-07,3.617577768412515e-08,0.09999993206130657,-5.224451709460685e-06,0.09999552944937451,-2.037647286650222e-07,-2.905979314051587e-07,3.654494593132049e-08,-9.373439818712204e-07,5.6061185836914274e-09,-1.3393652035637775e-07,-2.3771452836787495e-07,-4.407817004977306e-08,0.10000000102393244,-5.364737845221753e-08,-1.8194882620857003e-08
24,2020-04-27,Simple + Baseline,1.338239160956201e-07,-1.822308983388196e-07,-9.023453731756755e-07,-2.24082166420972e-07,5.685872526051733e-09,0.09999939485855174,0.09999709515511229,0.09999786395276318,-1.039779582176219e-06,7.165482771700089e-08,-3.7450343134440447e-07,0.09131159899273901,1.5429284780826586e-07,-1.66986153941276e-06,-2.8239479181863425e-07,-1.330387348456398e-06,0.09999825649393068,-7.603126764556172e-07,-2.005993788421689e-07,0.09999887040149232,1.1274685801999884e-07,1.0570111101952533e-07,6.685661327027857e-08,0.09999782704579223,7.546052761287603e-08,-7.36944938705374e-07,-6.239702500301036e-07,-2.710291018777657e-07,-5.137838367265784e-07,7.515525914920401e-08,-6.529988613820523e-07,2.446945722428294e-07,-1.2320655099119677e-06,0.008725977237731625,-5.733123707527593e-07,2.1848248330274891e-07,0.09999957019389809,-5.855715336141179e-06,0.09999389476521134,-6.439826704594518e-07,-6.952078133042908e-07,2.352740184405792e-08,-1.7854286018174888e-06,1.7134173905082797e-07,-3.520185750073653e-07,-6.855262652091112e-07,-9.875889499457483e-08,0.1000000477017219,-2.816555361644273e-07,1.3522441120890485e-07
24,2020-04-28,Simple + Baseline,-8.273436795454761e-09,-1.007426632362783e-08,-1.4268046916632745e-07,-1.6276366967818585e-08,-8.832683308552269e-09,0.09999995817925098,0.09999902576110396,0.09999938218393851,-7.97600565069038e-08,4.833320420528342e-09,-3.996278620749528e-08,0.05666356782325522,-1.16327203690139e-08,-2.2149327992894348e-07,-1.8418385832316276e-08,-2.587411011544624e-07,0.09999958030784906,-5.856677319045625e-08,-2.9437018396660387e-09,0.0999998264496697,-2.8195156696398056e-09,0.026700625694235192,9.682696035283606e-09,0.09999947110123342,1.50239619279831e-09,-7.78932976215535e-08,-9.818156176399387e-08,-3.128092440720811e-08,-6.90244936833225e-08,7.366412482869595e-09,-8.463432556124471e-08,-2.0485409633427657e-09,-2.0629746978137544e-07,0.06188993262470849,-8.338204177600327e-08,3.969144089483474e-09,0.09999999453488505,-2.5721498230585367e-06,0.0999973681134567,-7.900719698924007e-08,-8.473139357939435e-08,-5.151492576191993e-10,-4.073188513509619e-07,3.497449462398566e-09,-4.797527192471213e-08,-7.75961355753007e-08,-1.1180919019217189e-08,0.05475606619369384,-1.1379161236957987e-08,-7.1790199887618745e-09
24,2020-04-29,Simple + Baseline,6.536712007606984e-08,1.2463662081802185e-08,-1.2335393032641732e-07,7.275455151877192e-08,4.050316711773196e-08,0.10000014023265602,0.09999951595998727,0.09999961263833662,6.328215485284056e-08,3.463718619099168e-08,-1.4812466874791106e-07,0.03590337533352174,3.862674154379369e-08,1.1169448412408292e-07,1.1638343403796389e-07,-1.3895040347785323e-07,0.09999977637716442,5.272557591142646e-08,0.03874766717243367,0.1000000239914425,2.613993240871127e-08,0.0267017454842458,1.403302792889574e-08,0.10000005541367096,2.031533597480871e-08,1.0888043688967593e-07,-6.053971984144794e-08,5.16674410879484e-08,4.024877495066944e-08,7.432665521475978e-08,2.4288480516623202e-08,4.4668243643001035e-08,3.5237356456894086e-08,0.10000005199546043,-1.511299408526836e-08,2.0295949328447506e-08,0.10000005338478768,-1.7275195842048425e-06,0.04850522778453971,0.04767303200630385,7.765020071696465e-08,-5.486379761802703e-08,-2.459021079244249e-07,1.080869972473908e-07,9.986800438413056e-09,-2.48710605902354e-07,9.638003977849745e-08,0.002471146032330058,4.409061470827077e-08,-6.244403687661548e-08
24,2020-04-30,Simple + Baseline,-2.5411531506927006e-08,-3.579245314000419e-08,-4.4724562835884946e-08,1.066725604915351e-08,-5.809736755219461e-11,0.09999991835967728,0.09999965513934837,0.09999981307225904,-2.60099779069016e-08,-1.0521701285914643e-08,-2.1044322462612305e-08,0.0021086087717945906,-4.812989999585193e-09,-2.0707645620107615e-08,-2.243101302391011e-08,-8.604086304943945e-08,0.0999998854838253,3.049417501783406e-08,0.021456145669762346,0.10000002247874085,-2.2091480253180795e-08,0.02670169992551945,-8.269708398368935e-08,0.09999994653545279,-2.729113981967404e-08,-1.626452280551544e-08,-4.574764869861424e-08,-1.8211091581928277e-08,-2.544648685683103e-09,-4.767140235039929e-08,9.531157511000053e-09,-2.6890084358669883e-08,-2.6486191536342736e-08,0.09999988128821191,-1.7123855362041226e-08,0.002062717106534065,0.09999998066255694,-9.236007068845107e-07,0.10000029191206562,0.04767287007079299,2.6835957593105148e-08,-1.6311540146255554e-08,-1.1148757668102131e-07,-3.1131495371487e-08,-5.1011988962348724e-08,-5.340700963706032e-09,-2.375237831851532e-08,2.6187493445673177e-07,1.8039648884380723e-08,-2.438383484826108e-10
24,2020-05-01,Simple + Baseline,-8.408710117571264e-08,1.429203881894938e-07,5.663359903204462e-07,2.537392624440712e-07,-4.2334404792922435e-08,0.1000006527038254,0.10000324822452188,0.10000142883014453,8.762939739763471e-07,7.892586354014167e-08,6.042317761310772e-07,0.0021100445797196314,-2.1060229322095413e-07,7.7822861047247e-07,4.711385769454292e-07,8.244063964313844e-07,0.10000082061897335,5.728791150338204e-07,2.175625905575164e-07,0.10000054692844297,-1.5399492371092702e-07,0.023005314531011838,1.0758564994015857e-07,0.1000012173693657,3.2170369345373583e-09,4.5107464401038387e-07,6.522668471702432e-07,0.020342227495705415,5.070350113830034e-07,2.1233702829146868e-08,4.932741797092177e-07,-3.280376858231422e-08,8.404428791296953e-07,0.09999998547873436,4.960075845494227e-07,5.9299216956732684e-08,0.10000035987918636,5.458784684981579e-06,0.10000271415921723,4.5752538563649823e-07,7.093976726654602e-07,1.357969304848497e-07,1.3347358272781186e-06,-2.758478884259472e-08,2.551168436114173e-07,8.208899609329656e-07,-2.5503289843678273e-08,0.054513478483799074,2.456502838312007e-07,8.457742772462923e-08
24,2020-05-04,Simple + Baseline,-2.8874887479787225e-07,1.0666266372693495e-06,2.123566062992848e-06,9.670500543668535e-07,8.769202602796521e-07,0.1000021608337407,0.10000735541908216,0.10000558778961623,2.2643819526332868e-06,9.095786660093971e-07,1.3688929914534299e-06,1.464757216039099e-06,-2.6743707804202285e-07,2.746780495065909e-06,1.5910125942212626e-06,3.1674323469475166e-06,0.10000366541801918,1.6224826966084547e-06,0.0019271739001341824,0.10000287156036132,-5.484189644406521e-08,9.296339880521268e-08,-1.1647498978115404e-08,0.10000450948022664,-9.919929601218382e-09,1.950203382718243e-06,2.1945458333150412e-06,0.02035052231366407,1.8968445441212756e-06,0.00778495397990288,1.8652170120107743e-06,-2.9908460971925595e-07,5.074359877658084e-06,0.100000264273332,3.6508665217562713e-06,3.141451635137263e-07,0.10000140161517457,1.713248495371405e-05,0.10000939169192198,2.188475676331685e-06,1.775043995250888e-06,9.422837756198471e-07,3.6325093441837316e-06,-2.4575493590637492e-08,1.6255892572365156e-06,2.83362232973553e-06,1.2092903452070134e-06,0.06983118853152151,1.2483068943857354e-06,6.097735021483312e-08
24,2020-05-05,Simple + Baseline,-9.123921631929322e-08,2.1725410235781678e-07,1.1846156622138285e-07,-7.546885372136447e-08,5.8817983179572635e-08,0.1000005082971197,0.10000182417117759,0.09999976996372772,1.2642665988955303e-07,-1.0724553747467482e-07,1.7432338421544726e-07,2.125939395234504e-07,3.975784256518265e-09,5.234316924683655e-07,8.391403736549783e-08,9.983103716902127e-07,0.10000029517025905,2.1688885031112453e-08,6.783283702765789e-08,0.10000027530521625,-5.039835391223018e-08,3.392238038447576e-08,-1.2809207879197223e-07,0.10000007672724562,-1.0217333543475416e-07,-1.5258613403245222e-08,2.979310301498497e-07,-1.9924176365540248e-08,2.73168848536763e-08,5.452540029611358e-08,1.0108126338466714e-07,-1.8681629054002637e-07,1.6118546559513958e-06,0.10000001497561757,1.0685337752513077e-06,6.348501468965532e-09,0.10000032440148911,9.2710955356286e-06,0.10000000158628221,4.840143709747087e-07,3.7590438067646913e-07,8.694878786280449e-09,-3.14916586403781e-07,-7.476948804217722e-08,0.06898334778265842,3.537351575339313e-07,2.078644773618158e-08,0.030998212778060263,2.5716583963115116e-07,-6.887522473879637e-08
24,2020-05-06,Simple + Baseline,-7.064330184081277e-08,-1.302623714715664e-07,-2.956046215770493e-07,-1.8288342523753018e-07,-1.7410575028325235e-07,0.09999998475547471,0.1000005142265961,0.099999777187063,8.248353334764438e-08,-2.769229178860008e-07,-1.2286760762228516e-07,-1.93790531530803e-07,-7.713120896936922e-08,2.1194063297635698e-07,-6.218723191661264e-08,2.580390422848479e-07,0.09999965797266315,-4.2312934247282516e-08,-4.4768501904478866e-08,0.09999965122287233,-1.1827976742337851e-07,-1.8452793487858466e-07,-1.0014679088762452e-07,0.09999973853874576,-1.0748061078037673e-07,-2.6352699957413637e-08,-2.4278961845956806e-07,-2.0336491675701178e-07,-2.0733119998158773e-07,-2.0602251144544263e-07,-1.1147896651055515e-07,-1.1415932620513177e-07,4.2644808829385575e-07,0.09999997721562545,1.8196320374647496e-07,-1.853068364990627e-07,0.09999991242388948,4.928936225090916e-06,0.09296241526187946,-2.352945118354579e-08,-9.166966714243433e-09,-2.3127510895914938e-07,-7.124962380992753e-08,-8.726352958004025e-08,0.0999997868435834,-1.4381336622601372e-07,-1.699934057958623e-07,0.00703691809359715,-1.081171999486426e-07,-9.883220948137642e-08
24,2020-05-07,Simple + Baseline,1.379763136206307e-07,-1.3064915297782863e-06,-1.4935291157234204e-06,-1.2007300350620543e-06,-8.563086915315503e-07,0.0999968079593105,0.09999495126824635,0.09999597365461459,-1.6234650487208156e-06,-1.9949622689182844e-06,-7.398967349852982e-07,-2.2100871689970347e-06,-1.3959435495430158e-07,-9.781876724008333e-07,-1.6227446732270354e-06,-2.018999201950372e-06,0.0999979888485657,-6.305969291884326e-07,-3.474817465906184e-07,0.09999738372032355,-1.6953401006660964e-07,-1.6927984157592657e-06,-1.0281159240098983e-06,0.09999700086496154,-1.5001610735966332e-07,-1.1989839063867192e-06,-2.2192893194394576e-06,-2.15802467528283e-06,-2.047176417745148e-06,-1.4786137088375223e-06,-1.718070671988802e-06,-6.40566173621008e-07,-2.4527396232203748e-06,0.09999905546656095,-2.5482880476413418e-06,0.010925727173808129,0.09999948203878412,-3.3433568941383515e-07,0.07491047430189424,-2.1609263137026612e-06,-1.5789093628310491e-06,-1.7238403663043246e-06,-1.1349574441971454e-06,-1.1635170149558609e-06,0.09999787578422112,-1.6736367680899095e-06,-1.8518311819663305e-06,0.014237181466087932,-1.2510584973212382e-06,-4.872375219076202e-07
24,2020-05-08,Simple + Baseline,-4.794198787769563e-08,0.0999998922922282,-6.000556771981496e-07,-1.7124152156022553e-07,-1.8980746661439672e-07,0.09999996224207684,0.09999832531742338,0.0999982956996886,-1.9802288521161787e-07,-2.6996977480179493e-07,-4.385010387981914e-07,-2.799660583781682e-07,-2.2942966061041815e-08,-4.248326785565446e-08,-6.436876477246474e-08,-4.590106328741977e-07,0.09999906206462733,-1.4822175832647541e-07,-1.2338976593470926e-07,0.09999920810289888,-1.3757780887574555e-07,-1.5077921318509664e-07,7.409883636905915e-08,0.09999924520630407,-5.255346554485674e-08,-2.119215573802252e-07,-5.823481987883976e-07,-4.6202181142960617e-07,-4.3463081845598835e-07,-1.7849866151971504e-07,-3.966382886281062e-07,7.877034564717541e-10,-5.156712717669392e-07,0.08876620352987319,-5.441437486453262e-07,6.433874571287392e-08,0.09999977066477693,-3.8953927101739746e-07,0.011249708767968254,-3.6635925021702555e-07,-4.1307199691836913e-07,-3.3867770749357627e-07,-4.925421487891488e-07,7.237891681308203e-08,0.09999967832847738,-7.270806555934643e-07,-2.3129446425453975e-07,3.6572629104348246e-07,-1.421251180793062e-07,-1.0295941270409812e-07
24,2020-05-11,Simple + Baseline,-2.8842786152097653e-07,0.09999910276644343,-5.899277174028674e-07,-1.4076285377895685e-06,-1.1923084508681706e-06,0.09999643486869704,0.09999564297773227,0.09999759075570293,-1.0781144411162155e-06,-2.4841268850677335e-06,1.8328764193610427e-07,-2.484224083089077e-06,-4.3710163067123396e-07,-3.3049530158252505e-07,-1.8553842904964166e-06,-1.1822782445430974e-06,0.09999988352597093,1.1442443318750104e-07,-1.3487045322842111e-07,0.09999753754946077,-3.7967517935639483e-07,-2.603253168821863e-06,-1.775167378996966e-06,0.09999764172488147,-5.380787278879328e-07,-8.261287549420612e-07,-2.124451282889107e-06,-2.2118521107538497e-06,-2.045539801309847e-06,5.660741111552584e-05,-1.1405860513590846e-06,-1.183651727841746e-06,-2.0408202614164113e-06,0.06956851573597171,-2.3400504376614844e-06,-2.2304769826432557e-06,0.09999994695337956,2.6972849106107055e-07,0.030439356241561487,-1.996258860270088e-06,-1.957587191908454e-06,-1.781602022544276e-06,8.243516807544379e-07,-1.6415616812785547e-06,0.09999771907201715,6.428348683929573e-07,-2.16094246617818e-06,-1.5993402049379486e-06,-1.2374951652989524e-06,-7.573705220118705e-07
24,2020-05-12,Simple + Baseline,-5.442310529939848e-10,0.0999998576917153,-1.7364014713490851e-07,-2.887158089889747e-07,-1.6362141530417258e-07,0.09999934165585857,0.09999816366113118,0.09999892390281455,-2.666509629300939e-07,-4.5773773191524017e-07,-5.295936951329676e-08,-4.38837977023642e-07,5.574164337340289e-09,-1.0701422197645344e-07,-3.598207985729737e-07,-4.326983064703348e-07,0.0781609717768081,-6.01740239226495e-08,0.02184746875658014,0.09999933199764793,-2.5259598770685798e-08,-3.9631920729172283e-07,-2.508742850570638e-07,0.09999919420336928,-4.6637093016709885e-08,-2.1354233627684117e-07,-6.163188344114901e-07,-6.132197767612566e-07,-5.215627834631364e-07,-2.9860946791068416e-07,-3.021164852783983e-07,-1.1535656336363052e-07,-6.831215105293687e-07,0.06956829006843328,-7.118159299243635e-07,-2.960375659477062e-07,0.10000000144940273,4.1355868249326895e-08,0.03043906043094862,-5.081961894227028e-07,-4.44525505949608e-07,-3.332144533815934e-07,2.3977921435062696e-07,-1.7019932031366982e-07,0.09999947829467831,-7.774371931397779e-08,-4.404975355769946e-07,-2.1213847006811553e-07,-2.2097041279071226e-07,-6.948241725824955e-08
24,2020-05-13,Simple + Baseline,-5.554339274578657e-07,0.09999867951673892,-1.585669488900208e-06,-1.0072111317104056e-06,-1.0831637349377252e-06,0.09999940227769111,0.0999981126094435,0.099998354975339,5.039834023122109e-07,-1.3841246250905462e-06,-5.555512559134875e-07,-1.3975947116981512e-06,-4.5526968375936836e-07,1.4911967639821792e-06,-2.3877716973686187e-08,-1.6817339562475502e-07,0.07815696164503408,3.630371674505643e-08,-1.9386388572057156e-07,0.09999784488088449,-6.143301078361636e-07,-1.1010459614471312e-06,-5.107739335249824e-07,0.09999895623539973,-6.744951786458905e-07,-3.3234085626332454e-08,-1.0893270319041185e-06,-1.2189665360526957e-06,-7.537838693156922e-07,-1.3069996186439198e-06,-1.702650706699471e-07,-5.390136442415269e-07,-1.8728009050108394e-07,0.053063269834345034,-8.38100487635298e-07,-1.025640753596149e-06,0.09999906103588431,7.713029687666253e-07,0.04586346742682599,-8.092636083786755e-07,-6.527988968818779e-07,-1.1139727765010718e-06,4.5260063854095966e-07,-2.61029358778109e-07,0.09999874185923228,-1.629233240942123e-07,-1.0867388338551685e-06,0.02294794825916932,-1.0366965468874628e-06,-4.623512309914875e-07
24,2020-05-14,Simple + Baseline,-2.7307001817520282e-08,0.05648023184265878,-1.2149313166975322e-06,-4.57625600264897e-07,-4.6915081960357683e-07,0.09999924011921145,0.09999650981832298,0.09999720265796853,-9.65274209678627e-07,-4.0193057292760877e-07,-6.522385252428111e-07,-5.587419193680829e-07,8.507634507360766e-08,5.362775226579678e-09,-2.5248522570903836e-07,-1.3198323105088596e-06,0.09999817235134058,-6.173001913460948e-07,-2.2360508245176177e-07,0.09999838100406737,2.3809043758830733e-09,-1.246757270875184e-07,-3.030751070773959e-08,0.09999755483816307,-1.9143936604152952e-07,-4.755807200605594e-07,-8.502218027597636e-07,-4.6837612495065005e-07,-6.304568958019292e-07,-3.195750262281691e-07,-3.7444852367250923e-07,1.4215277321961686e-07,-8.579285154685043e-07,0.05648603548304669,0.008552283539725508,-1.6471603517698992e-07,0.09999911834974184,-2.1686700479164765e-06,0.04585860104062977,-5.594225115814328e-07,-7.254526814480373e-07,-7.136887707532877e-08,-1.6082485864701719e-06,1.899949109824944e-07,0.09999907727275056,-4.5554734532363306e-07,-2.4572611679485313e-07,0.03265512855598315,-3.92861083911177e-07,-6.633864876184902e-08
24,2020-05-15,Simple + Baseline,4.0074158137070433e-07,0.020073434787006697,-8.392482798295751e-07,-1.734888976972109e-07,1.1749471048475839e-07,0.09999901778538806,0.09999530846120959,0.09999542123139302,-1.3523809304778871e-06,1.1504374643482802e-07,-3.0514707497651017e-07,0.02875272945836366,3.8842954670361125e-07,-1.1840749818134756e-06,-5.216251669471097e-07,-2.0990988609591725e-06,0.09999773632675611,-5.802176982630927e-07,-3.344785959396079e-07,0.09999851049863244,3.190358335456299e-07,1.1770363949162533e-07,1.6927008995694472e-07,0.09999707527040237,2.6654693799860607e-07,-6.784898055185978e-07,-9.963496472576211e-07,-6.200009748838901e-07,-5.819528875356817e-07,1.201789587102443e-07,-7.492451086381053e-07,4.629601973691249e-07,-2.0273220105431616e-06,0.0999998449760081,-1.7165468558184158e-06,3.005226268575848e-07,0.09999922327949742,-5.422072034222704e-06,0.045850705065619834,-6.949025674591436e-07,-8.90204431047564e-07,-1.663987215620481e-07,-2.437974835463102e-06,2.801682097249e-07,0.036223364870427946,-1.016158508852258e-06,-2.45561881067621e-07,0.06914047771684927,-5.030788961981276e-07,2.6272148952352106e-07
24,2020-05-18,Simple + Baseline,6.560997122064689e-08,0.003133579626783761,2.0739974500809982e-07,-1.7792483623926922e-07,3.4077667891954985e-07,0.0999984058184764,0.09999630223067572,0.09999696333834943,-5.428690783716258e-07,-3.242938167618054e-07,3.3591812414686316e-07,0.05125405362312254,1.0220277548682357e-07,-3.735809700179916e-07,-8.05489646637783e-07,-1.2280098066535278e-06,0.099998936782944,4.428643149041086e-07,-5.301153519854573e-07,0.09999914920194869,-2.0142956911454302e-08,-8.509431133718939e-07,-7.405460684392011e-07,0.09999793934857536,-3.1954816668824486e-07,-2.0497769712433786e-07,-1.1960278466252493e-06,-8.655997034140194e-07,-2.362943580833137e-07,-7.426699624781176e-07,-4.873540684432194e-07,-3.337885091830149e-07,-1.778922338486128e-06,0.0999986803735598,-1.5183563056323858e-06,-3.220172926748641e-07,0.0999994400445806,-2.6841725263502965e-06,0.018043364761625706,-7.073737363614622e-07,-5.932065808273173e-07,-7.221542659832637e-07,-9.049656965355192e-07,-4.58961502152851e-07,0.05847110990301013,-3.8179545446217346e-08,-5.503543189151971e-07,0.06913137747990668,-5.051235421460074e-07,-2.9513458951252495e-08
24,2020-05-19,Simple + Baseline,9.219075916963286e-08,8.298857294014296e-08,6.719008986244295e-08,3.300183410482147e-09,8.39938036384154e-08,0.09999967142567036,0.09999835829670577,0.09999851760338956,-2.199865155683168e-07,-2.4487871950582208e-08,7.694365919302504e-08,0.06116524284610864,6.771548638974719e-08,-2.2953678340127827e-07,-2.3209045110310705e-07,-4.946172539746206e-07,0.09541163286589589,5.850875206243455e-08,-3.987725595440685e-08,0.09999973230543693,6.401589455251231e-08,-6.991113796654626e-08,-7.642928315807786e-08,0.09999919837430403,4.7466853060155096e-08,-6.970269434138121e-08,-3.77755576894614e-07,-2.4067681426929564e-07,-1.1655364807146452e-07,-3.596305126263746e-08,-1.9107982492793623e-07,2.3433620920337907e-09,-7.241800317499873e-07,0.09999976996225146,-5.514093959369945e-07,-1.4465349181278224e-08,0.09999996059821331,-1.748696678894395e-06,-8.953051256525755e-07,-1.925143972930702e-07,-1.6777909296663718e-07,-1.2435554032762023e-07,-4.0524224786819627e-07,-5.5643884661370136e-08,0.043434864311525205,-8.263906744997296e-08,-1.2786932215785242e-07,0.10000002616162167,-1.2239699660541356e-07,1.13382859282771e-08
24,2020-05-20,Simple + Baseline,1.3513183348892513e-06,7.567977417131305e-07,1.634420752580865e-07,5.500437620550011e-07,7.154551131060969e-07,0.0999988255367902,0.09999436775250309,0.09999717994269741,-2.0410358947110126e-06,4.483779722310357e-07,3.839741195978973e-07,0.09434936446042845,9.796715784671359e-07,-2.261716792348553e-06,-1.2717299272332285e-06,-2.3384162360971927e-06,0.06225940542894375,-2.0487727234957658e-07,4.4487955672396614e-08,0.0999990622925291,1.056310257944092e-06,6.015236206152466e-07,4.069968565669239e-07,0.09999707541755096,1.2047745722668497e-06,-3.632125951891187e-07,-6.082766908081511e-07,-1.1252277755339831e-07,-1.0169824593923295e-06,9.181562552829537e-07,-1.5371609683812205e-06,5.764886033173997e-07,-4.232269542908313e-06,0.0999995637867961,-2.0221169081946257e-06,3.6306012378664246e-07,0.100000324909356,-5.620805042483448e-06,-1.2145017496930018e-05,-7.144733718247866e-07,-3.671048720748676e-07,1.5818275763167802e-07,-1.1087253262170666e-06,-2.1171101312101698e-07,0.04343438583216809,-1.152075376737442e-06,-3.288740905445477e-07,0.09999981416832078,-7.049416600596124e-07,3.407670676769387e-07
24,2020-05-21,Simple + Baseline,6.955359226013727e-08,-3.097755636409404e-07,-3.540982239514622e-07,-3.0368937020315496e-07,-1.8821515324672883e-07,0.09999932695388448,0.09999649057033774,0.09999765523809842,-7.421347384778675e-07,-2.724198611752637e-07,-3.1349659345194546e-07,0.09434734835302731,-1.8664477098829267e-08,-5.140441380717924e-07,-4.1831836697181737e-07,-1.200436583187152e-06,0.062257342929470244,-1.356898280308874e-07,-1.3882135786602837e-07,0.09999917235858412,-1.5196674748064033e-07,-1.8675301449534836e-07,-7.61631681009211e-08,0.09999828886239327,-2.6785832659816803e-07,-3.279540570120471e-07,-5.773925714818899e-07,-5.841826139531731e-07,-6.306589121157317e-07,-1.983777084152773e-07,-5.268880133962435e-07,-8.468217722788134e-09,-1.774980749933068e-06,0.09999952689768096,-1.1922663536458677e-06,-2.239079179836193e-07,0.09999968820517949,-4.115916965158888e-06,-7.33145156253954e-06,-5.844123671944884e-07,-3.7378016175079e-07,-4.0288522113521616e-07,-8.914124766056297e-07,-1.2272163964380358e-07,0.043432455785686636,-6.105348517559352e-07,-4.640822967807144e-07,0.09999965407538251,-4.218629830724654e-07,-5.3324415434365296e-08
24,2020-05-22,Simple + Baseline,8.807268447617373e-07,2.41443436027752e-07,-1.616418791281614e-07,2.1993414690977876e-07,2.3607686128261593e-07,0.09999943095698892,0.09999724963889195,0.09999672130437813,-6.550801070679474e-07,-4.4676391890873833e-07,-1.1928946276334057e-07,0.09999919995959453,4.900057953260825e-07,-1.023269955883054e-06,-9.09114943648952e-07,-1.1378702624279397e-06,0.05660717104246679,4.0343184424347096e-07,-3.541491850621736e-07,0.0999990454581105,2.3529230485070495e-07,-4.169832646511126e-07,-8.8956934779917e-08,0.09999827912545935,6.394957886566741e-07,-4.6865187039411556e-08,-6.494803519719347e-07,-5.818932035211597e-07,-1.3646987240779714e-06,5.022861362071212e-08,-1.3271786126286294e-06,-2.8950744412870226e-07,-2.437893869605574e-06,0.09999894609896719,-1.8675658368361489e-06,-6.413512933199123e-07,0.10000053947211304,-3.4851896785007317e-06,-4.421218798367123e-06,-7.878296609039503e-07,-3.1336614981983865e-07,-6.885929656918655e-07,-7.972792164945872e-07,-1.0261263925128933e-06,0.043429977224949304,-1.4634853373260506e-06,-7.67632961331354e-07,0.09999934842800051,-7.315881415237641e-07,-3.014293539790775e-07
24,2020-05-26,Simple + Baseline,2.4043130847411102e-08,-8.780822139114961e-07,-1.9434353596445107e-06,-9.250300633021844e-07,-5.115470293691367e-07,0.09999813670965035,0.09999517821812288,0.09999296919988084,-2.5509302971904656e-06,-1.6944915946772735e-07,-3.124863057238169e-07,0.02364149596410647,1.6858503848671294e-07,-1.4815684341709378e-06,-6.621704229965063e-07,-3.6578555929314394e-06,0.09999497007542849,-1.8950225598065558e-06,-2.1488059463195046e-07,0.09999718523490898,4.693359017318185e-07,0.007799731167415735,-8.272098254344137e-08,0.09999497539303026,7.773495487254459e-08,-1.8048931846308878e-06,-9.087526639023311e-07,-1.3172739326047135e-06,-1.11878149290545e-06,-2.9980163968164943e-07,-7.588731847166777e-07,6.894293480085606e-07,-3.1823086320941947e-06,0.0663348438713564,-2.113986516029625e-06,0.047195740787001825,0.09999834656637226,-8.156380355158335e-06,-7.697774863279156e-06,-1.8050821719126203e-06,-1.1293503395085896e-06,-2.174582193330427e-08,-3.6676877201173572e-06,3.2390827587996716e-07,0.04342523334423033,0.011680397317945642,-7.812078163864981e-07,0.09999967793122164,-9.147773213720575e-07,3.774247809838589e-07
24,2020-05-27,Simple + Baseline,1.5259688499255072e-07,-6.981094002376357e-07,-1.1646451940321033e-06,-5.541569960741219e-07,-3.2155177332836406e-07,0.09999832794889967,0.09999450746813504,0.09999338270080184,-1.657383053117239e-06,-1.0181994157418964e-07,-1.1938914013511384e-07,-6.168895049333449e-07,2.6994096756149127e-07,-1.2552209274705519e-06,-7.991748663371095e-07,-2.8885446717089267e-06,0.09999572316861687,-1.0691597634409955e-06,-2.4623284065883274e-07,0.099997632022881,5.108284174140957e-07,9.027934483536876e-09,-5.7615078073739514e-08,0.09999561662257378,1.0634413707670616e-07,-1.0929997752684812e-06,-1.23521117646441e-06,-1.4542657407828113e-06,-8.727035214534945e-07,-8.819620532766111e-08,-3.884532294598535e-07,6.896101955274212e-07,-3.56825475978529e-06,0.06633320225657986,-2.40052141475029e-06,0.08123370655504396,0.09999826666193357,-8.950188903232169e-06,-9.036685800913565e-06,-1.1158601559262925e-06,-1.016481742753464e-06,-2.8187345996608583e-07,-3.072510228632067e-06,3.74406365643466e-07,0.01445881356184066,0.04184692943308805,-7.60241614431481e-07,0.09619953476263293,-1.2593496421902078e-06,4.248152385038551e-07
24,2020-05-28,Simple + Baseline,2.13558994420611e-08,-1.8453793113432142e-07,-4.476192223062958e-07,-1.7448199315039294e-07,-1.2892321076919236e-07,0.09999945604510943,0.09999725119887688,0.09999640510990904,-6.955095364433717e-07,-1.4155097624482609e-08,-3.75119969587595e-08,-1.595226045667922e-07,3.0637363550282814e-08,-3.856159109536141e-07,-2.1462130393796994e-07,-1.245567714697118e-06,0.09999799344664381,-3.540767822416195e-07,-2.709181356369371e-09,0.09999911294554231,1.1897288783278808e-07,3.894707698098148e-08,2.7570994451857492e-08,0.09999809290998202,1.3371380933944597e-08,-4.452248154746941e-07,-4.332648422123452e-07,-5.668752575397262e-07,-2.878152841987846e-07,-1.2652631364366655e-08,-8.967238508024961e-08,2.0120107375771348e-07,-1.3791222301983648e-06,0.04956397742150356,-9.244891074739692e-07,0.05347890080777802,0.09999955901128135,-5.676414486153985e-06,-5.373556514415182e-06,-3.8559776205484654e-07,-3.0192049112168335e-07,1.755307840829696e-08,-1.4353522448505607e-06,1.2622235119919566e-07,-2.1846378317555438e-07,0.019893444466187772,-2.573269274108667e-07,0.09999994218908202,0.07709698390058628,1.2297404890589283e-07
24,2020-05-29,Simple + Baseline,-1.029773372309832e-08,9.229608145058376e-09,-7.945120333815232e-08,4.086688324708869e-09,4.0355253570305084e-08,0.09999995944712978,0.0999990996862377,0.09999851857011463,-9.018424854241364e-08,2.2383644984301654e-08,2.9120033486194125e-09,2.7256641555005066e-08,-2.258189492030938e-08,-3.2025340649086e-08,-1.5245005271236348e-08,-3.2427118465175494e-07,0.099999373376407,5.552439310376225e-09,1.3901694822192847e-08,0.0999998503947268,-1.1934871852590391e-08,-2.4938726422678028e-08,2.01341988848495e-08,0.09999947819311927,6.341901784705017e-09,-4.3293115357014735e-08,-7.296729656521523e-08,-8.656062318489562e-08,-4.267632524244146e-08,8.405630283951642e-08,8.413986966903113e-09,1.631237520829948e-08,-3.378117910307097e-07,0.07497582475933945,-2.1906813222402956e-07,0.04123110835395847,0.09999999990857776,-2.885004789066755e-06,-2.6181656813870285e-06,-4.5933660196546707e-08,-3.2207615894727744e-08,1.7018900889485854e-08,-4.3971586408987126e-07,-5.279828322085359e-09,6.644583839010854e-10,0.006706575547906128,-1.4913902750528302e-08,0.10000001031019636,0.0770973777033886,-2.09470302791798e-09
24,2020-06-01,Simple + Baseline,2.390702713988726e-06,0.059457329618109456,-1.3577039262863217e-06,5.656499225355463e-07,1.114171731527205e-06,0.09999780987056614,0.09998925897326368,0.09998750973855382,-2.204421238809563e-06,-6.987085849964052e-07,2.1684456626453587e-07,-1.5082956562891935e-06,1.5588347670099592e-06,-3.4939456478693906e-06,-2.0095837246406797e-06,-4.797047530910044e-06,0.038328256075520255,2.1284064576585432e-07,-7.48284397226618e-07,0.0999960003535376,1.3643382902417085e-06,1.7444771918183263e-07,7.461165793755318e-07,0.09999189036701533,2.096054785843847e-06,-2.0223654034360893e-07,-1.9609330951835444e-06,-1.2171178144038973e-06,-3.4573419644034656e-06,8.913046665121884e-07,-2.770707278445922e-06,3.7545767152433915e-07,-8.952712897306575e-06,0.09999794872164869,-6.002419267838467e-06,0.018550723371995967,0.09999977704459802,-1.0032177879168085e-05,-1.4475157311224004e-05,-1.6336511816957787e-06,-1.3696295107245612e-06,-1.6637279818950775e-06,-4.661090528763311e-06,-7.927285329601723e-07,-9.174698827640527e-07,0.006689118585739441,-1.0497837753004085e-06,0.09999934692230544,0.07708090270035865,4.5022849025391597e-07
24,2020-06-02,Simple + Baseline,2.8121487487163327e-06,0.10000185021792345,1.4242063531437173e-07,1.2041429892105993e-06,1.9042844754170236e-06,0.09999666957718872,0.09998879671932039,0.09998970791345413,-2.3238905542700567e-06,1.0990053614435287e-06,2.396050823404654e-06,-6.150517327436216e-07,2.299661354372605e-06,-4.8514964487943076e-06,-2.1912774603171605e-06,-5.863065585150758e-06,0.015603895276338157,-1.4663318166583655e-06,8.768136219338531e-09,0.09999673838799909,3.0922801894084876e-06,2.515409256562019e-06,1.0986575106184276e-06,0.09999021934416649,3.340263188559959e-06,-4.281750981762911e-07,-1.960164729504197e-06,-5.782434854912755e-07,-2.2569861291866853e-06,2.782955747828959e-06,-1.1068678010197095e-06,2.200595401175645e-06,-9.900931472176028e-06,0.06397976913968322,-4.871210139011141e-06,0.018564358427629716,0.09999938322390514,-1.565647562082853e-05,-1.525561717935996e-05,-6.248725503025768e-07,-9.004741541612348e-07,5.691991666979262e-07,-3.3097825663951673e-06,5.842975309397123e-07,4.4508382267110755e-08,0.024870655546564688,-1.7093949957629965e-07,0.09999988093639499,0.07706256407343876,1.800484177380699e-06
24,2020-06-03,Simple + Baseline,3.573856464020295e-07,0.0729747897123459,-1.1188413128668854e-07,1.771755201385182e-08,-1.8483390613143212e-07,0.09999893939228942,0.09999450684504778,0.09999385261011122,-1.163679060301126e-06,8.186180321982934e-08,5.746428337230812e-07,-2.49542882436903e-07,1.3906084360807557e-07,-1.1071610980712838e-06,-5.225488590831617e-07,-2.4809795869802533e-06,0.015601841474363122,-4.181013280198249e-07,7.266560779487885e-08,0.09999861356632594,5.636870470687151e-07,4.909337256541908e-07,3.599957692850951e-07,0.09999575590462581,5.672520265089835e-07,-3.4817035566808717e-07,-6.43080177200274e-07,-3.6373653016997295e-07,-5.908936844520877e-07,5.314761541785425e-07,-1.7509457081984424e-07,5.720231285415467e-07,-3.7496766990404934e-06,0.017967521215679513,-1.8586075774817703e-06,0.018564123391956972,0.09999952130107422,-1.0041601794279901e-05,-9.354705859755727e-06,-3.280397567187658e-07,-3.0878309042748766e-07,3.561525057651285e-07,-1.6926554091037779e-06,2.974537305294598e-07,-3.25187031436108e-07,0.07518769789461521,-2.581596484912763e-07,0.09999986375484707,0.0997539044369158,3.740207405363176e-07
24,2020-06-04,Simple + Baseline,5.350073572998988e-08,0.07297531447236175,5.858337800681913e-08,6.962820016318531e-08,7.511688206939084e-09,0.09999984649219977,0.0999980571482146,0.09999732368790655,-2.2379833571923156e-07,8.410283635968974e-08,8.609595978400261e-08,8.904859521393658e-09,0.00039156874059659904,-1.799689814340344e-07,-5.215257368036688e-08,-7.744677023390383e-07,0.015602172042179148,-3.684662898620042e-08,3.7950112980571e-08,0.09999968561404383,1.0328036156937385e-07,1.3539460820038723e-07,1.0940608989423015e-07,0.07823344746895396,1.1544718575592285e-07,-1.974252491201351e-08,-1.1492800570348711e-07,-2.127629569619846e-08,-8.127033698044454e-08,1.5065262889440387e-07,2.4389922415914744e-08,1.0232007983616099e-07,-1.1761927355288063e-06,0.021075649500331577,-5.365586935211801e-07,0.027126198672061775,0.09999996412996386,-5.429842346927382e-06,-4.847516790789191e-06,-1.1418229157961284e-08,-1.1568526306878239e-08,7.857751912876376e-08,-5.527735225111961e-07,7.049758990865784e-08,-7.740333352768315e-09,0.08461339019935868,4.742174036909906e-09,0.10000002555504732,0.1000000682610147,6.354260124568863e-08
24,2020-06-05,Simple + Baseline,-2.6356983285131517e-07,0.06692522751338158,3.7928615944650584e-07,-4.2426900521281477e-07,-9.0598523211002e-07,0.09999688795732135,0.09999222280647667,0.09999017174004671,-2.581827712271173e-06,-1.7384159024012672e-08,-2.4181738093532973e-07,-1.2708280797116354e-06,0.006955037755017481,1.305154277497424e-06,-1.405138201551501e-06,-3.427525865272109e-06,0.011640273292235555,-1.0779945845628055e-06,-6.912693059398745e-07,0.09999838901284708,7.215264692670117e-07,-2.611515974864612e-08,-1.735460204484779e-06,0.08940907543188308,3.7124809225741313e-08,-1.3932380222636842e-06,-2.7529197482171094e-06,-1.544698783314995e-06,-4.845990938541643e-08,3.918650881564341e-07,6.549304538627992e-07,1.1627718178080093e-06,-3.3880810279701307e-06,0.004074565352583007,-2.699474023427248e-06,0.03645388273489265,0.09999767244794183,-1.1113416780257731e-05,-9.129259361442496e-06,-1.930642283383651e-06,-1.571500872034973e-06,-2.914260925946236e-07,-3.4213814747061365e-06,9.357092748311312e-07,-2.0119596461519225e-06,0.08462145468627334,-1.639963975067047e-06,0.09999785956388361,0.09999839522425377,3.57527347228686e-07
24,2020-06-08,Simple + Baseline,1.3364800916500124e-07,0.06920934365415715,-2.739270323076086e-07,-1.4738625660343185e-07,-7.372813889153692e-07,0.09999936801490103,0.0999952072806967,0.09999147568569271,-2.0055073204315493e-06,2.095293380890119e-07,-1.4800863663136587e-06,-3.705247524739786e-07,0.007645023475417449,-6.048328782188442e-08,-6.591056073055495e-07,-2.4778785870382537e-06,-5.213289248280164e-06,-2.94832390091793e-07,-7.811125675888057e-08,0.09999843632753484,-4.778305289860727e-07,-1.0661667118214495e-08,6.356106316642032e-08,0.09029178172141324,1.1174675975630045e-07,-9.192089538156977e-07,-1.5878709371350158e-06,-1.4438659415435729e-06,-6.687344131462904e-07,2.0929031183966443e-07,-1.5220057876145666e-06,2.5021096077794597e-08,-2.060375914589633e-06,0.004071508328419997,-2.215880481494782e-06,0.05424864639914795,0.09999859674785834,-9.808348221500371e-06,-9.24563633124958e-06,-1.8012958865828507e-06,-1.575044602495716e-06,-7.093416372219563e-07,-3.1214339951151716e-06,4.929195498617774e-07,-1.402689422561551e-06,0.08461132505474335,-1.091915029932494e-06,0.0999992786308676,0.08999254159480745,-2.8125985011199e-07
24,2020-06-09,Simple + Baseline,7.152590404707264e-08,0.09137741061899049,-5.755082262485096e-08,3.210950626637843e-08,-2.790634770267682e-07,0.09999979191488471,0.09999785804343066,0.09999487429419825,-6.211672402957983e-07,-1.8873283260366042e-07,-5.875747311978027e-07,-3.5105206913944645e-07,-3.6744039305636934e-08,3.565855588365377e-07,-2.2584719517592156e-07,-9.777376677286272e-07,-2.4591109586748117e-06,1.253980801803645e-07,-1.0440759056082425e-07,0.09999919814854542,-1.9513637796181128e-07,-2.2333935707977333e-07,-2.3962882293970652e-08,0.07981006925338154,6.91983791675611e-08,-1.1953208037561135e-07,-6.322675593453447e-07,-6.951802347686802e-07,-2.5452868417992095e-07,-1.9526226999659585e-07,-5.42987950974297e-07,-1.4478337011015513e-07,-8.091693981278812e-07,-2.702525433676842e-07,-1.0307959484651702e-06,0.05424664319784787,0.09999956748589744,-5.6439091330735846e-06,-5.341456326693029e-06,-7.481299832338395e-07,-6.413580623218706e-07,-3.731610484745853e-07,-1.2832146567131188e-06,-7.724013136496824e-08,-6.688579695151962e-07,0.08460927993682371,-5.376555475432273e-07,0.09999971788181336,0.08999141053951104,-1.3203341732279577e-07
24,2020-06-10,Simple + Baseline,6.271285309375909e-09,0.10000007910428133,1.3445163926265876e-07,8.507305227700245e-08,3.9152684682755683e-08,0.10000004353787177,0.09999942706032133,0.09999797177133597,3.897563423036804e-08,3.122210427061404e-08,-3.2112333770976363e-09,1.4321189651048145e-08,2.1559174184750597e-09,2.062987986862475e-07,5.9576853791019295e-08,-1.5818668233490282e-07,-7.211904714438889e-07,1.3030887189348782e-07,2.3071531824103616e-09,0.09999994081637177,1.1585073709097411e-08,1.0738249951579023e-08,6.567423265038532e-09,0.07981068984726142,4.426685714735383e-08,1.0389453484461754e-07,-8.426505694521658e-08,-1.0527997944676563e-07,4.876357008942241e-08,2.104530001717757e-08,-1.9857102801491116e-08,-1.2777416828425034e-08,-1.1290975510383063e-07,0.008532141540976063,-2.171586509146906e-07,0.05424708408561645,0.10000001728393774,-2.7611372475872706e-06,-2.4588048801084198e-06,-8.050397460263921e-08,-4.4268239078903935e-08,-3.9260731303317906e-08,-2.82631648927482e-07,9.11767609935933e-09,-4.940018746049645e-08,0.08461003785273477,-3.3642601626502196e-08,0.09999994807540351,0.07280878027335658,1.3716069465372363e-08
24,2020-06-11,Simple + Baseline,8.516285668884561e-08,0.076905563413592,-1.0034464579529195e-07,-2.8186991157361887e-08,8.604447682395328e-08,0.09999973456134123,0.09999885689855599,0.09999800810175342,-5.451069675610777e-07,-8.579121135390932e-08,-1.5861396527103323e-07,-9.376536281935695e-08,1.3562559023718065e-07,-2.2851646393757216e-07,-1.391886432263203e-07,-7.611032973068056e-07,-7.434313865890845e-07,-1.123048181532037e-07,5.1523814630559045e-08,0.07132416820358496,1.5206382238405866e-07,1.1057650893463729e-07,-4.8695843699908864e-08,0.09999933036150295,1.1082980862766473e-07,-2.3077395599465615e-07,-2.752713332443098e-07,-2.0048809632859766e-07,-2.2125778342781224e-07,7.850025587020629e-08,-1.1943457772985212e-07,1.3761608781945666e-07,-6.554394504250376e-07,0.0028305546909609238,-4.935159222573282e-07,0.04895601475589871,0.09999980835492446,-2.9172770529084795e-06,-2.5704333909206276e-06,-3.501509143224807e-07,-2.1340363935427744e-07,-1.3927130384094836e-07,-9.795474568332946e-07,1.0222522147129613e-07,-1.3835519978450006e-07,0.09999958906476886,-5.4278382127622806e-08,0.09999998167878621,0.09999984478053485,1.0919316379991947e-07
24,2020-06-12,Simple + Baseline,-8.376587872028145e-08,0.08470026144896402,-8.485282717351939e-08,-6.966885206640138e-08,-3.299564531932275e-08,0.09999990970373936,0.09999939712285644,0.09999885470864522,-2.0045581006513816e-07,-5.141941191955826e-08,-1.1678236525640404e-07,-1.2892800533475587e-08,-4.8209468880702615e-08,-1.3345540005040474e-08,2.1052514446040324e-08,-3.233540721906995e-07,0.0006777094470112589,-4.672245831251339e-08,4.70543001147474e-09,-3.735363763096479e-08,-3.184004406996942e-08,-3.865200473301559e-08,-4.510551418822463e-08,0.0999997319321541,-6.784722372363708e-08,-1.2509451555190969e-07,-1.4047065311396987e-07,-1.6459134401023406e-07,-3.817017966887199e-08,-6.126210896899813e-08,-1.2984453676618127e-08,4.345543446866466e-09,-1.549146427125234e-07,0.017374226834087826,-2.412932770705775e-07,0.09999996729187795,0.0999998578594549,-1.8498686204492766e-06,-1.6607912439115935e-06,-1.7056173932903934e-07,-1.1541208565899026e-07,-9.110847830077486e-08,-5.032440728644692e-07,7.486326604208888e-08,-8.389399962805534e-08,0.09725681353314775,-3.820155784382467e-08,0.09999993251152975,0.09999998905944923,4.061451699796106e-09
24,2020-06-15,Simple + Baseline,-7.290830427251257e-09,0.05973865742158734,-1.23442826156666e-07,-7.875610669916326e-08,-6.296830090868611e-08,0.09999991841707953,0.09999961499597948,0.09999921648802754,-1.8295283877471823e-07,-7.545555134411015e-08,-1.0990643939358128e-07,0.015578211266740213,1.0408379968779712e-08,-1.069764106752733e-07,-8.118123099060898e-08,-2.874757007368668e-07,-7.155016787425329e-07,-1.0017310221093458e-07,0.00141860940732287,-1.3555296312392242e-07,-2.4955450294634728e-08,-2.3569926970340293e-08,-4.125190413856337e-08,0.09999974109000206,-2.1980083721337105e-08,-1.2657638994537508e-07,-1.591157041970472e-07,-1.639934083440249e-07,-1.2607642143921677e-07,-5.852075142086817e-08,-1.163350145339839e-07,-1.8797715083837487e-08,-2.3021032521110693e-07,0.023273334124816913,-2.2261431509539702e-07,0.09999995865689165,0.09999992901492562,-1.371108595230941e-06,-1.1910726343548356e-06,-1.4857917618547655e-07,-1.4296710770769246e-07,-8.611273541814765e-08,-3.721208055504582e-07,-1.4147688570836006e-08,-1.0678051858344689e-07,0.09999984080903143,-8.483299790826036e-08,0.09999999081652917,0.09999992108712162,-3.232757401382785e-08
24,2020-06-16,Simple + Baseline,-2.0731848809541993e-07,0.014621216860839892,-1.1570717944781864e-06,-2.2972350464064948e-07,-8.70039955882459e-08,0.09999958489429614,0.09999868783147398,0.09999471726398118,0.022524578580722404,-4.570453342959341e-07,-6.699519827568634e-07,0.06383474197774132,1.5535137966282382e-07,-4.1873281559716684e-07,-3.7099324633394335e-08,-2.2036941939410313e-06,-1.8553929843507506e-06,-2.2845614664090099e-07,0.0022716342735539033,0.007442473894005878,-9.351508194226524e-08,-1.4983365160768885e-07,-6.472126120348182e-07,0.07222188150420628,-1.1494379592114385e-07,4.71034186327809e-09,-1.1483998186298193e-06,-7.74652596011371e-07,-6.157348410061758e-07,-5.031167050274067e-07,-1.0115935434418225e-06,-2.282234524895108e-08,-9.86862025551442e-07,0.01712278877674675,-1.4650592331847891e-06,0.09999999466976997,0.09999910090485599,-4.021943742059025e-06,-3.820096914817947e-06,-1.7837550036486853e-06,-1.0601079039086891e-06,-1.3062963009127595e-06,-1.9317450261781693e-06,3.478747732703787e-07,-2.1687139063619755e-07,0.09999837384726615,-1.610604202841363e-07,0.10000023497579563,0.09999913197515678,-2.3539860548753623e-07
24,2020-06-17,Simple + Baseline,-3.052810460573868e-08,0.0024188767175973586,-6.324207984437345e-07,-5.340260356702103e-07,-2.0659418914858303e-07,0.0617803833025116,0.10000088209395001,0.09999679517937105,-8.89831633998972e-08,-6.499724285206757e-07,-9.425429404714043e-07,0.09999934568755062,-3.055493008135005e-08,-1.5138214446770448e-07,-9.030206538437072e-07,-8.820641715790406e-07,0.022198418453789573,-4.02626830939246e-08,0.0022557371153565926,0.09999925830668902,-6.795834264037986e-07,-1.0444106095973007e-06,-7.828902092299329e-07,0.011376793898831667,-3.6267678080035294e-07,-6.422158180509034e-08,-1.2394586968688898e-06,-5.64204739452224e-07,-9.090474561825312e-07,-6.896209401276693e-07,-1.163950492276316e-06,-9.926448810428015e-07,-7.574301956961259e-07,-1.0987235500327682e-06,-8.178344244948702e-07,0.09999911510610589,0.09999967607949274,1.491274210290525e-06,-1.7269398729309154e-06,-6.868886898000133e-07,-1.0340107553747472e-06,-1.0515606904871265e-06,-9.998319372606825e-07,-1.062292533122731e-06,-4.2070148838652776e-07,0.0999990443292936,-7.632388573681364e-07,0.09999950319812399,0.09999935646110808,-6.775215410235624e-07
24,2020-06-18,Simple + Baseline,-2.556323842323044e-07,-2.5927272076989756e-07,-4.1539606467623446e-07,-3.547432899790954e-07,-4.226437828336309e-07,0.06337602397313441,0.10000038669852943,0.09999790791354092,-1.0280606497868731e-08,-4.805839989840206e-07,-6.726447320854379e-07,0.09999943583472311,-1.629568070832771e-07,2.1842352146455364e-07,-3.2426368376746493e-07,-4.485774473113048e-07,-6.517849869128958e-07,-9.186026913322378e-08,-1.8858039804887565e-07,0.09999937912739935,-4.5226720024077136e-07,-5.538061944019605e-07,-3.3462804940047595e-07,-4.6320453501692204e-08,-3.149732745964862e-07,2.7058223544442094e-09,-6.781192550736142e-07,-4.457033404008173e-07,-5.553170185730879e-07,-5.232732651710834e-07,-6.46906894563848e-07,-4.407992786407199e-07,-3.375432403239003e-07,-1.541871024909971e-07,-4.0109590826497477e-07,0.09999936839503805,0.09999964577703321,1.091525176090547e-06,0.06268277042927066,-3.687615830059968e-07,-6.799452409578719e-07,-6.131695262169674e-07,-5.168731982764308e-07,-3.90450864919037e-07,-3.8237045903544984e-07,0.09999933470866351,-4.39969682249183e-07,0.07395921541689768,0.09999963026387527,-3.968865470244841e-07
24,2020-06-19,Simple + Baseline,-4.047941318084386e-09,-2.892144784233404e-07,-6.668941237736152e-07,-3.521579849912755e-07,-3.367439816499525e-07,0.08284330014623634,0.09999900805965677,0.0999952816838042,-1.5656186786960164e-06,-8.988312515401361e-08,-8.11184413500022e-07,0.08571705371617828,1.6114482820037183e-07,-8.340906288781743e-07,-4.5124492143011827e-07,-2.0651490802246006e-06,-1.6548340223016532e-06,-9.863799904190272e-07,-2.3171372270383245e-07,0.09999871071520018,-2.156425890730418e-07,-6.885018507742327e-08,9.609273262269446e-09,-1.098428897280172e-06,-9.072231645468945e-09,-6.114133923974543e-07,-7.112337649844477e-07,-7.902472018182169e-07,-9.345071691743868e-07,-1.5530334980449426e-07,-1.2158161921145323e-06,8.94993000285879e-09,-1.8930728810760707e-06,-4.0659931176096756e-08,-1.3708598426120276e-06,0.08420773489403484,0.09999933121601802,-2.2981535007897335e-06,0.06267719787754268,-8.991393913500231e-07,-1.0319348702629716e-06,-3.4867252840191594e-07,-2.402266491874676e-06,-6.921675561918508e-08,-5.504126566046735e-07,0.09999865669318508,-6.205472047874867e-07,0.08459191521004872,0.09999947515811368,-1.4490180567040132e-07
24,2020-06-22,Simple + Baseline,-1.833768073596701e-07,-2.6392496197722693e-07,-2.3403165708124252e-07,-1.8578538455497872e-07,-9.808081159288256e-08,0.09999975167226054,0.0999994505737396,0.09999734111719487,-5.124650882350157e-07,-5.839126786242339e-08,-3.1422094741158957e-07,0.012374921541311059,-1.0564472664629407e-07,-9.072015453469119e-08,-3.8045803267644745e-08,-9.269473105833485e-07,-9.437262156221606e-07,-2.588240454882004e-07,-1.8367630298179472e-07,0.09999953932884231,-2.245457004891912e-07,-3.074233329936656e-07,-1.873675561984737e-07,0.06069851901237301,-2.186999425592564e-07,-1.7286250392557048e-07,-2.5367331819038854e-07,-4.073482882083025e-07,-2.903472331566816e-07,-3.149523865215847e-07,-3.874585929468827e-07,-1.8436258143412263e-07,-5.92728154997659e-07,-3.2967640978646905e-07,-5.677496348251681e-07,0.0999997579329955,0.0999996934232905,-1.328957078406382e-06,0.026945040798953632,-4.521223465135328e-07,-3.93652835706394e-07,-1.9792597456330609e-07,-1.09843037488484e-06,-1.3585203798900604e-07,-2.8899862101980223e-07,0.09999957026657061,-2.35855472013693e-07,0.09999961606367265,0.09999986112720995,-9.161743174522403e-08
24,2020-06-23,Simple + Baseline,-1.7675381922385617e-08,-1.5599265289473878e-08,-5.653141319638382e-08,-4.250593820952991e-08,3.248569550260817e-09,0.09999998707731472,0.09999992771619276,0.09999890817504731,-5.124462016217558e-08,-1.5150537654179985e-08,-9.554676459702015e-09,0.012375208683596201,-3.833567753289086e-09,1.5469028489406882e-08,2.8348363677723148e-08,-2.6481588601074887e-07,-2.897314433602914e-07,-3.3913707061956355e-08,5.6671478379227465e-09,0.0999999190843319,-1.2017949813079108e-09,-2.50309176815181e-08,-2.4708176185798535e-08,0.10000017747954135,-1.3232183278344919e-08,-2.4483709416386553e-08,-3.631505291934115e-08,-1.0455585240215717e-07,-4.6530006273774074e-08,-3.9058968041969505e-08,-5.462017921740855e-08,-1.399866653361089e-08,-1.4519276562163826e-07,-1.1602256765085513e-08,-1.401349975822498e-07,0.10000000265898816,0.09999999629629709,-4.686691632274881e-07,5.276573015052278e-07,-8.45737214599598e-08,-4.914742181249338e-08,-1.9039338466395605e-08,-3.6872245104969487e-07,3.615182332987048e-09,-1.780926723853896e-08,0.09999996990553624,-1.0724696639590761e-08,0.09999998061340422,0.08762783348545188,1.3352217080055526e-09
24,2020-06-24,Simple + Baseline,-7.443858238067248e-09,0.007020743245507469,-6.74242773590111e-07,-5.376391288768964e-07,-7.853247131355864e-07,0.09999934465617229,0.09999825704734708,0.09999333991576292,-2.3584799427995244e-06,-4.4698569264572704e-07,-1.5083409143705324e-06,-9.432538189358017e-07,8.513517877169692e-08,-9.200482630941956e-07,-1.0851045147978312e-06,-1.7009454048799229e-06,-2.9517555033453327e-06,-1.0848550827785642e-06,-1.9922425496167145e-07,0.09999808117156364,-4.728734065677239e-07,-3.5280878323577424e-07,-1.1722280675077153e-07,0.09999740794532717,-2.883154882884149e-07,-1.1479053782612435e-06,-8.531727216300429e-07,-8.932870320362136e-07,-1.4386739968097328e-06,-5.276238202911373e-07,-1.4330537591063056e-06,-9.073383056655253e-08,-1.4618193032592846e-06,0.0034034686221481435,-1.847403256047828e-06,0.09999908802090021,0.09999908217352704,-3.638392169126077e-06,-2.8624429282354986e-06,-1.1191396018155678e-06,-1.583651179780782e-06,-5.63233091074797e-07,-3.216887674582176e-06,-3.1933462002738555e-07,-9.737098009563098e-07,0.09999823888408664,-8.837354381652865e-07,0.09999987737676601,0.08963474248370548,-4.404382572222118e-07
24,2020-06-25,Simple + Baseline,-1.6466338515862404e-07,0.0011622405580111778,-3.7872762855358725e-07,-2.440121779943767e-07,-9.68890542159992e-07,0.09999974859860224,0.0999984548021417,0.09999284082007713,-1.5652718871611085e-06,-4.837111728537555e-07,-1.6403873013002406e-06,-1.0966858714525736e-06,3.7221002386519583e-08,-4.263259776836378e-07,-8.800986941273128e-07,-2.0522865440685395e-06,-2.5824195225964136e-06,-7.574634044399371e-07,0.004564451767585843,0.09999835149365587,-6.730810072644263e-07,-4.3999410715211275e-07,-4.128035025972955e-07,0.09621426861265271,-2.4355144211989616e-07,-6.0499846114536e-07,-1.2031463749974868e-06,-1.5127977810577078e-06,-1.455438314874896e-06,-4.9564666214497e-07,-1.6967518021866516e-06,-4.933610152881911e-07,-1.975631983583811e-06,0.008488092772778323,-2.3361618613682838e-06,0.09999880069045189,0.09999941189494556,-4.292375808166598e-06,-3.7491573446092326e-06,-1.271710271518316e-06,-1.8668606578911248e-06,-1.4089637886730015e-06,-2.788863720041074e-06,-4.431766633149971e-07,-1.1745228313805044e-06,0.09999836421158702,-1.4271438729618008e-06,0.09999978384336282,0.08963115613602703,-7.80409117469071e-07
24,2020-06-26,Simple + Baseline,-8.85186929740219e-07,0.030394040425195844,-1.5473683252636593e-06,-1.7670831243034508e-06,-2.97361463585557e-06,0.09999954443268522,0.09999731717984903,0.09998263283508949,-3.9280310729293785e-06,-2.2929009630044926e-06,-4.769550973158046e-06,-2.795415857474054e-06,-1.1691006869329275e-07,-1.0578700490465455e-06,-2.9734430195936126e-06,-4.505304458021838e-06,-7.4623932571203485e-06,-2.773031952843989e-06,0.018155742446117996,0.0999955569820569,-1.8098374214090046e-06,-1.3836030705870543e-06,-1.4700196596103198e-06,0.030493090980843074,-1.0642316694487798e-06,-2.3687031380068263e-06,-3.6439943401132872e-06,-4.758039206312782e-06,-3.833648419570593e-06,-1.828265434853766e-06,-4.900537793629208e-06,-1.543006691452642e-06,-4.2424743834408505e-06,0.031495417425624846,-4.94750215568299e-06,0.09999700532719809,0.09999864331551996,-8.269626446467362e-06,-8.001714230719271e-06,-3.911396561355599e-06,-5.518447057351383e-06,-4.171849197352312e-06,-7.834217818016897e-06,-1.3592995498572693e-06,-3.6542284352083417e-06,0.09999560600160429,-3.4545723389932865e-06,0.09999967391949502,0.08962190536817156,-2.3185242821216273e-06
24,2020-06-29,Simple + Baseline,-1.1022731068258567e-07,0.04953397151324065,-4.3794654969552194e-07,-3.7846619137110125e-07,-4.060858830143278e-07,0.10000025991047133,0.09999994388236527,0.09999296657167513,-6.214012077201266e-07,-4.887153156209059e-07,-9.7994155342399e-07,-3.297669703462319e-07,-6.755645941789232e-08,1.9193887486066528e-08,-3.730966968902432e-07,-1.153706956042265e-06,-2.475655195536785e-06,-4.194497546553692e-07,0.0008511547636836804,0.09999933680053325,-2.3091050377553642e-07,0.018154876313350148,-2.7803559572349687e-07,1.0535752605383866e-06,-2.2236558515576e-07,-4.91960272344286e-07,-9.37889849121874e-07,-1.355638857164621e-06,-7.164698464135123e-07,-2.768254208058392e-07,-1.0332201501242527e-06,-2.2969435448541055e-07,-9.002988688382291e-07,0.03149643239268153,-1.3099804776176646e-06,0.09999968331607235,0.10000002176053711,-3.307939391717119e-06,-3.126553233901756e-06,-8.424991378074951e-07,-1.154165850631994e-06,-8.682953261720418e-07,-2.7085182910860073e-06,-1.548524521015761e-07,-6.782244592730442e-07,0.09999958041775271,-6.218805585311027e-07,0.10000019320898602,0.10000039004038887,-2.071595190387654e-07
24,2020-06-30,Simple + Baseline,-1.0037546155567658e-06,0.04952465391649849,-4.242336097654655e-06,-2.9582943026903877e-06,-2.54755835217788e-06,0.09999817879548277,0.09999502484229626,0.09998224701298843,-4.503783781457296e-06,-1.9058200927374625e-06,-3.9731872727990264e-06,-2.7608106266360363e-06,-2.79721377046532e-07,-3.2697225977172767e-06,-2.6622096136973353e-06,-7.876580156182518e-06,-8.518644968329277e-06,-4.007951721364999e-06,-5.425309878813401e-07,0.09999431252004255,-1.2844008116478195e-06,-1.974681812134952e-06,-1.435483609379557e-06,-3.854202617812418e-06,-1.1814795851089085e-06,-3.1155403976093127e-06,-3.3655244735049836e-06,-3.519641326032908e-06,-3.7529254443198452e-06,-2.0626339945780206e-06,-4.084726338418451e-06,-1.1041057841109736e-06,-9.157239039611554e-06,0.05066312517531086,-4.4635730473396815e-06,0.09999695646767157,0.09999738306281745,-1.0253244882417114e-05,-9.534948591547983e-06,-3.6582238327771684e-06,-3.903600210246052e-06,-3.5068952160604136e-06,-8.91414838652824e-06,-1.016967810899362e-06,-3.986608836351611e-06,0.09999596309451565,-2.6713020792563856e-06,0.0999997934172737,0.09999649913980606,-1.21571258614315e-06
24,2020-07-01,Simple + Baseline,-1.7361499231358039e-06,0.04951024594550205,-3.4819797416150344e-06,-2.730530761829096e-06,-2.595433284875535e-06,0.09999847518169248,0.09999428218777699,0.09998108235849598,-3.871514193835239e-06,-2.4287701141327696e-06,-4.732996328509729e-06,-3.1334845298140455e-06,-6.648982196263621e-07,-1.6745551881599184e-06,-2.46167092266513e-06,-6.790474003398273e-06,-7.949628976947587e-06,-2.993389864594113e-06,-4.880871511696415e-07,0.09999506725352757,-2.371797071803444e-06,-3.064251072013282e-06,-2.810255743621037e-06,3.980059437342479e-05,-2.154912283081585e-06,-2.7393966125744836e-06,-4.285764740945992e-06,-4.72435826054023e-06,-4.4349731662772036e-06,-2.867260394783273e-06,-4.277914032429309e-06,-2.317845632063283e-06,-6.394161489262995e-06,0.050650217747379,-5.699443262894787e-06,0.09999555515689659,0.09999812483137334,-1.1293789509522978e-05,-1.0472502897427597e-05,-4.166275652208197e-06,-4.719541759576798e-06,-5.1382680691263524e-06,-8.420345582509053e-06,-2.30476478285289e-06,-4.453577132992575e-06,0.09999598127399804,-4.003390417765297e-06,0.09999748799654355,0.09999679441073474,-2.216534313787043e-06
24,2020-07-02,Simple + Baseline,-5.76375207157845e-07,0.039167043928883226,-1.3595049747331514e-06,-1.2692434756281864e-06,-1.7126689526854747e-06,0.09999962553863305,0.0999963919900514,0.09998492351086129,-2.6697586865733885e-06,-1.187766936238581e-06,-3.2934684460065937e-06,-2.0482787007887335e-06,-3.6163344749902834e-08,-6.869317764294211e-07,-1.8656387998947116e-06,-4.43149749192889e-06,-5.295590514393576e-06,-1.785337629010005e-06,2.3940049117550677e-08,0.09999642835480964,-1.1611140637591572e-06,-1.3558828201033545e-06,-1.086391726739818e-06,0.04361422158858365,-6.301574104536405e-07,-1.4172993535711965e-06,-2.8742353147522728e-06,-2.8356795593790717e-06,-3.2420221211210234e-06,-1.4056802747154326e-06,-3.0563273343081384e-06,-1.0055120177230117e-06,-4.366862790005115e-06,0.017347167042543774,-3.85218838281226e-06,0.09999758027417584,0.09999907417289976,-9.367521477371908e-06,-8.807415767608339e-06,-2.243044143135929e-06,-3.7430992225963575e-06,-3.0219711423206004e-06,-5.598362997721705e-06,-1.0721604909568327e-06,-2.5092184395369292e-06,0.09999725578650757,-2.7375032899032544e-06,0.0999994655793814,0.09999791801726811,-1.4888790008092315e-06
24,2020-07-06,Simple + Baseline,-2.856168745610696e-07,0.015318144697026814,-6.255840046459099e-07,-6.726583434758763e-07,-9.9455657802167e-07,0.09999989864929898,0.0999980212895576,0.0999898116543686,-1.5580338681239313e-06,-6.375412391222188e-07,-1.8937018868064262e-06,-1.1246591824313265e-06,-6.888162551974597e-09,-3.4578126669986066e-07,-1.0974604009620136e-06,-2.6421572312795783e-06,-3.2060390419466003e-06,-1.041996777735952e-06,-1.1413142024704996e-07,0.09999789413335929,-6.2783922555105e-07,-6.712783508148757e-07,-5.435584121242704e-07,0.05399207902378937,-2.954692766039446e-07,-7.603673295839305e-07,-1.7416573725999862e-06,-1.6942109489565845e-06,-1.916113032626129e-06,-6.674257892741067e-07,-1.8271470537352057e-06,-5.35209625805886e-07,-2.6407991846431536e-06,0.030766942454211244,-2.2604282431671984e-06,0.09999878976500426,0.09999954028663946,-6.804368311472339e-06,-6.273026039195974e-06,-1.209781487477757e-06,-2.248170321423528e-06,-1.6018045978303817e-06,-3.465608278219538e-06,-5.79934626597922e-07,-1.3983914208305351e-06,0.09999850447073276,-1.5611475431417213e-06,0.09999987874101177,0.09999888793723347,-8.120392348492708e-07
24,2020-07-07,Simple + Baseline,-3.055602142545534e-07,-3.193046618098667e-07,-4.014020405185961e-07,-4.832391036859788e-07,-5.67460813845462e-07,0.10000000594934434,0.09999916431507298,0.09999413562521739,-5.768147518208097e-07,-4.145427752882645e-07,-9.678502833889061e-07,-6.352652562300899e-07,-1.716496041582781e-07,1.8626776008917808e-08,-4.4437069023035004e-07,-1.3498454288418246e-06,-1.7091636267644363e-06,-5.827654960283709e-07,-7.317212483754912e-08,0.09999889297285927,-4.0332333319473924e-07,-5.210530136981451e-07,-3.3621656025452873e-07,0.07058388203215714,-3.365508808149412e-07,-2.751491008845438e-07,-8.034610990851218e-07,-8.777675927493998e-07,-9.964445567712821e-07,-5.022626334886381e-07,-8.820987580622495e-07,-3.9950122947883774e-07,-1.1809221584158008e-06,0.012796136801970557,-9.966411996462406e-07,0.0999992765231096,0.09999965070163107,0.01665753789226108,-3.4705085300578264e-06,-5.736137992793853e-07,-1.084357438005475e-06,-8.071151409728151e-07,-1.7654303477853502e-06,-3.6835970598446906e-07,-6.745067061587143e-07,0.09999931923806296,-7.541435930531003e-07,0.09999999560180368,0.09999943237555754,-4.3760485366924e-07
24,2020-07-08,Simple + Baseline,-3.213744963446421e-07,-4.0475093644178425e-07,-2.9184505491077097e-07,-4.2799415150636374e-07,-3.750760827482317e-07,0.09999986204836198,0.09999931842468612,0.09999623817199836,-2.6609175658474897e-07,-3.4692377401343534e-07,-5.883425844170028e-07,-5.255969562589898e-07,-1.7619628480303575e-07,1.3853222721256696e-07,-2.5108560634818565e-07,-8.508675435823424e-07,-1.0742495252338599e-06,-3.9574212823131227e-07,-9.167046577937228e-08,0.09999920372310439,-3.540718984483954e-07,-5.755286470843473e-07,-3.9381493985880567e-07,0.099999667996485,-3.8347983751115154e-07,-1.227881663159343e-07,-4.1356970717205194e-07,-6.459355137351614e-07,-7.029406439545622e-07,-5.494399019957138e-07,-5.211823276256985e-07,-4.275861200944401e-07,-6.024244509825326e-07,-4.5557934234912597e-07,-5.993729748891619e-07,0.09999932750827312,0.09999963787507009,2.7516989445676845e-05,-1.8800968305667901e-06,-4.3567854259245624e-07,-6.213225445270333e-07,-6.218678504665769e-07,-1.0221447757477277e-06,-4.085562653765346e-07,-5.470738663826836e-07,0.09999950108415125,-5.219198943614311e-07,0.09999965376040729,0.09999947076293134,-3.4203131549181e-07
24,2020-07-09,Simple + Baseline,-1.1329375937561865e-07,-1.8350218293167035e-07,-1.942545552863318e-07,-2.1647003121143394e-07,-2.0128347845475947e-07,0.09999983955141495,0.09999941226838663,0.09999765938695426,-2.3068910519378768e-07,-1.6281357222472557e-07,-2.770884952863697e-07,-2.514373461652655e-07,3.596518723327827e-09,-2.9154678352607265e-08,-1.0176019737309319e-07,-5.367626916739862e-07,-6.69026312646198e-07,-2.3513328557018178e-07,-2.2330280092716612e-08,0.09999960701657115,-1.1647759151286506e-07,-2.3373941980317457e-07,-1.8970589471178657e-07,0.09999966874864855,-1.319896958532966e-07,-1.3628333428073057e-07,-2.45481745314734e-07,-4.258024658966561e-07,-3.7769439735114964e-07,-2.561491391269676e-07,-2.47593340864621e-07,-1.4708621660419878e-07,-3.8298297222515744e-07,-4.132374753858305e-07,-4.0668294806372487e-07,0.09999972559082336,0.09999981493701553,1.560591674454777e-05,-1.3222946423127507e-06,-2.8163859005703374e-07,-3.2302816585770934e-07,-2.8685650897821813e-07,-6.849723348355341e-07,-1.233206294555621e-07,-3.0386568250959444e-07,0.09999977455077266,-2.82152454836214e-07,0.099999977365778,0.09999972592248871,-6.726054218713972e-08
24,2020-07-10,Simple + Baseline,-4.408883012938242e-07,-3.9428812038290974e-07,-5.133660405257527e-07,-6.792491016096534e-07,-6.9091897897729e-07,0.1000000336791836,0.09999969462127496,0.09999764081717255,-4.785533675193276e-07,-4.7291598778861624e-07,-9.768168063321653e-07,-5.197275696185012e-07,-2.2898311308700102e-07,5.994335962265589e-08,-4.407493268259905e-07,-6.67902046625347e-07,-1.0288462108685219e-06,-6.308382678009558e-07,-9.029684531335495e-08,0.0999988846243474,-5.970558773004029e-07,-6.061027947334864e-07,-3.392091117066376e-07,0.07697490123325129,-4.908944534440195e-07,-2.9259558383602054e-07,-3.2203474067637626e-07,-6.711164840796465e-07,-7.550067510023105e-07,-6.347834971276693e-07,-9.315881803979533e-07,-5.632196603977293e-07,-4.5638694616629434e-07,0.014577170380967973,-4.7656276382070726e-07,0.09999919963409962,0.09999972367338429,0.00847617703178504,-9.195966871600479e-07,-5.131202307556232e-07,-9.864941958281058e-07,-8.881243138729208e-07,-8.768807179036277e-07,-4.998689344638273e-07,-6.029196398495253e-07,0.09999918004457752,-7.067565181667936e-07,0.09999994363120143,0.09999935825803213,-5.826200726600287e-07
24,2020-07-13,Simple + Baseline,-1.7583881895167992e-06,-1.4703083899244892e-06,-1.7382006281522248e-06,-2.9162340877928773e-06,-2.7240939463118315e-06,0.06086287626323825,0.10000045398270253,0.09999471977657318,-1.4141051547702035e-06,-2.111916905100362e-06,-3.116038793705149e-06,-1.8929202342839575e-06,-9.969155384458766e-07,1.9830074532255809e-07,-1.4497664974008607e-06,-2.072033155407536e-06,-2.9964802613798717e-06,-2.125154135720023e-06,-3.9113677207592796e-07,0.09999552359038151,-2.527985936072992e-06,-2.4718610058645376e-06,-1.2321488833472242e-06,0.055438886102040695,-2.0697760725117643e-06,-1.2978247632395642e-06,-1.3111080771708466e-06,-3.09217883409334e-06,-2.7898765669712055e-06,-2.5588173956642403e-06,-3.819679654589549e-06,-2.3582562333473414e-06,-2.294294433724234e-06,0.04440175918785422,-1.590001793223332e-06,0.09999691816196919,0.09999880948111745,0.03939652634206378,-1.383774246790003e-06,-2.3025217701486106e-06,-2.9648473979957413e-06,-2.876565453863545e-06,-3.7988017919732224e-06,-1.941426503978755e-06,-2.4379756277843305e-06,0.09999734510698889,-2.9388859856838404e-06,0.09999984989749526,0.09999746961708723,-2.0993063583280427e-06
24,2020-07-14,Simple + Baseline,-5.348747150791378e-07,-5.520292758489501e-07,-6.835579900818765e-07,-1.1573364711856673e-06,-9.176375964903242e-07,0.05585169355569747,0.10000018734822898,0.09999607841162744,-6.333983070624251e-07,-6.060381130830283e-07,-1.4013787357188223e-06,-7.488328061983866e-07,-2.2316240431088804e-07,2.9907663083158334e-07,-4.905704459089996e-07,-1.204248757988242e-06,-1.7482366484681344e-06,-9.451396916272851e-07,-4.891421400114686e-08,0.09999798291920665,-7.602648600869334e-07,-9.715927681388748e-07,-3.5262927222666364e-07,-2.0483196941044888e-07,-6.402753651994942e-07,-3.4205513366537403e-07,-3.843017445422985e-07,-1.4010259474426198e-06,-1.5002940521056134e-06,-1.1494861828498688e-06,-1.579038722355988e-06,-7.752411900788858e-07,-1.0920004807556287e-06,0.08766049131022649,-7.460198279320341e-07,0.09999874875844218,0.0999995432588407,0.05653121857290403,-7.987914416297033e-07,-9.142953680843958e-07,-1.4856931890715395e-06,-1.2711747546377338e-06,-2.0484255772658164e-06,-7.025728727346126e-07,-1.040856572269457e-06,0.09999873374366476,-1.1795507265341287e-06,0.09999994013529412,0.09999895360945274,-6.33776923653178e-07
24,2020-07-15,Simple + Baseline,-2.720946427745741e-07,-6.531164111356772e-07,-1.2512935705451944e-06,-1.4936716332325926e-06,-1.3249511618347827e-06,0.055339540537564534,0.0999974449995052,0.09998784723736227,-3.5273177405697907e-06,-5.171429311120944e-07,-2.2673285440930805e-06,-9.761152000264231e-07,2.488096533311023e-07,-1.7439443907796204e-06,-1.5607873070960046e-06,-3.328173516745544e-06,-3.5846579026231877e-06,-2.069157415505019e-06,-1.1931599317950895e-07,0.09999765021273138,-7.011074266865242e-07,0.0018241289320183362,-1.4629908690246164e-07,-1.939858993951382e-06,-2.933085651079727e-07,-2.3281024745926114e-06,-1.4495291458565032e-06,-2.743748578882371e-06,-2.6913508364280012e-06,-5.26565041112365e-07,-2.8752182596512047e-06,-3.971721206094694e-07,-4.271154314124451e-06,0.08765606866785541,-2.6790071663035525e-06,0.0999988867910089,0.08355482977387409,0.09998592825637206,-5.828465327280913e-06,-2.2156680546761358e-06,-2.370313134480459e-06,-1.2274497517536211e-06,-6.381872853682267e-06,-7.628861762947644e-07,-2.7948779834977305e-06,0.0999975172032492,-2.6826527497134073e-06,0.09999894791689769,0.07173371646229892,-7.126804389100653e-07
24,2020-07-16,Simple + Baseline,6.515601364179206e-07,-1.2211335174737288e-06,-2.338600702222082e-06,-1.799662379296895e-06,-1.2734469321402699e-06,0.05532153191684732,0.09999156419302191,0.09998376144005623,-5.307238852480048e-06,-1.2561120357431753e-06,-1.2036990439641082e-06,-1.9628541635381744e-06,6.452033484726976e-07,-3.1395169966246982e-06,-2.277218264612978e-06,-7.018043562150939e-06,-6.3386016408705176e-06,-2.6649685186891725e-06,7.224255799708386e-07,0.09999640232638028,5.141781078356435e-07,-2.190496241342085e-06,3.933805346951819e-07,-6.269713380023699e-06,3.567401699520446e-07,-3.3664468259856147e-06,-2.205997934363531e-06,-5.457305480588937e-06,-3.472558357527363e-06,0.022624732563187103,-1.8509003560468316e-06,8.986887526011082e-07,-7.614182123349005e-06,0.05778224756042941,-5.432184962756175e-06,0.09999877123764621,0.05472770198044869,0.0999801038107273,-1.2014039057246306e-05,-4.871087471933459e-06,0.005385550062151975,-1.7489993343830076e-06,-1.0379194502157304e-05,0.004320028329533023,-4.063470274502734e-06,0.09999705294374177,-2.7776931760467464e-06,0.10000010042098734,0.09999753458088557,3.3414313853727676e-07
24,2020-07-17,Simple + Baseline,-4.55967120718425e-07,-1.7744654282568802e-06,-2.151020223815787e-06,-2.552693582323665e-06,-1.3229158287864331e-06,0.055312471716368064,0.09999267524398232,0.09998207549346796,-5.727383966121788e-06,-1.4060271897166922e-06,-3.14007068557952e-06,-2.0428517169115584e-06,-1.0115226301587264e-07,-2.2724727080177567e-06,-2.3616485729272508e-06,-6.914164363326647e-06,-7.1948868649854976e-06,-2.979457473941097e-06,-1.2308514283379965e-07,0.09999607649482617,-1.3847578106394662e-06,-2.198095997563498e-06,-6.284711077090176e-07,-5.4231619945519275e-06,-9.019294230013397e-07,-3.1883851600276986e-06,-1.975760312921129e-06,-4.313105487909557e-06,-4.0785979805263845e-06,0.022615637606344833,-2.975274997701718e-06,-1.479203885708079e-06,-6.0693971875567225e-06,0.05777174613334697,-5.4801396563952655e-06,0.09999644303097503,0.06751267381819205,0.09996807174073473,-1.2802172403954252e-05,-3.865977352819985e-06,0.005376151451099762,-2.8816523226689556e-06,-9.662411055024767e-06,-2.0761340265585385e-06,-4.394989108426684e-06,0.09999564389431435,-3.510361961298988e-06,0.09999735433024576,0.09160632957994295,-1.4757762237394612e-06
24,2020-07-20,Simple + Baseline,-1.0792819762338255e-07,-5.034827868997236e-07,-9.265811328968686e-07,-9.629354802393297e-07,-4.560644943582621e-07,0.05531159810863539,0.09999664058559582,0.09998968962748969,-2.185441836861344e-06,-5.429633730332496e-07,-1.2190348149593433e-06,-7.414292953812946e-07,2.8895402069520585e-09,-8.02188830054592e-07,-7.7754599589127e-07,-3.4555659730946836e-06,-3.547311454645631e-06,-1.133212862921352e-06,-5.2980613405441496e-09,0.09999842618023083,-2.9444826304697517e-07,-5.96011638445521e-07,-2.1789400171137986e-07,-2.457657635730066e-06,-1.911047135264479e-07,-1.2641037240208752e-06,-9.621143055675269e-07,-1.98978463789967e-06,-1.779002227270571e-06,-2.641624118176981e-07,-1.226517257605716e-06,-3.4462290736889866e-07,-2.9097783678554716e-06,0.08272835177888409,-2.705341263203496e-06,0.09999895703281034,0.06205275506406561,0.09998036889174369,-7.889249172037927e-06,-1.4792405025188192e-06,-6.423229126323635e-07,-1.109064458119265e-06,-4.997736681032878e-06,-4.900412181401607e-07,-1.677454926265118e-06,0.09999861260185368,-1.336761939681495e-06,0.09999948499221521,0.0999996386606251,-3.277419872381671e-07
