seed,date,strategy,NASDAQ:MORN,NASDAQ:PLAB,NYSE:USPH,NASDAQ:HWC,NYSE:RRX,NYSE:ORCL,NYSE:JPM,NASDAQ:CSTL,NASDAQ:PBYI,NYSE:SBOW,NYSE:USM,NASDAQ:VSEC,NASDAQ:ADBE,NASDAQ:WERN,NYSE:VOYA,NASDAQ:SFIX,NASDAQ:MDB,NYSE:PGR,NYSE:NFG,NYSE:MFC,NYSE:MDU,NYSE:MS,NYSE:ALK,NYSE:HP,NYSE:BBW,NYSE:WLK,NASDAQ:KIDS,NASDAQ:FHB,NYSE:IQV,NYSE:SD,NYSE:LXU,NASDAQ:MNRO,NYSE:SCL,NASDAQ:GO,NASDAQ:HEES,NASDAQ:MERC,NYSE:SMG,NYSE:LII,NASDAQ:UCTT,NASDAQ:RVNC,NYSE:WGO,NYSE:QTWO,NASDAQ:RPD,NASDAQ:HOPE,NYSE:JEF,NASDAQ:RYTM,NYSE:FDX,NYSE:IEX,NYSE:MO,NYSE:TRI
10,2020-03-18,Simple + Baseline,-4.347053779704026e-08,-4.9749251898822026e-08,-5.235075743649867e-08,-4.983851329507779e-08,-5.0610695637786336e-08,0.0999999704636768,-4.672612258089964e-08,-4.996784801014841e-08,0.09999997332863421,-4.6178649234539396e-08,0.09999997091538206,-5.5161099310633705e-08,-4.346916506036105e-08,0.09999997006532167,-4.506321482369463e-08,0.09999997326313126,-4.485989747035096e-08,-4.415990185872964e-08,-4.9753127623275555e-08,-4.5161498658414006e-08,-5.3023623919664495e-08,-4.572522419948275e-08,-5.472041825510207e-08,-5.054483624530334e-08,-4.394097120526863e-08,0.09999997063421992,-4.335598814350371e-08,2.1462501629089053e-06,-5.065828781118505e-08,-4.54863897814386e-08,-4.4854201637277355e-08,-4.842013384301109e-08,0.09999997152830876,0.09999996925100428,-5.1814802566187885e-08,-4.663633293525389e-08,-5.177969813259039e-08,-4.327630786255829e-08,-4.793502577842598e-08,-4.876996750479547e-08,-5.789141064226175e-08,-4.9223038799619374e-08,-4.437737313706133e-08,-4.384832718743051e-08,-4.811977108254404e-08,-4.338647815310508e-08,0.09999997314269042,-4.605119642892928e-08,-3.768225840647906e-08,0.0999999692109169
10,2020-03-19,Simple + Baseline,-4.191386560160932e-08,-4.62546558669366e-08,-4.7287575162465935e-08,-4.657224680935004e-08,-4.7089923490584495e-08,1.584878446288286e-07,-4.435784115485005e-08,-4.634958910664709e-08,0.099999970365557,-4.369927023987615e-08,0.09999996700639895,-4.9409349790667475e-08,-4.1694603016951445e-08,-1.100801535907262e-06,-4.3786746146001625e-08,0.09999996930453273,0.10000032951304154,-4.333342018870515e-08,-4.716163401389945e-08,-4.266262668507919e-08,0.10000043503579356,-4.3732116760752035e-08,-5.077347655023158e-08,-4.7763303324843656e-08,0.09999769883501564,0.09999996790703061,-4.152583457415593e-08,1.2408396822029798e-06,-4.733431507679757e-08,-4.4017547908671616e-08,-4.239484246261439e-08,-4.553842133355898e-08,1.4277970957818445e-06,7.159551966983083e-07,-4.69420899600368e-08,-4.396589998079859e-08,-4.7586783393632074e-08,0.10000086226507184,-4.562146935770401e-08,-4.6454620308869485e-08,-5.215918327658887e-08,-4.5606053830833136e-08,-4.257485425889207e-08,-4.2594103095834096e-08,-4.567485567772141e-08,-4.179210944856659e-08,0.09999996968879664,-4.322153035296346e-08,-3.888143528251778e-08,0.0999999657783601
10,2020-03-20,Simple + Baseline,1.3292351625324112e-06,-3.80152097201511e-07,-2.7593552117621904e-07,-1.1035490502407037e-07,-3.300134198398886e-07,0.10000446816418729,1.1801134433391863e-07,0.09999962196293567,0.10000102828051395,4.654314246318067e-07,1.97636044545892e-06,-2.5396058911689716e-07,1.0114334319255116e-06,0.09263635218356997,2.285260954027392e-06,0.10000240452665793,0.00732333889946679,8.711193344149657e-07,-3.7915135527595126e-07,3.5248330616088445e-07,-1.8342907764973159e-07,6.279463884483709e-07,-5.19942716804644e-07,-4.2825298539508773e-07,0.09999984275819923,0.10000077256867643,7.506987901542706e-07,3.3499255981261577e-06,-4.1333238236630334e-07,9.474422282045372e-07,1.326713123915315e-07,2.099388389158749e-07,9.636898401605743e-07,0.10000261873554574,-2.89389591250156e-07,2.0369228374786793e-07,-2.3498869698830393e-07,1.17781633254414e-06,5.118247538892911e-07,-3.381719066765065e-07,-3.8498578687543054e-07,-2.1978859474916437e-07,0.1000002702195385,2.204449959493261e-06,4.2534039831934056e-07,1.7157618487459324e-06,0.10000197007644142,1.7649770661049647e-07,4.137649332349582e-06,6.085458145402244e-06
10,2020-03-23,Simple + Baseline,6.088456735628518e-07,-2.467745324490876e-07,-1.3801687434839318e-08,2.3514097433839616e-07,-4.5757460392285564e-07,0.0999996497092661,-5.674672366217919e-07,0.016513158499755577,0.10000023392652582,2.2166777475156487e-07,0.08347956748983788,1.4913482454170408e-07,0.10000077788046816,2.5616873689258615e-06,3.336450299769458e-07,0.1000001920107466,0.10000024702267803,-1.4115094517723096e-06,-7.833080259356181e-07,1.589914072629862e-07,4.7504845735842354e-09,-4.215188714667911e-07,-1.362273475037719e-07,-1.4000567646348693e-07,-6.511789690166847e-07,5.286737719460025e-07,-3.402171002633016e-07,9.885885466951596e-07,-7.33037533604597e-07,5.462079461573321e-08,0.10000003436061884,4.724932284326096e-07,7.401930852119407e-07,0.10000039367098924,-8.689653726086737e-08,-1.8426589594074286e-07,-7.106282233361082e-08,2.242643156508229e-07,6.487481671590056e-07,-8.878143291645501e-07,-2.53897017246348e-07,-2.2828072932480786e-07,0.09999946752120159,-7.869047073412192e-07,6.115959441214837e-07,7.343984856205001e-07,0.10000088858214662,3.3114806108969254e-07,1.643522736630574e-06,2.545645767098281e-06
10,2020-03-24,Simple + Baseline,8.027360027969508e-08,0.0019512120612676246,1.1981015635985376e-07,2.850246958894522e-07,-1.323035541688424e-07,0.0999996646629684,6.29236489734954e-08,-4.762435459621836e-07,0.10000046503412005,1.8703362853936782e-07,0.010182411712244654,8.961044177993385e-08,0.09999963633482395,1.2654008960627104e-06,2.87039421194299e-07,0.10000042523204,0.10000013366558698,-1.504059168710713e-06,-3.133332802520331e-07,3.8351200863433906e-07,8.481237066124766e-08,2.8427749337652855e-07,8.072758974439803e-08,0.018653432255104154,-6.213306563496798e-07,0.06921322147735215,-9.226815358288548e-07,4.5128723866541055e-07,-7.5673534444115e-09,-4.3364120693345857e-07,0.09999979492201097,2.8492643482541516e-07,4.2845172560134137e-07,0.09999926844269487,-2.5813953308106964e-07,-4.329660937290912e-07,1.7187318264369934e-07,8.223209506608488e-08,1.8122591150966545e-07,-4.410685856452979e-07,-1.5898293786278405e-07,-6.272331746091956e-09,0.09999961332808542,-3.727270870379788e-08,2.8626955427368895e-07,-1.5644933966194655e-07,0.10000065787945395,6.940103628502976e-08,3.02307852645093e-07,5.034427788867899e-07
10,2020-03-25,Simple + Baseline,1.5813074643551852e-06,1.0701149663408478e-06,3.2150659215032177e-07,1.6133050191434633e-07,2.2089841317153011e-07,0.10000027452019469,2.8777127013675727e-07,2.2279100317666144e-07,0.10000073532302645,3.0073863511996194e-07,1.5894925206693269e-06,3.299258452282286e-07,0.03552090027352248,1.0697470472973683e-06,6.433826244417606e-08,0.06445608390728708,0.1000009565846569,-8.088804763764139e-08,4.4864710664271115e-08,2.9205444739091477e-07,3.4455641918547485e-07,1.1127775416510745e-07,7.344909617636576e-08,9.441521452695337e-08,1.7619410254978338e-07,0.10000044103530031,1.0339977721285046e-06,5.101941397571799e-08,1.2420583071042105e-07,0.10000018805153107,0.10000106544037131,2.5129958603076086e-07,7.522812709895272e-08,0.10000028955945453,5.022906418750537e-07,3.8964807178105643e-07,2.0432158110572812e-07,5.566326795529862e-07,3.2795389576575936e-07,1.4596018662970703e-07,1.9051403702147897e-07,3.9211536477696814e-07,0.10000101599225127,-1.118806287059087e-08,2.239540104378297e-07,1.6548763327630078e-06,0.10000192112906772,8.514118885435883e-07,9.724723017751641e-08,7.821983110949438e-07
10,2020-03-26,Simple + Baseline,-8.580629334457501e-08,-5.344663335271688e-08,7.575501921723577e-09,-2.533859605918969e-09,-2.5173146323774867e-08,0.100000061960637,-6.795741012374271e-09,1.050064788175056e-08,0.10000004090796652,-1.9732576538401835e-09,2.855019698329825e-07,-1.5932635210053203e-08,-7.678389010329219e-08,6.980295990948251e-09,-2.91742218811035e-08,0.005924873175660172,0.10000000987420447,-6.695967687086753e-08,-1.6853002892853313e-08,4.275511114570268e-09,3.503193439680653e-09,1.8173985656851343e-08,-1.585137560318752e-08,4.328131617062139e-09,7.225742260107882e-08,0.10000005888467578,4.0129142718222126e-08,4.925207592121807e-08,-1.2232465351679102e-08,0.0940750382984892,0.0999998852308156,4.25922706927412e-08,5.51549864381404e-09,0.09999994049796372,0.09999996080983256,6.372029898956318e-08,-1.630567794975349e-08,-1.088989847790436e-08,-7.769105341608073e-08,-5.493262315270573e-08,-3.377353642155556e-08,-2.0980537736924845e-09,0.09999996425566791,2.317759737863391e-08,-2.6756644022818632e-08,-6.234102065002512e-08,0.10000016215927272,-8.574276111754468e-09,-4.663994697341544e-09,7.405369338254155e-08
10,2020-03-27,Simple + Baseline,-1.5927958978776173e-06,5.6875043462522825e-06,8.46500195066076e-07,-4.898401050886268e-07,-7.148953719787987e-07,0.10000018343045634,-2.752656264687358e-06,0.00297845855505942,0.09998969653851737,-2.904734096770604e-06,0.031328091633010535,2.135035546170998e-06,7.73989005400218e-06,-1.3402369036548983e-05,-4.19778383887227e-06,-8.395916764888936e-06,0.10000030589707319,3.7288607046593306e-06,4.0372758989135275e-06,-5.875189931172389e-06,1.2792670321582546e-06,-4.288361683925932e-06,6.355503133296379e-07,3.5549915311273794e-07,-1.2416044272387282e-06,0.09999123451251796,4.5658922572840414e-06,-4.555534862800411e-06,-2.118295430171685e-06,-3.519334177234657e-06,0.09999610059083906,6.510581623441844e-07,-2.9202956693896076e-07,0.10000070157200926,0.006152231952671316,2.2382103493584696e-06,-1.764061000951317e-06,-2.436456263658499e-06,1.4540059791425805e-07,0.05961274767755094,2.4493305511216476e-08,3.00007433858005e-07,0.1000009496619917,-3.6792233986211333e-06,1.8325455872697433e-06,-2.630058163891515e-06,0.0999929454962304,4.900092674391514e-06,-3.427762603753312e-06,0.09998552700105194
10,2020-03-30,Simple + Baseline,1.787885984379684e-07,7.13551529471629e-07,-1.014790892614305e-06,-3.482161985544286e-07,-1.2467823414239523e-06,0.10000255104301231,-1.682590394305735e-06,-1.013445733528821e-07,0.09999632905654961,-1.375894226732396e-06,5.610451377787003e-06,-4.209416920750604e-08,3.1279063557451192e-06,0.09999890228034587,-1.1395804078669154e-06,-2.7122492049676918e-06,0.09999887880017899,2.7165245381513225e-06,1.1581055657411595e-06,-2.580217495552724e-06,-3.8012493087167e-07,-1.4698096017237008e-06,-1.1920627655995454e-07,-5.41835661099574e-08,-6.131061623105203e-07,-2.182202830582751e-06,0.10000038726046917,-5.552525761183826e-07,-1.320264888122171e-06,-1.1601575425276988e-06,0.0999971480916221,-5.569159247351475e-07,5.51163553736035e-07,0.08123812735327762,-8.375426510130705e-07,1.9823934666129754e-06,-1.0802543794171356e-06,-1.1078762619429592e-06,-2.900574139011379e-07,9.450739761060329e-07,-7.602512671628478e-07,-1.24424492377332e-06,0.09999903879962592,-1.6057296112660213e-07,9.257440012910618e-07,-1.175498174353437e-06,0.09999652498359428,0.018785605899400107,7.111427306904577e-07,0.09999517720491896
10,2020-03-31,Simple + Baseline,-1.9984283889956435e-06,1.418728496090924e-07,-5.27493509344446e-09,-6.574616212477138e-08,-4.376341091863489e-07,0.060685883300626756,-4.332405232308709e-07,0.01566773713494206,0.09999878846388628,-4.824152464027971e-07,1.3747767384296052e-06,4.787864935102334e-08,-3.899788549266417e-08,0.09999748635318562,-5.665003245863289e-07,-7.605417931784713e-07,0.0999993607894963,5.915139911589607e-07,3.4487654521787574e-07,-8.192030122605617e-07,1.2539299253335691e-07,-4.544136167085713e-07,-7.97162742707685e-08,-3.303610895365803e-08,-2.146490140227068e-07,-9.589839393740412e-07,0.00704690079295713,-5.630056607989466e-08,-3.515288622122903e-07,-6.66289701040198e-07,0.09999850077484654,-5.144270874006071e-08,1.926629696874265e-08,0.09999881243001768,0.04901574796233761,2.8166462818337676e-07,-3.0621914080655224e-07,-1.8476242540622605e-07,-2.740586255588218e-07,-5.240115199411045e-07,-2.2554161152948923e-07,-5.498920823422903e-08,0.09999950961486083,-2.9021539648318607e-07,2.9205590652678684e-07,-2.7569194197787033e-06,0.09999873797148938,0.06760572448666308,-5.938458521822975e-07,0.09999728394790382
10,2020-04-01,Simple + Baseline,0.0999932450994672,-1.9078470361512968e-07,4.5084772567906785e-07,-1.3915682133220655e-07,-4.485253713287452e-08,0.09999395038948258,-1.0166097977717506e-06,0.042654847761482664,0.09999894471019909,-6.023213484901304e-07,-2.9108497693229514e-06,5.854210729172324e-07,-2.7950265449873622e-06,0.09999293894029095,-1.789052053803119e-06,-1.8189275305458918e-06,0.09999998991952166,-4.875767701765978e-06,-6.02513698801058e-07,-9.016937895841714e-07,9.134308707688317e-07,-9.51227372915849e-07,-1.4116348372407707e-07,-4.927435825386813e-07,3.961589106014699e-07,-1.1231807342536e-06,-1.066918162634086e-06,-1.275003388890607e-06,-2.749000382106275e-07,-8.861922743523199e-07,-6.916466600667791e-07,1.2446162918605735e-07,-1.2291547418258917e-06,0.09998972141250007,0.07235096030055403,8.236280521432838e-07,1.2868023830266623e-07,-1.1070210188608798e-06,-1.2015776895361432e-06,-6.252732574182509e-07,1.330958129840477e-07,3.211111522307278e-07,-2.484318122937083e-06,-2.3811432578168985e-06,-2.6792575562465773e-07,-5.3174097574283435e-06,0.09999682533346697,0.08507234526015356,-3.137071407674986e-06,0.09999473367075352
10,2020-04-02,Simple + Baseline,-1.9507037783800596e-07,-1.095186617513925e-08,-1.9871092938868763e-09,-4.237448323880326e-08,-7.547063372969981e-09,0.0999984888880183,-1.9226521303738236e-07,3.395066304696646e-08,0.09999990045409642,-5.2653020177050574e-08,-6.428059727529093e-07,1.6037743981694638e-08,-7.529815745948278e-07,0.0999977780110179,-2.474398747055564e-07,-3.284389294408876e-07,0.09794462131479978,0.02571275451027,-1.105034073599513e-07,-8.864268845214141e-08,4.8656179688825566e-08,-1.407835047553077e-07,-2.5601101967502474e-08,-4.347234237627928e-08,2.5187471671055146e-08,-1.142088051455264e-07,-2.1284540041786962e-07,-3.0732960541133835e-07,-5.498781337323005e-08,-9.33021318015848e-09,-5.436366820406039e-08,-3.861303735074225e-09,-9.532133350497086e-08,0.09999689704802679,0.09999998982358005,2.2306346114715707e-07,6.8819498564864995e-09,-2.2183429042706564e-07,-1.294778830602481e-07,-8.351247161925195e-08,1.1159671954968618e-08,-9.279516703297784e-10,-4.521819666298543e-07,-5.8480330992953e-07,-7.426004701302565e-08,0.07635710467886808,0.09999934873759135,0.10000009816599502,-6.601874470105949e-07,0.09999859504145885
10,2020-04-03,Simple + Baseline,0.08590226571112546,-8.755710179795977e-07,3.116200917678592e-07,3.6770626024035766e-07,-6.770699995015334e-07,0.09999915894546159,-2.5516491437098354e-07,9.132370004797832e-08,0.09999939568607902,0.10000000355592858,-1.7939868861728243e-06,1.9922521701645643e-07,-3.328462723278438e-06,0.00609349735298984,-8.344207322788127e-07,8.441094814793104e-07,0.09999995864685429,0.10000086913113813,7.271203897123948e-07,-5.528976918476489e-07,-1.0637928308740128e-07,8.831633446759265e-07,1.1202100889466345e-07,5.921576124283479e-07,-1.5510293126707618e-07,-7.321012867515907e-07,-1.2043064441034944e-06,1.824812032859387e-07,9.867521731249207e-08,-1.515883989247989e-06,-1.836366766073752e-06,3.346877803299219e-07,-1.5220675772490774e-07,0.0999957690713991,0.008042350718352092,-9.037926440194025e-07,-6.446275253425464e-07,-2.0115769904193445e-06,-2.0178805290704763e-06,4.377980377726721e-07,-1.0417219784828888e-06,2.724486513593432e-07,-2.033456904295321e-06,-2.0863830875709324e-07,-1.580817127144733e-07,-8.610719422872435e-06,0.09999792426486587,0.09999952467464558,-1.5708279139321983e-06,0.09999707682031442
10,2020-04-06,Simple + Baseline,7.606713002046184e-07,-8.938056966089348e-08,8.123437462643448e-08,1.151723377567979e-07,-2.162178561921759e-07,0.09999959860000747,-8.94942465555292e-08,0.03943166916639219,0.1000001982851439,0.10000029454169121,6.850984532841036e-08,2.759271185682752e-07,-6.85701328836361e-07,0.08902024482624869,-2.7323217728938036e-07,4.1284383946412777e-07,0.1000003726959121,0.05565945405999782,-5.636013468304177e-08,6.841244525139233e-08,2.3992773734180707e-07,1.0197407273389802e-07,4.6837832700613063e-08,4.142889131988292e-08,-1.5916695684811552e-07,2.451818636159146e-07,-4.1957505482915786e-07,-7.146861173036911e-08,-1.3357174947546012e-07,-4.480562102957537e-08,-3.8129087520057366e-08,-5.87783442739792e-08,1.2059843838925265e-07,0.09999849509428305,0.015894450313009057,-1.7571823693301557e-07,4.130757190564263e-08,-2.3765711741778568e-07,-1.2881531113928546e-07,-1.115049658997452e-07,-5.9419673601176086e-08,1.0991099334890211e-07,-3.910555296707106e-07,-3.2874050978085115e-07,2.118400063859453e-08,-2.883347063885089e-06,0.09999987319244519,0.10000035818156297,-2.8160213951772095e-07,0.09999917119382518
10,2020-04-07,Simple + Baseline,0.0999997505575585,-2.4655803665189675e-07,-1.9824321045094697e-08,1.337100510842304e-08,-7.368233614822244e-08,0.09999943127170233,-5.940967737617174e-08,0.03942893795421765,1.140792250543232e-07,0.031005482066102104,1.6527923157496914e-07,3.204689428286478e-08,-1.6310560218781533e-07,0.05691561284430223,-4.996202438547106e-08,1.0075325642260774e-07,0.019610031449735183,-5.370495132997552e-07,-3.0508717084323416e-07,6.470821635801738e-08,-1.2940396799562545e-08,-5.42993183705862e-08,-7.459678967335977e-08,-6.137170620048037e-08,-2.8614940518610427e-08,0.10000017357390467,0.0999998279320965,7.531675179679458e-08,-1.0127516877864879e-07,9.45404192929854e-08,1.517329541608123e-07,3.385615243273553e-08,1.9524931260675085e-07,0.0999992173994047,0.053044530686564506,-1.0044132650429542e-07,6.788140560975979e-09,4.480136491125514e-08,6.412543638621854e-08,-1.6348193419303596e-07,-6.093859966850931e-08,-5.62017193228451e-08,-1.8769222612502078e-07,-2.1126318397475668e-07,4.4611790398633606e-08,-1.049762269936609e-06,0.10000006534975041,0.09999978923783306,-1.6872282873307984e-07,0.09999973672569724
10,2020-04-08,Simple + Baseline,0.09999881931001464,5.3066231963964315e-08,1.446082985286647e-07,-1.1324475889151888e-07,1.1176852833993547e-07,0.0999984047366932,-1.3306521591226499e-07,3.2070676953908723e-07,-1.5820788315901962e-07,0.0999996902327533,-1.05622136745856e-06,4.695887765862739e-08,-3.9676782525646577e-07,0.05691397522374452,-3.5998898009354265e-07,-3.954485934668854e-07,0.06942444451093792,-1.002515180057923e-06,-1.5114500759202158e-07,-1.8033302759775567e-07,1.4814950359494743e-07,-2.588819286765405e-07,1.327841389405244e-08,-1.5646645906408312e-07,1.3076593051136393e-07,0.09999977143005458,0.021611655843519373,-3.442076241601619e-07,6.370670276268867e-08,-1.0842517020607233e-07,-9.28943195531937e-08,9.060781685422133e-08,-5.539774077343606e-07,0.09999840199789116,0.05118610095130358,2.3983008923207523e-08,1.8806996115264423e-09,-2.678176680031137e-07,-8.955001468926613e-08,-4.423915469502791e-09,0.0008784416463531015,6.234611522360676e-08,-1.5923927711752716e-07,-4.792904228734683e-07,-1.8253821391399783e-07,-8.6297299033825e-07,0.09999946410513001,0.09999963430135099,-1.0947389737157976e-06,0.09999859399736448
10,2020-04-09,Simple + Baseline,0.09999944691738534,1.5687282458634738e-08,2.0631479726105466e-08,-5.758078045306684e-09,1.7979102722823253e-08,0.09999942705823839,-3.332946231458259e-08,3.423593399240664e-08,-3.231741648859135e-08,0.09999997824256436,-3.6260524270159997e-07,1.956999851504757e-08,-1.572615083983785e-07,0.056914393501940566,-7.585455045335649e-08,-1.110583621269384e-07,0.06942473165827609,0.0008858439600318108,-4.618437753489394e-08,-4.012232397885345e-08,3.2501309432288344e-08,-4.9149504895307936e-08,7.735419965654296e-09,-9.910882968248534e-09,-5.010174614170044e-09,0.09999994985529644,0.018705443910921382,-9.636597092733261e-08,1.0495735666444415e-08,-8.797641112487686e-09,-1.3945840828540956e-08,-3.198285955239965e-08,-1.1352866457235717e-07,0.029120738043516625,0.02495276459301424,-7.1857689659186704e-09,7.524642091718835e-09,-7.16148505550928e-08,-6.7742509629364965e-09,-1.5203560731618495e-08,-7.137682283591472e-08,1.8464459081796747e-08,-5.183421763214002e-08,-1.2743802970217806e-07,-2.0880633265056937e-08,0.09999984675279944,0.09999986108379019,0.09999987449536898,-3.436019641717415e-07,0.09999942484630422
10,2020-04-13,Simple + Baseline,0.09999982789432663,2.3681822896828525e-08,-9.192543958403473e-09,-1.2391505597663068e-08,4.332410853480985e-09,0.09999986795046437,-1.8811639229044804e-08,3.347182643802193e-08,0.03884428604306979,0.02893866173759822,-6.619249964005367e-08,-1.2758382842887672e-08,-4.78315090718199e-09,7.03555275439609e-08,-7.66906398685714e-09,4.783907176900398e-09,0.1000000201224251,0.0008859693373732116,-1.5092394739814554e-08,-7.913726349837727e-10,-7.606068454799285e-09,-9.904171864426263e-09,-9.843688731706571e-09,-6.681519675455842e-09,1.9669246530387686e-09,0.10000000174572563,0.08303467284325315,-2.874011221115304e-08,9.291233288198586e-10,0.06720944869509735,-1.0268766012797325e-08,-1.3426969072290818e-08,-3.760345510091855e-09,0.08108760905471327,-7.553128667848742e-10,-4.260381981095859e-09,-1.4158257889181437e-08,-1.4601070915868586e-08,5.883043236784732e-09,6.593882810322369e-10,-1.0716136862483975e-08,-5.548607106819663e-09,1.2000762871640725e-08,-4.0623781251916e-08,-1.4587171697418141e-08,4.522280055860938e-08,0.10000000949513117,0.09999997489453724,-6.459688979685282e-08,0.09999985410205743
10,2020-04-14,Simple + Baseline,0.09999846320191633,-4.617708141136368e-07,-2.143719011279611e-07,-9.588001857271384e-08,-2.564420997709486e-07,0.10000011007974509,6.793926495142359e-08,-2.4374305538469023e-07,0.0015790044300584957,-2.28503023664681e-07,-8.307183734147102e-07,-9.766355617360476e-08,-5.374608173620493e-07,-4.5426818375220393e-07,-9.781551123891019e-08,0.041315146674761154,0.09999914060539518,0.0571191398982638,-6.46084539846564e-08,-2.718129644625416e-07,-3.225733004730933e-07,4.761309675656402e-10,-1.1212257097439987e-07,4.677685526546919e-08,7.783529276871347e-08,0.09999970444810086,0.09999914796815976,3.5611977671128504e-07,-1.609164847321369e-07,0.09999999166255204,1.474522435610424e-07,-2.8956433602492327e-07,-2.499924330072193e-07,-3.8898588445868305e-07,-1.9644469677732837e-07,-5.487709647882693e-07,-2.4168131132623047e-07,-2.1328079719157563e-07,-3.3012642956576917e-07,6.179306320331213e-08,-2.2062495863452102e-07,-1.255440769191951e-07,-1.6136101209863797e-07,1.372272219591055e-07,-1.75280516566134e-08,-5.294524131796672e-07,0.0999997615486024,0.09999837272578287,-3.2381266865287555e-07,0.09999941137935896
10,2020-04-15,Simple + Baseline,0.09999522006859043,-4.524073163056913e-07,-5.271191825872116e-07,-4.2750987918992885e-07,7.195293448132841e-08,0.09999676174110916,-6.591491782083623e-07,-6.520716278376628e-08,0.09999887957599733,-7.148900314161124e-07,-6.763710247593749e-07,-2.915792122607754e-07,-6.461407774668194e-07,-1.5234864883919698e-06,-8.016055335974193e-07,-9.387257221922608e-07,0.09999837368621005,0.05711389146692442,-6.554706974978188e-07,-9.985010473759616e-07,-8.5918306115642e-07,-1.0378255795157223e-06,-1.785759495024033e-07,-4.243144589807874e-07,-9.515752005212109e-08,-8.971739331136797e-07,0.06741004144557396,2.5743296772702316e-07,-5.200418640528701e-07,0.06856648891286707,-5.765582663736288e-07,1.6341442888362284e-07,-2.1713720782694064e-07,0.006951794047161437,-4.851111964327031e-07,-9.160527795707307e-07,-1.0201573414675016e-06,-9.053906490890128e-07,-1.2668770237151482e-07,-1.1156148209762536e-07,-5.407323443504286e-07,-7.366529462649811e-07,-8.598554056551243e-07,-7.389831159887069e-07,1.0516729457229011e-07,0.09999849608396277,0.09999855153207245,0.09999706629351916,-1.5125501989132247e-06,0.0999959863805472
10,2020-04-16,Simple + Baseline,0.09999579552720249,-2.290928992111959e-06,-9.002967220185379e-07,-3.389927366916314e-07,-2.227758738115336e-07,0.09999655089371236,-4.84092121474549e-07,-1.6473389402342526e-06,0.0999996057753169,-3.984328596922241e-07,1.9225795072041717e-07,-6.560550648731376e-07,-1.359589446737211e-06,0.06975475495906851,-3.016148048688994e-07,-3.769479202792826e-07,0.09999822506543124,-2.7777056591697124e-06,-1.7785315556133768e-06,-4.1869730214853084e-07,-1.280314445496753e-06,-6.368744140467588e-07,-5.44624202840538e-07,-6.711432056029437e-07,-1.9588898370860522e-07,4.917319861247665e-08,-7.439698505686579e-07,9.92135690610716e-07,-7.134009339424924e-07,0.03028944486211162,-1.1913982479566265e-07,2.5246383024727634e-07,6.376472122926643e-07,0.09999883989083111,-1.0380113547782756e-06,-6.398044827181096e-07,-8.22395271375798e-07,-6.560230831413418e-07,-2.1102282482732823e-07,-3.9791229380986737e-07,-8.102330952073973e-07,-1.1062717102408686e-06,-1.6498963317099735e-06,-1.2634294566573936e-07,5.2772909804955055e-09,0.09999891948537114,0.09999872396744804,0.09999684560871976,-1.1233875124236631e-06,0.09999761331602791
10,2020-04-17,Simple + Baseline,0.09999815707112848,-5.896427021538337e-07,-1.2563955354367408e-07,-6.035484271473014e-08,-4.9390068544854025e-08,0.09999868189694022,-1.1176819120449647e-07,-3.624204665034328e-07,0.09999999591582585,-5.5930698181320474e-08,1.0396638141961767e-07,-1.0572965020770507e-07,-4.806087562138587e-07,0.058983001908697506,-4.4219469733866395e-08,-6.032495211841382e-08,0.09999963798677744,-9.726348522508893e-07,-5.085890451814524e-07,-3.223014962198503e-08,-1.9952094217244922e-07,-9.098757488959681e-08,-8.322958652824198e-08,-1.026508203575359e-07,-3.2900984461536037e-08,5.374160193605827e-08,-1.5030513349042554e-07,2.418091017492522e-07,-9.386584218944621e-08,0.05228842191190731,7.40774441673904e-09,7.40956954076141e-08,1.2239424438313787e-07,0.08873992171556234,-1.457898770308452e-07,-1.320420050308326e-07,-1.2966633681146743e-07,-1.7680791670373998e-07,-2.4420189648272388e-08,-4.285571098283668e-08,-7.362873705401668e-08,-2.2274751931034277e-07,-4.072506591856942e-07,-6.468462610312078e-09,-5.561530446114973e-08,0.0999997583089401,0.09999970032110417,0.09999900464874231,-3.1890506233499377e-07,0.09999916389461033
10,2020-04-20,Simple + Baseline,0.10000013785864144,-6.341263618594426e-07,-6.976929236149099e-07,-3.9823287221578194e-07,3.00927466049527e-08,0.10000108213373839,1.892531298425986e-07,-2.324864703837271e-07,0.10000007158723813,-2.4633582868630387e-07,7.6670171499259e-07,-6.685696419716773e-07,5.392214885052607e-08,0.04182330798927409,6.467847586476905e-07,2.896699214024021e-07,0.09999953820906486,0.004629030889206175,2.3226889798414466e-07,1.1933091669138375e-07,-8.806855490040212e-07,3.5851521065519465e-07,-2.5440143536352305e-07,-2.506496359120874e-07,0.023322468263541472,3.4268393961571114e-08,6.800593970671488e-07,8.845992923144466e-07,6.300330040878764e-08,0.030216410918220093,3.1210974273092434e-08,2.7334951679109795e-07,4.898924020583192e-07,0.10000299124345527,-5.694402815151264e-07,6.46165254270095e-07,-4.782006491790376e-08,1.1451851774413786e-07,5.7719968473903333e-08,6.253491408976195e-07,-1.1236888523134729e-07,-2.6766685817318134e-07,2.966186139810057e-08,8.747016118804215e-07,-1.873166751190183e-07,0.1000014866519997,0.09999988691126131,0.09999927355378464,9.333638621070629e-07,0.10000132627405721
10,2020-04-21,Simple + Baseline,0.0999986770458271,-7.119862440587686e-07,-3.906119976568692e-07,-1.8611503669896565e-07,-8.609028665495227e-08,0.09999911842971346,-2.2753678687713234e-07,-6.141045717041938e-07,0.09999958366262202,0.017894734391702503,3.531099545500358e-07,-3.298043842002404e-07,-3.929895048085122e-07,0.009553882608260133,-1.3122762305095856e-07,-2.4547267665212167e-07,0.09999916084810295,0.00462733316209438,-5.658848177798787e-07,-2.2703703961411742e-07,-4.782387654670828e-07,-2.3181370548595048e-07,-2.0780354140537809e-07,-2.2654336549474463e-07,-2.805409106846863e-07,-1.8937237028980182e-08,-1.1260835379581633e-07,3.7769675878796393e-07,-2.830648273722118e-07,0.1000000312223782,-1.592083343421901e-07,9.356350345006078e-08,3.60118425126471e-07,0.06793771970238748,-3.9860063480642476e-07,5.0668048671869865e-08,-3.9580095419067596e-07,-2.2272994245104596e-07,3.236843542953908e-08,-2.288212585581411e-07,-2.736576246680635e-07,-4.84337631510992e-07,-7.436308929930441e-07,-1.3413805176866883e-07,4.268158092310998e-08,0.0999994783879809,0.0999996041388583,0.09999894109385757,-1.0747794011257899e-07,0.09999952402075292
10,2020-04-22,Simple + Baseline,0.0999941877579064,-1.0777597875075853e-06,-7.530024475300376e-07,-1.4024061283807413e-07,-1.6042558670464556e-07,0.09999732437118508,-5.809803395409599e-07,-8.353748128971754e-07,0.09999841736016925,0.09999975453667244,-1.4356852638336546e-06,-3.384961453396687e-07,-1.5819513476826671e-06,-2.8447442075248165e-06,-7.272368772261285e-07,-1.624360246261111e-06,0.09999684852360778,-2.064365637878803e-06,-8.74017947905985e-07,-1.0628617520028236e-06,-9.643653457678366e-07,-9.122152245515263e-07,-1.0134858108087519e-08,-1.0822779321239012e-07,-6.681647904871525e-07,-1.0729470790188496e-06,-1.4602042094257922e-06,2.39568220226049e-08,-7.65854764276075e-07,0.07513791897754345,-5.501143642656066e-07,-1.8950453003936847e-07,-1.762506759450913e-07,0.024922671338168337,-4.669998233134637e-07,-1.106608707056898e-06,-1.3878003447870182e-06,-1.0829015012743405e-06,2.7818283897424627e-08,-6.173562980606942e-07,-5.597191417874047e-07,-1.2145197696385885e-06,-1.431813906823947e-06,-8.675203731994689e-07,5.985168288228312e-07,0.09999637995355784,0.09999782271680271,0.09999598992428546,-1.4672435127224416e-06,0.09999522928021794
10,2020-04-23,Simple + Baseline,0.09999680666707554,-6.130435983597241e-07,-4.930173026901862e-07,-4.1887414926500326e-07,1.3441580704661776e-08,0.09999877437458793,-3.0557717760873377e-07,0.02064885684468861,0.09999916906509196,0.09999976080838581,-3.3526913711168135e-07,-5.909524303535526e-07,-8.571365034599116e-07,0.013366026161332504,-2.9522424553607425e-07,-6.580742208315205e-07,0.09999854999748048,-9.5476744660588e-07,-3.0404848884865236e-07,-4.734488448778694e-07,-6.33292345512184e-07,-4.476610599729018e-07,-1.5736328169929046e-07,-4.0589777355965343e-07,-3.8412830935237147e-07,-4.7241431076424495e-07,-1.454927089956657e-07,2.5778713081170887e-07,-3.4425937054965284e-07,0.06601168279976054,-4.2576713934469464e-07,5.4645910090349666e-08,2.9573645515844944e-08,1.2203448775953933e-06,-5.249019267481293e-07,-2.2060533448821426e-07,-7.143585549439005e-07,-3.710073777535867e-07,-1.1746754601573624e-07,-3.242965300949772e-07,-3.268050302361401e-07,-6.519511512836894e-07,-9.548373876300046e-07,-2.14765477700395e-07,1.2874007404753872e-07,0.09999845321722002,0.09999883170243119,0.0999978500609542,-1.8641583986672894e-07,0.09999785428587517
10,2020-04-24,Simple + Baseline,0.099996988076727,-1.5546942383414572e-06,-5.226580637610762e-07,-1.8436849375190957e-07,-9.851654350613492e-08,0.09999722039802394,-2.620679303268778e-07,0.020639822068996574,0.09999923301606087,0.07586533675017904,-1.7629578410476616e-07,-4.53110981973182e-07,-1.5256290032542263e-06,0.024472665457386897,4.916876732409664e-09,-9.176780548917062e-07,0.09999839465298188,-1.5461286192090332e-06,-1.4514141866673783e-06,-2.445736907718717e-07,-5.835897165939712e-07,-1.9895913944870882e-07,-3.2917610316590685e-07,-3.7581287243139517e-07,-6.309535725176324e-07,9.006894667061345e-08,-9.533045354061733e-07,2.8659288665009113e-07,-1.83602913513004e-07,0.07594870442626547,-3.312534146170307e-07,2.9625688341485916e-07,3.4387825510225795e-07,-7.834589390461348e-07,-5.404158089473775e-07,-3.7085832388907294e-08,-2.751707434837158e-07,-3.2028006061063226e-07,2.387573504560276e-07,-3.2775937510497944e-07,0.0031039239048259288,-6.065676776965574e-07,-1.5928878051571745e-06,-2.481105067650313e-07,1.1151575766694715e-07,0.09999868004434782,0.09999875679424866,0.09999812978925102,-5.460666331521229e-07,0.09999858760805999
10,2020-04-27,Simple + Baseline,0.09999794525560286,-9.094490960020074e-07,-3.246285108102189e-07,-1.789923539407706e-07,-2.004571963332752e-07,0.09999855082744682,-1.9657030509015222e-07,-6.633298912708528e-07,0.09999965248943107,0.06886734421711004,1.346069012760238e-07,-2.7897377028898713e-07,-8.162708996468966e-07,0.030384260122802337,-1.514927439337603e-07,-1.5153268665553477e-07,0.09999913679010772,-1.0511911321870742e-06,-7.869165812167221e-07,-1.5773292647346632e-07,-4.2299152672179953e-07,-2.370831972484312e-07,-2.2799444875924977e-07,-2.045944300353432e-07,-1.6577724936083984e-07,-1.3097339892771177e-08,-3.512379397073167e-07,2.7133856791590534e-07,-4.157103671787136e-07,0.09766861805269425,-1.1520427973041294e-07,6.927804779301266e-08,4.1026637434866593e-07,-3.304391232626702e-07,-4.505969576569805e-07,-1.996433368256183e-07,-5.014466943848128e-07,-2.1985718399432084e-07,-5.7229027243856214e-08,-3.057501690236896e-07,0.0030986951921658933,-5.082431586269021e-07,-8.529581875545369e-07,-7.752768527933225e-08,3.5385384157088393e-08,0.09999924445762479,0.09999944332811257,0.09999876763310486,-2.788829051920551e-07,0.09999922507829669
10,2020-04-28,Simple + Baseline,0.09999544843182963,-5.414699753953763e-07,4.412734538106692e-08,-1.8723681424186588e-07,2.9792455410074246e-07,0.09999568590581578,-2.0827538119325248e-07,-1.9971292703796585e-07,0.09999920909305514,0.06355006289400704,-2.350123164266903e-06,-9.532221939656175e-08,-1.3811664441648155e-06,-2.1540280755347157e-06,-5.238293971205045e-07,-8.712746061323153e-07,0.09999889454753534,-2.4000323613391154e-06,-8.608296817035489e-07,-4.670404186217782e-07,-1.5862004320669768e-08,-6.917110716909509e-07,-1.8620654982516817e-08,-3.601773904910611e-07,-6.300898679660695e-08,-3.8335554491731296e-07,0.006428313024269224,-3.0394845986405517e-07,-4.1751964621439014e-08,0.09579658661970383,-4.006126688351676e-07,2.726561344116736e-07,-1.0076313273954815e-06,-2.107396356661238e-06,-7.417602450914048e-09,-1.3010663103993927e-07,-4.3899212513961096e-07,-4.3129539790344416e-07,1.095212794268934e-08,-1.8374289838826588e-07,0.03426690395935942,-2.1270413487487326e-07,-1.042517894452651e-06,-6.20007771951153e-07,-7.165286553762224e-08,0.09999802858904885,0.09999838941122181,0.09999841630822025,-1.8118290622758294e-06,0.09999603972579281
10,2020-04-29,Simple + Baseline,0.09999785228781549,-1.1833094613975308e-07,5.623329362097295e-09,6.076232462937394e-10,9.372953066559764e-08,0.0999983161219934,-8.213882696865451e-09,-3.833910048829159e-08,0.09999989273862711,0.08087971709582881,-6.974024298424685e-07,3.487926434348772e-09,-4.389947200274222e-07,-7.83610010263054e-07,-8.969159083449055e-08,-1.7910226381403354e-07,0.09999972732508759,-8.533740060342356e-07,-2.2096565784330925e-07,-6.62083665563751e-08,1.0184191259620535e-08,-1.2339339214473915e-07,1.4424767713332054e-08,-2.0605751559503344e-08,-2.6108668562726797e-09,-5.146597442732333e-08,0.06353957837796599,-3.1621812013996124e-08,4.3779696513394934e-10,0.09579608550388735,-3.916517542194343e-08,5.157282706603905e-08,-1.6617876150490832e-07,-7.939742962993315e-07,-3.607341659467193e-09,-1.727554873694473e-08,-7.532820631053337e-08,-7.994067059318989e-08,1.2263461787053888e-08,-2.4996074938031108e-08,0.0408387283109293,1.6680916726815826e-08,-2.4216994294950276e-07,-1.217933001716968e-07,2.3231282644552433e-08,0.09999930669607199,0.09999956356350463,0.07474587360320348,-5.896315237250774e-07,0.04421100420457241
10,2020-04-30,Simple + Baseline,0.09999904390109296,-4.3986389558750276e-08,-1.5366468953315327e-08,-1.8582529356706767e-08,1.195352077593165e-09,0.09999938094837221,-1.3729767860145022e-08,0.0060090668092297305,0.100000002878432,0.08514940015831868,-1.7387967138315153e-07,-1.8271487325388383e-08,-1.361909657427262e-07,-2.4018481057905047e-07,-1.634546548418757e-08,-2.3215031972639754e-08,0.09999995202816091,-2.98989250174236e-07,-6.901806972284549e-08,-6.324938383481837e-09,-1.3876473263950779e-08,-2.8198466944045145e-08,-1.5144914460059808e-08,-1.7217397983634052e-08,-5.882995748523198e-09,2.0905541204564463e-09,0.10000002295299291,-9.76362728042903e-09,-7.66141837658456e-09,0.07634772228368966,-4.902018124202415e-09,-5.077420708633708e-09,-4.129722255511142e-09,-2.697568836673665e-07,-1.485418559907883e-08,3.1747996164761703e-09,-1.1968304610975583e-08,-1.891056348835039e-08,-1.797687302874121e-08,-1.7744796632644407e-08,0.055930258943549624,-9.774190254741481e-09,-6.694194394499297e-08,-2.6493064154293988e-08,-2.1165896261938185e-08,0.09999980329905139,0.0999999068888064,0.02394778975874155,-1.62368682710146e-07,0.05261946608867557
10,2020-05-01,Simple + Baseline,0.09999873624049518,-4.5808850526812026e-07,-1.164096802667465e-07,-7.223196940473459e-08,4.152580084790018e-08,0.0999986043113968,-4.297347838854017e-08,-7.609516538206775e-07,0.09999999388108563,0.07891708985275396,-2.700906169614345e-07,-2.104390118878305e-07,-4.584837955510144e-07,0.10000023813660104,-3.505393427542764e-08,-1.9520510565719184e-07,0.09999946422633323,-1.0083336891557e-06,-8.269473255689753e-07,1.2221498526444561e-08,-1.9681363599472083e-08,-3.5388101029683345e-08,-2.4258261373523545e-07,-5.427990784791843e-08,-1.4279988557625313e-07,1.434552449215467e-07,-4.418155930691766e-07,1.283342457122789e-07,-7.599442019822944e-08,0.08078194762627113,-7.419858557184469e-08,-6.345267817876392e-08,-2.0645619529398503e-08,-8.193040289622538e-07,-6.928152482153512e-08,-1.5364391945365148e-08,-2.3781164461928434e-08,1.4726000455145386e-07,-2.064020657873606e-08,-2.3210175694356973e-07,0.016478034079741088,-7.262341686567073e-08,-4.828207427081644e-07,-1.5307636217601766e-07,-1.7963027016189066e-11,0.09999921635201386,0.050110427207301037,0.1000000242027897,-3.2417987163408496e-08,0.0737233040772097
10,2020-05-04,Simple + Baseline,0.099999579109052,-1.705134025679658e-07,-4.6530587156907115e-08,-1.6065507507725375e-09,-3.061997722037735e-08,0.09999964517929738,8.422869501905467e-08,-1.1266867644214914e-07,0.09999998831851858,0.07891493200559022,1.2213148212373955e-07,-7.341837845188376e-08,-3.431637922957077e-08,0.10000028788862365,3.752321448888411e-08,3.776485318317189e-08,0.09999988490755916,-2.7194093891658595e-07,-1.4483594989707683e-07,3.378497603954572e-08,-1.371923370907697e-07,4.872573991185838e-08,2.9197262972857707e-08,-6.969157452514606e-08,3.141808013507459e-09,-6.315814293615261e-08,-2.8614819158401868e-08,-3.740557049099333e-09,1.4466688274402571e-08,0.0870198726422153,1.963642354989001e-09,3.124572906679092e-08,-3.3692069001317686e-08,-9.894002214384418e-08,1.791931245962457e-08,-8.769636694443022e-08,1.403793244329699e-07,4.900469506524009e-09,-7.833930520212208e-08,-2.0906944803655783e-08,0.008661431290582085,-6.522656867639463e-08,-9.54364722857079e-08,-3.6659515814800914e-09,-7.470153249010786e-08,0.09999996215601614,0.025405072652179596,0.10000009458444234,1.8235839543508912e-07,0.10000020487480327
10,2020-05-05,Simple + Baseline,0.09999985020068991,-1.4751300985677768e-07,1.111553733522636e-07,-1.5631634793751593e-08,-9.27394643844114e-08,0.10000025865885337,8.2187790056639e-08,1.7165052181742125e-07,0.10000011951122918,0.0784312558550463,4.7800490787520606e-08,-4.749139356924949e-08,5.3563975440411525e-09,0.10000025412971936,1.948694264138437e-07,-1.9544160929224413e-08,0.0999998622891417,-2.2046492712175908e-08,-5.78092495575618e-08,-6.381103994546427e-08,-2.2502041341462596e-07,8.348842398754019e-08,1.0614553090941362e-07,-4.235799310713106e-08,2.635657896070165e-08,-2.3364540149048497e-08,0.00797381553751796,2.883780095921401e-08,1.4290793224873783e-07,0.07665134060164433,5.823807752959413e-09,8.916040126817185e-08,-5.274892508754507e-08,2.1469438589958464e-07,-1.353418136855294e-08,-2.4430044876674187e-07,-1.9555673721133767e-08,1.0595132539066729e-07,-2.684674048203687e-08,-5.9690010872366295e-09,0.042435073170506814,-4.3301908552910024e-08,1.5513683227269931e-07,1.176340191552323e-07,1.7288338653329583e-08,0.09999998873268995,-1.7914596833344556e-07,0.09450782840555788,-5.0415722368870054e-08,0.10000004007322982
10,2020-05-06,Simple + Baseline,0.10000083469669523,8.043517697651981e-08,-2.8523419602169977e-08,2.0351118838124337e-08,1.1691798263329504e-07,0.10000036425750701,-2.782057099325458e-08,2.1093104084182413e-07,0.1000000151444569,0.07461492485706539,6.41834638293468e-07,3.2128097700970596e-07,1.4509880842620952e-07,0.10000065984430055,1.2236749551638265e-08,-3.2199553318865244e-07,0.10000044672248294,5.155222437068819e-07,2.800952482942708e-07,1.6606902310446627e-07,5.716272073548625e-07,1.6690166062371407e-07,-1.5548908041243058e-07,-1.9405470484137936e-07,-3.825554011305426e-07,2.9687048092618216e-09,4.7055962974838e-07,-2.5859972282249355e-07,1.693334442031729e-07,0.05652129519812973,-2.704468750294014e-07,-4.621217761094982e-08,3.4855636270802005e-07,0.08100320599902149,1.495346012494002e-07,5.37782016250071e-07,7.95281853649858e-07,4.555790001343802e-07,-3.7380192176761737e-07,-1.7249918040588627e-08,0.07359699333062909,2.305315660705632e-07,-2.1405273339226234e-07,-1.3657955583293268e-07,5.652680240488925e-10,0.10000049558826037,1.644838902981507e-07,0.09999576697687454,1.028289426305203e-06,0.01425981481795711
10,2020-05-07,Simple + Baseline,0.10000129178119443,4.72900709317141e-10,9.111498470927904e-08,-2.4982192107755978e-08,-2.0919143289863363e-08,0.10000074958095877,9.902088791070616e-08,2.3365350203346307e-07,0.10000047083438501,0.0626485033040309,5.781874006265591e-07,7.63943665042358e-09,4.800032786440961e-07,0.08160934226046584,1.8922412319185447e-07,3.759767681112295e-07,0.10000073940681253,3.283699966254677e-07,2.0185470062332555e-08,4.967834292470273e-07,1.9108570631653167e-07,2.0859106703101567e-07,-1.4708587359901102e-07,-3.1614113409108735e-08,1.0885563776344076e-07,3.6136337318489205e-07,5.325060522122751e-07,1.676533449349958e-08,1.0634759654872651e-07,0.056956673168106646,1.502069432032556e-07,-1.2390424660855312e-08,4.3154478022254196e-07,0.06681807422625487,1.220912929916971e-07,4.1686002997684116e-07,4.634723704918322e-07,4.872242019257563e-07,-1.942146962731924e-07,-2.5474638015128242e-08,0.08585546924244167,2.4425722088936137e-07,0.046102020543907225,2.2858648396300514e-07,-1.572712653589587e-07,0.1000007962574606,6.41891447077233e-07,0.09999918754564716,9.167425856206689e-07,-1.239229869842116e-06
10,2020-05-08,Simple + Baseline,0.10000199850497903,9.272053865274587e-07,2.556579440602754e-07,6.131140290462261e-08,8.455867815723644e-08,0.10000161554588918,3.283313485968094e-09,1.0002087137340859e-06,0.09999993687749163,0.056933903329713986,6.101022575515989e-07,2.2473995109875215e-07,7.967535266718207e-07,0.0887242987744456,-1.1952937544010767e-07,2.9581135097847216e-07,0.10000045855099574,7.952735366309085e-07,4.3755117762791726e-07,3.9644251448224723e-07,4.245067823336237e-07,2.7210303893267222e-08,2.858981492697364e-07,4.785004368876964e-07,-7.692052756410325e-08,-2.9683705843549456e-08,5.658272583507881e-07,-4.4497728226862146e-07,1.1592370221740913e-07,0.06699678346419331,-2.0205417993244995e-07,-4.78176595592288e-08,2.96650461092722e-07,0.06681874941861106,6.987677850827805e-07,9.019509854292841e-07,2.391706119491958e-07,4.0736441597474073e-07,1.4806442210075882e-07,-4.557830399807491e-08,0.10000054195257779,4.0655530114996343e-07,0.020508478007400334,4.668625917828773e-07,1.2896848794007498e-07,0.10000040387353863,6.039099829779234e-07,0.10000092152843477,1.132841362758918e-06,-3.5079293386845227e-07
10,2020-05-11,Simple + Baseline,0.10000101379550926,1.972125823282373e-07,-2.0402831856196606e-08,-1.0592963284201017e-08,-2.8404833734456457e-08,0.10000072662870994,6.4247516851048875e-09,0.02111938979154514,0.10000000988963564,0.059698235414445716,2.211736424520052e-07,-4.839117814716676e-10,3.0122554368338013e-07,0.10000001447465587,-1.3957252509896127e-08,9.010526669915375e-08,0.10000018076310979,2.6707630669285117e-07,9.403061376175484e-08,1.6177594546709155e-08,7.043134201698118e-08,3.181798013869132e-08,3.671262197927376e-08,-1.1244750101243572e-08,7.877013216946672e-09,1.7959400441792292e-08,1.51228119478034e-07,-9.473454592536154e-08,1.2148864613549321e-08,0.06661120126635424,-3.783211220661739e-08,2.4138444244204453e-08,8.136254725811608e-08,0.052995616911822106,-2.313214738102881e-08,2.1096707781449195e-07,1.1844250619328464e-08,1.515755994525332e-07,-1.5408942823078674e-08,3.967766151564157e-09,0.10000001093256711,1.3291943648595283e-07,0.02050850043949671,1.3921811265667045e-08,-4.5250979739065915e-09,0.10000019130085183,1.8793148285817235e-07,0.07906255654265024,3.8865360734506273e-07,-1.1633731541340614e-07
10,2020-05-12,Simple + Baseline,0.09999853736092523,-6.773073754726278e-07,-2.7104702011163113e-07,-1.5964082135808133e-07,-1.673139445096562e-07,0.09999909386922726,-1.1276411464786445e-07,0.09999906898013246,0.09999989594871385,0.05521053285934832,4.4769180217692065e-07,-2.8273942791827926e-07,-1.8926715727048775e-07,0.05965115694112669,-6.134740990345242e-08,0.07456601107674511,0.09999905595829155,5.6712537202500565e-08,-1.7244783277228365e-08,-2.4223310374646605e-07,-2.668143986571002e-07,-1.431309086944468e-07,-2.937081801376544e-07,-2.931192484598348e-07,-1.1313706756433335e-07,2.0169955588064664e-08,-1.8427206600940985e-07,2.3205278264027797e-07,-5.476245606143768e-07,0.057586804454691956,-5.515682139885375e-08,2.847108969728481e-08,4.17465990075082e-07,0.05299541767268341,-4.6588886363321965e-07,-2.9536611728327858e-08,-1.758044636008189e-07,6.272999469874003e-08,-3.324085688089706e-07,-2.511252498605863e-07,0.09999956195653315,-5.743353265637724e-07,-4.789450777972377e-07,8.523905675016299e-09,-9.19727655852566e-08,0.10000017580234657,4.494712364264384e-09,-7.954164130088354e-07,4.658645143527438e-07,2.1547900554753428e-07
10,2020-05-13,Simple + Baseline,0.09999970588216332,2.1800040269060505e-08,6.929778087567485e-08,-8.565397320717346e-08,1.2527444935837662e-07,0.09999996160692304,-7.109117635848061e-09,0.10000016854692821,0.1000000200524496,0.058506318102571064,7.43478664316261e-08,5.791420376305067e-09,1.1894665294765459e-07,0.05965228484559512,4.420700509495178e-08,0.08481428946598465,0.09999999774642795,4.1542792866688853e-07,1.7432762009548864e-07,-1.5383303966328303e-08,4.49187321629426e-09,9.544919248416228e-08,5.8164276468028934e-08,-2.7828522743014562e-08,8.705270496536548e-09,9.645180443929748e-08,1.3608924965731107e-07,-2.013950951186857e-07,1.1983797332616314e-07,0.04826646902055502,-1.6313408154716045e-07,9.314338242032318e-08,-6.618733145696004e-08,0.06631616749465576,1.126125415745074e-07,3.1964419132803323e-08,2.250331494559418e-07,2.489068192784841e-07,1.711806320550781e-07,1.3528321142433363e-07,0.08303849146344576,1.7603983767441062e-07,4.764884081925282e-08,7.275782110339191e-08,-4.3198412129203216e-08,0.09940336132072833,-1.1880583155505847e-07,-3.265537460880326e-08,4.086300348047551e-07,2.3300192608595125e-07
10,2020-05-14,Simple + Baseline,0.09998423725131053,-3.3619377610951066e-06,-1.1185876183993533e-06,-3.5347782460932565e-07,-1.0490412040914486e-06,0.09998919837023908,-1.0037671739658893e-06,0.09999606464577988,0.09999806428351896,0.05354489323569886,-3.0062906301941815e-06,-9.089422332536176e-07,-5.2998226631330056e-06,0.059644824939862603,-2.401687871102707e-06,0.09999747764487968,0.09999374282101231,-2.679521331089836e-06,-2.906191259153677e-06,-1.534157988376729e-06,-9.637808296380022e-07,-2.4856620894897267e-06,-3.1402812562319776e-08,-5.388841897508539e-07,4.812101363790824e-07,-6.867813582740215e-07,-1.9704710339252847e-06,1.8858517050390938e-06,-2.77090673645531e-06,0.047182293045966425,8.649603547622731e-07,3.3320536774241313e-07,-5.550502983691407e-07,0.0999921487926274,-1.1036220207327205e-06,-2.663153645249355e-06,-2.856060747019099e-06,-2.693270442274183e-06,-1.1743152246187998e-06,-1.4158427673028622e-06,0.08301932592579771,-3.3124111578203133e-06,-2.0383760571520654e-06,-6.950634736640663e-07,-5.555583580613747e-07,0.05672853475851631,-4.3469048432509874e-06,-4.470736737129572e-06,-3.2391907633651156e-06,-8.141121382095244e-06
10,2020-05-15,Simple + Baseline,0.0999912036479466,-1.4152591943127015e-06,-5.664810426745284e-07,-1.6791590036687836e-07,-3.863157449340822e-07,0.09999466841920127,-3.3507395473037607e-07,0.09999840661367368,0.09999946545022986,0.05402805098279216,-7.189822079112003e-07,-4.4985010405676013e-07,-2.4667564220578387e-06,0.04647099008036521,-7.331228309003997e-07,0.09999909758409563,0.09999723815789066,-1.2749408704792384e-06,-1.1402418295433444e-06,-5.219684232320769e-07,-5.137067872804804e-07,-7.652806582596497e-07,-2.1373326419352107e-07,-3.197695575576205e-07,-1.4127751314283923e-07,-1.4389929105953951e-07,-7.361832820433136e-07,1.0309705725286063e-06,-9.594544093530355e-07,0.04585663101168114,1.6685292804434662e-07,1.7224981904306292e-07,2.789350730873216e-07,0.09999647091795487,-5.805374438178216e-07,-7.929912791792126e-07,-1.145296292368258e-06,-9.333922329230611e-07,-4.257923632096199e-07,-4.832255533543712e-07,0.09999941706496208,-1.259349777139582e-06,-1.0150197068723005e-06,-1.5714508558804057e-07,-1.248042311814599e-07,0.05369643540822218,-1.5824417637264346e-06,-2.3702175108440154e-06,-1.0372271120155042e-06,-3.8454059242143785e-06
10,2020-05-18,Simple + Baseline,0.09999272999094289,-2.788116400014806e-06,-2.395771428828487e-06,-1.1207185877604616e-06,-1.5840157062756711e-06,0.06100854248417537,-6.133021049289813e-07,0.09999692601035133,0.09999797055333529,0.06540949057357241,6.96481030416274e-08,-1.847214824898257e-06,-3.586873874078379e-06,0.046470980426300525,-1.6766918663621194e-06,0.09999853451840186,0.09999175667251488,1.6735938168720236e-06,-5.035461290158577e-07,-2.321238595957507e-06,-2.0333827597161275e-06,-2.2725410168909423e-06,-5.724665635938327e-07,-7.251887890075217e-07,-2.659351925051404e-07,-1.3243519705761942e-06,-2.5904646812829866e-06,2.1052702516488016e-06,-2.2680169967035697e-06,0.04195735828718668,4.254217981654976e-07,-5.432563852848651e-07,1.2658449130637653e-06,0.09999979081630513,-1.7807347914620332e-06,-2.044916751865427e-06,-3.1136932287389307e-06,-1.4176636278683471e-06,-1.0487219300600567e-06,-1.3861859289223479e-06,0.09999673524257129,-3.2714113220842153e-06,-1.2822297269782312e-06,-1.701808434795021e-07,-1.679735766452227e-07,0.08522776712197129,-2.2269660817087825e-06,-3.802720330690196e-06,1.0974761323385084e-06,-2.4848538495151844e-06
10,2020-05-19,Simple + Baseline,0.09999458738301839,-1.7475396406607245e-06,-9.541330483350802e-07,-3.126270947040023e-07,-6.151691608576971e-07,0.061005651223970406,-3.9825187976395013e-07,0.09999800650517406,0.09999942755112794,0.061791836877808086,1.1487109295939424e-07,-6.87909978882401e-07,-2.5315838313472445e-06,0.05634755549254509,-6.479672936389604e-07,0.09999892456544864,0.09999612561487269,-1.1413017882861048e-07,-7.78875633729179e-07,-7.638714116474552e-07,-8.505826573183153e-07,-7.923115573103873e-07,-4.355870762496218e-07,-5.503848076284479e-07,-3.8864329869352857e-07,-2.6151988023322074e-07,-1.188535116831047e-06,1.0958158234968637e-06,-1.014971309207069e-06,0.03567041754447875,8.568573240795836e-08,-1.77545192063658e-08,6.622400420139723e-07,0.09999843669007083,-8.507160718562488e-07,-5.999088137559194e-07,-1.4633545239976074e-06,-7.714697145814334e-07,-6.678517049241742e-07,-5.965660007686491e-07,0.09999892490784429,-1.5181065148667633e-06,-1.2753913976102692e-06,-1.254991428797606e-07,-1.425149584863044e-07,0.08522675113550442,-1.1076378038953771e-06,-2.5536732747686714e-06,-2.5850971714312923e-07,-1.613212582943201e-06
10,2020-05-20,Simple + Baseline,0.09999570619527624,-2.0291526178183375e-06,-1.526501766592938e-06,-6.491610386774629e-07,-1.1029629793331547e-06,0.04742454649726297,-6.030381756991634e-07,0.09999807183757335,0.09999908465881199,0.060857081997577445,1.6498554197287978e-07,-1.1217907837947275e-06,-1.970689985190454e-06,0.056346955302966996,-8.926263045988065e-07,0.09999878310032244,0.09999635108174305,9.145865777284234e-07,-5.200199264605568e-07,-1.0655545927570472e-06,-1.2049496514460366e-06,-1.1478161058065883e-06,-6.244225660339886e-07,-5.721527073296448e-07,-2.4992324842120215e-07,-8.992058934893783e-07,-9.765104753330507e-07,9.465944711500738e-07,-1.7991022563571377e-06,0.035916637758780776,1.108506149348524e-07,-4.841692192627291e-07,6.697596407857897e-07,0.09999983836021915,-1.0992566132532381e-06,-6.512969862354364e-07,-1.8481244619696637e-06,-7.12591658954609e-07,-7.648074967456568e-07,-8.36605008552639e-07,0.09999832090328468,-1.6611632988305983e-06,-1.0522561675658985e-06,-2.666461484359422e-07,-2.682217403954375e-07,0.09949862746186132,-1.3561121981576612e-06,-2.4314675455314783e-06,6.095946026898385e-07,-1.0399815231302847e-06
10,2020-05-21,Simple + Baseline,0.09999810975148148,-4.30091976223501e-07,-2.126231584315193e-07,-7.385695704620627e-08,-1.903506481155092e-07,0.03711484421420231,-8.325252659906695e-08,0.09999967757923385,0.0999999370816374,0.05727038304040833,2.235765580142172e-07,-1.2406484477522576e-07,-5.969055827595397e-07,0.0682530754208751,-1.3137885824950733e-07,0.09999982962831738,0.0999990247783238,6.412938286033644e-07,-3.590070411593203e-08,-1.736178412869946e-07,-1.833854194057616e-07,-1.8360650842923082e-07,-7.673464185420696e-08,-4.124512996800688e-08,-1.6446326313519513e-08,-1.0002344376200656e-07,-1.5462802779723317e-07,2.9998136626017855e-07,-3.1989212190239624e-07,0.03736847466957451,2.1562806188527836e-08,-4.543372859121737e-08,2.73593643739629e-07,0.10000024072250843,-1.342065859708854e-07,-8.471961213475973e-08,-3.6562138039168867e-07,-1.1337072500748662e-07,-8.370318511869342e-08,-8.924269396623397e-08,0.09999980822743641,-3.1687375200843365e-07,-1.833353949972957e-07,1.047237990808807e-08,-1.2435606427636587e-08,0.10000050568702791,-2.500888263066391e-07,-8.15640217206226e-07,4.364854606112289e-07,-1.9795858308747434e-07
10,2020-05-22,Simple + Baseline,0.09999911432902986,-8.328203669534199e-08,4.21087039936376e-10,-5.3007029804579914e-09,-1.388641422026561e-08,0.010106914556794699,-1.3248340383301771e-08,0.09999998154627922,0.10000003180118877,0.05503003093155122,1.1495160875182275e-07,5.118872744592283e-09,-1.8484661410164723e-07,0.10000009523691097,-3.7907769279910237e-08,0.10000000717558677,0.09999983542370386,2.6304195421638944e-07,-7.202963298108164e-09,-1.57637036724903e-08,-2.2946092732586185e-08,-2.3302814549347692e-08,-8.454571211350042e-09,-1.0150316264338485e-08,3.454661055024769e-09,1.1087927170031754e-08,3.4826274235537264e-09,6.784110967208297e-08,-4.224328190383768e-08,0.034864184738160324,7.971746459926095e-10,1.3085683419671603e-08,3.1897455320545657e-08,0.10000010185114336,7.504494988561516e-10,3.321180832113788e-09,-4.148212611845505e-08,-3.923532138308417e-09,-1.956002622040435e-09,4.8771584464030585e-09,0.1000000169946683,-4.1592075315472015e-08,-3.0150036537290264e-08,-5.891234155193446e-09,-1.5270662355845724e-08,0.10000011837853433,-2.375570482385314e-08,-2.8437041863921445e-07,-8.309682913738073e-09,-3.218478969310872e-08
10,2020-05-26,Simple + Baseline,0.09999965331459106,1.4290179705962229e-08,3.255672514304522e-08,1.4546037334194208e-08,1.4757762820032747e-08,0.010107040890287433,2.207997432790116e-08,0.10000003386250182,0.10000004628475262,0.06146658641430088,8.051407841973042e-08,2.986885679609886e-08,-1.1279727279131838e-08,0.10000011657430063,2.4189623425647317e-08,0.10000007634969581,0.10000006420933061,4.1735548040325345e-08,2.5051319958196257e-08,2.8586869026249016e-08,2.122552656925867e-08,3.418579530565117e-08,1.3293994877518376e-08,1.1083335507249575e-08,2.1772568296475435e-08,3.75681387835852e-08,4.315141646287551e-08,2.7881288181364758e-08,2.3580143787412693e-08,0.03884303423827096,5.3713701343371815e-09,2.2354738736339085e-08,3.0367163556956203e-08,0.08958215285715097,3.3415341167213884e-08,3.664134164651668e-08,3.042143005731712e-08,5.600807386645105e-08,1.1793626900926675e-08,3.083900506825388e-08,0.10000004395751708,3.421315009235735e-08,2.7059597481418517e-08,3.6463116110255246e-08,8.467429378704279e-10,0.10000011333119532,5.578530435105473e-08,-2.410630189466056e-08,3.4324371349747626e-08,6.472473052576576e-08
10,2020-05-27,Simple + Baseline,0.0999998068727714,-9.354313948601261e-09,-4.131847367528738e-09,-9.606399359741666e-09,-2.9125673457066547e-09,0.010107070535518172,-1.2715475364114646e-08,0.10000000333166129,0.09999999843213926,0.06146642185040774,2.9131753878752094e-08,-1.6574983907417301e-09,-1.3288976631161768e-08,0.10000001431733803,-2.1200376712390792e-08,0.10000000652822777,0.09999998269622422,-6.820204726465627e-09,9.093005135560174e-09,-1.0819135596470193e-08,-7.610599705392166e-09,-1.356766649073634e-08,-8.545008510567685e-09,-8.395391307073078e-09,-9.090934827326824e-09,-6.895713262917206e-09,-6.862118654358119e-09,1.2358532983607311e-09,-5.343638175562172e-09,0.038842901703625164,-9.000424799593908e-09,2.3392551277773674e-09,2.5113774736521134e-09,0.07952921233404267,-5.509243806792068e-09,-1.3817016273504686e-08,-2.588522465993502e-08,8.10470070171635e-09,-6.763322516576295e-09,1.1964808974897325e-09,0.09999998751460719,-1.0896496274826928e-08,5.22765987985903e-10,-6.877201077217748e-09,1.646295946269548e-10,0.10000002739293151,0.010054760342301069,-4.260006662662932e-08,-2.9554681500174444e-08,6.183626221959157e-08
10,2020-05-28,Simple + Baseline,0.09998914700935277,-1.5549993875283327e-06,-1.9037743894540171e-06,-8.16298828633605e-07,-2.4854982453642945e-06,0.0846923259742431,-1.308194840824045e-06,0.09999723184908858,0.09999936774388739,0.04877929749017014,-3.8793301366360243e-07,-1.5962032624705326e-06,-2.5880020476573754e-06,0.09999485292940939,-1.665414480206298e-06,0.099997884959388,0.09999277488333873,-4.798665052502953e-07,-2.4872991194146707e-06,-2.235806200102574e-06,-1.2286233467793442e-06,-1.577603175317895e-06,-1.7548872191179506e-06,-3.8311001683915093e-07,-5.126721295074273e-07,-1.0491535318886724e-06,-2.2446085711626087e-06,3.6984582147960273e-07,-3.0293555013814676e-06,0.04923998824076924,-5.993096678256629e-07,-2.062292234385072e-06,-6.961625384191711e-07,-5.245834723938893e-08,-1.3204127121995212e-06,-1.1990537606071408e-06,-3.372667929167927e-06,-2.632390556044538e-06,-1.6667338709818557e-06,-2.2153057435656642e-06,0.09999698969235281,-2.9549424110130745e-06,-1.4787399754482814e-06,-6.9765388788081e-07,-3.406568174674944e-07,0.09999471615928808,0.017385582580803076,-3.480984642381797e-06,-2.318458661761061e-06,-2.1437385516998187e-06
10,2020-05-29,Simple + Baseline,0.09999430981669939,-3.577940875010656e-07,-3.230293884708829e-07,-1.1490807013011072e-07,-6.164375725758998e-07,0.09999958818476887,-3.314158066777003e-07,0.09999944127975054,0.09999992873786424,0.03608952387907555,-1.1141300764657514e-07,-2.1424295293358034e-07,-1.0566468798574056e-06,0.0999977909414523,-4.327801731553732e-07,0.09999956813170656,0.09999782205241844,-9.306395415639686e-08,-7.882895771014681e-07,-5.165462273273625e-07,-2.2336400879226527e-07,-3.3641199407405393e-07,-2.579323894476484e-07,-5.6049801342670726e-09,-4.9439468651297266e-08,-1.8425969107210715e-07,-6.433721734559455e-07,8.897742590765475e-08,-7.163347010746615e-07,0.05288582027350661,-8.782268641327492e-08,-4.2910905874361433e-07,-1.8714514005395627e-07,1.0168757656447166e-07,-1.6153448586371384e-07,-3.3922241052946653e-07,-8.337635310848283e-07,-8.374290928745353e-07,-2.968568982863959e-07,-4.2085061951762314e-07,0.09999957437211299,-7.101759609049552e-07,-4.031329233600652e-07,-1.1449306102302658e-07,-8.094690788484964e-08,0.08094795118681565,0.018471678493837036,0.011631025136871049,-9.275151145156545e-07,-1.0106778015400328e-06
10,2020-06-01,Simple + Baseline,0.09999130723141508,-1.621623532373134e-06,-9.86555583457312e-07,-9.662079635890546e-07,-1.4173496837691846e-06,0.09999106512709866,-1.6923216976795827e-06,0.09999757715801706,0.09999935121533922,0.036013600489304354,-3.3755246310283902e-06,-9.219671296392383e-07,-3.3167686955818445e-06,0.0999952082244917,-2.473134880029074e-06,0.09999725257096835,0.0999959024707089,-2.7839812582694996e-06,-2.765476783688839e-06,-1.6410542503757742e-06,-9.127188014539147e-07,-2.3565136491193004e-06,-6.560228764973098e-07,-8.075790191326079e-07,-1.531282713170469e-07,-8.174789438774929e-07,-1.5000311774500216e-06,-2.7006585910946736e-07,-2.4350619759713465e-06,0.05199727157591996,2.2977616645753234e-07,-2.1485164170904902e-07,-1.4159629064811543e-06,-3.215026336366463e-06,-8.600984631538028e-07,-1.455930240797e-06,-1.8614770187439015e-06,-3.029139947549795e-06,-1.2972338593218246e-06,-8.876584526474307e-07,0.09999860738689148,-2.516362238479207e-06,-2.121801261872909e-06,-1.0861052429470252e-06,-1.3166334713404427e-06,0.0820002131916741,0.01846234790427191,0.011623052951497945,-3.818885088433679e-06,-3.988608090702555e-06
10,2020-06-02,Simple + Baseline,0.09999537730465793,-3.3012672362598284e-07,-8.83663915701818e-08,-7.579005583269678e-08,-2.464244622301316e-07,0.09157634777437273,-3.6117206893708344e-07,0.09999951312027801,0.09999992012483414,0.036014087161306906,-1.0979081153672102e-06,-7.613769734802009e-08,-1.336090127084661e-06,0.09999795196164377,-5.919111526936849e-07,0.09999935630183521,0.09999876068384918,-1.185445196248073e-06,-8.413722371947238e-07,-2.922464635825523e-07,-7.846234257628617e-08,-5.067611024631294e-07,-2.5043658731646555e-08,-6.572282877878952e-08,1.7024458646066226e-08,-1.0117126854535016e-07,-3.581038911697577e-07,1.490429808364656e-08,-4.994169348743907e-07,0.049747775437817984,7.158669525663376e-08,5.557043805970091e-08,-3.118243297053003e-07,-1.4404628431862225e-06,-7.080979505394277e-08,-2.9400724636613654e-07,-3.864831594356728e-07,-9.100664400153016e-07,-1.7060605501510048e-07,-1.216783043735905e-07,0.0999998498544176,-5.436045594224991e-07,-6.14332507172768e-07,-1.7012764805743762e-07,-1.9512482170830714e-07,0.08200040006073245,0.029064058634767995,0.011623235536934983,-1.487678663151752e-06,-1.9186330477161323e-06
10,2020-06-03,Simple + Baseline,0.0999976493598942,-4.227217427352718e-08,-2.61578837876345e-08,-2.9992725765861036e-08,4.195870415129729e-08,0.0688281268830648,-1.972343941240055e-07,0.09999994756682291,0.09999996559030377,0.03490446002875867,-4.991026462161069e-07,3.709221983677322e-08,-6.693731703974622e-07,0.06215013422782066,-1.1437899408364175e-07,0.09999986156492675,0.09999963698592183,-6.04922465610189e-07,-2.091139674513945e-07,-8.839976065741095e-08,2.97859401812192e-08,-1.3030454989231126e-07,1.6286233416331112e-08,2.096697631147368e-08,3.793313409311222e-08,1.673737102491049e-08,-7.997279371627271e-08,2.8897265805140143e-09,-1.545276315805071e-07,0.04741533586570191,2.3373574478250566e-08,-7.871355578668986e-09,-1.0047890085723038e-07,-7.205278426167477e-07,3.966810900606967e-08,-1.4592766644251986e-07,-9.624299508724938e-08,-3.8208763199841095e-07,-2.625228532388921e-08,2.389785210207266e-09,0.10000002965436669,-1.236553712077774e-07,-1.7709875129501574e-07,-5.6963440143632965e-08,-4.586565604406525e-08,0.0756379016494417,0.0667491800994404,0.04432397981357486,-6.844174604690887e-07,-1.0648172882495693e-06
10,2020-06-04,Simple + Baseline,0.09999873078684823,-1.5241449222645768e-08,-7.945432383160027e-09,-6.287818025963053e-09,-7.79903001555016e-09,0.06882812631958192,-5.768145588074427e-08,0.0999999901191087,0.09999999510179233,0.0403115331947324,-1.7983492954853486e-07,3.640456393218064e-09,-2.903098060908931e-07,0.06215012881606632,-3.212328487003235e-08,0.09999997326558645,0.0999998976102564,-2.818203230130758e-07,-8.003368196023453e-08,-2.2317139635187223e-08,-3.0748885110513843e-09,-3.268421781035468e-08,1.9303265427880976e-09,4.215473093232093e-09,4.089552828869495e-09,3.944397876504315e-09,-2.6242453612386252e-08,-1.1445409109212705e-08,-3.949990221049936e-08,0.0474154004031948,-1.7252883224789624e-09,-6.099118598601915e-09,-3.0036947412607694e-08,-3.2304175292677534e-07,5.299819663629329e-09,-4.0353340830721276e-08,-2.675566302591409e-08,-1.3212614985062914e-07,-3.87605285702512e-09,-9.790216717925537e-11,0.10000000465297992,-3.5918639264680425e-08,-5.733473353558997e-08,-1.631212507264675e-08,-1.717739832736626e-08,0.0011736298926243503,0.09999999951018926,0.08012518555433536,-2.942619190496649e-07,-5.388388117668722e-07
10,2020-06-05,Simple + Baseline,0.09999311821638847,-1.1074802898044784e-06,-4.491928259858501e-07,-4.873723833828536e-07,-7.431529745628127e-07,0.06882316311605707,-9.525998694775657e-07,0.09999881221467252,0.09558654839137892,0.046194621800861084,-1.837505643018567e-06,-3.503554561599441e-07,-1.5578695492620749e-06,-2.1103670659661707e-06,-1.4468128414286164e-06,0.09999840386448654,0.0999986072012448,-2.992497843040346e-06,-1.3852130412581128e-06,-7.765871829528352e-07,-2.4981318950511175e-07,-9.81926093643663e-07,-5.741107001849763e-07,-4.3078251741766784e-07,-1.0644396775348997e-07,-4.6052045796457133e-07,-7.834918870514123e-07,-2.1422359046363875e-07,-1.2001169239050264e-06,0.057726545403358906,1.535601680993927e-07,-2.2161953945180938e-07,-8.978042471820864e-07,-1.952195224480447e-06,-4.462366476534289e-07,-1.3177730535943246e-06,-1.0937190860999994e-06,-1.6903537837283288e-06,-9.010780553274464e-07,-3.620809063504091e-07,0.09999908610469628,-1.0476215810692799e-06,-8.334485585037407e-07,-5.486644819134054e-07,-4.994709496590901e-07,0.05159924609270112,0.0999981971907436,0.08012101820221841,-2.3930592299117266e-06,-2.0996603916414e-06
10,2020-06-08,Simple + Baseline,0.09999601878743154,-2.963401078304398e-07,-6.890871281378127e-08,-6.545725677111209e-08,-1.774285194552451e-07,0.06882274804425531,-2.659068542761536e-07,0.09999964880159301,0.09558610952123645,0.05256163621357787,-7.040925661853412e-07,-5.401928783692038e-08,-8.182391708103291e-07,-1.0638841645943904e-06,-4.455785970845741e-07,0.09999945452433837,0.099999453559851,-1.4548967132602105e-06,-4.858373826937355e-07,-2.0861614190380176e-07,3.065664835143901e-09,-2.885083648267695e-07,-9.835549885269015e-08,-8.180586589606379e-08,-3.718176615622786e-08,-1.3120261952999702e-07,-2.9733484632754963e-07,-4.2708069068545665e-08,-3.2473505211151965e-07,0.06523843442830972,1.0681655845247331e-08,-3.602048875171345e-08,-2.71895957566145e-07,-9.823405564951135e-07,-8.071711471982396e-08,-2.837756156369572e-07,-3.150879591731485e-07,-6.191349139920894e-07,-1.9657898307022718e-07,-1.2143745905963686e-07,0.09999981271540129,-2.903143489168987e-07,-3.5434040635186026e-07,-1.369130723704684e-07,-6.742602665442452e-08,0.05159889687688146,0.09999936991881947,0.06621181086438287,-1.0630144691618967e-06,-1.1766747920685435e-06
10,2020-06-09,Simple + Baseline,0.09999780262569789,-9.235672067867475e-08,-1.580005182248605e-08,-2.8431781120187436e-08,-6.545474455141367e-08,0.06882275209348246,-8.347475600822421e-08,0.09999992429648805,0.09558610488199545,0.05256118885492398,-2.461943803676651e-07,-1.0166237051703286e-08,-3.6355620159955797e-07,-4.768729304307095e-07,-1.5170894606870405e-07,0.09999984484753313,0.09999983569455584,-6.85828883902815e-07,-1.9084423680514399e-07,-5.4060148492265866e-08,-4.3754380381154703e-10,-9.52201384075975e-08,-1.9961212664852058e-09,-3.704799475863543e-08,-8.240046164862565e-09,-4.662316239570488e-08,-9.031125884875694e-08,-2.8150395609602142e-08,-9.186597336382004e-08,0.0652381432924217,-1.2718740592982816e-08,-5.230069099799646e-09,-7.907083602473267e-08,-4.5078692346048505e-07,-3.888828433054422e-08,-7.841421636809943e-08,-7.805865218569738e-08,-2.140406710344655e-07,-5.871121860164201e-08,-3.870632127944085e-08,0.0999999656896379,-8.298426535015382e-08,-1.2248027369368238e-07,-5.2524409579849866e-08,-3.233659337737531e-08,0.09999997162724927,0.09999981986520601,0.01779995008626197,-4.7545740149788554e-07,-6.186982690069972e-07
10,2020-06-10,Simple + Baseline,0.09999917116562772,-1.4930168708100576e-07,7.161615178017153e-08,-1.1655212618985967e-07,-6.123896424995463e-08,0.06882266976840841,-1.119747954298741e-08,0.10000063026869134,0.09092464008002235,0.05254172121884616,5.3700137245701625e-08,1.458650639080049e-07,0.014012839009257573,0.009071385113565287,-1.3589335292562725e-07,0.09999946562182789,0.10000004130683404,-4.0301556517831793e-07,1.852851721664392e-07,-1.4438922276314772e-07,5.062645416599257e-08,-2.1156475650958668e-07,7.072913535838755e-08,-1.5950876904443555e-07,-7.009311743614034e-08,-2.2688980054092686e-07,1.035922733140387e-07,-1.5791371730943434e-07,-1.0198916685396779e-07,0.05041465818700867,7.0945764708696815e-09,-2.821466246372767e-07,-2.606443025755705e-07,5.986037108368023e-07,-1.2672098072312917e-07,-1.3740566765148761e-08,1.8757679082058534e-07,6.463334134141677e-08,-3.3763975169369817e-07,-2.4214929697861197e-07,0.10000016037604686,-3.1681494843976e-07,1.9164550820035958e-08,-1.336744401203722e-07,7.905035663147314e-09,0.09999972244789963,0.10000011626571809,0.014215441539208505,-1.1095411825286929e-07,-4.5788870144674e-07
10,2020-06-11,Simple + Baseline,0.09999957795931262,-3.7182572920949766e-08,7.816459837877088e-09,-7.754414046784638e-09,-2.0122946722023623e-08,0.06882269674645418,5.2948005499167465e-09,0.1000001534492502,0.055917114377580034,0.04688945635885263,2.6828770302938856e-08,1.8210004991482466e-08,0.08775799993878149,0.00907139629594103,-2.9859779314170313e-08,0.09999987668976101,0.10000001263695643,-1.6043776229720116e-07,7.629128235279095e-08,-3.32705073765719e-08,8.817694865768363e-09,-4.0697547893561105e-08,1.8926905136816164e-08,-1.607351594874558e-08,-9.81411186951259e-09,-4.671392866338468e-08,2.6316355662313673e-08,-3.65376294738533e-08,-1.510235780683735e-08,0.04886102404391124,-4.050681275339717e-09,-4.9342756938570794e-08,-7.104191386857205e-08,2.8180036073451593e-07,-1.703712714336597e-08,8.078473731757423e-09,5.270855991215644e-08,2.7578222752098946e-08,-5.665999164316035e-08,-4.6089973551760504e-08,0.10000002379467253,-7.568459719942238e-08,7.940574554746825e-09,-1.9970249325012798e-08,7.609579253471969e-09,0.042856562047468114,0.075193673699303,0.014215440722399147,-3.278173944211822e-08,0.05041524313351888
10,2020-06-12,Simple + Baseline,0.10000059106434442,2.3746027284230094e-07,-2.758361562097574e-07,-2.0808677259791232e-07,1.4433767900572196e-08,0.02816552603223547,-4.3132478913983586e-07,0.09999979494111667,0.008985040393752334,0.04685245298689282,2.5166868964387663e-07,0.04207569811480489,0.1000003634450473,4.847383221243001e-07,-3.4997214239213183e-07,0.10000004336599369,0.10000011319562467,2.707343795183477e-07,7.038014428762134e-08,-1.401868652027799e-07,1.4023979735605074e-07,-2.3024917022347857e-07,-2.5647907326305186e-07,-4.906277284555301e-08,-5.368727411061331e-08,-7.061914334511786e-08,1.0780758733658353e-07,-1.1574508685045418e-07,-2.1024155137414432e-07,0.05534993799172581,-5.9938008171322596e-09,-1.4856977046220626e-07,1.828443385916918e-07,5.016290776961356e-07,6.631580136716958e-08,2.9059682540945466e-07,0.028142804651002246,-2.093700633594407e-07,-7.452900295838562e-09,8.803176983446451e-09,0.09999984278870057,-2.039545285060159e-08,-7.805634143577626e-09,-2.0422668604876193e-07,-1.7309770400412115e-07,0.08204543726270452,1.0861467660711031e-07,0.07498242771313034,2.635577541233601e-07,0.033400087404721654
10,2020-06-15,Simple + Baseline,0.1000002988581168,-6.594388512097639e-08,-2.5475115571644085e-08,-8.705721280883026e-08,-3.2284876761937226e-08,0.09999986764193573,-1.1994002202265594e-07,0.1000001272010276,1.2986995138453392e-07,0.046844874115048306,1.1397830660263116e-07,0.013261191910698767,0.100000172193453,3.20022257212608e-07,-1.0300513827540674e-07,0.09999992138871448,0.10000008022627022,8.773991997076382e-10,3.8078665986274664e-08,-4.535457457522581e-08,-2.5911933333028145e-08,-1.2640871077663817e-07,-5.256787402893068e-08,-7.000803402715473e-08,6.512683083280502e-09,-4.5000231084222375e-08,1.097283688084775e-07,-3.5735520871409426e-08,-5.5400552749222126e-08,0.06443368820356155,3.25744215623242e-08,-1.0275540319522663e-07,-1.1618697635438293e-07,0.023393043034868093,-8.82022420600761e-08,-9.129191767796313e-08,1.3560555316391514e-07,-6.849490339599065e-08,-1.2874384290451783e-07,0.049521987010242324,0.09999999768587549,-1.41300010868115e-07,3.702193889708718e-08,-7.082837332366346e-08,-9.483592218572572e-08,0.10000005437083566,8.125143305712386e-08,-2.8269135153339404e-07,7.267176155818852e-08,0.0025456934121219185
10,2020-06-16,Simple + Baseline,0.09999195742136385,-3.0676646251503502e-06,-9.62391608343377e-07,-2.7900486897116957e-07,-1.5863400363367165e-06,0.09998333474850153,-1.291964462689761e-06,0.09999534955262399,-1.2913722222121962e-06,0.04974430669321973,-3.4974237573235575e-06,0.03343429814934129,0.09999457390118872,-4.319536075082178e-06,-2.150974739220169e-06,0.0999961555159355,0.09999603923224407,-5.727728943410306e-06,-4.390836617488404e-06,-1.6396579661342663e-06,-2.349198154753545e-07,-1.8479233107947058e-06,-7.035001077770577e-07,-7.40327394206158e-07,-1.673003132734442e-06,-9.386003037807272e-07,-6.039674096428756e-06,-1.003496875628817e-06,-2.1407842277827948e-06,0.05939100323527077,5.96083237054336e-07,-6.837448071723687e-07,0.01714549391832076,0.02337617835619275,-1.1143012374632849e-06,-1.8210398223559836e-06,0.01704900664142201,-4.961199266049845e-06,-1.5296838895130795e-06,-2.4423092378518156e-06,0.09999798285141197,-2.4190628754777016e-06,-4.377081055725119e-06,-1.7867306507282827e-06,-8.426655383362726e-07,0.09999656896107117,-5.284842692180046e-06,-4.2808021533988655e-06,-4.227205435335508e-06,-1.1474958290625998e-05
10,2020-06-17,Simple + Baseline,0.09999581532173846,-6.979694764204817e-07,-8.934002393595666e-08,-1.199778949061235e-07,-3.682989882936093e-07,-9.919433385288867e-08,-3.120654045253562e-07,0.09999908746325155,-1.2580938817994687e-07,0.05850600246064844,-1.1367855135931657e-06,-1.0431203663296418e-07,0.07721533904562677,0.07042419569754092,-6.994843145198831e-07,0.0999989188627663,0.09999865103404697,-2.3975004465991297e-06,-1.3862942965890115e-06,-4.885715559178864e-07,1.5239992214550123e-07,0.03819232180140828,3.865455876528466e-09,-1.4471723642459458e-07,-1.2579113598405382e-07,-2.862288629125829e-07,-1.5001198422972622e-06,-2.013753385259167e-07,-6.237292764470621e-07,0.0400139099947858,1.0597025619695477e-07,-1.552017246230516e-07,-3.3882223521950046e-07,0.023376199881200335,-6.62562462561398e-08,-2.1472969051423106e-07,0.09230872806911822,-1.599339186568748e-06,-3.324332101423321e-07,-6.320216281233245e-07,0.09999966105413614,-7.232197882574617e-07,-1.3870171565736116e-06,-3.0147543864242223e-07,-2.167675566693274e-07,0.09999884710451348,-1.700611565893182e-06,-1.857107421102477e-06,-1.515959211272575e-06,-5.994050385260138e-06
10,2020-06-18,Simple + Baseline,0.09999690724596078,-4.2185543633573666e-07,-8.995930506517875e-08,-2.2970463008454224e-07,-3.9302622682413573e-07,-5.802191297914316e-07,-2.9449146840377956e-07,0.09999978955451207,1.1850423234771077e-07,0.05849300077258979,-6.121195372664907e-07,-1.3410094586503814e-07,0.09999914204969784,0.07047599455241786,-5.323052757176769e-07,0.09999914675483923,0.09999932167386966,-1.6886103930114681e-06,-6.557505051416055e-07,-4.229721368465143e-07,-1.7052183343143877e-07,-5.034289831476039e-07,-1.6667300417680242e-07,-1.3950249616157254e-07,-1.897544157592934e-07,-3.647227503992593e-07,-6.299351788433143e-07,-2.7052460920137383e-07,-3.498367656714967e-07,0.04257075276491864,4.683451053353505e-08,-3.258288445452131e-07,-5.643809615557438e-07,0.00977981364893053,-3.963656311232107e-07,-4.828095143638091e-07,-2.0271838609388667e-07,-1.1679816288821553e-06,-4.484458121715966e-07,0.018708670132426223,0.09999970104793637,-6.641088077972397e-07,-5.254773898327132e-07,-2.8304059989143937e-07,-3.125768060017396e-07,0.0999993274332083,-7.173681696590367e-07,-1.7259470034526946e-06,0.09999870470509334,-3.7757568637057028e-06
10,2020-06-19,Simple + Baseline,0.09999830349064942,-1.5394416532297658e-07,-6.300509653897726e-08,-1.0956510415045373e-07,-1.862759467264677e-07,0.09999978127527102,-1.4816880536563703e-07,0.09999980075490408,-2.874940372467358e-08,0.05906335205472553,-2.005334549239811e-07,-9.060375882655064e-08,0.09999950678611252,0.03227225094195709,-2.4708285917977465e-07,0.099999643065272,0.09999973721001806,-8.412654053756254e-07,-2.9825661531471713e-07,-1.4913353538897195e-07,-6.8265015634294845e-09,-2.473081860650538e-07,-1.0710553757983511e-07,-1.0906076220922206e-07,-1.1110564162041964e-07,-1.378871478818177e-07,-2.485220184936319e-07,-1.2554846654549475e-07,-1.7429655050453758e-07,0.01029586949310435,3.88115571049096e-09,-1.5186968392884337e-07,-1.2189651809932265e-07,0.009779827889493435,-1.1669767247070647e-07,-1.5098983684000513e-07,-7.433866205103156e-08,-4.73069469211807e-07,-1.6947352912322636e-07,0.018707894864496217,0.09999981999576463,-2.6822169624881033e-07,-2.332133861515576e-07,-1.6097994101890151e-07,-1.3107634865715028e-07,0.09999965128771228,-2.471652345827269e-07,0.023111818218823316,0.04678069399217708,-1.8728096398302522e-06
10,2020-06-22,Simple + Baseline,0.09999609709811709,-7.751957991394123e-07,-7.841035482472056e-07,-5.074856229858087e-07,-3.038089180482057e-06,0.07142538549647695,-1.0656154474369829e-06,0.09999880503561144,1.0478745724524977e-06,0.05285482971144265,-3.315305134780795e-07,-8.558225975638555e-07,0.09999840140406503,0.08061430167422283,-1.4256376584112457e-06,0.09999788373656421,0.09999877379722352,4.391919860103599e-08,-1.2379787436017247e-06,-4.877584128033449e-07,-1.0711630253898893e-06,-8.835929449307079e-07,-1.6846284772874163e-06,-2.63464889350854e-07,0.0046389102389416135,-1.2507228717899326e-06,-6.529319300492585e-07,5.578178566299304e-08,-5.170431662787196e-07,0.01754300223589141,2.939533268340987e-07,-1.3151195055921786e-06,-1.0215012097948827e-06,0.003116849198476565,-1.970293061163737e-06,-1.0364630548251515e-06,-1.7474495017157681e-06,-2.569944802854016e-06,-1.4756115138323685e-06,0.046746963187199175,0.09999806135550121,-2.200068122576982e-06,2.0399365486676853e-06,-4.027386952009319e-07,-2.017804024134356e-06,0.0999992431717418,-8.045870281929179e-07,0.02310648550406876,-1.88708034585913e-06,-2.183020388664515e-06
10,2020-06-23,Simple + Baseline,0.09999803458921727,-1.6390405070358716e-07,-1.0576306020543337e-07,-5.830679901524331e-08,-7.521830133939452e-07,2.0450217048114822e-07,-2.5419682370800086e-07,0.09999975984046992,1.6121953338326357e-07,0.07025876391962857,-4.287951096971409e-08,-1.0809477337296346e-07,0.09999937676660924,0.08061450048859135,-3.614746440701495e-07,0.09999950864410762,0.09999968702798917,1.209320620231044e-07,-3.7665078255085714e-07,-7.575598249373452e-08,-1.6992867477884367e-07,-1.9322962347174936e-07,-2.0034544848845057e-07,-2.1707962794381832e-08,0.02568285604012911,-2.1329745217139024e-07,-1.416447080454667e-07,4.983624721425723e-08,-9.792917483864069e-08,0.01925662349855488,3.3065406254781716e-08,-2.4692962708176104e-07,-2.2203799645438077e-07,0.10000016600543193,-2.4348927849894327e-07,-1.902991341891962e-07,-4.2309677242935863e-07,-8.434425736521651e-07,-2.414764243789528e-07,0.0041984573530251925,0.09999971606414455,-5.749597520157699e-07,7.380507394384412e-07,-5.967440593628843e-08,-4.3960179004620303e-07,0.09999978925915963,-1.8831156589566832e-07,1.8187986932604147e-07,-7.154043752393403e-07,-1.004159667177058e-06
10,2020-06-24,Simple + Baseline,0.09998586737920033,-9.351754295565945e-07,-2.83835358060057e-07,4.377170604879965e-08,-1.5742804874266206e-06,-4.274634509955084e-06,-1.2145106701821825e-06,0.09999813501065133,0.0035112980885810396,0.054007837007157944,-2.7196537511524422e-06,-3.679164605407155e-07,0.09999226677831205,-6.544798607607546e-06,-1.7300864701011152e-06,0.0999964490516557,0.09999712199018279,-3.68172445525421e-06,-3.2913091088891167e-06,-1.251428271463695e-06,-2.4902078017706473e-07,-1.7102519347595998e-06,-2.9510275548370704e-07,1.142072137984454e-07,0.017912364959597905,-8.367077983740577e-07,-1.9890930085577862e-06,-9.763020564587347e-07,-1.3742201587091876e-06,0.02979885130528506,4.3493160236921746e-07,-1.0901820423647578e-06,-2.6562268611359484e-06,0.09999551891247874,-4.2531549663378586e-07,-1.5236136915388213e-06,-2.268528238202461e-06,-3.284612236515925e-06,-1.1104238425018309e-06,0.09488272117554163,0.09999900193009527,-2.051177004023751e-06,-1.1961594922708042e-06,-6.397943297947796e-07,-1.0095602733626991e-06,0.09999581476291701,-2.5260279884096627e-06,-6.557033570951557e-06,-7.139307070053683e-06,-5.009200125564889e-06
10,2020-06-25,Simple + Baseline,0.09999245387610661,-2.4636365295065674e-07,-4.8829167629520045e-08,4.290430458071906e-09,-4.1628522838971926e-07,0.048681551287395236,-3.3830516902276556e-07,0.061582530216180216,-1.9636072447315546e-08,0.033948199802616326,-9.791365564558635e-07,0.004396305600608148,0.09999655620397942,-2.865407182956559e-06,-4.845632796295836e-07,0.09999910524896086,0.09999912916633283,-1.6437071706316032e-06,-1.1810959177840657e-06,-3.2900725263401384e-07,-5.283884651883936e-08,-4.4465478089993527e-07,-3.753365627697524e-08,2.2416829344994425e-08,0.01751507003351935,-1.8410436689437616e-07,-6.061471803704767e-07,-2.3377225198832754e-07,-3.6856172753468783e-07,0.03169685640228738,2.5652542286823495e-08,-2.442771644161273e-07,-7.353194837603097e-07,0.09999991208052877,-5.757277627347078e-08,-3.4312439049680934e-07,-6.35808075719514e-07,-1.1830067451588872e-06,0.0022182248193104667,0.1000000296766932,0.09999983532344384,-5.876642384729479e-07,-3.655510443821972e-07,-1.3864000190059037e-07,-2.4322386914834303e-07,0.09999859008071663,-7.887590717355158e-07,-2.9382350593791755e-06,-3.0912736990917302e-06,-2.570166955849079e-06
10,2020-06-26,Simple + Baseline,0.09999561854316757,-1.0437599067984827e-07,-2.9048495018307938e-08,1.4144723492856205e-08,-2.2919520249202336e-07,0.01584050187425837,-1.0246717312102869e-07,0.013560244994866195,5.072974916842005e-09,0.0018966983217726665,-5.210327937795634e-07,0.09604166721659872,0.09999818639213162,-1.5427822699785763e-06,-2.1237131353119605e-07,0.09999961098206275,0.09999946737943675,-7.494365993584285e-07,-4.1670630277091037e-07,-1.6834993668222262e-07,-5.806126541779512e-09,-1.7835126198623593e-07,-2.174034003156565e-08,7.570791607266086e-08,0.02719799488722636,-1.533336442499477e-07,-3.4575216604652297e-07,-8.59633263526116e-08,-2.1945443014510664e-07,0.045483326450614335,2.1174906414584553e-08,-2.1938667826427034e-07,-4.1263213574372047e-07,0.0999998309536183,-1.3126063306820915e-08,-1.5070957594316888e-07,-3.2323663757183777e-07,-6.451834093543549e-07,-4.4494023485688434e-09,0.09999992787618361,0.09999985239559943,-2.7947110049723393e-07,-1.5262518196551615e-07,-2.005914631316446e-08,-9.288514753996301e-08,0.09999934203050265,-3.2830800273618065e-07,-1.5170788243576922e-06,-1.5141403056791364e-06,-1.6252933358719842e-06
10,2020-06-29,Simple + Baseline,0.09999772186165422,-1.7598551984389177e-08,-2.0963896033710876e-09,2.7766295939868813e-09,-4.666085746260502e-08,1.4346282765743296e-07,-1.6426378825947864e-08,0.03434535134871772,1.0651895667679238e-08,0.0018967827962608273,-1.3727905141971035e-07,0.09069299901404082,0.09999924610480546,-6.15091901738015e-07,-3.549317778152623e-08,0.09999993840212183,0.09999987649905748,-2.905519469286636e-07,-1.261193244334197e-07,-2.7968051676558973e-08,-3.6504105532610076e-09,-2.3812990494554473e-08,-2.22202825409133e-09,4.633153786354029e-09,0.030105234107616227,-1.4257621464305751e-08,-7.706302271499943e-08,-4.0245534536927036e-11,-4.2907546871979666e-08,0.042966875478507555,-7.136844755509676e-10,-3.256132091892123e-08,-7.14331127230905e-08,0.09999999747190141,-3.2297417582702194e-09,-1.60432894519165e-08,-6.702477149594999e-08,-1.9104572236055561e-07,1.7711019536763993e-08,0.10000000138591537,0.0999999855244015,-5.490825729794012e-08,-2.289310374980768e-08,9.961490583216689e-09,-8.632860249992303e-09,0.09999983301588235,-7.311011262103167e-08,-6.43221170061427e-07,-6.020691975227696e-07,-7.668564314687998e-07
10,2020-06-30,Simple + Baseline,0.0999987462861457,-2.754223916972677e-08,-3.008391264123303e-08,8.342268055958e-09,-1.0596058142310644e-09,-2.80751232611711e-07,-9.521697015394326e-09,0.03434495735920303,3.973501055316096e-09,7.331552585617111e-08,-9.704324449872073e-08,0.0640064138101571,0.09999954265345687,-3.0002503545890075e-07,1.2314533378092328e-08,0.09999991422761892,0.09999982994149692,-1.8861612732186705e-07,-8.124359328191822e-08,-1.0439958005368287e-09,-1.1024971815373324e-08,-2.5032028674172188e-08,1.1262204095907389e-08,2.6722722010695314e-08,0.0772876568300024,2.1668488753801317e-08,-8.748715282062217e-08,2.5005180161861004e-08,-4.477197858340871e-08,0.042970000498184224,5.096970350026414e-08,-3.002130963087793e-08,-4.1929582167923294e-08,0.09999994486903649,1.0752631168660589e-08,-2.2720917225514104e-09,-3.842762014277446e-08,-1.2030014267011818e-07,2.6408470626715236e-08,0.08139546202662305,0.10000002228947259,-8.374091171328057e-08,-7.082028219614645e-08,1.1533190159174409e-08,8.998422690520414e-09,0.09999992147728824,-2.89846362875821e-08,-3.8296159253347256e-07,-2.8050695677111914e-07,-4.377130112730471e-07
10,2020-07-01,Simple + Baseline,0.09999675213230685,-3.636500049093039e-07,1.3032624758332353e-07,2.205272665744446e-07,2.0341940925408982e-07,-2.382311819071331e-06,-2.421965774787552e-08,0.04669310888577925,-7.093304163491483e-07,-1.1506808785005873e-07,-2.2626217593175975e-06,0.0640071285648599,0.09999764022045474,-2.0850918016150187e-06,-5.264684270987287e-07,0.0999987350872084,0.09999844828258589,-1.768352648236303e-06,-1.5693609581487862e-06,-3.5093518791095217e-07,2.7632806049044107e-07,-3.49370863266761e-07,2.1695562942542108e-07,-5.055330333874069e-08,0.053992196960711315,-5.8561149175375434e-08,-6.245889989194833e-07,-2.832414098979823e-07,-2.385986446335315e-07,0.04381265020623821,1.1670299943663431e-07,-1.238637514922057e-08,-2.2040581645916467e-06,0.09999796091400107,5.635000502180646e-07,-1.9534305316298845e-07,-6.175883925048625e-07,0.01715625940607111,-1.561833563984278e-07,0.07437482349938355,0.10000045599421016,-1.524272032833157e-07,-1.1395870107223647e-06,-1.1411940445108479e-07,1.9578697042747866e-08,0.09999840035385396,-8.284032281187982e-07,-2.4631366728443015e-06,-2.0584699938382125e-06,-2.5806316319091175e-06
10,2020-07-02,Simple + Baseline,0.09999791418472972,-1.5732619328688042e-07,-2.7932045033677444e-08,2.1314722246655154e-08,-9.205656637137201e-09,-1.428051540578963e-06,-4.929396667561676e-08,0.04669279123003755,0.01511702311545579,-2.156188851471393e-08,-9.81895064014212e-07,0.0640067799821511,0.09999867655990731,-1.1144837892367326e-06,-2.223284285365142e-07,0.09999950741224903,0.09999933631805212,-1.0312064671794092e-06,-7.191389584492233e-07,-1.2656696022317805e-07,7.382828194508039e-08,-1.7342993595113347e-07,-3.846991415292642e-08,3.749975122991843e-09,0.035523269056448994,-5.7323651663437685e-08,-2.4323185638982494e-07,-5.138935360100127e-08,-1.1770102502258668e-07,0.052447671630635774,2.633187784956898e-08,-5.684339152364243e-08,-7.872263002733047e-07,0.09999887014412585,6.886376400089695e-08,-1.0088193209618735e-07,-2.757864575511059e-07,-6.074283589596609e-07,-9.521086358210656e-08,0.08623220780374252,0.09999994891908795,-1.325552142694748e-07,-5.069452672971583e-07,-6.888687604646987e-08,-4.664274536594949e-08,0.09999937185339926,-3.444716442229496e-07,-1.3239426401914987e-06,-1.0758571077764136e-06,-1.566393293654656e-06
10,2020-07-06,Simple + Baseline,0.0999895731184886,-1.5589626920291161e-06,-2.6966412154186843e-07,3.4748871699236045e-07,-2.3323690869887286e-06,-8.704595901825128e-06,-2.0117464301757875e-06,0.09999652131581838,0.014081446032956092,-4.4664776548357713e-07,-4.797079271348049e-06,0.09451011487792658,0.09999194842691986,-6.744451337930042e-06,-3.048067813172423e-06,0.0999934789663302,0.09999545662318236,-6.941095911807073e-06,-5.7145120195460455e-06,-1.870558180818945e-06,4.689541080065174e-07,-2.7213754639466533e-06,-3.0203549516066223e-07,3.4199605276639387e-07,-5.393379924097104e-07,-1.4841563609159562e-06,-3.629233494262801e-06,-2.32053870618958e-06,-1.4141650383331073e-06,0.062106027035625025,-2.3520961834934736e-08,-1.6036356499145595e-06,-5.875353811202156e-06,0.09999141945403882,-1.237958721127644e-07,-1.993320321999581e-06,-2.26255523199402e-06,-4.8198156486254e-06,-1.9640516999737662e-06,0.09999785648962271,0.02946376896344379,-2.6525276167738406e-06,-3.718442557122497e-06,-1.6915957435036315e-06,-1.6828518239119577e-06,0.09999386420989263,-3.081839036563724e-06,-9.778979089593583e-06,-6.188700519823077e-06,-8.233062675462878e-06
10,2020-07-07,Simple + Baseline,0.09998888080684565,-1.1183584258919435e-06,8.498977936595673e-08,4.824321414622082e-07,-1.3993032934666547e-06,-9.049361242228889e-06,-1.1596947961372175e-06,0.09999740423044233,0.014077876986495892,-2.969985621238738e-07,-3.570541853076295e-06,0.0363166132458281,0.09999215793582977,-7.287816208311884e-06,-2.1527899278067904e-06,0.09999612331424655,0.09999579448229945,-7.597488275295121e-06,-4.707516030753085e-06,-1.319144631141422e-06,5.623163072603163e-07,-1.5681112569226383e-06,5.6271153427244094e-08,3.069229941451748e-07,-9.519141165968675e-08,-4.3759582859282254e-07,-2.6793193184354807e-06,-1.0435890882511337e-06,-1.5981192251555809e-06,0.06543151327385877,3.0557914271873464e-07,-8.714462371862237e-07,-3.848484700683889e-06,0.09999148719892076,3.72400865961948e-07,-7.354694419883325e-07,-2.722916815587785e-06,-3.868295174509777e-06,-1.0521105919973153e-06,0.09999841223079713,0.03782094911145903,-2.28415368165355e-06,-3.560319709443874e-06,-6.726182088259718e-07,-6.75692107548207e-07,0.09999525933005705,0.04648650428329139,-7.511085995826762e-06,-7.062691315864138e-06,-9.145392290295562e-06
10,2020-07-08,Simple + Baseline,0.09998305046219719,-1.7133424686217752e-06,3.323338536006389e-07,1.1471229407100112e-06,-3.0672387837331246e-06,-1.7154415979266338e-05,-1.1155182674430095e-06,0.0999949295888861,-5.642818890011444e-07,0.013136510875456675,-4.132594105959922e-06,0.033208287590623595,0.09998416138627424,-1.1316890995740538e-05,-3.490908253701959e-06,0.09999415109478423,0.09999274969677424,-1.1778155176622885e-05,-7.84343517520661e-06,-1.646773550430819e-06,1.4222929646954134e-06,-2.4557558890339476e-06,-2.5916616525536643e-07,7.40621602345191e-07,1.9718383794434006e-07,-1.5461032793100748e-07,-3.815296576506595e-06,-5.949731827357442e-07,-4.153081501864217e-06,0.021603826804043658,9.997583545799917e-07,-1.689836750383683e-06,-4.359960114456268e-06,0.09998698891949644,4.154381046129447e-07,-1.1907157260366716e-06,-6.575616647203424e-06,-5.94882651346961e-06,-2.1464287347841007e-06,0.09999642300114099,0.09999765308790971,-4.223737855760256e-06,-5.765862708401994e-06,-5.188456916739256e-07,-9.794755668342203e-07,0.09999173091541251,0.03226919329551899,-1.0141161143366883e-05,-1.295758448925317e-05,-1.3055307103964605e-05
10,2020-07-09,Simple + Baseline,0.09998827351004703,-8.479892371352263e-07,-2.999864090566394e-07,-4.643594375079742e-07,-1.3664500526888678e-06,-1.1033800755967045e-05,-9.708103524509791e-07,0.0999975800352333,-8.396641882801255e-07,0.016894999006910712,-2.744126825935573e-06,0.03319870361219827,0.09998987028323127,0.034443078167981006,-1.3879672657460216e-06,0.09999595733970043,0.09999586969393788,-6.33504496534544e-06,-3.6972583513825768e-06,-1.145279538163279e-06,2.0563721018710886e-07,-1.5682651184360322e-06,-8.096984066671133e-07,-5.343519569236848e-07,-9.551183196599348e-07,-9.870920117417734e-07,-1.212270891797506e-06,-1.0093198633996843e-06,-9.319300978237489e-07,0.012035650259348848,-2.952218164922232e-07,-6.547073717411935e-07,-2.1569644603634797e-06,0.09999256265981601,-9.196692562089563e-07,-5.761327390672341e-07,-2.0272455547498314e-06,-4.070548460909419e-06,-1.2061691855810745e-06,0.09999826050186932,0.07128916724291319,-2.5846197830397043e-06,-3.6320070547823053e-06,-8.943688124858004e-07,-1.3023050647862047e-06,0.09999630145115382,0.032262229256313606,-6.205010207809592e-06,-6.091305607398574e-06,-6.930692576274943e-06
10,2020-07-10,Simple + Baseline,0.09999342950750548,-3.4729813255747997e-07,-3.415557510875707e-08,2.3396891933208365e-08,-3.630186893719331e-07,-6.300843505420408e-06,-1.792948118506363e-07,0.09999902230065236,1.2867789840426021e-08,0.03170482210414389,-1.2821422502086095e-06,0.09362776654355075,0.0999945234839961,0.02290580828927964,-2.816375988985432e-07,0.09999837802008842,0.09999795148919813,-3.3126748786690063e-06,-1.3556174840627688e-06,-2.1764144833883906e-07,1.3149281954866017e-07,-6.148189625934045e-07,-2.6064196098921514e-08,1.002852397295815e-07,5.165137823367908e-08,-1.0979051497495048e-07,-4.6951842584951204e-07,-7.115631674204976e-08,-4.099133164554697e-07,0.012052797934224379,4.123233092624911e-07,-3.0047600171182987e-07,-7.610907300093871e-07,0.09999638342537856,-1.367154057798626e-07,-2.042222163622958e-07,-6.683948630364601e-07,-1.9424227122847556e-06,-2.5570487873326425e-07,0.0999994829390442,0.07552093376397388,-1.3085625784235589e-06,-1.4986112548151878e-06,-8.004106939731909e-08,-3.5871351651424716e-07,0.03197867827013465,0.032262046892045544,-3.4322345388169e-06,-2.764085593390542e-06,-3.667197257127119e-06
10,2020-07-13,Simple + Baseline,0.09999649995572193,-5.0962789652526535e-08,-2.1342482009151534e-08,-3.91593321781866e-08,-2.2567220900312322e-08,-3.250566894305313e-06,-5.604222025623952e-08,0.09999977458166752,3.395046104263284e-08,0.05852452135692425,-4.924729809929132e-07,0.09999997000432918,0.09999749205047657,1.263683246155215e-07,-5.915777776263911e-08,0.0999995724552077,0.0999993633804479,-1.5568256723435881e-06,-4.500409759577375e-07,-8.277605051793464e-08,6.059797320942758e-08,-2.1370098972484794e-07,-4.059046334152718e-08,6.58940045985628e-08,1.0648565998940128e-10,6.467107425552801e-09,-1.1029833684759293e-07,3.820514481501998e-09,-1.0441494383978763e-07,0.011967497549071006,8.582471725943719e-08,-1.0813975426603962e-07,-2.3085658656156987e-07,0.09999855697492278,-3.195382207198299e-08,-2.875141497197264e-08,-1.578365125486813e-07,0.007066174213690269,-1.2954246774881408e-09,0.09497697083448083,0.05108414441039404,-4.2924833723307563e-07,-5.011629930846361e-07,-3.498691867368847e-08,-9.016934893499898e-08,0.02227620865628868,0.054125741080582934,-1.6409756975620952e-06,-1.202767775003415e-06,-1.8619375423619286e-06
10,2020-07-14,Simple + Baseline,0.09998084067897534,-6.501167719177851e-07,3.5696084045783234e-07,7.16268876630062e-07,-1.4518684876003284e-06,-8.865454675270935e-06,-1.0989158330225102e-06,0.0999957444362494,-1.071576638018435e-06,0.048530406957838675,-6.263938108194914e-06,0.029257368824275518,0.09998803451559919,-5.39409182900179e-06,-2.1168894029561485e-06,0.0999947699347581,0.09999576925395677,-9.865866105922243e-06,-3.6423303409564812e-06,-1.528658977073875e-06,1.2234131806530852e-06,-1.6625993382278175e-06,3.1171675995795915e-07,5.029785084204322e-07,-4.0596418903876734e-07,-1.0135642481315373e-06,-2.026450051227538e-06,-1.1514009792122332e-06,-1.3681751223792372e-06,0.005425343867906601,5.040831037598292e-07,-1.102809385068292e-06,-4.528541888506078e-06,0.09999303926578185,7.491659524820542e-08,-9.321526922842863e-07,-3.0370137050259403e-06,0.0999934745973928,-1.006654734780364e-06,0.09497060756590779,0.06785400422680524,-2.730119001043927e-06,-3.6014267094626568e-06,-7.990161643476957e-07,-1.211468342258338e-06,-5.6365578183156956e-06,0.05411516087885615,-8.332171723260622e-06,-8.597444403421725e-06,-7.07696640944422e-06
10,2020-07-15,Simple + Baseline,0.09999482237378468,4.2110244486699946e-08,-3.928320397808789e-07,-4.805595871359189e-07,2.1322789845239665e-07,4.92468333348443e-07,-1.3370785176228665e-07,0.10000103729398087,-2.61841590967564e-07,0.04059398718454939,-1.0220063459719108e-06,0.017321568354944437,0.09999843584310388,2.1001612781515776e-06,3.8766704949524716e-07,0.10000053475837133,0.10000140024531137,-1.9185956714420338e-07,1.0141124280107496e-06,3.780321261431168e-07,-7.405317111577803e-07,-1.6340041444583101e-07,-1.3706018357922653e-07,-5.120431936114062e-07,-2.9581941486431645e-07,-5.179315768907996e-07,8.063050828148439e-07,-1.6422523982310503e-07,5.232571762773089e-07,0.018160870990130716,-6.461564798242516e-07,3.3565059482888146e-07,8.914969675531521e-07,0.10000226107054855,-6.650757626660361e-07,-4.1027049683983574e-07,1.542002050032547e-06,0.09999944025028881,5.653884851268579e-07,0.09497525506378186,0.08170942876672095,5.115045106118207e-07,6.939982830846687e-07,-3.544876195446601e-07,-4.1444481910773423e-07,9.658758656408132e-07,0.047237048398589866,-1.0599871952723607e-06,-1.7802963618530957e-07,1.1275077720961882e-06
10,2020-07-16,Simple + Baseline,0.09999437271689915,-1.9283103057516363e-07,2.9482273982534905e-08,1.8565008836830358e-07,-4.7196198383304117e-07,-3.857170197215362e-06,-2.798832730404785e-07,0.0999987364763938,1.3275664880756155e-07,-3.0967943740976106e-08,-9.993355888861693e-07,0.03863392521256813,0.09999692435953071,-5.191090460944282e-07,-7.642276663304896e-07,0.09999866719282031,0.09999849404297927,-3.5862454827729892e-06,-1.4232670746443096e-06,-5.017032945391223e-07,6.745565892699166e-08,-4.1755982664321267e-07,-2.770989945193594e-08,2.096282819904034e-07,1.4588221131431678e-07,-1.675924477306279e-07,-2.4919536824442746e-07,-7.20839843209349e-09,-3.4287841885948114e-07,1.0153888460042199e-07,2.0942867976605714e-07,-3.5973832754635503e-07,-6.048577354235228e-07,0.09999916292633003,-1.5296887146608597e-07,-2.7293247683461796e-07,-1.4276785537300034e-06,0.09999791810487293,-3.743354292030703e-07,0.09791049093470272,0.08170745553979697,-3.817785751596318e-07,-1.2750341391876685e-06,-6.168776665996053e-08,-3.8869723961772183e-07,-4.952246783336071e-07,0.08178819256500254,-2.6953531123073398e-06,-1.8629251824837425e-06,-1.2059194214215465e-06
10,2020-07-17,Simple + Baseline,0.09999524991494367,1.2669078047793678e-07,1.6793242838591926e-07,5.255819224490439e-08,-7.243081723610564e-07,-3.4547480845941056e-06,-3.4407020611997543e-07,0.09999929771777315,1.1344841792520455e-07,1.0016083494530154e-09,-1.1587226311938626e-06,0.04082261887416669,0.0999977297492427,-1.0219763809914641e-06,-9.936920200831134e-07,0.09999890921966745,0.09330730738643297,-2.8554638239464604e-06,-9.423556442747109e-07,-4.297471775898727e-07,3.4852318902294716e-07,-5.40199419577204e-07,-8.7879193007229e-08,1.682769420294956e-07,1.0967430945340272e-07,-5.023690532535844e-07,-4.042073289940478e-07,-5.18446000689369e-07,-2.13282532547211e-07,4.355102383539652e-09,2.7462717152666757e-09,-4.087319887792725e-07,-1.1744437752188371e-06,0.09999847825236693,-2.847710861514141e-07,-1.4927572195732213e-07,-5.862267374112738e-07,0.09999799672304435,-4.4371686458892196e-07,0.07971651250553155,0.08619177821588876,-2.1541369360469547e-07,-4.025405737362299e-07,-2.9504711566754344e-07,-6.211029905008222e-07,-6.664954532710996e-07,0.09999884367099295,-2.1424261842234047e-06,-2.383312179100124e-06,-1.8358549735451645e-06
10,2020-07-20,Simple + Baseline,0.09999060520125455,-2.0366032985772098e-07,1.0845236823929305e-07,4.1656904368811707e-07,-8.816936109948007e-07,-6.809790144229324e-06,-6.431614103827772e-07,0.09999800379034439,-7.03277922804971e-07,1.8933896354366e-07,-2.8977640514991283e-06,0.040398887206373586,0.0999946792859894,-3.2197887950122292e-06,-1.0753337160573376e-06,0.09999773317171831,0.09999734790467071,-4.115637089265218e-06,-2.185491520374809e-06,-1.0563535897488386e-06,1.6634946142871591e-07,-8.787693575231751e-07,1.3993628795018547e-07,4.931965540462439e-07,-3.013995301493621e-08,-5.325115886943458e-07,-1.1750882683788545e-06,-5.768753175620755e-07,-6.183870601086561e-07,9.555854505104629e-08,1.5844454591183375e-07,-4.4227838295698944e-07,-1.8101533033000421e-06,0.09999662607762755,-9.47399983487249e-08,-8.646172812477736e-07,-1.7182386396143604e-06,0.09999645356518896,0.03342138805678974,0.04006966707069455,0.08619097858404723,-8.980644999183388e-07,-1.5810499235950908e-06,-3.2122241604488765e-07,-5.554531942655763e-07,-1.6780684308236255e-06,0.09999755718751908,-4.812008301652486e-06,-5.048956027820168e-06,-4.224774892458697e-06
