seed,date,strategy,NASDAQ:MGNI,NYSE:IBP,NASDAQ:PLMR,NYSE:LEN,NASDAQ:NBTB,NYSE:EGY,NASDAQ:SAGE,NYSE:PLOW,NYSE:MFC,NASDAQ:CRUS,NASDAQ:HLIT,NASDAQ:CTMX,NASDAQ:MTRX,NYSE:BBW,NASDAQ:BBSI,NASDAQ:MNRO,NASDAQ:CHTR,NYSE:SBOW,NYSE:MPC,NYSE:SD,NASDAQ:OPCH,NASDAQ:ACIW,NYSE:FIX,NYSE:MTDR,NYSE:MYE,NYSE:FDP,NASDAQ:LRCX,NYSE:PKG,NYSE:PAG,NASDAQ:MBWM,NYSE:TDG,NYSE:AN,NYSE:AG,NASDAQ:NMIH,NASDAQ:RPD,NASDAQ:MDB,NYSE:ELAN,NYSE:SMP,NASDAQ:TXN,NASDAQ:PFG,NASDAQ:SONO,NASDAQ:FCFS,NASDAQ:EEFT,NASDAQ:TER,NASDAQ:ENPH,NYSE:GKOS,NYSE:DOOR,NASDAQ:SPSC,NYSE:CWK,NASDAQ:VCYT
20,2020-03-18,Simple + Baseline,-2.7393164505221485e-08,-3.114482372763979e-08,-1.422191026167506e-07,-1.2001326968502284e-08,0.10000000306309591,-4.495271842964276e-08,0.10000000076167319,-3.4001373382569145e-08,2.8156711928082766e-07,-5.643459294859631e-08,-1.6112256628295473e-06,0.10000000206010572,-6.499471210814796e-08,2.097519645635708e-06,-4.215815622277219e-08,-2.4751777223744852e-08,0.10000000052843964,-1.6194800459963956e-07,-3.1627055367191506e-08,-2.4757692510438094e-07,-4.36821072231438e-08,-3.034598073807948e-08,4.115603130820558e-07,-2.9419061150531757e-08,-6.739985436385078e-08,0.10000002042689964,-2.8238924043721668e-08,0.10000000058362468,-3.283187573894304e-08,-2.26497346306875e-08,-3.868345168772953e-08,-3.2245000988776316e-08,-2.6376320898288956e-08,-4.1259844600069e-08,7.280521895144307e-07,-2.8749381240144105e-07,-3.00337463391243e-08,0.09999999700443628,0.09999999601793454,0.09999999717303153,0.0999999969988294,-2.8102193496239752e-08,-2.784825224881554e-08,-2.7787099430923497e-08,-3.253816782385656e-08,-2.658440618375596e-08,-3.795740501489726e-08,-3.085343361385869e-08,-5.464500021551529e-08,-2.389912617500852e-08
20,2020-03-19,Simple + Baseline,5.0374274620149143e-08,0.09999914658108557,-1.7164574609726822e-08,5.8998185109314465e-08,0.1000000689400503,3.982013568625466e-08,1.6833356675633198e-06,4.5732131758831275e-08,2.314936756364501e-07,0.09999912100700045,-8.771982690525362e-07,0.10000006875228322,2.7328586411878e-08,1.2953707853453664e-06,4.1988372079251756e-08,5.144073182056537e-08,4.563010869347912e-06,-2.8592062303513526e-08,4.6982937385019535e-08,-7.921304522303195e-08,4.007204010495718e-08,4.8584216032664505e-08,3.0717222886285076e-07,0.09999907799863031,2.673671826105003e-08,0.10000007953133833,4.914113850724393e-08,-9.86385401608072e-07,4.6700039044995784e-08,5.294611944192537e-08,0.09999914304135185,4.758955635524512e-08,5.0532251614419697e-08,4.0717486349493956e-08,4.928020641481678e-07,0.09999910974435959,4.828604574434991e-08,-7.979590160367245e-07,-9.995259938433254e-07,-9.808871761003944e-07,0.10000006568503007,4.9525212435595855e-08,5.0154329932347756e-08,4.9776911861525785e-08,4.701185853989987e-08,4.972257773913287e-08,4.3329867055165144e-08,4.8304015320963086e-08,3.4430879564736245e-08,0.09999912525482964
20,2020-03-20,Simple + Baseline,2.0068964285832698e-09,3.162824265773069e-09,0.10000002311261529,1.5508581962369912e-08,0.0687128748415265,1.4435012465656548e-08,0.04713338142690929,1.8881077054752266e-08,2.535550266248592e-08,3.2161499637504126e-09,-9.243646485848122e-08,0.10000001783217312,1.509074411702731e-09,0.10000001615213047,7.245672834213141e-10,6.02674736481964e-09,0.10000013332242186,-3.7461672915306265e-10,8.312390066246068e-09,1.3079869669445697e-07,5.3568244385561604e-09,2.920978537761282e-09,2.0641012931321568e-07,0.08415266554737245,6.213026091832943e-10,0.10000001628156768,1.828958918012109e-08,0.10000066232148289,5.2563660210765174e-09,4.865299258137105e-09,1.870979758663623e-09,4.611483526039769e-09,8.889325294791438e-09,3.7033213792232802e-09,0.1000000291196505,-2.0002079595564593e-08,9.71838217480282e-09,-8.028828978973877e-08,-1.2323189449229456e-07,-9.075543285130598e-08,0.10000001490217812,5.09074485655253e-09,6.244893813523625e-09,2.5472877175686935e-08,6.02352090318952e-09,1.075809091248653e-08,6.699308366088409e-09,5.503959028365687e-09,1.5280269774239207e-09,3.073178712654028e-09
20,2020-03-23,Simple + Baseline,-4.7988301812271e-09,-1.856758552267896e-09,0.09999999662801896,-1.5069790181382231e-09,1.7002661619064645e-08,-9.58010442298767e-10,0.1000000200969244,-3.4021385733759706e-09,-4.278670842176557e-09,-4.062217327227402e-09,-2.4801835588791097e-08,0.09999999185069176,-5.156299856967394e-10,-2.5175278403042705e-09,-1.5571566152008514e-09,-6.927355233042082e-09,0.10000001990483587,-7.192835821297088e-09,9.526553592291516e-11,2.1286203598517863e-08,-1.1168026467524946e-09,-3.5695960976216727e-09,4.4679577124654664e-08,0.0999999977739118,-5.056154943867191e-10,0.09999998963391347,-4.226756465554329e-09,1.3145171584991995e-08,-3.639601226616892e-09,-5.7068966487183155e-09,-1.4300610197824806e-09,-2.5250413349026334e-09,-5.187266633750997e-09,-1.0271781785945107e-09,0.09999999723012847,0.09999999626612369,-3.808556515371464e-09,5.272783774547996e-08,0.10000001510449767,-3.5849761485216345e-08,0.09999999354884025,-4.539383664131872e-09,-2.768088838183472e-09,-7.4419862584738304e-09,-3.4919680439869368e-09,-7.0847914249473114e-09,-2.964204020433782e-09,-2.938725858905993e-09,-2.963262875291728e-10,-2.4815327660771335e-09
20,2020-03-24,Simple + Baseline,-5.885849358542563e-07,-2.993040591677788e-06,0.09999300688724677,-2.91873415426134e-06,3.5703819444824995e-06,-4.339246289445923e-07,0.10000032483047121,-2.710726912906908e-06,-1.8180011125194764e-06,-2.6144000512285517e-06,-6.138885830396453e-07,0.09999681844296898,-7.964928735010219e-07,-1.6381440066940912e-06,-9.772992697637107e-07,2.1311630993277574e-06,0.09999978242376396,3.7845955792327946e-06,-3.241542302990806e-06,1.5036448823318678e-06,-3.273077924355677e-06,-7.354762480270488e-07,-1.4078353950021674e-06,0.09999595343580198,-7.709428429062339e-07,0.10000755068298028,-1.523863035269929e-06,5.496275204279923e-06,-1.4846228931847174e-06,1.5281587462933217e-06,-2.1787249838667892e-06,-3.478411340925494e-06,-2.43026989315151e-06,1.7889315053659606e-06,0.09999134316873116,0.09999523899716499,-2.776010501863079e-06,6.574025811386628e-05,0.10000021939939678,-9.620923825567907e-07,0.09999254694956192,-1.5367224225568262e-06,-3.426306470294609e-06,-1.019101273290287e-06,-2.531997371751833e-06,2.022242425801419e-06,-2.0291832695110977e-06,-3.520454227144374e-06,-1.549167473837267e-06,-2.379848877936778e-06
20,2020-03-25,Simple + Baseline,1.0877030712656842e-07,-3.93313462845714e-08,0.0999995706974344,-3.1003913964791847e-07,1.0210312999768507e-06,-1.4655357651127645e-07,0.08776306715800675,1.517374692248246e-08,-2.2154575816889637e-07,1.9970914046402978e-07,4.4176730445033653e-07,0.09999999475128392,1.1494610593294189e-07,2.7047998227525507e-07,1.899692632652965e-07,3.610195579100513e-07,0.10000055228839988,1.638879177499712e-07,0.012231487997928742,0.09999978734439348,9.54752418981011e-08,1.3353356384833922e-07,-2.1923484595189453e-07,0.10000013826579797,1.343474567287133e-07,0.10000177721123832,-9.887061776248626e-08,1.0200973514076602e-06,-1.7954750905366248e-07,2.1296152438779854e-07,1.3423892495050332e-07,9.916773931303537e-08,-2.7585359177424005e-08,-2.226453015604953e-07,0.09999895586606121,0.10000031669725196,-1.6195058511658503e-07,7.067107840400668e-07,1.1381181348176859e-06,-3.2979714502441797e-07,0.09999981842094141,5.974161895828823e-08,-7.402411484150615e-08,-2.3845178380086583e-08,-6.183354229863165e-08,-1.526797265172945e-08,-8.797080422280133e-08,1.2022026422147885e-07,8.716810937517813e-08,-8.000790089935771e-08
20,2020-03-26,Simple + Baseline,-5.95126762135386e-08,1.016706511402617e-06,0.09999737940966356,-4.45826609956251e-07,-7.722961579996641e-06,-1.3170246336164212e-06,-8.097674081734223e-06,2.991239255549097e-07,-1.1595862890621752e-06,-5.932370039671606e-07,0.09999511653502102,0.09999861854864861,1.5770042947645385e-06,-9.878570466118159e-07,1.126980768685739e-06,-1.5636357944632546e-06,0.09998998237520293,-1.9090643487277672e-06,0.04058984843765541,0.09999977883800502,1.063183698070138e-06,7.660666526636759e-07,-4.358676934627166e-06,0.10000087727335479,1.0427606595528331e-06,0.09998773614857458,-1.4535610787025198e-06,-8.086974491388859e-06,5.636365918764141e-07,-1.1459188500604912e-06,9.45883591396042e-07,1.4522298821965098e-06,-2.3527621260413293e-07,-5.038984841250589e-07,0.0999927685708064,0.05950356586174407,-4.954426421622302e-07,-1.0212560567804999e-05,-7.812254359601824e-06,-2.521272731622421e-06,0.09999735651159203,-7.296731328191341e-07,5.04761581304872e-07,-2.663089066922107e-06,5.341031958057759e-07,-2.261064359436703e-06,5.132733291986042e-07,7.303362525401965e-07,1.198933886283685e-06,2.0265465181501835e-08
20,2020-03-27,Simple + Baseline,-6.922532690271376e-07,-5.782870534043475e-07,0.09999721211968957,-4.5380502809117005e-07,-2.2511608721337788e-06,-9.750561121152746e-07,0.09999585333554956,-1.2610677034201715e-06,-2.6191245558949343e-07,-8.170381216020856e-07,-2.1483625204574813e-06,0.09999943828313214,-2.0234836065580802e-07,-3.382871844286125e-07,-3.944292071175466e-07,1.056744713395786e-06,0.09999509212441954,-3.8600890494698754e-07,0.09999877268138742,0.01821651912252367,-4.3516557331255667e-07,-1.157281401168489e-07,-4.884481696794183e-07,0.06382807994870578,-2.448242870002874e-07,0.018010063178252527,-3.3576945426603613e-07,-3.972411720627995e-06,-3.438931491482797e-07,2.6525503188330317e-07,-3.452723654305801e-07,-2.5065417748286256e-07,-1.637230339537219e-08,-2.548958290682552e-07,0.09999566140577745,0.09999801059195186,-2.1480420778446736e-06,0.09999289119929007,-2.445702074641278e-06,-7.025342084784164e-07,0.09999831841628462,-1.5439020168416324e-07,-1.3189140477963628e-06,-1.0283906900346859e-06,2.942573147925232e-07,-2.0193550382468413e-07,7.079951964533933e-07,-1.7458122148970751e-06,-2.38424986442735e-07,-6.636489070138723e-07
20,2020-03-30,Simple + Baseline,-8.519902548574604e-08,-5.338930199914772e-08,0.0999996463447611,-3.766578443270688e-08,-3.5305793645514573e-07,-8.119195653323187e-08,0.06412628895308799,-1.512843788185131e-07,-3.0926742525070384e-08,-9.135198719370209e-08,-3.0593148948936353e-07,0.09999997209592834,-4.3134595447573184e-08,-7.03147717446206e-08,-4.29366766281359e-08,7.4984544537983e-08,0.09999895891087889,-5.6146914853522694e-08,0.09999992918047355,-7.2140146451393e-10,-5.46732172153507e-08,-4.8192669778475494e-08,-5.729640470347638e-08,0.041287468195208774,-2.8431435861087227e-08,0.06186597747446554,-4.414551200897165e-08,-6.490368210787639e-07,-4.815427015890821e-08,-1.1450657516729266e-08,-3.789236476579635e-08,-5.607680643994732e-08,-2.5623887458064597e-08,-3.4466907804001424e-08,0.09999914876803528,0.09999971565920654,-2.563270202300138e-07,0.09999783379252399,-4.5753646545037557e-07,-5.37469260869424e-08,0.09999973955855339,-5.2061513837964765e-08,-1.4785403055527774e-07,-1.3954803341383337e-07,-1.3429999255070542e-08,-2.7023429093360565e-08,-2.58941819748354e-09,0.03272897680764385,-3.2095981183757097e-08,-5.037296836575887e-08
20,2020-03-31,Simple + Baseline,1.0000965925977209e-07,3.693634711891168e-07,0.10000193017672111,1.506941394386419e-07,4.6199212497642824e-07,-3.5960677437137786e-07,0.022592583056557772,1.189774745324013e-06,6.163763410853712e-07,1.0258654319193976e-06,0.0060454773972136965,0.10000047248813511,4.997240801090741e-07,3.8538762869279673e-07,6.276519721561806e-07,4.913906021430594e-07,0.1000012769142604,2.539821807004602e-07,0.10000105044263895,0.008969805532963886,7.630998167933604e-07,8.991631226913766e-07,3.4556264589832015e-07,0.10000037505735763,2.9878843831132123e-07,0.024091034459750266,9.183011519605949e-08,8.699513911630604e-07,5.465409903804585e-07,-1.2877442170223447e-08,3.353296728692857e-07,7.494298807024001e-07,-1.1767367251290137e-07,-6.192412620929016e-07,0.1000016368525212,0.1000025662600761,1.2783913642648142e-06,0.10000270132750272,5.693869666153812e-07,-1.0991043458945937e-07,0.1000018630773597,3.1869728757408084e-07,8.933993439128889e-07,2.84204237457998e-07,1.5208878333222555e-07,-3.36140324935369e-07,1.4045368046042707e-07,0.03827286662022433,5.108196669041564e-07,6.764214412061089e-07
20,2020-04-01,Simple + Baseline,1.6438553280941689e-06,5.494847793711219e-07,0.1000073362969891,1.6715267633809012e-06,6.302205213601197e-06,5.611958518263434e-06,4.9290356231424945e-06,3.3904314863147704e-06,0.037501597895413866,3.642638157965898e-06,0.03955554764456336,0.10000430287883146,5.06005080238995e-07,-6.002878992167996e-07,1.3476513161751336e-06,-3.8993611845081117e-07,0.10000789641915027,2.577073865683341e-06,0.04844424552556231,0.006351241322578892,1.2643351647718816e-06,7.373471483205923e-07,4.1693109470050314e-06,0.00842043833745162,9.010659185354046e-07,0.05961535335072657,1.8147669215438086e-06,7.778077093729145e-06,6.854039188983383e-07,3.5110554904115127e-07,6.072916027183015e-07,2.3001375209464048e-07,-4.388249841118109e-07,1.264459487938965e-06,0.10000599220534243,0.1000025263112395,4.2925974270528865e-06,0.10000582132033871,4.902356345708052e-06,1.1883706129486325e-06,0.10000274348949671,2.0501670416024014e-06,1.9809144541558368e-06,2.752962661763904e-06,-4.034945958789734e-07,4.8402092321255696e-08,-1.3854134573757111e-06,0.10000621156580741,6.819957701576128e-07,2.0589517470175256e-06
20,2020-04-02,Simple + Baseline,-2.0620073636081298e-07,1.0433695583057225e-07,0.10000131318726967,3.769045167937851e-07,7.699705560155528e-07,2.918573201789864e-07,5.471899610158033e-07,2.9551908332232446e-07,-3.7914075127797464e-08,1.9503857054635256e-07,0.0395612832080029,0.0999998374926461,-6.542125493119661e-08,5.0547424600059606e-08,-1.6978992345726385e-07,-2.2160724103185385e-07,0.09999923821112913,1.9438565488245205e-07,0.0484530586171434,1.9070331223882388e-07,2.4638764182280356e-07,-5.345438398896805e-08,6.107145152624298e-07,0.10000007931922134,-9.210119679575404e-08,0.05961093537800151,3.7322659642682685e-08,0.07328511394970388,5.824087626611642e-08,-2.0336258968214616e-07,5.438914638248705e-08,2.1178108885077125e-08,-7.71731340423446e-08,1.3574774573361944e-08,1.6379935072120988e-07,0.07908336827524515,5.027759721590055e-07,0.10000103701041456,-3.559467076704687e-07,1.504683567808198e-07,0.10000046828037534,-1.7895960570527895e-07,2.5477703433338105e-07,-1.8989807807548902e-07,5.59716467285379e-08,-1.1654560612510068e-08,8.787276092395158e-08,0.10000065371448932,5.089700098810648e-08,1.5404635315535218e-07
20,2020-04-03,Simple + Baseline,-1.4802138594238643e-07,4.23742202085602e-07,0.10000048979220758,-5.858853103548674e-07,0.021690165315164364,3.542766076962619e-07,4.5317105976806116e-07,-3.9258422655338295e-07,-1.9368172064705261e-07,1.4194816322504723e-06,0.005902033312071238,0.099999569251494,3.0962767747964584e-07,1.5332753892276968e-06,7.367077004566095e-07,4.0880168279682673e-07,0.10000167477829645,0.10000105819404156,0.030138632653657935,-3.782674389724818e-08,-2.944341594118732e-07,9.921595881550853e-07,1.2376434258273785e-07,0.09999984999861884,4.832942498196877e-07,0.10000269868481744,-7.480440160141335e-07,2.9383534124574627e-06,-4.7251195505066563e-07,7.695107928297795e-07,6.966690768152302e-07,-6.981344352662202e-08,-1.2324294587634138e-06,-3.224078000876825e-07,3.235801029846639e-07,0.04224900543155426,7.030040365051528e-07,0.10000359911728622,1.5226761274071918e-06,-6.690856657823962e-07,0.10000175202063827,-2.5356883412537614e-07,8.324755364256046e-07,-4.19138735832817e-07,-8.727834589264305e-07,-4.238010554833002e-07,-7.590948052951128e-07,0.10000115507676254,4.7358934187793915e-07,6.946569831524306e-07
20,2020-04-06,Simple + Baseline,3.436038132632121e-07,1.5784204840842537e-06,0.0999977893924522,-6.395945629584833e-07,-1.833463569298704e-05,-5.378867881915984e-06,-6.035576206651558e-06,-6.930100963497007e-07,-2.5441217688538483e-06,-6.571826884777052e-07,-8.681645980163717e-06,0.09999734943115487,1.6995759367805192e-06,6.173163570406319e-07,1.5572892788592037e-06,-2.5315707281100344e-06,0.09998481606118774,0.09999514193858458,0.04862829695133829,-2.9604298854251744e-07,1.2736272379786743e-06,8.243724391600064e-08,-5.449590269904518e-06,0.10000060613067173,1.5254694681562581e-06,0.09999159576001007,-2.6345938270362796e-06,-9.27155134627612e-06,6.260758353890368e-07,-2.816437546473176e-06,1.2316782547759886e-06,1.69383337614673e-06,-1.6810245386158636e-06,-2.1401629820317413e-06,-3.7666174513482656e-06,0.05149649379786354,-1.1772686353731205e-06,0.09999336423427287,-1.0091660191443032e-05,-3.036378607058309e-06,0.099998706899713,-2.856316678369908e-06,1.0802966438085483e-06,-4.487099431137163e-06,3.7074211146419463e-07,-4.794991415095068e-06,3.128130977653979e-07,0.09999958954496505,1.8391018704216027e-06,4.6828837432999466e-07
20,2020-04-07,Simple + Baseline,1.1244711562893632e-07,1.3075870428909073e-07,1.22230772525043e-07,-3.2386638736735514e-08,-4.221905162683969e-06,-4.823035607013398e-07,-1.031988964650522e-06,1.4146284376945255e-07,-1.3797683593723672e-07,7.295876936152701e-08,0.10000034035078859,0.09999997697873453,9.298607009922488e-08,2.1523789920189764e-08,1.5238199457603918e-07,-1.9515991576409415e-07,0.09999627725197602,0.0999995924563768,0.06444079828350327,2.1478527688584245e-09,1.320403695164465e-07,1.6148443304600604e-07,-6.909606158206112e-07,0.10000010841261897,1.180246486054776e-07,0.08407697653116103,-1.668636311115094e-07,-2.0013680366826985e-06,1.1058831784352545e-07,-2.8204406745309305e-07,1.2182800467972974e-07,1.9712155400341376e-07,-2.8602908215334696e-08,-1.3734947966933725e-07,-5.382465636005305e-07,0.051498181995858906,-4.24677271609197e-09,0.09999861121137883,-1.9770905034401095e-06,-2.4468484212060683e-07,0.1000000273077451,-2.481821118598453e-07,1.8521527098728517e-07,-5.013852560003605e-07,9.98308469269325e-08,-4.238216112357019e-07,5.727093574560118e-08,0.10000022670951442,1.2080836812865842e-07,7.411451726708376e-08
20,2020-04-08,Simple + Baseline,2.491816240997352e-07,2.8354035995233957e-07,1.1699376614473185e-06,-3.849075386651169e-08,-5.30332686284331e-07,-5.373845532827716e-07,1.1920976550890698e-06,6.865686469629335e-07,-2.4710194043683626e-07,5.186815812495843e-07,0.0830955446071665,0.09999920005887523,5.675938939616038e-08,6.031685888864093e-07,2.963736130131247e-07,-3.4450357428242957e-07,0.10000044143818844,0.09999956455768196,0.0883175349840785,5.506573420068104e-07,-2.2753277697400234e-08,3.536364558583251e-07,-4.3301471475366047e-07,0.09999965256905904,1.590022046397961e-07,0.0764845574550417,-4.978024007854193e-07,1.3232678509471e-06,3.487160683525358e-08,-1.3671569225129777e-07,1.9440846714547074e-07,-1.7718230165065478e-07,-5.016244313643789e-07,-2.9599157608821535e-07,1.4991007207226972e-06,0.05209160399633124,1.452659260686234e-06,0.10000271315947555,-1.1308096352031883e-07,-2.842010921861511e-07,0.10000209902885901,-1.0001818696285884e-06,1.1170967954273048e-06,-4.268977246501851e-07,-5.76166540339472e-07,-6.347841140427141e-07,-4.64833373801852e-07,0.10000165615288291,2.3267955471415117e-07,6.981840449057335e-07
20,2020-04-09,Simple + Baseline,5.718437537844059e-08,-1.1846334003244706e-07,0.018477882245926495,6.0813677012686425e-09,6.88066398063182e-07,2.4192184274540037e-07,3.4795164585859185e-07,2.6233538387603084e-07,2.3248941234257686e-07,4.0171246630473346e-07,0.04516846929489415,0.10000048880880628,-5.488523107204791e-08,-3.0988975098483914e-08,1.0626343895316932e-07,1.7616884458688113e-07,0.10000099555323454,0.0999999387586702,0.09395918551295927,-3.392564798011853e-07,4.605623308582726e-08,5.510674745289953e-08,3.163565050705649e-07,0.10000011209166909,-3.498695519374381e-08,0.10000115173830908,1.9054441142001023e-07,7.43471224192902e-07,-9.965507573792516e-08,3.031110363539906e-08,-5.3534642116042846e-08,1.835384055097839e-07,1.8793857986483836e-07,-2.550626600068346e-07,5.46148366515408e-07,0.052095523997907726,-1.4575107082765084e-08,0.09028971043057529,7.831494416979419e-07,7.240593806347258e-08,0.1000008818171813,3.850385430226501e-07,4.388902013039171e-09,2.4328030082051083e-07,9.055151925203553e-08,-9.982264369592774e-08,2.594356969158211e-08,0.10000040229994583,-8.272038798718785e-09,-6.130666334096479e-08
20,2020-04-13,Simple + Baseline,-1.9379726120707903e-08,-7.194825596950031e-08,-2.189798839388659e-07,-1.1811957751097064e-07,2.847040671691684e-07,3.471702408118913e-08,1.591605747683118e-07,-1.0344932084985509e-07,-4.3825554147996675e-08,-4.9075205747734696e-08,0.0349238464552547,0.09999987542857897,-5.929260257144676e-08,-2.4495758216677052e-08,-5.894256278738966e-08,4.726786139590073e-08,0.10000028499182759,0.06225864521850374,0.09395704261285209,0.06882135794195295,-1.5423488798417554e-07,-4.416782354910961e-08,8.26377629650623e-09,0.09999991184228159,-4.440879774151992e-08,0.10000034618210964,-5.8092653393925214e-08,0.011818432526613876,-1.0554466391237575e-07,8.213148731287359e-08,-5.9129107827559426e-08,-1.3477049431807117e-07,-2.5051999604049544e-08,2.471392286157349e-09,-1.4618728138645198e-08,0.09999984641734182,-1.638943247519012e-07,0.02822190134240583,2.5958336096389857e-07,-3.6596440962559606e-08,0.09999985723085732,3.1293804157446933e-08,-1.1606983397210064e-07,-3.663036638633501e-08,-7.276953538635003e-08,4.193955002838233e-08,-3.517962886952563e-08,0.09999973265706502,-8.432981873178136e-08,-7.965278886064719e-08
20,2020-04-14,Simple + Baseline,-3.0680653975978937e-07,1.7554430963565403e-07,0.002262461712137402,3.258525594161725e-07,-1.3511157199045986e-06,-1.1119278902075303e-07,-7.237607992211719e-07,-3.5721875898076353e-07,-4.028634860446671e-07,-5.149613827593666e-07,0.09999873046970749,0.09999931843533702,1.1929583034598314e-08,7.339757454597466e-08,-3.558848790033832e-07,-2.6150625870028914e-07,0.09999789353267988,0.009468747537768121,0.0939646630895889,0.0943209001467845,3.891368816508894e-10,-1.5380146307163906e-07,-1.479500063667261e-07,0.09999975467881285,-2.770635768477983e-08,0.09999916452007988,-2.122598813839066e-07,-2.518844253999026e-07,7.107988971551957e-08,-3.152865592125593e-07,8.159264919812689e-08,-1.7257769177033336e-07,-6.902656276914478e-07,2.0347593064413965e-07,-2.8861418098666523e-07,0.09999893421454485,3.7031259325671286e-08,-1.0168196454659123e-06,-9.235123241297911e-07,-7.716157913479072e-08,0.09999889063517234,-3.3831953594196727e-07,1.0681381369102118e-07,-6.62856871739212e-07,-1.613515626698624e-07,-2.6576383920826324e-07,7.763137544557353e-09,0.09999940387182955,1.407640483394685e-07,9.105139648671811e-10
20,2020-04-15,Simple + Baseline,-2.5008798295337134e-07,7.600684731929305e-08,0.09999890397563879,-5.6810230558310926e-08,-2.0429488255054753e-06,-4.791597050753031e-07,-1.5319123111565725e-06,-4.3730272693856017e-07,-6.90429105519149e-07,-8.062333073240151e-07,0.0999976985324174,0.09999897658373492,1.982757261878068e-09,-1.4052048433084387e-07,-3.4718243370270224e-07,-6.726872220929605e-07,0.09999629181903903,-3.404708963088546e-07,3.6091683458603945e-05,0.09999991755633303,-4.325277634400638e-08,-4.768148069331938e-07,-2.0970054267830114e-07,0.09999958115497652,6.854046050296915e-08,0.0999984243319592,-3.7131390431830326e-07,-1.3545591909476496e-06,-3.281626071677701e-07,-5.990749053240357e-07,5.421068099454913e-08,-3.253191527065063e-07,-7.707583230132745e-07,-1.975075906851126e-08,-1.6941223211851688e-06,0.09999827425734903,-3.36418653281374e-07,-2.13565109918753e-06,-1.6806826171528363e-06,-4.134426490448801e-07,0.09999781548842072,-5.486099072972686e-07,-1.5869788374429628e-07,-1.2646102352723225e-06,-2.250194021738552e-07,-4.4398582666280613e-07,1.12185622858432e-07,0.0999989203115307,1.0467464025158477e-07,-1.014618549123067e-07
20,2020-04-16,Simple + Baseline,-4.681799050294871e-08,-9.907685192933297e-09,0.09765081482868261,-2.3823809622040592e-08,-5.735704265617863e-07,-8.827004916857908e-08,-4.3825581339629433e-07,-9.72181174172888e-08,-1.3287141987666895e-07,-1.5244373326225566e-07,0.09999943909270485,0.09999986863492473,-1.4370051648048949e-08,-2.4538586938869523e-08,-4.769297142470726e-08,-1.0679571079692959e-07,0.09999871386342295,-4.8931191950813225e-08,-2.0142990411253088e-08,0.07976167308715974,0.022596300450526328,-1.025779925636632e-07,-6.217727598674445e-08,0.09999997280204453,-6.272184909889313e-09,0.09999967296957249,-6.787130951440255e-08,-4.2390499458374497e-07,-5.25084417891874e-08,-1.2659456933875934e-07,-1.6932424797984408e-08,-6.297768213423043e-08,-1.2539463626786138e-07,-1.774518108650807e-08,-4.0552877452289414e-07,0.09999959897805172,-9.160783792706893e-08,-6.625502661231562e-07,-4.862914132523492e-07,-7.878697728663854e-08,0.09999941483824666,-1.2588831212728506e-07,-5.045917057871427e-08,-2.717715058750341e-07,-3.6763278230948495e-08,-7.933482068157802e-08,-7.387602497527676e-09,0.09999975823581009,-1.2115873634112897e-08,-2.8187347987935172e-08
20,2020-04-17,Simple + Baseline,-4.73331957043054e-07,-5.553237886421252e-07,0.09766084498866015,3.4631044721580384e-07,3.5625019185943746e-06,1.4669471853989869e-06,0.003968886487838015,5.152358499137792e-07,8.593426439102363e-07,3.577661463677601e-07,0.10000111734261902,0.10000050340504658,-2.501450419690492e-07,3.9737864086543873e-07,-1.9760560978091553e-07,9.106941460732407e-07,0.10000223084086342,1.0397237268119116e-06,8.064650476359104e-07,0.09999989760114689,0.059607178292120304,2.365107254920843e-07,2.292147321358658e-06,0.09999931683308404,-3.145083474889362e-07,0.10000297868359977,3.720413422880246e-07,4.134886883144041e-06,-2.2711902865832087e-07,7.693744604950684e-07,-4.5902583672127686e-07,-5.179443225361244e-07,-8.429187552132319e-07,2.732698173615905e-07,8.996685066899196e-07,0.09999958861905782,7.65362024861385e-07,1.3687265695608695e-06,2.0203556856662607e-06,5.720552437587397e-07,0.038736440372210544,7.269627105646477e-07,-2.4956823490236906e-07,3.064721302094161e-07,-7.777878027592422e-07,6.687448889170616e-07,-4.8061857762180794e-08,0.10000047608025094,-2.571699381462516e-07,2.5775337495752782e-08
20,2020-04-20,Simple + Baseline,-4.29890610472168e-08,-6.686353799798187e-08,0.1000002421269916,4.4893180767959895e-08,8.416699648357078e-08,3.190620813104839e-07,0.10000031127785669,2.95063542890561e-07,1.600108306104897e-07,1.276973718644479e-07,0.10000050429765367,0.10000035803343206,3.924485270216191e-08,0.03461513967884335,1.095698065028358e-07,9.268466013319884e-08,0.10000045576826407,1.305821795180097e-07,2.0534810127080598e-07,0.05994911404249002,1.2438327147108395e-07,5.9563957101148545e-08,3.4493510872266983e-07,0.10000003273707125,-2.877826473911726e-08,0.06670983433056082,2.3708379553329073e-07,7.131639284719953e-07,6.824029127822939e-08,5.253464662967515e-08,-5.030867000867718e-08,-1.0225164914297373e-07,-1.1203230765629282e-07,6.294344897940569e-08,3.207837105558282e-07,0.10000004014616033,3.4841497472691523e-07,2.1156400592456017e-07,1.5539562878175868e-07,8.817723006768816e-08,0.038718985811595406,3.122753367426681e-07,-2.6364220623800323e-09,3.0811894567414936e-07,-9.501584027784736e-08,2.021522466963477e-07,-6.555448010403394e-08,0.10000035998423895,-1.0733352343233351e-07,7.536246416160633e-08
20,2020-04-21,Simple + Baseline,-2.2521450772581022e-08,9.190778065527235e-09,0.09999960825367445,-1.4039164216887722e-07,-2.461141049412544e-07,-9.107471181283183e-08,0.09999947223136178,-3.996832208307835e-07,-3.193230589790006e-07,-2.0403035673194158e-07,0.09999942789832932,0.09999946860597665,-4.368776862592944e-08,0.0014569967381486428,-1.1947805951039612e-07,-7.87861050654276e-08,0.09999889197870475,0.03244015519818774,-1.9891633320584684e-07,0.0999999851710079,-2.4209750187441394e-07,-9.354216692727624e-08,-1.0361928849464568e-07,0.09999986595270999,7.140628516880223e-10,0.05537203577944764,-2.492500388376674e-07,-6.179387312251404e-07,-1.8840490408483487e-07,3.46030821860931e-08,1.8089662084571465e-08,-6.88228259191784e-08,-1.0168568027326087e-07,-1.2871896590557928e-08,-2.433338427639679e-07,0.09999955406629323,-5.123309463115816e-07,-4.7334395543989145e-07,-4.335572874614665e-07,-1.848035698678816e-07,0.010741537304046317,-1.2383943979648126e-07,-1.2486515459490618e-07,-4.3554303903155527e-07,-6.338795445473253e-08,-1.7963855051584817e-07,4.623997059348703e-08,0.09999932309817681,2.5469312446717634e-08,-1.3661779925625248e-07
20,2020-04-22,Simple + Baseline,-3.4620568760910277e-07,8.123964126487485e-08,0.0999969549279048,-8.465071319198918e-07,-1.4213720043788625e-06,-5.360586261964537e-07,0.09999570736768172,-2.929379115162517e-06,-2.228549980198122e-06,-2.814999014632791e-06,0.09999345659350876,0.09999572169789776,-2.789869002798024e-07,0.00029329867862129235,-1.3471649368834798e-06,2.257343157624476e-08,0.09998910853375531,0.09999973192127116,-1.014049091905285e-06,0.08906791820627671,-2.1089165349431156e-06,-1.1190488373141465e-06,5.293762773601571e-07,0.09999828515215924,-4.5276184287472166e-07,0.01073555138363071,-1.7928359975612263e-06,-1.7355095582844717e-06,-1.2009174053822602e-06,8.647124166148339e-07,-1.1628884073287761e-07,-1.5363007306424143e-06,-1.8682151541933315e-06,9.6543366686023e-07,-3.2042829030896465e-06,0.09999355960776195,-3.6593767017184175e-06,-2.9013032994454846e-06,-3.7340283039671223e-06,-6.07120317805463e-07,-5.297233842231302e-06,-7.222118465502807e-07,-1.2351003392005316e-06,-4.079476317679085e-06,-1.3320022424372916e-06,-8.739595549129911e-07,4.587241946732706e-07,0.09999315144374411,-4.1037995772696555e-07,-1.58160213351507e-06
20,2020-04-23,Simple + Baseline,-2.912594480931981e-06,3.8308934896627585e-07,0.04906669682184768,6.805947641631389e-07,-4.273560212741235e-06,-3.4095134057167685e-06,0.09999027569750032,-1.5204903956270243e-06,-4.673162079150639e-06,-5.780460636853886e-06,0.09998863266921934,0.09999324606581123,-1.2091059151373558e-07,0.01687886880981681,-4.060207809112955e-06,7.117416736732451e-07,0.09998282951559948,0.09512548946804818,9.236059647899733e-07,0.0764027213132157,0.024802539198787086,-2.4633341133929608e-06,3.106710814305527e-06,0.09999709607756689,-9.469198313337706e-07,0.03786174938847496,-1.292127928933741e-06,-3.419537766328882e-08,-1.56331953914124e-06,-1.2398865554704383e-06,1.685746197576435e-07,-2.0567212914668473e-06,-4.046574244470916e-06,1.058838840182286e-06,-2.636864358942354e-06,0.09998936601045526,-3.3583355026652634e-06,-5.559879058225547e-06,-3.7645134800020023e-06,-1.1446415874590463e-06,-8.987425518482094e-06,6.09120112417177e-08,-1.2930107637613879e-06,-5.26458743524604e-06,-2.0329106294016143e-06,-3.5858724689192934e-10,1.2944574052447817e-06,0.09999097132039148,-7.766769724902444e-07,-3.6009187214345962e-06
20,2020-04-24,Simple + Baseline,-4.6959481842561777e-07,2.5057343106548954e-08,0.049063470650110644,-2.1730800475977872e-07,-1.4812594100096533e-06,-8.969835559878796e-07,0.09999684163280029,-4.4728126617279886e-07,-1.2700013920079414e-06,-1.4458297685409317e-06,0.09999648027294852,0.09999866832062251,5.46440286738789e-08,-1.5946631144590075e-07,-5.308948708495131e-07,2.5699362187054354e-07,0.09999249438385466,0.06350859046225903,-2.1711833635750063e-07,0.09060618542406955,0.030698893984552,-5.393779214916177e-07,5.151829885585659e-07,0.09999979337689927,-5.769519046426082e-09,0.06616599429862513,-3.9893336229295863e-07,-5.800849048571069e-07,-3.4962431062612304e-07,-1.9978421443969604e-07,1.0886184059088009e-07,-3.2252458958024756e-07,-7.862980334632781e-07,1.1418428989049228e-07,-1.293277395743825e-06,0.09999682751514573,-1.1638157461562034e-06,-2.1543461688572186e-06,-1.353159721805524e-06,-4.973831617696062e-07,-2.861664593456118e-06,9.472537429031156e-09,-4.0479927239595707e-07,-1.5438812488036866e-06,-3.436474978469464e-07,-2.2292096564844015e-09,1.6210619190048153e-07,0.09999734677709056,-1.1468341329371561e-07,-7.760851011451352e-07
20,2020-04-27,Simple + Baseline,-6.399828067348422e-08,-2.083220318464685e-08,0.04169293785890415,-6.959945847559474e-08,-4.839301034334076e-07,-2.298074250346483e-07,0.09999919756058623,-1.1322142786607293e-07,-2.6694880446613334e-07,-2.981203858099991e-07,0.09999909705218055,0.09999979094139438,-1.6150217025983605e-08,0.0017494576114358478,-9.387826863704027e-08,-1.6885752219710738e-08,0.09999708576502393,0.06350510369315852,-6.505940480357989e-08,0.0999999383148397,0.028119999308450275,-1.3810326509912158e-07,-1.5015975161921745e-08,0.09999993676501602,-1.933209380699367e-08,0.06494488503913082,-8.549660073548954e-08,-2.2204152869312045e-07,-7.517868574697707e-08,-6.732327897382724e-08,-1.2008755616342133e-08,-7.054333038065852e-08,-1.4615006946629538e-07,-8.284108039254359e-10,-3.3218258867771097e-07,0.09999922099091721,-2.79230832731862e-07,-7.383747983246642e-07,-4.3106666211742415e-07,-1.0728704975981459e-07,-8.029231474875987e-07,5.251568562659067e-09,-9.33356114947703e-08,-4.056546006361263e-07,-5.733555871850604e-08,-3.4906155126678854e-08,1.2431117097664343e-08,0.09999935321042884,-2.2259792751829172e-08,-1.260940637931833e-07
20,2020-04-28,Simple + Baseline,-1.1634493752332523e-06,3.2120603426152837e-07,0.033758599840629795,-8.732652614696014e-07,-8.436047114809582e-06,-2.1900101717589614e-06,0.09999347832540904,-1.0917139048721626e-06,-2.8246298476249604e-06,-7.902423493799573e-07,-1.7134086041167475e-06,0.09999648245372163,1.1634651251575053e-06,0.010284319570106148,-2.9537249904277034e-07,-1.8248823236450597e-06,0.09998708565100659,0.060435754693861664,-7.263606312123995e-07,0.09999898512490646,0.07228410807711101,8.353564660489397e-09,-2.0835498271910445e-06,0.09999956643304936,1.3977434056014173e-06,0.09999350965012657,-3.8672784574376914e-07,-6.949646122784937e-06,-1.775955421545506e-06,-2.6042188903010094e-06,1.2466592807324414e-06,1.6890639134924291e-07,-1.0882504514425425e-06,-1.099225348290554e-06,-9.494763810814486e-07,0.09999929321448106,-1.9754871391857298e-06,-8.574949134152176e-06,-7.6244017868294135e-06,-3.3913261177430434e-06,0.023327833387660656,-1.2312319643317062e-06,2.978868290982095e-07,-1.7057025401336998e-06,6.578320985754024e-07,-1.8873040269570379e-06,6.599978498240516e-07,0.0999985118408648,1.7945950928636726e-06,5.870492614633889e-08
20,2020-04-29,Simple + Baseline,-5.816692399067443e-07,7.880071961312723e-08,0.03375371021472333,-4.203887239172282e-07,-3.6565608601368748e-06,-1.0480166716429943e-06,0.09999644371064106,-6.448757900265578e-07,-1.6201846992042798e-06,-1.4946477172576952e-06,-2.120666181548402e-06,0.09999820699569459,3.7566315590932955e-07,0.009909651651668202,-3.737391578499021e-07,-2.4674580939024306e-07,0.0999919957538376,0.06590753266539047,-4.493432542988859e-07,0.09999989519805534,0.07692954312604208,-3.5804316079361494e-07,-1.4991609293672833e-07,0.09999951927416247,2.42925132780688e-07,0.09023020108972062,-6.606836603044654e-07,-2.6829224092671237e-06,-5.566286873611431e-07,-4.590444976898168e-07,3.7020068054473075e-07,-2.3064541191312327e-07,-8.729452203545951e-07,4.1487259692118244e-08,-1.2915947470746178e-06,0.09999764204906844,-1.2363353493754083e-06,-3.604776226748133e-06,-3.4723692582669527e-06,-1.2427728083933272e-06,0.023320218427811085,-4.408396059384603e-07,-2.831182590875135e-07,-1.7243104850495603e-06,-3.826516828829989e-07,-4.9791822660242e-07,1.3002724630475917e-07,0.09999782454225091,1.1366800753177143e-07,-9.158203288994079e-07
20,2020-04-30,Simple + Baseline,-1.1338925967264158e-06,1.9211596794553572e-07,-1.784148215222109e-06,-5.774881664777926e-07,-3.589445882598267e-06,-2.333683407808336e-06,0.09999462510737717,-1.304676917622084e-06,-2.8946014606485714e-06,-2.96394832420494e-06,-4.5668377655011756e-06,0.0999969372210717,4.729531289339156e-07,0.022131257663933725,-8.650263839957626e-07,-2.4770798270933765e-07,0.09998895375865641,0.06266176061785379,-8.32947969304882e-07,0.08387804439219516,0.07337210340647556,-9.679401868849207e-07,3.579860841958841e-07,0.0999988887828148,2.6659586126200014e-07,0.05804418255413254,-1.1465713205498719e-06,-2.73229792210013e-06,-8.849634663013019e-07,-1.7043993026607266e-07,4.6886334427743583e-07,-6.654007168497419e-07,-1.3999053687322802e-06,1.218100455117264e-07,-2.5838702037859927e-06,0.09999479719401806,-2.625594031700856e-06,-2.8092085961771713e-06,-4.027309241654964e-06,-2.074583740072098e-06,0.09999453046948713,-5.742125315031713e-07,-7.238386081675117e-07,-2.9937643104388282e-06,-6.940760558125377e-07,-8.928914738294791e-07,2.637760417364271e-07,0.09999482504203014,-5.747275728431176e-08,-1.8937865694739754e-06
20,2020-05-01,Simple + Baseline,-1.2589629030030044e-07,-3.943404214707872e-08,-3.845550106559262e-07,-1.1026821762715566e-07,-1.2941112156303729e-06,-7.289249721780408e-07,0.09999862028045894,-3.149515315618171e-07,-6.017007102821195e-07,-6.834816756059093e-07,-1.1759394076014387e-06,0.09999961620704012,-9.575926387718031e-08,-1.083855131903803e-08,-1.7038702423429467e-07,-1.556893214595323e-07,0.09999554446227149,0.0626476126902758,-1.1391853103704503e-07,0.08918140320436212,4.222406494016697e-08,-3.5935723599510266e-07,3.0230787720701195e-08,0.09999979767801419,-1.201417295326665e-07,0.04678047937755613,-3.3204256470200813e-07,0.01851272794024982,-8.892230550828528e-08,-1.5774862778748e-07,-5.362629101972779e-08,-1.6135106061716576e-07,-2.1603294006680303e-07,1.107563871405687e-08,0.08290129447041174,0.09999857475334424,-6.315740499072095e-07,-8.917711378958153e-07,-1.4321781372700405e-06,-3.5536397981105105e-07,0.09999834995242801,-1.6499193907177378e-07,-1.8297738622771187e-07,-7.770881525262264e-07,-1.7519892492192802e-07,-2.639538822616339e-07,-1.8626227015202283e-08,0.09999862560875927,-4.663917329417657e-08,-2.942104281532122e-07
20,2020-05-04,Simple + Baseline,-2.9036079687414e-08,-2.4439659635600914e-08,-5.496073708139695e-08,-2.5167573035417548e-08,-3.746257751489818e-07,-1.3075584394650143e-07,0.09999971197285974,-5.594591824102059e-08,-9.863569686940589e-08,-1.4204238032248786e-07,-2.500362961321591e-07,0.09999998546756404,-7.145076401350056e-09,0.0021081608074271932,-9.089874223956938e-09,-3.769553681323505e-08,0.09999825048760644,0.06264726816306586,-1.9758189370462987e-08,0.09019527342158358,1.0897482105318534e-08,-8.6814085212351e-08,-1.8720254621664916e-08,0.09999999998187253,-2.00307004789037e-08,2.6678612315056544e-08,-5.077966502756896e-08,0.045055252399413326,-4.306857468297504e-09,-6.316834903254312e-08,-3.409486436447176e-08,-2.4015349044341214e-08,-4.938324505862036e-08,-1.6347756241457575e-08,0.09999996100529113,0.09999965367598854,-1.530164504046726e-07,-2.947000246434828e-07,-4.188426099356075e-07,-6.994315107559682e-08,0.09999959856192506,-5.3153787941930934e-08,5.809925611995439e-08,-1.6388759844684163e-07,-1.8028344080644354e-08,-3.161347177160584e-08,6.388352999880212e-10,0.09999967799815648,-1.1094517476949396e-08,-4.915522384289754e-08
20,2020-05-05,Simple + Baseline,-4.0881058008211635e-09,-6.7418332988291654e-09,0.040181226164376305,-4.313466794400224e-09,-1.1153743468970417e-07,-2.236958782202839e-08,0.09999995255269174,-1.81868875841448e-08,-1.1083775193608506e-08,-1.7623719154712873e-08,-5.007624606905143e-08,0.10000001018769322,-5.452601565322234e-09,0.00014156385505819093,2.0513202386481294e-09,-2.4814122867434665e-09,0.09999929660903883,0.06264731160358857,5.79184192875486e-09,0.0901953123190366,3.301132924055471e-09,-1.6941467900487032e-08,-9.964365965592177e-09,0.1000000069772872,-3.903607592487373e-09,1.0572838916747709e-08,-1.7023653153659283e-08,0.006836232522054977,-1.5678471253946535e-09,-2.390044999390926e-08,-5.6261725686729586e-09,1.738411742581025e-09,-2.4564151178623666e-09,-8.040294719007513e-09,0.10000000515648969,0.09999992321298179,-3.3821685939730326e-08,-9.200915777076975e-08,-1.2491012028111754e-07,-2.3064603159760037e-08,0.09999990069337078,-1.8728712302273818e-08,7.403853193157182e-09,-5.5564446026820594e-08,1.044656902649578e-09,-1.4975963868553148e-09,-6.652258318464243e-10,0.09999992811751528,-2.0129849292574222e-09,-6.1107116172167354e-09
20,2020-05-06,Simple + Baseline,7.815182311607377e-08,5.25267549050903e-08,0.02134369291168052,7.855281548874894e-08,1.9481466297520968e-07,1.1703089892769307e-07,0.10000017467107045,1.352070471759379e-07,1.3456459989195017e-07,1.520279989664915e-07,1.69429034533495e-07,0.10000010274696945,5.365320543856158e-08,3.009312022385254e-07,8.395903692721208e-08,1.0746340284725016e-07,0.10000007933762284,0.05517025776527564,5.6561365682800114e-08,0.07318933420109526,6.645030152486968e-08,1.2433013266167856e-07,1.1601169281466672e-07,0.10000004813600853,3.9412236611306734e-08,1.358301595663742e-07,9.498544255514769e-08,0.040172299475484216,8.88485869684678e-08,1.289159800901831e-07,5.8678358252114724e-08,1.1386414104095132e-07,1.2827655080232656e-07,5.5643189908630634e-08,0.10000020649251566,0.10000018642052394,1.549261711573815e-07,2.2418036252230161e-07,2.0349094916285874e-07,1.1243847923692085e-07,0.10000019060214829,1.4006650101721687e-07,1.2693412542732687e-07,1.5824179619810343e-07,0.010118935975802261,1.1918598308979475e-07,5.488915222144512e-08,0.10000018783582389,5.1551528163117964e-08,8.926094411500877e-08
20,2020-05-07,Simple + Baseline,-4.093248127298541e-07,-2.4877951180239495e-07,0.05651182213897396,-1.6273003830920115e-07,-2.8238241083560316e-07,-7.363665958170783e-09,0.09999913963105078,-3.180686704325314e-07,-4.181767594947204e-07,-7.455885644490083e-07,-8.310156386914825e-07,0.09999929309786879,-1.1620116005411771e-07,8.555223866658576e-08,-4.46497227295175e-07,-2.8617709312538965e-07,0.09999781328355098,0.04200771102250232,7.011633663346457e-08,0.07793870989792517,-2.982242353868404e-07,-4.1588834903282136e-07,1.3006739531742398e-07,0.09999951015429089,-2.0018865336079644e-07,8.818427567112006e-09,-2.690307992701278e-07,0.013449895052987786,-4.2490653488587744e-07,-2.3008266833044883e-07,-1.837129109367687e-07,-6.946699756038152e-07,-7.343142637149804e-07,3.3631541023357703e-09,0.0999995854819154,0.09999843651794482,-2.388113679632276e-07,-5.983107665142695e-07,-5.180531383726536e-07,-2.3287272017513747e-07,0.09999843630338094,-2.235486887918187e-07,-3.931721917179242e-07,-6.059576422673029e-07,0.010112467633543096,-5.119421276382355e-07,-2.265324512924358e-07,0.09999875488474422,-1.7248461563274034e-07,-4.2298647077707137e-07
20,2020-05-08,Simple + Baseline,-2.7548605692866514e-07,8.3665098281427e-08,0.04658232572298736,-6.17741804173267e-08,-2.292545109430418e-06,-7.108576695897049e-07,0.09999845996923987,-3.7371036287715563e-07,-5.366461089120517e-07,-8.824581847799355e-07,-1.7525626559694744e-06,0.0999992553219199,6.790251380422387e-08,1.0142338038748864e-07,-4.066297060925376e-07,-5.340780086749539e-07,0.09999473709870034,0.03338739150563057,1.963337457066008e-07,0.08715410436360098,-5.077434970557917e-08,-5.051764782013703e-07,-4.369511864054944e-07,0.09999981474021666,-7.300205336749771e-08,-1.3439110788510338e-06,-1.4259306610758323e-07,0.013444609989068077,-2.3394911574145415e-07,-6.358137747462964e-07,-3.8338926883731907e-08,-5.225310638572481e-07,-6.339373447712004e-07,1.4953706395991466e-09,0.09999923622389376,0.0999982635548023,-5.979226463118188e-07,-2.109229913723226e-06,-1.5793634237063554e-06,-4.195392924239691e-07,0.09999835317807522,-3.974180644438915e-07,-3.3127581560651783e-07,-7.842914603254417e-07,0.019464009677661678,-5.172004545872536e-07,1.4223058435130503e-07,0.09999827512193618,5.6311260925097705e-08,-2.863496749232479e-07
20,2020-05-11,Simple + Baseline,-2.4671172291932243e-08,1.3622589310419632e-08,0.029159672595529332,-7.165122288947681e-09,-6.827566728453689e-07,-1.1946647477396457e-07,0.09999961219049175,-6.030609046259326e-08,-9.919847488784723e-08,-1.684427133385059e-07,-4.157483939713505e-07,0.09999991065041039,1.8095656596423372e-08,1.4242836921177485e-08,-4.1148999357383235e-08,-7.880433356616119e-08,0.09999776586734206,0.035578366035364184,2.191145515921777e-08,0.08407110422138271,1.4772033106168074e-09,-8.193908813627163e-08,-7.401575916199915e-08,0.09999998845070777,3.87027408499338e-09,-2.6712870100766833e-07,-1.6171313358807293e-08,0.01344458802636133,-2.9057696093630566e-08,-1.0877485998248795e-07,5.185301690118311e-09,-7.642415926855188e-08,-1.0686789761635625e-07,4.7567233672183215e-09,0.09999979885958753,0.09999953713719656,-1.0777394500032714e-07,-6.924318109874764e-07,-5.031114087390081e-07,-6.665968927539456e-08,0.09373618502307317,-6.945695590081698e-08,-4.955798792653882e-08,-1.7700247960261386e-07,0.044018038862441974,-8.200970177922565e-08,1.8551023819781756e-08,0.09999955138381,1.6346731831954514e-08,-3.118859997465467e-08
20,2020-05-12,Simple + Baseline,-9.025328602694258e-07,4.079357510933636e-07,0.01607446491008432,1.0813036469551273e-06,-3.4902369830200747e-06,-1.0336549498073623e-06,0.09999721980231861,-9.483063903146551e-07,-6.565668093948002e-07,-2.5864111153111716e-06,-6.2899292429510525e-06,0.09999810372051346,-2.8525331320237035e-07,2.829052432918887e-07,-1.5760542056849518e-06,-3.952066959750881e-07,0.09998807264246909,0.028371056732661375,1.5587368327775415e-06,0.07618076752421696,-4.597415970225449e-07,-1.6617842577528995e-06,7.481761125172936e-07,0.09999912688518937,-9.439890210185932e-07,-1.7163943967618858e-06,-1.835127178936724e-07,0.021891887263633305,1.8505743152204585e-07,-1.2244839473074365e-06,-2.9122645705352915e-07,-1.6968890528030017e-06,-2.01255026287599e-06,1.053732714256652e-06,0.09999865106384831,0.09999379692537312,-1.4435629344021143e-06,-3.2428048367145687e-06,-3.162787532137415e-06,4.1304272286646e-07,0.09371973109237844,-5.663969743551137e-07,-4.924761938672662e-07,-1.9216285247256634e-06,0.06382696043687844,-9.057876728298754e-07,5.475315625270759e-07,0.09999534844539834,-4.47401113044142e-07,-8.89240151327521e-07
20,2020-05-13,Simple + Baseline,-1.382338898185768e-07,5.500560896400544e-09,0.016075769490371473,1.9141133188851943e-07,-7.450871465678374e-07,-3.3490888510036445e-08,0.09999966376182493,-1.3025386602689508e-07,-4.60488226906171e-08,-3.70480680630782e-07,-1.2005992730624602e-06,0.10000001378191802,-4.836403979411836e-08,7.608348293960116e-08,-1.6155969416280074e-07,-2.653191484993015e-09,0.09999578715883507,0.03624734958871258,2.2849394420158893e-07,0.06530383738870961,3.300990540765557e-08,-2.500872706634006e-07,1.1489080105163627e-07,0.10000000954601375,-7.239231472628199e-08,-7.552713167702288e-08,-2.235739931495538e-09,0.021893322979365432,4.80920686777048e-08,-2.2883869827686812e-07,-5.803413929356337e-08,-1.992863114964337e-07,-2.4600752060716435e-07,4.635330615038606e-08,0.10000000282252036,0.09999884167841805,-1.3778630900468872e-07,-7.536063354154166e-07,-6.296944850026708e-07,9.670994761922151e-08,0.09372086093803472,-7.052678193508335e-08,-4.249642009560651e-08,-3.0578863332098875e-07,0.06677060516061029,-5.9204471026574123e-08,-2.7627351608343108e-09,0.09999924333359826,-8.570898687007795e-08,-5.754446701553681e-08
20,2020-05-14,Simple + Baseline,8.136849326106302e-07,5.8640157069502813e-08,-1.9871267231722044e-06,7.799304389682846e-07,-9.772032518482695e-08,-1.0433491443575978e-06,0.09999718584979043,-1.7983581742695736e-06,8.667021949945428e-09,-2.3301814822991427e-07,-3.825379819721216e-06,0.09999879611328231,-1.2414084547438557e-06,-3.74876045451868e-07,-1.7648307759512355e-06,2.6226948033654064e-07,0.09999188152824565,0.024463746745741415,-8.31806837049369e-07,0.05987507794266756,-1.4765601363517685e-06,-2.796866625798821e-06,-2.5829785050408277e-07,0.09999877239260219,-1.799159511024461e-06,2.6749202933427458e-06,-8.545598519188615e-07,0.08007744831568812,-3.036311922466306e-07,2.6509672414491404e-07,-7.468629004386682e-08,-1.6536692010038027e-06,-9.54901417820827e-07,-2.4262172593158123e-07,0.09999760379871375,0.09999457242343947,-2.199593582810152e-06,-1.1156512816798597e-06,-2.633906125000138e-06,5.341945547463302e-08,0.07538056976935581,-1.4154602747546478e-06,-7.883811456486058e-07,-4.443341436041257e-07,0.06025841267175674,-8.620565939475832e-07,6.735054870793373e-07,0.09999565192645216,-1.2812988492381762e-06,-9.49631529404003e-07
20,2020-05-15,Simple + Baseline,8.578136174578566e-08,3.630274866152874e-07,-1.2892246597156298e-06,5.004509845851311e-07,-1.123471599065967e-06,-9.218972766763292e-07,0.09999863826905282,-4.838433178342528e-07,-1.1108008303261975e-07,-2.350116443704004e-07,-2.2410157074980034e-06,0.099999908636448,-1.3692233087496537e-08,-8.042865757746725e-08,3.746518265915866e-08,-3.6123665003300786e-07,0.0999946049235321,0.027269053233077017,5.509802765928002e-07,0.059357857080889205,-4.1301429634365925e-08,-6.961003525302642e-07,-2.8984798430069994e-07,0.10000019587302664,-1.5208196844403298e-07,-8.473319722881054e-07,-4.548045207638422e-07,0.06887861145086345,3.552389757990485e-07,-6.935701650085821e-08,1.9948392866638275e-07,-2.0358857668507253e-07,0.021028968238804343,1.1275111576558129e-07,0.09999879767498784,0.09999746045932699,-6.322638688094576e-07,-9.366376078045706e-07,-1.9488718977205367e-06,-1.2278382809668307e-07,0.06323076963900733,-6.357993197074451e-07,-1.633217453733925e-07,-3.853679798370978e-08,0.06025897638533255,-4.6561808231564777e-07,2.5151264651708775e-07,0.09999815325515667,1.0096103166415695e-07,1.869644324609816e-08
20,2020-05-18,Simple + Baseline,-3.081411310835253e-08,-1.6813993802666866e-08,-3.554789313956979e-07,8.684648099859711e-08,-4.586507131436282e-07,-2.66123684489112e-07,0.099999517449737,-2.2483480618268293e-07,-5.138184214743633e-08,-1.5623172597247834e-07,-8.403000558178674e-07,0.09999994398700474,-7.09951450960417e-08,-6.368375347629108e-08,-1.1886053360076006e-07,-7.388606253919258e-08,0.09999726321699313,0.03416720888100171,0.00787015991335428,0.058356741581595775,-8.587282163502792e-08,-2.588264151745595e-07,-4.913368095658168e-08,0.09999993966371423,-9.785377461914972e-08,-1.8415646839800173e-07,-6.804304645584214e-08,0.040212241877262044,-1.7883138362926245e-08,-6.025359603953941e-08,-5.003339082333655e-08,-1.2868883126409287e-07,0.02102822275501941,4.6416105974238576e-08,0.09999948892281332,0.09999897094850535,-2.6481028937207017e-07,-4.3924623375177087e-07,-7.698137546678241e-07,-2.242835424753087e-08,0.06323007124154849,-1.9610923011503948e-07,-1.0965016937779939e-07,-5.8084218644715855e-08,0.07514673385835711,-1.1804833020560674e-07,2.997318186593012e-08,0.09999919559855726,-6.416748083931154e-08,-8.995144743596814e-08
20,2020-05-19,Simple + Baseline,-1.0461752958944067e-08,1.900787826223852e-08,0.09066452667967735,3.10338464661428e-08,-1.644061120802909e-07,-6.36454381448148e-08,0.07889936624345728,-5.046645361402809e-08,-1.7056980518963e-08,-3.559386750698357e-08,-2.362781945365611e-07,0.09596375586072262,-8.018412172311348e-09,4.514889056541031e-09,-1.7341993014685445e-08,-1.1242037054341246e-08,0.09999876031261937,0.027388355272110365,2.0973665512188044e-08,0.06390527775179396,1.6806114537657533e-08,-5.6821915928052536e-08,-2.5845113039581344e-08,0.1000000208318389,-7.44440612554689e-09,-8.401544805462514e-08,-2.5161012384244132e-08,0.003875168483575864,1.492193956902655e-08,-2.2489665777217855e-08,1.8166575351427276e-09,-1.0148593049669238e-08,0.03751381997862215,8.568518746668016e-09,0.0844345288635944,0.09999972192252604,-5.8278952636436906e-08,-1.6216175422493841e-07,-2.8199225420194173e-07,-4.4888895895181266e-10,0.01735826477730759,-5.405076229140519e-08,-1.2764080796247466e-08,-2.2788264220332834e-08,0.10000000553992106,-4.529221485167e-08,5.505422479820743e-09,0.09999981111485223,-1.3947826538388085e-08,-8.499463960343343e-09
20,2020-05-20,Simple + Baseline,-1.88304451117144e-07,5.921908405724939e-08,0.054331376035517645,-1.6034448593654936e-07,-3.264666061718804e-06,-1.2912380195413137e-06,0.09999802834754178,-2.4205265809484517e-07,-1.0882329657372633e-06,-1.7612415196704737e-06,-2.783788369252453e-06,0.09594620846206077,1.0512987483791883e-08,3.45514469906396e-07,-5.418464239380224e-07,-8.746377536069425e-07,0.09999258706936491,0.025330552741515994,0.02318450024373824,0.05991424777644683,-5.3470305023296446e-08,-7.327502717304214e-07,-6.180782829168146e-07,0.0999994542631206,-3.055314436284226e-08,-1.2450879896945409e-06,-1.4634687619141624e-07,0.0038676926270371143,-2.7852475855325665e-07,-9.644197436405485e-07,-1.386458041894251e-07,-5.194067301442477e-07,0.0581807086545047,2.1731875318418482e-07,0.08443276860986437,0.09999674154225867,-8.097330547016498e-07,-2.56965892904387e-06,-2.2264993892982615e-06,-5.293624620790151e-07,0.01735126903795012,-7.469042395781588e-07,-4.420510214759731e-07,-1.2197249044018014e-06,0.0775018140660011,-3.3847239056671256e-07,2.4830469178170833e-07,0.09999740391218315,1.867682555529526e-07,-5.866551626960566e-07
20,2020-05-21,Simple + Baseline,-2.172841770684008e-08,1.056434574150869e-09,0.054331125501674606,-5.963346257029753e-08,-1.224712881712237e-06,-4.4525208362560914e-07,0.0999993996198037,-1.467427251519413e-07,-3.8811945400581476e-07,-5.24793564804427e-07,-9.53173023327922e-07,0.09594312343477432,-2.9705089826706978e-08,7.875985968835144e-08,-1.699736856712043e-07,-2.4173073413232687e-07,0.09999620786374547,0.020924848049673914,0.026926147728260567,0.05734343058495815,-6.44500814325152e-08,-1.9641749583800696e-07,-1.7520361182417177e-07,0.09999985596177739,-2.4529657158208528e-08,-3.0528448120688393e-07,-1.2816903811887875e-08,-2.443451050768253e-07,-7.164646023808585e-08,-2.7805633145190703e-07,-1.9378705999741132e-08,-1.322492208395001e-07,0.05818023496971895,7.364534593851402e-08,0.05687570600764644,0.09999876336547352,-2.392724855097238e-07,-1.0002750680105993e-06,-9.193506759127075e-07,-1.532523464947328e-07,0.09999975280709247,-2.9831527649072886e-07,-1.0849658001596855e-07,-3.803095736265256e-07,0.029491243644147177,-7.782980810057704e-08,3.5289581937114255e-08,0.09999898279888982,4.851845056992841e-08,-1.496482607461329e-07
20,2020-05-22,Simple + Baseline,-1.2516087560519686e-08,-3.3656243523182782e-09,0.06845395361134399,-4.5171179743020725e-08,-6.925581004185323e-07,-4.773544951303223e-07,0.09999965456668534,-6.312323335462421e-08,-1.647206835155126e-07,-2.352677626345435e-07,-4.3082161675836287e-07,0.09810757424101006,-5.2888875780090194e-08,4.359685202156042e-08,-9.824596075010689e-08,-1.8205773423536805e-07,0.09999799866032855,0.020914307409459237,0.035946382158659154,0.054767495835459076,8.481226085299345e-08,-2.3272200285211598e-07,-1.0916739243241551e-07,0.09999987162251313,-1.0965741135009338e-07,-1.6842909178466752e-07,-1.6326559225933206e-07,-2.0414295322953536e-07,2.198467753747952e-08,-1.723464356752274e-07,-8.025012193847305e-08,-8.588514693764214e-08,0.06494365842765634,-2.416110892651104e-10,0.056875822140105156,0.09999949374311005,-1.8174727926063865e-07,-4.2210130022999566e-07,-6.242411703253561e-07,-5.84425455710368e-08,0.09999978825306596,-8.738443706380614e-08,-7.573598839231881e-08,-1.9962209517396089e-07,-6.835426116335991e-08,-1.6246488547730648e-07,2.5054913720855624e-08,0.09999955954022757,-1.5296496403172374e-09,-6.801683038110642e-08
20,2020-05-26,Simple + Baseline,2.1113289092141576e-09,9.93394300349373e-08,0.07216969435482458,8.375283436970871e-08,-3.584688488536448e-07,-1.4153123023921453e-07,0.09999977520166675,2.7437814462966945e-08,-3.278529144728717e-08,-8.99677808004657e-08,-2.692725526766563e-07,0.09418315000610611,6.533507716293797e-08,2.2761453224062952e-08,1.954191988900849e-10,-4.3409881554109494e-08,0.09999871704986796,0.0254359804393263,0.03594722450156295,0.05758788909202056,1.0685237121518015e-07,-4.376347398257261e-08,-4.108862989811662e-08,0.10000008294590837,2.421458362809165e-08,-2.9553333386033536e-07,-4.337080888004164e-08,0.02319260577842684,8.235672195489965e-08,-4.023709244387965e-08,6.452503864356726e-08,2.9386917910378743e-08,0.04708527084493107,5.578070350909585e-08,0.04440158853631709,0.09999973612602475,-5.7318298008833395e-08,-2.7096808367350245e-07,-4.076462201976934e-07,2.549865397141819e-08,0.09999988901245936,-5.5859858488361e-08,4.621840107593675e-08,-9.971376916187579e-08,5.317484664938164e-08,-9.793487536716419e-08,7.50429284601546e-08,0.0999998746258623,3.893568537495619e-08,1.0015351092345707e-08
20,2020-05-27,Simple + Baseline,-4.1899986640606876e-08,-2.8928674331684512e-08,0.09999975550818066,0.032027504488447725,-3.368225189953523e-07,-2.779527396035859e-07,0.09999966223020812,-1.8070931737957367e-07,-8.828674851552637e-08,-2.453705043584215e-07,-4.7571337699066325e-07,0.07971137413826658,-8.5060843332279e-08,-8.385569677955915e-08,-1.6526746872518548e-07,-1.4753562311470688e-07,0.09999886217050007,0.02542837995193263,0.0011970872909961956,0.05962484696312127,-2.6938049951347852e-08,-2.9427437730783787e-07,-4.377660386067924e-08,0.09999985003242967,-1.5876219453312938e-07,-1.4528914348429444e-07,-2.0263930448408694e-07,0.05493574891662292,1.2355580450542059e-08,-8.914018366362442e-08,-9.177096548276897e-08,-1.6379375108760673e-07,0.047084225894752176,2.770026207280653e-08,-3.999179900336029e-07,0.09999928776415011,-2.182142941326901e-07,-2.479919001620408e-07,-5.392092418380668e-07,-1.0996863782945735e-08,0.09999973138705427,-6.85163105474555e-08,-1.1098141411548479e-07,-2.616101604345155e-07,-1.0220854709098081e-07,-2.56844130791037e-07,-1.2216459513808211e-08,0.09999939280160403,-5.4211641564200464e-08,-8.986282958422862e-08
20,2020-05-28,Simple + Baseline,-6.6637979538149754e-09,-3.3209884922422904e-09,0.09999996223397653,-2.1551098842702472e-08,-1.0303034067569785e-07,-6.13813071103323e-08,0.09999991276968603,-4.0400195619538814e-08,-2.019623481359963e-08,-5.8152475530401833e-08,-1.3095910475715826e-07,0.07512463071159046,-6.4729921536478585e-09,-5.403028477571977e-09,-2.6277169383002747e-08,-3.078817879778334e-08,0.0999994728686051,0.015117976275034889,-5.055722005220729e-09,0.06806927402525657,-3.1941846924630674e-09,-6.552858782544958e-08,-1.1270878011246324e-08,0.09999999550411207,-1.4821340329271973e-08,-3.718737896187838e-08,-3.2316003811808084e-08,0.07197004029104756,2.0609564693114355e-09,-1.7676350088901e-08,-8.17381775204293e-09,-3.035248602217845e-08,0.047084242553954166,5.867756934042391e-09,0.022636199496263058,0.09999978516961881,-5.225618856331083e-08,-8.81888577992652e-08,-1.8794917243513255e-07,1.9167680116520153e-10,0.09999994209498302,-2.380614391447781e-08,-2.3013915244304495e-08,-6.585426808323321e-08,-1.0422406779446077e-08,-4.958504012697209e-08,-1.51375978870311e-09,0.09999982511123298,-7.145837996656735e-09,-1.7298308441406365e-08
20,2020-05-29,Simple + Baseline,-7.638863931466523e-08,-1.5674632407864447e-07,0.09999983166121905,-2.041250461200465e-07,-4.6267842491456266e-07,-2.3297352345241083e-07,0.031024604090608688,-1.9181014816003293e-07,-4.1619104577798986e-07,-4.1987713820033877e-07,-3.389898911360753e-07,0.0751204246195631,-1.1719415353787791e-07,5.983663898210301e-08,-2.4812007789241506e-07,-2.550876960094385e-07,0.09999898669514348,0.006343716070837756,-1.4923661808292973e-07,0.06868550218129936,-1.9435961837812188e-07,-1.6350696244450598e-07,-2.098607297138502e-07,0.09999975202771408,-9.7314654640141e-08,8.832130973051627e-09,-9.732542930584586e-08,0.07196884077635987,-2.192801071020736e-07,-1.8786755311084034e-07,-1.7218512406570263e-07,-1.9843428074178847e-07,0.0798397536962725,-7.46071377248709e-09,0.06702720403941101,0.09999935782709483,-1.8061068804961883e-07,-3.122780872411418e-07,-3.4124999153833384e-07,-1.8932088878793185e-07,0.09999969133286027,-2.14646771244613e-07,-1.6990411250148535e-07,-3.2012741492597307e-07,-1.357569775137561e-07,-4.6776605735422485e-08,-8.789208917469309e-08,0.09999928962565613,-3.3359959692698375e-08,-1.7165298681952628e-07
20,2020-06-01,Simple + Baseline,-5.412418830863271e-09,-1.1185038622657123e-08,0.09999997637034308,-2.7302805922492717e-08,-1.250943287687674e-07,-4.118082923124686e-08,0.014141266217175773,-3.309946312946835e-08,-8.335798740519208e-08,-8.76145740402152e-08,-7.77339989318385e-08,0.05416131445309583,-4.615810260921494e-09,4.55812824483565e-09,-2.8403992971804293e-08,-3.5150016100620194e-08,0.0999995247927062,0.006343674847336411,-1.6858966787927903e-08,0.06868522276469566,-1.5014616897504377e-08,-2.6924587297665594e-08,-3.348511553826931e-08,0.09999999011049251,-1.1855352479250643e-09,1.8608807085487147e-09,-9.713813893374368e-09,0.0719688765604643,-2.994473442147651e-08,-2.9463057120222287e-08,-1.246934902471656e-08,-2.7231577900062715e-08,0.10000000499497798,3.743755971090092e-09,0.0847018257557411,0.09999981261054662,-3.616656905819565e-08,-1.1036387958959083e-07,-1.115409380976942e-07,-3.199867238555497e-08,0.09999994116930819,-4.277554971738837e-08,-2.5525718984682156e-08,-7.46390477717104e-08,-1.0078417834140747e-08,-3.8982658671446565e-09,-5.232199287779091e-09,0.09999979621708269,1.4644231078836193e-09,-2.3791095258299e-08
20,2020-06-02,Simple + Baseline,-2.344120763724036e-08,-2.934973058832689e-08,0.09999991299636946,-6.79809861679353e-08,-6.264351808301233e-07,-4.229540436238101e-07,-2.928209699791067e-07,-1.0376920131960102e-07,-1.6488792646142685e-07,-1.7622346190597935e-07,-3.764366671340833e-07,0.05383770333185454,-4.757701305245042e-08,1.9123513004515943e-08,-1.4532276318937608e-07,-2.588164655127821e-07,0.09999913938208344,0.006332746207318723,0.008827937157526111,0.06810405806891677,4.2239344209859793e-08,-2.5586719001042374e-07,-1.9208582265679695e-07,0.09999984122243613,-1.352260364149095e-07,-1.702673611343162e-07,-1.5906363764444247e-07,0.07196814853083135,2.0394700334951872e-08,-1.712077179997481e-07,-9.485413555507703e-08,-1.0971370484187201e-07,0.09565456538516563,-1.3300311462173543e-08,0.09528280865455005,0.09999966878207664,-2.2880072165706408e-07,-2.0559610768876918e-07,-6.59757073822346e-07,-7.554810639595708e-08,0.09999978934674468,-5.231311306663163e-08,-1.0555902925676166e-07,-2.4171116275876364e-07,-4.8029745071276395e-08,-2.301682983113273e-07,2.675008868552661e-08,0.09999952373369173,2.3340260125384554e-09,-6.550313184744155e-08
20,2020-06-03,Simple + Baseline,-2.9441332255302796e-08,-4.1854039528094676e-08,0.09999983536623355,-5.148408740906372e-08,-4.791350309780681e-07,-4.6232276174743716e-07,-3.359736571280909e-07,-9.129238012873619e-08,-1.1716464546417334e-07,-2.0991386995991847e-07,-4.0694674950846836e-07,0.05289160679921392,-6.395079922444765e-08,-3.2694561896849805e-08,-1.3427674019475957e-07,-2.0597248558953228e-07,0.09999924329466782,0.006321309717418733,0.010438967701729952,0.06676636198522613,5.2098796156757e-08,-3.020017969388155e-07,-1.177472496021486e-07,0.09999983980382332,-1.7001018888636208e-07,-8.399933331342503e-08,-2.125055876751871e-07,0.09717951261848518,3.163855796475727e-08,-1.0587362870669685e-07,-1.08147077626655e-07,-1.3557725364442663e-07,0.06641022534997867,1.9447063557951623e-08,0.09999981109530492,0.09999959818563776,-2.360963352801248e-07,-1.0655357403709408e-07,-6.012749716629491e-07,-2.8677413224465056e-08,0.09999976505989265,-4.404470095531957e-08,-1.1185706484858878e-07,-2.2301821917034004e-07,-8.20766362405788e-08,-2.5172899364953016e-07,6.017539146637042e-09,0.09999957392792205,-6.14011292692383e-08,-1.1333740016530917e-07
20,2020-06-04,Simple + Baseline,-3.9259515107551605e-07,-6.71818305480606e-07,0.09999934757696424,-7.219025277050738e-07,-1.6231030396893047e-06,-9.66467962597408e-07,-4.853215256319417e-07,-6.962091514188105e-07,-1.4031046357208703e-06,-8.575688779787819e-07,-9.908172139793693e-07,0.052881470135141814,-4.1072659249419957e-07,-7.776365611777506e-08,-7.454185181380447e-07,-9.757831581269704e-07,0.09999715124737431,0.012957651388358566,0.010433391701736471,0.06473805823925653,-6.490050186669085e-07,-6.428649037262623e-07,-7.294827414582549e-07,0.09999916339706903,-3.1989154334917713e-07,-1.8559413038405516e-08,-3.33712902887679e-07,0.099998058573346,-9.335121983575389e-07,-7.506551572686998e-07,-6.449778774773707e-07,-8.153116677154587e-07,0.07888002852886435,-2.2407404922991406e-07,0.08014611640223042,0.09999842854834415,-7.240640830380484e-07,-1.4723773846353806e-06,-1.213034460788247e-06,-7.816142833105519e-07,0.09999908594763618,-6.751069346550382e-07,-8.13053139592954e-07,-9.148288634275982e-07,-3.311223173792349e-07,-2.710272884563486e-07,-3.568435044466637e-07,0.09999744047771222,-2.1653087698559186e-07,-5.333900341948085e-07
20,2020-06-05,Simple + Baseline,-7.093912061542475e-08,-8.217638978493776e-08,0.09999979924831612,-1.5328957881860204e-07,-4.410948815185338e-07,0.06235987159886888,-1.4641795849991912e-07,-1.649864093276616e-07,-3.6344166794732063e-07,-1.7375566791451624e-07,-1.7934575804605384e-07,0.03588395670719265,-2.9339480470431468e-08,-3.3971566254864507e-08,-1.5785018755410758e-07,-1.4829606824464466e-07,0.09999854167122087,0.011222563865873085,0.010433165257163994,0.0739880431834075,-8.446308236591753e-08,-1.3030786209758482e-07,-1.8826571084642312e-07,0.09999994111441139,-4.832797184051947e-08,2.02730600104169e-09,-6.571283064230655e-08,0.09232680272829503,-1.839117685490741e-07,-1.0228674445860323e-07,-8.972971650321359e-08,-1.9420261360609682e-07,0.05456444429112851,-5.7783586799658325e-08,0.05923007049915172,0.09999948762844235,-1.7005027483711142e-07,-5.066390731876984e-07,-4.1258539881262467e-07,-2.0489502833109047e-07,0.09999981922572086,-1.9165737202659044e-07,-1.810705152864092e-07,-2.2143946643160715e-07,-8.949248313738165e-08,-8.139836640315207e-08,-5.1602290765370297e-08,0.09999904363868828,-5.057797303151734e-08,-1.0114177571950393e-07
20,2020-06-08,Simple + Baseline,-1.7866290476063668e-07,-2.9690214481115365e-07,0.0999995982619587,-2.704464779720794e-07,-3.5009790079242807e-07,0.06235792521481436,-4.0749913545924597e-07,-2.751723737882291e-07,-6.317129971461266e-07,-6.211820893063483e-07,-8.981092376714576e-07,0.035876075519544776,-2.06602333827191e-07,0.007690742718507485,-3.884356953547197e-07,-2.54222872833391e-07,0.09999866136331347,0.01326098181983068,0.010431516963912575,0.08394768632556822,-3.485075364080857e-07,-3.7125656760677326e-07,-4.61267751930622e-08,0.09999952468739905,-2.0608437504206865e-07,3.9554017620471215e-07,-1.7135514255499764e-07,0.07523690189440743,-4.1657040465820565e-07,-1.374597970604997e-07,-2.527132207371028e-07,-4.238659885128333e-07,0.05198476223034676,8.13635848662453e-08,0.05922906618086019,0.09999900098362985,-3.8688274823475984e-07,-3.097526794855064e-07,-6.749079328542268e-07,-2.1115302262109653e-07,0.09999952149267759,-4.0669367194970634e-07,-3.819788785905358e-07,-4.7563103001900404e-07,-2.718670570145991e-07,-1.8754490156799135e-07,-1.961935518454982e-07,0.09999886975436136,-1.92262753345876e-07,-4.626273242490638e-07
20,2020-06-09,Simple + Baseline,-7.646336471538889e-07,-9.012277666173456e-07,0.09999802484089004,-9.389500534107906e-07,-1.9003274188496513e-06,0.007040482314090529,-1.618678228098408e-06,-1.0334056891014683e-06,-1.4825426703830658e-06,-1.2846113524283518e-06,-1.8132171804360262e-06,0.03783070536182704,-4.231671863368391e-07,0.007678964606352174,-5.661930633457179e-07,-1.244861015325954e-06,0.09999621841848672,0.02163965054685545,0.010422621691912931,0.08525935593317295,-9.239484015662561e-07,-1.153674955283636e-06,-1.3813284039537716e-06,0.09999969896764903,-3.1360014965701705e-07,-1.206899629911716e-06,-8.356813938669245e-07,0.07522896215888869,-1.1502726986248472e-06,-9.446578145551494e-07,-8.479010549476893e-07,-1.1926945938425617e-06,0.054956457972648996,-4.0885532646082024e-07,0.09999649455361277,0.0999973020437878,-1.6059862399636274e-06,-3.39969118453032e-06,-2.435965893200841e-06,-1.1261845258186228e-06,0.09999856705679556,-8.352572610203987e-07,-1.3471158769212017e-06,-1.4026228130402199e-06,-4.803843916542213e-07,-8.756130869615391e-07,-6.082067908294719e-07,0.09999634877652631,-4.90823773371733e-07,-8.948347888401492e-07
20,2020-06-10,Simple + Baseline,-2.3716313590856405e-07,-3.674810680065466e-07,0.09999887762055751,-2.6663063197248426e-07,-1.007395511963762e-06,0.004222758442144455,-1.346796871442216e-06,-6.565945487402969e-07,-6.415163557719677e-07,-9.880631692206741e-07,-1.5812872996048184e-06,0.03546671738062685,-2.286597266893948e-07,-2.975211461660267e-07,-4.859174779164413e-07,-6.619728316969906e-07,0.09999622554658519,0.02162095268405165,0.008317788685925842,0.06415471325266126,-4.262266520054289e-07,-1.0025105552696159e-06,-3.4702354120513494e-07,0.0999995535240936,-5.112589696455002e-07,-4.94215129431552e-07,-8.081445573277286e-07,0.0662562583728948,-2.7131296325918977e-07,-2.7523440074626926e-07,-4.3442623234038786e-07,-8.251539970807933e-07,0.09999905836144611,1.455783752263369e-07,0.0999976484647508,0.09999729723923763,-9.98775705225513e-07,-1.7454855079880175e-06,-2.210075704700701e-06,-2.7211049361253204e-07,0.0999986748027089,-3.843034531598422e-07,-6.091435250526716e-07,-1.166387339336063e-06,-5.58109453225772e-07,-7.16886859257815e-07,-2.6620903467936044e-07,0.09999734902181777,-2.707911411290617e-07,-6.488542715078354e-07
20,2020-06-11,Simple + Baseline,-6.101409128600684e-07,-1.1932217885952322e-06,0.09999672520537724,-1.5512371733566791e-06,-2.793887676384099e-06,-1.622113941909644e-06,0.013590831860452759,-2.3697096345900613e-06,-2.403152074252095e-06,-2.021202840075105e-06,-1.7861550889757198e-06,0.03903056842136411,-5.994062141361277e-07,-3.7572829430309946e-07,-1.6114944191888927e-06,-1.9104689396549604e-06,0.09999284312498878,0.02160837724183165,-1.5408071042795188e-06,0.05962309817685259,-1.3810160246266302e-06,-1.6605714157712675e-06,-2.2808975166664455e-06,0.0999990903731949,-1.1694225914015295e-06,-1.6165888489707664e-06,-1.9597375658210446e-06,0.0662459641714723,-1.5563613535740733e-06,-9.741360775720863e-07,-1.4290339979216303e-06,-1.9321824741647132e-06,0.09999078247407513,-7.540025742030818e-07,0.09999707810337295,0.09999616823934977,-1.9912836033974675e-06,-4.187833045484716e-06,-4.257850791483789e-06,-1.6632636044359674e-06,0.09999763126712445,-1.462202011182606e-06,-1.8631351807162364e-06,-2.780142830997606e-06,-1.1428919523208336e-06,-1.700356649499075e-06,-8.791054352388035e-07,0.09999350853668808,-7.541288629697785e-07,-8.490584676981723e-07
20,2020-06-12,Simple + Baseline,-1.4934129232855978e-07,-1.9854622981966382e-07,0.099999704769389,-3.2306117579211595e-07,-1.0764381954766787e-06,-3.8884260940410504e-07,0.013589520005175059,-6.907334259357848e-07,-7.527081191812859e-07,-6.027362734626359e-07,-6.377905873913811e-07,0.03902771636029199,-9.766229023744778e-08,-6.907274049337936e-08,-4.63117860275837e-07,-4.463985726731429e-07,0.09999615961017003,0.02159867052606845,0.04317852830011887,0.059609367207883554,0.03629399306386266,-5.097195856540583e-07,-4.539763324810085e-07,0.0999997008533863,-1.5828140429297257e-07,-3.5265602631745987e-07,-3.033554059372427e-07,0.003830877860889416,-3.881063028757359e-07,-3.9845358291276106e-07,-2.0970089435864605e-07,-4.86040291578393e-07,0.0999979900828309,-1.9627188324225456e-08,0.0828980751562155,0.09999895370917089,-5.882965574939202e-07,-1.8129344205596001e-06,-1.6624443159360852e-06,-4.107696567622026e-07,0.0999991748620956,-3.905221123301842e-07,-4.0000399140395436e-07,-9.047505151272725e-07,-1.3680949407397944e-07,-3.485992071344213e-07,-1.460257147725774e-07,0.09999792924651447,-8.957479418665463e-08,-2.918270406885351e-07
20,2020-06-15,Simple + Baseline,-1.0186140546910288e-07,-1.3105913297104515e-07,0.09999965379684399,0.007767990490132896,-2.1123408643686756e-07,1.9014745545888703e-07,0.030389834506963483,-2.1543519223566718e-07,-3.406334927955208e-07,-5.375646174973651e-07,-3.951069392577806e-07,0.013494132092697545,3.202830086507358e-07,3.228790804531523e-07,-2.9025786970579677e-08,-2.1425567413167672e-07,0.09999689438444007,0.018182568117046258,0.06679679165380858,0.06463501998873075,7.368354606861662e-08,1.0942011500567093e-07,-3.797310903967175e-07,0.10000015836984465,-4.7698639325925106e-08,-7.992119228910634e-07,-2.735490051029784e-07,0.003828891362645138,-2.1186453089732313e-07,7.459350327844675e-09,1.7981271381650865e-08,-2.9108784632744405e-07,0.09999905246886447,-7.780581802052549e-09,0.05789510206238318,0.09999923624408957,-8.432299005981655e-08,-1.0752921316676068e-06,-1.0021179705327747e-06,-2.522390162923377e-07,0.09999938287366804,-4.675100020388183e-07,-5.908751519806313e-08,0.037023280922034836,-2.2834865678562618e-07,-2.677829826504888e-07,-1.3001037195785427e-07,0.09999889628025574,-8.361135429781609e-08,-8.446736723683186e-08
20,2020-06-16,Simple + Baseline,-9.613254876166544e-08,-1.0389854407308208e-07,0.09999958990893482,-1.5153039833878763e-07,-8.128700440459912e-07,-4.851752681856999e-07,0.09999921472556478,-3.049226883999582e-07,-4.887091684983661e-07,-5.771637259719742e-07,-8.176537305909576e-07,0.013489619487180651,-1.11895907880915e-07,-1.2600781452951692e-08,-3.395141544982081e-07,-4.866412594450889e-07,0.09999758153034191,0.018168383113357296,0.015818478866402776,0.06429394382731665,-2.7644136221854168e-08,-5.29857719258742e-07,-2.304386277319349e-07,0.09999962914041102,-2.927311818174467e-07,-1.8988804225003704e-07,-4.013739948624826e-07,0.01680240866426086,-1.3526932658906338e-07,-2.428941854420922e-07,-1.776350739946148e-07,-2.859179781969568e-07,0.07144577218809915,6.928672544926474e-08,-3.904789306172555e-07,0.09999922178925141,-3.8320518961591023e-07,-5.385963680572709e-07,-1.1386456225974948e-06,-1.6004734234170307e-07,0.09999935388977416,-4.128195135928812e-07,-1.8798580337951915e-07,0.09999940399117725,-2.5592862199487446e-07,-3.9295186591304537e-07,-8.408678005213693e-08,0.09999900075480518,-1.1408181346772842e-07,-3.0565156914754394e-07
20,2020-06-17,Simple + Baseline,-4.9727994017021e-07,-5.325073447302471e-07,0.09999745524930329,0.03783483402357884,-1.6774395703248263e-07,0.05191910068971067,0.09999781633398568,-1.76103069436935e-06,-5.44774793020617e-07,-1.6091590973107702e-06,-3.147339982994501e-06,0.0027850224442094373,-6.256189219630293e-07,-5.524489659018427e-07,-1.4823720670268395e-06,-7.400576467702463e-07,0.0999895927285694,0.011650825083027967,0.005794169870054947,0.05190881857058808,-1.1960534125945395e-06,-1.964708022829968e-06,3.8499421388158267e-07,0.09999918981779546,-1.1706256454906043e-06,5.425748199667712e-08,-1.4876185127084846e-06,0.038182146829774576,-6.308316639693564e-07,-5.818608782870622e-10,-6.430724606140286e-07,-1.607305950914135e-06,-3.111215554908753e-06,1.0623418407409883e-07,-3.169587796820048e-06,0.09999332801074759,-1.6174354059900244e-06,-2.623309989598387e-06,-3.9371646741422555e-06,-1.098163977151463e-08,0.09999681232854876,-5.633779150210196e-07,-8.547540913837128e-07,0.09999733644412231,-5.765440541961222e-07,-1.4843970650728552e-06,-4.1902938095460644e-07,0.09999331003224737,-6.675531596583229e-07,-8.800995325994695e-07
20,2020-06-18,Simple + Baseline,-6.068578148022119e-08,-7.069567600837983e-08,0.09999942708476257,-1.2740271629221635e-08,-2.1150715153253677e-07,0.0354762111205355,0.09999931244739885,-4.5295933740833656e-07,-1.79880269417155e-07,-4.6549612586074853e-07,-1.0007155061967178e-06,9.352154282314398e-09,-1.2113975053444839e-07,-8.599572865295491e-08,-2.683006045879875e-07,-2.643994674288233e-07,0.09999478563328733,0.011644772116090621,0.0489516512560108,0.05445399653295561,-1.0797343806850272e-07,-5.877923893546841e-07,-4.386183127893157e-09,0.09999991156426104,-1.821440681222541e-07,-4.706586453236072e-08,-3.535082916714753e-07,0.08830815623800031,-6.40796537065598e-08,-7.288516095311568e-08,-1.2905959845885343e-07,-3.370789165899241e-07,-5.595621730955791e-07,3.811762762544573e-08,-1.0652029876442369e-06,0.09999798386904586,-4.92176286675316e-07,-9.852889646021906e-07,-1.618707821157198e-06,-3.6499004851866413e-09,0.09999929264963885,-1.9560533843470638e-07,-2.02644026666597e-07,0.06118771228732391,-1.0382471628455517e-07,-3.3286043229611786e-07,-9.120970380103145e-08,0.09999778240233599,-9.53809980061896e-08,-2.158996239264006e-07
20,2020-06-19,Simple + Baseline,-8.291785064768537e-08,-1.460886809758342e-07,0.09999974946022674,-1.6834709313834596e-07,-6.152401025429255e-08,0.05428199104644387,0.09999977247673493,-2.350875220197665e-07,-1.8781736136011074e-07,-1.791929049216189e-07,-2.8114895666334154e-07,-4.9027280219479904e-08,-1.2261757278034816e-07,0.0047935159557483745,-1.9802266015971358e-07,-1.58258279978588e-07,0.0999972798783156,0.01589666163312913,-1.443599120654706e-07,0.02288854384960444,-1.2619502085421925e-07,-2.790606236130728e-07,-8.32986410797426e-08,0.09999989669460715,-1.2089466287445785e-07,1.6887081150482362e-07,-1.3426552941098542e-07,0.10000006781450041,-1.8980719770300418e-07,-6.512369463572558e-08,-1.4769897790227183e-07,-2.1441091865597484e-07,-1.8834063815047222e-07,-8.912157922026674e-08,-4.021100983606764e-07,0.09999920381144103,-2.320860134463511e-07,-4.3111852393647804e-07,0.0021503280415664165,-1.1139329586116079e-07,0.09999977894661613,-1.2460330389412828e-07,-1.632973327016949e-07,0.09999985996860813,-1.124821868528423e-07,-1.4010658477007235e-07,-1.2971952873279775e-07,0.09999895018530662,-1.1126070646414052e-07,-1.578264680380817e-07
20,2020-06-22,Simple + Baseline,-7.817339196730281e-07,-1.0466688875634734e-06,0.0999966617965646,-1.8818912502517928e-06,-3.948192523710473e-06,0.03286404189090288,0.0999965053817091,-2.201336826356733e-06,-2.748349063934944e-06,-2.2950710913474035e-06,-2.5630434138587183e-06,-1.1067605776703944e-06,-4.375029172679202e-07,0.0171605273894867,-1.3868542275828483e-06,-2.8046321165424406e-06,0.09998986952029722,0.015820281998358957,-1.2774078556239256e-06,0.03191672810502654,-1.1639866059755223e-06,-1.8810779171850986e-06,-2.362876059663244e-06,0.09999952660954319,-4.69233762349699e-07,-1.9703004692580756e-06,-2.820183922926122e-06,0.09999198253496497,-1.9356310093279672e-06,-1.3663195612862218e-06,-8.148030705780079e-07,-2.0959090509159426e-06,0.00021604665203240348,-5.668884647153976e-07,-3.747272284981858e-06,0.09999407561026828,-3.618632585873768e-06,-4.429907895704255e-06,0.0021357579194457546,-1.549325755756228e-06,0.09999747844174202,-1.850352902779355e-06,-1.4025663368998637e-06,0.09999420564042374,-7.521899878567761e-07,-2.841802569810011e-06,-8.680262339762892e-07,0.09999075414347668,-2.2838441201465497e-07,-1.1628148479251566e-06
20,2020-06-23,Simple + Baseline,-1.6839774017113862e-07,-3.0843755372962036e-07,0.09999850844417388,-6.389883974175098e-07,-1.7817669479384387e-06,0.0169871809633646,0.09999823525336338,-7.541862417855958e-07,-1.109382056126023e-06,-1.0338880428691225e-06,-1.234846744886594e-06,-3.754477949099067e-07,-4.25356931827576e-08,0.01691248274093745,-3.9879288249501983e-07,-1.2563849516347128e-06,0.09999277573510092,0.02790955277355091,-4.152269586877169e-07,0.03429132969079045,-3.4384462631954894e-07,-8.244961975248581e-07,-9.10765722379917e-07,0.09999985553638377,-5.158733408628327e-08,-1.0144992297195511e-06,-1.0756125539137154e-06,0.09999602417761433,-6.542502545903586e-07,-4.4452420490877637e-07,-2.0933553846249612e-07,-7.553072358757435e-07,0.001819156667277597,-1.1231861811657002e-07,-2.058664751075966e-06,0.09999683284950131,-1.4194694044664016e-06,-2.5713411188018392e-06,0.002132155053854909,-5.24124365106125e-07,0.09999888895417713,-8.342167196836728e-07,-4.44299082503564e-07,0.09999740349132623,-2.381495811971828e-07,-1.098114699841046e-06,-2.694087368481766e-07,0.09999541694468427,-1.5443368570598812e-09,-4.093167145099525e-07
20,2020-06-24,Simple + Baseline,-4.637137796897956e-08,-5.7772734502393126e-08,0.09999960261331826,-9.969267569568971e-08,-5.221386691232216e-07,0.01686810463433976,0.09999942354141357,-1.631918904292727e-07,-2.5952558359545883e-07,-2.2587240887468534e-07,-3.2853604303033404e-07,-3.6067085986879594e-08,-1.3088318993120134e-08,0.016911340919595678,-8.059627563467503e-08,-2.732750295753004e-07,0.09999637289252121,0.01768847694097719,-8.428790405648649e-08,0.04486054066582105,-7.832253042122731e-08,-2.265338053971147e-07,-1.729337852485048e-07,0.09999996105134595,-1.600226895191766e-08,4.4772456568047995e-09,-1.7869565842478094e-07,0.06891458424166147,-1.2491989992586587e-07,-1.0490339688531311e-07,-4.324925020488112e-08,-1.7910082084594553e-07,0.03263921937531584,-9.131384132744877e-09,-7.415245949026682e-07,0.09999894628216464,-3.6167413801371946e-07,-9.879691940287563e-07,0.002132143383983505,-9.671907461228342e-08,0.09999974549979618,-1.9039274214603504e-07,-8.392491730374487e-08,0.09999929400420224,-3.8229549289209014e-08,-1.937132043792383e-07,-3.946256123949457e-08,0.09999837040020892,-9.800455069285028e-09,-6.322031553256401e-08
20,2020-06-25,Simple + Baseline,-4.519795362747197e-08,-6.344882304734862e-08,0.10000006423623688,-1.0619767016134075e-07,-2.0736121143581113e-07,0.01696543930670931,0.09999973952224218,-6.2376776080459e-08,-1.2896710147008234e-07,-5.812223032250444e-08,-2.0671926274128212e-08,-6.647015768084289e-08,9.13042784871216e-09,0.007566603280747259,-5.4266795526848746e-08,-7.011595798833222e-08,0.0999980333007719,5.37033409337815e-05,-1.0692161019098537e-07,0.04485458854826328,-3.5519866671775266e-08,-4.6734848810602456e-08,-6.219308890345177e-08,0.09999994992749198,4.626406250933818e-08,-1.4288889475962986e-08,2.0672772305924848e-08,0.0689140369968498,-1.453810506390222e-07,-9.42289952160063e-08,-2.0307819282227455e-08,-8.553528429711939e-08,0.058418948807625874,-4.798289417711534e-08,-2.5734296692122235e-07,0.0999997558433707,-1.2688647521615306e-07,-5.750233335746128e-07,0.0032327592444357507,-1.0461294581312461e-07,0.09999989995177376,-3.050701786646207e-08,-5.205189995023145e-08,0.09999970865735688,2.062356815245871e-08,-3.7868959169785124e-08,-2.8975851112125053e-08,0.09999945114342469,5.403031866427557e-09,-2.701092217993011e-08
20,2020-06-26,Simple + Baseline,-1.8681274990757092e-08,-2.1249566568185296e-08,0.0999999691417902,-3.6115732586813134e-08,-1.0221556541714843e-07,-1.9942635340922312e-08,0.09999989345285767,-4.3215657265778975e-08,-6.057099346925173e-08,-4.445620268994208e-08,-3.894265938553459e-08,-1.9016877161050022e-08,-1.4043422313059462e-08,0.02249892562066464,-2.7577405538658628e-08,-3.887436123138923e-08,0.09999893575952591,-5.923228188906315e-09,-2.8970093290434158e-08,0.054266382683768516,-1.8462701088627058e-08,-3.9953041883640484e-08,-3.641770833144986e-08,0.09999999003961968,-1.2934067163660495e-08,-3.140377133165571e-08,-2.3550011232520777e-08,0.06158645057732738,-4.452736977188398e-08,-4.392655707905897e-08,-1.7301541449065956e-08,-3.9022824020023794e-08,0.05841882597191249,-1.6670135952696145e-08,-1.267264732913403e-07,0.09999988996696622,-6.112913745226325e-08,-2.7553341827185707e-07,0.0032326326259848794,-4.3102490751626956e-08,0.09999996069217261,-3.981740974956361e-08,-3.3442577167463084e-08,0.09999988787806688,-9.362262376532779e-09,-2.991950617338336e-08,-1.744942148937642e-08,0.09999977217462036,-1.2010613560686485e-08,-2.3663249519931552e-08
20,2020-06-29,Simple + Baseline,-6.154902186197152e-09,2.3535660373943806e-09,0.09999972594219113,0.005270470817679003,-9.695038649811888e-08,-9.622186661260038e-09,0.09999952966807067,-2.0857818228477473e-07,-6.514473994896562e-08,-2.3550180140687533e-07,-4.6983042958271355e-07,-1.0446932611306092e-07,-5.695581805367552e-09,0.03246384680039403,-1.4806471377411973e-07,-7.940627701213914e-08,0.0999983141380623,1.2781975646920588e-08,9.108938448482892e-08,0.05405747746690416,-4.7113213888161636e-08,-1.8001931644184558e-07,3.726559519239459e-08,0.08731977345988741,-1.0427229574238806e-07,-1.0390109005333377e-07,-2.1667794221957442e-07,0.062480759698636125,-2.217848802830461e-08,-8.635556083571086e-09,1.1261114909820317e-08,-1.1929145526671137e-07,0.05841689864455063,8.437361344027111e-08,-5.182187717522792e-07,0.099998987753652,-1.6225330472278508e-07,-4.162740181718939e-07,-7.06416918637938e-07,3.001492013354563e-08,0.09999969902356198,-1.5767026458390241e-07,-3.628696009273238e-08,0.09999957681250779,-7.876640992035588e-08,-1.8382594458533278e-07,-2.9796040130365763e-08,0.09999930899371871,-2.2217487207695426e-08,-8.981105634128836e-08
20,2020-06-30,Simple + Baseline,-2.9660435542737637e-08,-7.40507761723339e-08,0.10000038994335242,-2.4483074744346533e-07,-6.250412779185048e-08,4.72779390419901e-09,0.09999967813903804,-5.3478551054352064e-08,-6.732602147134903e-08,3.107645733030164e-08,1.4562245578837167e-07,-4.0865456615952204e-08,7.700793856239807e-08,0.07251851891971677,-3.657464962872231e-08,1.514249693672464e-08,0.05739385377905687,-3.111731119828793e-07,-1.7383304457973698e-07,0.05404195674020099,9.72263308506319e-08,-1.0662024360601817e-08,-8.689178665267833e-08,0.06764193004691185,1.0572680637833475e-07,1.0215111093687533e-08,1.058290756088632e-07,0.062479784191333806,-2.3704228445339727e-07,-1.6584282624839505e-07,6.077953826634576e-08,-6.5466525976400685e-09,0.08592596684083179,-3.865695395041648e-08,-1.388734277865386e-07,0.10000003086606504,-8.797089927146778e-08,-6.231114455453218e-07,-1.4620107611534737e-07,-1.53621039186375e-07,0.09999986349055175,1.3834294388700032e-07,-3.451854405322134e-08,0.09999980281542153,1.0790345566692572e-07,3.0720629173571925e-08,-3.4717407387226234e-08,0.10000009565196394,7.327078935506792e-08,-1.3867158607852548e-08
20,2020-07-01,Simple + Baseline,4.5890367120184225e-08,9.212354836379222e-08,0.10000039097741681,7.894134501574985e-08,1.1450940882438958e-07,1.6794773335947337e-07,0.10000020568126143,2.7729087376470647e-08,1.0753574790044242e-07,1.1397687046148344e-07,2.672936108293809e-07,9.732669260619519e-08,3.053638363606888e-08,0.040575171230475486,5.4507212433507096e-08,1.8144138468716433e-07,0.10000093127265648,1.859103739788195e-08,2.6487788700869435e-08,0.05265186737672715,8.645383036557331e-08,1.2862857919509357e-07,8.411815781689239e-08,0.0886149552226061,6.388125642947047e-08,1.7265511993568264e-08,1.491500563745455e-07,0.09785956308719394,9.783345236816567e-08,-1.3120000615505358e-08,1.0251124215005244e-07,1.5811805378503804e-07,0.08592655488115489,4.0454978098023424e-08,0.002278961214524056,0.100000326825496,9.69261159753643e-08,-1.2851567572276524e-07,2.1835034293030186e-07,8.341729535503293e-08,0.1000001488568149,1.2366609966254486e-07,1.0083350764974747e-07,0.032087064563666445,9.2018402638533e-08,2.2946019885475029e-07,8.807285648445831e-08,0.1000004505478757,5.358610398559279e-08,1.0755673375489458e-07
20,2020-07-02,Simple + Baseline,1.6003482914732306e-08,1.7384957596220542e-08,0.10000018003504359,3.196723304628193e-08,2.9370718224156713e-08,0.023794077715547184,0.10000016887075827,-6.830150871480617e-09,4.572467100901284e-08,8.203856936988252e-08,1.466667960301485e-07,4.565571751925267e-08,-1.8067658487226557e-08,0.010327774851118302,-6.04901932148052e-10,3.0551674331244466e-08,0.1000006375655578,1.4868122461052279e-08,2.3660076971539024e-08,0.05977703802325922,2.2875293851443513e-08,5.0464317606159686e-08,3.7660005815432e-09,0.08169762515552845,1.9556546528321703e-09,4.48621908128875e-09,1.1662548119696098e-07,0.09785967015253033,2.7264796255307153e-08,-3.349878711863728e-08,1.284381928078347e-08,4.739730686465049e-08,0.06103414299578468,7.198730311937301e-09,0.05457789451934784,0.10000023668822398,5.2783248853994754e-08,-2.8118579179510346e-08,2.2707096861032657e-07,2.697691724658458e-08,0.10000005990908992,4.7846932502839286e-08,3.6895362498832046e-08,0.010928937173679713,5.268645286618281e-08,1.1824802716837683e-07,9.51646814307919e-09,0.10000023862889107,8.945914998798256e-09,4.423014074788493e-08
20,2020-07-06,Simple + Baseline,-9.551173364910646e-07,-7.513341752067782e-07,0.09999542838983379,-1.4479837051012755e-06,-2.9396629746956526e-06,0.02378379518893914,0.09999524731057131,-6.967180082554156e-07,-1.8711721850310353e-06,-8.372261660240619e-07,-1.9891705772774963e-06,-1.471151661653201e-07,3.220283114666995e-08,-8.743112924101441e-07,-9.84872991445004e-07,-1.8530623976400725e-06,0.09998755267409311,-3.0581695519968033e-07,-1.04817001805329e-06,0.06467120369307681,-3.830270362351093e-07,-8.766057391000526e-07,-2.2757130015703968e-06,0.0617303197037555,-4.799564724445786e-07,-2.2101284497386983e-06,-1.979968527771447e-06,0.09784692754772414,-1.0737675333657072e-06,-8.592854715061308e-07,-6.63628788211874e-07,-1.130726990718766e-06,0.08656648049514003,-7.615256763993823e-07,0.0545673941244689,0.0999938765629947,-1.9169686308308584e-06,-5.114991789284896e-06,-4.2802717157388545e-06,-1.8209404281895398e-06,0.09999728230719679,-8.388667428925139e-07,-1.1781572891027366e-06,0.010919154446155021,-3.12704549253173e-07,-1.5274101460657888e-06,-5.77605184133564e-07,0.09999310459390126,-1.9505306244671076e-07,-5.87807317163361e-07
20,2020-07-07,Simple + Baseline,-1.0183981035762982e-07,-8.526856766845951e-08,0.09999894522766604,-2.445279486682553e-07,-8.822747895822624e-07,0.023783796809533613,0.09999856867618001,-1.1870993450888257e-07,-4.543066956074239e-07,-1.7891880771915567e-07,-5.160151473605135e-07,-1.5887469640138484e-09,4.350820012746437e-08,-7.682214609920082e-08,-1.5745285465191224e-07,-3.8726685732368864e-07,0.09999357237050237,-1.1316829557994602e-08,-1.3778126593299566e-07,0.0691811921116305,-3.263214093891537e-08,-1.6667724917692415e-07,-4.752866373037087e-07,0.04678348428866404,-2.93035125972449e-08,-5.378085790464701e-07,-3.970099811426042e-07,0.06164928649546384,-1.688790618796075e-07,-1.3495288952054627e-07,-7.035003098194061e-08,-2.126917984766329e-07,0.06356271943082162,-6.362430179945566e-08,0.05456737100097967,0.09999799609771066,-4.576982111053527e-07,-2.007579842735012e-06,-1.7344383209429928e-06,-3.652682378792897e-07,0.09999943752714667,-1.7245860111008022e-07,-2.1267670014223387e-07,0.0804971386436451,-3.459296321998095e-08,-3.0557066067531307e-07,-6.636336947686295e-08,0.09999750986809502,2.057144246260199e-08,-8.224907139355807e-08
20,2020-07-08,Simple + Baseline,-4.3853169685610556e-08,-5.8134413177460555e-08,0.09999972244939635,-9.984192332340606e-08,-3.611353982152507e-07,0.017896107558551377,0.09999955661840025,-6.070760919640762e-08,-1.6881451708061894e-07,-7.872669263953981e-08,-1.4605781578265555e-07,1.3525522304555517e-08,-2.9778374093420885e-08,4.366590034716245e-09,-6.684461353195045e-08,-1.8434399611134628e-07,0.09999661220813892,-2.772544013931099e-09,-4.388109422510495e-08,0.03815480416081539,-3.045770619721198e-08,-7.386102173188829e-08,-1.760958546569345e-07,0.0574814133770555,-2.7799563635117375e-08,-1.9321479938673355e-07,-1.2261211895710617e-07,0.06164887083529481,-7.833086343193517e-08,-9.19440888040124e-08,-4.8507914671110344e-08,-8.330140036416974e-08,0.04686189650079462,-4.072484815321086e-08,0.07796760352390306,0.09999931037695577,-1.5232234652732316e-07,-9.054596830251716e-07,-7.929060103668076e-07,-1.2819602825383e-07,0.09999982514819243,-1.0489600469099933e-07,-7.033298431220322e-08,0.0999998857661079,-1.594053682768553e-08,-8.513213346925307e-08,-5.184229897381508e-08,0.09999902209149462,-1.7837838799749029e-09,-2.7063727137482317e-08
20,2020-07-09,Simple + Baseline,-3.872981378565632e-07,-7.407092823603913e-07,0.09999896110592339,-9.100323732188099e-07,-1.9909877510911626e-06,0.054879557867181274,0.0999983721701056,-9.69631713584518e-08,-1.1282501046903534e-06,-2.9325254813064524e-07,4.893151725223989e-07,1.9469518054409966e-07,-1.235533295219154e-07,4.887702462786805e-07,-6.826792479770871e-07,-2.4728265206400896e-06,0.09999580195654942,-4.4193070462600843e-08,-1.959748730437629e-07,0.024076943248202563,-2.3566518276603803e-07,-2.7226538727396824e-07,-1.4696199634145449e-06,0.05081293855829824,-2.658597247990025e-07,-1.5211941193432608e-06,-7.128083017812939e-07,0.061639936138190674,-8.627211693390563e-07,-1.4046026431617037e-06,-6.294305220282328e-07,-7.438348846877532e-07,0.060726052673603405,-3.3327338809713083e-07,0.04790616581886539,0.09999745211376573,-3.316654257774531e-07,-2.7073513766929504e-06,-2.33917724145704e-06,-9.967825002820207e-07,0.09999779611426786,-6.444618681010044e-07,-1.2084571688491236e-07,0.09999755310468329,-3.497071083011267e-08,-1.321681978625188e-07,-7.150766599076249e-07,0.09999648731092009,3.754043668520282e-07,2.1847167294775465e-09
20,2020-07-10,Simple + Baseline,-2.902022272840285e-07,-7.337700269557158e-07,0.09999935594419797,-6.058577846256486e-07,-6.118405026737771e-07,0.09289808032964084,0.0999991104963783,-3.020163061251855e-07,-8.006658594578074e-07,-1.664967762354748e-07,4.791404471249042e-07,-3.101263819326719e-07,-3.8606343430470805e-07,7.387558470435793e-08,-7.199061826224758e-07,-1.043669737563357e-06,0.03698077104432454,0.0022976172216509863,-4.4428956176509957e-07,0.0316331012803827,-6.48169629574921e-07,-2.6217268441224873e-07,-5.137324549055562e-07,0.05080045025603807,-3.8387540589442177e-07,2.383339792989269e-07,-3.1444802093492916e-07,0.08155968840362587,-6.216714760700548e-07,-5.625929762080483e-07,-6.229592356421599e-07,-1.0221496054922703e-06,0.06072334527765703,-1.726092427001447e-07,0.04313135536521994,0.09999828962599772,-4.5229806447348003e-08,-7.854819457893612e-07,-1.24810402989357e-06,-6.922973352575207e-07,0.09999888147154938,-2.7029609089779996e-07,-4.107683043872115e-07,0.09999876058131409,-6.306041660282959e-07,-1.6215637812527517e-07,-7.850794247674624e-07,0.09999748664727702,-3.865867838075908e-08,-4.769818628690644e-07
20,2020-07-13,Simple + Baseline,1.3325990882374563e-07,-5.8442522265203206e-08,0.09999915409678493,-7.039215915357534e-07,-4.198653366475071e-06,0.09288918884211056,0.09999903686397703,-3.046005483744925e-07,-1.6002475586523203e-06,6.807980669352221e-07,1.0753553395168144e-06,-1.6459130493916817e-07,-5.370623892941414e-07,-6.458341027764544e-07,-9.871863248806284e-07,-2.11760131031091e-06,0.036976305517666445,0.02617272524289713,-6.484365520967572e-07,0.02882437680381215,3.3674977696004e-08,6.030478823075804e-08,-1.7611490611203502e-06,0.05873372528998656,-1.3280704508207269e-07,-2.0864042279701384e-06,1.47910571500531e-06,0.09999587216860342,-4.84233212987582e-07,-2.4647381884758393e-06,-7.40047420410271e-07,-5.824938073210619e-07,0.07513896385486933,-3.339794933223505e-07,0.01960291176763057,0.09999985259585867,-6.575955002176465e-07,-4.106035078998611e-06,-6.271690976475227e-07,-1.2039661572847394e-06,0.09999857564902709,-3.334538667894603e-07,-5.980322835763832e-07,0.06169447853122019,1.1505909364273872e-06,6.994426596037271e-07,-1.0389062075878676e-07,0.09999735846952981,2.696201214064307e-07,1.1082921959088655e-07
20,2020-07-14,Simple + Baseline,-8.744880818785435e-07,-1.173568739903682e-06,0.09999782001512629,-1.5574233451071154e-06,-1.7639689072465776e-06,0.09288338273239989,0.099998291870255,-1.5820638432962692e-07,-1.2217130821318003e-06,4.882122320224701e-07,1.8519797542996706e-06,8.11610214787905e-07,-3.2039177236604036e-07,-6.065399590055152e-07,-6.449851930569438e-07,-1.777612107607726e-06,0.051369921947268596,0.01603953088418446,-1.557699138823471e-06,0.016914669845750265,-2.6919417410846627e-07,-5.407542766360727e-07,-1.5976558074403488e-06,0.06114414510827246,-5.170478687078949e-07,-3.3138792549152845e-07,-1.1353471635814212e-06,0.09999631537262589,-1.425637927343088e-06,-1.1277278567912635e-06,-4.728736269376153e-07,-1.0634041382558906e-06,0.0999995227546207,-1.0865953237874058e-06,-1.2418930616968873e-06,0.09999895895237454,-6.121419461589405e-07,-2.738515603305405e-06,-1.2252745376481812e-06,-1.4550401893531522e-06,0.09999874899367783,-2.520748079197596e-07,-8.183710185215712e-07,0.0616903568969139,-2.124950879104232e-07,-6.667644464355975e-07,-9.517287939670516e-07,0.09999709708896823,-2.0734813923341273e-07,-3.0162277436963785e-07
20,2020-07-15,Simple + Baseline,-7.471936476756596e-08,-6.483438030812033e-08,0.09659082045865387,-1.448194784985651e-07,-5.641138612161647e-07,0.08945329882976914,0.09999956019659355,1.449347825330282e-08,-2.2383680494797076e-07,2.763693570924315e-07,5.827390508214995e-07,1.5802229371425462e-07,-4.54701473500194e-08,-1.0862985485162274e-07,-9.626600049067161e-08,-3.6617643354327687e-07,0.05137039311679244,0.006893918304260658,-1.2564929009012948e-07,0.0289797490415475,4.135110893548351e-08,-1.0587511989515164e-07,-3.0963373247010327e-07,0.07778564757410701,-5.7079509960383946e-08,-1.6168964193919337e-07,8.506035225642559e-10,0.09999873110518068,-1.6672272067265816e-07,-2.5900371097933223e-07,-3.4942235380300345e-08,-1.5619169801672002e-07,0.10000001509820197,-6.021421474399353e-08,-2.6242430512711163e-07,0.09999982422057814,-1.0956057824566032e-07,-1.0158236935133354e-06,-2.361370698054662e-07,-2.1515344550864124e-07,0.09999977899150606,4.1184581523037065e-08,-1.1387406931384658e-07,0.04893307853148319,1.0137261745823795e-07,8.473457538668271e-09,-5.561169098238807e-08,0.09999909256480934,-8.630192209463013e-09,9.108527124145778e-09
20,2020-07-16,Simple + Baseline,1.1218257076227343e-08,-4.26471232065637e-08,0.09999994973657567,0.008334090442158102,-1.73442807495297e-07,0.08945347538950701,0.09999980572852125,2.8439980302581625e-09,-1.0028340268152945e-07,2.1958448172205065e-08,1.402363011926043e-07,-6.690397676569421e-08,4.0016426646327394e-08,1.4722371447314956e-08,2.62195181851629e-09,-8.453504548887561e-08,0.07047022902544306,-1.0572378297396706e-08,-2.8679986473036463e-08,-4.6347496443709485e-08,-1.103968329981502e-08,-1.6384819494877477e-08,-7.256835935770524e-08,0.08281241450987034,3.6973308508527256e-08,-6.756236418488754e-08,-1.332987501283824e-08,0.09999951372332226,-6.50350741851148e-08,-4.315081491379586e-08,-8.439783901297802e-09,-7.71345195745059e-08,0.09999991589301413,2.4246545626149773e-08,-1.6542470216922045e-07,0.09999985109771914,-4.7555227521974234e-08,-4.3045504772074545e-07,-1.3092685716522717e-07,-9.19796508668682e-08,0.09999988213294765,5.6592276281884584e-09,-3.889157381901789e-08,0.04893285396888317,-4.9740267163796243e-08,-6.9778167932493956e-09,-4.2806240181795945e-08,0.09999967171142934,2.991275049125284e-08,-4.992995691103413e-08
20,2020-07-17,Simple + Baseline,-4.368213284843863e-08,0.013149932871876853,0.09999867941327371,0.016126870806757527,-1.2246576336071092e-06,0.06663845070746126,0.08659891129201282,-9.378714689704831e-07,-7.90921147230326e-07,-8.037957604434431e-07,-6.798362833950446e-07,2.6665168318884398e-08,-4.163812370971622e-07,6.491895906782792e-08,-9.585583801766327e-07,-9.369829368012123e-07,0.09999381282348549,3.5572099561420405e-07,9.312178405039759e-08,2.53682210322252e-07,-4.839872247606421e-07,-5.215064821638608e-07,-6.96262146166635e-07,0.06859526756488947,-6.521179870492081e-07,-9.25935447612231e-07,-9.746977635976878e-07,0.09999773881949267,-9.203508939968929e-08,-6.21098418725853e-07,-3.1597142883094454e-07,-4.944766022037872e-07,0.09999910477236913,7.906526504035765e-08,-1.1068320761004336e-06,0.09999754940346725,-7.442409991845389e-07,-2.219267172816451e-06,-2.147650948691933e-06,-1.3682428885485878e-07,0.09999860753583127,-6.711438666469476e-07,-2.5748499660137176e-07,0.04892894686576916,-2.086072170090327e-07,-7.1807547745171e-07,-2.6536903961257656e-07,0.09999661043150404,-1.5380699183075722e-07,-1.3359167768468515e-07
20,2020-07-20,Simple + Baseline,4.431568453963146e-08,0.018269452657460914,0.09999956513271549,0.01612686316625323,-4.716824675633525e-07,0.06516808353059901,0.07039120626623142,-3.028654776387346e-07,-2.854673604715253e-07,-2.4503980761146246e-07,-1.9619821326749827e-07,-1.8452305805863308e-09,-2.7702847056433472e-08,4.7800624474275305e-08,-2.2103177956151745e-07,-2.8638307276691504e-07,0.09999638179422386,7.396219830445059e-08,1.8385450903948482e-08,2.778149451423524e-08,-9.307566106188102e-08,-1.3718127472002986e-07,-2.5741269781381424e-07,0.027035525897015602,-8.20458864734507e-08,-3.2172069942077123e-07,-2.8030459122999625e-07,0.0999989427101242,-1.4150095783039037e-08,-1.2938498022968616e-07,-3.013154157476776e-08,-1.494474611455724e-07,0.09999967931904843,5.8781779566673216e-08,-5.168905359450905e-07,0.09999900889303152,-2.3384812436423504e-07,-9.898934499193025e-07,-1.1515731155588655e-06,-6.704820606120551e-08,0.09999951057241004,-2.1126336861708133e-07,-3.732262395173159e-08,0.09999980126883795,0.0030241826029897027,-1.8969430636988254e-07,-6.996028045974997e-08,0.09999850634873605,3.247178153981667e-08,-9.748472277070137e-09
