seed,date,strategy,NASDAQ:TILE,NASDAQ:PLMR,NYSE:PAGS,NYSE:ALLY,NYSE:MAN,NYSE:CACI,NASDAQ:VRRM,NYSE:OIS,NASDAQ:WINA,NYSE:HI,NASDAQ:GEVO,NASDAQ:CHTR,NYSE:MTZ,NASDAQ:ACIW,NASDAQ:BOKF,NYSE:ENR,NYSE:BYD,NYSE:KW,NASDAQ:TTMI,NYSE:UVV,NYSE:USFD,NASDAQ:NMFC,NASDAQ:POOL,NYSE:EGO,NYSE:MOH,NYSE:ONTO,NASDAQ:INGN,NYSE:MC,NYSE:HTH,NYSE:TPR,NYSE:VVV,NYSE:AON,NYSE:LXFR,NYSE:MYE,NYSE:ORCL,NYSE:MCK,NASDAQ:NWLI,NASDAQ:TXN,NASDAQ:TCMD,NASDAQ:NFLX,NASDAQ:CAPR,NASDAQ:FCFS,NASDAQ:SRCE,NYSE:VMI,NASDAQ:LXRX,NYSE:ECL,NASDAQ:ONEW,NASDAQ:FHB,NASDAQ:MRSN,NASDAQ:LSCC
7,2020-03-18,Simple + Baseline,-1.1407048277232368e-08,1.696520282569346e-08,1.013442375086286e-08,6.3103362515946996e-09,-7.031775720680689e-08,2.9733739490154997e-08,1.8605174932442075e-08,2.3195460887390723e-08,3.014379161137622e-08,1.2696978214909146e-08,1.647204315767421e-08,0.10000004395792665,2.8152766001203394e-08,1.8684431862929733e-08,7.29841083477808e-08,2.7045199490563316e-08,-4.92150910071205e-09,8.729102181931162e-09,2.9442308433852094e-08,0.10000004888816716,1.0146113108245613e-08,1.5730301864310523e-08,0.10000005492583887,1.3468063062553223e-08,4.462045724650924e-07,1.1838740163428407e-10,2.4925894846599925e-08,1.873129675419316e-08,9.447251480862277e-11,0.10000005142107098,9.023922134711098e-09,1.5762837019895558e-07,0.10000006121272446,-1.5247656168602188e-08,0.10000005074078012,0.1000000446720699,1.2936385019631841e-08,-1.561270128166437e-07,7.310788107667141e-08,0.10000004705237746,-4.030912918405564e-07,2.1465076600611225e-08,2.6750332707264025e-08,0.10000004810963799,-1.2933373343486215e-06,1.2163644057698233e-07,-1.1274131402347116e-08,0.10000004520668136,3.0697572741713404e-08,1.3757501952320487e-07
7,2020-03-19,Simple + Baseline,-1.5290889392768707e-08,3.1514827536053718e-09,-1.4391096436615092e-09,-4.194251562495113e-09,-4.911149595074995e-08,1.1018226060037636e-08,4.2553814689913976e-09,0.09999965949799268,1.1181130113929926e-08,6.629066099921591e-10,1.3181747842894824e-09,-1.930502630666714e-06,0.09999966516432175,4.493650264889671e-09,3.508446775529165e-08,9.158426753143958e-09,0.09999956463889664,-1.615678124892081e-09,1.0972695841147553e-08,0.10000002253098464,0.09999961480293854,1.0335872762939273e-09,0.10000002661852302,2.1586535904985295e-10,2.54915418860367e-07,-8.231155158002921e-09,8.545352732775433e-09,4.056899776926812e-09,-7.506258476551697e-09,-1.1018471580585488e-07,-2.2560594050229298e-09,8.546944472867757e-08,0.10000003053904889,-1.5604324774048965e-08,1.365634622520781e-07,-1.59578319201578e-07,6.437690510353182e-10,-9.792776133686214e-08,3.564235318979366e-08,0.10000002171945162,0.099999710547282,5.540704237536036e-09,9.300378231357814e-09,-2.136434366801026e-07,0.10000404923909646,6.463848627124452e-08,-1.3591555441322991e-08,-5.177635070478149e-07,1.1181256755697568e-08,7.4217135517874e-08
7,2020-03-20,Simple + Baseline,-2.3077614727985684e-09,0.10000000565072344,-3.88705902404213e-09,-4.450822280975628e-09,1.2017423077039043e-08,0.07370269872714352,-3.4178275256241876e-09,-1.1824647806011861e-08,-3.4633164200833134e-09,-2.648719845553063e-09,-1.55322252795357e-08,0.024946912947122295,-1.4735516591753987e-08,-4.108027686641451e-09,2.4861264075793717e-08,-3.802150840560735e-09,-3.4575125449850752e-09,-6.396322472610878e-09,-4.4336695668919925e-09,3.376416046916355e-08,0.0013505283881700525,5.199133984148226e-09,0.10000000034996051,-4.122767009967491e-09,6.400758412037304e-08,-2.397511396862618e-09,0.09999998915439313,-3.160363717288957e-09,-2.6226790802337785e-09,0.09999993573269786,-3.1426222423710397e-09,4.945679832311497e-08,0.10000000513211021,-2.2380835334443495e-09,0.09999992562371376,-1.5890184160570373e-08,-2.2537386817615585e-09,-1.8433732707583275e-08,2.6638360202473603e-08,0.10000000717288927,2.7951272716691002e-08,-3.503337523150133e-09,-4.3991830632976635e-09,0.09999998474638203,-9.599440410893962e-09,2.7595564862893495e-09,-2.208554557821698e-09,-1.2603037684715615e-07,-3.229062830719817e-09,0.10000004738139745
7,2020-03-23,Simple + Baseline,1.1127986682532757e-08,0.09999978435211819,-1.674540802111498e-08,-1.586320910782501e-08,-9.909550466823358e-07,0.07370100710189069,-3.910214324419903e-08,-2.290927895789394e-08,-2.1194255366805205e-07,-2.181548087326102e-08,-1.4704319645956995e-07,0.09999917628693768,-5.5490833093881605e-08,-2.8134498449613707e-08,-1.048897051782509e-06,-9.354526103677637e-08,1.0980252815673323e-08,-2.3518064958901884e-07,-9.776533187245792e-08,-9.903045125908848e-07,0.02631824186855134,-8.413106207625736e-08,0.09999967865311744,-4.8000416922103174e-08,-1.0714421831428666e-06,-1.606108981450436e-08,0.09999993375988084,-6.932218672623357e-08,-5.0083049801508356e-09,-7.188495657604807e-07,-1.1116144766556242e-08,-1.927212414112812e-06,0.09999962754489232,1.9910025821356075e-08,0.09999905485204295,-9.371298276147163e-07,-6.730050931372237e-07,-6.78270987475136e-07,-9.735352964410304e-07,0.09999918871191109,0.09999950554834691,-9.52085595747827e-08,-7.986483532467455e-08,0.09999807968203507,-2.1211734176776222e-07,-2.9495616475364264e-07,1.533657532815774e-08,-7.907756831532996e-07,-9.010052467575635e-08,-5.360472789934892e-07
7,2020-03-24,Simple + Baseline,1.1392316264349642e-08,0.10000009171704426,3.521832511756481e-09,-1.9719372818354574e-08,7.988360434742692e-08,9.140540501786642e-08,2.4972117891273992e-08,2.009052384303527e-08,-2.2312265602031334e-08,3.699681592682667e-08,3.6289875457370904e-08,0.09999982809974269,2.833369986101998e-08,6.893019647524055e-09,-9.882555430321707e-08,-6.520018227389912e-09,1.3392361146967214e-08,-8.818172840978323e-08,-2.9875187926408985e-08,-2.0671745424298267e-07,0.09217166858242415,1.3277408027451002e-08,0.09999988227458456,-2.27172039238127e-08,-1.621176939996724e-07,-8.846210099198796e-10,0.10000003801865666,1.6100017975005452e-08,1.8423388903111945e-08,-3.7594303881654836e-08,4.1891011954687504e-09,-2.061849153414492e-07,0.09999988186942153,5.852281923890262e-09,0.09999983376604998,-1.2226671761671955e-07,-7.731406118174535e-08,-1.4505817061581543e-07,-9.786852854383055e-08,0.09999977561320132,0.0955713086596092,-8.068513427661318e-09,-2.0029241133528293e-08,0.09999968961008017,-1.4125918864679928e-07,-3.6518775346383995e-08,1.1418903171704563e-08,-6.403054311565069e-08,0.012259221918728356,-2.884612641521604e-08
7,2020-03-25,Simple + Baseline,4.835956921548325e-08,0.09999990772824756,1.4162666145447411e-09,7.796032292299974e-08,1.0921513449994886e-07,-2.683287715001529e-08,-4.6856104088339593e-08,-3.139302377974277e-08,-4.333241700111559e-08,-3.8440888380283876e-08,-7.719207561178001e-09,0.10000012026770341,-3.119029432876645e-08,-2.6395487132650704e-09,5.968244632493549e-08,-3.482704145002332e-08,1.4432651364184596e-08,-3.077682637115309e-08,5.466197756190049e-08,-2.873547640553792e-08,0.09999992477860091,-2.9181204858444738e-08,-1.3847202305250847e-07,1.2240798564017878e-07,0.10000002345848846,1.0730385461542033e-07,0.10000010624397628,5.6858789419118515e-08,5.522165627191951e-08,7.480372219129377e-09,-5.0837310804053566e-09,3.8210770814876986e-08,0.10000007329698357,1.707435145538747e-08,0.09999993166542245,-7.302775260671542e-08,6.335579502760216e-08,1.0248784332251589e-07,1.2831861772108191e-07,0.10000010843148857,0.10000006816378451,5.258068143538027e-08,4.2330458205594626e-08,0.09999994896747258,9.598719983702788e-08,1.0025332001676695e-08,1.7875270883701724e-08,-1.3672954228640517e-07,-7.915445521004475e-07,4.671325392998222e-10
7,2020-03-26,Simple + Baseline,3.1690177786894614e-07,0.0999997792339591,1.1594193811544287e-07,1.7815309952982963e-07,-2.0796278088359936e-06,-4.876152358423751e-08,2.7838939561408096e-07,5.736937690813314e-07,-9.090970989443927e-07,4.958846012330375e-07,-1.3311844231831147e-06,0.09999906729074493,6.225018362272905e-07,2.5760868528721287e-07,-4.790114324527886e-07,8.640709737539621e-08,0.00861600209621719,-4.4497176070806636e-07,4.928796779858488e-07,-1.2465464162397007e-06,0.10000068536271595,-1.5856094810619653e-07,-8.954271291346926e-07,-1.9938048798739213e-07,0.09999888714776331,1.8705836034785077e-07,0.0999999795683373,3.388204301393032e-07,4.6981860505545946e-07,0.011602037022449068,2.550781795884344e-07,-1.239128599261841e-06,0.09999831176679232,5.161244131404946e-07,0.09999764462447686,-1.8879082924920022e-06,2.803215528237852e-07,-7.909292667678918e-07,-4.164806260346145e-07,0.09999604978574003,0.047595319882052324,4.953387078923503e-07,5.062919144154841e-07,0.09999471737290415,-1.48337332497883e-06,3.6017421777519754e-07,6.143925867706732e-07,-1.6222545826759767e-06,0.032209054125275687,2.8262313867304224e-07
7,2020-03-27,Simple + Baseline,1.715255726683344e-07,0.10000044481998913,-2.2765155132183953e-07,-1.6511722699896295e-07,-4.985505942283702e-07,0.05213993985423985,-1.804836689112577e-08,2.7548286707967222e-08,-2.0390101699572823e-07,1.250365498346489e-07,-2.2554949103762823e-07,0.10000005835334523,1.3503736444647513e-07,-4.772768256975467e-08,-1.1223867614334182e-07,-7.149023498781295e-08,7.383563241613288e-08,-4.532612263342992e-07,5.568619339384885e-08,7.659331790029236e-08,0.1000000182898821,-2.7718989622799814e-07,0.10000016502915121,-1.5795100722683154e-07,0.0828382177289976,8.09533121592632e-08,0.10000024430642071,1.854211656073035e-07,2.974253259048523e-07,-1.1708555186957392e-07,-1.14770292862227e-07,2.7369730378712223e-07,1.641606316518238e-07,7.330834595108744e-08,0.10000020843689084,1.22884517849971e-07,-1.0532860769665211e-07,5.414362269570139e-07,3.5255920885640804e-08,0.10000007012012684,0.01982606620606896,4.4883078992415824e-07,1.2615115491376133e-07,0.0999994738139476,2.9972810444447894e-08,2.82133020008778e-08,1.0328551566490951e-07,-2.2956100663647972e-07,0.045194490043371574,4.489248755572243e-07
7,2020-03-30,Simple + Baseline,-2.639177627515898e-08,0.09999973186948007,1.7561279770267372e-09,2.576376159657072e-08,4.586884274600327e-08,1.6115762548724258e-07,-4.213693233858997e-08,-1.4232757815166151e-08,-6.770965575960085e-08,-9.062794300129636e-08,-3.3966345368674295e-08,0.09999994509099835,-6.037892824754348e-08,-3.665510921924919e-08,3.3527612703449206e-08,2.3299554603763824e-08,-3.063463499283747e-08,-1.325675289521299e-08,-4.5791193271083324e-09,-3.728162298560715e-08,0.09999995476826253,1.74496581588268e-08,0.10000003902796295,3.631345501065234e-08,0.09731411816130371,-5.989353244448543e-09,0.09999994232232598,-1.1693291479183317e-07,-5.5872188484981756e-08,5.050509201613416e-08,2.390959328303905e-08,-1.1529119129594107e-07,0.01051793726960084,-3.7488632949182e-08,0.09999963298419136,-2.0982291444939226e-08,8.392204165466651e-09,-8.320997413259703e-08,2.8832904280918745e-08,0.09999916583712605,5.3164050708193674e-08,-4.9097071097921296e-08,-2.377959795128806e-08,0.09999954540686315,-2.471029834445899e-08,2.477675190559362e-08,-2.1062014969369275e-08,-8.296565972054802e-08,0.09217056511146765,-1.6150696522270717e-08
7,2020-03-31,Simple + Baseline,1.0170051445510264e-07,0.09999836531222431,-6.841812008584696e-07,-2.2181315767160193e-07,2.219031153839813e-06,-2.6260007747110308e-06,-1.2949844226058974e-06,-1.1074075970141852e-06,-1.5269824554851228e-06,-1.1596362636896572e-06,1.5828580078868117e-06,0.024131320707860816,0.06751425738460488,-1.573991834177041e-06,5.054357920335127e-07,5.56216269666107e-08,-8.900492226609816e-07,-1.3434251193008253e-06,-1.424221728252986e-06,-2.3820062076000208e-06,0.09999825171656139,-1.0306093693849771e-07,0.0999967755495795,-1.8241714477204362e-07,0.09999653557317782,-5.96364505484299e-08,0.09999833552212292,-1.183089779557358e-06,-2.8286632944898423e-07,-3.89576098879932e-08,-1.8955478269563032e-07,1.5223953490621003e-07,0.09999761590771519,-7.23097994021137e-07,0.09999878991854746,-2.008059393179813e-08,-8.18259075043955e-07,-1.064304377418185e-06,-4.3123471534043893e-07,0.0999937871621852,0.00840258828205585,-3.0114573386665844e-07,-1.6853692836292329e-06,0.09999702411789038,-1.317189639988237e-06,-3.236092784031725e-07,-4.753360154723453e-07,-9.337969191092787e-07,-5.489476170423355e-07,-1.334230531518741e-06
7,2020-04-01,Simple + Baseline,-5.911160487546693e-07,0.09999888181550937,-2.1973105063448935e-07,-4.3180070428111007e-07,-1.7290506196904477e-06,0.09999868437946431,-3.38546726297707e-08,2.692780225123126e-07,-8.197120498471344e-07,-4.819488341095437e-09,-1.3856824544360953e-06,0.099998207779038,3.399492427146772e-07,-3.276955904645985e-07,-6.340247482723925e-07,2.5036744185123213e-07,1.4940938892445985e-07,-3.062772605481853e-07,4.2401765350057005e-08,0.014363666810786858,0.012055980995293003,-2.171577385335171e-07,0.09999907374157084,-1.17567885157343e-06,0.0999988718029062,-9.207770795878922e-07,0.09999863252280737,-1.059019750745731e-06,-5.150358146176235e-07,2.979825391767227e-07,1.4374753274235325e-07,-1.0886244869742263e-06,1.6244796781895093e-07,4.720920945430197e-08,0.09999745625395896,-8.912502462981448e-07,7.845740003202186e-08,-1.5676413636838074e-06,-1.0712637529376683e-06,0.09999460898656515,6.376471968413798e-08,-2.464768638799502e-07,-1.5095265368477442e-07,0.09999557884730481,-6.639624443013727e-07,4.3629077129127863e-07,2.484802863597972e-07,-8.012914491378116e-08,-8.823719677685546e-07,0.07361486083906123
7,2020-04-02,Simple + Baseline,-5.383055413871693e-08,0.09999969211131866,1.2745219651977068e-08,-3.1791992420965755e-08,-7.06465730465091e-07,0.09999967415131684,1.0901907527993508e-07,1.5515703696326134e-07,-5.543942916056516e-08,1.0709958007927001e-07,-3.86499168073963e-07,0.09999946829545989,0.04898133981328404,9.5478229523302e-08,-2.7661670283970045e-07,-1.8617455016354618e-08,1.0428697638098502e-07,-9.085559532576206e-08,1.0034937450269543e-07,0.014362563369633121,1.475948602328257e-07,-1.2264077901929722e-07,0.0999997534329225,-1.453475260041655e-07,0.09999973502496999,-8.63862620995065e-08,0.10000004058958593,-1.4500986034634115e-07,1.6698606518248628e-08,-4.4838010298021075e-08,6.535848792590531e-09,-5.045306627762951e-07,0.03666605163001701,8.670298621638687e-08,0.09999873871711193,-5.540018090936633e-07,-8.942315578304608e-08,-4.930055509187717e-07,-3.2975891362908246e-07,0.09999831913671085,2.23067980518106e-08,-6.150400351609226e-08,8.188975006572857e-08,0.09999792725601392,2.1043258723733606e-07,-6.82673169509991e-08,9.913802930136036e-08,-1.9231656858656514e-07,-7.601312323043307e-08,-1.2328107382269335e-07
7,2020-04-03,Simple + Baseline,-2.115899285235028e-07,-2.9244604860589644e-07,-1.7485902157571386e-07,-2.755232583086654e-07,-1.1107775011991618e-06,0.09999927435271254,2.336363902414237e-08,3.381697125614339e-08,-3.1089994337290553e-07,9.431297312235203e-09,-9.116698152402254e-07,0.09999879485673008,0.05004364481151385,-1.4324478480258338e-07,-5.255344493302106e-07,6.824319609832673e-08,1.1110352605259405e-07,-3.42810099366723e-07,2.9942395590362523e-08,-1.0870458387144425e-07,7.674079068390538e-08,-1.3814334362502817e-07,0.08571609216545624,-7.417061545593419e-07,0.09999939201256787,-5.118449384962926e-07,0.09999928072045422,-6.561905484664636e-07,-2.0754373771373174e-07,4.9027786011125644e-08,3.400864205318371e-08,-7.012058328427322e-07,0.06782584325721183,7.104567344391475e-08,0.09999847727754367,-4.615909211253155e-07,-6.622233577729107e-08,-9.013902014267675e-07,-5.286698662186383e-07,0.09999778409944386,2.728952912479204e-08,-9.861972899325045e-08,2.8478578233313913e-08,0.09999726800115813,-1.4125086146525926e-07,2.0988926127071454e-07,1.4740653835434748e-07,-9.699434037255923e-08,-4.2036631074967594e-07,0.09643332010963199
7,2020-04-06,Simple + Baseline,-1.4521507523285645e-07,-1.2914917411480383e-06,-1.2484113860159107e-07,-5.969256728204692e-08,-2.17484253304711e-06,0.09999828744740125,1.7255830756305082e-08,-2.0898698864354128e-07,-4.6566119752499276e-08,-5.72381910148088e-08,-2.2841630429898635e-06,0.09999755944860535,0.06829864843103213,2.659331538422083e-07,-1.5062225644427663e-06,-1.6415896820196545e-07,3.7376182742444015e-07,-5.007502995488977e-07,2.607255297845414e-07,-1.5544120976477727e-06,3.9154399476939984e-07,-7.08910627007679e-07,0.09546307133782542,-9.251387137576136e-07,0.09999782760672818,-7.034675490717067e-07,0.09999927838613568,-1.3719131722168375e-06,7.721139987552644e-09,-5.679133970382864e-07,-5.177185703837408e-07,-2.0136899958792186e-06,0.03628495407289763,5.246452380226406e-07,0.09999394817213729,-2.296255910538014e-06,-7.763907721609504e-07,-1.3142442496489212e-06,-1.706464360525303e-06,0.09999749321138743,-1.8687571888346425e-07,-4.942594667988709e-07,2.479584883266611e-07,0.09999176562512697,1.1792001610136649e-06,-4.481854083485398e-07,1.3937209666114062e-07,-4.4215785183618984e-07,-4.6674472748263604e-07,0.09999884278281163
7,2020-04-07,Simple + Baseline,1.3389182271794197e-06,3.9726883935431037e-07,-2.2797671848604726e-07,-2.244809522359473e-07,-3.987284276790836e-06,0.09276306026811576,6.391054341394897e-07,9.664899673824408e-07,-3.357270273083723e-08,1.260239540985802e-06,-1.527924795218449e-06,0.10000005364111793,0.10000251569225044,1.7111719310737096e-06,-1.86091833337658e-06,-1.1216543779505245e-06,1.4624637040441014e-06,-1.5399614302436413e-06,1.1482182806087225e-06,-9.137609419839912e-08,1.4089059993368275e-06,-1.9558253807105896e-06,0.03898302519731589,4.172270203782499e-07,0.0999980770881146,1.2548614534756713e-06,0.1000035760602821,1.5275419995829376e-06,2.152443654974409e-06,-1.7394905876421084e-06,-6.86581391663008e-07,-1.6325102678451255e-06,7.561667979737795e-07,1.7464527451843782e-06,0.09999570687437945,-2.202719744915921e-06,-1.0402085746900811e-06,1.0299927445558574e-06,-1.2495818031815272e-06,0.1000052347667801,-3.353054903968308e-07,1.2501275342868308e-06,1.5645507089242296e-06,0.09999523295123444,2.027176407101224e-06,-1.0919833434328278e-06,1.1528570161928388e-06,-2.3807415136830877e-06,0.09999990790423498,0.0682533375028699
7,2020-04-08,Simple + Baseline,8.989280642138054e-08,3.582464384318981e-07,3.040077635808448e-08,-2.7053235543088756e-08,-2.0809663024288535e-08,0.06946895276621246,2.3620843111347504e-07,1.3580633984575936e-07,3.534605882427543e-07,2.0847807037661632e-07,-2.55343598563182e-08,0.10000131206562081,0.10000066210354293,4.710137902421793e-07,1.889300534443114e-07,-4.583057489907827e-08,-2.9547173720015515e-08,2.447096165658281e-07,3.8375195596344347e-07,1.5000770904066238e-06,3.276100302159627e-08,-1.9714928661986384e-07,0.03898874604727591,1.7833113519027142e-07,0.10000031197312473,2.1980680265757026e-07,0.10000070865889,6.035478304089958e-07,2.6854494483299315e-07,-5.342678506914768e-10,-6.265691303177765e-08,2.4092884075709356e-07,1.143637925004465e-06,3.591269314808936e-08,0.10000015013395137,4.4022457966473006e-07,2.7701841485055734e-07,1.1330272810172259e-06,3.3333785647551064e-07,0.10000295768162189,0.023266796666833064,3.9450859814979407e-07,5.436902772279782e-07,0.10000065639042026,1.12294148839138e-06,1.6089318119582627e-07,4.2324827157840644e-08,2.582947552824681e-07,0.10000017165303429,0.06825734187239485
7,2020-04-09,Simple + Baseline,-9.220669879887705e-07,3.241700032592041e-06,-3.336065557235906e-07,-2.2291994153112137e-06,7.83738227347338e-06,0.10000465577646508,-2.1998651391995798e-06,-1.989019726049895e-06,1.4638117580779064e-06,-2.0787432991927417e-06,1.6617392185721772e-06,0.0742729483503054,0.0999970580062652,-1.2629053019147681e-06,1.2635243640676215e-06,-3.0225361727801187e-07,-1.6540144767938685e-06,2.3172523022337614e-06,-1.00612627294087e-06,7.399070269106583e-06,-2.2489971948640204e-06,4.493796197275715e-07,4.873004379898199e-06,-9.598339347091016e-07,0.10000476270904217,-8.000263586557266e-07,0.09999786930528005,1.5749854009635973e-06,-1.8384780935176416e-06,-6.547697105284557e-07,-1.146814143580573e-06,3.7765748557746624e-06,0.09390694106402561,-1.7439019167938807e-06,0.10001552936011038,8.738031353742743e-06,-2.392791513646936e-07,6.257703897637917e-06,0.022735796501934667,0.10000944775687325,0.009003745442334793,6.233702684441824e-07,-1.8468173366894675e-06,0.1000193211475554,8.652308421579876e-07,5.711812691805077e-07,-1.7579043512493628e-06,2.86334975764627e-06,0.09999847151921126,4.778064572031722e-06
7,2020-04-13,Simple + Baseline,-1.0108955825059638e-07,1.1512959775904418e-07,-2.454346892870906e-07,-2.0309545263483974e-07,1.2900840098096075e-06,-6.944146191862087e-07,-3.502966162722018e-07,0.10000008344936269,9.751580379628856e-09,-3.192034995629199e-07,-2.0147283103658915e-08,0.09999981436172083,0.02784344821861283,-4.84537333258815e-07,2.586090834260355e-07,-1.4354560672660164e-08,-1.4766733882523906e-07,-5.35610919719412e-07,-1.564025178218847e-07,-2.8231157295330475e-07,-2.3811241640644268e-07,-7.648856727156613e-08,8.969448690897908e-07,0.07220197281823908,0.09999966731635589,-1.5608336920392924e-07,0.09999939874357748,-5.883449849103822e-07,-2.832712915208395e-07,1.6683671608912748e-07,-8.566775089973536e-09,8.614604933502286e-07,0.06937403291603587,-1.8057736261035863e-07,0.1000044814385063,1.8193553903754334e-06,4.7055145158837984e-08,1.1352087436946433e-06,0.019298865812799187,0.09999899184246716,8.543858371621563e-08,3.12795496258187e-08,-3.7222485856647295e-07,0.0999994546173317,1.9118499202696087e-07,2.3468029837954864e-07,-3.3439922372719425e-11,3.12770602485974e-07,0.09999996781462935,0.011277829099926575
7,2020-04-14,Simple + Baseline,1.0367876232580332e-06,9.055988768129325e-08,5.85691919847423e-07,5.1034544905115e-07,-3.1227661782828996e-06,0.03239256704549562,2.1593720559875953e-07,0.10000085606834089,-1.85038523077441e-06,4.1908151883959025e-07,-1.0767499682181457e-06,0.0999952766254556,1.0122423080748736e-07,-6.87770769309687e-07,-6.74909027577677e-07,6.921565267945294e-07,1.0858159362401138e-06,-2.5607719617213963e-06,-3.2585290967947356e-07,-8.01576286018059e-06,1.0888385044789446e-06,9.298272322231993e-07,-3.553561533573049e-06,0.032015095894671254,0.0999990596344542,9.63863044543366e-07,0.09999890726307552,-1.5127539209359865e-06,2.200717678868418e-07,8.298106095033799e-07,1.4887351586442398e-06,-1.680016722265979e-08,-4.868742662996752e-06,2.9024872205450294e-07,0.09999197676057094,-2.426749183268588e-06,-3.066368762246917e-07,-3.320340798200293e-06,0.041016025059794764,0.09998942585276584,9.588260983419873e-07,-4.2339920063896476e-07,-1.4323141278343242e-06,0.09998410999890217,-3.1384256543628757e-06,2.626232959492159e-07,1.20565297969766e-06,-3.761734454624104e-06,0.1000004988768773,0.09464635900899372
7,2020-04-15,Simple + Baseline,2.7363583365988796e-06,4.953364067141394e-06,2.2272105794457676e-06,8.253322370483563e-07,-8.331496631831776e-06,0.08733854400650053,1.92488631330481e-06,0.014699929491869143,-1.7700475182275768e-06,2.7072153648641455e-06,-2.5614395377638824e-07,0.09999683007243175,1.8989702537996422e-06,1.4903991206227146e-06,-2.5333042497153456e-06,6.359658954347223e-07,2.604078886431357e-06,-2.788325521982685e-06,-8.256133316842786e-07,-1.074057703326869e-05,3.4216195051785612e-06,1.4420719869391998e-06,-5.385842446222068e-06,0.09800990389813646,0.0999996299817393,2.9171526759861756e-06,0.10000231743426818,2.422369667616024e-06,2.365051035585113e-06,-1.140056632887963e-06,1.699596555143227e-06,-5.516038833338513e-07,-8.03902203665624e-06,2.2019573128642595e-06,0.09999372751446306,-2.9151105597879292e-06,-1.5244777818547225e-06,-3.184635768553493e-06,-5.675502341240189e-07,0.0999951516862217,-5.0048182877627305e-08,2.751107649949523e-07,-6.559567965873527e-07,0.09998715654180942,-6.257262608459437e-06,-1.3473711041913975e-06,1.8803020772146155e-06,-5.895723756240566e-06,0.1000001563320865,0.1000008138241155
7,2020-04-16,Simple + Baseline,-6.866533515826867e-07,-7.681435849246555e-07,-7.641168825468078e-07,-2.748360664697257e-07,-1.6657198460054422e-06,0.09999649465353613,-1.195301037775026e-06,-1.3330292038486003e-06,-1.7365762263430324e-06,-1.0722247010363299e-06,-1.7164601898359852e-06,0.09999526434926206,-1.1696600796825941e-06,-1.0657252878202438e-06,-1.0813693260102117e-06,-5.822921449032069e-07,-3.9358050520620936e-07,-1.1288378023296203e-06,-6.194517782145955e-07,-5.112401148529056e-06,-4.876029824414347e-07,-7.303723946523017e-07,8.398340486214431e-05,0.09999805892757736,0.09999708998920293,-1.3297280512341088e-06,0.09999843232020411,-1.5026880210184523e-06,-8.703732984585305e-07,-5.922001714237608e-07,-9.871013243896732e-07,-1.8675837427271623e-06,-1.8692056360903574e-06,-2.768201326673424e-07,0.09999455360200507,-1.6651661746833964e-06,-6.841357125042203e-07,-2.195484134957895e-06,-1.6377287917103472e-06,0.09999216328976565,-2.450086747335143e-07,-7.453371899398617e-07,-7.768371358420208e-07,0.09999098009998961,-9.877688345814188e-07,-6.049821743164615e-07,-5.906827485394106e-07,-1.0350906652105876e-06,0.09999941835269718,0.09999763392745191
7,2020-04-17,Simple + Baseline,-3.8928948419824675e-08,-8.135540117874223e-08,-5.0678686015737514e-08,-9.553600808839532e-09,-2.7955058626571973e-07,0.09999923425735902,-1.1789797803068157e-07,0.0056882328069192,-2.793230565223417e-07,-8.607340969415543e-08,-1.9605616599440245e-07,0.09999849743519307,-1.2035870083258074e-07,-1.2265836333713614e-07,-1.2401701239234572e-07,-4.6145567276089614e-08,-8.625050434355942e-09,-1.4993419862441445e-07,-6.189269950274722e-08,-1.575365226167558e-06,-1.7933250305940908e-08,-3.4657950572523164e-08,6.552378305066405e-08,0.07694512213655073,0.09999946009372102,-1.2221666655290864e-07,0.09999983354128668,-2.4979483498372154e-07,-6.729251060000646e-08,-3.1736696573056624e-08,-5.906917749693632e-08,-3.510868282212201e-07,-2.7955428032082395e-07,-4.399443735642493e-09,0.09999817721513071,-3.3086471838532074e-07,-5.145051011016265e-08,-5.118026728529852e-07,0.017384013771595888,0.09999738047470819,-3.1995617740445545e-09,-8.780255554013035e-08,-9.3397834918486e-08,0.09999638982474235,-9.89942963132748e-08,-5.253522142747005e-08,-1.6225173361648324e-08,-1.5300124217285683e-07,0.0999999810887105,0.09999957668186636
7,2020-04-20,Simple + Baseline,3.4791733957206016e-07,0.10000003800435736,1.3323657043492055e-07,-3.526935237304726e-08,-1.9118317333884674e-06,0.02904977165177385,5.833392376343673e-09,8.054436077289337e-10,-9.699821227551082e-07,3.0962164040416506e-07,-6.964092134246967e-07,0.09999698246346343,4.9715270278628655e-09,-3.678515568640136e-07,-6.972445947808294e-07,1.428787765480954e-07,4.4460275684699233e-07,-1.143030997987436e-06,-1.839894579679391e-07,-3.489913235496704e-06,4.0181859503341303e-07,9.533704574302277e-08,-1.440779469064687e-06,0.09999915820080817,0.09999893087172163,2.0357118229129134e-07,0.09999923856291845,-4.962136126988718e-07,1.2293981796315268e-07,3.273457489154728e-08,3.51123818422687e-07,-4.773112685350211e-07,-1.9791041461937595e-06,3.5653174523495546e-07,0.09999654985635885,-9.1487552034957e-07,-3.498317180253489e-07,-1.230049031033245e-06,-7.349653002735618e-07,0.09999538102345672,0.0032383900767251122,5.128282216684532e-09,-4.771389962918353e-07,0.099994390070551,-1.2898036695979358e-06,-3.0832321274206966e-08,5.03245376280629e-07,-1.5027369189136355e-06,0.09999976488655095,0.067748385518466
7,2020-04-21,Simple + Baseline,6.127977375314298e-07,1.316116668503051e-07,4.215295937318864e-07,2.6991679934941116e-07,-3.057658255030939e-06,0.0946820639237109,9.865262312919825e-08,-4.5976782957695974e-08,-1.477799486543344e-06,4.851682389391098e-07,-5.775740038130852e-07,0.09999519103842687,3.1836373933798044e-08,-4.4385641695878627e-08,-1.2275650691257775e-06,-6.63066395113918e-08,7.328771440160867e-07,-1.501456493972552e-06,-5.941992458808539e-07,-5.634628665866072e-06,8.01447914255333e-07,2.8619334209486504e-07,-3.0176885452647742e-06,0.09999946948817984,0.09999818131316422,4.1856807083802577e-07,0.09999975201943055,-4.852825022896547e-07,3.7844707497129366e-07,-3.8030698095128184e-07,3.6113467420584305e-07,-1.4041233455546373e-06,-3.463108009872394e-06,6.291979657785881e-07,0.09999479257498277,-2.718816836962752e-06,-1.0100565817291607e-06,-2.559760013182719e-06,0.09999858821069013,0.09999383666486579,0.005379677587915969,-4.931064720254889e-07,-8.567829116819877e-07,0.09999036231185757,-2.357999277085705e-06,-9.580703813197236e-07,4.87585529406024e-07,-2.695950444118067e-06,0.09999981662532892,-1.2189549226552527e-06
7,2020-04-22,Simple + Baseline,5.188184691056723e-08,4.595096142506227e-08,3.0258476633525546e-08,-9.87144282088245e-10,-6.668478189717983e-07,0.09468176601763667,-8.779263152715795e-09,0.019869675401569285,-3.978165319993925e-07,5.1480275513598064e-08,-1.0675219854220705e-07,0.09999819422508041,-1.7170683662393162e-08,-6.973900677650449e-08,-1.8601988987912532e-07,-1.554203525467492e-08,2.696610030649466e-08,-3.5066114164149246e-07,-1.4514557383499175e-07,-2.042817554815579e-06,5.625046716477791e-08,3.781547046093326e-08,-7.887820400068493e-07,0.09999988331595808,0.09999957607305165,4.1564792387564056e-08,0.09999987366366754,-1.6966017050751356e-07,1.422938762407833e-08,5.0513352246585884e-09,6.306908447429039e-08,-3.0173466911151415e-07,-7.570835685899724e-07,1.12987936005986e-08,0.09999813260886319,-6.482395725425906e-07,-1.1169005654070121e-07,-7.73033554484852e-07,0.04325701562413762,0.09999762295421068,0.014152686636228325,-1.2789147982423363e-07,-2.0836638810114897e-07,0.09999581866302773,-4.6632035337602394e-07,-1.1981059093405482e-07,3.8224632363444574e-08,-6.429831617486878e-07,0.10000000185489799,0.02805840424506907
7,2020-04-23,Simple + Baseline,-3.0554923081160245e-09,1.6016688914840493e-08,-8.124967452137703e-10,-1.291244775106202e-08,-1.352747036074262e-07,0.051333132827613724,-9.184260336976289e-09,0.05638594132570351,-8.783007868992373e-08,3.1867928994878648e-09,-1.765675252626689e-08,0.09999937958159633,-6.139695048887355e-09,-2.6167189779611536e-08,-3.829516374430175e-08,-1.9950219713591873e-08,-9.720470899578467e-09,-7.849993694177857e-08,-4.8780430970926354e-08,-7.037400917483389e-07,4.024271751307598e-09,-4.755973574610275e-09,-1.688682433863436e-07,0.09999999064158999,0.09999990863055198,-2.605687774946884e-09,0.09999998670725321,-3.957373663752987e-08,-8.504880678165038e-09,-8.759431633186492e-09,-1.14173568784758e-09,-7.719073533269538e-08,-1.3859250122628016e-07,-4.446533149239341e-09,0.09999937486931405,-1.4671795493149062e-07,-2.176719276858636e-08,-2.149213700447794e-07,0.07813470166224339,0.0999992243322561,0.014152124941522464,-5.102786224164135e-08,-4.578911167379531e-08,0.09999858522278661,-8.859333698649067e-08,-3.02997961486887e-08,-8.180219185583997e-09,-1.463307599267316e-07,0.10000000202566445,2.981735438936075e-08
7,2020-04-24,Simple + Baseline,-1.239193941148381e-07,-4.1132031776049783e-07,-1.6678617963926528e-07,1.6040349013273233e-08,-7.292491287230477e-08,0.05133846141115796,-1.632645108110484e-07,0.03387596858887948,-1.4194327637779598e-07,-2.226159957189839e-07,-1.2696592047945088e-07,0.09999932115853195,-1.9374214524253868e-07,-4.060518884283239e-08,-7.091824692793148e-08,-1.8667949239064806e-07,-1.1796430216878494e-07,1.11997469139695e-07,4.706960753413717e-08,-2.363862105300655e-07,-2.4456096492642224e-07,-2.1225260877483524e-07,0.03776843671654832,0.09999978379745429,0.09999952529176585,-1.390341432068115e-07,0.09999986145762171,-1.6521962009955283e-07,-1.0664365139543012e-07,-1.5373438106997183e-07,-2.6095744688546254e-07,-3.3379054223514686e-07,1.9632316458234046e-07,-2.3289981946794595e-08,0.09999915237757193,-3.1302413396829984e-07,-7.283498249792955e-09,-1.4639751422662022e-07,0.02007122491453119,0.09999920006663608,0.061232452693117986,2.7707289164268204e-08,1.1206916571940465e-09,0.09999905394143724,3.491014382167412e-07,-1.1940395507424482e-07,-1.1029208277120105e-07,6.050783362268413e-08,0.0957218017185667,-4.3966639634173663e-07
7,2020-04-27,Simple + Baseline,-9.063717688421244e-08,-1.0415528146016783e-06,-9.554395334962963e-08,1.3980219970680644e-07,-5.587705069765757e-07,0.09999843763500783,-2.129625505450922e-07,0.0021176824104208436,-2.5671413027062457e-07,-3.1681369420660875e-07,-9.700325340583151e-07,0.09999771284530053,-4.929095260737463e-08,-1.2014601249977288e-07,-1.5030721102282994e-07,-8.87417729641074e-08,5.536148365496094e-08,4.716861244392153e-08,3.461485037928676e-08,-1.1619115327578308e-06,-1.199234391353146e-07,-2.673620908674557e-07,0.04282544270301962,0.09999932399491067,0.09999884570043764,-5.139252801273433e-07,0.09999930554285676,-1.098728262986271e-06,-2.3183206695642528e-07,-5.631677002248624e-08,-1.7286491625286522e-07,-7.278793808877361e-07,-1.1569520065492393e-07,7.490610553600181e-08,0.0999967301507848,-1.4387340545467299e-06,-3.0553903132151396e-07,-7.448043418258116e-07,0.020068439795367998,0.0999962998791862,0.07002887525750798,-1.7489095239849585e-07,3.027121194125451e-08,0.09999776976858674,3.508622751192535e-08,-5.465082076439671e-08,-1.4648385477509468e-07,-1.7941555097991543e-07,0.06498703264431681,-8.409838225498041e-07
7,2020-04-28,Simple + Baseline,7.532278208184645e-08,-2.0059840074453806e-06,1.125743913817736e-08,-3.624813507138101e-07,-2.980112000165722e-06,0.06820992503629399,-1.0169053292713879e-07,0.009627599376822364,-5.86283818744086e-07,-2.687970537018901e-07,-2.3678744524406904e-06,0.09999580970405454,4.2583805536938534e-07,-4.2750323982084723e-08,-1.84857159249642e-06,8.041900177196002e-07,1.1060889724069154e-06,-1.6244683088907666e-06,1.2999038390117116e-06,-3.589838088848688e-06,8.719951736820645e-07,-7.929109470809152e-07,0.04970637053483081,0.09999884033678486,0.09999825052230571,-2.3403111186509663e-07,0.09999797893205047,-2.8846630917883655e-06,-2.9646096722351676e-07,-9.9947101491628e-08,4.390491800973255e-07,-1.8726416410599765e-06,-2.3303973390583474e-06,8.212006593455573e-07,0.09998643023560741,-3.0973570627442833e-06,-1.9642034025982298e-06,-1.7146925599291522e-06,-3.1527814843879397e-06,0.09999576764689871,0.05247978573436941,-6.455319493136418e-07,-2.2633056343788387e-07,0.09998996165678184,4.549783986237897e-07,-4.1622307918318713e-07,0.020045455040618644,-1.687481946467456e-06,0.09999907050982479,-3.2926291322077507e-07
7,2020-04-29,Simple + Baseline,1.0257946771749619e-09,-3.0950127179499973e-07,-3.085483334043029e-10,-4.686869519758257e-08,-6.75921268303537e-07,0.06098955502703133,-2.1994077705525055e-08,0.012011586153357132,-1.4934025265749773e-07,-3.637654845337411e-08,-2.528496440159713e-07,0.09999835560263873,7.118604035012901e-08,-1.7065299418011465e-08,-3.36739681753583e-07,1.145696893608073e-07,7.589939191323254e-08,-3.410227412504971e-07,2.2403115997804986e-07,-1.3312945911436687e-06,8.292346802788648e-08,-7.575083404066194e-08,0.0568922498806247,0.09999981348908002,0.09999956361255485,-3.994859788093179e-08,0.09999967043312254,-6.347010899097486e-07,-4.6976641629485835e-08,-1.3543283051502977e-08,4.356083455621416e-08,-4.950872405760909e-07,-5.193060355912084e-07,5.812548473333784e-08,0.09999466615824353,-8.63309550165749e-07,-2.867468780209889e-07,-5.159406162646675e-07,-6.584801519487078e-07,0.09999839496980188,0.04097731858671255,-1.4148503341964417e-07,-6.039888112094851e-08,0.09999626531383113,3.9180575457916565e-08,-7.48450998903533e-08,0.0291503178748189,-4.008923411039491e-07,0.09999993056709794,-5.109237396344651e-08
7,2020-04-30,Simple + Baseline,-4.396549168363543e-09,-4.51497773043334e-08,-1.531888583825519e-08,3.166145627654069e-08,-8.885944847814484e-08,0.04171022561318636,-3.636186327658887e-08,0.04712000650538588,-9.002456885413727e-08,-4.4165020224463935e-08,-3.425971754086123e-08,0.09999930331573649,-6.934045812231344e-08,-6.9100368044794755e-09,-3.981565586093447e-08,-5.6981407353572695e-08,-3.791256422815825e-08,-6.153719398438023e-08,-4.6153234483746344e-08,-6.101870371580227e-07,-1.8688402918452847e-08,-1.0607155242442626e-08,0.056892212456827705,0.10000001934734948,0.09999982953961396,-3.1026041912384225e-08,0.09999999160226494,-1.0243512414969086e-07,-2.3713719364076135e-09,-7.23928485650578e-08,-6.30412894547277e-08,-1.9009901355073278e-07,-7.162899109266924e-08,-4.17098506545422e-09,0.09999787830606334,-2.9501043059119656e-07,-1.0957569235670238e-08,-2.238809751505971e-07,-1.502616157316482e-07,0.09999929088718378,0.035346766231322074,-4.976280968596177e-08,-1.357268037019305e-08,0.0999985368580032,-1.1619538155128695e-08,-7.747889837136498e-08,0.03383989106288057,-6.154083995736091e-08,0.08509890743805859,-1.4234517591903344e-07
7,2020-05-01,Simple + Baseline,2.6003194251086437e-08,7.744365109589704e-08,3.889235640248154e-08,2.9631766211758725e-08,8.740004354009498e-08,0.05960385297214455,4.9359031837536264e-08,0.023553064880652008,7.393113679297284e-08,4.4469300886768125e-08,5.255920836532745e-08,0.09999994529747634,3.153601374201542e-08,6.215976255322653e-08,6.279765336483798e-08,3.158949354794682e-08,-7.625120538418545e-10,6.38048732926062e-08,3.3259244445776174e-08,-5.888259873916457e-08,2.2914129184975185e-08,3.524172481538411e-08,0.09932847953043088,0.10000009180955104,0.10000008955575031,3.6881647243533436e-08,0.1000000980713925,1.1128748800311834e-07,4.8550929833763855e-08,8.971657727511874e-09,1.548561205428959e-08,6.221481278161938e-08,6.61952462402113e-08,1.378577975744718e-08,0.09999940655198812,5.167604574426611e-08,6.99257947100571e-08,5.4058322021083785e-08,4.535650291968899e-08,0.09999997438716568,0.03888380031888232,5.7087812750609e-08,7.00952913943655e-08,0.09999964840265192,5.263518142047938e-08,3.9139692316868997e-08,0.02304413801618664,8.855201191344296e-08,0.05558572053618278,3.300268811615005e-08
7,2020-05-04,Simple + Baseline,-1.4851381299021953e-07,-1.436454606798328e-07,-2.2863640063553158e-07,-1.0852598133206238e-07,-4.266412831582209e-07,0.0595993340521583,-2.9789403543544503e-07,0.023555937101472333,-3.786694896994427e-07,-2.4068388480795907e-07,-2.2032553598276774e-07,0.0999993336870305,-2.264515160080854e-07,-3.408516826225698e-07,-1.8843251805096005e-07,-2.7058388427679167e-07,-3.748195026723011e-09,-3.212610539860982e-07,-2.7656406773929863e-07,-6.243263058573858e-07,-9.472684210523737e-08,-3.6306304282410187e-08,0.09458774904382238,0.09999972275974878,0.09999950048453893,-2.2257345952648094e-07,0.09999970383714075,-3.860130403204926e-07,-2.1249407636901163e-07,-9.706210793733726e-08,-1.1552792442068612e-07,-2.3933490795269626e-07,-3.999878196976396e-07,-1.1528602991215681e-07,0.09277336004587493,-3.4156445149738934e-07,-2.267544513252227e-07,-2.4437777895607707e-07,-2.440065596468036e-07,0.09999910339765745,0.03846513260956281,-2.40090259276746e-07,-3.181955449011026e-07,0.09999934473463204,-3.496053506339237e-07,-1.774200304903154e-07,0.02185848441165987,-3.817497135463948e-07,0.06917226507950548,-7.85187335170144e-08
7,2020-05-05,Simple + Baseline,-1.827552945970428e-07,-7.428231720688459e-07,-3.53273704537116e-07,-2.1297432859424082e-07,-1.1817675127285603e-06,0.04072793460991686,-2.629194512112624e-07,0.02018224835580923,-7.580004093646004e-07,-1.9562262939047905e-07,-8.213144333791922e-08,0.09999739733014175,-2.873344231610801e-07,-5.758202059912063e-07,-5.229985966970868e-07,-2.99631604284227e-07,4.020616111652212e-08,-6.455982222283544e-07,-2.819170686100956e-07,-1.315884638018059e-06,-1.5363093412522073e-07,-2.791254776533462e-07,0.09999789367040456,0.09999923950972348,0.09999853506367863,-2.5994020765402007e-07,0.0999991316872997,-9.945308599017026e-07,-2.3607313580887164e-07,-4.9654096269206076e-08,1.6409276845422046e-08,-1.2539065456991546e-06,-7.811295000743748e-07,-8.659515964715086e-08,0.09276710729163555,-1.3585912752805498e-06,-4.971272352459285e-07,-1.162753265812067e-06,-6.589497216421405e-07,0.09999745493886643,0.03715232227536438,-4.704163349285649e-07,-6.223665728024114e-07,0.09999792071606307,-4.566219377566768e-07,-4.521328826386091e-07,0.02661145144203161,-1.0265411919846223e-06,0.08259041744933687,-3.947056836391379e-07
7,2020-05-06,Simple + Baseline,-2.2720256907180674e-07,-7.299237569092655e-07,-3.149309743920574e-07,-1.8156395560082225e-07,-1.2681745204150083e-06,0.09999843776595917,-3.410281454845494e-07,0.02254773209911276,-8.697688291401142e-07,-2.501949875576755e-07,-2.055503560519693e-07,0.0999967731906167,-4.2022554021560527e-07,-5.573347950848537e-07,-6.318410845105424e-07,-4.957481521134408e-07,-1.8852673205664475e-08,-7.750315849396036e-07,-5.097180085705877e-07,-2.301780046001198e-06,-9.778254667765423e-08,-2.645626312510346e-07,0.09999810338519807,0.09999951324935948,0.09999850401726654,-3.8247651420976467e-07,-3.233916842138544e-07,-9.135492044158414e-07,-2.6170935325575367e-07,-2.9404986959635976e-07,-1.2280898717647635e-07,-1.5458588067681064e-06,-9.0715806509438e-07,-5.7380994861164144e-08,0.09999637157292171,-1.8830624297137436e-06,-5.391479862182241e-07,-1.5585544767466087e-06,-9.042977953090561e-07,0.09999677576078048,0.034849600316295096,-7.342925933076839e-07,-7.265965716604874e-07,0.09999718596189645,-5.209744757076101e-07,-6.832856034294439e-07,0.04264598981712239,-1.2005136437476379e-06,0.09999976982043204,-7.228319445853731e-07
7,2020-05-07,Simple + Baseline,-1.48537081282411e-07,-2.19956752882003e-07,-1.5807810888451184e-07,-7.584193067035728e-08,-1.087408360111268e-07,0.09510902704380493,-1.6142971358219963e-07,0.0038833702392756337,-2.4117502260750573e-07,-1.8011337037735e-07,-5.4942425531407953e-08,0.09999863079600553,-1.9988112325872472e-07,-2.1778875260287487e-07,-8.294981892885563e-08,-1.5766305489259338e-07,-1.4667485487428838e-07,-1.0828868016810491e-07,-1.6798646100651928e-07,-6.849715321709723e-07,-1.810800329414641e-07,-9.952041356040045e-08,0.09999961810305048,0.09999982085710944,0.0999995690376913,-1.8687323074474522e-07,-1.5009610389633564e-07,-3.6169067742680447e-07,-1.6822639855471764e-07,-3.660243656762723e-08,-1.4221200818659453e-07,-4.6253707630833497e-07,3.729715717630527e-08,-1.3919366296555442e-07,0.0999985918828325,-4.701314091769939e-07,-2.3696298495249128e-08,-4.827731194248373e-07,-1.6508498306624755e-07,0.09999866728130578,0.035312418539949486,-1.8520923114074714e-07,-2.0673351383927747e-07,0.09999904887561055,2.9684526162436175e-08,-1.2581028741651937e-07,0.06570826386838655,-1.5137624198341575e-07,0.09999999990163419,-2.3981452817404456e-07
7,2020-05-08,Simple + Baseline,2.2000220929688013e-07,-2.4289233482025805e-08,1.2320967807663308e-07,1.1471089884177047e-07,-1.3244176895411716e-06,0.06555165609026642,-4.227056320857061e-08,0.04108807423071216,-6.304841721981045e-07,9.764634066903742e-08,-2.7282469587248006e-07,0.09999782378049332,-1.2114639856237403e-07,-5.202824736521714e-09,-6.122640621260503e-07,-1.5835770119819371e-07,2.867163644091345e-07,-7.119055401766574e-07,-4.094194950423681e-07,-3.0248626306384195e-06,3.375767650811099e-07,1.4366175369217014e-07,0.09999836978726367,0.09999990201271228,0.09999916965897179,9.745094898836681e-08,3.077182592143442e-08,-1.9879453738868763e-07,1.1749614752785711e-07,-2.729331610143261e-07,8.147843445067115e-08,-7.762728309251741e-07,-1.5003680326328327e-06,2.8812740717248824e-07,0.09999703046922037,-1.2619068831359719e-06,-5.093604149363604e-07,-1.0236032947602692e-06,-8.349041102212845e-07,0.09999728126420661,0.033307545003636856,-3.083103871717023e-07,-4.278141614262703e-07,0.09999700323395871,-7.442709983045665e-07,-6.182379655291016e-07,0.0600818655144417,-1.0930437737531133e-06,0.09999977221446184,-5.134858958322528e-07
7,2020-05-11,Simple + Baseline,2.439042215530848e-07,5.297610596113843e-07,3.87733378836755e-07,3.1971681925999264e-07,1.1067400889207425e-06,0.0635248304188803,6.608498010050909e-07,0.04109747666719135,1.0830607989639228e-06,5.821452496583179e-07,3.8297664997069745e-07,0.10000139530950834,8.707338769803642e-07,7.606425382755598e-07,9.58551159378354e-07,6.450825345027729e-07,9.998546605812351e-08,1.0223204968092743e-06,7.474573762817719e-07,1.5454988523662322e-06,2.6212101167196885e-07,2.6918031525694947e-07,0.10000130349184477,0.0938427137586197,0.10000113200542457,1.9433295572420813e-07,3.363552817956085e-07,9.754158494006383e-07,4.4137068934698345e-07,5.228669628434749e-07,3.862214190573117e-07,1.2127826647761567e-06,1.261671102149586e-06,1.2433111782228164e-07,0.1000016576484041,1.4435443204300425e-06,8.015086902531819e-07,1.4312994491535294e-06,1.0061781104366514e-06,0.10000100863460086,0.035404818244047724,8.86411853013048e-07,1.1051487207745228e-06,0.10000157710003277,6.837348010080258e-07,9.603366850351958e-07,0.06609310581261585,1.3707284034118e-06,0.10000031474850404,1.0263643617661955e-06
7,2020-05-12,Simple + Baseline,-4.3208387022518577e-07,-3.048395560437311e-07,-7.18252150019858e-07,-6.040426919398435e-07,-1.8838461194201832e-06,-1.8852332143318986e-06,-8.592226471680749e-07,0.04748966426066215,-1.0556795558187973e-06,-3.4249043300097893e-07,-3.8891868972901296e-07,0.099995259529713,-1.2232140662206504e-06,-1.4100825221018256e-06,-9.796684921880157e-07,-8.879374346888521e-07,-1.4430096873370545e-07,-1.3628395134170453e-06,-5.785108264826394e-07,-2.622721196660298e-06,-2.6431364401217276e-07,-4.801570410597589e-07,0.09999675866862663,0.09999863417478712,0.0999971636894587,-4.3474327206649034e-07,-1.0516364697695375e-06,-9.309681479002748e-07,-4.957505280741263e-07,-4.2629754104789026e-07,-3.3870982411267226e-07,-6.710424321951594e-07,-1.6002443568026195e-06,-2.0060395943844868e-07,0.09999859618979683,-2.54598095024436e-07,-5.909231219047319e-07,-5.448352796992499e-07,-9.77214319339136e-07,0.09999727045451905,0.03301303598472122,-3.003371089530214e-07,-1.2860729292232423e-06,0.0999961789604009,-9.36575722330372e-07,-6.592725554235948e-07,0.08110070412214526,-1.8382847639869708e-06,0.09999949043985645,0.038449233158538695
7,2020-05-13,Simple + Baseline,1.2044896403325726e-07,5.13208695049856e-08,1.600436922243743e-07,1.6690741650835635e-07,1.26030371169616e-07,1.6763513313395557e-08,1.5095569016288195e-07,1.2423716145209878e-07,3.095988944852731e-07,1.2458674873868466e-07,1.3671105320040177e-07,0.09999918491970786,1.6841762829292117e-07,1.5498869517554124e-07,1.2927018155266924e-07,1.2736969298430734e-07,3.902652519423914e-08,1.7812674296752633e-07,1.2358628999362732e-07,-1.546077407067129e-07,7.470372168888947e-08,1.2334198814171994e-07,0.09999985119052852,0.10000024828125754,0.09999995420730651,9.939631067786575e-08,3.1553990501500286e-07,2.2136970925810315e-07,1.5142236229360958e-07,1.0281562311399724e-07,1.2886782838373017e-07,2.3012830304682935e-07,2.469652501543212e-07,8.244973809345294e-08,0.10000015322213306,2.45050480552707e-07,1.0683084030907269e-07,3.498967744937463e-07,2.2526270693598003e-07,0.1000001124895473,0.030479411467664443,1.4973216849136133e-07,1.564213218584031e-07,0.0999995451622531,3.4989649973281615e-07,9.884748759912569e-08,0.08167339030228526,1.2511573149548568e-07,0.10000013274110499,0.08784216872230989
7,2020-05-14,Simple + Baseline,1.1128463688355302e-07,1.6028620718562613e-07,1.7989743139805706e-07,1.6646454301690525e-07,5.848416818883035e-07,7.293088773433912e-07,3.0492759130840836e-07,-2.841344849239752e-09,7.859689743883171e-07,1.9637824575555498e-07,1.5743988345346723e-07,0.10000111847207456,3.997368478932382e-07,4.322028438258144e-07,3.9638276007395557e-07,3.150514109174233e-07,1.2844488014233954e-08,5.324099096748738e-07,2.837479518877434e-07,9.738844843340935e-07,1.2042294713478633e-07,1.5519928494670343e-07,0.10000094910500992,0.10000058111302378,0.10000085226899859,1.8746663112680192e-07,5.450994247823892e-07,7.215602695704329e-07,2.5078843347170843e-07,1.4385869868349784e-07,1.7518726977131563e-07,7.294814912032576e-07,5.61768248361847e-07,9.935081405320264e-08,0.10000137334878613,7.699193558854738e-07,2.5663584413877683e-07,7.28303830548502e-07,5.746712613875121e-07,0.10000164600515449,0.030397355499516776,1.4210437253030084e-07,5.200165370611773e-07,0.10000114461090187,5.760034790524152e-07,4.256882188246965e-07,0.07958817284197683,6.487864078728796e-07,0.10000016909071738,0.08999157333698002
7,2020-05-15,Simple + Baseline,-1.424418906101383e-07,1.5046965154511857e-08,-1.5277927223242788e-07,-1.5478849437684908e-07,-1.0155309488501341e-07,0.004488770637163054,-8.928411110240338e-08,-1.930188284827486e-08,6.42794815108607e-08,-1.3614802627394996e-07,-4.105549357871178e-08,0.10000037167668835,-1.9575402180368558e-07,-2.491594204081829e-07,-9.517407928847703e-08,-1.1607510313514911e-07,-7.783003409741372e-08,-1.460891296940747e-07,2.1215726902313657e-08,4.310793526485676e-07,-1.0572814149477381e-07,-1.1741491474149413e-07,0.10000020148591238,0.09999981279170492,0.10000010761205384,-1.0028241534023951e-07,-1.1484748270745897e-07,5.0446439666908583e-08,-1.6599469959221978e-07,-5.136950568456953e-08,-9.797643996174958e-08,2.4162674839651474e-07,-5.546647432751116e-08,-9.699036294267758e-08,0.10000067696579656,3.4378483139353344e-07,3.825245670871157e-08,2.6924481909973406e-07,5.227120412573526e-08,0.10000063219991076,0.030309255733066948,-7.86473489973726e-08,-1.9448017359474307e-07,0.10000043114989403,2.072719801939366e-08,1.0090127075804271e-07,0.099999997165242,4.243310463004976e-08,0.09999997744494986,0.06520097138280351
7,2020-05-18,Simple + Baseline,-2.783469871413615e-07,-1.9334302895716283e-07,-3.2987315821750334e-07,-3.940523523128212e-07,-9.559974324453297e-07,-1.1651413602124854e-06,-4.239477486551712e-07,0.010710372913062942,-5.940550530317564e-07,-2.1665266270456414e-07,-1.6051899340630853e-07,0.09999724050255812,-4.5362789002257696e-07,-6.557077378309767e-07,-4.6296958144265104e-07,-4.4809090634819183e-07,-7.444272375332962e-08,-7.381796453186391e-07,-2.2761427714678627e-07,-6.345828023624636e-07,-1.0965648328945038e-07,-3.974155509346566e-07,0.09999847546419337,0.09999565801074264,0.0999989847889082,-3.8782087231208206e-07,-5.500794342790764e-07,-7.191903363185991e-07,-2.74732450088499e-07,-2.3573709750427391e-07,-2.253073953844965e-07,-6.179892908524619e-07,-7.27213883821805e-07,-8.414820771091367e-08,0.09999905978552706,-2.652817255104277e-07,-3.3306499755321814e-07,-4.4525579289151153e-07,-1.0667792823995288e-06,0.09999865626234015,0.02688770815347957,-3.697365693989048e-07,-5.967926376022202e-07,0.09999908205606524,-3.950117269718795e-07,-4.392195877141357e-07,0.08741296539088686,-6.984021785109445e-07,0.09999281462060966,0.07502634007850321
7,2020-05-19,Simple + Baseline,-3.979325364223783e-07,-1.1676565812488668e-06,-6.553716435286562e-07,-3.813202657999116e-07,-2.189720796556148e-06,-2.7054595887395954e-06,-9.219244312354457e-07,0.010704663624093488,-1.5405864285350097e-06,-6.467015853861827e-07,-4.7650501721189535e-07,0.09999238132100859,-9.789849329392183e-07,-1.1341803685745545e-06,-1.1436424778878125e-06,-1.0570022572575792e-06,-1.733856971310506e-07,-1.3957362776874426e-06,-1.1953906317073405e-06,-3.057112644502624e-06,-4.0638261025390115e-07,-6.022410467192266e-07,0.09999625077702666,0.09999806733836296,0.09999740809251143,-7.778747419930149e-07,-9.00538776643715e-07,-2.0774396641684195e-06,-5.719175864731079e-07,-4.878247745946556e-07,-5.627786961315063e-07,-2.5024139789055304e-06,-1.7211964458281952e-06,-2.2771134897583996e-07,0.0999952782976487,-2.405973843923349e-06,-9.773688186268274e-07,-2.4708796009306525e-06,-1.8625486545841743e-06,0.09999484408695454,0.0267056254074745,-9.835998083096277e-07,-1.3288122614215569e-06,0.09999623388608421,-1.0665142806926315e-06,-1.5470560326469008e-06,0.08764707794133089,-1.7916589766799612e-06,0.09999903926377408,0.07501965213568022
7,2020-05-20,Simple + Baseline,-5.4566577940205866e-08,-1.1506534017171705e-07,-2.1707182964493758e-08,-7.640171672777141e-08,-5.294660344586846e-07,-6.400773980065804e-07,-1.330066414880115e-07,0.06630773737879635,-2.493419182644609e-07,-1.3851321805081384e-07,-5.600516237209827e-08,0.09999647760531061,-2.3617415448192756e-07,-2.3812887972041816e-07,-2.1109885420506382e-07,-2.3528091959935596e-07,5.1958947869948896e-08,-2.787467201463258e-07,-1.6203702469601647e-07,-1.0191493255892717e-06,-1.747540057127204e-09,-7.108962178057715e-08,0.0999989467283084,0.09999971261538475,0.09999931385789178,-5.927696252375755e-08,-7.920124344919586e-08,-4.321199284845824e-07,-7.621485404641566e-08,-7.488607198783578e-08,7.356067608870183e-09,-4.1250201119395404e-07,-3.119124282700946e-07,4.222186741980261e-08,0.09999805045709047,-5.126244552998295e-07,-3.8223536673354066e-08,-5.888331781501549e-07,-4.5784639047839586e-07,0.09999819217148276,0.0216057360304828,-1.8336077328437e-07,-2.6536842140554454e-07,0.06184510735483559,-1.2198381769210587e-07,-1.693287689844637e-07,0.08073788141958214,-3.6894412001434015e-07,0.0999998988849959,0.06952146293036922
7,2020-05-21,Simple + Baseline,-1.2281921984633394e-07,-4.471159469894999e-08,-1.0293882047825e-07,-1.3047696938862973e-07,-2.5555985072329666e-07,-3.6123999085059286e-07,-1.6670664111430821e-07,0.07963623265084929,-1.7135135543127294e-07,-9.527147096668704e-08,-7.135280658293448e-08,0.09999818869649232,-2.4713726482276985e-07,-2.0149644062658016e-07,-1.695902446158206e-07,-1.6088265181777762e-07,-7.059424772130999e-08,-2.3800684449936066e-07,-3.8270333481258506e-08,-5.296091854294531e-07,-5.427873553435295e-08,-1.4592116677464606e-07,0.09999942792440139,0.0745986632490124,0.09999957259025266,-8.470626515654508e-08,-8.69403685958289e-08,-1.9848703755875473e-07,-1.0140085722660145e-07,-1.4611795148213464e-07,-1.0928449469573986e-07,-2.943547417776812e-07,-2.0830809196087428e-07,-1.2866788347630103e-08,0.0999989570644923,-1.6052941888332836e-07,-1.272002208379212e-07,-2.409006862849558e-07,-3.9601163942278593e-07,0.09999909614671337,0.023891533792583988,-1.1593002644587989e-07,-1.9896298073436268e-07,0.09999961279142718,9.971060807369453e-09,-1.593696332419375e-07,0.09999993103818278,-2.2424365068894662e-07,0.09999592617000326,0.021889093435144367
7,2020-05-22,Simple + Baseline,2.6855505271929608e-08,1.4888759784155018e-07,4.991925062088909e-08,8.025631986526262e-09,1.294144094247845e-07,1.4819568499340567e-07,5.5586079316023375e-08,0.07806634015684426,1.2208238227105936e-07,6.33420017147901e-08,2.458462582303787e-08,0.0999996210155602,7.08090805903629e-08,7.843818859588946e-08,6.183137045357796e-08,8.234603920851588e-08,6.1829567915433464e-09,9.257908779823699e-08,9.876415898047985e-08,1.4779353221755917e-07,2.9042768976477875e-08,2.6831526044265835e-08,0.10000016359772532,0.07233545167444597,0.10000012461191567,3.856246795931417e-08,6.732160009656716e-08,1.2457894637460716e-07,4.320266105084831e-08,4.386327490608542e-08,1.6882586397011645e-08,1.6484915861085572e-07,1.395813966092809e-07,3.227302253098428e-08,0.10000000849620856,2.8331061132322847e-07,9.762298398219234e-08,1.7869965289705439e-07,2.2052295545308144e-08,0.10000004049898994,0.02402592197438283,1.091536287378509e-07,9.925870646493998e-08,0.10000024305731003,1.204886062202507e-07,1.1785538989234458e-07,0.10000000813282249,1.5987912139679106e-07,0.09778952348811776,0.02777921909764445
7,2020-05-26,Simple + Baseline,-3.4590122459197596e-07,-2.2640868395836676e-07,-5.009190508452255e-07,-3.9879547127894e-07,-1.2479186662218194e-06,-8.304983473632462e-07,-6.870184376596894e-07,0.09859365001337167,-6.546513809414491e-07,-6.188887805400546e-07,-1.8561593424700848e-07,0.0999983960078734,-8.968417843965425e-07,-8.899641021914362e-07,-7.171730031562353e-07,-6.551381970230051e-07,-1.182870132993103e-07,-1.0916367531746852e-06,-2.1027994954860834e-07,-1.0647083173335264e-06,-2.1605271211895736e-07,-4.015812881347097e-07,0.09999766638044608,0.03194418121261581,0.09999887064716059,-2.5456006850835637e-08,-4.6117062166215723e-07,-8.060638221450814e-07,-4.333330915734378e-07,-5.0902009538202e-07,-3.37684920605497e-07,-8.961809397585809e-07,-1.3387575901019693e-06,-1.6764963799483324e-07,0.09999880665125944,-4.6891350255550753e-07,-5.989241104986797e-07,-3.478111601549074e-07,-7.90338088066001e-07,0.0999989567432722,0.022245668903025376,-2.608022033926339e-07,-1.0558783079524084e-06,0.09999853251808259,-3.6850708037252213e-07,-6.351367388815743e-07,0.09999995895180352,-1.4161311659613237e-06,0.09999957241583048,0.0472486271002958
7,2020-05-27,Simple + Baseline,-2.1500155057590682e-07,-4.770793931424129e-07,-3.0715790573610427e-07,-1.7952877572839015e-07,-8.0340105879402e-07,-9.6626727674186e-07,-4.499435706191474e-07,0.09999976237837642,-4.7249284914458506e-07,-3.817736100298271e-07,-2.148256120794355e-07,0.09999836472840445,-5.579060768874656e-07,-5.101787020352777e-07,-4.4143311095174227e-07,-4.6129341326823116e-07,-1.3373342595456143e-07,-5.772080042841422e-07,-4.185799767861333e-07,-1.2179924987040634e-06,-1.9822746503444582e-07,-2.4450140078495686e-07,0.09999855397197724,0.030555153042062192,0.09999904954030173,-2.415421683358825e-07,-1.5169016771679586e-07,-5.524473996069269e-07,-2.588814648654359e-07,-3.0788938727499304e-07,-2.604085636660963e-07,-9.336401842281946e-07,-7.81268369596444e-07,-9.27831382522884e-08,0.09999834644948476,-7.767997687997021e-07,-4.2977037474585597e-07,-7.912533110662424e-07,-5.898698253579296e-07,0.09999862430162788,0.022226362693945404,-4.5387469558189296e-07,-5.826944207035298e-07,0.0999985089684632,-2.1107376527923137e-07,-5.280603219865606e-07,0.09999986736783495,-7.762938692585235e-07,0.09999986696858847,0.04724549519126311
7,2020-05-28,Simple + Baseline,-4.40573181586889e-08,0.08599741138052003,-6.971737815663975e-08,-4.263435079240263e-08,-2.298378169534167e-07,-3.1333665862199104e-07,-7.852501651925281e-08,0.09999991829509881,-4.4146183573762337e-08,-3.159894886508465e-08,-1.2582224035590741e-08,0.0999993232395057,-7.546521483262325e-08,-9.872116584789332e-08,-1.6192902033140568e-08,-8.13344154889996e-08,-1.7514188812431672e-08,-1.028391627421071e-07,-9.688016568456325e-08,-4.019333817770512e-07,-2.982322746385881e-08,-7.286700042236493e-08,0.09999961904448931,1.7850684177299753e-08,0.09999972647667989,-4.2549669625858534e-08,3.495175467324507e-08,-3.27042791169479e-08,3.804970938301328e-09,-3.922807201534539e-08,-2.4219858655316875e-08,-2.650628415973399e-07,-1.8963852943814328e-07,-1.3117620505743076e-09,0.0999992891067412,-1.281167799684284e-07,-6.573728954670797e-08,-2.739904469152614e-07,-9.62608792954999e-08,0.09999949220312244,0.021836222192220305,-2.0525266199173239e-07,-6.93060641343285e-08,0.09311608635648286,1.8995214397269852e-08,-6.61895545372593e-08,0.0990562621213079,-1.30717923110191e-07,0.09999999338441698,7.002007010128615e-08
7,2020-05-29,Simple + Baseline,1.134536811945633e-07,0.08738448645753306,1.439358584618964e-07,1.2181508856167825e-07,4.148577714189464e-07,4.545912269398365e-07,1.8399102252459638e-07,0.10000012939028166,4.2081085841063057e-07,1.3341821656671237e-07,1.0578353895618624e-07,0.10000063554987397,2.2562263000330575e-07,2.493172082633773e-07,2.7467165143640357e-07,2.2983342599068047e-07,3.995123439959334e-08,3.297760210556372e-07,2.6191855724608897e-07,5.956883776849465e-07,9.144376541517713e-08,1.3253581824926392e-07,0.10000053371175911,2.8165384422727345e-07,0.1000004760246982,1.7919823800737178e-07,2.1330742707021793e-07,3.973477103787366e-07,1.6128167167310392e-07,1.5205693570826452e-07,1.4206431106778133e-07,4.7121553099571104e-07,3.4045133071832096e-07,7.14907511663943e-08,0.1000006561569624,5.165536037640785e-07,2.3249908528477328e-07,4.992509674137598e-07,3.0863295312892715e-07,0.10000070501926014,0.022457124766997624,2.3688356689152685e-07,3.085227293399004e-07,0.09311815463708649,3.010899178217178e-07,3.19430898429227e-07,0.097026631992084,3.8170628244674334e-07,0.10000006960365236,3.5111329622789206e-07
7,2020-06-01,Simple + Baseline,6.512561231349548e-08,0.09999995519177983,6.740261073567359e-08,6.240731984627912e-08,6.956036030609636e-08,1.3590640464787288e-07,8.037351128888678e-08,0.10000004678326276,1.1364585796409778e-07,6.911641917062783e-08,1.842641617452425e-08,0.10000017876979063,9.364662648414068e-08,1.0474443205194983e-07,6.465723762082985e-08,7.620992576252554e-08,5.321699318257543e-08,8.914501128164819e-08,8.3107839405765e-08,1.3845244869969123e-07,6.149132247358688e-08,2.210015811512767e-08,0.10000010552463073,5.764001866751006e-08,0.10000009304901628,5.841076033536235e-08,4.6075718954202565e-08,1.0583822789715308e-07,7.400795049269228e-08,2.735971791313506e-08,5.9491741591215724e-08,7.72859644710906e-08,5.559565748652024e-08,5.737405688072826e-08,0.08438238448375245,5.438759816784277e-08,3.812811700192614e-08,8.906097570031684e-08,5.7043048428239806e-08,0.10000015596048736,0.02249648259116698,5.893022411761123e-08,1.0677474836385943e-07,0.09311782795009275,3.600904887051841e-08,5.870879460370649e-08,0.10000004651995115,8.021176196210612e-08,0.10000001619438303,4.132573962164994e-08
7,2020-06-02,Simple + Baseline,-5.833564722995307e-07,0.0999988399159906,-7.4927588202443e-07,-5.662283366404958e-07,-1.6084409954620123e-06,-3.1686798345910826e-06,-1.0660517615780819e-06,0.09999949756678002,-1.3612207729372048e-06,-8.336015936355936e-07,-4.816895142105698e-07,0.09999451951015013,-8.690337473205854e-07,-1.3467033450747296e-06,-1.0215720106866663e-06,-1.2559080768416875e-06,-3.4426183568660006e-07,-1.4061957061967097e-06,-1.3463739789099764e-06,-2.258951864278719e-06,-5.139538806123625e-07,-6.464122848421103e-07,0.09999722696806054,-9.592617918440589e-07,0.09999736241633873,-9.679934133178665e-07,-7.943560449456154e-07,-1.9132254785051205e-06,-7.758266726012091e-07,-5.872516520954055e-07,-7.408156550682655e-07,-2.806962365021391e-06,-1.3780352866068918e-06,-4.3147007586712853e-07,0.08437609692955861,-1.852268599693724e-06,-9.558870474580254e-07,-2.9043039779781945e-06,-1.125745480250689e-06,0.09999470630878197,0.022577744390877945,-1.0848391090301782e-06,-1.3384210539008373e-06,0.09311184750782688,-8.292478200164543e-07,-1.5676901581934949e-06,0.09999964392559768,-1.527577296400179e-06,0.09999976629636834,-1.260046964395982e-06
7,2020-06-03,Simple + Baseline,-3.418894268593737e-08,0.0999997638496277,-7.71954456956337e-08,-3.32861009618588e-08,-4.089420561244457e-07,-1.175493909352394e-06,-1.6184071044926308e-07,0.09999996568272612,-3.695932237713178e-07,-9.807762210626991e-08,-4.6772559888660414e-08,0.0999973582832571,-1.2973083632285082e-07,-2.6592879326597117e-07,-1.6559774835927547e-07,-2.431368027828204e-07,9.891088708212955e-10,-3.007281286924442e-07,-2.7962484114440816e-07,-9.91404188250324e-07,-2.214561294732562e-08,-7.431034046808269e-08,0.09999903872913815,-1.8629526100894004e-07,0.09999911239493814,-1.469989736572517e-07,-1.22484291357637e-07,-5.10664836890625e-07,-8.012455973032246e-08,-5.789715770091819e-08,-7.944622506142787e-08,-1.0013792089532733e-06,-3.0790413734106673e-07,-7.207803475941873e-09,0.07756937352872646,-6.947728294844444e-07,-1.5660131080777707e-07,-1.0590752382615863e-06,-2.62675260121759e-07,0.09999747622064557,0.02244937598166159,-2.4456492166276376e-07,-2.644893100989646e-07,0.09999984600701217,-1.5107189282917897e-07,-3.77577398957276e-07,0.09999999615621144,-3.6232962073045124e-07,0.09999999186210101,-3.4715027193248e-07
7,2020-06-04,Simple + Baseline,-1.0227135815140355e-06,0.09999949808347926,-1.1785793727423547e-06,-1.2513242743298464e-06,-1.175792727430105e-06,-1.919965080652401e-06,-1.6137302705612803e-06,0.09999910675376944,-1.3284308422047615e-06,-1.4239056766674534e-06,-4.92658696155033e-07,0.09999670875661971,-1.565650116127575e-06,-1.8645104207815761e-06,-1.0841146484113924e-06,-1.3534854915510615e-06,-7.805478745512222e-07,-1.5843897858074946e-06,-8.598199701124748e-07,-1.1414328182632994e-06,-9.938504606371975e-07,-7.366406102908689e-07,0.09999806998277748,-1.3023961850609494e-06,0.09999843147486633,-8.888096077237646e-07,-1.2705929799270138e-06,-1.8614674850680064e-06,-1.2440618620018533e-06,-5.955180544095005e-07,-1.1211011225118707e-06,-7.110057834777551e-07,-1.2238907223867388e-06,-9.269599164088522e-07,0.01828033631634505,-4.447808165873663e-08,-6.085530115234747e-07,-5.96631525337012e-07,-9.582446526805414e-07,0.09999772883988187,0.01874719466717365,-5.362202611609413e-07,-1.6773129596483594e-06,0.09999808778177083,-6.495108022433817e-07,-8.095880158262764e-07,0.09999932759833993,-1.2233409670378656e-06,0.09999951441657401,0.06302762508311457
7,2020-06-05,Simple + Baseline,-5.605150949805975e-08,0.1000000876285295,-2.780836483345574e-07,-5.482543264155849e-08,-1.7338948247394598e-07,-5.449012684420669e-07,-2.8688094276139004e-07,0.09999986912516466,-3.4215337406747204e-07,-2.6591557787695516e-07,6.520004136271165e-09,0.09999876852008535,-3.9813801930815715e-07,-4.055214729636462e-07,-6.563323826648253e-08,-1.8373271830778298e-07,-1.0775004370326053e-07,-3.1072356881979564e-07,-8.408934494438466e-08,-2.655237357317701e-07,-1.2249440025941094e-07,-1.4885535521671773e-07,0.09999943813134059,-2.6682955716767784e-07,0.09999990532039717,-1.5227343953163508e-07,-2.2742088925136468e-07,-4.073261680745772e-07,-4.408040803752587e-08,-2.3897912268669343e-08,-1.5030616071665252e-07,-1.1258423313808333e-07,-1.1580397997784723e-07,-9.709142148877198e-08,-2.777333367215423e-06,2.0760588540666393e-07,-1.259454624485862e-07,-1.499230772584322e-07,-2.08512608172328e-07,0.09999911670166806,0.01675515947414647,-5.749501191853434e-08,-3.4120402413668237e-07,0.09999937410923701,-1.0668469407806991e-07,-1.6415659809020184e-07,0.09999991159207963,-2.2070513884991496e-07,0.0999999750459312,0.08325802313644717
7,2020-06-08,Simple + Baseline,7.454898090905444e-08,0.10000022836309548,7.2573008519701e-08,6.11826597385691e-08,1.8814581003187549e-07,2.0797027436933158e-07,9.694414201245536e-08,0.10000008180365091,1.6295428912542028e-07,8.356275003363032e-08,9.420893781006703e-08,0.10000002579908157,8.605646153215322e-08,8.399415227764693e-08,1.4298159056201223e-07,1.4537725412554986e-07,5.3647224470760037e-08,1.1609715944968726e-07,1.8642660638325692e-07,3.6369205623616813e-07,7.120863157210543e-08,7.852307425282922e-08,0.10000019769254571,1.1927573565921928e-07,0.10000031699608826,1.275231012841746e-07,9.938077413347498e-08,1.8157797709140717e-07,1.0585738096673555e-07,9.156203556250957e-08,9.123362165645393e-08,3.7547289426392316e-07,1.731515771417073e-07,5.723964907829542e-08,-6.879855405992581e-07,5.077837885639432e-07,1.3973243654597506e-07,3.6582136366386027e-07,1.6065850570267864e-07,0.10000022408156858,0.017809030812112346,1.9212061670452192e-07,1.1074968755876273e-07,0.10000026962091023,1.2476823355218308e-07,2.1732784275584332e-07,0.10000006454547848,1.5983692117052233e-07,0.10000003766546045,0.08218443466361998
7,2020-06-09,Simple + Baseline,-5.825067340902253e-07,0.09999876737733407,-6.828084350732839e-07,-5.980258911157111e-07,-1.7023524692485623e-06,-3.3396911602468352e-06,-1.0547494239220524e-06,0.09999949197217727,-1.3573384204342663e-06,-8.941381955965906e-07,-4.7041961715508e-07,0.09999704202168896,-1.1247427027742778e-06,-1.3946476554021208e-06,-1.0312172442758205e-06,-1.3438501255916817e-06,-4.004110607927428e-07,-1.4102722443119224e-06,-1.4117373046127949e-06,-3.850295427138687e-06,-4.594954587987808e-07,-5.985441128697396e-07,0.09999707857490175,-1.0093106549786506e-06,0.0999982625331274,-1.021267011241159e-06,-8.143823858610307e-07,-2.0526336312197057e-06,-8.125255079818723e-07,-6.023544475487745e-07,-7.874359072560681e-07,-2.9627813579135893e-06,-1.4185486845764102e-06,-4.571105966291474e-07,-3.4506973198926143e-06,-1.7489361330746518e-06,-1.0272572605567658e-06,-3.088721030762814e-06,-1.0306760315626568e-06,0.09999710334115143,0.01789101938789784,-1.5106064233308325e-06,-1.4034539377349763e-06,0.0999956940899066,-9.869379096874602e-07,-1.6632593550213798e-06,0.0999996131739905,-1.5267190383402673e-06,0.09999975468147553,0.08217927932196441
7,2020-06-10,Simple + Baseline,-2.4515714351522417e-07,0.09999948060026859,-4.71277425975143e-07,-2.9452264506350956e-07,-4.294799779681814e-07,-1.686527920275945e-06,-5.874444011086956e-07,0.09999970173874509,-6.623049772844843e-07,-5.072527803524589e-07,-1.8391766402256868e-07,0.09999829143097483,-6.201701439581585e-07,-6.330755464072791e-07,-3.9950418035845605e-07,-6.566247926938517e-07,-3.501217859175009e-07,-5.51576937826962e-07,-5.24086793362131e-07,-1.5597193033843947e-06,-3.9494735071778884e-07,-3.2616738239710365e-07,0.09999878962892694,0.014843918420195815,0.09999915497899033,-3.866422077813745e-07,-1.3021170460754707e-07,-9.773266889466283e-07,-3.5515571312664754e-07,-2.5074334529221524e-07,-4.2137730936952e-07,-1.3358075753228951e-06,-3.804932873595711e-07,-2.8033695887893063e-07,0.0022586078253411476,-6.547303801900808e-07,-4.889358745952314e-07,-1.3437368333176552e-06,-2.9825458220504816e-07,0.09999865438862063,0.019064790793589033,-5.65526274957921e-07,-5.940594698217219e-07,0.08168201033522762,-9.51100145274756e-08,-7.902297881611219e-07,0.09999965721150378,-5.163221872679471e-07,0.0999998617649806,0.0821780285145616
7,2020-06-11,Simple + Baseline,-7.388656268592574e-08,0.09999980123466885,-2.5359543617770604e-07,-2.234740181376644e-07,-1.4568911716237638e-07,-8.136784726225345e-07,-3.302723237654983e-07,0.10000000531209212,-5.126300324940491e-07,-2.882305917793908e-07,-1.52057089542429e-08,0.09999893348400192,-3.245009094768184e-07,-3.8087407854561433e-07,-1.9666624393317326e-07,-4.014585373104604e-07,-1.4135611348784526e-07,-4.3196600447383736e-07,-1.0074849376046488e-07,-6.04032992312883e-07,-2.1752816448970005e-07,-3.561264484479867e-07,0.09999933167130068,0.014602850958747523,0.0999994056310676,-2.9138959671809843e-08,-7.596219607731347e-09,-5.095294695300953e-07,-1.5750093468489162e-07,-2.022011767171844e-07,-2.3514131642429377e-07,-5.570325596128447e-07,-1.7998002886331766e-07,-7.77113729154697e-08,0.041508738974480944,-1.8249468369879835e-07,-2.851244944529298e-07,-3.8686167811108775e-07,-6.946338767538973e-08,0.09999965181216705,0.017834558141125424,-1.2532025870561677e-07,-3.3046945224455905e-07,0.05903026387975443,-6.603994170463861e-08,-3.940747314717956e-07,0.09999992366584705,-3.0348387556605856e-07,0.0999998702984045,0.06703657626816635
7,2020-06-12,Simple + Baseline,3.0107428917240296e-10,0.09999997720899438,0.0001502647768339757,-1.9898426827765245e-08,-8.460752572891525e-09,-2.6745129241584125e-07,-4.597468743441818e-08,0.10000000431196474,-1.1782774060398562e-07,-3.405295721528842e-08,4.28268558239648e-09,0.09999954935197242,-4.173789695160262e-08,-6.884997126217904e-08,-1.7015393713230786e-08,-7.242065761054626e-08,-8.480669132763213e-09,-7.500912966348571e-08,-1.987944308953437e-09,-1.8130399670948947e-07,-1.6557104271195562e-08,-4.0866282153023696e-08,0.09999981327831758,0.08426961578702377,0.09999982933424184,4.455525681835249e-09,1.3908566452531632e-08,-1.2119330609554655e-07,-1.0679551998471277e-08,-1.02832335961996e-08,-2.807154898449833e-08,-1.5304690301994956e-07,-8.123008496601916e-09,-3.2090665935207564e-09,1.4679810790752037e-07,-1.592760635356993e-08,-3.0662565216706575e-08,-9.577730518457991e-08,7.952739642240865e-09,0.09999988922424895,0.015582404744502776,-3.5152825922924823e-09,-4.8548001812040636e-08,9.011152024607919e-08,9.933331296252338e-09,-6.899602411340058e-08,0.09999999438523687,-3.713016814611838e-08,0.09999999598817784,0.10000003646164717
7,2020-06-15,Simple + Baseline,-4.239217475706328e-08,0.09999991404795665,-6.276480759961363e-08,-4.607754082517018e-08,-9.540901209964495e-08,-2.565665766829073e-07,-7.441975519164341e-08,0.09999997270922573,-1.439427743776487e-07,-6.528512283091956e-08,-3.8965795740576725e-08,0.09999957454427125,-7.314927333734708e-08,-1.0539897468063916e-07,-6.5511495881402e-08,-1.0449382230016862e-07,-3.100237360938579e-08,-1.022650084788718e-07,-8.990569751333788e-08,-2.250145620909824e-07,-3.9016112953083913e-08,-5.678173759027195e-08,0.09999979452655294,0.08218570317605954,0.09999979819267941,-7.398470037438784e-08,-4.694639536931523e-08,-1.5102763336469757e-07,-5.3479887622563783e-08,-4.236278777312954e-08,-6.267599909752685e-08,-1.9470406936249263e-07,-7.474005505425146e-08,-3.475255700100872e-08,0.013754259218649855,-1.4636348422305083e-07,-6.886418016946657e-08,-1.8428670112579023e-07,-7.594162791732517e-08,0.09999973769777357,0.016148748794283112,-9.6645273935936e-08,-9.041411290052796e-08,-1.2669047924968178e-07,-5.3785670494233895e-08,-1.0914306359493976e-07,0.09999996862368782,-8.698877353502804e-08,0.0999999800827375,0.08791604214571844
7,2020-06-16,Simple + Baseline,-3.936527254437906e-09,0.09999995153348915,8.542128251001352e-09,2.0253320334317908e-08,-9.426393797883256e-08,-1.313146766191871e-07,-2.216823819470003e-09,0.09999999526518934,-4.5404084457632077e-08,-4.939801736569003e-09,-1.4462455516002982e-08,0.09999971654421837,-3.075891612900768e-08,-1.7014435797430664e-08,-4.452737761969956e-08,-1.0915901070075165e-08,2.8980094073798625e-08,-4.755326054494099e-08,-2.9982702631477305e-08,-2.0094667163046426e-07,2.1901951415213864e-08,1.703082118496404e-08,0.09999982436410483,0.08218580270226447,0.09999990834559351,-1.4526474054867278e-09,-1.1675913570405387e-08,-5.8607948077201456e-08,-7.90218784699959e-09,-2.1147814279649303e-08,1.0895157269567815e-08,-1.260982236725427e-07,-8.692583175738051e-08,2.1889387446486895e-08,-3.482119566317594e-07,-1.716971220728894e-07,-3.026625032654431e-08,-1.5560903826804726e-07,-4.8337378435001135e-08,0.09999974339341987,0.01727083932318768,-4.3243848538364445e-08,-4.460187025868263e-08,0.013103249214072575,-1.8292447076080466e-08,-4.4529664827238854e-08,0.10000002010695216,-8.556345422541745e-08,0.09999999782508362,0.087442805454939
7,2020-06-17,Simple + Baseline,-7.353207167293461e-10,0.09999913816097926,0.025882002372322743,1.1474697124626461e-07,0.0015107845584741383,-1.5906023587472232e-06,-3.421246025268083e-07,0.09999991235136498,-7.600363200912757e-07,-2.6609166062398763e-07,-1.8264431308445647e-08,0.09999825655570568,-4.829454247590788e-07,-3.91964046149343e-07,-7.057728306101905e-08,-2.6213430032223967e-07,-1.551127902959963e-07,-2.6322483809279995e-07,-5.00352243801421e-07,-1.2137118161871272e-06,-1.767030565969564e-07,-4.996594722386913e-08,0.09999812400395973,0.0411143166068255,0.09999915100928339,-1.0628807779282435e-07,-3.349094315697702e-07,-7.682680910599681e-07,-1.7125351558573482e-07,-7.556287708245195e-08,-5.0100834241682356e-08,-1.4862192422192896e-06,-6.922093455991633e-07,-1.7557751729259954e-07,-1.9101490859050126e-06,-1.1148769016453314e-06,-3.709389290941056e-07,-1.7567259002289168e-06,-1.980968897008975e-07,0.099997800824069,0.018420041097425177,-4.365326480696587e-07,-4.2547855028894846e-07,0.013100142561220076,-4.772707746078874e-07,-6.269765001204523e-07,0.09999976625544894,-5.492085683412962e-07,0.09999985618859786,0.09999887617853134
7,2020-06-18,Simple + Baseline,-4.7323230839805934e-07,0.0999993001431779,0.0258756890051082,-6.259684697142833e-07,0.001508965449909615,-1.374453588045986e-06,-1.024470103242757e-06,0.09999964879505774,-9.844077900818468e-07,-8.457163495615176e-07,-3.276497547414982e-07,0.09999860858741232,-8.931394063244899e-07,-1.0200085055125219e-06,-7.426906577731328e-07,-1.1623057079773493e-06,-5.128459483770146e-07,-1.0650955899993066e-06,-5.844779114181698e-07,-7.002149195752358e-07,-6.419518310712099e-07,-7.39345740928391e-07,0.09999875785719008,0.004125009053286261,0.09999898835729597,-5.221066044635061e-07,2.2111649266407372e-07,-1.0434959450441635e-06,-5.677237946593466e-07,-4.271874522539167e-07,-7.395353350197466e-07,-1.0999182942222715e-06,-3.345267080716099e-07,-5.262137239103901e-07,0.017996222654263015,-7.31801809713972e-07,-8.17655933421874e-07,-1.1070090428031796e-06,-2.0245562498724348e-07,0.09999916710734569,0.012855476811324425,-5.593537379415217e-07,-8.573701659463439e-07,0.037670712160025266,-2.4917099899442177e-08,-1.021792223329359e-06,0.09999938893413689,-7.561104900699189e-07,0.09999975527889504,0.09999914481864641
7,2020-06-19,Simple + Baseline,-3.431287450670169e-08,0.09999997070923276,4.5743815347810846e-08,-4.629657647054028e-08,1.6458947917346736e-06,-3.5969499161656763e-07,-4.985569087073687e-08,0.07917583731433893,-2.006098599938663e-07,-3.7957571470403056e-08,-9.138707967838361e-08,0.09999935049795804,-5.680705101412372e-08,-7.459830109264809e-08,-3.205157451144918e-07,-2.9973712009071235e-07,1.762102167098902e-07,-3.513541023965463e-07,1.905651094655385e-08,-3.031369626287032e-07,8.341956257849759e-08,-5.745750740141192e-08,0.09999952615999196,2.1198765201126443e-08,0.09999974384937955,-7.196659889575067e-08,1.2363057637141283e-07,-2.6173869659217894e-07,-3.6353961627573705e-08,-3.701703487407126e-08,-6.659966138818182e-08,-4.1194481596885954e-07,-1.4906694119530475e-07,1.178867996171455e-07,0.06875247921832199,-3.645755125063929e-07,-1.6850661458096448e-07,-4.3689383376256833e-07,-1.210626830958381e-07,0.09999967828357655,0.01285552652203122,-5.491537531332146e-08,-1.7617570331466799e-07,0.03922094342263179,-2.5157732305253356e-08,-2.0697426705740017e-07,0.10000012543633242,-3.545234130520886e-07,0.10000004573726624,0.09999976625978924
7,2020-06-22,Simple + Baseline,-6.510548599018734e-07,0.09999959376617812,-7.828794032238169e-07,-7.215672058607606e-07,0.009520579847897302,-7.724698822635886e-07,-1.4651435757040207e-06,0.07916009025650343,-9.63401782403647e-07,-1.2747006050938411e-06,-5.949011906867689e-07,0.09999984383671892,-1.4559249725810746e-06,-1.096458824001385e-06,-9.941699473585068e-07,-9.927618974509836e-07,-8.581111529049994e-07,-8.415293194107441e-07,-6.043766895351681e-07,-1.8985944832307358e-07,-9.767977411920307e-07,-4.611248437105896e-07,0.0999999122439024,0.02324759562350156,0.09999994617555932,-3.1681739904638425e-07,4.5763217934135745e-08,-1.3754948382310864e-06,-1.0205073798245305e-06,-3.7458625318864237e-07,-1.009178262897966e-06,-2.9181178978943814e-07,-2.470035331117481e-07,-8.885196251229528e-07,0.0687534590174195,3.452826646494253e-08,-4.838382041825631e-07,-7.835528655085427e-07,-4.2594684156079054e-09,0.1000002931892207,0.0182614057846908,-2.222197127372718e-07,-1.2081684119312829e-06,0.0010854592070425706,-7.623776277932057e-08,-9.468904098476863e-07,0.09999900610084497,-7.19646901244458e-07,0.09999968181083722,0.09999871341282195
7,2020-06-23,Simple + Baseline,-4.432936723697471e-08,0.09999991343031349,-1.1372748034413611e-07,-5.13494957876111e-08,0.07487903408207018,-2.487099391393299e-07,-2.537736282780813e-07,0.09420433523692077,-2.7176981007485876e-07,-1.8777896499714403e-07,-5.8142892814444816e-08,0.05654279505456181,-2.5213264749872854e-07,-2.2435533313024404e-07,-1.6598065315339205e-07,-2.1901603668401183e-07,-4.806357294057757e-08,-1.6749278287369125e-07,-9.992088969456792e-08,-3.3227503724786176e-08,-7.28206567921142e-08,-3.4501706695630016e-08,0.09999993597656057,0.04431050752835078,0.09999997312980252,-1.8003634317570327e-08,5.498733973329175e-08,-3.7675666413040804e-07,-1.2891440626231274e-07,-8.037297916420645e-09,-1.3648758005585045e-07,-8.0887327230511e-08,-3.73496378768919e-08,-6.639418180541618e-08,0.04640144068749071,1.5213230802181566e-08,-5.743017705916145e-08,-2.862320630898144e-07,4.775036304905161e-08,0.10000005826997165,0.018006356610495437,1.6158281110806036e-08,-2.3775387276609152e-07,4.832914559897917e-09,-1.367868657699624e-08,-2.0827373536098662e-07,0.09999990726366063,-1.466127297137443e-07,0.09999997710247051,0.06565997687114097
7,2020-06-24,Simple + Baseline,4.10905649443762e-08,0.09999988658798663,1.1405314780556532e-08,3.85933715603187e-08,0.055688648091767164,-2.300270171203905e-07,2.270992866847815e-09,0.0854721335286125,-1.183751963712783e-07,2.5280601256706634e-08,-2.6483550533778626e-08,0.020617392955817153,5.229725108038233e-09,-7.893139346266527e-09,-5.543481526218644e-08,-6.733501468793284e-08,4.870768822162947e-08,-5.914434013085992e-08,-3.6482930466406716e-08,-1.8493844463087054e-07,3.7286866416171625e-08,-8.813383992340854e-09,0.09999981471575672,0.09999995227859221,0.09999985526654616,-2.6616946366768375e-08,8.159509940038572e-09,-2.046513849115976e-07,2.5485878315739526e-08,-8.651140773186976e-09,-2.1418387799724567e-08,-2.569959360625884e-07,-4.465358420014993e-08,6.007395590912465e-08,0.09986925959581108,-2.416179829181572e-07,-6.552172177611586e-08,-3.0545009677505654e-07,-4.171189014253133e-08,0.09999972650441293,0.02321335683011451,-2.6136619157413313e-08,-3.837522800356806e-08,-2.0934833998325685e-07,4.038791244453445e-09,-1.447943335146088e-07,0.10000004312840305,-6.58666377307491e-08,0.10000000579899153,0.015142116246785488
7,2020-06-25,Simple + Baseline,-7.353626854634905e-09,0.09999996250189865,-9.545195773463404e-09,-6.137807526318397e-09,0.0556885988344628,-1.0543729245311303e-07,-1.8292787684788546e-08,0.08974882295056065,-4.465479026317381e-08,-1.3526668737361248e-08,-2.2400663902928984e-08,0.02061738453398564,-1.692020696278524e-08,-1.3784838409924861e-08,-3.106857797650135e-08,-3.246907141180191e-08,-1.058115886870186e-08,-2.2268047492929854e-08,-3.645147492622051e-08,-9.973842957594125e-08,-1.1772323457872785e-08,-7.552647580623569e-09,0.09999994660291914,0.09999998778179738,0.09999995818296638,-2.469384340148523e-08,2.1372912155080803e-09,-7.783393491739026e-08,-1.1374356710328496e-08,-1.4163841585347489e-08,-2.234414741725551e-08,-1.1866466585195766e-07,-1.9144343200457053e-08,-4.736673693081028e-09,0.09999995235021654,-1.0852435095157617e-07,-2.566091612950807e-08,-1.5947289904407665e-07,-2.7082944095167673e-08,0.09999986112409626,0.023338312902360638,-2.829833580682975e-08,-2.558527543747931e-08,-1.0735930190752739e-07,3.564754533394206e-09,-5.976371432882732e-08,0.099999989383062,-2.6768513106801567e-08,0.1000000019658444,0.0106085865680612
7,2020-06-26,Simple + Baseline,3.497322342235259e-08,0.09059950641410368,-8.275209841662924e-09,-1.7455896610228844e-08,0.001916993491225201,-1.038231306576222e-07,4.964739279643522e-08,0.09332294572443482,0.08169357622391434,7.148138448515828e-08,-1.4412850874339817e-08,-4.587677256205104e-07,8.496789550065265e-08,7.216214185738941e-08,4.523038975577308e-08,-9.641194523111325e-09,-4.970838016917299e-08,1.8359218709796607e-09,-2.664835489961276e-08,-2.1787219639398453e-08,-4.742184058444155e-08,1.1339297112041257e-08,0.10000002657216467,0.09627222088424206,0.10000001293878484,-2.7697846957096906e-08,-6.76187332669758e-08,-4.576840347203361e-08,2.982731825657064e-08,1.4713581113172364e-08,-6.380795202560854e-08,-1.2149456863326678e-07,-7.218947719046515e-09,1.1796514531214637e-08,0.10000002430367874,-3.5560510901137355e-08,-2.5058164859370433e-08,-4.7024568160226334e-08,5.313830686809626e-08,0.0999998865569579,0.02558664118222977,2.3404213883646364e-08,3.614298054324072e-08,1.1045320108766189e-07,6.005736502472536e-08,-6.198479494900845e-08,0.10000002602456572,1.1345564641700129e-07,0.10000001857792638,0.010608557704739119
7,2020-06-29,Simple + Baseline,7.252466799606331e-09,0.1000001638765969,-3.7928343894554835e-09,-5.164548409380956e-09,0.003744108815712481,1.4284684070542345e-07,9.172500534454567e-08,0.09119684654296592,0.047856811340090434,5.817910918484598e-08,-6.729986179851917e-08,2.688453383526299e-08,9.796841696012926e-08,9.698265213440955e-08,1.5003168574568153e-08,-1.7519875717720134e-08,2.3820104519875637e-08,3.1709173140051917e-08,2.2693631816421027e-08,1.5301421352390176e-07,4.053786034452147e-08,9.362449991559885e-09,0.10000023277112315,0.09627272888916698,0.10000015751220188,-7.528425355794319e-08,1.5191818897010158e-07,1.000757951496682e-07,4.2120623145914256e-08,-1.2713276160065447e-08,-4.125081547208836e-08,-4.9693842374950075e-09,5.1479643586346074e-08,5.6094280058002436e-08,0.10000021101346915,1.135504356446534e-07,3.0569254041853336e-08,8.584877130079603e-09,5.6422186548868284e-08,0.10000020626043091,0.026224018709819774,7.180024433543807e-09,1.0433241429751196e-07,2.0862124705413112e-07,7.770957206610164e-08,9.009395825073067e-09,0.10000003772889637,8.50162385020887e-08,0.10000007932892443,0.034702702886276623
7,2020-06-30,Simple + Baseline,-1.2014062550105026e-09,0.10000003006642655,3.3257923256559653e-09,-1.7631265894866178e-09,-1.123169616692566e-09,5.096760869656137e-08,1.4094722447486258e-08,0.0700555812765563,0.07912947958929745,-3.14479273845303e-09,-8.095745301964628e-09,2.269042874523883e-08,1.0657432813072663e-08,1.7660365381159543e-08,9.436880963135663e-09,-1.0146500770378126e-09,5.530106470244705e-09,7.0924586681364764e-09,1.1163905572745512e-08,6.591305762125678e-08,2.4114436767350862e-09,0.0015632390285403466,0.10000008098354297,0.09627273183427432,0.10000006751399582,-2.1039425955304263e-08,8.669403913965151e-10,2.838012238984061e-08,8.18834600714256e-09,-1.778456598688896e-08,9.302076983870245e-10,7.080573649079872e-09,2.9801383371985034e-08,7.1135629278127384e-09,0.06416746255558271,4.928441080564905e-08,2.226986800768854e-09,6.914873977659397e-09,1.0671939649039072e-08,0.10000009423082461,0.026223612819240776,-6.2442364303129555e-09,9.854029108432444e-09,8.518379708314898e-08,7.270167611199502e-09,7.3618901346910844e-09,0.1000000068141268,2.3657676504539614e-08,0.10000000352409824,0.0625871654279185
7,2020-07-01,Simple + Baseline,-5.031706170180821e-09,0.10000002979766101,-3.4900233719212215e-09,-1.2275593151481779e-08,-8.496535050735269e-09,4.100900135019989e-08,-3.907436274184673e-09,0.05892698502792858,0.07912944157639736,-9.547100641696552e-09,2.1617794476794757e-09,2.729600342015464e-08,-1.4777840385386624e-08,-5.312602805679245e-09,-7.937700890619684e-09,2.37016419944322e-09,-5.181017735258174e-12,-2.42958714238059e-08,9.931798367417186e-09,3.598013960723542e-08,-2.2988827308268657e-09,0.05510138690585304,0.1000000002625269,0.07838131749050666,0.10000003001991442,1.0952169160765507e-08,-1.2333775794000829e-08,1.3292500307965154e-08,-8.067324083048625e-09,-8.26420432030499e-09,2.1952073085069267e-09,3.8905063749736285e-08,-1.6157998585569256e-08,-1.6844960145444504e-09,0.06416752669822375,5.102664662936353e-08,4.405340455095457e-09,2.4395014519415938e-08,1.4804933894851894e-08,0.10000006868998418,0.026273770641986167,6.412333531227634e-09,-1.9300481928389574e-08,3.797672518200161e-08,-1.5413166000540533e-08,1.4660768406457058e-08,0.10000001007753995,-2.393326977298568e-08,0.09999999579893629,0.03801930164490648
7,2020-07-02,Simple + Baseline,-2.5721958651783154e-08,0.09999999938301102,-2.0924177250342764e-08,-1.5298105534425776e-08,-2.11800503440885e-08,-7.889743156368286e-09,-3.478491338165395e-08,0.04870432556453457,0.09999995066423735,-4.001803744165613e-08,7.731253969507416e-09,-1.3858872154023542e-08,-4.2254364905030186e-08,-4.2971722587657264e-08,-1.3283531300117487e-08,-1.2323228539742375e-08,-1.8973069419555727e-08,-2.910543636990092e-08,-1.738823029504826e-08,-5.276501852932383e-09,-2.127375355054136e-08,0.002261226202719184,0.09999991648989429,0.08626380879708866,0.09999999139866766,4.574178283635173e-09,-2.6429665443705605e-08,-2.3547390762448013e-08,-3.469117265546682e-08,-7.694737439358934e-09,-4.972252422111816e-09,3.478540073305746e-08,-3.784289598689546e-08,-3.05499527715317e-08,0.08220205086990376,3.238367970580562e-08,-1.118007045735892e-08,-3.793957484987695e-09,4.523085413137432e-09,0.09999993232143585,0.02665739409181192,-3.131507607024746e-08,-5.2328244711349336e-08,-3.6358956914405514e-09,-2.61791386982664e-08,-1.6530782521549977e-09,0.09999998819632924,-3.9421092642288324e-08,0.09999998698011354,0.053912062927334026
7,2020-07-06,Simple + Baseline,-9.276467689904776e-07,0.0999968321347052,-6.242467709175169e-07,-7.791098914400271e-07,-2.0831451575969543e-06,-1.7771183705467941e-06,-1.1942547250547263e-06,0.05829830550671598,0.09999858175733943,-1.3851801617701486e-06,-4.3664449282489676e-07,-3.57592653742319e-06,-8.761389302629117e-07,-1.5910812201059013e-06,-1.4483061441143903e-06,-1.7005713546896317e-06,-1.630633532015697e-07,-1.0209639535441992e-06,-1.6390522088532167e-06,-2.990142937239258e-06,-6.60911650688529e-07,-2.1846073522694205e-07,0.09999468948859103,0.09999871746007552,0.025303163704607435,-1.5092491497692817e-06,-8.83245222333769e-07,-2.7589911803508685e-06,-1.6186583386876236e-06,-2.0016749862309766e-07,-5.295949857169536e-07,-3.433887526730436e-06,-3.036447212145684e-06,-9.262471754742178e-07,0.0999916268394737,-3.1108415784755258e-06,-1.136345302734131e-06,-5.388496189550734e-06,-6.177838204048021e-07,0.09999052319210164,0.01649427082660217,-1.6211040927050616e-06,-1.966678151083641e-06,-3.644742459679581e-06,-1.0228575129603103e-06,-1.6108379573887962e-06,0.09999929156635072,-2.2881935036386796e-06,0.0999995249681916,0.09999690499456555
7,2020-07-07,Simple + Baseline,-1.8919735241194437e-07,0.09999900557558501,-1.7558711910873177e-07,-1.5893322747610045e-07,-7.990790443316015e-07,-8.307853407545799e-07,-3.0962614492891e-07,0.04853469732598054,0.09999944391861733,-3.5539782677554614e-07,-7.297687310634003e-08,-2.1184698333961525e-06,-2.120521456975541e-07,-4.986440119748409e-07,-3.792606272698524e-07,-5.471974680311725e-07,-1.583258264405409e-08,-3.338042626241022e-07,-5.158779270716666e-07,-1.5745160751122286e-06,-1.319897320112757e-07,-1.155934685704437e-08,0.0999976173374326,0.09999963027892567,0.03301357536271676,-4.413541964172811e-07,-2.286604949039304e-07,-9.740671559887728e-07,-4.1018848972597094e-07,-1.9098860417116507e-08,-1.1793675850689452e-07,-1.5083782651457846e-06,-9.810159762170375e-07,-1.846077581873701e-07,0.0999953671723867,-1.4922257549793604e-06,-2.7820966219311747e-07,-2.518218732404489e-06,-1.530368162791625e-07,0.09999500929421525,0.01849026543986242,-6.056405987838076e-07,-6.091563063024272e-07,-1.9324019999430374e-06,-2.880610547390324e-07,-5.350508602078205e-07,0.09999985467707717,-7.159376326978694e-07,0.09999991298068082,0.09999884852486901
7,2020-07-08,Simple + Baseline,-1.432975633099892e-07,0.09999997634009601,0.0636612516901167,-8.789272620678972e-08,8.874318687865885e-07,4.5157624986389205e-07,-2.168734646079121e-07,2.549616220913505e-07,0.027704976860201774,-9.480477969401171e-08,2.9515847928504405e-07,0.06374896339894057,2.3316624721171047e-07,4.662586239805223e-08,2.520217240406447e-07,-1.153220930940406e-07,-2.9726745571020303e-07,4.288578991083919e-07,4.41921324663928e-08,9.104968614557172e-07,-1.6513354934851036e-07,-3.1516515238012115e-07,0.10000085622593681,0.08724653998201128,0.03301793340768229,-4.822213666977264e-09,7.539746049134371e-07,4.860615838438748e-07,5.9396758597341096e-08,-1.0679081306932903e-09,-1.6445524973144241e-07,1.9259591919006872e-07,8.462984751854064e-07,-2.486411886514397e-07,0.09999984653283722,6.418116812198507e-07,-3.76273621651914e-08,2.940238097376661e-07,1.3751591610658495e-07,0.10000041688607522,0.02165342666287353,7.722933552482686e-08,1.1191375020942069e-07,0.0029592777632466206,5.42339444572884e-07,9.725045956704246e-08,0.0999996913787265,3.480288330456937e-07,0.10000011002199208,0.10000020956052236
7,2020-07-09,Simple + Baseline,-1.1953366220723046e-07,0.09999982542274814,0.06366041786729276,-1.6013554811382156e-07,8.8545299941764e-08,8.149617058596696e-08,-1.9942138254216152e-07,-9.436169680829614e-08,0.02770481414318952,-1.7480497501174776e-07,-5.597963680775337e-08,0.08468964011682509,-1.3669280864427161e-07,-2.2023922070110687e-07,-1.3627652453539536e-07,-2.0157279077760272e-07,-1.1214510031366719e-07,-1.503593193982811e-07,-2.0877283023663097e-07,3.0977624043189917e-07,-1.1214607925468147e-07,-1.6425135873839794e-07,0.09999997064766727,0.09396007657450618,0.0020390428942965136,-1.682655471149478e-07,1.891286021196407e-07,-1.2856900714624176e-08,-1.324171095791647e-07,-1.400711826360032e-07,-1.8140010242912399e-07,-9.676297412599218e-08,-2.195184680798302e-07,-8.479157747424281e-08,0.09999988973176036,2.5453438798948914e-07,-1.1997852501387574e-07,-5.127648291504358e-08,-4.8159622062886764e-08,0.10000020728967113,0.021635165053378754,-2.0660649954153193e-07,-1.4208497054116767e-07,0.006314679012645962,1.0302989716205559e-07,-1.0696039505942254e-07,0.09999989822097777,-1.4210037731895698e-07,0.09999995204023827,0.09999949424843034
7,2020-07-10,Simple + Baseline,-6.404333163945498e-09,0.1000000777387181,0.05199175536916639,2.8955432202129142e-08,0.009175195728833204,1.2024510977690005e-07,7.712576544532857e-08,0.011823609389344333,2.86348314519418e-07,6.743872807781737e-08,-2.9572786491317175e-09,0.024997339712125585,2.91066529850047e-08,6.616406352622797e-08,-4.381594335697067e-08,9.379290624639899e-08,8.32425725174941e-08,-1.159560556998066e-08,5.2751349891769716e-08,1.5202597065269697e-07,6.423846148538957e-08,1.0255864755384205e-07,0.10000002159752579,0.10000018876774092,1.6687736482920713e-07,5.059527229301294e-08,2.662940873628436e-08,8.003869020181441e-08,2.3772835446563897e-08,-1.8186676099461013e-08,6.078877005086466e-08,9.782626248652919e-08,-1.0153280575172536e-07,9.022216056627986e-08,0.10000001625846647,1.1395140625024609e-07,2.12080736366814e-08,9.96057374763255e-08,1.0625462397109671e-08,0.10000022304027009,0.02258397202988017,4.7221501566862e-08,-1.6226109613654427e-09,0.07942538690647057,1.3531458566946937e-07,6.872645052910524e-08,0.10000012310625107,-1.8901451905122437e-08,0.10000001301472639,0.0999999646521922
7,2020-07-13,Simple + Baseline,-2.47143351931135e-06,0.09999923551846147,-2.118368078825859e-06,-1.7767740077138592e-06,0.05720115326099101,1.2371758048065993e-06,-2.205363971034321e-06,0.03866285299150924,1.2278339278574742e-06,-2.5558602777839245e-06,-3.4281707643856336e-07,0.018022516197845756,-1.7071716778366907e-06,-1.7552023017160994e-06,-1.4714656784868608e-06,-1.081106673042683e-06,-1.4136958282285966e-06,-9.850949288529723e-07,-4.403536178002988e-07,3.2310403731358275e-06,-1.4502673486691535e-06,-1.3261804428308812e-06,0.10000259165394894,0.10000136494629433,2.98541612409487e-06,-1.5592809925509398e-06,8.456400352491017e-07,9.388864543357559e-07,-2.3379063870118217e-06,-4.902226299380321e-07,-1.3020988416124206e-06,2.348860171307108e-06,1.109155218857208e-06,-2.186235859889485e-06,0.10000501899270631,2.396062615563754e-06,-6.132538601078064e-07,2.440313991423451e-06,5.898134329290357e-07,0.10000577837242705,0.021530099455387856,-1.1946239531317773e-06,-1.276131677673068e-06,0.06458306402034829,2.3272933897222826e-06,8.341785974577065e-07,0.09999800432649665,-7.339516569557118e-07,0.09999977566329532,0.10000078536216397
7,2020-07-14,Simple + Baseline,-4.178067527989418e-07,0.09999990912231246,-4.350362715684611e-07,-3.427622305292669e-07,0.01999157656038864,6.091247457506444e-07,-5.109175023636252e-07,0.038662070960412194,6.07042915376482e-07,-5.614099330236191e-07,-8.974488823055339e-08,0.05216629255436151,-3.913403164083718e-07,-6.201496477001765e-07,-2.569905776556348e-07,-1.9518438216904654e-07,-8.276706753479326e-08,-2.2974246811226704e-07,-1.6503698767146676e-07,1.5000182871545219e-06,-6.903330647471317e-08,-1.8971299322041293e-07,0.10000140556550478,0.10000044049581733,1.2877821950895086e-06,-3.009010082124067e-07,3.294324864832308e-09,4.3951745997047127e-07,-4.6712857266888194e-07,-1.5182299817589996e-07,-2.6983461188445997e-07,1.538449642085343e-06,-3.7007723382286435e-07,-1.739978520268843e-07,0.10000282347182993,1.5552577770735409e-06,5.913809372006851e-09,9.982358561142282e-07,1.8822940807494765e-07,0.10000269680239399,0.02164589736583988,-6.76930046105639e-07,-2.505754009798884e-07,0.06458294971609403,0.002942567024771392,5.611136676466845e-07,0.09999999494527469,-1.5220488602435703e-07,0.09999999119856377,0.09999946075195919
7,2020-07-15,Simple + Baseline,-1.9364139968492858e-08,0.06165761487920699,-1.9359860008907665e-07,-6.713838047163631e-08,0.02878336124263011,-5.6870810559424226e-08,-2.848181773743278e-07,0.05666695375542959,-2.733340467442217e-07,-1.6357019807427492e-07,7.01377357518122e-08,0.052164852264871844,-1.947084543638991e-07,-4.171506627266837e-07,6.456054719639038e-08,-3.003254946940921e-07,-1.8242288000449098e-07,-2.31724785534474e-07,-3.7405475601477796e-07,3.2478333687329473e-07,-1.6586909786919167e-07,-1.6399893543264398e-07,0.09999910434984247,0.09999942819010432,-1.3673527510633088e-07,-1.8772239310418141e-07,-1.3786279269990095e-07,-3.0023871972179844e-07,-1.243354411427809e-07,-1.0381838975056023e-08,-1.78384631989052e-07,-5.379651451349776e-07,-2.091962434121233e-07,-2.119793895618696e-07,0.09999926431392744,-2.0231802459138184e-07,-1.0423123307181778e-07,4.090209938392332e-08,9.318253027892695e-08,0.10000037902903966,0.022150339776636756,-3.8675865994979886e-07,-1.5765244645169955e-07,0.07564509984692422,0.002939928858569766,-3.3794696501237016e-07,0.0999998018784182,-6.905206850425494e-08,0.0999999323202035,0.09999973212752832
7,2020-07-16,Simple + Baseline,-4.2958631430524857e-08,0.09999995130505458,-8.21107007573693e-08,-5.407059792841086e-08,-7.307958322029838e-08,-7.160980205336795e-08,-1.1260389241997978e-07,0.056666543773722926,-1.0817269079188733e-07,-7.74038265491286e-08,-1.9107172647255094e-08,0.05306536172867226,-7.956677846355558e-08,-1.7262043861476642e-07,-4.528226473115759e-08,-1.3846342935574831e-07,-4.764333478802706e-08,-1.033233466002348e-07,-1.5707609650201022e-07,1.0990971722226632e-07,-5.0893645291113175e-08,-7.269566435252973e-08,0.09999964935236905,0.09065420540115966,-6.922181497303698e-08,-8.824454067195729e-08,-1.598021616378492e-08,-9.339728065248959e-08,-5.7237687633575095e-08,-5.5860247896262106e-08,-8.463368107253025e-08,-2.4294662417406466e-07,-1.0880614613080272e-07,-4.2251139079170357e-08,0.09999960722045133,-7.975336731911644e-08,-5.8576363703798354e-08,-3.709687555778481e-08,-2.092491556700984e-08,0.10000019027740745,0.02214459155877456,-2.0161716028480773e-07,-7.637261570107657e-08,0.07747307867205529,-9.34932915046689e-09,-1.2889562624785366e-07,0.09999996091207451,-5.498548758349302e-08,0.09999998179627106,0.09999980282501199
7,2020-07-17,Simple + Baseline,1.6838675974712965e-08,0.09279170243028195,1.6765086196452546e-08,1.1967112585834474e-08,-6.3546456337400164e-09,4.39061050932169e-09,2.6534671103864597e-09,0.040262236657625815,-7.64659077002262e-09,8.404122176767148e-09,-4.009924781529487e-09,0.09877467120232547,1.6563002090569754e-08,-1.1975093614845144e-08,7.342265575615196e-09,-5.017397279335043e-09,2.1806659596696726e-08,3.4261026836683875e-09,-1.8389827631373554e-08,6.182601713750522e-08,1.8576149707781126e-08,-2.209501842085998e-09,0.09999990548322767,0.05578076550391867,-3.2536828065048163e-09,-1.826478013249557e-10,4.908000299181272e-09,-2.0959295684238927e-09,1.2362125282314924e-08,1.0769836539027155e-08,9.175923508442802e-09,-7.854111824723834e-08,-1.0791917234231306e-08,1.9512780842461143e-08,0.0799874191284694,-2.7820881778491944e-08,7.803360166427164e-09,-4.81704375671771e-09,-8.226370095530917e-11,0.1000000894983846,0.025599760001530723,-3.400866586032106e-08,1.625643592758166e-08,0.07747309662933191,0.029330332678787357,-1.217775463042432e-08,0.10000001771792295,4.3071513010169875e-09,0.1000000112621326,0.09999994553073348
7,2020-07-20,Simple + Baseline,2.624570599914428e-09,0.09999999918539475,0.045128111279005075,1.9000975204583786e-09,-1.8468280354494878e-09,1.6471904354551129e-09,7.386602770248927e-10,0.00519174454059459,-2.4795265479404416e-09,1.8130016027400533e-09,-2.8822488796764043e-10,0.100000010699886,3.6555182402789255e-09,-3.209972121193484e-09,1.6128859166269136e-09,-1.3469131407900652e-09,2.479710026835349e-09,1.0289086820249144e-09,-4.933539472067232e-09,2.7509438089958018e-08,2.640453532964265e-09,-4.4131201584313106e-10,0.09999996248177925,0.05578076217545814,-1.557856419764605e-09,-9.201077049221608e-11,1.0340618261685858e-09,-5.853627880576595e-10,2.4849485897934475e-09,1.7464643139906189e-09,1.8355342056835798e-09,-3.2301091293013715e-08,-2.6952362035074786e-09,2.6765344149306794e-09,0.10000000779445212,-1.1287821940308124e-08,1.7118452184030975e-09,-2.3494327410309235e-09,-2.406903021339622e-11,0.10000003928912095,0.028308331292727324,-1.0332127835459673e-08,4.405767556619295e-09,-1.1448396958519819e-08,0.06559107161589726,-3.5923161080931015e-09,0.10000000177958647,1.2914325014341326e-09,0.10000000072369801,0.09999998312233027
