seed,date,strategy,NYSE:HTH,NASDAQ:HOPE,NASDAQ:PCRX,NYSE:ARW,NYSE:VST,NASDAQ:NEOG,NASDAQ:AAOI,NASDAQ:ZBRA,NASDAQ:TCBI,NASDAQ:CSTL,NASDAQ:WDC,NYSE:HLF,NASDAQ:IRMD,NYSE:BCC,NASDAQ:CRDF,NYSE:IBP,NYSE:PBI,NASDAQ:MDB,NASDAQ:PNFP,NYSE:FDX,NYSE:GKOS,NYSE:MTZ,NYSE:TFC,NASDAQ:TSCO,NYSE:TRI,NYSE:ROG,NYSE:NEM,NYSE:IDA,NYSE:SMG,NYSE:GNRC,NYSE:FCF,NASDAQ:SAGE,NYSE:ELAN,NASDAQ:INTC,NYSE:UVV,NYSE:MLR,NYSE:TRU,NASDAQ:EBAY,NYSE:OMF,NYSE:MAS,NYSE:BBW,NASDAQ:SPSC,NASDAQ:PFG,NASDAQ:EEFT,NASDAQ:OSW,NASDAQ:TBBK,NYSE:MOH,NYSE:CRK,NYSE:LC,NASDAQ:LIVN
14,2020-03-18,Simple + Baseline,1.4552079634783483e-08,1.792140654228948e-08,0.10000001998398865,1.864925606171939e-08,0.10000001492460002,0.10000001993520873,3.539933921544279e-08,0.1000000211475066,1.3127639122020584e-08,1.7963641528257215e-08,2.0316414399532512e-08,0.10000002262313684,2.4581028404742557e-08,1.6499148867959957e-08,2.4996093877424828e-08,1.497177871732289e-08,1.5037514569492473e-08,3.477737776130432e-08,1.3597007556110361e-08,0.10000002182790874,2.029966791812841e-08,2.416016786102107e-08,-3.979012985743966e-08,0.10000002117083556,0.10000001994821842,1.8164283404847226e-08,2.528015767507668e-08,0.09999983743750031,1.3495485148112418e-08,2.742281442717003e-08,2.5373388704162626e-08,-6.204918278290235e-07,1.6186048137703134e-08,1.8544303771973216e-08,0.10000002020344491,1.8197884714336475e-09,2.1709459968682317e-08,1.8247201653407156e-09,1.6723380556134734e-08,3.4251060342633026e-08,-1.8585368790309016e-08,1.5290231820615188e-08,1.4978473607160246e-08,1.8736730472598484e-08,1.5677141203426024e-08,1.355237669980419e-08,2.4671600050436245e-08,1.6556270395761705e-08,-2.6266867588848765e-08,1.882381625773537e-08
14,2020-03-19,Simple + Baseline,-3.6443942522072516e-08,-3.4558501387782286e-08,0.09999996650752437,-3.415270347241831e-08,0.09999996346951186,1.3966833605512743e-06,0.0999999702387822,2.6061050623452784e-08,-3.7355216825426264e-08,-3.4516368568159566e-08,-3.316755190009409e-08,0.09999996778152957,-3.067707453623365e-08,-3.537121041123491e-08,-2.8292782278195647e-08,-3.3797648629025423e-08,-3.626936061827184e-08,0.09999996670627295,-3.699546854652715e-08,0.09999996743580626,-3.3018527800239205e-08,0.09999996344797742,-6.264667579438628e-08,0.0999999671582386,7.966696759825785e-07,-3.4382230974495144e-08,-3.024009326822499e-08,-9.454033828025475e-08,-3.7114909920633797e-08,-2.9008758433337577e-08,-3.0231638677067004e-08,-4.0859459042109873e-07,-3.55369371263865e-08,-3.4189730576715144e-08,-1.6642958081091168e-07,-4.236478509033759e-08,-3.227181690323835e-08,-4.395405786143342e-08,-3.517651048087719e-08,-2.4966322294410498e-08,-5.4582053718493784e-08,-3.614617927423865e-08,-3.6301737995790933e-08,-3.414320927321246e-08,-3.553720393606471e-08,0.09999996381393646,-3.0646097519806064e-08,-3.1998399525944764e-08,0.09999996427435452,-3.395255754292024e-08
14,2020-03-20,Simple + Baseline,-4.9932614386730565e-08,1.8948579535561874e-07,0.07757935520611649,-5.6670048416624483e-08,0.09999995852818463,0.10000017370131417,0.033155781223899256,0.10000046969325516,-5.5223084447510996e-08,0.08926245568311678,-6.31765589787829e-08,0.10000001136568788,-9.825679396029479e-09,-5.951594488170916e-08,-6.236393722809816e-08,-5.5267533129650856e-08,-3.512561043312551e-08,-6.292245398543437e-08,-5.8587176998168166e-08,0.10000003858310051,6.08219943738974e-08,-6.144365415552342e-08,0.1000000280451981,0.10000021370811665,4.5029277805860246e-07,2.6406138771812295e-07,8.513498330064376e-09,2.99491856988431e-07,-6.334107857874577e-08,7.577990991395937e-08,-4.358375778088002e-08,7.186629085709147e-08,-5.7157750910573555e-08,2.552418038387283e-07,1.2698978057456958e-07,-4.6841154844017224e-08,-3.30907669831227e-08,4.989533694027568e-07,-3.9409314791870416e-08,1.3769072582788084e-07,0.09999996488936186,-5.95531898000307e-08,1.9258437629312564e-07,-6.174663747564583e-08,-1.4814769183121239e-08,-3.9888143773148376e-08,1.2524522522384347e-07,-2.31263315600228e-08,-4.996172144287535e-08,-4.806144384371968e-08
14,2020-03-23,Simple + Baseline,4.830261565131109e-08,3.6764190575595173e-09,-9.282880359996025e-07,-6.899270467688993e-08,0.08235990759235699,0.1000003722642567,0.09999971061813538,0.0999997913501049,-2.4368071173832046e-07,0.011271805884145012,0.10000020586438926,0.09999946234829173,2.6261784816210557e-07,2.088159081278613e-08,-2.6783260622399094e-07,-1.930480398596876e-07,-2.644497949728143e-07,0.09999976042220889,-4.166661936927497e-08,0.0999991692891868,5.165408809215119e-07,-2.722545635895686e-07,-5.871857015144893e-07,0.09999981448753315,0.006370397593149008,6.22329192036583e-07,5.512949319518174e-07,8.912646348066791e-07,-1.6032217765209957e-07,-2.2138456370818688e-07,-3.568869894137018e-07,8.119056375496021e-09,2.4190871687930424e-08,0.10000128543962318,-4.652465214839072e-07,-4.254040718564536e-07,4.135500753749999e-07,1.352709453803425e-06,-3.3662647856537794e-08,8.281086143395587e-08,-4.042047037492167e-07,-7.467379765018814e-08,-9.244484527572428e-09,-2.032243921669826e-07,2.0396374857021758e-07,-1.2027414933063248e-07,-2.333005712050327e-07,-6.231084343571292e-07,-4.6895849645638806e-07,-2.1984502038189448e-08
14,2020-03-24,Simple + Baseline,-1.0964129490534826e-06,6.362916669728478e-07,1.9094220013589937e-07,-1.389684791733267e-06,0.09999901399942815,0.10000016194070455,0.09999794502343892,0.10000493612076543,-6.092073414774258e-07,-1.355846511807837e-06,0.09999902843226642,0.099999816116498,5.8692184956948634e-08,-5.76724491722171e-07,-1.7618597525355105e-06,-1.2896452905164602e-06,-9.840745763982516e-08,0.09999818641633575,-9.88356465006834e-07,0.0999990646665119,4.375718724659334e-07,-1.4413833228493095e-06,-3.599374603109502e-07,0.10000273696679816,1.9525995649613975e-06,5.774837627564348e-06,-2.3538762038235778e-07,2.8792305704322744e-06,-7.110127962384047e-07,4.4876255948168193e-07,-8.021452947715157e-07,7.792324541391062e-07,-1.2328164579581615e-06,0.10000132024744153,1.6220507818843335e-06,-1.1342430952790815e-06,-1.3974489533934427e-07,3.735740512876932e-06,-9.703372071907446e-07,5.953179855262567e-07,-7.382244613188446e-07,-1.5607515491283732e-06,1.0882169563655972e-07,-1.4783903472302328e-06,-4.2328699017560657e-07,-7.231058941273086e-07,8.200397923241337e-07,-2.749231206416629e-07,-6.635046574185913e-07,-2.1198619663789794e-07
14,2020-03-25,Simple + Baseline,-1.010764311331294e-07,2.594689398082927e-07,1.620316626370915e-07,-1.0255996991203586e-07,3.811667151751795e-08,0.09574410392036971,0.09999980171438172,0.10000198047654604,-5.294280660395522e-08,-9.388153269737349e-08,0.0999999491670742,0.10000003546692549,2.287367796536423e-08,-7.805050306892249e-08,0.10000004475756383,-6.997535555112387e-08,-5.8825300619334346e-08,0.04319427227820507,-1.0533024569400097e-07,0.09999993366589845,7.646264227674037e-08,-1.4007575759816065e-07,4.562143911015989e-08,0.10000136976604942,0.016723814841232594,6.602452469691288e-07,5.185245984078121e-08,5.796947617121019e-07,-2.7510532546117985e-08,2.2022395021950963e-07,-1.1334018877497657e-07,3.113953257646634e-07,-9.811866191895423e-08,0.10000044913684045,4.866486583007356e-07,-2.217371615621812e-07,3.521445557156573e-08,1.0601710741586289e-06,-5.501869907239256e-08,1.4116050436933226e-07,-9.499864004839232e-08,-1.5684426272455918e-07,0.044331566487893465,-1.1529830840269064e-07,1.0886039247643864e-08,-5.081090331109676e-08,2.6593317067868024e-07,2.261688563185274e-08,-5.048412453114574e-08,1.0934621872730067e-08
14,2020-03-26,Simple + Baseline,-3.812446136507309e-07,-1.1134420045126416e-06,-8.392976441963942e-07,-9.495629003174053e-08,0.06999154366275967,0.09999461656223696,0.04774496277756181,0.09999478078166774,3.9752365189739137e-07,-4.2183849629582194e-07,0.09999913980220529,0.09999986586703957,-1.176497847164194e-06,-5.360590597144609e-07,0.09999961521712637,0.03588641684941163,4.866620561709635e-08,-8.041296000658291e-07,-2.427708336261161e-07,0.09999637616839169,-1.189511550160532e-06,-2.530234124439618e-07,2.6811331809694165e-07,0.09999114540341691,-2.755550970334281e-06,-1.474375400249195e-06,-1.2920012445425525e-06,-1.8111401444124373e-06,-4.587654781693264e-09,-1.4453442265212428e-06,-5.817055343615547e-07,-1.632952497872315e-06,-8.369937741305059e-07,0.0999945258471216,-1.2746289217127994e-06,-1.4312073429814193e-06,-1.669234773639498e-06,-3.2002601865330233e-06,7.485972856457814e-08,-3.1798882204423166e-07,-5.092984680718658e-07,-6.981986649911848e-07,0.0464357260395616,-3.3916531428318867e-07,3.729914435642167e-08,7.648251267149049e-08,-1.2447610538651878e-06,-1.789321760047696e-07,2.482566739553827e-07,-8.446818635231435e-08
14,2020-03-27,Simple + Baseline,-4.186656400756614e-07,-2.255649684908824e-07,-1.0157510397416549e-06,-5.641904079259051e-07,0.09999907753769728,0.09999636272227759,0.0999991661106721,-9.181105103468308e-07,4.959736126333214e-08,-9.534282034262096e-07,0.09999960721455105,0.09999890234424201,-5.993622384001478e-08,-1.1383911978664547e-07,0.09999919888170676,-4.3373419591681033e-07,2.287056680952329e-08,-1.1896428318188948e-06,-2.1738939898041195e-07,0.09999711885679753,1.1675339641351935e-07,-7.771639964242443e-07,-2.924340309615112e-07,0.09999400217672641,0.09999982535674903,5.268796925069374e-07,-2.1645997687880975e-07,4.7662265121709674e-07,8.498584666423792e-08,-4.477874053873544e-07,-6.818583821981402e-07,3.1418978937897375e-05,-4.743901614792605e-07,0.09999817870190221,-4.607008677982474e-07,-1.5098259406709738e-06,-1.7835428087589117e-07,-2.9559652752673594e-07,-2.707280243789081e-07,4.915123807046372e-07,-1.2444022091864982e-06,-8.492751027695926e-07,3.639944205519562e-07,-6.66498320704212e-07,5.7424137035082383e-08,-1.6474084203624678e-07,-1.3958853373457134e-07,-2.8349045336300376e-07,-3.098301708370237e-07,3.3277284720529536e-07
14,2020-03-30,Simple + Baseline,2.134224054789996e-09,1.522602080234938e-07,-8.131581584409908e-08,-5.40165695779721e-09,0.099999998897824,0.09999974028114121,0.10000009719983367,-1.3131645339489103e-07,-2.6807638361856367e-08,-1.1788837041367043e-08,0.10000006498729883,0.09999993729691704,1.6407474418422534e-07,7.769377405059977e-08,0.09999988595264409,-1.1020976127154786e-07,-4.030671288071069e-10,-2.853816410364584e-08,2.7904731284028187e-09,0.09999952566755994,5.851321149567919e-09,-9.365306497498791e-08,-5.646825637364087e-09,0.09999822600313045,0.10000008642075074,-2.8842400055783435e-09,1.4842086846090702e-07,2.560571004843946e-07,-3.2269569966459354e-08,-4.9657394517047446e-08,8.171987700617401e-08,3.9062781288739666e-07,-3.42228378634448e-08,0.0999999202289178,1.2407744058737848e-07,-1.834146608413586e-07,-2.1731824372452238e-08,9.627223566283673e-08,-5.0671844198901476e-08,7.303510014298642e-08,-2.0733611354211195e-07,-5.532829843894161e-08,5.2796000525531684e-08,-1.2188074375209432e-07,3.690119712615706e-09,-4.200114584417692e-08,2.1682664690382184e-06,-3.6826438741358452e-09,-7.747908151617627e-08,9.275743255302934e-08
14,2020-03-31,Simple + Baseline,-6.596160866846325e-08,-3.254035648490749e-07,-2.0200007752056644e-07,-1.8132758337334975e-07,0.09999993200795547,0.10000002223768867,0.10000014936443069,-6.788040758713432e-07,-6.68300632448333e-08,7.248370278097228e-09,0.02489278145862198,0.10000013754379347,0.07122386056955601,-1.8111528624768829e-07,0.09999959311418331,-2.4625748524695353e-07,4.8030405868793343e-08,-1.3872995566046122e-08,-1.5252439942919209e-07,0.09999987581059762,-4.84960147775507e-07,-2.1056612433953788e-07,-1.5948526092033358e-07,0.09999936581460676,0.09999898078896384,-7.118793108827429e-07,-4.7351192711810954e-07,-6.389167920325719e-07,-4.211102315602143e-07,-4.861831653108263e-07,6.641405180946057e-08,-4.6814025038455594e-07,-5.006888568173456e-07,0.09999939238363129,-1.4340030566396747e-07,-2.810388333458327e-09,-6.833472012725108e-07,-7.138515834993091e-07,-1.021862978796782e-07,-6.105322090382303e-07,4.207599019933791e-07,-2.6119227183445134e-07,-5.472816565577244e-07,-2.997285872517849e-07,-2.32991940511002e-07,-1.8103244971743616e-07,0.0038965181877326795,-2.27217812331413e-07,-7.714998507773474e-08,-3.984876698674907e-07
14,2020-04-01,Simple + Baseline,3.406743356481259e-07,-1.7472352415186912e-06,-2.955334473078725e-06,-2.1148019534361668e-07,0.09999957895024648,0.09999722565400239,0.10000034438357898,-3.953386585209053e-06,6.02845997723909e-07,-1.3709236696180893e-07,-1.7097674733672246e-07,0.09999854746005128,-1.8400447990001915e-07,7.505419939502483e-08,-1.652462164212879e-07,1.0904740798479946e-07,-5.21920142282697e-08,-4.913527978051035e-07,2.2175433749504194e-07,0.09999726928974399,-5.40765596701019e-07,-4.384132869072378e-07,-5.567120213461014e-07,0.09999460785069123,0.09999666574103704,-1.555235390186174e-06,0.01893842414755522,-1.552085013114384e-06,2.438170998600456e-07,-1.6553741258186943e-06,-7.295806665444008e-07,-4.624458599843849e-07,-4.264176333784644e-07,0.09999729327888067,-2.2926448462674982e-06,-1.3957298142559162e-06,-7.257660109059672e-07,-2.3967778390283937e-06,4.672111771970368e-07,-4.2581893798211114e-07,-6.807408403568132e-07,0.10000004676112297,-4.4137239353550724e-07,-2.688320362500573e-07,3.954003279397491e-07,3.025701035220632e-07,0.0038881562102138787,0.07721621615804192,-3.361230326571301e-07,-1.6636303691890509e-07
14,2020-04-02,Simple + Baseline,1.651218806176571e-07,-9.068821580128336e-07,-1.8970461548268957e-06,-6.193771147392088e-08,0.09999907633495247,0.09999863617692317,0.09999955342946991,-2.5005545968347458e-06,1.0124763616094924e-07,-4.1157613248416306e-07,4.7368786514521485e-08,0.09999871676799685,-8.736690774667888e-08,1.0612245635397499e-07,-5.197057789120616e-07,-1.2124581888322508e-07,-4.790626711718402e-09,-5.825656752639873e-07,6.095781746455951e-08,0.09999807088537507,1.6249321112292743e-07,-4.231730145961696e-07,-3.832312758764919e-07,0.0999954643481269,0.09999755061116497,-5.332591869159797e-07,3.1260240503120066e-05,-5.621418736048644e-07,-5.409215409492093e-10,-6.805224168689027e-07,-5.745572324557633e-07,-4.658145393419447e-07,-3.2970651890492794e-07,0.09999902999396856,-1.3600555904504216e-06,-1.1258214494643982e-06,-7.966421292563708e-08,-1.1764491550370121e-06,1.075401284678432e-07,-1.406993970487912e-07,-6.359353228473456e-07,0.0999996690590612,-1.2238575235077916e-07,-2.666548168114478e-07,1.6923088368389015e-07,-6.168945938001547e-08,-8.189941688154763e-07,0.09999920521099634,-2.384385389675169e-07,-6.943856698985504e-08
14,2020-04-03,Simple + Baseline,6.802657986308577e-08,-9.993986202514969e-09,-2.293070021265491e-07,8.878375066524777e-08,0.0999999875997731,0.09999991396672239,0.10000004600722227,4.4067300188835166e-07,5.906282825029513e-08,5.003600663721293e-08,8.853469291058526e-08,0.09999993980284975,9.173001549422925e-08,1.062754383539349e-07,3.150895697171737e-08,4.20630709895713e-08,4.108610418550749e-08,4.1623943879007324e-08,8.836493444321593e-08,0.09999978948333789,8.277375200321747e-08,3.984361498028372e-08,4.5574586201394415e-08,0.09999878740016127,0.09999953922731972,3.3198067460458044e-08,2.9588857983536415e-08,5.643261613781677e-08,7.856287295319329e-08,2.4791753481267268e-08,5.720110443757556e-08,8.767427566762908e-08,6.310590188935693e-08,0.09999997542084733,-1.1891385138603947e-07,-6.097551600116932e-08,1.1555317192410896e-07,-8.00285092180191e-08,3.5012566163099335e-08,1.0113932482150143e-07,2.2497423079227682e-08,0.100000065154417,6.415234599313595e-08,5.741368306328573e-08,2.3910372324090227e-08,3.127207444179488e-08,5.960294909013743e-09,0.10000000520116577,7.619084484650829e-08,7.848579099305171e-08
14,2020-04-06,Simple + Baseline,4.3665292996213664e-07,-1.0304643167328394e-06,-1.8100105966785947e-06,8.277984123428844e-08,0.0999991215874799,0.0999989091507235,0.09999993123031349,-2.168219758384112e-06,1.1958061120427444e-07,-1.0694543790917382e-07,0.04135390323294774,0.09999856022716362,-2.650015972589594e-07,7.308721399303021e-08,-3.935816834826199e-08,1.5580572779334617e-07,3.0229097736348234e-08,-8.780418676381107e-08,2.4388883980981884e-07,0.09999865852823737,-3.6869046343515144e-08,-2.5826660896593577e-08,-4.750167307153008e-07,0.09999744534914895,0.09999679615781795,-8.236322357135675e-07,-4.990062281701953e-07,-1.582208654528736e-06,5.6861845922010573e-08,-7.523533141848451e-07,-6.249702181633476e-07,-1.168459856245834e-06,-2.9520857567020853e-08,0.09999873905828996,-2.240574752494747e-06,-7.817889296391653e-07,-1.3925138991369843e-07,-2.0462596251458957e-06,3.6578334031486716e-07,-7.465441917778006e-07,-2.4664767700399767e-07,0.05867648046985868,-3.751411212139874e-07,9.823405323639718e-08,1.5571348021179988e-07,2.390559966890321e-07,-1.0669732783088673e-06,0.09999897609608151,-2.0615226118594406e-07,-1.9007521490890685e-07
14,2020-04-07,Simple + Baseline,-5.351119439809479e-08,-7.853989648270542e-07,-1.3155052183808906e-06,-4.0476751263722153e-07,0.0999984060006864,0.061115340145203596,0.09999889031282144,0.01543565577449839,-1.6515221024741696e-07,-9.799894524473029e-07,0.023478427511003715,0.09999867745075744,-1.201884068419977e-07,2.2874253743262294e-07,-7.293253435937e-07,-1.9864663398839212e-07,2.95893111019396e-07,-8.509846126508124e-07,-6.414360767756892e-08,0.09999878439711934,3.57226988565109e-07,-6.100331044926239e-07,-3.9457369231092194e-07,0.09999768584531246,0.0999970522004688,-1.1417224570801969e-07,-6.678641473233013e-07,-2.33614123158127e-07,-2.3112189793255423e-07,-1.6723309028280687e-07,-6.92055983185934e-07,-6.858678923873106e-07,-4.935902191796423e-07,0.09999920326342474,-1.4527024824420438e-06,-1.1661480677215687e-06,-1.363896908425549e-07,-1.0062579896787095e-06,-1.9825063890464763e-07,-4.0028159730103165e-07,-3.474187340794915e-07,0.09999893065506998,-4.518990325858309e-08,-3.6807996714770135e-07,1.6754337630630826e-08,-1.3535489205949524e-07,-8.857385312853377e-07,0.09999854651699354,-4.02905197137301e-07,1.5693093379594434e-08
14,2020-04-08,Simple + Baseline,-1.491524486303167e-07,-9.504180211080384e-08,-3.147097977349473e-07,-2.570170313043809e-07,0.09999955276073817,-3.171881637833371e-07,0.09999948336351204,-1.2140074483285448e-07,2.5025861420573584e-08,-3.2434551811844375e-07,0.023476188826979518,0.09999971136657017,-2.6438588132776717e-07,-5.567028337054336e-08,-1.2260753213036208e-07,-4.8863770221548375e-08,1.1811601769214555e-07,-4.6626687983088343e-07,-3.4463658277301613e-08,0.09999953292493563,1.123583976276038e-08,-2.132283045842298e-07,-2.878094623825979e-08,0.0999988932087246,0.09999887465856754,1.173700167756118e-07,-4.758547669876322e-07,-3.748762332759191e-08,-3.8183501016567014e-08,2.4318365535148375e-08,-2.1903197492054854e-07,-2.3828164575387632e-07,-2.0230360663520368e-07,0.09999940320069757,-4.4909705026323975e-07,-4.4112375346057245e-07,-1.0722829328669126e-07,-2.3530295878444429e-07,-6.553451196572457e-08,-4.8356248383868694e-08,7.408566895798725e-08,0.09999954689666349,-8.002549304774645e-09,-1.0775088945673424e-07,-6.226090920549161e-08,-8.855571367235704e-08,0.07653440727777747,0.0999996965550908,-9.150824053886323e-09,-1.2990383030087261e-08
14,2020-04-09,Simple + Baseline,1.1694621472746564e-06,-4.0673154827270855e-06,-6.248807035949614e-06,-4.177646978171917e-07,0.0999965017879084,-3.3670189958505436e-06,0.09687387674257332,-9.391172670816029e-06,1.1657303336960942e-06,-2.99682143602441e-07,-1.0530606683657892e-06,0.09999647869125732,-1.2000000716347026e-06,3.4238571601408955e-07,-4.804343612599602e-07,1.0380534609622311e-06,1.4800470447161558e-06,-3.4253122487842296e-07,8.03248542321479e-07,0.09999677765547024,-1.526582730862508e-06,0.0032518412749742193,-1.6373823081169672e-06,0.0999884297185579,0.09998436346521151,-2.8120420549892085e-06,0.09999422123642515,-7.667233538959396e-06,-3.2931736971855226e-07,-1.712462264404418e-06,-1.693109777690074e-06,-2.587692744686494e-06,-1.211921166564343e-06,0.0999916503567634,-8.372001168146709e-06,-1.192366307146689e-06,-2.3452878310543865e-06,-9.366400638238017e-06,1.4601873076866591e-06,-3.412678442454001e-06,4.5944239595757e-07,0.09999882934126617,-1.8393926897957406e-06,1.0530021288468589e-06,-2.940828352073724e-07,5.515542477461772e-07,-4.664572766409726e-06,0.09999732281887272,2.9665672118347716e-07,-5.201900739212635e-07
14,2020-04-13,Simple + Baseline,1.5937433048673995e-07,-1.0961478276365795e-06,-2.2486307616274147e-06,-9.272055311439406e-08,0.09999912982469948,-1.6538162553058373e-06,0.09999952309652857,-4.0614108942982984e-06,2.699298391336905e-07,-3.20508036683719e-07,-1.0907448575628137e-07,0.09999873750797256,-6.089455390778834e-07,-1.2316321647571953e-07,7.899520795917995e-08,2.6863609926331707e-07,1.840695862472462e-07,-5.96552418875143e-07,2.821390115204582e-07,0.09999856778460088,-2.8375778536823923e-08,9.091307060003014e-08,-2.5490795548188127e-07,0.09999512783651139,0.0999937888493373,-4.0222898023753237e-07,0.09999849871458541,-2.0268832636669148e-06,2.9087088497194176e-07,-4.378348299022217e-07,-7.960972326052258e-07,-9.77167028413325e-07,-2.4591573591257332e-08,0.09999712232788142,-3.59686942422455e-06,-1.1437059638355767e-06,-3.0049443977585303e-07,-3.093143730789661e-06,2.9156250644141585e-07,-4.652131402287233e-07,-1.578310212617045e-07,0.09143627908695172,-1.3168538163024125e-07,2.422633640693459e-07,1.3345197574068244e-07,1.6078742677098753e-07,0.008605980416721252,0.0999996209198956,-8.47781320220038e-08,1.312923360734663e-08
14,2020-04-14,Simple + Baseline,3.4102381997910873e-07,-1.580727107588575e-06,-3.368515756653254e-06,1.804897843700553e-08,0.09999884168160546,-3.6219017034379172e-06,0.0999985024000847,-4.96456854884794e-06,6.453970922565712e-07,-1.0707448770678776e-06,2.2611995964659576e-07,0.0999972415037313,-1.2136116463592225e-06,-2.1593254260903997e-07,0.014915816275900882,7.497173351397995e-07,4.841136061290756e-07,-1.7875074588389192e-06,8.411595625852563e-07,0.09999713185797386,7.100416107941301e-07,3.8464526024613677e-07,-4.565699900876848e-07,0.09999333803458126,0.09999536543685747,-1.2858576757017836e-07,0.09999812827891916,-1.8307037400404042e-06,1.1580483137926784e-06,-4.872512492774048e-07,-1.9348467527179314e-06,-1.4852724372631277e-06,5.173872756705856e-07,0.09999683207173077,-5.154546641634646e-06,-3.077663872122004e-06,4.131863589069624e-07,-2.618316052910583e-06,7.373536145088394e-07,2.2604310834556655e-07,-7.331853242402096e-07,0.04924761739227267,1.2039800118198854e-07,4.660556205366856e-07,4.002768989567443e-07,3.912074756290574e-07,0.035888340004051326,0.09999984210796119,-4.0837206798837604e-07,3.448688246870676e-07
14,2020-04-15,Simple + Baseline,5.3814422220112195e-08,-2.9146453866712404e-07,-7.986314186695887e-07,2.1590914899224405e-08,1.97960143352794e-08,-6.540110578557742e-07,0.09999977158027322,-1.5203867019304755e-06,6.630160078942627e-08,-1.3169296805075795e-07,3.227570218710406e-08,0.09999952182101199,-1.8715996739237028e-07,-8.965655226452134e-09,-6.032229181298144e-10,5.381147989760234e-08,4.5292038113628906e-08,0.09137369613309537,1.1654953051421223e-07,0.028598212766495264,7.661649412363262e-08,5.841112994883318e-08,-4.45692545536842e-08,0.0999980011520992,0.09999831877654984,-2.560074943986561e-08,0.0999996184318187,-3.9536088985004993e-07,1.5618167428408643e-07,-7.195599407057024e-08,-3.2504769975373257e-07,-3.469042204670081e-07,8.657076993405579e-08,0.09999920434748183,-1.5557687021735316e-06,-8.092730363760675e-07,6.746271848710033e-08,-7.903124746542308e-07,4.8693317813201376e-08,2.9397338070426168e-08,-4.508330175161626e-08,0.08182782015650049,8.464181312661378e-09,7.372364777333335e-08,9.161663155435067e-09,2.4123058814562855e-08,0.0982127931834565,0.09999997908996235,-3.1574735247641214e-08,4.85879917007505e-08
14,2020-04-16,Simple + Baseline,1.5970615963740923e-06,-2.448990925334472e-06,-4.697040291487494e-06,-8.609325423082096e-08,-2.6151735405137917e-06,0.0325255370173752,0.09999840588824516,-7.851762065299877e-06,6.293539516593768e-07,-3.1476753437584075e-07,-6.504075415662539e-07,0.09999495942962165,-3.4753316103489767e-07,3.8697752143595684e-07,-1.9815293321856037e-06,-2.2254586562120962e-07,7.154792484275009e-07,0.09999800218704567,1.1703592556100092e-06,-4.8355851757428225e-06,-1.3621121721837716e-06,-1.9627822234165785e-07,-1.433344936535274e-06,0.09999154745596048,0.09998869411876932,-2.546041616133399e-06,0.09999612241252244,-5.653778642654749e-06,-1.884056107367194e-06,-2.609122401485949e-06,4.663039041420862e-07,-4.323291118844621e-06,-1.03246881407452e-06,0.09999606697085428,-7.241129693111631e-06,-1.331126946090837e-07,-2.5092834151266767e-06,-6.935785808215515e-06,7.432969970280606e-07,-5.199286194573044e-06,-1.1617120418414535e-06,0.06758910704955087,-2.6168839322841898e-06,-3.911366932811413e-08,-8.26605368104862e-07,1.7871854184112468e-07,0.09999496535934198,0.09999551383657157,-1.2372857830308288e-07,-8.921752253763368e-07
14,2020-04-17,Simple + Baseline,8.538268980517527e-07,-9.58505554799613e-07,-1.675095827436322e-06,1.0992536635289726e-07,0.029645483821190304,0.009653853171490982,0.09999974368579856,-6.7140516264822915e-06,8.084494992477084e-07,-2.3865195807787774e-07,-9.187549475249011e-07,0.0999987355392432,-1.2150153640550671e-06,-8.336190283391392e-10,-7.853689861017826e-07,2.169408409853276e-07,9.005782990519469e-07,0.09999894682329898,1.0331542658547834e-06,-1.5356935831997508e-06,-1.902407309154692e-06,4.142067255021191e-07,-1.7682315977501287e-07,0.09999434270092326,0.0999907742023335,-2.5316828650283932e-06,0.09999622250596665,-4.413872847028603e-06,-1.2362153413568357e-06,-1.3245157072680037e-06,9.787431192771287e-07,-3.2592039322907753e-06,-6.811378894934982e-07,0.09999512329571633,-4.134444167007877e-06,3.7353126418057256e-07,-2.5640661610652267e-06,-7.673669559599195e-06,5.886424635905925e-07,-3.642574985247355e-06,-3.849445678600233e-07,0.06077678985767715,-1.4837481435116868e-06,2.842338561834326e-07,-8.347642931892696e-07,2.3039844369836754e-07,0.09999547389752525,0.09999822302992903,5.811897542133561e-07,-7.762860809268602e-07
14,2020-04-20,Simple + Baseline,1.7397189952728663e-07,-3.2539179918454973e-07,-5.938131340460707e-07,3.8263579274738597e-08,-5.3100978803486355e-08,-8.423110064033391e-07,0.099999758323758,-2.8199336676227544e-06,2.298309301814242e-07,-1.3872004281176557e-07,-1.161758225858902e-07,0.09999938645256631,-5.340090941647993e-07,-3.1421196723571897e-08,1.0331105735585209e-07,2.090527576011953e-07,1.5667822484248453e-07,0.09999955095618822,2.9639913296376834e-07,-7.818371754272192e-07,-1.4423352235265267e-07,1.6026067670702165e-07,4.632062781473433e-09,0.099997190407682,0.099996098473978,-3.8732149625138824e-07,0.09999895090373205,-1.3457010812160157e-06,1.0265360967115255e-07,-2.9494116866868896e-07,-6.01539435018472e-09,-8.42296983076094e-07,5.3256892920434986e-08,0.09999808613870428,-2.097283945919114e-06,-3.378157698125994e-07,-3.4639534289452335e-07,-2.7111838579913633e-06,2.2541802439680918e-07,-5.873212069250481e-07,0.043508058189539865,0.06954487515300574,-1.2132999637605492e-07,2.0827156933095523e-07,9.857015188385537e-08,1.4106026096443514e-07,0.08697151677518145,0.09999973522883755,1.0509377104572058e-07,-4.8996799614603405e-08
14,2020-04-21,Simple + Baseline,-3.625209991807274e-08,-7.707653744927731e-08,-1.5534732999265792e-07,-2.575977596755258e-08,0.042678205667640114,-2.1616210102915487e-07,0.09999991126433287,-9.014868850129512e-07,1.4340185565153914e-08,-5.7367736056086826e-08,-2.82942156897602e-08,0.09999987116300238,-1.2058882821300277e-07,-1.3013066536826068e-08,-3.005237380543663e-10,1.6305967623506677e-08,3.184989883194983e-08,0.0999998578840397,2.6529821248950596e-08,-1.8709512073975353e-07,-2.096501124091512e-09,2.7349162550631104e-09,-6.434594820207652e-09,0.09999901650058092,0.09999849935156717,-3.833378709621958e-08,0.0999997067817179,-2.8837574190691855e-07,-2.5049082421106914e-08,-4.240065949310348e-08,-2.8474116509967023e-08,0.0012620422328560024,-3.01373770552066e-08,0.07422482515261034,-7.038504137191867e-07,-1.4176576499034236e-07,-6.421541568323662e-08,-8.758550051519427e-07,-9.419038563292506e-09,-8.977897425806411e-08,0.013913688664110914,0.06954447298548488,-3.3746764854176908e-09,2.446865820838305e-08,1.2093305135146509e-10,-1.9514895723120804e-08,0.09838401828056727,0.0999999625319249,5.054140819366973e-09,-1.1860231485635897e-08
14,2020-04-22,Simple + Baseline,-2.0371534197858864e-07,-4.6924321420532825e-07,-7.833388885491902e-07,2.147654665936116e-08,0.06568428847381796,-8.53062538658193e-08,0.10000004403415091,-5.888468181087218e-07,3.654549344845882e-08,-3.313785859069199e-07,2.727250213639072e-07,0.09999958065394873,4.1652918870906267e-07,-2.781159543073467e-07,-2.607536491496429e-07,-1.450791921604644e-07,7.944684701883297e-08,0.09999938041173002,-5.560490008293417e-08,-3.924432720968443e-07,3.117154313950089e-07,-7.842480498742669e-08,-3.35970755357824e-07,0.09999900042371368,0.09999948262513883,-1.9637418691997256e-07,0.0999996732461708,4.5729733190265173e-07,1.5703976795837438e-07,-4.5628636592116174e-07,-2.549902553224526e-07,0.004324300787537001,-1.3818672284192752e-07,0.10000028822445191,-2.350669064184339e-07,-3.758130114797383e-07,6.509374491560696e-08,-3.662895327470662e-07,-9.59897561337575e-08,2.65727140223126e-07,0.013897880543838444,0.03765511805077854,1.1897410585888969e-07,-5.403914246299441e-08,-6.142121112845578e-08,-1.636714310956257e-07,0.07844489777051099,0.10000016592197493,-5.683378231263343e-08,1.582870093511167e-07
14,2020-04-23,Simple + Baseline,-4.3246233346129704e-07,-5.837148925935587e-07,-1.203782496359778e-06,-1.2647943066450378e-07,0.040946563128805846,-2.9478692784961045e-07,0.09999972869875534,-5.596756427933643e-07,2.7867990034870317e-08,-7.338662401631752e-07,2.756703567111556e-07,0.09999945580591026,4.0829837043977806e-07,-4.760356716741523e-07,-4.785906781759192e-07,-1.750677366835142e-07,2.1891868834823598e-07,0.09999883737704142,-1.4515248965496624e-07,-5.643397568009236e-07,3.520350941756734e-07,-2.428205986897939e-07,-3.969178736484418e-07,0.09999863708967201,0.09999974902979765,-2.485929345361779e-07,0.09999911604545217,9.008864054610405e-07,7.104051255200854e-08,-5.439128611515695e-07,-3.59531836589531e-07,0.03619201460419536,-3.8737612388394186e-07,0.07134084609469132,-8.556354358627841e-08,-7.436864737352299e-07,4.7191062568670614e-09,-2.930528200286479e-07,-1.7087367713776614e-07,4.3755671024507505e-07,0.013878345289190552,0.03765318309472688,2.3381714875949645e-07,-1.2216428166162312e-07,-1.4200001322014566e-07,-2.9280823542329486e-07,0.09999998901061383,0.10000030205920939,-1.0653706728376235e-08,1.1602900408533492e-07
14,2020-04-24,Simple + Baseline,1.1814271650626499e-07,-3.8785355741345347e-07,-1.3299143251636627e-07,3.9911523877849594e-07,0.036541483557998654,6.914957646143568e-07,0.10000072842358951,-1.9029837947458097e-07,-2.6214402877680406e-07,3.604188897145391e-07,6.592693680011687e-07,0.09999969269716331,6.508377055246156e-07,-3.733606652649152e-07,-1.2307301208468254e-07,-1.4486256453973154e-07,-4.698580323997124e-07,0.10000005048746645,2.0323612965023633e-07,-2.5881118053500546e-07,3.6466199833064903e-07,6.2959367527669045e-09,-4.04992529023907e-07,0.0999996230545464,0.09658328056254173,1.2374961878057686e-07,0.09999987110321032,6.717119695730638e-07,2.0739637122473696e-07,-2.1441150200533336e-07,-2.6784453922179197e-07,0.09586457030593978,6.165367961354504e-07,0.02763926457294585,-2.0734574860537236e-08,6.262637878503317e-08,4.4927334070398956e-07,1.9693244775205354e-07,1.3714940432741814e-07,2.0936753435422661e-07,-3.435572621550198e-07,0.04336811017932335,1.6649921675402315e-07,2.6955026531706374e-07,-8.284705248153757e-08,-1.8883787828112062e-07,0.1000000139507859,0.10000081066261145,-4.699221714337817e-07,2.6230770018119453e-07
14,2020-04-27,Simple + Baseline,-1.6586368614881015e-06,-1.5867040181080492e-08,0.0036695577257825408,-1.4454004624643385e-06,0.08047024019248249,-1.212991275583575e-07,0.09999640175103867,5.124637751715015e-07,-3.516928532266217e-07,-1.5756516564942583e-06,-1.2659526911424267e-06,0.10000079094686967,-1.1186676126295888e-06,-1.2144770438675864e-06,-1.333281936771477e-06,-5.2602155386129e-07,9.547207207079725e-07,0.09999645006123697,-5.040610332607225e-07,2.931446375245351e-07,-9.02036395381785e-08,-8.210150477320394e-07,6.748659266984503e-08,0.09999923174671922,0.05103986415291615,-2.2992541462704746e-07,0.09999666870518127,1.5191120220496806e-06,-2.211488808584435e-06,4.3629380094014116e-07,-1.8002391934105381e-07,0.09999906004599428,-1.814487476775339e-06,0.021494912656512797,1.3575114970482987e-06,-6.456397108561657e-07,-9.972879415614113e-07,-4.743201640555313e-07,-8.13087947868302e-07,-2.1955394470052194e-07,-5.344887414600731e-07,0.04335544056257012,2.8955648824931626e-08,-6.225086001036172e-07,-1.0389898050411631e-06,-1.1304661661153137e-06,0.09999958995807813,0.10000031804309863,2.1601698775063088e-07,-9.569049393903961e-07
14,2020-04-28,Simple + Baseline,-3.6110977880868096e-08,-3.2740424795900174e-07,-4.6518751999934657e-07,-1.9395923202901373e-07,0.09999945372728863,-3.1777024210438246e-07,0.09999908273369289,0.09999937548848482,-5.991465544745473e-08,-2.562141259251593e-07,-6.033799648065736e-08,0.09999909834652226,-2.8075933143720187e-07,-1.1847872982319886e-07,0.009094357485414515,3.9675450671844856e-08,3.019183541507119e-08,-8.29706114382101e-08,4.301008541108012e-08,-3.386886603715914e-07,2.2598603335563847e-07,-1.1787302283838557e-07,-2.1616933517191326e-07,0.09999912981414033,0.051038513520909594,-3.884097473138206e-08,0.09999910366506652,1.9574324609191096e-07,-2.778166751132615e-07,7.83808411846808e-08,-2.585318893587793e-07,0.0999995647686805,-2.230956639411199e-07,0.017324449304819918,-1.1156861655503402e-06,-6.815844003061511e-07,-5.371645466095053e-08,-3.5928281246941344e-07,8.140043711566305e-08,-8.553757069980769e-08,0.01264342420941308,0.0926615056318012,-7.198091041596321e-08,1.205247504112005e-08,9.578016100738581e-08,-2.6698264524541527e-08,0.017248734999545684,0.0999997712376824,-1.3237930264684304e-07,-1.6534420429885935e-07
14,2020-04-29,Simple + Baseline,-2.15724872612075e-07,-1.2056990745983928e-06,-2.185623061523265e-06,-6.653065446178363e-07,0.0999963336985298,-7.44350585146137e-07,0.09999741384024258,0.09999776691191856,-6.594732111988109e-07,1.248284761448814e-07,-4.3839415567044705e-07,0.09999714464397065,-1.1786766076074848e-06,-6.015119638600528e-07,0.07121391655866076,-4.316015347350355e-07,-1.2622300274723837e-07,-9.666767448581688e-07,-2.1037350029149664e-07,-2.1479628882729776e-06,4.6352024510331944e-07,-1.1321844630078922e-06,-1.4285709660163934e-06,0.09999662096888198,-6.32435150924356e-06,-3.6594754960375436e-07,0.09999787380011149,-8.495933320781893e-07,-1.3624148650792938e-06,-1.8285443306603458e-08,-6.996329430725763e-07,0.09999703236812083,-8.736918043568269e-07,0.0315059202415724,-3.796859128379994e-06,-1.536977585803622e-06,-7.352969677825239e-07,-2.728590970571487e-06,-1.70887916215094e-08,-1.6640268876011332e-06,0.004688154874224596,0.09265361565945289,-6.717996532302956e-07,-5.165239409012127e-08,6.508459490230804e-08,-5.823425265673914e-07,-1.8250494356173781e-06,0.099997732965329,-3.1367117594077636e-07,-1.412046001316448e-06
14,2020-04-30,Simple + Baseline,-1.0394646631079384e-08,-2.4078067579100926e-07,-5.605064583034489e-07,-1.0177370884260565e-07,0.09999912272557372,-1.7724737988404926e-07,0.09999949790992409,0.09999934705506783,-2.5084893523104432e-08,5.588668397454433e-08,-3.3007372888195696e-08,0.09999931952731589,-2.431045049692401e-07,6.2257844607350025e-09,0.03153394184283591,1.258107229600845e-08,-4.268591870235834e-09,0.010840633772332152,-1.584361865922589e-08,-5.580863512687231e-07,2.606777609363757e-08,-1.7058292864359452e-07,-1.4694919279237074e-07,0.09999875268579256,-2.7125070190929572e-06,-3.613197624793398e-08,0.09999946768285009,-1.5892222445973543e-07,-2.7925391968098806e-07,6.248058020935579e-08,-7.099570565218026e-08,0.06105049499774902,-1.9075778533168943e-07,0.018889002664233052,-1.3771241938126113e-06,-4.413634160072036e-07,-1.452703179240747e-07,-1.0062229387570209e-06,2.374597044362273e-08,-3.1399551949729186e-07,0.00377616864557178,0.09999988614900356,-5.7205820833480134e-08,2.9017790311246877e-08,0.07392418666410265,-3.5095411075440936e-08,-4.3179740445815805e-07,0.09999970157394102,-3.376883071701043e-08,-1.6146374504269858e-07
14,2020-05-01,Simple + Baseline,1.4457203648796973e-07,-2.131967196624322e-06,-2.576199419568103e-06,-1.2104746949902743e-06,0.09999702788634848,-2.2311136166440703e-06,0.09999952354027085,0.09999447265854788,-1.4224239094221507e-08,-2.1007679110526488e-07,-5.327977638166695e-08,0.09999718194392125,-3.7888889146347655e-07,-2.642822765828603e-07,-1.0374605342543583e-06,2.0779351222801583e-07,-3.289445339327017e-07,0.022088588107950575,6.353079152239722e-08,-1.5757830550075505e-06,-1.3023817597120924e-06,-1.180001364918089e-06,-6.904005085616968e-07,0.09999328806811035,-6.095489003205667e-06,-2.1454660867313368e-06,0.0999964899267724,-2.4096541980506065e-06,-9.993020144718154e-07,-1.2509552901074135e-06,-3.018033424021012e-07,0.013704863769479608,-9.037543061626137e-07,-3.837060079463906e-06,-5.301219858301892e-06,-1.7243768557681282e-06,-1.6540357241152568e-06,-4.4265252651179955e-06,4.5440751091159996e-07,-1.946778126995801e-06,3.5587941845197656e-07,0.0999979613730209,-9.652115308931698e-07,6.721456150483314e-08,0.06428513790284723,8.687243816830112e-08,0.09999604800922723,0.09999787684513851,6.76806966595187e-08,-7.32642345456283e-07
14,2020-05-04,Simple + Baseline,-6.608669429068118e-08,-3.5580045676219377e-07,-5.94638892121093e-07,-2.962745806696276e-07,0.07471899673391201,-8.080992355797591e-07,0.09999965335108353,0.09566829685388861,8.181851692026329e-08,-1.3035092915461846e-07,-4.023388070034661e-08,0.0999993443467352,-2.5160377512210905e-07,-8.585777376791967e-08,-1.5911258580220887e-07,6.023506121199359e-08,5.976589342039173e-08,0.02208746264874666,5.9250302895366316e-08,-4.866480726384651e-07,-1.8758180823295924e-07,-2.1491870317847167e-07,4.109437051517784e-08,0.09999716244200607,-2.743691313247766e-06,-3.712796459116189e-07,0.09999884336045321,-6.143284099563506e-07,-2.1862908101200576e-07,-2.1114520171776438e-07,2.261632939832449e-08,0.046640822021220926,-2.2323256535675139e-07,-1.3417617778518964e-06,-1.9217979629345547e-06,-5.998434938964532e-07,-3.5953874867730185e-07,-1.7754026443831001e-06,6.094970036855072e-08,-3.5298377824555747e-07,2.0357055653565026e-08,0.09999927315989873,-2.649747906081561e-08,3.531510585704106e-08,0.06090548955588363,-2.010614106999296e-08,0.09999896543375113,0.09999965669861467,1.4447068858650978e-07,-9.3642259693317e-08
14,2020-05-05,Simple + Baseline,8.956497714219193e-07,-1.6582971044885937e-06,-1.7649190785616167e-06,3.429144296951691e-08,0.008907608894869216,-2.9688864575136954e-06,0.10000036553016874,0.09565202625453703,9.697077811168412e-07,-4.481673082459719e-08,-2.4807165770308393e-08,0.09999898533307376,-1.7123197719047478e-06,-2.8103168732565886e-07,0.025701087912854623,7.466526253279206e-07,5.501108585784955e-07,0.07946356165417182,9.44937949426401e-07,-1.014752338189748e-06,-2.3671537030243453e-06,4.267042194730364e-07,-4.496740840607199e-08,0.09999166220663974,-9.928108261054275e-06,-3.661653982342479e-06,0.09999535542108028,-4.732676904088642e-06,-9.299060391097056e-07,-2.3931569170632913e-06,4.1730762539406803e-07,0.04663059081640498,-3.5974123138639127e-07,-6.621749079141068e-06,-5.716951510254295e-06,-9.133145245850992e-07,-2.5199744287232793e-06,-7.443857219938499e-06,1.1750999395652106e-06,-3.497395013263066e-06,-3.426356027576227e-08,0.09999987655793037,-1.0132027306699243e-06,7.833985914692637e-07,0.04371900070509714,9.165477022799096e-07,0.099994845547799,0.09999846354195523,1.0054778116921416e-06,-6.088463596470681e-07
14,2020-05-06,Simple + Baseline,-3.774007643512496e-07,-2.101067389858155e-07,-7.706907068115658e-07,-7.08581340532369e-07,-8.066399130256909e-07,-1.944673828983967e-06,0.09999861934086834,0.08978849904614425,1.5832305230648933e-07,-4.963359254404696e-07,-3.0711631113620456e-07,0.09999942509473259,-1.027089856190084e-06,-3.232625572191732e-07,0.0011786130473074577,5.5269685673858325e-08,1.9318220488150048e-07,0.09999848361817545,4.4857214829128224e-08,-9.138774513464676e-07,-5.098425980376024e-07,-6.34484147389266e-07,2.270780917521574e-07,0.09999506074922049,-5.146716284449667e-06,-5.693065677364006e-07,0.09999785356093001,-1.232555730501837e-06,-5.768478675246032e-07,-4.983126963901397e-07,2.0516879739953756e-07,0.07777764717939052,-4.6130913023492725e-07,-2.867346480691812e-06,-2.3786774512692894e-06,-8.385854508888764e-07,-7.679835816436567e-07,-3.5213759137710753e-06,1.0242109938745774e-07,-7.499931910971913e-07,1.0011199234208516e-07,0.09999808073448678,1.8739300784405702e-07,6.285100364864765e-08,0.031297430273682855,-2.106885292373798e-07,0.09999815309946065,0.09999926165611973,6.174956745701316e-07,-2.2485817445859005e-07
14,2020-05-07,Simple + Baseline,-1.991656887737547e-06,4.379104774540465e-08,-3.037457133398358e-06,-2.5088393099013424e-06,-4.2454473279421e-06,-5.935439138815414e-06,0.09999208493488008,0.08523487638276811,-6.611303322163651e-07,-2.5188648172596028e-06,-1.3832621301370031e-06,0.09999566140509618,-4.279117170986774e-06,-2.1607164810329228e-06,-1.1803229321491423e-06,-8.068880102236719e-07,1.652922033242749e-07,0.09999138294068693,-1.4339487176740755e-06,-3.7315947208182663e-06,-6.564831035501278e-07,-2.5767711002969653e-06,-4.135274806987112e-07,0.09998705908350163,-9.159685940599499e-06,6.044074533753083e-08,0.09999372188086174,-8.134910515197043e-07,-4.063960235778633e-06,-1.3162217108245307e-07,-1.0556516896679141e-07,0.07776289105603801,-2.2339114693583927e-06,-4.132480786913805e-06,-2.5855430244325305e-06,-4.099286280507022e-06,-1.423378318007691e-06,-5.76069711394161e-06,-5.798809031033879e-07,-9.642206663170913e-07,-6.626476121385579e-07,0.09999016820573371,5.46429457415167e-07,-1.2738606698449786e-06,0.03713890149814697,-1.4292470161790832e-06,0.09999645473577339,0.09999548956499908,1.5247893264245414e-06,-2.051745015995816e-06
14,2020-05-08,Simple + Baseline,-5.709079666844803e-07,-6.027250331819359e-09,-9.660444514830184e-07,-9.461720486866162e-07,0.005943976490776934,-2.4094259745202554e-06,0.09999822963599875,0.09999994129129562,3.458790197421447e-08,-9.757197911573816e-07,-6.480648632704009e-07,0.09999887694031576,-1.584779581845138e-06,-6.886427149769878e-07,-3.6099399411364285e-07,-2.4364622550896675e-07,2.242933354688714e-07,0.09999685056757825,-2.792339426167067e-07,-1.5468882153311536e-06,-3.106875083179183e-07,-7.883309345172798e-07,7.573594762883561e-08,0.09999406402754647,-4.321191326023199e-06,-1.6903373743929696e-07,0.09999770231133799,-1.2683868488133054e-07,-9.484401477393474e-07,-3.0905713681089495e-07,-8.644028723974697e-08,0.020896365315565137,-4.34546193391232e-07,-2.0800809160129943e-06,-1.0731063322365986e-06,-1.8475744462358366e-06,-6.141868644460634e-07,0.017785716216827493,-1.4815321487092282e-07,-8.968330186251837e-08,-1.2475509304528286e-07,0.09999681414464173,7.987910737535734e-08,-4.6377924273139854e-07,0.055417912028228655,-2.964050306064413e-07,0.09999907193680334,0.09999948194276291,2.820199589698359e-07,-2.3817495860609467e-07
14,2020-05-11,Simple + Baseline,-1.7658040257058158e-06,1.1427118606055357e-06,0.01407651079870969,-4.112445407482439e-06,-2.494857366345657e-06,-7.426988171678962e-06,0.09999622539160274,0.05096218028287131,1.9446669246030524e-07,-3.1630938931814264e-06,-2.472376169070649e-06,0.09999834032071932,-6.610083276122614e-06,-1.9318023515374628e-06,0.07648948069968377,2.727139932754905e-07,3.8870379186242144e-07,0.09999164072077028,-1.0584985714559768e-06,-3.4731026460997334e-06,-2.3713349760481952e-06,-3.0378181152881705e-06,2.1322001854929167e-06,0.09998495227502868,-9.600530309716971e-06,-2.2608717877281554e-07,0.09999204020724062,-2.079815741405209e-06,-3.741120982739618e-06,-6.98766747564671e-07,6.963410553445712e-07,0.008597661708612432,-1.8966859951619164e-06,-9.23546650073052e-06,-3.080604485661023e-06,-3.3425379817838907e-06,-2.268798042850221e-06,0.01777219214771178,2.9193582134469417e-07,-9.324376666037254e-07,1.5061513365852495e-06,0.09999070965345618,1.4428304465809876e-06,-7.795495984128662e-07,0.032226696858448284,-7.909674657564815e-07,0.09999474276103495,0.09999648041218871,2.7467134274679844e-06,-2.028023790835627e-06
14,2020-05-12,Simple + Baseline,-8.321409678541979e-07,2.557495867343399e-07,0.014072733760787519,-1.4228775693672568e-06,-1.957412014155203e-06,-2.844418585526472e-06,0.09999835393892818,0.02195162563110288,-2.892064632293396e-07,0.023362394315492464,-8.288867763068876e-07,0.0999987251035236,-2.3215265789841775e-06,-1.0088635587048432e-06,0.06610549956186738,-4.870340049135605e-07,3.882004030580818e-08,0.0999961043763368,-5.211006902574476e-07,-2.1270437880781872e-06,-3.0852576574834245e-07,-1.3359110952551804e-06,-4.3196204220386993e-07,0.09999192502184806,-4.977899330152283e-06,2.0581061710877566e-07,0.09999686142245957,-2.4743906867017427e-07,-1.2860799243806321e-06,-6.753720211261914e-08,1.631808498484084e-07,-1.1367792487246794e-06,-6.402799459282425e-07,-3.0773657739720336e-06,-1.2139546777214323e-06,-1.5096261685545402e-06,-7.907164562012363e-07,0.0539531501628556,-2.627530354403466e-07,-1.380471823585147e-07,-7.8095531860487e-08,0.09999586502234213,2.327487300484658e-07,-4.65907786027436e-07,0.02061225156206519,-7.239006005718921e-07,0.09999820862479088,0.09999874436630171,7.563976587286451e-07,-7.621599039503564e-07
14,2020-05-13,Simple + Baseline,4.053570602754995e-07,-2.8644230387278355e-06,-6.139274518257534e-06,-2.508626207496449e-06,-3.609106140132263e-06,-6.526273265783571e-06,0.09759357567579222,-1.0649238261893484e-05,9.653521896398944e-07,-2.2928550163196973e-06,-1.139166155260859e-06,0.09999477874223456,-3.1908660363364515e-06,-1.8487263884309301e-06,0.09999811033899751,-3.6961444666178173e-07,8.01966775770771e-07,0.09999234477066483,4.214554521516622e-07,-4.369069837934194e-06,-2.0933495833240264e-06,-1.3525327341707687e-06,-1.2871577675742072e-06,0.09998026601664896,-1.3327344841339694e-05,-3.2590886875712394e-06,0.09999150209516687,-4.5656564734645215e-06,-3.006574234963475e-06,-4.211267567935203e-06,3.490808096611584e-08,-2.963267377995308e-06,-1.4455507365676199e-06,-9.19393260398215e-06,-7.716938662398308e-06,-3.9491840624889195e-06,-4.140372649546016e-06,0.0999855177340096,7.913543215629312e-07,-4.33562913836167e-06,-5.600632849885263e-07,0.09999527529614553,-1.3683707657836959e-06,-3.1076602005666797e-07,0.011487685845444346,-2.6843100373297473e-07,0.09999271489678369,0.09109961876852797,1.657750198626103e-06,-1.546881890824631e-06
14,2020-05-14,Simple + Baseline,7.807135915122757e-07,-1.8769586513505294e-06,-4.4550319367268715e-06,-1.4085156840247614e-06,0.09051944601514018,-7.3331956842931365e-06,0.09650606778280064,-1.0248369625107015e-05,1.3739632271309737e-06,0.009944406157794291,-1.290257762323417e-06,0.09999760823054127,-5.60816661859212e-06,-1.8927989377902629e-06,0.09999905875283172,5.94820220500405e-07,9.026570146264748e-07,0.09999374786937015,8.837580841239177e-07,-3.458507859912931e-06,-4.091825983851185e-06,-1.61309921014119e-07,2.771767685210993e-07,0.09998270616998937,-1.539663183567409e-05,-6.045872423506242e-06,0.09999098163929727,-8.106883371004644e-06,-3.0075640439592728e-06,-4.888674686033609e-06,5.227670950425604e-07,-4.868811086509132e-06,-1.2857191765543944e-06,-1.124298248516541e-05,-8.535489669319909e-06,-3.251982301353465e-06,-4.964041242265306e-06,0.09998118659637965,1.6487493073352461e-06,-6.047592661628042e-06,-2.2856212195614434e-07,0.09999730553070557,-1.403392841207969e-06,4.243029412818194e-07,0.00321028769132959,3.903241982396647e-07,0.09999127556530318,-8.225380595636693e-07,1.748177468582624e-06,-1.6415390343794138e-06
14,2020-05-15,Simple + Baseline,3.683318544097593e-08,1.413552816951171e-07,-2.609511323196972e-07,1.4473395995788138e-07,0.09052342308002266,-1.0204321541926843e-06,0.06581393757348752,-2.080377839303169e-06,4.981817510811955e-07,0.04369194307048807,8.985260990131353e-08,0.10000041204990284,-8.475907606899037e-07,-4.8097368450768616e-08,0.10000037337820446,1.6017511763823482e-07,1.1544788896045164e-07,0.09999916027654115,1.0573953649203431e-07,-1.0880568134194092e-07,-3.06115548388297e-07,2.1943788716333815e-07,3.597698897906868e-07,0.09999517548401132,-5.275392220246282e-06,-6.16099844563849e-07,0.09999866163870376,-1.4359475754836323e-06,-9.264727321154832e-08,-5.596364817431958e-07,1.3568292418230407e-07,-3.846504175220619e-07,1.2614390790383834e-07,-2.5311608464224586e-06,-2.052621116207447e-06,-4.325273787433405e-07,-4.363853538883125e-07,0.09999397803252535,-4.8800304085539076e-08,-6.433487674175562e-07,7.179257234952671e-08,0.09999996148026528,3.2238817931114297e-07,2.143459498702512e-07,6.849399986045781e-08,1.3942464583741823e-07,0.09999898459424775,1.7376190475468636e-07,5.222355002404079e-08,-1.7110902777330826e-08
14,2020-05-18,Simple + Baseline,1.786374784457287e-08,1.6800970798721576e-08,-9.23775096735708e-09,5.1296857401742145e-08,0.1000000551889964,-1.9428129388952927e-07,0.06581441194068119,0.007439608392334317,-1.8051905651978376e-09,9.481410845436884e-08,2.1270461124891298e-08,0.10000006138034259,-1.3588151192966453e-07,2.0300857259960194e-08,0.10000008601176465,1.2790479159765404e-09,3.7194817136588825e-10,0.09999990728842906,1.4477793340414413e-08,6.845594448690898e-09,-2.3414402964071585e-08,3.303175895492382e-08,-1.9314551449680626e-09,0.0999982078785159,-2.3141674824963132e-06,-1.1457669811371339e-07,0.09999971793748501,-4.054539547437319e-07,5.319644578291669e-08,-1.1635153829025531e-07,1.898887581925601e-08,-2.4832370273441342e-08,7.653966575805382e-08,-7.600404971885129e-07,-7.374201267467669e-07,-9.983667315069287e-08,-6.869219636114932e-08,0.09999753399545584,1.048044291815683e-09,-1.264572062934577e-07,1.089742888502445e-08,0.10000012796338925,4.510795172252138e-08,5.182044360903422e-08,0.02675499552291563,1.0010438816943186e-08,0.09999980964016437,4.695473741747226e-08,-1.535381249893907e-08,3.2617480342707176e-08
14,2020-05-19,Simple + Baseline,-6.267282937810256e-07,3.5112747909774195e-07,-1.6580517011573299e-06,-1.5481220686005595e-06,0.09999746430632235,-2.4621134554312383e-06,0.06579826102378186,0.009625411935613983,-1.1686394093012717e-07,-2.1197104985332203e-06,-7.43730019511438e-07,0.09999781295072396,-3.00175767390982e-06,-9.646212651018943e-07,0.09999852795318993,-3.314439393313537e-07,1.7862165500889897e-07,0.09999398277070998,-4.284875204584472e-07,-1.3366292637276265e-06,-3.9925221052205886e-07,-1.0537033406206465e-06,5.566715974804727e-08,0.09999194997789777,-5.934902225925252e-06,-3.332555979464773e-08,0.09999563988619244,-5.308925695626264e-07,-2.4423004047676203e-06,-4.5945169568202003e-07,2.392931483673337e-07,-2.464013800142023e-06,-1.3189609214440663e-06,-2.3001536328896492e-06,-1.4098975098286553e-06,-1.6213069797262364e-06,-1.0965014104112426e-06,0.09999457468807414,-2.798415167487549e-07,-1.2547884792887568e-06,-2.8175308488312895e-07,0.09999449138888,2.2297951145855293e-07,-5.308380769360945e-07,0.024653997337542616,-4.6263585867447844e-07,0.09999713087532515,-8.177841132553057e-07,7.010025161386337e-07,-9.351790203838023e-07
14,2020-05-20,Simple + Baseline,-3.992198084974772e-07,-4.540854339422068e-07,-1.357130192855586e-06,-1.31519090894613e-06,0.09999822040969775,-1.5270773404800228e-06,0.06579399464680726,0.009621395986846089,-1.559361564413047e-07,-1.2978047131755134e-06,-7.128013971577272e-07,0.0999983080050595,-1.7004073303665596e-06,-5.234515745023688e-07,0.09999908743294864,-3.732483655423147e-07,8.277329543370573e-08,0.09999658088828631,-1.3136647378015025e-07,-1.163667668371351e-06,-3.871708534440646e-07,-6.672502529973779e-07,-3.476883173927513e-07,0.09999453279990736,-4.307986573983116e-06,-4.550759687715034e-07,0.09999720613344504,-8.285242420605633e-07,-1.4682786575634963e-06,-6.81753720248342e-07,-9.314729573761398e-08,-1.4771813302855291e-06,-5.966060256182236e-07,-2.106137440994243e-06,-1.185501265928134e-06,-1.2263229753046274e-06,-1.0801440656447315e-06,0.09999557335602485,-1.4741023274705867e-07,-1.3937536949600325e-06,-2.130403647910097e-07,0.0999970311432748,-7.419426090901815e-07,-4.5622422687133403e-07,0.02464177114895845,-2.7007768925026216e-07,0.09999802801168048,-3.805390666577515e-07,4.627538389055877e-07,-6.400120720545852e-07
14,2020-05-21,Simple + Baseline,-2.9894140397846235e-08,-7.625051272931673e-08,-3.439498148946357e-07,-2.7582320637483365e-07,0.09290129504440024,-4.3363415366980785e-07,0.06579412656307768,0.024168374471654843,-3.622282344149206e-10,-2.287354809911327e-07,-9.778064007173363e-08,0.09999959819606406,-4.273459006287529e-07,-6.981036178099576e-08,0.09999990400075327,-2.2804108729692383e-08,1.9936273711801922e-08,0.09999899787120373,4.4963973623003936e-09,-3.0249364746217934e-07,-5.242227157198362e-08,-9.751910448184935e-08,-3.980368444739399e-08,0.09999771302676405,-1.995441521326733e-06,-8.462938751511125e-08,0.09999916649844356,-2.457470838296363e-07,-3.312065617906424e-07,-1.577454764707029e-07,1.0012255868233794e-08,-3.3805241946015253e-07,-1.0728070231220876e-07,-7.011234351249512e-07,-4.4434040414255057e-07,-3.651315361382891e-07,-2.5195993930120166e-07,0.09250822537087067,5.300658660395754e-09,-3.7241695654233796e-07,-7.642391549565143e-09,0.09999916845648507,-1.0764366474943832e-07,-5.971161598331817e-08,0.024642072905993222,-1.0559968542196726e-08,0.0999994310957156,-3.900414256276144e-08,1.0178772381894236e-07,-9.690285033764789e-08
14,2020-05-22,Simple + Baseline,-1.525296188472339e-06,-1.2019181672261788e-06,-1.9573909375019756e-06,-2.874300309301534e-06,0.09289107426206697,-1.560800245565285e-06,0.06578034109878983,0.024162710085134268,-7.485265002119477e-07,-1.595472455047462e-06,-1.8396102929318317e-06,0.0999964767586425,-2.0837060418206837e-06,-1.2538884495577372e-06,0.09999847589312603,-1.493963245462451e-06,1.5525227477289716e-07,0.09999486760210811,-5.502210034131128e-07,-2.3652552410449747e-06,2.8846805281848017e-07,-2.229339835194558e-06,-1.2169362652759761e-06,0.09999450770550405,-2.3260251068062437e-06,3.7979313241170573e-07,0.09999790880710059,9.500995783330387e-07,-1.6363385972483702e-06,-7.098332656533461e-07,-6.40350701055129e-07,-1.387988192055574e-06,-1.7851927127047177e-07,-1.3730204230684499e-06,-6.033233453356423e-07,-2.610973811097657e-06,-1.2494713060448328e-06,0.09260794512097592,-1.011128623269152e-06,-5.304188606567654e-07,-4.881905052110316e-07,0.09999522055605475,-1.4019079007199682e-06,-1.2615451487388965e-06,0.02462324278156344,-1.2957869697626193e-06,0.09999921161905205,-3.641366974608277e-07,2.695000020913734e-07,-4.5315717482221926e-07
14,2020-05-26,Simple + Baseline,1.2537537749598863e-07,-1.372131992676599e-06,-3.5577356739852496e-06,-2.0971158563464497e-06,0.08261157505675533,-6.271780072491986e-06,0.08992051009173563,0.09999062929826778,1.3019274027254304e-06,-2.9215960495603547e-06,-1.3068509738748682e-06,0.09999731085515412,-5.95741253655515e-06,-1.9705883029484884e-06,0.09999812684341652,1.5775777006761577e-07,1.0412198324979559e-06,0.09999297670699689,4.024345395767302e-07,-2.6007973095567556e-06,-3.5591360678053467e-06,-6.78304670960414e-07,1.6410511906843482e-07,0.09998209669662654,-8.389276176521922e-06,-5.5154367431544765e-06,-7.997080667710655e-06,-8.098338386990452e-06,-2.250709691573708e-06,-5.394152669501233e-06,2.672400856520826e-07,-3.5985187603088966e-06,-1.1009927505096924e-06,-8.597111592974843e-06,-9.130755903408568e-06,-3.482696471431303e-06,-5.1595123484812255e-06,0.0999803028819265,1.2209573214729348e-06,-5.999059634219993e-06,-7.526354430182223e-07,0.09999548884836068,-1.1257587245646591e-06,-1.0742952096661867e-07,0.02764190989937148,1.973380992303251e-07,0.09999337294327075,-7.680198736886486e-07,1.952013313743401e-06,-1.3039493726345794e-06
14,2020-05-27,Simple + Baseline,4.124859688756381e-08,-1.308058717251119e-07,-5.14150377513968e-07,-2.3162328344059128e-07,0.07213007117070268,-9.772262611314703e-07,0.08992237414487005,0.09999757475168478,3.980039022131472e-08,-1.2182545404522992e-07,3.0458110723013974e-10,0.0999996389831778,-9.603610298924808e-07,-9.016765168661949e-08,0.10000001739169713,5.478755367559416e-09,1.981298205667125e-09,0.09999874525275282,5.90536305872381e-08,-3.5088858335571533e-07,-1.3883801237019803e-07,-2.335045284931572e-08,1.981027762585271e-08,0.09999397678836287,-2.876215868797459e-06,-6.531408698761929e-07,-1.655738695808141e-06,-1.947577019781838e-06,-1.96576660127509e-07,-9.085028123967354e-07,9.547928248358667e-08,-3.6459930477339e-07,-4.233586236515441e-08,-1.8722382222314113e-06,-2.9086415462437766e-06,-7.202276312048494e-07,-8.178038338676855e-07,0.09999245864141848,4.9782079309525245e-09,-1.1828536147176919e-06,6.304606470953221e-08,0.0999992172457835,-5.1913078024642274e-08,5.803670069029287e-08,0.03798621673468702,3.506289175743515e-09,0.09999884915149214,6.811119696155208e-08,2.1156804297788416e-07,-8.495807483393854e-08
14,2020-05-28,Simple + Baseline,4.5703543709500945e-07,-1.0373130821574e-06,-2.9036296071124288e-06,-1.5043804594725935e-06,0.08190702216709687,-5.456180859608881e-06,0.08118237875768536,0.09999117051489187,1.3344144544614591e-06,-2.4536635440313883e-06,-8.98842177989907e-07,0.09999755613562783,-5.156892141702596e-06,-1.620080089811426e-06,0.09999823944433438,2.8114469790232734e-07,1.016421004922565e-06,0.09999269637321598,5.989493212028413e-07,-1.918899785009724e-06,-3.251921576411649e-06,-2.8404102358843903e-07,3.492631242550118e-07,0.09998438998257568,-1.3099270315039078e-05,-5.0165390675132966e-06,-5.4715488640103205e-06,-7.303920069036623e-06,-2.3919251217926686e-06,-4.80233602759107e-06,5.509481490331279e-07,-2.8905614346725806e-06,-1.3515435873393971e-06,-7.863338943929072e-06,-7.798730396402836e-06,-2.8919503937405426e-06,-4.621465995406006e-06,0.09998128748642698,1.2466171434452195e-06,-5.482991776149153e-06,-5.987420969505107e-07,0.09999587695585223,-9.94558472381344e-07,2.408925702201746e-07,0.03707106442046127,2.751621361328559e-07,0.09999121871522504,-7.507061153842393e-07,1.755163434257515e-06,-1.1312785547791172e-06
14,2020-05-29,Simple + Baseline,-1.085286323141951e-08,-1.802448643948111e-07,-5.646675290486965e-07,-2.1259554853305396e-07,0.0852060574473935,-1.1069234351029259e-06,0.08118338122851765,0.0999973648475301,7.169214740399776e-08,-2.337055308855531e-07,-3.401733271943804e-08,0.09999956042167422,-1.0386268223713051e-06,-1.6387923275943e-07,0.09999994773894987,1.4908481765833915e-08,6.9739362985786494e-09,0.09999835574042278,-1.8871378683269184e-08,-3.4386090572522946e-07,-3.239029472849694e-07,-1.9860870470986443e-08,2.4623921066361624e-08,0.09999433944509264,-5.725546935453988e-06,-8.145344712421301e-07,-1.2602554158113584e-06,-2.0636263593482996e-06,-3.8396547450596953e-07,-1.004014935789976e-06,-2.677345512398211e-08,-4.5143659534714063e-07,-2.302487772524748e-07,-2.1178622627389704e-06,-2.7267714385874587e-06,-7.419076079697818e-07,-9.311280011499655e-07,0.09999225439251216,2.3039009787230004e-08,-1.3060486172226468e-06,3.2067336376519254e-08,0.09999908812359333,-1.013747224006743e-07,7.202746302443411e-08,0.03365569580417282,2.378962855070235e-08,0.09999778077221597,8.09205700705305e-09,1.702808795419745e-07,-1.4165439869567549e-07
14,2020-06-01,Simple + Baseline,-2.539403476591505e-07,-4.6054200189018734e-07,-1.977576838454167e-06,-1.657086957914108e-06,0.08691611482642754,-3.980622152330413e-06,0.08117320612523408,0.09999455467410323,6.223242639100276e-07,-2.223643724610707e-06,-9.95230161323036e-07,0.09999820418744426,-4.1289452455978105e-06,-1.372993960455245e-06,0.09999890353375414,-6.341334453595417e-08,5.235982209492446e-07,0.09999402091065061,6.172706845362254e-08,-1.6723919928924352e-06,-1.9969952871928885e-06,-5.704283869757343e-07,1.9069061968203383e-07,0.09999029761075756,-8.4690750285029e-06,-2.991662421889091e-06,-3.5829312626335423e-06,-4.01647445784935e-06,-1.3625688618891058e-06,-2.322590060104931e-06,5.940989035376725e-08,-2.838997160530612e-06,-9.098402068466118e-07,-5.476458996529402e-06,-5.008840699382793e-06,-2.539348542664157e-06,-3.0518704429726324e-06,0.09998909453886846,4.315435208730006e-07,-3.0540626397997548e-06,-6.068825928070447e-07,0.09999591472685361,-5.506248045399209e-07,-4.106906367968325e-07,0.0320221151263515,-1.1363323076734623e-07,0.09999522644980818,-8.506234195584992e-07,7.267925246674377e-07,-7.166817557459778e-07
14,2020-06-02,Simple + Baseline,-3.0121011060494443e-07,-6.171767084397702e-07,-3.8580160239664785e-06,-2.6069539554038256e-06,0.08474231794744458,-6.879095538181528e-06,0.08115777066384217,0.09999144293487618,1.077305388158453e-06,-3.838746063766571e-06,-1.9227278656660957e-06,0.09999724756221255,-6.183174771654878e-06,-2.2042278851536685e-06,0.09999806453145567,-1.1952302299261658e-07,9.760132840026855e-07,0.0999907049788901,2.0381575794341338e-07,-3.726269058265273e-06,-3.4080183027594492e-06,-1.0327580014296692e-06,3.882290112201863e-07,0.09998439840251656,-1.3600935570298758e-05,-4.678157584324152e-06,-5.8363735412785936e-06,-6.227196162230402e-06,-2.251767361666936e-06,-3.5664139460832183e-06,1.7570941079767e-07,-4.335713548113312e-06,-1.5453703167472584e-06,-9.348636905427208e-06,-7.673154708666374e-06,-3.869139571595335e-06,-4.813860027309594e-06,0.09998265176655678,7.028922133459257e-07,-4.83469996176668e-06,-9.171949610028123e-07,0.09999338703164809,-8.267943002996446e-07,-9.531039409405773e-07,0.03427943157837575,-2.0041742912921102e-07,0.09999249320995691,-1.2624028582173992e-06,1.067233561263994e-06,-9.987159641548308e-07
14,2020-06-03,Simple + Baseline,-1.0375874091188986e-06,-1.5424607051966024e-06,-1.97919180771726e-06,-1.915002365727099e-06,0.08473816765493,-2.5294781954675993e-06,0.0978325248569564,0.09999562321719706,-5.648421330851746e-07,-1.3238036246714163e-06,-1.1938426692387377e-06,0.09999833966461427,-2.4634226142445664e-06,-1.1398052688350029e-06,0.09999884577893366,-6.959389592500989e-07,-1.1783780498603683e-07,0.09999605566250672,-6.6387072245278e-07,-1.9904881807399914e-06,-9.47787935506618e-07,-9.11929622310901e-07,-1.152038597497963e-06,0.09999194802449873,-7.125313136955776e-06,-1.2183059191610655e-06,-2.41143080066563e-06,-2.5923249334990687e-06,-1.0390440557559563e-06,-1.3921717743845043e-06,-1.0121740226433226e-06,-1.4121101602567584e-06,-9.343780795366731e-07,-3.9998225069189235e-06,-3.4236449747124034e-06,-2.3091891004221406e-06,-2.3447661700816805e-06,0.0999904639269049,-6.153189438417922e-07,-2.3773922851981356e-06,-4.895746013529103e-07,0.09999643552863806,-1.3751186518087167e-06,-8.083312242779954e-07,0.03426017919260209,-6.829236795539072e-07,0.08326212718582872,-1.1005971113773583e-07,1.9830474981451608e-07,-1.0650399422304557e-06
14,2020-06-04,Simple + Baseline,-1.275912105826079e-06,-1.9157740944091315e-06,-2.8475714537079063e-06,-2.0375706596948836e-06,0.08473084999532061,-3.441896826046076e-06,0.09999785888146061,0.09999592073539455,-7.82409043099779e-07,-1.4046323897151331e-06,-1.3422423234984418e-06,0.09999690856010979,-2.1856046048198064e-06,-1.5819120188368072e-06,0.09999873710195133,-8.165326774587853e-07,-3.206645095781833e-07,0.09999654016018616,-1.0264911107912617e-06,-2.9579588812474756e-06,-6.064554464335766e-07,-1.5127342754898848e-06,-1.5641788290716801e-06,0.0999929115211424,-5.8786366818215655e-06,-1.0343076938176795e-06,-2.1167748517694165e-06,-2.052020333127636e-06,-8.795516988756013e-07,-1.3502669377557493e-06,-1.730838920440109e-06,-1.5582274255479776e-06,-9.040359685732006e-07,-3.6739106066975823e-06,-4.086836069568557e-06,-3.811450029752214e-06,-1.9136304096396868e-06,0.09999297384561587,-6.355643152238843e-07,-1.5865916631003875e-06,-7.776186579886977e-07,0.09999561598082936,-1.2233323954497795e-06,-1.0699690846408476e-06,0.03729324177248092,-9.201984940736564e-07,0.07807543669705011,-6.523089783200673e-07,-4.908830298681864e-07,-1.006277050714935e-06
14,2020-06-05,Simple + Baseline,-3.3934214514375464e-07,-2.4030515285361213e-06,-4.354770303724379e-06,-9.527874443345417e-07,0.08471875724652113,0.00021040612549089885,0.09999793890891936,0.09999502305551936,-1.1410105102634001e-06,-1.5548649826340223e-06,-3.5129675871828e-07,0.09999471361152006,-6.128928844375149e-07,-4.0015892341787964e-07,0.0999983583940593,-6.231532134797266e-07,-8.515934053329866e-07,0.09999871294610432,-6.791703690427315e-07,-3.110568558741673e-06,2.083328096668732e-07,-8.721537847044308e-07,-2.319052398732609e-06,0.09999416030991176,-5.715946065670591e-06,-1.3229927876850006e-07,-1.44773287227113e-06,-1.950758469497489e-06,-6.101478284239412e-07,-8.781020547369198e-07,-1.6592737062318463e-06,-2.5784363564192473e-06,-2.371945137849896e-07,-1.6282475023463967e-06,-4.362685653699695e-06,-3.215743867650167e-06,-9.916930240738885e-07,0.09999368386173615,-6.432995481011913e-07,-2.2880427821457044e-06,-1.3395429612228376e-06,0.09999619795431805,-1.8507842124334708e-06,-6.350109514815713e-07,0.04450091794927343,0.02876744986397073,0.041889420979454556,-1.1199666938817573e-06,-1.0019479470670495e-06,-1.0706242251664367e-06
14,2020-06-08,Simple + Baseline,8.54159706175868e-08,-3.419209463598981e-07,-9.757766125517027e-07,2.1824631342966585e-08,0.10000018436927405,-2.0448076232046623e-06,0.09999975707598649,0.0999985642634548,-5.307299111231394e-08,-8.886276605211758e-08,1.1283751834687118e-07,0.09999881345927696,1.2922801762328849e-07,1.1523476796126326e-07,0.09999992886102274,5.236810294834474e-08,-8.296172098758573e-10,0.09999998967182301,3.87996249609759e-08,-6.293805227631155e-07,2.4388056940883404e-07,1.4074774603115714e-08,-2.5657967282136034e-07,0.09999799133117278,-2.2269205631293745e-06,2.7541819961639545e-07,-9.421483634146996e-08,-3.1990547999643163e-07,1.4740523237371335e-07,6.830398522641017e-08,-1.9779476681590997e-07,-3.671558042370971e-07,2.1985014156216953e-07,-2.1383814654442864e-07,-1.3595353055188813e-06,-7.8942491335958e-07,4.922470161510712e-08,0.09999767115451447,1.8553155768337985e-08,-3.4096623690384945e-07,0.002504263989835436,0.09999907325033706,-1.518539999146091e-07,7.459239818778534e-08,0.05017432089428259,0.02683710098257294,0.020501180887630744,-6.865686082947196e-09,-3.111276477945719e-08,-2.051495446641756e-08
14,2020-06-09,Simple + Baseline,-2.505727899448165e-07,-6.161147458677157e-07,-1.1928529060094553e-06,-6.00869736223096e-08,0.09999933853139195,0.0016314400878006984,0.09999957805284121,0.09999886855564886,-9.546586259192508e-08,-4.1375858415722045e-07,1.1365041099339707e-07,0.09999894387888594,1.768502995145919e-08,-2.1944721885591678e-07,0.09999977244650841,-8.018333119117991e-08,-1.9759610739796756e-07,0.09999960728322768,-2.5447007689938386e-07,-8.017040003794047e-07,2.1102489744082127e-07,-2.2171269913111886e-09,-6.634684948889372e-07,0.09999842681881232,-1.4176463476439675e-06,-2.7447476897607136e-07,-1.5016463978279154e-07,-2.362461573299818e-07,1.6113594611414347e-07,-2.5069185940368436e-07,-3.6825453653218304e-07,-8.199611510146574e-07,-2.068292970263129e-07,-1.4643613094895703e-07,-1.1736818631618397e-06,-7.182023977158234e-07,-2.021381183010451e-07,0.0999982393807767,-1.6824678526804135e-07,-2.769361861518716e-07,0.0024942650466507265,0.09999939069258441,-2.767699606852726e-07,-5.848509217722901e-08,0.05035417552575665,0.0017061426223585396,0.043833310307862805,-1.5858384845665692e-07,-2.0101067005451125e-07,-4.473832948162341e-08
14,2020-06-10,Simple + Baseline,-1.5056631130772276e-06,-3.375389410049588e-06,-3.7196494045605838e-06,-2.3054053590023434e-06,0.09999563111342392,0.0016179930736051513,0.09368324116081776,0.09999304687535956,-1.0289181219111787e-06,-9.967224999231936e-07,-1.5361357024259613e-06,0.09999466968958752,-2.652983605799344e-06,-2.327823885598652e-06,0.09999853735580237,-9.720260012528094e-07,-4.244577623819545e-07,0.09999815174290103,-1.2602717775441628e-06,-3.471176502914918e-06,-5.01186941995544e-07,-2.102005912851091e-06,-2.3135663322295616e-06,0.09998904454461674,-3.4911942305713053e-06,-1.641746005243776e-06,-1.7736717473423732e-06,-2.0280549065179143e-06,-5.00078967604039e-07,-2.111564142815216e-06,-2.530421980110131e-06,-1.3255854690023272e-06,-1.4404386142128644e-06,-3.5360383297564954e-06,-3.6569001002771462e-06,-3.4606462181159708e-06,-2.795594692973879e-06,0.09999130209952879,-4.750960152515833e-07,-2.027425250675222e-06,-1.117818585858345e-06,0.09999517460250414,-1.689250475663377e-06,-9.553355908582868e-07,0.048605369118662006,-1.3933569800378718e-06,0.05620839062567572,-5.547893529291378e-07,-1.3446527426338852e-07,-1.3957593218781415e-06
14,2020-06-11,Simple + Baseline,-1.0561876868770587e-06,-2.2794731300888234e-06,-2.9352634281773073e-06,-1.5179573772756692e-06,0.09999684985575977,0.001609384538510451,0.07993806341623388,0.09999478005256317,-7.332668601824328e-07,0.014675982868007443,-1.0338562239910435e-06,0.09999628214866975,-2.15866738197258e-06,-1.579684548377722e-06,0.09999915216310061,-6.93500457083765e-07,-2.6868295107681695e-07,0.09999852984707866,-7.925068729095749e-07,-2.955108950892296e-06,-5.848721403056574e-07,-1.3772868387340877e-06,-1.5452450871975103e-06,0.09999117198269872,-3.6201818996959e-06,-1.1099908729586826e-06,-1.6350655746588628e-06,-2.0995439995794544e-06,-1.915906580699865e-07,-1.8671411054871968e-06,-1.588607522010716e-06,-1.1141749171589428e-06,-9.842600048121318e-07,-3.3648190221934476e-06,-3.339787173569571e-06,-3.194657156586341e-06,-2.1774532753823667e-06,0.09999294511036184,-2.5244214703235217e-07,-1.5954632552025275e-06,-5.805866106949019e-07,0.09999644375931095,-1.2042643254595657e-06,-7.314640146436824e-07,0.026612341166536362,-9.934186125803947e-07,0.0772524407631474,-3.7187551646022255e-07,2.0952868108403102e-09,-8.249042949538768e-07
14,2020-06-12,Simple + Baseline,-1.145721855074159e-07,-3.771877413602844e-07,-8.137173610213656e-07,-3.655105149233916e-07,0.04765711735631545,-2.9301737149482575e-07,0.07616073510938308,0.0597336086857555,-4.276230772051193e-08,0.05749416167107672,-1.9789080422945316e-07,0.0999991843889936,-7.910999022797657e-07,-3.1298838469179665e-07,0.09999986721813116,-4.590533590721679e-08,1.816204783208684e-08,0.09999935854991299,-9.028795393837781e-08,-7.777745852263022e-07,-2.286783419865843e-07,-1.9587105189266692e-07,-1.6821193617182712e-07,0.09999588637898942,-2.0650360654117084e-06,-3.5975834121467087e-07,-8.306872718966082e-07,-9.408286578162846e-07,-2.7015200812303836e-07,-5.322293497312712e-07,-2.147597398267571e-07,-4.260920220668453e-07,-3.138935710478319e-07,-1.4072171975308013e-06,-1.320988748427787e-06,-1.0076153316808029e-06,-7.967769585381974e-07,0.09999630968750921,3.31183190340453e-08,-6.665864143629194e-07,1.6880425680745804e-08,0.09999871048736808,-1.9173065042951192e-07,-8.048170236164954e-08,0.054640050031220626,0.02708993267683077,0.07725143407863325,-5.834556707526873e-08,1.0772360397055717e-07,-2.3189837791882827e-07
14,2020-06-15,Simple + Baseline,-8.15156347739329e-08,-4.3005045975825287e-07,-7.584566708318495e-07,-2.041086471065864e-07,-9.184981743450685e-07,0.0039564066037008115,0.006737377567796332,0.09999877449874885,-2.7556271025629284e-07,0.08550673029434062,-1.0548452606879266e-07,0.09999918680443212,-3.9238458588869175e-07,-2.420181406108294e-07,0.09999974030745305,-2.9303511390857925e-07,-2.762112154788116e-07,0.09999971485032676,-2.7046843810806675e-07,-6.073727710146913e-07,-3.575305176948375e-07,-3.8937316152546867e-07,-4.6132984828232243e-07,0.09999742692625446,-1.8084937541264372e-06,-6.869248783312595e-07,0.039478282981706185,-8.267905095161654e-07,-3.8638679547799126e-07,-5.43413031547333e-07,-1.235295154418794e-07,-7.039659743068473e-07,-4.7647097956727266e-07,-7.030171524893585e-07,-9.668547635591573e-07,-6.057398807889636e-07,-8.0402397800084e-07,0.09999715566113956,-1.5436528225379684e-07,-9.385010293712979e-07,-2.3632241262753675e-07,0.09999907209168783,-4.471308396831226e-07,-2.775624558222302e-07,0.08709859896036853,-2.3673846421426193e-07,0.07724921925638503,-3.4202463630035367e-07,-3.9761801113502145e-08,-3.1160227856897285e-07
14,2020-06-16,Simple + Baseline,-2.7500474094056916e-07,-3.937954634482552e-07,-9.259885723228064e-07,-8.779884038687573e-07,-1.1391585481814554e-06,-2.199476270008102e-06,-9.535918374416282e-07,0.09999856564442014,-1.5868039834136323e-07,-1.5026901561307483e-06,-2.2695830398917013e-07,0.09999833293164104,0.05989759407630124,-2.071061124914807e-07,0.09999956116339058,-1.3654543176193434e-07,-1.336608071414919e-07,0.09999891505598867,-2.6813509526384437e-07,-1.4057525090217412e-06,6.64820466561647e-08,-3.6834325468886037e-07,-3.826074253295911e-07,0.09999664043437732,-1.995588935280483e-06,-2.947838564344792e-07,0.039475549379049756,-5.469262369738769e-07,-5.718039030489411e-07,-5.777852387804091e-07,-4.1598943302891814e-07,0.013662248891465641,-4.798738424541443e-07,-1.4921366218805761e-06,-1.3953992928962928e-06,-1.0163469007919982e-06,-3.411831557714144e-07,0.09999733517784735,-9.155600924929239e-08,0.007163292415186198,-2.77699964947709e-07,0.0999983812499895,-7.943275681828177e-08,-3.363672947494944e-07,0.05832057037461084,0.0215158028702877,0.09999930386992403,-4.1847018509456265e-07,-1.747784038915938e-07,-8.322338818501122e-08
14,2020-06-17,Simple + Baseline,-4.54852004256078e-08,-4.668243540999823e-08,-1.9535712915793637e-07,-2.0055133957459692e-07,-2.6505387860141657e-07,-6.36921070497846e-07,0.026561237717694548,0.09999960112655831,-8.622830316195167e-09,0.024679784646907676,-3.640818734962517e-08,0.09999962716496752,8.10795860143876e-08,-1.5053240474652302e-08,0.09999998174182477,-9.539531292595227e-09,8.486040492337914e-10,0.09999973309744216,-3.6935454039927636e-08,-3.6618114651902573e-07,6.244465556335997e-08,-4.3641534738990895e-08,-4.00908287167504e-08,0.09999865245792972,-8.340728418051857e-07,4.514814612403274e-09,1.2378570811904124e-07,-7.967014590289566e-08,-9.470806439021328e-08,-9.54520542046459e-08,-8.177683889317839e-08,0.013662512789712434,-8.344085556302147e-08,-4.6950290330747016e-07,-4.5968273714967816e-07,-3.1811205417593157e-07,-2.9633200884147604e-08,0.0999989424350278,-2.211559378777362e-08,0.10000015463184388,-1.5471387349367806e-08,0.09999952804266585,2.3016406436104776e-08,-6.361360520791003e-08,0.03219848761200568,0.002906226836949403,0.09999988646761565,-2.978400135140612e-08,-5.0484362664926475e-08,2.044505781017399e-08
14,2020-06-18,Simple + Baseline,-2.310809925223482e-06,-2.005412944157e-06,-3.4646065957455124e-06,-2.79794009515962e-06,-3.1642256538578804e-06,-8.064646668698542e-06,-4.485393851631848e-06,0.09999457044170858,-9.387275209798247e-07,0.09999554962596655,-1.3745531006578279e-06,0.09999372230296803,-3.4592060962607044e-06,-2.1716383512091434e-06,0.09999861988708932,-9.196598185587169e-07,-8.162937651219169e-07,0.09999578257571402,-1.754281244700113e-06,-5.70044177239034e-06,1.7680150136596598e-08,-1.909685016671952e-06,-1.6099682182632237e-06,0.09999151453206216,-3.536418743498815e-06,-9.070058723580393e-07,-1.6796083158599415e-06,-5.865472870968129e-07,-9.476375676694276e-07,-1.3067448823700175e-06,-2.0673561448669446e-06,0.013654760267379228,-1.924256917770511e-06,-6.374744696034006e-06,-5.184148590573168e-06,-5.93180316403154e-06,-1.13369449400557e-06,0.0999909712876217,-7.42046637900665e-07,0.08647986278460489,-1.6258990117842575e-06,0.09999214609185528,-4.963342002340661e-07,-1.2718165404943582e-06,9.24634942490393e-08,-1.3592345772557311e-06,0.09999930057969494,-1.8672579325849834e-06,-4.2954402000352164e-07,-5.439177592563136e-07
14,2020-06-19,Simple + Baseline,1.1339483387027263e-06,5.259241284343055e-07,0.03401962999337484,9.815111358238737e-07,5.795793509990678e-07,2.9414076841622113e-06,0.004809133069935749,0.10000072725818442,1.1772262753686129e-07,0.1000017436926396,9.727999829165258e-07,0.10000109818851835,8.746745267376705e-07,9.88978984887816e-07,0.10000033724385889,2.3067828423196652e-08,3.127889804115536e-07,0.10000159957844784,5.805412477515535e-07,1.081672794612681e-06,-4.01097992249524e-08,7.396833949260807e-07,-6.654265195962966e-07,0.10000386133646368,3.487503870605946e-06,2.1468900467581888e-07,2.552460041003591e-06,1.4471265639192986e-06,4.778451203343924e-07,8.960486157854683e-07,2.5324607975885056e-07,0.016229961696426164,8.019344233564061e-07,2.5602990913080698e-06,3.0350537801507655e-06,1.2812624057653648e-06,1.6316379941416153e-07,0.10000006508075122,-5.092472210317527e-08,0.03572680229813475,0.009174929646250966,0.09999997782993693,-7.510324673772932e-07,2.700279741750583e-07,-7.389350048731629e-08,5.134061028229956e-07,0.10000135946807295,4.882287146281876e-07,3.1804248806293066e-07,-3.0659300797140533e-07
14,2020-06-22,Simple + Baseline,-1.9977875916714306e-07,-2.6251625089878174e-07,-2.801992855922337e-07,-1.7061405723859922e-07,-2.0729776261178947e-07,8.583910759135638e-07,0.05355938217773751,0.09999973311184904,-9.042108297696617e-08,0.10000029605389484,1.6743287711609353e-07,0.09999972538026465,2.78827602052618e-07,5.907590295931236e-08,0.09999997104534222,-1.0295993859191066e-07,-1.150471412187038e-07,0.10000039556122102,-2.030154375739634e-07,-2.9330331291616816e-07,3.1669423088692505e-08,5.551115264092152e-09,-2.8593638127008665e-07,0.10000159385914514,1.7445602347189088e-06,-5.0081115328995065e-08,8.707099987839333e-07,5.840573943129262e-07,1.2903071153082864e-07,-1.9169833444728689e-07,-2.1971371244669526e-07,0.054079103725683385,-1.929025079942809e-07,9.899966466029479e-07,1.0598999418911167e-06,2.287187523802703e-07,-1.0092052929011342e-07,0.09999981831221505,-1.1673070390212308e-07,0.01643206511965299,0.009172317578992594,0.09999983175679349,-2.267541274583065e-07,-4.9291379777650413e-08,-4.6284150866455096e-08,-5.044482138419694e-08,0.06675242257099621,-2.5231972769683078e-08,-6.730296120930516e-08,-1.1547838973603727e-07
14,2020-06-23,Simple + Baseline,-1.457826542536597e-07,-1.7523577379388647e-07,-1.8269925308783303e-07,-1.6154693868033387e-07,-2.7686755663022416e-07,1.9537932581981948e-07,0.005962840249701792,0.09999975373889813,-1.1677459751091497e-07,0.09999998840616092,-1.202221780099201e-07,0.0999997868035959,-9.707153431342652e-10,-8.2395512250529e-08,0.09999992355874372,-1.1896303592408253e-07,-8.756046250561692e-08,0.10000010017489451,-1.3481123988167063e-07,-2.2382262101258152e-07,-4.085976011010805e-08,-1.3045154880449872e-07,-1.6047770208885558e-07,0.1000005106083819,8.603960973933539e-07,0.02197612431622699,0.02120817022856395,1.923157136980119e-07,1.1569659290737353e-08,-1.4864318037489298e-07,-1.7287869115920271e-07,0.0540788710974963,-1.3720145710150613e-07,3.3045445712951294e-07,3.498064465799074e-07,-9.276972835613898e-08,-1.529286727312608e-07,0.0999997037189127,-8.423895220281865e-08,0.016431765959980495,0.01843215562841834,0.0999996707480651,-1.3059610263620778e-07,-1.1361077407701002e-07,-6.892584006249313e-08,-8.627658636988499e-08,0.06191223684457049,-3.925264588266158e-08,-3.0163258978766575e-08,-1.2477373728368587e-07
14,2020-06-24,Simple + Baseline,-2.786539634549989e-07,-2.9134162337957264e-07,-4.2445539799409805e-07,-1.3739973207943672e-07,-3.59612112815688e-07,-1.76982612783223e-07,-2.0723378009433936e-07,0.09999928740051506,-1.3495787881106866e-07,0.08163189265522772,-1.1426918243366537e-07,0.09999956714253401,-1.9453917296188223e-07,-2.290237039530462e-07,0.09999988718546751,-1.3873875127722547e-07,-1.5175714241613444e-07,0.09999991445693691,-2.3822058768828104e-07,-4.5753795154712265e-07,-6.947152335943514e-08,-8.490494159780912e-08,-1.6528316556354643e-07,0.09999993542361686,4.5320534880249874e-07,-6.056353937719628e-07,0.07993020252430118,1.2608081445115672e-08,8.948284640258219e-08,-1.5545596107609665e-07,-2.594861974566348e-07,0.09999956265014487,-1.4642796970483376e-07,-5.913325894794344e-07,-4.250528994218436e-10,-3.4866992638125097e-07,-1.30664941908741e-07,0.09999963462667286,-1.1495603631295224e-07,6.693360616560594e-07,0.022793401585349784,0.09999961020076122,-1.4664306193326112e-07,-1.3421398481690516e-07,-3.724734348174387e-08,-1.912410674185955e-07,0.015652898373423294,-1.037479132387126e-07,-4.263801647248842e-08,-1.544841416832855e-07
14,2020-06-25,Simple + Baseline,-3.2853725612751144e-07,-3.802919226697175e-07,-4.7003230001758574e-07,-2.4627774019953133e-07,-3.651725559430917e-07,-2.632131178354707e-07,-2.464187390256185e-07,0.09999943625509221,-1.9001973883672012e-07,0.03193149897429579,-1.0917336380348287e-07,0.09999953001959096,-1.1248767142334375e-07,-2.9550842943975785e-07,0.0999998629178895,-1.7959917218359464e-07,-2.0558208942707046e-07,0.09999979005472183,-2.9240491272366575e-07,-5.501585884062816e-07,-2.4258294204212785e-09,-2.2534769911043262e-07,-3.3771847930108355e-07,0.09999963488348276,2.577361438622451e-07,-3.0107895816447535e-07,0.10000002337917129,3.6226591769528204e-08,5.261089653945425e-08,-1.9419623785705214e-07,-3.134665669935357e-07,0.09999962434148489,-1.7699888379477068e-07,-2.702085898343043e-07,-2.3164941144750706e-07,-4.569558913410053e-07,-1.6638614193050842e-07,0.09999963697302607,-1.925809214732863e-07,0.029636437502159274,0.02278958789143457,0.09999958288724105,-1.989428881194015e-07,-1.9175196184138636e-07,-4.247943940824566e-08,-1.9646407605315075e-07,0.015653136564831346,-1.2233444824510134e-07,-1.5595276345903122e-07,-1.1658474331644619e-07
14,2020-06-26,Simple + Baseline,-2.6558847260268184e-07,-1.5681730130372214e-07,-4.2222583883815724e-07,-4.2075672016997e-07,-5.203886457086963e-07,-9.547287589004162e-07,-5.507595546626363e-07,0.09999951511466228,-9.762495094197547e-08,-5.659875166060585e-07,-2.817289849183832e-07,0.09999928835724912,-5.013404702578496e-07,-2.2796146882883613e-07,0.0999998602602441,-1.222866279016186e-07,-7.451043646663105e-08,0.0999993512789724,-1.6935541503572263e-07,-7.435563046560419e-07,6.190482581259543e-09,-2.3637998942657235e-07,-9.499892349716635e-08,0.09999884252790187,-2.2011663776482657e-07,-4.957382939569602e-08,0.09999975268802444,-2.686739071069277e-08,-1.0847849255664616e-07,-1.7456254001317766e-07,-2.500842032133088e-07,0.09999981782991953,-1.6621550969780877e-07,-7.456369737128419e-07,-5.181082660408552e-07,-6.706264731570669e-07,-8.913696866194896e-08,0.09999940701006989,-8.332526537277098e-08,0.034616131458776546,0.049746019083886456,0.09999903566986987,2.6150580974829224e-08,-2.1137616775230507e-07,4.549062163403633e-08,-1.338042120367723e-07,0.015653191732946402,-2.766971119653927e-07,-1.0659310786737223e-07,-4.612194186432685e-08
14,2020-06-29,Simple + Baseline,7.013003657693792e-08,2.7028345460443423e-07,0.08387747702271608,2.794372420756734e-07,2.8547343782789826e-07,6.942218897235828e-07,2.0643932915331383e-07,0.10000076816962557,7.913381177766499e-08,8.292320798699849e-08,3.543340688995109e-07,0.10000065305189175,3.548597866927931e-07,1.827728185841851e-07,0.10000017221869695,2.13535728953939e-07,2.895731819300449e-07,0.10000017387419871,1.872883421652071e-07,5.954392040037366e-07,3.4200399785534267e-07,3.665316410967349e-07,7.87867545907884e-08,0.1000009682084744,7.101621607505426e-07,6.477307998283627e-07,0.020470306951116225,6.213998498127261e-07,-5.492561079212384e-08,4.201951056536855e-07,1.4795403512610015e-07,0.10000033915064442,3.656261677386428e-07,5.032566587572211e-07,4.683530202738182e-07,2.7730881171137534e-07,4.298170184297685e-07,0.10000089108616966,3.890744085201255e-08,0.033797719698697146,0.027370780711400887,0.1000002002426272,2.9864278118640777e-07,3.451268966048201e-07,0.03446777455390824,1.015415661917407e-07,9.133214081979509e-07,4.3024712977470697e-07,1.1127289442798638e-08,1.5682647666342324e-07
14,2020-06-30,Simple + Baseline,-3.5112989736757825e-07,-3.668343667937933e-07,0.08387402010183208,-3.699697722516364e-07,-2.485922750374282e-07,-6.602380564511056e-07,0.0029728070616015147,0.09802982402863632,-2.3326831094865676e-07,-1.642905023174491e-07,-2.9717117250950887e-07,0.08653229306205418,-8.006687530554225e-07,-6.940960715727006e-07,0.09999955461165802,-2.8755356449434665e-07,-1.0770224226995411e-07,0.09999923958962015,-4.501837656311983e-07,-1.488544860511999e-07,-8.850932313595764e-07,-3.544357554718179e-07,-1.9983850827532942e-07,0.0999991031485424,-9.28808563784043e-07,-9.074133868189755e-07,0.02046672198300198,-9.600862183011663e-07,-9.228445203907917e-07,-7.599851264800347e-07,-2.5171491331529415e-07,0.0999991915365486,-7.125460463943039e-07,-8.981884936725148e-07,-3.924353703299908e-07,-4.2904142872748137e-07,-1.0774939441222716e-06,0.09999834641917615,-2.0369557655889084e-07,0.02531437750052132,0.0653677715981783,0.09999893822177243,-3.3600799295562286e-07,-2.6263992402603506e-07,0.01746534846033188,-3.25456168285673e-07,-8.385551801286917e-07,-4.770942257379375e-08,-9.517189680111996e-08,-5.587763821228166e-07
14,2020-07-01,Simple + Baseline,-7.19262899305772e-08,-4.449412667255731e-07,0.09999905992866949,-3.001111167651248e-07,-6.074833403559602e-07,-7.988567762687272e-07,-1.927367346855927e-07,0.09802736522452725,-1.218950350320131e-07,0.009677128694855078,-2.4711185051818705e-07,0.099999246078065,-7.462053934249605e-07,-3.6764884281542233e-07,0.0999996910651878,-2.503098876199796e-07,-2.839561982968652e-07,0.09999946174831334,-2.698099993092653e-07,-7.38885789076298e-07,-6.379568410496721e-07,-4.0463650314890185e-07,-3.1946026228022976e-07,0.09999846167019424,-1.5086898584761794e-06,-9.77886231625751e-07,0.028374219691034642,-1.1490502903180418e-06,-4.494677515434332e-07,-8.511666473777152e-07,-2.5074757321530755e-07,0.09999911294924202,-5.085211002964762e-07,-9.847478016964484e-07,-8.672872303852039e-07,-6.479802100253897e-07,-9.328889022571205e-07,0.09999779299686878,-6.0364706891467995e-09,0.009793264444713517,0.04117318499689526,0.09999914214481478,-4.3228454008084565e-07,-3.5993942640673857e-07,0.012981646599665988,-1.050651880325512e-07,-1.0998839181296258e-06,-3.1659309391782823e-07,-5.741114128860119e-08,-4.6135084237520057e-07
14,2020-07-02,Simple + Baseline,-1.2048039307195926e-06,-1.7534870513079142e-06,0.09999903213335455,-1.849316396918852e-06,-1.4224447817193434e-06,-7.732912299305268e-07,0.02265603677240827,0.09802433085282869,-9.699549930726004e-07,2.901591598888372e-05,-1.2897729756205952e-06,0.09999925179513677,-1.3562189090277095e-06,-1.158464412858508e-06,0.09999918583212354,-9.111878451078351e-07,-7.001586660293627e-07,0.09999954246884792,-1.0238695238708055e-06,-9.839187016459734e-07,-9.195639080113986e-07,-9.345488517555162e-07,-1.0764899898875503e-06,0.09999849603438364,-1.0583045001810771e-06,-8.895049624753878e-07,0.02837186505579846,-1.4176883835075088e-06,-9.792787324231857e-07,-1.0983687491319273e-06,-1.0730853682764159e-06,0.09999923804958404,-7.367676212851508e-07,-8.819596344426569e-07,-6.669878728433205e-07,-1.3907399423613577e-06,-2.1659577765492105e-06,0.09999696691724788,-8.153096486188564e-07,-1.8394220586690627e-06,0.02423466663930012,0.09999793117534403,-1.787089802204279e-06,-1.1430899191154e-06,0.012963490052478101,-7.925053847319448e-07,0.013769426250120457,1.3957797431567898e-07,-2.177918274179371e-07,-1.33242090839024e-06
14,2020-07-06,Simple + Baseline,-3.8376573993192386e-08,-1.3439393366192562e-07,0.0999999374851063,-2.903729007592637e-07,-2.2373581726576594e-07,-3.815426837423751e-08,0.05538787706177469,0.09802518910023159,2.4544708499674756e-08,0.03720351731846821,-1.1462083030278066e-07,0.10000001391590253,-3.1092042696684204e-07,-4.9517431872894605e-08,0.10000000745693913,4.0017247597876065e-08,8.201658241090215e-08,0.09999986138039586,1.3834480970821797e-08,-5.7748998528686615e-08,-5.34428921759999e-08,6.301674926513495e-08,-2.754819023977606e-08,0.09999950031416575,-3.1357781405196604e-07,2.705275904180903e-08,0.01328186180273118,-3.765229856505815e-07,-1.9122718466372253e-07,-7.600192151773628e-08,-2.0312792195277865e-08,0.0961071089293497,-1.2946280062467e-08,-1.9577495409128165e-07,-8.793387949392841e-09,-1.9197101599686264e-07,-4.6427276029518465e-07,0.0999987747472825,2.969546275196696e-08,-4.409505615411231e-07,7.046689983640898e-08,0.09999944828706743,-1.607332757044e-07,-5.091466661240262e-08,7.398230009897418e-08,5.3852387314006415e-08,2.2232401537381748e-07,7.375937408461899e-08,1.0440661595114916e-07,-1.3469214709030168e-07
14,2020-07-07,Simple + Baseline,-3.79408715962864e-08,3.089848029131887e-08,0.10000007466794886,-5.259435722194683e-08,-2.5286875854694595e-09,1.1670859836560818e-07,0.05538781669601111,0.055667873184043266,-7.054479704029578e-09,0.08894357831771647,-1.7510267956238e-08,0.10000015217515766,-4.327846951311107e-08,-3.959652851585633e-09,0.10000002572601263,5.385480835668213e-09,1.394053096096562e-08,0.09999998378053829,-1.6638089878816487e-08,8.844090821728832e-08,4.576914101234715e-08,2.5030161066678617e-08,2.86288566550248e-08,0.10000000734684662,3.658973166341911e-08,1.1732596947406046e-07,1.2433094416160392e-07,7.857195869437222e-09,-4.3917984410749945e-08,9.627295149317845e-08,1.9781886461491874e-08,0.10000010024766103,9.201996206291297e-09,9.03708185806501e-08,1.5703206228946214e-07,2.1956818946898662e-08,-7.562723332655467e-08,0.09999964732391171,-3.4289919806371735e-08,-4.1840968326555984e-08,2.2613831036269384e-08,0.09999980310602806,1.86107821842469e-08,3.90057714773838e-09,1.3807824439721945e-09,-2.6633220907994016e-08,2.3119689725447638e-07,4.3745683444200973e-08,9.793377435614968e-09,-2.7594293629673308e-08
14,2020-07-08,Simple + Baseline,-5.527359812867447e-07,-1.3573307258362982e-06,0.09999810964883615,-1.2422277611492878e-06,-1.994387005158338e-06,-1.4963464595900155e-06,0.05506816376840862,0.055662340292874944,-4.878689360251679e-07,0.08933899523498352,-6.845579402138186e-07,0.09999815790105951,-1.3329356692400835e-06,-1.2174367223218708e-06,0.09999907813963414,-5.306594335979007e-07,-5.563072259111814e-07,0.09999888839377617,-6.301284636150412e-07,-1.2803016464689476e-06,-9.530748061000657e-07,-8.539062581069103e-07,-8.330357961870295e-07,0.09999436271865829,-2.133217608217479e-06,-1.4184591115518304e-06,-1.3279676963757954e-06,-2.00347430493669e-06,-1.071830620970527e-06,-2.3521232250795683e-06,-8.125186483394076e-07,0.09999797782893137,-1.1582956196203016e-06,-1.4852626263326815e-06,-3.0298020929772166e-06,-2.295128787119985e-06,-2.361624215955223e-06,0.09999283981449804,-1.8596792834601327e-07,-3.0630380267599468e-06,-2.80951983107682e-07,0.09999790566477403,-1.2443882937330258e-06,-7.456998850651833e-07,-1.9359659402768958e-07,-4.389805342945296e-07,-1.6020991122839956e-06,-3.24755756053359e-07,-1.3379996933059824e-07,-1.1341887084441491e-06
14,2020-07-09,Simple + Baseline,8.824839523342957e-07,-2.5974715895429066e-08,0.10000059668939476,5.298784412536299e-07,4.7661105692105425e-07,4.27378813905636e-07,0.0642993952988333,0.04632787425913234,3.2462428607328845e-07,0.08934805762164695,1.8012051056044258e-07,0.09999936989757943,1.1837459129294568e-06,7.817069191590092e-07,0.10000131104593378,4.5083691622545324e-07,1.0206206070472455e-07,0.10000222251728462,7.578408861101798e-07,1.950497323119225e-07,2.914501573931889e-07,2.3619192665674848e-07,5.430190174813612e-08,0.10000017601506363,2.790572889534453e-07,-2.2263395287399466e-07,2.0299447691006177e-06,3.2705232282674986e-07,2.0676880676273894e-06,2.679610802823774e-07,8.344818772443537e-08,0.10000084981537356,1.4210077043152276e-06,2.2349387152632352e-07,-5.312450591114165e-07,9.303707506905388e-08,6.7639648610486e-07,0.09999997718337385,5.451567631016077e-07,3.5340212033274645e-07,7.846683854146362e-08,0.10000215892388939,-1.092942586446637e-07,2.8757214822193956e-07,6.193546871021908e-07,5.709962306704635e-07,1.0595681907628834e-06,-1.7645705219726697e-07,3.2094732374266336e-08,1.17126131288901e-06
14,2020-07-10,Simple + Baseline,-3.2031951154242383e-07,-2.2491292665820132e-07,0.09999952499107026,-4.1924847119444526e-07,-4.962951184514792e-07,-1.4223563796451209e-07,0.015599879655817127,0.09506774933730741,-1.8840984759723867e-07,0.08934614041898015,-1.623250214022436e-07,0.09999971746337734,-3.28883853109744e-08,-1.4139193252004609e-07,0.0999997760764724,-1.2532063849561623e-07,-1.1157692428379435e-07,0.10000015233524555,-3.295945586833177e-07,-1.663074540701772e-07,-1.137077931288972e-07,-2.0646576813318005e-07,-1.7258541580309547e-07,0.09999932182402035,-2.2945710995667523e-07,-2.1756954943519636e-07,1.7841817219177307e-07,-1.9885520749784388e-07,4.6271658962581366e-08,-4.868531090454483e-07,-1.918959883331745e-07,0.09999988761730708,-5.850239998603713e-07,-1.7415166449500646e-07,-4.6061832723318396e-07,-5.353202878963216e-07,-6.202423913931917e-07,0.09999803464645612,-2.0099084017093446e-07,-6.9858135250333e-07,-6.121297003373664e-08,0.0999988750672955,-1.7734833035141508e-07,-2.332572773163157e-07,-1.290153516915581e-07,-2.0265143024266454e-07,-9.795660822288757e-09,-2.404007539981279e-08,-4.504954251355717e-08,-4.4447979988357255e-07
14,2020-07-13,Simple + Baseline,-4.5242722238205836e-07,-1.8165352364271382e-06,0.09999802308358671,-1.176932569444301e-06,-2.1046841401053218e-06,-1.7691474352154343e-06,0.006172460082076321,0.09506170361472202,-6.172864468603269e-07,0.09678324113029757,-5.183809749956511e-07,0.09999759342417908,-1.3978786771847144e-06,-7.831215432835194e-07,0.09999944285923527,0.014470275902727656,-6.411379938365998e-07,0.0875816202349877,-8.204068827582006e-07,-1.368738668243166e-06,-1.096282212726262e-06,-6.936167323880473e-07,-1.1004415318505383e-06,0.09999690284499728,-2.8445305322586253e-06,-1.7170897791200738e-06,-1.2628508778546412e-06,-2.6343809927148905e-06,-8.871760047367702e-07,-2.280103255116498e-06,-1.3866160795042086e-06,0.0999987800241103,-1.3200705611709811e-06,-3.469082119926951e-06,-2.7796826957234037e-06,-2.948609669022186e-06,-2.0290024734996363e-06,0.09999191226463153,5.840773707873205e-08,-2.343718042568467e-06,-2.4321889030676746e-07,0.09999847580796317,-1.1625379842632502e-06,-5.715274470857299e-07,-1.7109370576254676e-07,-1.449923251626783e-07,-1.632357338557739e-06,-5.494932404621208e-07,-3.7995337325081426e-07,-1.3477903493869893e-06
14,2020-07-14,Simple + Baseline,1.020411515928363e-08,-2.5257299480582585e-07,0.09999960394740996,-2.095469203738048e-07,-5.145504167300048e-07,-4.670599542526302e-07,0.009206456429123414,0.10000035303174791,1.0635203844745324e-08,0.10000008526078309,-2.1681175768799797e-08,0.0999994967103316,-3.229339882746847e-07,-3.6673214159383386e-08,0.10000000888959606,8.880640134940172e-08,1.620834412687715e-08,0.09081034656955339,-3.645259464291151e-08,-2.5826789763829654e-07,-1.0888244237619233e-07,-2.212658567071439e-08,-8.555643610277696e-08,0.0999987630550027,-1.209163987412547e-06,-2.9231467901913594e-07,-3.3656308580892256e-07,-8.310959163240133e-07,-1.2903425756151457e-07,-5.277034469877149e-07,-1.839755351914893e-07,0.09999977739539707,-2.1654823974836275e-07,-1.2801751509622753e-06,-9.695975411861887e-07,-8.793487351186658e-07,-4.979540260879025e-07,0.09999622836907164,6.647132103252445e-08,-6.299652921607761e-07,2.0754787449757784e-08,0.09999959559855075,-9.503258035978144e-08,-7.305674896390135e-09,3.689305869456884e-08,4.429811624645764e-08,-4.091167353227692e-07,-2.7422325590679025e-08,2.390458504350627e-08,-1.7696017025907792e-07
14,2020-07-15,Simple + Baseline,-2.55072489752225e-07,-2.589287127575133e-06,0.09999738528007372,-2.411107194141073e-06,-3.5084482872307276e-06,-2.870145508628238e-06,0.038395169131875795,0.09999428505139497,-1.0634588450933356e-06,0.09999898208743704,-2.1439777276169653e-07,0.09999585659708217,0.02563048492953284,-6.32727659625897e-07,0.0999988399433041,0.0314853537034339,-1.0976915995755718e-06,0.03740949022180823,-1.3064353490522904e-06,-1.7819947576013373e-06,-8.469213375141805e-07,-1.2099979631493298e-06,-1.8325138329477958e-06,0.09999513368907852,-4.758541359582235e-06,-2.3170323403352302e-06,-2.556736458518886e-06,-3.469848817155992e-06,-2.0177846226401967e-06,-2.416553821012486e-06,-2.080681613302093e-06,0.0671827027910827,-2.2002039779515204e-06,-3.343354596684776e-06,-4.3748611249004835e-06,-4.142205445269703e-06,-2.08562876713458e-06,0.09998787429578146,8.07187238968363e-08,-2.8062314040638675e-06,-2.8969323872540605e-07,0.09999769726271253,-1.328804861528706e-06,-1.0352543902067453e-06,-1.2734533726982725e-07,5.843092894099531e-08,-2.875327789560445e-06,-8.675029765038374e-07,-9.915766765476327e-07,-1.6487038786256936e-06
14,2020-07-16,Simple + Baseline,1.5193887707301646e-07,-1.1027086790240266e-06,0.09999855265361955,-1.419695057537749e-06,-2.304598211847728e-06,-1.3856425632828436e-06,0.02088277362154721,0.09999604235629683,-6.275150524793608e-07,0.09999905003431117,-1.1640296002842599e-07,0.09999773743145336,0.02395678231700366,0.014625766747704327,0.09999917608759762,0.044539866544525804,-3.199527623241681e-07,0.042788259347341394,-5.233855898957791e-07,0.03826508647946504,-7.969942586018801e-07,-6.406510914952789e-07,-8.297839049174834e-07,0.09999670137204739,-4.7076935865954016e-06,-1.5453553181467986e-06,-2.0379134612605097e-06,-2.328126525205233e-06,-2.013873032572637e-06,-1.5894624207766778e-06,-7.287561259340977e-07,0.015009146562838784,-1.3457272866254652e-06,-2.4654075104953166e-06,-3.1090679690584044e-06,-2.1473401431909413e-06,-1.3660566684558376e-06,0.09999042917992267,-2.4486317107923188e-08,-2.704388542396627e-06,2.529110080454428e-07,0.09999851939587673,-1.010534594571489e-06,-5.380172981547322e-07,-2.397547814337954e-07,1.0850831070398133e-07,-2.725565851923152e-06,-4.798987041136777e-07,-4.438412544867211e-07,-7.651784540447035e-07
14,2020-07-17,Simple + Baseline,6.438917565090946e-07,-6.180835153433024e-08,0.09450901812412703,-2.2372577445509727e-06,-2.2746311273517064e-06,-3.4877093398386674e-06,0.026590520740384815,0.09999459461803686,2.4775134838678473e-07,0.09999722401460542,-7.092058870830837e-07,0.09999781987656088,-5.157844611429832e-06,0.04095029265153224,0.09999862036096212,0.04454542064398913,3.9853327420286823e-07,0.04277521003609848,2.815849672736762e-07,0.050765610137555726,-2.16396216058443e-06,-9.204073199726667e-08,5.232930506223526e-07,0.09998671552209555,-9.72583903837043e-06,-2.8563111093941274e-06,-7.3326005626170136e-06,-6.2653394290591735e-06,-4.756957801559402e-06,-3.039468466736816e-06,2.8589116755769573e-07,-2.739357271205257e-06,-2.9705502004580692e-06,-6.99677735000469e-06,-5.583083445828867e-06,-2.9245058426153677e-06,-4.470615307446208e-06,0.09998064950429995,8.43155627476713e-07,-5.772713396027097e-06,7.511636328705273e-07,0.09999507983852962,-5.424212849334251e-07,-9.209241285838849e-09,-2.814949093900262e-07,6.634895554372473e-07,-7.1775169048390384e-06,-8.002631254396416e-07,5.497708060715549e-07,-1.4582496243357434e-06
14,2020-07-20,Simple + Baseline,9.585846966792935e-07,-1.1745062164640411e-06,0.04282876379852664,-1.460030146186737e-06,-2.6661102916507622e-06,-4.188519231823798e-06,0.03570269674329976,0.09999260071578102,1.2552592342214478e-07,0.09999842352127006,-5.134238993861364e-07,0.09999541224215576,-3.97220120248841e-06,0.03604732103938537,0.09999955005813121,0.04455097489099455,-4.309844515639885e-07,0.09024838587181375,1.9851872848579695e-07,0.05075905931685542,-1.994999000364373e-06,-2.788065465371408e-07,-3.686348018791722e-07,0.09998777345037838,-1.1101396956406567e-05,-3.209402130100237e-06,-5.851494439255803e-06,-7.922035185996531e-06,-3.014938346257861e-06,-3.0428964253437706e-06,-4.863944559110058e-07,-1.950107132695214e-06,-1.9541139506690333e-06,-7.97479884337245e-06,-7.219935839902905e-06,-3.4780783904592604e-06,-3.3763678222767552e-06,0.09998209688763918,1.1898755279756607e-06,-6.156521136497569e-06,8.592183885506196e-07,0.09999735797433719,-1.2544255235350952e-06,-9.729488272737178e-08,-3.448108864086314e-08,1.1704091297225894e-06,-7.139539598605941e-06,-1.4198978686075173e-06,5.7873889507417403e-08,-1.1745286945599206e-06
