seed,date,strategy,NASDAQ:HRTX,NYSE:WAT,NASDAQ:TER,NYSE:SFL,NYSE:SBOW,NASDAQ:FATE,NYSE:FDP,NASDAQ:INTU,NYSE:CACI,NYSE:HESM,NASDAQ:OPCH,NASDAQ:SITM,NYSE:FCF,NYSE:VMI,NASDAQ:AAOI,NYSE:JWN,NASDAQ:PFBC,NYSE:TREX,NASDAQ:IDXX,NYSE:THO,NASDAQ:IPGP,NYSE:PAGS,NYSE:FHN,NYSE:ANET,NYSE:SRE,NYSE:CHGG,NASDAQ:OTTR,NYSE:LXU,NYSE:SON,NASDAQ:AXON,NYSE:MRK,NYSE:IDA,NYSE:UBER,NYSE:HII,NASDAQ:WDC,NASDAQ:ROKU,NASDAQ:LXRX,NASDAQ:EEFT,NASDAQ:MSEX,NYSE:USFD,NASDAQ:CAPR,NASDAQ:PBYI,NASDAQ:DGII,NASDAQ:SRCE,NASDAQ:PCRX,NASDAQ:BOKF,NYSE:OLN,NASDAQ:SFM,NASDAQ:IRDM,NASDAQ:NWLI
3,2020-03-18,Simple + Baseline,0.09999991923819636,8.870461516113994e-08,-6.962460868379745e-08,-7.677303866787841e-08,-6.186034170130097e-08,0.09999991530537439,0.09999992038853724,4.806969704171775e-07,-7.185284419800728e-08,-8.674036546715191e-08,-8.126685992978246e-08,-8.449460323866119e-08,-5.9220195748477484e-08,0.09999991987528364,-5.410518855683712e-08,0.09999991700111997,-4.3053605668640837e-07,-6.619620889697785e-08,-4.1451721950373653e-07,-9.757399814867956e-08,-8.813089026753826e-08,-8.640265675983123e-08,-8.972670898382917e-08,0.09999991673812487,0.0999999158072746,-9.755485806082543e-08,-4.794201209272588e-07,-5.3879565867115225e-08,-8.20373499048387e-08,-5.482238002335896e-08,8.826134946604184e-08,-4.375344662316419e-07,-8.581563651435286e-08,0.09999991816614846,-9.749512729327966e-08,2.4249251737577128e-08,8.825656439614467e-08,-9.614951674600098e-08,-5.568329066305706e-08,-8.641069554471091e-08,-2.6984361545771476e-07,0.09999991675673926,-7.85907578855086e-08,-8.389826101704799e-08,0.0999999142144684,-6.546708210553281e-08,-5.29522134651879e-08,2.1225555349772504e-06,-9.064821329036579e-08,2.1210089473364797e-06
3,2020-03-19,Simple + Baseline,0.09999992871693597,2.6395419745373545e-08,-6.644957813218454e-08,-7.068775978767558e-08,-6.184121344694657e-08,0.09999992623782461,0.09999992919903163,2.559036844679464e-07,-6.766224188643034e-08,-7.63060646718262e-08,-7.337681619440048e-08,-7.527706436992147e-08,-6.02789303972105e-08,7.67686698642411e-08,0.0999999589336506,0.09999992728458229,0.09999995664752885,-6.42941666780984e-08,-2.6851478337998464e-07,-8.278513726158698e-08,-7.733982644266006e-08,-7.635615517135808e-08,-7.808297040098977e-08,-4.93673353377684e-07,8.549499835297843e-08,-8.276035228420835e-08,-3.0626943260632917e-07,-5.707444774170894e-08,-7.37956370270541e-08,0.09999996210331892,2.6103396405498954e-08,-2.820060386540989e-07,0.09999994743653823,4.5870301671382683e-07,-8.274125746436438e-08,-1.1188782895975171e-08,2.619715242135896e-08,-8.187484208124577e-08,-5.823807105697157e-08,0.09999996372460226,-1.8356476755161058e-07,0.0999999273065187,-7.212918503614468e-08,-7.471307104896295e-08,4.41246337677196e-07,-6.414363193030179e-08,-5.6389134314190976e-08,1.2177336631614591e-06,-7.87199147979118e-08,1.2167928882473018e-06
3,2020-03-20,Simple + Baseline,0.09999959604295375,-5.663247810988754e-07,-3.261244976011555e-07,-1.0656649395193969e-07,-3.429437171328747e-07,0.04148857172967113,0.09999992391225486,-1.003615102106845e-07,-3.233289344730658e-07,0.04022317788434486,-9.973241904746981e-08,0.0999999495478328,-3.7353427523951506e-07,0.018299063770834054,0.09999968647614811,-1.5812153820592116e-07,-2.02464527888377e-07,-3.296338057824587e-07,-4.390694627361579e-08,-2.6511159790230105e-07,1.9000262535586115e-07,-1.7481086564941164e-07,-1.6272461531017839e-07,0.09999979761804265,0.09999985157528878,-2.643771213956931e-07,-2.1273788028727064e-07,-4.1902328723249484e-07,-1.7081902578100406e-07,-3.0820952630266436e-07,-3.58185003549003e-07,1.7587392282422657e-07,-1.1947591058313517e-07,0.09999991872098461,-2.669149350765241e-07,0.09999933923505916,-2.2826820384201135e-07,-2.3241660435244242e-07,-4.039349952726137e-07,-1.347677166257968e-07,-5.296919838425948e-07,0.09999939053020131,-4.2305225344965045e-09,-2.662831601185566e-07,-5.698393813022286e-07,-1.0007406482258417e-08,-2.777911264511334e-07,-1.0142863169402453e-07,-1.954595417267714e-07,2.064532713464978e-08
3,2020-03-23,Simple + Baseline,0.09999997535388273,-1.726788888136366e-07,-4.427476250816739e-08,3.782166273574962e-09,-2.1233951920076328e-08,5.3320584845602394e-09,0.09999998349741358,-2.076024423401175e-08,-3.1694079105627074e-08,1.9655463764433216e-09,-4.748506914898682e-09,-1.1427956957516198e-10,-3.7733523879781957e-08,0.05374568604534782,0.0999999823065952,3.912238264317637e-09,4.437362140736278e-10,-2.3768214459982645e-08,-2.4919359656325526e-08,-1.3647433270203335e-08,2.996275934031359e-08,1.6939954797401524e-09,5.080857922071984e-09,-2.1198261753642806e-09,0.09999995650943867,0.08999014240215282,-6.72209239165075e-09,0.09999999029864692,-1.046035292127646e-08,0.017926441355557016,-8.686200338443526e-08,3.544239474012721e-08,1.34492528088103e-10,0.09999998339835908,-1.9824505056692387e-08,0.09999991894861857,-1.216544016870818e-08,-5.786888177613857e-09,-7.66604784188901e-08,2.9390123944731134e-11,-9.840581353604247e-08,0.09999995799098595,0.038338647382161556,-8.654721183555533e-09,-7.720346987541281e-08,2.6031715878899822e-08,6.668705683703253e-10,-1.646261492291537e-08,-4.81329734749967e-09,4.193538031901911e-08
3,2020-03-24,Simple + Baseline,0.09999919131146552,1.2180021895824277e-06,-1.6530569683118643e-06,1.428848503604453e-08,-6.172442648370814e-07,-4.334206563517033e-06,0.09999738255125393,-1.8227944117043843e-07,6.495079482070356e-07,1.214594318695506e-06,1.6807668045722228e-07,1.8445310574643811e-06,7.62029131386305e-07,-1.1378067814012398e-06,0.09999930373793618,-5.241484680806867e-07,-2.264253118018393e-06,-1.351050535012099e-07,-9.915040976726883e-07,-3.6222374135514407e-07,-8.143766508233403e-08,1.0584068522088247e-07,1.226162875497954e-09,-1.7364545031925635e-06,0.10000175854764878,0.040770184288611705,-3.3261940618930353e-06,0.09999738455831289,2.656137814930222e-06,0.09999802521814498,4.776394037558204e-06,-2.3154164359188587e-06,-3.4495951506887053e-07,0.07065792687717938,-1.450799485459161e-06,0.09999481729994646,-5.562664915133647e-06,5.872423132873607e-07,9.120372720495671e-07,-2.933480413346241e-07,0.05569202859189919,0.10000010339286074,0.03290222474573992,-1.3109703152275916e-06,1.4064553265341628e-06,1.5977390849202865e-07,4.7341612475367407e-07,2.7319542139406145e-06,-8.205609009445155e-07,-5.609967238186358e-07
3,2020-03-25,Simple + Baseline,0.0999993160840736,-7.605417237702268e-07,5.6900569481855033e-08,3.456802168727482e-07,2.580529553191425e-07,-1.352382170784353e-06,0.007347935903050253,-5.12536021231066e-07,6.921873656233502e-07,4.202442153577717e-07,5.173743073318596e-07,0.019206361121954327,2.8078949800734884e-08,-1.9403242261642463e-06,0.1000005604746835,-5.24207406130281e-07,-1.0156378533622611e-07,7.57702281355283e-08,-6.495646087037426e-07,7.400680289869531e-07,-8.02018405594202e-07,3.3415426756367483e-07,2.57289385973511e-07,-3.975306700352243e-06,0.0999985875055398,0.07345243474653596,-3.727556284869964e-07,0.1000010938841742,1.0491680903611098e-08,0.10000073028182349,5.898079260146068e-07,-1.2766253869431764e-06,4.0982378502709697e-07,0.09999809735062722,4.7217835092386083e-07,0.10000050337248136,-3.535689981033484e-07,6.194472423558307e-07,9.793971422788552e-07,5.170931721971916e-07,0.09999989879959717,0.09999986374665344,4.4445468038226424e-07,2.453961289475871e-07,-1.068565621588863e-06,-3.179939445339475e-07,2.1419366933249808e-07,2.5323826653927016e-07,5.503158114147437e-07,-4.234917371463196e-07
3,2020-03-26,Simple + Baseline,0.09999993454972055,-1.1551901362708635e-07,-4.16028990968024e-09,1.568633848251003e-08,4.8813838244248387e-08,-2.7877711112061496e-07,0.006432479869290551,-4.7739759907578414e-08,1.0412856364713329e-07,2.8437509806593052e-08,1.5639155253675444e-08,9.073291240129388e-09,1.7117040542115748e-09,-5.759532195797314e-07,-1.0748118568024537e-09,-2.1222495548732824e-08,-2.506995102197164e-09,7.0174854575066294e-09,-9.242780955760156e-08,5.7404941736390454e-08,-1.9600434044373513e-07,2.894782050444664e-08,2.2655126259250088e-08,0.09999999531406366,0.09999982539632425,-2.12451572630005e-08,-3.7594413794956344e-08,0.1000001834219378,6.213455985922343e-09,0.10000007734710277,1.5455109529423375e-08,-1.7332932044467154e-07,1.2188243109520686e-08,0.09999972487973555,0.032687349367879995,0.10000002083318248,-7.826184686860056e-08,6.561072089913944e-08,2.3256600662023335e-07,0.10000001108965584,9.921137767403935e-11,0.10000001453882774,0.06088141883195802,2.2012561621940343e-08,-1.5684457089587496e-07,-2.6504916868818818e-08,4.2188257287781746e-08,5.0584090389635335e-08,2.593690982248901e-08,-1.8596067630493188e-08
3,2020-03-27,Simple + Baseline,-2.313202206156552e-06,-1.985643723948055e-06,3.268641651530009e-07,-2.1451010160930683e-07,3.8133710130829497e-07,6.29705718082912e-07,-7.73781428625574e-07,-4.5593592707671677e-07,-1.0848152111179277e-06,-6.146386465884865e-07,-1.6287442210976258e-07,-5.362862348496237e-07,-1.1458660425083758e-06,0.07955757417980429,0.09999989938455332,-2.451244290721174e-07,-5.721528649114167e-07,-1.1308681969181794e-06,1.2199853366957254e-07,-1.365423570906708e-07,1.2180673835837264e-06,2.2173183212444398e-07,-3.552324935322465e-07,0.09999892860196923,0.09999816452843104,0.08296255368142494,-2.978872969195437e-07,0.10000098488467758,-1.0984882531012916e-06,0.09999911805885534,-2.209154427027405e-06,1.0391542487871384e-06,-5.551130571029416e-07,0.09999883096718731,2.740343790292129e-08,0.1000012872523437,2.66852890589333e-06,-6.388075299642943e-07,1.818721706298583e-07,0.03749849173463653,3.286226157599324e-07,0.09999866833558568,-3.0419001169126694e-07,-1.385455577765619e-07,-2.1569546528690025e-06,3.9716992685111586e-07,1.0035649949041865e-08,-1.5978332075534334e-06,-5.718395264747644e-07,-7.684855096067505e-07
3,2020-03-30,Simple + Baseline,0.06433132724120363,-5.589736594621923e-07,-2.018918802043882e-06,-2.5494357676732874e-06,8.852309401164008e-07,5.146923740767064e-06,8.412513269065594e-06,-1.6174867639663898e-06,-2.758574859036941e-06,-7.00808213471325e-07,-1.7828381978906527e-06,-5.757688417362341e-07,-9.491029865717121e-07,0.10001151785232709,0.09999789657060221,2.1636637186147149e-07,5.672539761537728e-07,-3.264462390766752e-06,-1.646256544428157e-06,-1.192925492196447e-06,6.083796892832934e-06,-1.5610719477514596e-06,-2.131733248164571e-06,0.09999910865966863,0.10000006159822823,0.06488200370223736,-1.1594182666713994e-06,0.05385549584056842,-1.59019265152101e-06,-1.4872283930468141e-06,2.900429441220078e-06,1.024383732694817e-06,-2.0947361204967194e-06,0.10000291655619446,-2.7968834660454355e-06,0.10000255845433219,7.401144318502717e-06,-2.4269250881560107e-06,2.0234713105072894e-06,0.08074507162012616,-1.038501653519487e-06,0.0999987864041347,0.03618000391596536,-1.8458522859246762e-06,3.3502158951997964e-07,-9.464010649244736e-07,-4.978965529940297e-07,1.7609772476918016e-06,-2.065055785395892e-06,-2.3161453643168737e-06
3,2020-03-31,Simple + Baseline,0.052345757517398075,-3.396903295352554e-07,-3.1680905791256133e-07,-1.1127968370244474e-07,-1.9497746435396305e-07,9.979633054251527e-07,1.1392787488570015e-06,-2.3465828269350222e-07,-5.875209508040558e-07,0.06225702415461057,-8.933329932637027e-08,2.1743342171332294e-08,-4.0142642600202575e-07,0.10000258007112633,0.09999973164358865,-3.7099326419954394e-08,-2.1194574002721413e-07,-3.306876558568403e-07,0.012450364591179975,-2.1302506356210764e-07,1.3602882625668926e-06,-7.542761888103597e-08,-1.1162734500607946e-07,0.09999945891249236,0.09999977197156265,0.05118522207798346,-3.145530065101913e-07,0.0999997010779311,-2.7076736845687826e-07,-3.852324110400221e-07,2.3077035437499936e-07,9.983908307076058e-08,0.0098698821063927,0.10000010084747299,-2.523226872804457e-07,0.10000037648200061,1.04617880631961e-06,-2.203868796956142e-07,4.3010914211464913e-07,-6.440101734495364e-08,9.878531044929344e-09,0.09999964210803247,0.011891285519659893,-3.590540319413021e-07,-4.098079780227541e-07,-1.6816732126286093e-07,-1.1360095057714014e-07,1.049096342865989e-07,-2.0435260919241525e-07,-3.214483467865742e-07
3,2020-04-01,Simple + Baseline,0.09999979989206145,-6.851799628386098e-07,-3.585689317005878e-07,-5.682196516160261e-08,-1.8415111667884557e-07,-2.702350538675614e-07,-1.247694726819992e-07,-2.087650388739528e-07,-5.227495946680478e-07,0.09999997596689135,-1.3912315484505057e-07,-6.018688609749792e-08,-4.986709305905154e-07,0.09999793120684676,0.09999979814984503,8.726059858969984e-08,-1.161047562712119e-07,-8.316091388006066e-08,0.09999930480898521,-1.488017788877892e-07,-2.594535535828816e-07,-6.608085132139048e-08,-7.801592823427601e-09,0.09999958152715094,0.09999969671858361,0.09999956679432252,-2.6945722891111044e-07,-3.5910002423712445e-08,-3.7668582451428597e-07,-1.434016355598843e-07,-7.156430673200985e-07,-6.843894389480522e-07,-8.71071382835756e-09,0.09999950563011727,-2.0110026252460037e-07,0.09999976035372027,-3.255275442777746e-07,-7.923403542563489e-08,-4.280880432039932e-07,-7.802559565131784e-09,4.782397812957544e-08,1.449445097535491e-05,-1.9857621742843076e-07,-2.220786217806898e-07,-5.52427724907639e-07,-2.582826665878618e-07,-2.8694668029983527e-08,-8.667343036322457e-07,-2.0720776854175112e-07,-1.440187860538759e-07
3,2020-04-02,Simple + Baseline,0.09999970196311149,-3.335772214028529e-07,-5.270730175599947e-07,-2.0556958556841595e-07,-1.5136347708395472e-07,-3.5747834244990056e-07,1.9483071813674925e-07,-5.586271363717301e-08,-7.347620873719594e-07,0.09999980918703505,-3.404046731988687e-07,-2.19971626823771e-08,-2.385239033337292e-07,0.09999888391958658,0.09999913144132445,5.175372233305137e-08,-1.406981399628989e-07,-2.5220209520269617e-07,0.09999955305461902,-2.510684265665672e-07,-5.7583921904314066e-08,-1.5273010607783733e-07,-1.1925801201017804e-07,0.09999961957372522,0.09999974412050687,0.09999934880332793,-2.769306311519149e-07,-3.0542924404402217e-07,2.3349611355327984e-08,-6.946009781674374e-07,1.2886516511400768e-05,-1.8439109453929878e-07,-3.146571565575382e-07,0.0999996746444841,-5.287910592946418e-07,0.09999910097033689,-1.7964150803904365e-08,-2.6277923814884345e-07,1.4685223339832408e-08,-3.042012906642761e-07,-1.653293080734394e-07,8.434011266016178e-07,-1.968241296332103e-08,-2.94226115920247e-07,-2.926387543445154e-07,-4.9473645359202836e-08,-1.8550189700124364e-07,-3.945204812050399e-07,-3.027954631069932e-07,-4.423212573651481e-08
3,2020-04-03,Simple + Baseline,0.0999997325046787,-1.1450918275199649e-06,-1.3547180240123513e-06,-8.213253017092249e-07,0.0076109364300867505,-2.708586575670249e-07,4.7643295168627927e-07,1.3706759948621551e-07,-3.012655147412709e-06,0.09999911956587107,-1.603458580578909e-06,-7.186178324203558e-07,-2.130619594186819e-06,0.09999656046022266,0.09999676948497442,1.0805345413221462e-06,-2.985972267998796e-07,-5.914213283160624e-07,0.09999939800727153,-4.9651689852644e-07,-8.098453986007512e-07,-1.491431639137745e-07,-3.288773666455192e-07,0.0999999540983667,0.09243111018424151,0.09999694239397108,-8.348707012638033e-07,-3.3170561656001147e-07,-1.238330359941854e-06,-1.733759835648044e-06,2.1135926734019396e-06,3.174548545726569e-07,-1.2250765709807482e-06,0.10000100649643584,-1.6380227522796543e-06,0.09999642257052067,-7.418963920484576e-07,-6.57329165672785e-07,-2.110059456054757e-06,-9.058573385077178e-07,8.534580338399928e-08,-1.0181009845761189e-07,-1.189937727378088e-06,-1.2048299708746237e-06,-1.0535571302751191e-06,2.868493468850417e-07,1.1847099043264457e-07,-2.4365964597850565e-06,-1.902984092666184e-06,4.870502922204935e-07
3,2020-04-06,Simple + Baseline,0.09999886848655337,-1.83940813267296e-06,-1.656991086513603e-07,3.026621215380139e-07,0.015761228653953845,-8.197699032337993e-07,-1.3165400955361772e-06,-4.3035736019818284e-07,-5.252773447841899e-07,0.09999999314531317,9.385753959898994e-08,3.094150091864744e-08,-1.3391886668552646e-06,0.09999323859596684,0.09999920499338964,1.2814125429450099e-09,-4.972124757856128e-07,1.3137517558446562e-07,0.09999915578481658,5.619349124806551e-07,-1.1513903198543668e-06,4.808617840982654e-07,3.0794599983780695e-07,0.09999869169792296,0.09364490949692368,0.09062338055885623,-7.208232668853461e-07,1.036330790202589e-06,-1.1211536808818533e-06,3.3746439416731713e-07,-2.7815917151773305e-06,-9.725062994423895e-07,2.3402989329873832e-07,0.09999930044582354,1.8701846388153673e-07,0.09999934447868467,-1.0547585611780651e-06,5.757190259757099e-07,-1.6500162704509015e-06,4.750343981238461e-07,2.628075339544959e-07,3.5888869285351865e-07,-6.199133753898854e-08,-3.1303252981003064e-07,-1.8797371624273193e-06,-2.640433203431443e-07,3.1386476172638977e-07,-3.880257012853763e-06,-2.3754830035460156e-07,2.842270405857719e-08
3,2020-04-07,Simple + Baseline,0.09999879400531546,-1.9328468743807844e-06,-8.530491789946377e-07,7.57293554023009e-09,4.498099964359964e-05,-9.672001776390285e-07,-1.060931875632825e-06,-6.137704754468574e-07,-1.2447344885411256e-06,0.09999989616382954,-4.833606557313167e-07,-2.1098011032083057e-07,-1.1554696044524933e-06,0.09999428922972806,0.09999862513668219,-1.4832673062128287e-07,-3.1561370612627705e-07,-5.103177269062415e-07,0.09999850356084822,-2.877268203911396e-07,-1.2694349576758952e-06,-4.786566148090571e-08,-7.553629384347213e-08,0.09999845385857258,0.09999877657880415,0.09999889563451803,-6.810949452158515e-07,-4.7586694189600685e-08,-9.067358763460254e-07,-5.224190521723827e-07,-2.3656692364952194e-06,-1.2341133082976943e-06,-2.1448949031808974e-07,0.09999853782263067,-5.905621348399055e-07,0.09999844524976627,-4.980673747285965e-07,-3.6668880547545745e-07,-1.449644883618725e-06,-1.48475753944684e-07,-1.0011246098409115e-07,-5.031727095433559e-07,-3.6463905201237305e-07,-5.142549511286342e-07,-1.8395421145930904e-06,-4.539213557572842e-07,-1.4330972276965307e-07,-3.1901769728226302e-06,-6.061204005051907e-07,-2.723177074742087e-07
3,2020-04-08,Simple + Baseline,0.0999990627460527,-1.2553391464027635e-06,-2.447518183549335e-07,9.047015224006e-08,0.08105654503594625,-5.419305781366794e-07,-5.252607410486713e-07,-1.6405540756130768e-07,-7.44721369929602e-07,0.09999991632739183,-4.436199331166013e-08,-7.533317079622643e-08,-4.1435292665367367e-07,0.09999566575009063,0.09999946949971304,-1.4791925344755989e-08,-1.835721679305496e-07,-1.5221191752241567e-07,-9.429082738979667e-07,-3.576758744842486e-08,-3.820832659682221e-07,6.099446067182463e-08,2.1824126701274017e-08,0.09999903425268945,0.09999916199222128,0.09445712275872623,-2.9108802000546496e-07,2.0882189581857627e-07,-4.6352895973379576e-07,-2.100773821120754e-07,-1.6157343342548357e-06,-5.940801961240175e-07,3.246263168493139e-08,0.09999888323939336,-6.239054932175678e-08,0.09999929773559635,1.0573858868967653e-07,-3.0255607703461015e-08,-6.468583934293509e-07,4.058926780268455e-08,0.02450957926154064,-1.675032436038116e-07,-5.3681011760963345e-08,-8.830072118471373e-08,-1.3159345561876353e-06,-1.211924804089698e-07,-2.0310953748235994e-07,-2.3317694113484392e-06,-2.0224137196903742e-07,-1.7236692673456737e-07
3,2020-04-09,Simple + Baseline,0.09999761859622759,-1.3489524203176714e-06,-6.803627921196629e-07,-1.5761648001761973e-06,0.08569039304370586,0.0007608526271150276,9.378043572591537e-07,9.963806068817537e-07,-5.194060786858733e-06,0.09999798549332208,-2.560720014311351e-06,-1.5139908372374927e-06,-2.567467993055884e-06,0.09999405298034157,0.09999544234368773,5.165460642704896e-07,-6.140466851644507e-07,-1.1548635721759128e-06,0.0026667759865835238,-1.6329050204753353e-06,1.0377473455969578e-06,-6.342046447125612e-07,-1.210903764769486e-06,0.10000041417167406,0.09999941303729971,0.09999535027097203,-2.2737299915436264e-08,-8.519658733550092e-07,-1.5023049146419227e-06,-3.240227094869236e-06,-1.8501840598109627e-06,1.9818224103405958e-06,-2.331943691633819e-06,0.10000095369230272,-1.8174367386656978e-06,0.09999542324664552,1.435494609744861e-06,-1.833957159473911e-06,-1.4262660946762652e-06,-1.891711427393624e-06,0.01094907850260147,-1.308955589903905e-06,-1.6096470761699753e-06,-1.5732635774027923e-06,-2.855701097386735e-06,5.349224544633615e-07,-1.3787021829545137e-06,-2.7105804972907934e-06,-2.7265127617892967e-06,4.4373087473744426e-07
3,2020-04-13,Simple + Baseline,0.09999560416140922,-1.1538634865190037e-06,-7.489935894391302e-07,-1.5514076888937574e-06,-9.605109728735626e-07,0.0999972390229274,-1.9092600641615043e-07,1.1988178148534713e-06,-4.48596074316583e-06,0.09999765833103579,-1.904802493622126e-06,-1.0824308817998618e-06,-2.1069782584773395e-06,0.09999306140173866,0.09999484585285907,6.733929989806768e-08,-1.7038425159585235e-06,-6.473159141328977e-07,0.04193426973591373,-1.2661736476551542e-06,1.0163928005969025e-06,-3.4671662942550215e-07,-1.079738035670214e-06,0.03901115086860185,0.09999898839553428,0.09999498171733817,-7.407803643080675e-07,-1.1617030447104102e-06,-1.1814137776070943e-06,-3.869706143102522e-06,-3.2527607390208417e-06,2.1517576869386505e-06,-2.3382220511144235e-06,0.09999950612363495,-1.4710395144440834e-06,0.09999504836395222,-8.186790422752982e-07,-1.7118807297177107e-06,-2.326663372173947e-06,-1.7512312048772595e-06,0.01913919631301867,-2.1700566045173215e-06,-1.085058062366421e-06,-1.5875432235129187e-06,-3.922557499839508e-06,7.55914787700723e-07,-2.4269746772280176e-06,-3.680101884746669e-06,-2.336913184314617e-06,3.522568835746436e-07
3,2020-04-14,Simple + Baseline,0.099996081829853,-7.574101206026964e-07,-9.774414310845544e-08,-1.078828790542779e-06,-6.34512876082714e-07,0.09999753459831551,-9.399202691537653e-07,1.0639366231215885e-06,-2.86465134255737e-06,0.09999839408092427,-1.0817581427946399e-06,-6.599835435979985e-07,-1.7242403079536474e-06,0.0999957273570348,0.0999961240301842,-3.4083571428313224e-07,-1.7956294541617735e-06,-6.038055996167312e-07,0.05973638827064417,-8.145220702015269e-07,1.1911195196719424e-06,-1.911902578660538e-07,-1.091082675752925e-06,0.01615850136869773,0.09999978504699478,0.09999665756694834,-8.385850034736994e-07,-9.178238550425937e-07,-6.314230364505571e-07,-3.122905873546411e-06,-1.7291440880651819e-06,2.4821460929369114e-06,-1.8670264494104296e-06,0.09999999438431027,-7.106262630418345e-07,0.09999684377060579,-1.0306040971200448e-06,-1.3789108783976243e-06,-1.8434522121190402e-06,-1.3450743418450478e-06,0.024165245970842884,-2.023592086352353e-06,-2.735778519626394e-07,-1.3352966413179446e-06,-3.157678534115722e-06,1.0239321832733693e-06,-2.0941667163171446e-06,-2.7135661974164643e-06,-1.7752879520896242e-06,4.420070713431513e-07
3,2020-04-15,Simple + Baseline,0.09999934243369409,-7.7009963953088e-08,-1.9826457657922103e-09,-5.5778405764162207e-08,-1.1900023591085814e-08,0.0999996204102757,-1.0544692109520875e-07,2.1874663901764593e-07,-5.07652074883221e-07,0.09999992185018602,0.013400090419363977,-1.1380515495749063e-08,-2.851374694684155e-07,0.09999862617844721,0.09999938940998146,-3.3668184393965387e-08,-2.549598528330608e-07,-6.958089778146653e-08,0.059736821761864706,-4.9009354771687996e-08,4.019895239620011e-07,-2.3984780630881176e-08,-1.2366569689398724e-07,0.016159160790633485,0.10000009370767794,0.0999994862407877,-8.339409132181974e-08,-9.934247401506905e-08,-4.302939035656473e-08,-4.209063505835471e-07,-3.483377701051292e-07,2.037236720245601e-07,-1.2718111183431018e-07,0.10000015618777346,-5.6719016854187323e-08,0.099999547768154,-6.60678832625408e-08,-1.5419394123956912e-07,-3.1381645907119016e-07,-8.386349102408518e-08,-4.491970286603263e-09,0.010711785351293288,2.8123855439792464e-08,1.1615727510409609e-07,-6.462820827707002e-07,1.7543386666616169e-07,-1.9519137854905812e-07,-8.186557130307272e-07,-2.0658314690035197e-07,9.09451892726622e-08
3,2020-04-16,Simple + Baseline,0.09999708408810071,-2.319117052393177e-07,2.5387828880887376e-06,1.4792783301659216e-06,-3.681716933372044e-07,0.09999915056478442,-2.8418879237149866e-06,8.17102698372448e-07,2.1568034113649645e-06,0.10000087177945223,0.1000023511601915,7.720973970285731e-07,-4.7214777382048325e-07,0.09999868395942471,0.10000259421809406,-1.0576087384996556e-06,-1.9493669749370405e-06,6.778668015299011e-07,0.06928907220024037,8.086529434393868e-07,1.206196584708172e-06,1.2710429083663921e-06,-8.091678762588746e-08,0.07339450118161896,0.04885204353391977,2.460862876809626e-06,-3.2999113821161557e-07,8.597289858638236e-07,5.853821769398686e-07,1.1063415188120502e-06,-3.839093349286064e-07,9.832709247629621e-07,1.0595388039071378e-06,0.09999886071677123,1.9075036762296507e-06,0.10000317826491682,5.788326223876054e-07,1.1642525280103185e-06,9.542290939341137e-07,9.098465339224734e-07,5.602781537425599e-07,0.008442713448916705,1.4885993928045705e-06,5.542970922375279e-07,-2.214632001919769e-06,3.359242889270825e-07,-5.249710695864117e-07,9.890535593425981e-07,1.4336838829205608e-06,-3.102594567220964e-07
3,2020-04-17,Simple + Baseline,0.09999494098659953,-3.711498779568172e-06,-7.855716763855999e-07,-7.57008960343767e-07,9.432688539344413e-07,0.09999609115485782,-4.334789459220485e-06,1.16871635126053e-06,-2.417554190512478e-06,0.0999989217451734,0.09999949483815111,4.2435600847508254e-08,-2.474779610061313e-06,0.09998452744333322,0.0999930025490924,1.0222913308457281e-06,-2.6936327663347372e-06,3.908185585944929e-07,0.04746475791373455,1.598892926747518e-06,-3.912596475579952e-07,1.8725674589303445e-06,3.9677417193492814e-07,0.037750367459500826,0.04887176196139841,-4.4210035704671934e-06,-2.6466498629710738e-06,1.763320387277141e-06,-1.5403607100170619e-06,-2.454313610238243e-06,-7.245038093862767e-06,2.237179959577728e-06,-2.0222129166287163e-06,0.10000064140549429,-5.545179012909327e-07,0.09999385295998077,-2.960798887629279e-06,9.190358738181514e-07,-3.4259224179663164e-06,1.859150980446107e-08,1.1577682943544508e-06,0.06599920398241857,-1.8647977842722232e-07,-1.6570729511925871e-06,-2.179111375157739e-06,2.730057243459053e-06,8.100681221831466e-07,-1.4112546312137389e-05,-3.4570585466156037e-06,1.8542822653037612e-06
3,2020-04-20,Simple + Baseline,0.0999952116778774,-4.523450237497241e-06,-2.0556020835853767e-06,-1.3346424933184396e-07,-9.813900125345502e-07,0.09999576911307288,-3.1465822760853536e-06,-1.0843647872487268e-06,-2.923452037806732e-06,0.09999938556502903,0.062373838232987686,8.141476910507772e-08,-1.2079084463101985e-06,0.09998662888950789,0.09999659138991196,-2.081677984698147e-07,-1.0894457614991645e-06,-1.0227586379977445e-07,0.09999475827339603,-2.93527255855764e-07,-2.306487844981138e-06,1.8324703603114225e-07,3.400382027389246e-07,0.037733396207442434,-3.6178172114966148e-06,-2.623996898991966e-06,-1.8753495089586345e-06,3.4599830858461974e-08,-1.362086993870038e-06,-1.7720453657295934e-06,-7.113152161466419e-06,-3.504674073698969e-06,-2.6468251106057605e-07,0.09999352035744333,-5.735832387228262e-07,0.09999589510289206,-1.2415922549461495e-06,7.561584532301284e-08,-2.2999494302213294e-06,3.8465330267476565e-09,-1.2470707727705174e-07,0.09999794046282524,-1.501464720447922e-07,-6.582465764557297e-07,-3.5344722913342872e-06,-3.008561357196361e-07,-1.0955793424929888e-06,-1.0113620836800634e-05,-5.477438613483121e-07,-7.807081565447459e-07
3,2020-04-21,Simple + Baseline,0.09999885392786712,-1.37896214175126e-06,-4.959304011551287e-07,5.0964083436225954e-08,0.09999997544532845,0.09985142209098109,-6.356899420802955e-07,-2.025648933633139e-07,-8.142541197750735e-07,0.0999999311401707,0.052500030631900216,7.219911007503484e-08,-1.6299488718449534e-07,0.09999411216439748,0.09999924184527509,4.705032565486025e-08,-6.863644390777711e-08,-3.520825017215158e-08,0.09999834053289765,-9.979960883832743e-08,-5.822129224014241e-07,4.110000308553625e-08,1.2885493535590773e-07,-2.2503931633242614e-07,-9.056611871715192e-07,-5.881997657390464e-07,-3.003393304116629e-07,-7.005376427052842e-09,-2.2148491031986936e-07,-3.139221359557729e-07,-2.432260879156636e-06,-9.485024871700366e-07,-2.388581433198536e-08,0.04767538261744893,-8.195240268452791e-08,0.09999895705814303,-8.109469738619039e-08,7.98824960154494e-08,-4.515770971142958e-07,-3.850762744396763e-09,-3.7546541305578426e-08,0.09999964464588902,-8.203862186708689e-08,-3.904826094401959e-08,-8.223775883903554e-07,-8.451766404424563e-09,-8.853600802910922e-08,-4.002453665930846e-06,-5.975565970187673e-08,-1.0946816858676722e-07
3,2020-04-22,Simple + Baseline,0.09999941940525457,-9.247786110758714e-07,-4.348948784568524e-07,-1.5614091594688686e-07,0.09999995200212226,0.09984921454286472,-4.3258851785004045e-07,-3.0108886734868405e-07,-6.191650068628421e-07,0.09999988912313282,0.05249816711154392,-9.786473370781119e-08,-4.235292647927876e-07,0.09999669907622831,0.09999954527493948,-9.400679874688355e-08,-2.236114325740679e-07,-1.7472815886143067e-07,0.09999907212752787,-2.0490796958734315e-07,-5.810755803703729e-07,-1.4603087591540927e-07,-1.4134213281389953e-07,-4.3236682538439236e-07,-5.196142500014709e-07,-4.3766161045683577e-07,-3.0570319317721934e-07,-1.5450399709068587e-07,-4.071997313525907e-07,-3.042018988717449e-07,-1.4056780382107519e-06,-6.35049855596645e-07,-1.0843283018878286e-07,0.04767388070258787,-2.483282882633675e-07,0.09999954975768806,-2.088387296775947e-07,-2.0733588561682287e-07,-5.137664480921878e-07,-1.0993991657440773e-07,-4.082295732652807e-08,0.09999978694347236,-1.387787267104487e-07,-3.328453853284966e-07,-5.273320193464493e-07,-2.289863848258506e-07,-2.1526066539242829e-07,-2.2570199609804666e-06,-2.8518524032009943e-07,-1.9043605398055883e-07
3,2020-04-23,Simple + Baseline,0.09999911505815604,-1.3711406456734575e-06,-7.904077340884264e-07,-3.117863357209462e-07,0.09999989761847689,0.09984506913275977,-7.863627171035496e-07,-6.184072032506284e-07,-1.0519176880746791e-06,0.09999976481665905,0.07190473642598252,-2.1297562081512854e-07,-8.104214098865741e-07,0.09999743921875288,0.09999921251602031,-2.3386158888480156e-07,-4.570134467137406e-07,-3.758389469834958e-07,0.09999872692377192,-4.0998653030115054e-07,-1.088169019649517e-06,-3.159261583294861e-07,-2.864058760595345e-07,-9.301409196442085e-07,-8.314100093797739e-07,-7.932591569090715e-07,-6.227075214334755e-07,-3.4819587594729716e-07,-7.724169524748597e-07,-5.91561857918017e-07,-1.745244459413848e-06,-1.017298515175049e-06,-2.3584506564537934e-07,0.028283070106627523,-4.928832837788644e-07,0.09999928060810863,-4.6859338093063046e-07,-4.870173572308599e-07,-1.01222297703141e-06,-2.1595743806608718e-07,-9.075513071046162e-08,0.09999957557859072,-2.707468535558235e-07,-6.522555332549998e-07,-8.910022973906389e-07,-5.19150532678896e-07,-4.473860454346214e-07,-2.3869418072639576e-06,-5.505937095975539e-07,-3.841512272772874e-07
3,2020-04-24,Simple + Baseline,0.09999988618466117,-3.2520045765559873e-07,-1.1199972758798016e-07,-8.113354052318479e-09,0.10000000695510179,0.10000009145277027,-8.608692689594065e-08,-5.755281099892024e-08,-2.0128690765500084e-07,0.09999999715160654,0.06425370784712037,9.155173037123392e-10,-1.1175616216645197e-07,0.09999922277862627,0.09999989068616777,5.1511268565508536e-09,-1.6175217492073273e-08,-2.1788738452667367e-08,0.09999972885297657,-2.395750389959864e-08,1.1357786285960958e-07,-9.59877936260438e-09,-2.8955044981288484e-09,-1.410374719008087e-07,-1.0959294009433414e-07,6.559114059760616e-08,-4.811696784763829e-08,-1.3782870010689394e-08,-1.0104879587163631e-07,-5.5402167505156016e-08,-4.852873774827584e-07,-1.738357305722216e-07,-5.594905177734636e-09,1.5080656937162698e-07,-3.9406110766954066e-08,0.09999991170942693,-1.703835577620778e-08,-3.479434663362352e-08,-1.7901530604028654e-07,-3.4265655789525605e-09,0.03575074848816633,0.09999997927091847,-7.374119264743495e-09,-6.85563601601575e-08,-1.2634539583201306e-07,-3.74624913157114e-08,-1.9394039311658518e-08,-8.085900375886423e-07,-4.816471222972492e-08,-8.718816193075695e-09
3,2020-04-27,Simple + Baseline,0.0999984055201641,-2.2603570787608485e-06,-1.5753377676733313e-06,2.5447459388418727e-07,0.09999995246506478,0.07963380671012747,-1.6341881154377262e-06,-1.574486213319919e-06,-1.4648768104961058e-06,0.10000007241123886,0.039799765143615995,1.1009153895617135e-07,-2.3995217076327903e-07,0.099996676050904,0.09999942364070327,-5.729422420244498e-08,2.3852960085501507e-08,-1.7236619752080818e-07,0.09091556931764241,-5.688757190423336e-07,-1.5208793617126418e-06,-1.504961867113163e-07,5.260629742922392e-07,-2.623746926346018e-06,-2.159085364155163e-06,0.0496855463929168,-1.3280100471198826e-06,1.4832241252868581e-07,-8.462692379766989e-07,-1.6993091515704374e-08,-3.0679940040515927e-06,-2.972662030525945e-06,4.482540373632588e-07,-3.3468295905213884e-06,-2.989804839604667e-07,0.09999777256587906,-3.0714443206780104e-07,-1.0134918042830112e-08,-1.3306391294336038e-06,2.764137528247387e-07,0.04000855486313059,0.09999942112689629,-3.054033637787989e-07,-8.615700326445158e-08,-1.1575450814039113e-06,-6.389044697069688e-07,-1.1194407492701248e-07,-4.02957971923885e-06,-1.2261606885484229e-08,-8.680368545923457e-07
3,2020-04-28,Simple + Baseline,0.09999939551063558,-8.391999622589863e-07,-4.5829048044014013e-07,6.094812674483076e-08,0.1000000015047934,-1.4180744316724108e-07,-5.960233530787552e-07,-3.83858820935308e-07,-5.528166956408886e-07,0.09999998338687592,0.09763186984371534,1.8178336193381728e-08,-1.2019888633529378e-08,0.0999983543818186,0.09999969447374826,1.75104563109661e-08,7.910683055494266e-09,-4.993084356781521e-08,-4.2213282770915e-07,-1.4185458196457895e-07,-5.358116328090217e-07,5.948576957859771e-09,9.809306901578907e-08,0.022796291334150648,-6.855059181491888e-07,0.04641659212006884,-3.706427467341212e-07,7.748836104734933e-08,-2.422342036333343e-07,-4.126317732543602e-08,-1.339064104681979e-06,-1.0025236196923704e-06,4.358173367532587e-08,0.09999945803873196,-7.281259385500347e-08,0.09999930488941888,3.483267896202947e-08,3.818827947913618e-08,-4.1663417456819134e-07,3.40037769562848e-08,0.03316981687102913,0.09999986002764537,-9.444899816517183e-08,2.537441645160037e-08,-4.0577655858050565e-07,-1.0758600631158437e-07,1.9401821483232693e-08,-2.100142536077858e-06,7.094757372963535e-08,-1.6058935199739894e-07
3,2020-04-29,Simple + Baseline,0.0999998921022486,-1.972062390346303e-07,-7.141534652077848e-08,-2.058550074068968e-08,0.09999999731787791,2.097173456238811e-08,-5.48743006176619e-08,-4.134517746966062e-08,-1.439336069968637e-07,0.09999997719971825,0.09999997282703973,-1.5065028023667588e-08,1.0625112861714604e-08,0.09999947313117183,0.09999994887611902,8.771329079388883e-09,1.6668364357885463e-08,-8.91086723152602e-09,-6.795187825221714e-08,-2.71867301184096e-08,-8.967096828880135e-08,-1.0039868850821837e-08,-1.6358410120475096e-08,0.025692305434115575,-1.2672885736488685e-07,0.04463063441799529,-3.2360186861163065e-08,9.213959395794492e-09,-4.5312527521812035e-08,-3.7517456581879104e-09,-4.246039978290831e-07,-2.0424623454023832e-07,-2.094499592720071e-08,0.09999991081677718,-6.977971560782676e-09,0.09999991594737657,3.996281922399528e-08,-2.276386775220838e-08,-7.795103201986782e-08,-1.7188721798762753e-08,0.029680539772662023,0.0999999894808751,-1.3858059875572642e-08,-1.0082647034334161e-08,-8.095526521914026e-08,-3.2016012253619314e-09,-1.1059431584786934e-08,-7.972184761188003e-07,6.963196696173938e-09,-7.440801833765157e-09
3,2020-04-30,Simple + Baseline,0.1000000143984569,7.907335021711989e-09,5.7732874036403654e-08,-1.6766453348783513e-08,0.09999998314996618,2.4818806256908454e-08,5.697944604162336e-08,3.450539401683038e-08,2.535238687798771e-08,0.10000000130164262,0.09128954803620144,-9.786024751657052e-09,-1.6359262119620595e-08,0.09999995530417059,0.1000000011806066,-9.1104289813802e-09,1.8330610886739984e-08,3.857066682431602e-08,1.0310371926733006e-07,4.5667411187565715e-08,3.4391281059629214e-08,4.856979715480216e-08,-1.594753718293414e-08,0.02569272403718551,9.287628038076761e-08,0.07061266059919077,3.6468917583198043e-08,4.096253128210457e-08,1.4080961651403968e-08,3.1554220683391585e-08,-4.3862515980084474e-08,8.164576079197915e-08,-1.8720528931989612e-08,0.08685626874846973,3.4931812792892114e-08,0.10000007032058436,1.9324583279837016e-08,3.7052112383864614e-08,3.492676810098075e-08,-1.0911998234799672e-09,0.02554801375386901,0.10000002106958003,5.439071552517865e-08,1.317779820323595e-08,-7.165420185509598e-09,3.0035263456666384e-08,2.537809161808134e-09,-1.8267015417616621e-07,1.2921713477967943e-08,2.5609596192304473e-08
3,2020-05-01,Simple + Baseline,0.09999869787945875,-1.6393260072423037e-07,-3.150220779135388e-07,-7.918704745632388e-07,0.09462416837082299,-7.365665042440793e-07,-4.951352812547119e-07,1.201206032380472e-07,-1.2579571864945222e-06,0.09999929183436175,-8.283649420373018e-07,-4.652919235892239e-07,-8.672518613735611e-07,0.09999874108400143,0.0999982463673993,-2.9429810434300397e-07,-7.856167031633102e-07,-6.387473778288809e-07,0.009546149832107104,-6.935284857431829e-07,-1.5225573939899322e-07,-3.585020509623916e-07,-6.763945369718295e-07,-7.412475477373185e-08,-1.4991488036459272e-07,0.09999837054706187,-4.728964561701943e-07,-5.129257378259533e-07,-7.55654382263376e-07,-1.4401149177563883e-06,-8.818321432028688e-07,5.436974527866227e-07,-1.030369917039759e-06,0.06511684002119617,-5.923306272172907e-07,0.0999987384753425,-3.144645954460994e-07,-9.76942391843112e-07,-9.706746142732695e-07,-7.563587050116248e-07,0.03074498263888738,0.09999931746314784,-4.3486079365526695e-07,-1.0025222600619848e-06,-1.054947207231174e-06,-1.1944370484487146e-07,-7.130999702542027e-07,0.09999839542555375,-8.271290050121763e-07,3.6465595302114564e-09
3,2020-05-04,Simple + Baseline,0.09999966035440676,-2.959565198210333e-08,-5.145804221493796e-08,-9.07511019941217e-08,0.09597252040233337,-1.703744420631896e-07,-5.861480004451309e-08,5.3909645134719744e-08,-3.6633722608978637e-07,0.09999992725875435,-9.818232711155156e-08,-4.1964824793224646e-08,-1.9696926742603408e-07,0.0999995447594622,0.0999996089308039,-3.067109618870658e-08,-1.460200949610761e-07,-8.471928592345254e-08,0.07329172869154277,-1.0796324391036483e-07,-1.2113532673392445e-08,-4.513878816648665e-08,-8.430228145570846e-08,2.4331980545413345e-09,-1.6351787032188762e-08,0.09999962232300776,-8.865929446334078e-08,-7.958437741027045e-08,-1.6999250583927578e-07,-2.919113736763596e-07,-2.828013241402668e-07,2.206381761051602e-07,-1.0637205138892602e-07,-3.8757894620490314e-08,-1.0525170109628215e-07,0.09999977118419688,-4.1792558296442547e-08,-1.86317239827264e-07,-2.7398853529662973e-07,-7.865872785916346e-08,0.030742196266520985,0.09999989198241521,-3.524855837885829e-08,-2.140573341840895e-07,-2.5462103845405285e-07,-1.0523371404323424e-08,-1.1280929908316535e-07,0.09999938238517676,-1.425208879358518e-07,1.3646077585066685e-08
3,2020-05-05,Simple + Baseline,0.09999989440294056,-1.6765849103803814e-07,-1.0828685456121732e-07,-1.3014087643939675e-08,0.09432803533449516,-8.790212745191795e-08,-2.460884090566702e-08,-1.0881167424871621e-07,-2.19119406726924e-07,0.09482846252552443,-2.464304533013458e-08,-3.2863355762968373e-08,-6.610167038958216e-08,0.09999957517253352,0.09999988328156076,3.2671251890569e-08,7.630584176398198e-09,-2.5057633289063748e-08,0.08094219509768184,-3.114197777502362e-08,-1.2022951947230675e-07,-3.937084879220885e-08,3.5363470685756075e-08,-1.4941381218058173e-07,-1.0499089105237074e-07,0.09999991087833741,-4.46889626668423e-08,1.3741791700205576e-09,-1.447990620658016e-07,-4.1263544546922555e-08,-3.479801062900624e-07,-1.2437084116247487e-07,3.056511645411396e-08,-1.9619083682922945e-07,-3.8246531333768864e-08,0.09999987042478427,-2.788056748692136e-08,-3.460888673969205e-08,-1.9111199217448839e-07,3.2143945057264224e-08,0.02990551539549226,0.09999997845771473,-4.9316851009217267e-08,-4.5583659382959133e-08,-1.275147700405988e-07,-6.61033156837824e-08,1.6810937444271273e-08,0.09999940546472728,-4.299859574277522e-08,-3.532069533693551e-08
3,2020-05-06,Simple + Baseline,0.10000259494001199,-7.063320910716869e-07,-8.789249387527394e-07,-1.7766701646057304e-08,0.07991703430768883,1.505660933523418e-06,2.336873262247234e-06,-1.644022457119107e-06,3.544371221097109e-07,0.09494371890020635,6.698548161683336e-07,4.4263896261176763e-07,1.2219165994742074e-06,0.10000006073647294,0.10000211246162935,1.406664759741482e-06,2.2864511965640422e-06,9.082820619387254e-07,0.09483899182443876,6.561945816698127e-07,-2.969554114655787e-07,-3.8622730918646903e-07,1.1951305357876906e-06,-6.790045306761165e-07,-3.663526946574677e-07,0.10000073877624745,9.748716197216806e-07,7.875884053484293e-07,1.5362988344365358e-07,1.7801138916310747e-06,-9.105019020955512e-07,-2.3353482689729762e-06,1.7226103138289103e-06,-1.0271438059613842e-06,3.682714620139656e-07,0.10000071580893795,4.808466687103372e-07,9.538295881351723e-07,7.774967602024567e-07,1.022960404851858e-06,0.030278677453690037,0.1000008014224337,7.795507623843662e-08,1.0191382430688778e-06,1.1908543961834727e-06,-7.283875969756541e-07,1.5038598753284905e-06,0.09999878442775575,5.425675903776044e-07,-5.970531940813265e-07
3,2020-05-07,Simple + Baseline,0.09999915381821328,-6.040486027208472e-07,-7.252465200338282e-07,-4.0370521009320777e-07,0.07051821509824137,-6.460505831121427e-07,-2.3266201068474565e-07,-8.054213999187676e-07,-1.1755090415682893e-06,0.09999974818069314,-2.6369430667757194e-07,-1.995305031085923e-07,-1.667238819494539e-07,0.09826907630042951,0.09999913120430604,-1.866495463002302e-07,-1.239330489763945e-07,-5.599557180918037e-07,0.09999900479701859,-4.0521263480368925e-07,-4.350279934143118e-07,-4.176453458746318e-07,-3.313908637490449e-07,-6.772503113709588e-07,-5.941990940787674e-07,0.09999944016133437,-4.041830536190533e-07,-2.018139468189106e-07,-4.490094192003937e-07,-8.306129176695319e-07,-8.161269600843161e-07,-1.0087044420075104e-06,-4.919911998355158e-07,-7.543957473431708e-07,-3.627178546335308e-07,0.09999905661571591,-2.1736375425417653e-07,-6.325613260106108e-07,-6.43768959793186e-07,-4.4789564543755717e-07,0.031237286752729562,0.09999956935501508,-1.8718799683127105e-07,-4.215289951226629e-07,-1.8736445985995656e-07,-2.9330430322919505e-07,-2.553225490372944e-07,0.09999852858156899,-3.2862395983760907e-07,-3.194614618070329e-07
3,2020-05-08,Simple + Baseline,0.10000055144826464,-7.064626753452249e-07,-3.331589129932136e-07,5.37121685054546e-07,0.06247566486905314,3.1724543326401987e-07,-4.7489115956019985e-08,-5.82200710115805e-07,-2.6703556554435906e-07,0.10000033908572065,2.3160850097136606e-07,2.0809972200567019e-07,1.2523599670716664e-07,0.0944677031390998,0.10000062203340437,2.785063502361016e-07,3.996707420588083e-07,3.8001612093102674e-07,0.02212361109318561,0.09109634201575349,-8.386363181295644e-07,-1.1902015350034328e-07,6.211702372838943e-07,-4.899882414845286e-07,-6.94235296807791e-07,0.09999994260641326,-4.9149451058776616e-08,1.9696143308725495e-07,-2.474642330609509e-07,7.926446836673836e-07,-1.3155995791041067e-06,-1.9546959721590977e-06,1.115754573233212e-06,-1.1741735235068966e-06,3.3694064950555704e-07,0.10000015531203413,7.89287706596985e-08,4.385722771110313e-07,-5.013624972781219e-07,8.014819564751658e-07,0.029838030454378616,0.10000100984498353,-1.4089673535644694e-07,3.8528662420671226e-07,1.6600218116382267e-08,-4.442260646712123e-07,3.3303833076472967e-07,0.09999829573249938,3.008440040772817e-07,-2.514932865197185e-07
3,2020-05-11,Simple + Baseline,0.10000000140813294,-3.8266288555902594e-08,-1.1392080088798624e-07,-2.035909861189792e-07,0.062458679307695934,9.685894332052384e-08,1.3132268957223833e-08,-4.661133348799898e-08,-1.7953036076202388e-07,0.0999998039185655,6.222309156795364e-08,-8.277167008368414e-08,-2.3988879443669917e-08,0.05653064392833065,0.10000028770754563,-5.133654746530276e-08,-1.9431996130153034e-07,-5.613415469400182e-08,0.058743469639430085,0.0910938328733483,-1.074012666763961e-07,-2.7380794539361584e-07,-2.78325780730623e-07,-1.0208838220264718e-07,-3.3609091364082994e-07,0.09999990535026959,-6.758240464696057e-08,-5.273139329308551e-08,-8.229298856702322e-08,-3.362235829101033e-08,-3.217664392990707e-07,-5.780461543606888e-07,-9.846785876054583e-08,-3.331715504122197e-07,-3.860119354013325e-08,0.10000047221481921,1.3649773128288874e-07,-1.6856221050514312e-07,-1.5128117414128132e-07,-2.731848560602847e-07,0.03117845219353424,0.1000001374259899,1.7985616484571598e-08,-1.764326252111262e-07,-9.843322002867186e-08,-1.8338482359840817e-07,-3.4921000693491046e-07,0.09999931629507769,-4.21972278640393e-08,-1.9281420689268858e-07
3,2020-05-12,Simple + Baseline,0.0999999340361155,-9.418218775491547e-08,-8.199251958058571e-08,-1.1049998782364322e-09,0.05152027358001242,-4.491997625677594e-08,-7.952383224686008e-08,-9.09553075077656e-08,-1.0557025209005947e-07,0.1000000029192627,-1.9526932827288584e-09,-8.004827726218437e-09,-2.028822742962927e-09,0.04926077716490926,0.10000007435156412,-2.117581883395207e-08,-2.4229730186675767e-08,-4.463751740317425e-08,0.0872470956100549,0.07385700408942936,-1.3031444494418464e-07,-5.638480787144574e-08,-1.8752334330371783e-08,0.006673984164085318,-1.878215557387224e-07,0.0999999402235043,-6.280058968358729e-08,1.4754748654072914e-08,-6.78735688233931e-08,-2.2032138821160927e-08,-2.596552183147347e-07,-3.197050848244884e-07,2.4848893773143e-08,-2.51429100504178e-07,-1.5452853223115998e-08,0.1000000473725049,-2.7046704733238927e-09,-3.3817265232727986e-08,-1.1111401096032226e-07,4.1267844449505454e-10,0.03144372617348367,0.10000000266392912,-9.144210558629505e-09,-3.2118903264223e-08,-8.543482376815473e-08,-6.737411712684872e-08,-4.948065646347361e-08,0.09999954914001727,8.377597835409564e-09,-7.54431396943096e-08
3,2020-05-13,Simple + Baseline,0.09999983423332542,2.260035607834441e-07,-2.9056738201908754e-07,9.792163851843827e-08,0.05529367483867813,1.2061680933259438e-08,-2.6722159358992905e-07,-1.718416883019197e-07,-4.1003987384554745e-08,0.10000010859761063,1.532954664624936e-08,2.1917590742186507e-08,3.5662948176234687e-07,0.049263515170831204,0.09227750664677942,-2.8222137812260227e-07,1.2033510367110108e-07,-2.978546346820198e-07,0.0999999214066716,0.04509872058384121,-4.096847991783287e-07,-1.9053923884561533e-07,-1.0398717803916564e-07,0.02834704952373977,-1.419615141978673e-07,0.10000001449331737,-1.0994310274830295e-07,9.884429013647083e-08,4.751496725964685e-07,-2.392652471522676e-07,6.604527070949457e-07,-1.6826221904419498e-07,-2.171387173518852e-07,-1.7582325700204903e-07,-3.463713110346186e-07,0.09999977389083038,3.011811769825936e-07,-1.7006669921972816e-07,5.690818092781338e-07,-3.1455460114309503e-07,0.029719600972008608,0.09999997925863902,4.131109915026019e-07,9.679305177440553e-08,2.999116947866148e-08,8.242253976528616e-09,-2.1436218237573587e-07,0.10000074670506649,2.8636452134487467e-07,-8.916604348319241e-08
3,2020-05-14,Simple + Baseline,0.09999878976881804,-1.5389150998288633e-06,-9.738587524584852e-07,-6.996513995512184e-07,0.05054653889391278,-1.2200339290410806e-06,-7.122150860721678e-07,-1.694558849331029e-06,-9.29747559632581e-07,0.09999982983541418,-1.264083658977108e-07,-3.210583092024782e-07,-4.802458611879531e-07,0.09084873811368271,0.08323030008283376,-6.424923237202575e-08,-5.756815179497118e-07,-8.66201699511682e-07,0.09999836780874764,0.04509839045334276,-7.095369093399211e-07,-3.802996938737498e-08,-3.255763145881551e-07,-4.841485629330747e-07,-1.0334079583373641e-06,0.0999988144249396,-1.045164169124672e-06,1.8364795663026997e-07,-1.2865324384906614e-06,-9.905620624084326e-07,-2.1989957120332877e-06,-1.0628174859374652e-06,-9.627988331551305e-07,-1.7169690245843078e-06,-8.888314888206973e-07,0.09999929611508185,-2.6159887347926527e-07,-1.1186627353834736e-07,-1.05171780432878e-06,-4.855356319862704e-07,0.03031241121271484,0.09999842078708923,-1.3003542131159833e-07,-3.1186605346284874e-07,-9.56789438280127e-07,-5.990744686712459e-07,3.961756201094351e-07,0.09999828855883472,-6.664041147335122e-07,-1.2313574553221814e-06
3,2020-05-15,Simple + Baseline,0.09999954321884844,-5.242132543414845e-07,-2.6710385399232277e-07,-1.8335309900817112e-07,0.05053548495843426,-3.465118981860663e-07,-1.0817638609092397e-07,-4.812625505385189e-07,-3.861583923147014e-07,0.09999986795709816,8.316968742004029e-08,-6.853178939553233e-08,-8.422607091823891e-08,0.08748247535045567,0.053405316497688995,1.2919865390644822e-08,-1.2217200611113113e-07,-1.8700662328158574e-07,0.09999931243630494,0.07894757263410075,-1.5339625907800064e-07,-1.2003981676069978e-07,-9.570131276505277e-08,-2.84894434082076e-07,-4.4636999522485387e-07,0.09999974061386943,-2.9257391660601374e-07,3.880395110300004e-08,-3.7646703053216905e-07,-1.6653998786700512e-07,-9.653296012399386e-07,-4.507589836779242e-07,-1.2830833950679254e-07,-6.616012365073766e-07,-1.8564602397990497e-07,0.10000002324214197,2.3081009506106675e-09,-4.423421723954588e-08,-4.459246886343899e-07,-1.469149080264477e-07,0.02964045106469212,0.09999975938516077,4.601619621247526e-08,-1.0275884606965566e-07,-3.6349256889252373e-07,-1.569007328092256e-07,-2.5815245981586194e-08,0.09999908134411749,-1.2774901943515095e-07,-3.1058659317875355e-07
3,2020-05-18,Simple + Baseline,0.09999989292120656,-3.358736707802781e-07,9.422731307747899e-08,1.8032446524529292e-07,0.05920137024255963,-2.0117574856615215e-07,-2.2437881307369305e-08,-2.318821054705776e-07,2.2797300790770417e-07,0.10000019796125656,0.02277983479298737,1.9438773731837052e-07,1.7963413098538826e-07,0.07477752763579174,0.036378108909943106,1.4541624726057542e-07,1.4994662850884095e-07,1.7206706420629386e-07,0.0999997067991646,0.07894749665093477,1.2608505000338716e-07,3.3636949813908023e-07,2.6254945999302805e-07,-2.9135974248689725e-07,-6.458267170294047e-08,0.10000017655821589,-5.919220996721309e-09,2.1228075712019446e-07,-1.9257970083786886e-09,2.450319634666882e-07,-7.092423884176137e-07,-1.4060878822555242e-07,1.9303583079989964e-07,-3.4386967962835955e-07,2.407699649173236e-07,0.100000090662395,-8.400262514853239e-08,3.9724643443910285e-07,-9.832171281661671e-08,2.6621045680367456e-07,0.027914028152197876,0.09999983788453495,2.392293617663774e-07,2.6319557036470713e-07,-1.5822010641720536e-08,1.8189219921998587e-07,2.802583746331275e-07,0.09999949099712462,1.7147003050152192e-07,2.9472712022902695e-08
3,2020-05-19,Simple + Baseline,0.09999997708159193,-1.251951817981918e-07,3.014714764744476e-08,1.4366238058786491e-08,0.04844365453145102,-4.012809758659935e-08,-4.1811332674447896e-08,-6.673467314451882e-08,5.566335205487545e-08,0.10000002151768186,0.007643819233743432,0.010349918451075704,-1.2267520633701132e-08,0.03871359854283304,0.042201681532423235,8.736928497548299e-09,-2.1794039028999486e-08,3.06484796612465e-08,0.09999989606354932,0.09999999656940357,2.8088669850339798e-08,4.3365475635429136e-08,2.2374899825296577e-08,0.02533696727974695,-1.2846992801776207e-08,0.10000002144298213,-8.442063786247936e-09,3.950198461062899e-08,-5.5000976583309315e-09,3.2579747952637653e-08,-3.066246273763209e-07,-5.1369021190750634e-08,1.4093603600559415e-08,-1.257327221570841e-07,5.0586061430601345e-08,0.10000001814879475,-1.818128021100367e-08,7.842084790798852e-08,-3.8224296582693883e-08,1.4819152756231231e-08,0.027310877571786463,0.09999997955935014,1.9663940726309868e-08,5.457012471359157e-08,-2.248433130553193e-09,3.493352691120894e-08,4.391182945595793e-08,0.09999978662519395,4.235769681560081e-08,4.2807835695304035e-09
3,2020-05-20,Simple + Baseline,0.09999998698491765,-4.078972290390151e-08,3.3851425200974822e-09,-1.0279906552968702e-08,0.04793778406427464,-1.2595312846581166e-08,-7.004560522460068e-09,-1.632375212046318e-08,-9.787345277604339e-09,0.09999999846630885,-1.0226813471323673e-08,0.023714702913729374,-6.898680542117075e-09,0.023765322397151987,0.04254878875012017,-2.554211033971752e-09,-1.1683355467146785e-08,-1.2427471671354376e-09,0.09999996374370351,0.0999999860464406,8.165634879377785e-09,-3.6015934307991015e-09,-9.14008811716644e-09,0.03600169666735437,-5.091610514767594e-09,0.09999999578742481,-8.0843837093511e-09,1.5639853803053864e-09,-3.3998096481077255e-09,-1.0834098534345154e-08,-1.2821697961678908e-07,-1.493417492893789e-08,-5.592192533898852e-09,-4.326317527153318e-08,-7.043462057153388e-09,0.09999999942343718,-6.223628106639061e-09,-7.961208880203316e-09,-1.2849394987493545e-08,-7.208181911661278e-09,0.026032299758830327,0.09999999171929398,-2.736859202636596e-09,-1.0637324387088853e-08,-4.673331150138176e-09,-3.802989197780536e-09,-3.890153872961512e-09,0.09999991006961756,-6.102816736552669e-09,-5.265595579048229e-09
3,2020-05-21,Simple + Baseline,0.0999992888084533,-6.865951877628965e-07,-1.346146180039082e-06,-1.2414107664796392e-06,0.040947574110448345,0.05237641353268481,2.2294085716593642e-07,-1.0157549228395471e-06,-2.899197760692218e-06,0.09999908484816353,-9.78765627355324e-07,0.02369946327209219,-3.930622004922658e-07,0.014267424648714113,0.04254071525279914,5.238317033097268e-08,2.519421218258821e-07,-9.948345506793142e-07,0.09999816804365938,0.09999883281497678,-9.883792544314433e-07,-8.720662998866399e-07,-6.864545142136444e-07,-7.611307300499311e-07,-1.0431173076919366e-06,0.09999873708284936,1.1561767394886861e-07,-1.0202678477578535e-07,-1.5920060629651626e-06,-1.2181910899974097e-06,-1.1500531378650006e-06,-1.3147400933176648e-07,-1.298489573218441e-06,-1.509818897397239e-07,-1.224785762283089e-06,0.09999893813455632,7.457572410742593e-08,-1.6163556756571768e-06,-1.4958158300053687e-06,-1.0599450877008562e-06,0.02620728450260253,0.09999939339718288,-9.557080378886621e-07,-5.710222868998722e-07,-6.884433947136725e-07,-3.766138606784859e-07,-3.802762849377742e-07,0.09999701574087709,-9.330965378974992e-07,-1.927162799688012e-07
3,2020-05-22,Simple + Baseline,0.09999947470267333,-1.5529592504992162e-06,-1.4351251494860615e-06,-5.167810646960712e-07,0.035297293968062214,0.087854744422278,-6.446840858520646e-07,-1.5571782736646216e-06,-1.911456896556839e-06,0.09999984105777024,-7.868145463750058e-07,0.03026801311368865,-7.062105083610656e-07,-4.26557109223225e-06,0.019619840359345945,5.2538043005053294e-08,-6.724722608013225e-07,-9.170488225704104e-07,0.09999641037488842,0.0999990605740247,-1.5278858705827557e-06,-6.292430919670106e-07,-2.9314867150274725e-07,-1.6427710405312376e-06,-1.7832663428722093e-06,0.09999861614668319,-1.265705772485991e-06,8.203169106229896e-09,-1.2452070223444902e-06,-7.820723928960432e-07,-3.57000901464738e-06,-3.1712800423354016e-06,-2.1488301474031027e-07,-2.9844941420809608e-06,-7.9659746346508e-07,0.09999956471067727,-4.343820704231663e-07,-5.826734632311762e-07,-1.0724118127315866e-06,-7.108211551472633e-08,0.027014009883835847,0.09999977263963838,-7.9991054748646e-07,-8.599330301192432e-07,-8.885587606163261e-07,-9.158965999306316e-07,1.1473861477210193e-07,0.0999956301250759,-8.740790037938124e-07,-1.060843460473101e-06
3,2020-05-26,Simple + Baseline,0.09999983229084318,-4.810129859658956e-07,-3.307979066721253e-07,-6.16342749017162e-08,0.04825627554583202,0.06022196691460077,-1.0286445197350383e-07,-3.6963009084768126e-07,-6.388792933365935e-07,0.09999996981418027,-1.045384444082934e-07,0.006843477766580342,-1.0397228732233915e-07,0.006891975013321911,0.052862101114656466,2.8271071368495587e-08,-9.65582441614342e-08,-1.5978509173070947e-07,0.0999987063466047,0.09999983069489503,-3.534933362528291e-07,-7.781029196016627e-08,-1.9958082068278524e-08,-4.981640328326853e-07,-5.103592297935869e-07,0.0999997389207072,-2.7464553270652684e-07,3.2927184218549906e-08,-3.1273228355440476e-07,-1.433481982283986e-07,-1.5071939047748938e-06,-1.008062125469934e-06,-3.6477869710815946e-08,-1.0053324355596804e-06,-1.328027601548919e-07,0.09999990824941131,-3.192299312413097e-08,-9.043269327734079e-08,-3.1959263746632324e-07,-3.5230695148824613e-09,0.024937722802966654,0.09999995638481446,-9.247706747929603e-08,-1.5427389848829292e-07,-2.287963986089975e-07,-1.4279558717510338e-07,4.505188729211919e-08,0.09999812943265923,-1.4158661769112266e-07,-1.6216906839105646e-07
3,2020-05-27,Simple + Baseline,0.09999994873952832,-1.4957121062394414e-07,-7.084143154939648e-08,9.820771989463768e-10,0.04825631369612079,9.76578820608373e-10,-1.2754920688633852e-08,-8.500588568996413e-08,-2.109692350343729e-07,0.09999999565570568,0.005456873566699893,0.001953961290223891,-8.256034329534602e-09,0.006891975040954245,0.05286213415413216,7.74963663255038e-09,-1.0394266459155429e-08,-2.3252832453116837e-08,0.09999953588849571,0.09999997041266721,-8.207197639846337e-08,-6.453163593932681e-09,4.507236993129937e-09,-1.5093937997615788e-07,-1.463964446162876e-07,0.09999995309684365,-5.238322504839071e-08,1.1174813177195189e-08,-7.816088316333113e-08,-2.1086822652277433e-08,-6.47708409958939e-07,-3.218371936550083e-07,-7.023712782548258e-10,0.0677308355528863,-1.4894401691382363e-08,0.09999998421342073,7.269972641903107e-09,-7.783072740383584e-09,-9.441438635526931e-08,4.266222710188838e-09,0.02363021710036088,0.0932213877375457,-9.28328461530347e-09,-2.188763645164593e-08,-5.7799535730694595e-08,-1.851150521408837e-08,1.636028359457743e-08,0.09999919999467732,-1.3722024684809116e-08,-2.2396221008244084e-08
3,2020-05-28,Simple + Baseline,0.0999978785545538,-8.669603415888512e-07,-8.077910062973537e-07,-4.698206529399935e-07,0.038779165001680126,-1.2510006531096468e-06,-3.336979384935172e-07,-9.924348151724313e-07,-1.7338223602434396e-06,0.09999960568774063,0.009274674288150642,-3.542801151790183e-07,-3.777899783455853e-09,0.015173422310744485,0.05285813382894108,-3.604101664533609e-07,-1.1875912660006901e-07,-8.994121528759056e-07,0.09999785609777068,0.09999944118193999,-5.963436926411853e-07,-3.16205013318772e-07,-2.982436091018822e-07,-1.289946459981472e-06,-1.6170024514067417e-06,0.09999933407612382,-7.829242872515509e-07,-9.964697206048323e-09,-4.6157576251063187e-07,-9.952674438006996e-07,-1.529276644937452e-06,-9.685013378378935e-07,-6.921162131551049e-07,0.06772782144768308,-4.233423123927204e-07,0.09999901949664898,-8.417625729445435e-07,-6.713825892537951e-07,-1.1435535786338537e-06,-4.897956534410485e-07,0.02300861364094285,0.0932118659360819,1.3741196490933425e-07,-3.376943913236775e-07,-1.4546961361143655e-06,8.956533285944748e-09,-4.55934345679288e-07,0.09999732595387344,-2.6428560429594207e-07,-4.6270012305934737e-07
3,2020-05-29,Simple + Baseline,0.09999942296905166,-2.7495290431274247e-07,-2.0187679681052496e-07,-7.989517362215898e-08,0.02544434587970469,-2.8542253440964647e-07,-3.433823123474825e-08,-2.497095374850356e-07,-6.283325868875766e-07,0.0999999455684244,0.014512262508085221,-5.2136109485931085e-08,2.037524265436331e-08,0.03345019971053585,0.05285803683604372,-3.206720631150359e-08,-7.957563600348419e-09,-1.5436624864256157e-07,0.0999992107482461,0.09999988365561804,-1.3246107949230667e-07,-6.027923715661268e-08,-4.825213742442389e-08,0.007201715708348116,-4.800651672303542e-07,0.09999986788789576,-1.7767020573561985e-07,3.6725355617512587e-09,-1.2608354372088384e-07,-1.8222520776866272e-07,-6.428797452744453e-07,-3.0208818297335965e-07,-9.792217432319665e-08,0.06772789938617191,-8.023275892773655e-08,0.09999981304037932,-1.3160866455894322e-07,-1.4854982955702923e-07,-3.953496606118568e-07,-6.437687929934e-08,0.02449471647859925,0.07431950530233672,1.535088050478176e-08,-6.902913897777251e-08,-3.904720317360832e-07,9.530938510715385e-09,-6.79870703943116e-08,0.09999884770053463,-4.959054316826617e-08,-7.441095071286851e-08
3,2020-06-01,Simple + Baseline,0.09999985426435506,-7.906226369723455e-08,-3.7902303699959776e-08,-6.8246091616425e-09,0.024130330122514292,-6.103584456200212e-08,3.6672468784194802e-09,-5.7473826879313505e-08,-2.153262641794493e-07,0.09999999906405155,0.005670518706293961,-9.883860036814387e-09,7.175452908291695e-09,0.05852387354153243,0.057215743552826916,-1.90878542227088e-09,7.898715778543715e-09,-1.6835400038476723e-08,0.09999971599580496,0.09999999160310248,-2.585975085385048e-08,-8.689594141428479e-09,-2.9996022758447766e-09,0.024976154692348422,-1.3575186830717494e-07,0.09999998431350732,-3.49101658023962e-08,4.663824633818432e-09,-1.9705275757447565e-08,-2.85461305982535e-08,-2.6508314081178213e-07,-9.512436563051203e-08,-6.378201697954811e-09,0.024305899155188382,-6.6260382864917624e-09,0.09999998283837339,-1.7901953664253837e-08,-1.203200713171869e-08,-1.265782353088145e-07,-2.5395866795900286e-09,0.02504043948208215,0.08013938893119876,6.933264958103402e-09,-4.4880671968607016e-10,-1.0422915960530329e-07,9.949603920389508e-09,-7.247444795464927e-09,0.09999949492051478,-1.5511943269856662e-08,-9.15874282129771e-09
3,2020-06-02,Simple + Baseline,0.09999987021438793,-3.6672474594692976e-08,-6.632854100520078e-08,-1.203102958963549e-07,0.024124265224099068,-2.1841641111073428e-08,3.76424227265772e-08,-2.7769161863008135e-08,-1.7607273604398252e-07,0.09999989574447236,0.005670465478756668,-6.078940230071659e-08,-8.326670947498561e-08,0.07064371323600004,0.04959950391526758,-1.9416579762003703e-08,-6.87343040474659e-08,-8.042939089456061e-08,0.09999985544983184,0.09999990448509871,2.0192554268421116e-08,-1.2745454448190768e-07,-1.208146401052182e-07,0.0019408020839275836,-1.3159388679189977e-07,0.09999995984963433,-5.0011487557411984e-08,-3.63521537382097e-08,-1.0122848536127529e-07,0.024509073176232708,-9.214736444842677e-08,-8.526714924215157e-08,-3.491653573265442e-08,-5.199233335622446e-08,-6.444682578905073e-08,0.10000011943060938,2.4323421721062956e-08,-1.1818156469549045e-07,-1.2859029042127677e-07,-1.2781875202088888e-07,0.025313625722627374,0.09820184405440212,-6.8878179312981876e-09,-1.229820116984572e-07,-1.0142705802878506e-07,-1.0674091487049341e-07,-1.1383546045509447e-07,0.09999969883949475,-6.899992071409906e-08,-1.2581010094328784e-07
3,2020-06-03,Simple + Baseline,0.10000001026732916,-6.17152166302915e-08,6.947752963954986e-08,1.2503474883936438e-07,0.023035315285969655,1.0493196065091518e-07,-6.561479079506635e-08,1.0927360508795034e-07,-1.0722921556383597e-09,0.10000005900342165,0.0056713319384149715,3.834705958850488e-08,-4.5244668674381796e-09,0.0915992667486192,0.057051342203429216,5.2799073453528335e-08,-1.2354574456692596e-08,2.794031127150138e-07,0.09999984661627345,0.10000019486773444,2.0219813845096433e-08,8.514155156129708e-08,1.3121338524363793e-07,-2.0715396927148167e-08,1.687761996350165e-08,0.10000005921351625,-1.2306921144563342e-08,2.6993296267561152e-08,-6.578308091044697e-08,2.985842068505379e-07,-1.8155905808709083e-07,-1.3254295420210658e-07,2.1804876929596907e-07,-1.29230581076625e-07,1.2074213410755547e-07,0.10000007946658784,6.207425627723749e-09,1.6634780460765935e-07,-1.3692934630158273e-07,1.8858471935767512e-07,0.02443748087198656,0.09820381077279805,5.80803609590984e-08,5.186306189564352e-08,9.015276407176383e-10,-4.6119034446755354e-08,8.557248415289079e-08,0.09999967941981283,6.500357329318664e-08,7.707439577767577e-08
3,2020-06-04,Simple + Baseline,0.09999975051166499,-1.8618720265047307e-07,-5.800112951419154e-07,-3.3165805981437765e-07,0.02701139852892277,-1.0853522998256699e-07,-6.057447337908726e-08,-4.3402141725800065e-07,-6.590966282547863e-07,0.099999893782848,-4.0439405437772103e-07,-2.2504501591495418e-07,-1.7313038279935036e-07,0.09783721659647938,0.08063019922054726,-1.2946218351834118e-07,-1.3732016618482212e-07,-3.064803070476077e-07,0.09999951079838663,0.09999933255432532,-3.459340603619771e-07,-3.985948479482412e-07,-3.577394815021158e-07,-2.4216879050481894e-07,-3.8039291747595017e-07,0.09999968316249594,-2.910740042935742e-07,-1.9134249629414355e-08,-5.20654667711771e-07,-2.8318258551720587e-07,-3.873076987934531e-07,-4.6315247613839883e-07,-2.68317728871586e-07,-2.905260180045305e-07,-4.6680184497742424e-07,0.10000005698581971,8.67429762275401e-08,-4.936278220080964e-07,-4.3805339934932547e-07,-2.7051959252891624e-07,0.022650749944850314,0.07188437078175278,-3.009459192980744e-07,-3.923142163853326e-07,-1.4067252832639574e-07,-3.288459500570076e-07,-2.129203535070682e-07,0.09999954204737495,-3.727638874453189e-07,-3.9156384470958344e-07
3,2020-06-05,Simple + Baseline,0.09999995578127588,-5.950375880404882e-08,-1.2047816968893177e-07,-2.2705183933410944e-08,0.040430074200982435,2.6867392091702193e-09,-1.904608434649657e-08,-9.000834764482794e-08,-2.177053681380878e-07,0.09999999808648026,0.002630483888275806,-1.3827122778883123e-08,-2.8830013850594064e-08,0.10000013410611049,0.08062978356078096,-5.441326201464562e-10,-1.5281659902135135e-08,-1.0392004421179241e-08,0.08888668989032845,0.09999992748192693,-7.899992700975751e-08,-2.861676264999934e-08,-1.6570008933706247e-08,-6.486255428845808e-08,-1.0190816948878647e-07,0.09999996172051492,-5.4837624057770046e-08,6.766814531052189e-09,-1.4315895794418214e-07,-1.3415492406994075e-08,-1.8305559213698338e-07,-1.565306969785263e-07,7.228395104562644e-11,-9.943051539603977e-08,-6.006645087483305e-08,0.10000000898923268,2.6812700707514114e-08,-5.831706090367705e-08,-1.4526081341527103e-07,5.564977755482353e-09,0.02111257381835251,0.066312667533027,-3.449060916715939e-08,-6.37497187002601e-08,-2.988417621148049e-08,-5.1235170595571116e-08,-7.255117624979209e-09,0.09999978708112897,-5.9368158270703064e-08,-3.8508923870172626e-08
3,2020-06-08,Simple + Baseline,0.10000002240023198,-3.175931367704563e-08,-4.9985366481682754e-08,8.262089044177162e-09,0.052464466987964156,-1.6158863051741982e-08,9.097046595515928e-08,-4.441638767805881e-08,-5.941061627777768e-08,0.10000000702583958,0.019907683343996743,1.5291169843683192e-08,-6.149470475452797e-09,0.10000011247598048,0.08355385502544439,5.166087104578313e-09,-7.89016682598392e-09,-1.2733845006960376e-08,0.049312290937181986,0.09999998117450848,-1.7628435832348348e-08,-1.7560111725146265e-08,2.0949874675691715e-09,-2.1566849482476573e-08,-3.426793338391236e-08,0.10000001227145325,-3.527168979093954e-09,-1.7701593417848534e-08,-2.979211050919579e-08,6.808733964343235e-09,-3.4556676804947565e-08,-4.8938187113918706e-08,9.46001417838791e-09,-1.9995883320421055e-08,-2.3421478828875107e-08,0.10000002693758,1.1036661565407788e-08,-1.1015946888125836e-08,-3.322292462973366e-08,4.6167457405222846e-09,0.021107550732697978,0.0736544524838765,-2.410886782645193e-09,-1.1706457594743564e-08,3.092393379657227e-09,-1.2473262148883371e-08,-1.1588087653369512e-08,0.09999999158916315,-1.2053149400892382e-08,-1.8759685321936232e-08
3,2020-06-09,Simple + Baseline,0.09999498273069665,-5.25407458427229e-07,7.332759484882632e-07,6.532595602464735e-07,0.05040729682918707,-2.0188687549906794e-06,-2.1100501717063913e-06,2.461111274636646e-07,2.785913130606888e-07,0.09999963237242968,0.0065580736058698545,0.03546413931944258,-1.7064314395509487e-06,0.09999696712209326,0.062090710522754174,-1.6613955328039173e-06,-2.450153222285974e-06,-6.210747093516332e-07,0.038102740260759146,0.09999917764837085,6.177703799208894e-07,1.6333335328794568e-07,-1.1712187637296455e-06,-7.487745188228943e-07,-1.5402144630007699e-06,0.10000115097202202,-1.2153988423781567e-06,-6.730712739979427e-07,-6.353389116036868e-07,0.01150354659933791,-1.5500796867870232e-06,5.527355407316225e-07,2.3115769257970438e-07,-1.964343449045032e-06,5.60995960982747e-07,0.10000041532787272,-1.2353195544712593e-06,-4.1746529964955864e-07,-1.425503551124815e-06,-3.9619993683833645e-07,0.022264716884262407,0.07364254720390521,6.918348326837279e-07,-1.533561229473309e-06,-2.494233717950654e-06,-9.879860547693727e-07,-1.4470138680751352e-06,0.10000026515256032,3.624011203654797e-07,-9.228861876671793e-07
3,2020-06-10,Simple + Baseline,0.09999860440848239,-3.259122866571464e-07,-2.9105388581491914e-07,-1.6246317282971534e-07,0.0422097572107657,0.010583289443182736,-3.207089207723955e-07,-2.1740038194422853e-07,-7.4113343139863e-07,0.09999970790583224,0.006554853769417293,0.03545918869045348,-5.28436056548924e-07,0.03636912542485916,0.04687212072873601,-1.1418957975234435e-07,-2.625748041484563e-07,-4.435861649634228e-07,0.09999965907174359,0.0999994396402348,-2.0393582687462508e-07,-3.5710463423289993e-07,-3.322404893185395e-07,-2.2891736082590103e-07,-7.044982528246713e-07,0.10000003668764891,-1.258212385710676e-07,-4.3352616018412115e-08,-7.567449181044386e-07,0.049790174156566606,-1.1280154619104625e-06,1.8766285042342999e-07,-2.0371773271206802e-07,-6.525448867756526e-07,-3.264662762787142e-07,0.10000010840620344,6.086770012102155e-12,-3.8542434773244904e-07,-8.468216012736975e-07,-2.0978236610734475e-07,0.023776792714814556,0.048399983517222175,-4.6711733397007923e-07,-4.365219306850526e-07,-9.295984695898915e-07,-3.623591406798598e-07,-2.5622682705845463e-07,0.09999984543348953,-2.0726097275066524e-07,-3.046506387770106e-07
3,2020-06-11,Simple + Baseline,0.09999959306101598,-1.0844993032876109e-07,-7.368099843447618e-08,-2.417894459761668e-08,0.03949461918915499,0.010583192035477458,-8.287929015479958e-08,-6.310481769897387e-08,-2.8046033509828304e-07,0.09999996027267542,-3.1393152129740487e-09,0.017602956240676582,-9.75519152682773e-08,0.06504798719927854,0.046872094005153166,-7.641326148167581e-09,-3.35937828299434e-08,-7.884830602292244e-08,0.09999985958132124,0.09999989782673156,-5.559566525373508e-08,-5.516166951852468e-08,-4.1980185704239404e-08,0.03206834893764816,-2.2985983844893912e-07,0.09999998572164086,-3.1513801807209766e-08,7.346066229007949e-09,-2.1739650676342207e-07,0.0309092080761513,-5.231722834964238e-07,6.257132145695495e-08,-1.8256683977092875e-08,-2.209226040920961e-07,-5.447115029603731e-08,0.10000001204825519,-5.005202316009375e-10,-6.921873343291187e-08,-3.3089681456951845e-07,-2.4248560631904852e-08,0.022990466320226194,0.034435166191154824,-5.5881464591118405e-08,-8.979311502086183e-08,-2.6184532731509787e-07,-5.748810371552426e-08,-3.0183727555492005e-08,0.09999990164553992,-3.8548342580692475e-08,-5.76823092836294e-08
3,2020-06-12,Simple + Baseline,0.09999953457396768,-5.984950429284484e-07,-3.874671403893343e-07,-8.592262296122917e-08,0.03985015324227449,0.007355683155020334,-3.711478694211309e-07,-4.636224704139667e-07,-5.970694071748377e-07,0.09999993294820217,0.055402822748811996,0.06831171548260435,-1.7922507701532172e-07,-1.4072270244307614e-06,0.046870245708468004,-8.046882131269402e-08,-1.3502690686545084e-07,-7.968988278628387e-08,0.09999887089238561,0.09999995745353897,-3.8403364277055483e-07,0.029832282932679817,3.071974926167517e-10,-7.428711034608936e-07,-7.325030611424237e-07,0.0999997323565964,-3.838601128924441e-07,-3.2091190042822907e-09,-3.7180806131966626e-07,0.030908764595130294,-1.5321784625438537e-06,-8.98457365437569e-07,-3.874691229192173e-08,-8.455783321232528e-07,-9.629435297338032e-08,0.09999973146992268,-3.5613057403583645e-07,-9.565800061835718e-08,-7.792841791955761e-07,-2.0592667993402405e-08,0.02148446349172997,-1.4019619958684658e-07,-4.448892043838999e-08,-1.4024663152012274e-07,-4.3762045728417674e-07,-1.551746230251571e-07,-6.770241253149121e-08,0.09999906593826755,-1.6343397823543493e-07,-1.340938624264144e-07
3,2020-06-15,Simple + Baseline,0.10001403856145541,6.788884653494467e-06,3.5994730622053732e-06,6.262361834130904e-07,0.041251433817231314,1.548916038771276e-05,3.414294545393725e-06,1.0682458449391794e-05,7.48016522022355e-06,0.09999920189047239,0.03411516314474611,0.10000016569711448,-1.6177978165750207e-06,0.08534266465492679,5.223234382293668e-06,1.6731144101521912e-06,-6.941147890872706e-07,3.729126070947721e-06,0.10001246472914029,0.10000063067718651,8.779890238825945e-06,0.010954896660099874,4.961956123931621e-07,9.936988827869147e-06,1.025657656083551e-05,0.10000195391600669,6.628536476437966e-06,-1.2314855637950802e-06,8.881232952250807e-07,0.002166758891913811,1.151286714772132e-05,8.466162944960832e-06,2.0201828874169658e-07,7.929103733320742e-06,-3.2391506107665186e-07,0.10000276827154485,7.093374581403671e-06,-2.932694825040313e-07,6.819310250306867e-06,8.959393859007964e-07,0.02597980581475074,7.046750531909728e-06,-3.036951258345865e-06,-6.598075676928414e-07,5.597013909738571e-06,-6.388964685644434e-07,1.5058499736768453e-06,0.10001065147159811,-8.93412464006963e-07,3.961971760985223e-06
3,2020-06-16,Simple + Baseline,0.09999944218481027,2.1979550929806885e-06,8.191256041947527e-07,-2.630178282683346e-07,0.04123684293808351,0.010488137706398856,-3.4911340041888826e-07,3.0734796898034317e-06,-2.842847407491811e-07,0.09999965356176452,6.677462878971718e-08,0.009952932229801583,-6.908553349758429e-07,0.099998911071685,9.382203222298645e-07,-1.2091961445362847e-07,-4.823814491248876e-07,6.329254600095163e-07,0.0999995923980563,0.09999987894372296,0.02690067883294348,0.08561491020880947,-2.2946410979726039e-07,3.0812997790579766e-06,-6.87798511259236e-07,0.10000033069901265,-4.653067201244584e-07,-2.9000330261288063e-07,-3.5319376087485283e-07,-7.205545075828445e-08,-6.191306323409349e-07,2.6386740917367064e-06,9.734563011147033e-09,-6.095236601596974e-07,-1.7813944090909112e-07,0.1000007350908523,-2.717635939442414e-07,-2.0251804249326538e-07,-6.837834124012777e-07,-2.57046897527748e-07,0.0257977541855307,-1.724920993074207e-07,-4.234578695487547e-07,-4.404555471707722e-07,1.2793842058252633e-06,-4.2501064427104083e-07,-3.746686800041689e-07,0.10000438963144108,-3.658412689468426e-07,3.8929566934112593e-07
3,2020-06-17,Simple + Baseline,0.09999695014574096,-3.466625065430333e-07,-1.195539246698894e-06,-1.1021457833784289e-06,0.03703184416399236,0.010481443546853127,-8.133123323732238e-07,-7.947011815809187e-07,-2.2447391148275856e-06,0.09999966823470575,-5.558054251776329e-07,0.0939124877377355,-5.173958293060675e-07,0.06863842158286142,1.3459539815564102e-07,-7.036836771936854e-07,-1.04034111774338e-06,-1.8004846352156688e-06,0.09999665895502928,0.0999980328555642,-1.4177910164658197e-06,0.08560653310672464,-1.1046494370491604e-06,-8.919209532642718e-07,-2.6100839252907252e-06,0.09999882445698252,-2.154604907128032e-06,-6.96423561760729e-08,-1.4210000095277273e-06,-1.2665524889532897e-06,-2.710929316917855e-06,-8.711460935538158e-07,-8.522842723369322e-07,-2.881885702756223e-06,-9.357631350360854e-07,0.07783662941146248,-7.960008298718955e-07,-1.2582805964415022e-06,-2.4615692920920927e-06,-7.447458784649038e-07,0.026545167079005245,-1.0782866764656933e-06,2.8083169330373523e-08,-1.4348843229494245e-06,-9.000974886923186e-07,-7.653354166737646e-07,-9.445708863940234e-07,0.10000033698728938,-1.0350016835588426e-06,-1.4325525398417633e-06
3,2020-06-18,Simple + Baseline,0.09999824027613845,-1.380063036675674e-06,-9.533757063201796e-07,-3.1245324886015846e-07,0.04216923604631813,0.024402631524337717,-1.0196499132138899e-06,-9.004692330050767e-07,-1.4431133583715266e-06,0.09999981425929116,-1.8339834639845208e-07,0.09574165760063025,-6.477348024365172e-07,0.06863314187857743,-2.803647254818186e-07,-2.72012130611898e-07,-6.986839196810741e-07,-5.468002217970836e-07,0.09999714762583807,0.09999930290333205,-1.377333595476857e-06,0.05065011271561019,-2.548520756026091e-07,-1.7006460050571247e-06,-2.0339432225077975e-06,0.09999905017403074,-1.2847199978841842e-06,5.7774215524488734e-08,-1.3057916830038007e-06,-3.5918104608819254e-07,-3.7817842251949436e-06,-2.4755855149133923e-06,2.4588307340205465e-09,-2.451226520090341e-06,-2.828637049097094e-07,0.09805303865724507,-6.386461563443073e-07,-3.691596076008645e-07,-2.2116849739265667e-06,2.3601891006796434e-08,0.020394024903389967,-2.271320184998532e-07,-2.4176618764124143e-07,-7.397516346202935e-07,-1.1210680425377165e-06,-6.342217733249613e-07,-3.6306046518646156e-07,0.09999630827166728,-5.43838403154643e-07,-7.379020594290614e-07
3,2020-06-19,Simple + Baseline,0.09999862011925542,-1.4239648922602781e-06,-9.516405563256314e-07,-8.482503215104021e-07,0.037166105140704696,0.03737503283625814,-6.134012859965962e-07,-6.378168343792632e-07,-1.7833276897184454e-06,0.09999946662312256,-5.943080809580064e-07,0.09999968056674138,-8.454043078749263e-07,0.09999784494497736,-7.743022513817806e-07,-2.7467422972864797e-07,-8.085637305995207e-07,-4.2253366211775903e-07,0.09999798358954086,0.09999918646721112,0.00463552569243876,-6.60759851052603e-07,-7.012844283932715e-07,-9.315084031629227e-07,-1.222960292538685e-06,0.09999961235288245,-9.102513899254489e-07,-2.6793996326800353e-07,-1.4363739209470768e-06,-4.346115200283183e-07,-3.0962829947596406e-06,-1.5701242759583946e-06,-5.116978014368565e-07,-1.652724450224937e-06,-4.863074839214223e-07,0.09999940007593798,-4.582691907313185e-07,-8.306890409983442e-07,-1.8479541843094776e-06,-5.232400919973699e-07,0.020867844505688782,-3.247600299903896e-07,-4.960759822752151e-07,-1.0927243320302385e-06,-1.0450887825969311e-06,-6.62782745358895e-07,-6.003839948880113e-07,0.09999700944368424,-9.624750612998907e-07,-5.983890567225581e-07
3,2020-06-22,Simple + Baseline,0.09999937336348436,-5.07740468661734e-07,-4.569006409630481e-07,-3.626523858256628e-07,0.026981124965289458,0.07171118910298548,-7.671489997108197e-08,-2.0940613809215712e-07,-8.039832962025181e-07,0.0999997799038433,-3.023190632094927e-07,0.09999982929672341,-3.1112375093467586e-07,0.050073879682820184,0.0037427740456923296,-1.1301259035928742e-07,-3.314786526326211e-07,-2.4824317817984605e-07,0.09999915241155123,0.0999994405443268,0.02146139790661552,-3.627413611261428e-07,-3.648377497389626e-07,-2.3791973322659252e-07,-4.012271376557552e-07,0.09999980924507247,-2.8312836848634835e-07,-5.7626135712484294e-08,-6.32671399966213e-07,-2.861580061735239e-07,-1.4449311485984017e-06,-5.537912126552164e-07,-2.491502615747129e-07,-5.896045618070449e-07,-1.963534541957879e-07,0.09999989554153038,-8.477231712601893e-08,-3.812092590638015e-07,-8.132340244026784e-07,-2.4735717854473816e-07,0.02604724469481051,-1.7780376453557328e-07,-2.0018038046433214e-07,-5.243355829253921e-07,-4.232580171477486e-07,-3.09441361839242e-07,-2.5364332495151724e-07,0.0999985958675567,-4.0025365507010825e-07,-2.8872086500432e-07
3,2020-06-23,Simple + Baseline,0.09999946606029701,-5.053442390152453e-07,-3.931261093467776e-07,-2.9208983218172985e-07,0.044041261485723474,0.0955859851628924,-2.1997991583135222e-07,-1.868887532066044e-07,-6.79363513274416e-07,0.09999973680552854,-2.3801519191286205e-07,0.09999985473176895,-2.9209123507387916e-07,-9.259991386432188e-07,-3.8185354765603496e-07,-1.1312037837026642e-07,-3.298750686152239e-07,-1.549682981903714e-07,0.09999931079330657,0.09999963220974059,0.035484445819601904,-2.8753135587295753e-07,-2.710395720057417e-07,-1.7984860524736777e-07,-3.07541252882839e-07,0.0999998967183652,-2.3540613331962965e-07,-8.850111446128298e-08,-5.509004768866005e-07,-1.7725228497730132e-07,-1.1945623943081255e-06,-4.0219781786402264e-07,-1.8635939054940295e-07,-4.918818809995591e-07,-1.4260933619592857e-07,0.09999971707195972,-1.7215191415837692e-07,-3.068651648323043e-07,-6.704303089654578e-07,-1.9508687804099294e-07,0.02490465020433217,-1.501613425169871e-07,-1.680021714966186e-07,-4.364095894769177e-07,-4.1199303773661704e-07,-2.809940992982802e-07,-2.2013813883261015e-07,0.0999988214174119,-3.3480960291351636e-07,-1.9943853806338528e-07
3,2020-06-24,Simple + Baseline,0.09999894679888154,-1.0754873944985074e-06,-6.804475174964403e-07,-6.476705455431932e-07,0.03854119206896431,0.08820522107426254,-4.523557358802112e-07,-3.719048427978171e-07,-1.3779707012430081e-06,0.09999944000228712,-4.742496417636922e-07,0.09999970365437931,-5.795989466458709e-07,-1.939063809501591e-06,-7.788027944377921e-07,-2.192342984802985e-07,-6.802790661541701e-07,-2.966578706194042e-07,0.09999872637489983,0.0999992951729027,0.04568571339793895,-5.324919874383157e-07,-5.193534543030232e-07,-2.69529242265133e-07,-7.110645351710478e-07,0.09999981748875435,-4.6522262249876054e-07,-1.829964308986511e-07,-1.073233627985642e-06,-3.365867268702199e-07,-2.0824211283139356e-06,-7.949074432150848e-07,-3.298378887437259e-07,-9.120955980213666e-07,-2.3707784051447048e-07,0.09999949421835674,-4.1190194565055777e-07,-6.105058788026031e-07,-1.2104499245333124e-06,-3.970209603927891e-07,0.027599911399356112,-3.1586779844897234e-07,-3.010662572168742e-07,-8.53056639256107e-07,-8.703631827766231e-07,-5.324047955941622e-07,-4.341603582355365e-07,0.09999757263122744,-7.144804426181245e-07,-3.535456421972813e-07
3,2020-06-25,Simple + Baseline,0.0999971747388185,-1.8443777365160624e-06,-1.2437676213701977e-06,-5.184119623904949e-07,0.02474426521789164,0.09999829592387169,-1.4310415787138364e-06,-1.3629076715977138e-06,-2.2419523721882403e-06,0.08742432072992437,-2.969390417870155e-07,0.09999990996725971,-9.834118075317418e-07,-3.4638205858186927e-06,-8.715709864148526e-07,-5.57701200389046e-07,-1.41001924975811e-06,-6.158143891506674e-07,0.09999700407935767,0.09999895298491729,0.05846482709243999,-7.042809740588054e-07,-7.569570164682992e-07,-1.2253502219602295e-06,-2.0790422472581464e-06,0.09999967777686392,-1.857717878608414e-06,-2.5606681710752235e-07,-1.7971894929166713e-06,-6.362913321551749e-07,-4.293125105866952e-06,-2.9165430293245636e-06,-1.457374830660185e-07,-2.87039214982318e-06,-2.6086435254278007e-07,0.09999888087139978,-8.428638457281863e-07,-7.33616245231661e-07,-2.736389965636119e-06,-3.295337019708285e-07,0.029430377520775677,-7.672774799563467e-07,-1.7837885592026206e-07,-1.4596667660372124e-06,-1.5952914891366397e-06,-8.664094082553673e-07,-6.272949617764238e-07,0.0999952889705795,-1.0849455236170538e-06,-1.093174715226247e-06
3,2020-06-26,Simple + Baseline,0.09999933635535023,-4.5716036300842283e-07,-2.2982508977881692e-07,6.972782888271883e-08,0.01299552773944483,0.09999973594805289,-2.5172516085012214e-07,-2.592529267119692e-07,-5.822389632490095e-07,0.0874252924487616,4.0949718931915034e-08,0.10000007592082599,-9.964584000196261e-08,-1.2115230527471544e-06,-3.447431317514964e-08,1.5229863757238082e-08,7.673889841523368e-08,-4.8839022600684365e-08,0.09999899531584752,0.09999989739548713,0.0681097879958637,-1.9015330210471304e-08,-4.5147164233331524e-08,-2.9887819765645044e-07,-5.026980151541139e-07,0.09999993571795096,-3.599476848509652e-07,3.7120625541059224e-08,-3.7237431370350006e-07,-1.2868453407659392e-08,-1.7216273115684654e-06,-9.628817300214485e-07,7.30050878529624e-08,-8.232067248833454e-07,7.350849774138496e-08,0.09999989813841888,-4.0058987395707814e-08,-1.1118506438855621e-08,-8.596099855947094e-07,7.290565061083423e-08,0.031482941127601735,5.135331822400561e-09,5.148365539445957e-08,-2.096933429354996e-07,-3.226994169752794e-07,-1.1010954872965458e-07,1.4953555053938793e-08,0.09999807407968779,-9.605411888690799e-08,-8.828991191449393e-08
3,2020-06-29,Simple + Baseline,-1.938081260042449e-07,-7.43378089820754e-07,-3.892732612575249e-07,4.990036014351261e-08,0.01554746289752462,0.09999975079723702,-4.564293364123252e-07,-6.945767692652124e-07,-5.858057784359798e-07,0.03698028054955752,-8.446622330755974e-08,0.09999993617925446,-2.9793055467571806e-07,-1.3710187364630872e-06,-2.1924099669983152e-07,-1.0722638104282693e-07,-1.4208534354779542e-07,-1.5382705863078887e-07,0.09999886201390722,0.09999987581194296,0.09999934037542296,-1.416434205937574e-07,-2.5583871413420974e-08,-5.880824247812155e-07,-6.974043579750769e-07,0.09999975328465853,-5.136925178845171e-07,-2.848340597251455e-08,-6.219263933308076e-07,0.01195340156850328,-1.5723091832183758e-06,-1.1380863713457162e-06,1.2837647606753268e-07,-8.865082172675088e-07,-1.6970216082706414e-07,0.0999997454001978,-2.0067762298636558e-07,-5.966011145342278e-08,-9.369933285075996e-07,7.955742398847178e-08,0.03295432242072497,0.002583215984081173,-9.567097786989454e-08,-2.805703573071711e-07,0.0999995107662974,-3.0134364402346017e-07,1.807523084077824e-09,0.09999839348040071,-1.7164746882128567e-07,-2.36001338583706e-07
3,2020-06-30,Simple + Baseline,-1.2073687423325042e-07,-3.090240586883865e-07,-1.1438153179888728e-07,-1.6681139135327794e-08,5.397571754387581e-08,0.0999997558729722,-6.136174250284264e-07,-2.47268692781398e-07,-3.241182001018514e-07,0.010026688074495327,-3.479612078191061e-08,0.09999989647956463,-7.408619789372124e-08,-8.567524978777062e-07,0.0032542943765117437,-3.865581790328271e-08,-2.7772593308198466e-08,-4.002718939970403e-08,0.09999940759809887,0.0999999305622629,0.09999967930778639,0.02570943203058401,-2.4205065986650637e-08,-2.605628994934317e-07,-2.816421224915195e-07,0.0999997960864341,-2.0360191044477813e-07,8.785392939608091e-08,-3.123736056486305e-07,0.011953050612270564,-1.0652600785705116e-06,-5.879013904077429e-07,9.696586683842188e-09,-4.326109130963499e-07,1.6626398668439995e-08,0.09999982213805711,-9.982070595499998e-08,-2.6684760634892778e-08,-5.252389482090866e-07,1.922684076950371e-08,0.03297358938787563,0.016092851620697683,-5.936169109663571e-08,-1.0490873896575885e-07,0.0999997567904353,-7.328855742062053e-08,6.291789171799692e-08,0.09999876756519531,-6.063252191446195e-08,-2.985372796923055e-08
3,2020-07-01,Simple + Baseline,0.021396937918248496,-1.6032294519371547e-07,-5.5519172690140036e-08,-3.664278994370242e-08,1.2993565747219353e-09,0.09999990229548399,-2.0257798678963858e-07,-9.947368527722203e-08,-1.6389119398464354e-07,0.03415100015258903,-1.8049444351967188e-08,0.09999999950714301,-5.034405035936212e-08,-4.2726443832149123e-07,-2.599048772629269e-08,-2.2604570828091234e-08,-6.017264462088048e-08,-2.5835887214816477e-08,0.09999971442665233,0.0999999666471716,0.05936973325120164,0.023238620368308312,-2.4422169458316868e-08,-1.1589308253647141e-07,-1.4872154172640148e-07,0.09999994639267598,-1.181069771082384e-07,-2.9118021541702756e-08,-1.3214926038197088e-07,0.011952745986688986,-5.741708783631192e-07,-2.974809436102239e-07,-1.8483317789750785e-08,-2.0638511245964522e-07,-1.1050579972176319e-08,0.09999992005963254,-5.824753264466174e-08,-2.9756456257222368e-08,-2.6853406171163393e-07,-2.5944163050833894e-08,0.03380356890360094,0.01609237413862696,-1.753849205148561e-08,-6.94714855257974e-08,0.09999985709228315,-2.733536758110925e-08,-2.7647090864230123e-08,0.09999935288086506,-5.110008734622259e-08,-4.036799187460276e-08
3,2020-07-02,Simple + Baseline,-1.38625424149339e-06,-2.8521096808080145e-06,-1.652742388414043e-06,3.8593839666165013e-07,-2.478184254420775e-07,0.09999809838958884,-3.4111797334123667e-06,-3.7608120675061842e-06,-1.5437967383194337e-06,0.01724492914495351,-1.4726154894779558e-07,0.09999984482338266,-1.1086494991841521e-06,-4.864088445348508e-06,0.01333789776706103,-2.6851101233482797e-07,-1.0028169590670547e-06,-7.408027011392828e-07,0.09999312093707761,0.0999990125099235,0.059359500958090866,0.029230858165261928,2.846188678956616e-07,-3.0289131149000782e-06,-4.103014700186628e-06,0.09999803403266427,-2.9091194103170916e-06,5.156739719108583e-08,-3.1678055526562695e-06,0.006776948552323585,-9.745631528726062e-06,-6.900611166826757e-06,8.535766888994688e-07,-5.128384695272339e-06,-2.4423499947155043e-07,0.09999901204671255,-1.515502267080866e-06,1.3948733593245316e-07,-5.956181450456299e-06,7.10883171176907e-07,0.03240925275473886,0.04173452721180875,-5.387663674921825e-07,-9.615406023420314e-07,0.09999693248104563,-1.061814342433209e-06,-3.9385021557117566e-08,0.09999008602396427,-7.847490679623098e-07,-1.3660405781951667e-06
3,2020-07-06,Simple + Baseline,-1.2011424444948092e-07,-6.6209601469326e-07,-2.149605403589399e-07,1.1433384651453488e-07,0.004949563604026289,0.09999981626598427,-4.890647052298472e-07,-8.455976530281875e-07,-2.5968728753539314e-07,1.4895465042931956e-08,4.649578186396517e-08,0.09999999732420556,-2.908297386747306e-08,-1.4096047645549653e-06,0.0687413521726314,5.537994177958063e-08,-3.626622302688779e-08,-3.118898036625869e-08,0.09999772208682024,0.09999991871243855,0.059360961701546575,0.013225915256268626,6.918070677043705e-08,-6.039984902387425e-07,-9.984519466645852e-07,0.09999982700447822,-4.748558444594722e-07,2.9381852560916772e-08,-6.951498583370266e-07,1.1129757468340529e-07,-4.049322166724985e-06,-2.1252243399667287e-06,1.0591928168041353e-07,-1.3797597022857172e-06,1.1881251176939622e-07,0.09999990416673518,-9.36135223516015e-08,9.50670548840734e-08,-1.846994591890471e-06,5.0103986170844e-08,0.021860151398652126,0.031884991584809126,5.758150729407573e-08,-6.697006998310967e-08,0.09999940063319486,-3.858584969628593e-08,8.402818690696994e-08,0.09999606581680036,-1.8401893440832938e-08,-5.6523217447034055e-08
3,2020-07-07,Simple + Baseline,-1.9331915034563007e-07,-5.319857192932879e-07,-2.227149870793388e-07,-1.0699026556396572e-07,-2.843019378271061e-08,0.09999973893213535,-3.5248818574023235e-07,-3.329427301611616e-07,-3.540866602006476e-07,-1.586382515956139e-07,4.684776145125575e-12,0.09999994803064143,-1.6628258460620013e-07,-1.1971619740730742e-06,0.06873918082189151,1.1189634455818066e-08,-2.8438733886314494e-07,5.602126761124682e-08,0.09999874179349211,0.09999995742645248,0.05408822150297217,0.022802414711048054,-1.2620640962040229e-08,-3.1879889002257943e-07,-4.545494812501443e-07,0.0999999010568423,-3.503464054317624e-07,-7.220027556328869e-08,-4.737264440789801e-07,-1.2583923660709344e-08,-2.4144525666629295e-06,-1.0865752526357604e-06,-4.8956367143011395e-08,-7.434405525234925e-07,3.0051275091245487e-08,0.0999997267926881,-2.2308861793463e-07,-7.381633282768651e-08,-1.1711095153564581e-06,-1.8647569316215816e-08,0.02331747725296713,0.031069481939518827,-1.0856796408299805e-08,-2.221518106966884e-07,0.09999956276247242,-4.5784264395125855e-08,-8.325114139535971e-08,0.09999757650426766,-2.2852430457351442e-07,-2.6023173036080718e-08
3,2020-07-08,Simple + Baseline,-5.567335453555028e-07,-1.0746734846094686e-06,-2.6152065725690533e-07,-6.616917208729391e-08,0.0025787918149793154,0.09999901446148855,-6.172684667210719e-07,-6.73556946054197e-07,-5.43272711931096e-07,-2.0642211719965683e-07,8.355814287987854e-08,0.10000010699715443,-2.3820611733009542e-07,-1.4907921803320735e-06,0.06673333572629157,-7.446908579325479e-08,-5.540304531143356e-07,-1.1312436152183036e-07,0.09999862083084787,0.09999974926864867,0.05263648000485215,0.05443385836900814,-2.212063212145843e-08,-8.515395654736012e-07,-9.87116288975899e-07,0.09999992643270277,-8.495063490967415e-07,-6.149115850321541e-08,-5.887893649728957e-07,-2.3289690540433467e-07,-2.3283835036301993e-06,-1.2739234327782747e-06,8.079058826906981e-08,-1.25421396821153e-06,1.6585886364482978e-07,0.09999956516543654,-5.85072922786006e-07,-4.975516321215948e-08,-1.165919751999969e-06,3.3495437131645285e-08,0.02364176541254504,-5.991575129224345e-07,5.073557168421902e-08,-3.7019894635152165e-07,0.09999907873302633,-3.1949006579742396e-08,-1.8597590028189715e-07,0.09999779431079148,-2.500608540538667e-07,-3.332758414082202e-07
3,2020-07-09,Simple + Baseline,-2.9692246589249287e-07,-1.5934098338900845e-06,-6.158467301458508e-07,-1.1023271950053264e-07,0.0025631796667924143,0.07118384134610566,-1.0031262817875553e-06,-9.001823561171018e-07,-2.693256732033492e-07,-2.412565937536268e-07,1.0091831063644068e-08,0.09999987995388139,-6.280091883751143e-07,-2.2367133410362184e-06,0.09673670239593582,-1.4774572178066516e-07,-6.759413523125055e-07,-3.2847139897821656e-07,0.0999980208211649,0.09999965803695315,0.05263338357633586,0.0537031798803736,-1.0390658544364292e-07,-1.4444508426623695e-06,-1.489637986350424e-06,0.09999918169204784,-7.814487508908041e-07,-9.650616259669919e-08,-8.603207751785203e-07,-2.2487769266570456e-07,-2.6177768396450716e-06,-2.064284936970883e-06,1.9379896350870157e-07,-1.5389355834383019e-06,-1.6193207512332363e-07,0.09999997527487868,-5.884342837764814e-07,-1.596925476609561e-07,-1.5863127405543824e-06,-1.217844166339092e-07,0.023213133704461136,-4.17404750311507e-07,-1.9188007694567733e-07,-4.796841084983236e-07,0.09999873042740295,-6.132925887530578e-07,-2.5581475564041393e-07,0.0999967627934857,-3.9948741344344983e-07,-5.743531838444777e-07
3,2020-07-10,Simple + Baseline,-1.3763463622686437e-08,-5.218051502481301e-07,-1.1693143032129388e-07,-2.9968311570128114e-09,0.02406919058915416,0.053985187561076245,-1.7438440504091918e-07,-1.9705595265697278e-07,1.5426088560106095e-08,-2.661324751928698e-08,2.167688995826572e-08,0.10000000488209763,-1.0668422926143262e-07,0.01838672922483442,0.04195647863117848,2.1001971662525937e-09,-1.1142624583152773e-07,-3.137180947202503e-08,0.0999993124332651,0.09999995423170938,0.08925788722449275,0.0461438249206904,-2.8878758458615195e-09,-4.0807868338342823e-07,-4.2565241799060306e-07,0.09999986148161343,-1.6307576306679023e-07,-7.177107685449864e-10,-1.8818991055361106e-07,-3.540043808318752e-08,-1.1062798833178437e-06,-6.986706398863828e-07,2.575155043903933e-08,-4.411610714374371e-07,7.786913072825707e-09,0.10000003776927818,-9.500258915049465e-08,-2.95057810138455e-09,-5.271829660421929e-07,-2.2294220339149472e-08,0.026208870588420367,-6.823756093270146e-08,3.9746578508949575e-09,-7.648964817039017e-08,0.09999969535452122,-7.387379722292502e-08,-2.437400377900848e-08,0.09999868498731533,-6.065948938006931e-08,-7.36820477236751e-08
3,2020-07-13,Simple + Baseline,0.0184376380638365,-2.1556876875288772e-07,-4.470030368160138e-08,3.1225676862463625e-08,0.05322500539467342,0.01447601459346099,1.0733740589431077e-08,-4.866348962542145e-08,1.523996882950398e-08,-9.210090496152796e-09,1.1350691818267906e-08,0.10000000882385092,-1.9400282261927878e-08,0.04598752323232751,0.03151463203545068,2.7378481011766245e-09,0.008018464912173584,2.0739877729676118e-09,0.09999971666489217,0.09999998941325834,0.10000002206046975,0.0012760114233474821,1.5344248772216963e-08,-1.4615123005214767e-07,-1.364661963422813e-07,0.10000000777357602,-2.9560167098409884e-08,-2.7594050462992965e-08,-6.802569413746825e-08,9.411596324275806e-09,-5.376086052610011e-07,-2.7354254595448984e-07,2.418195953233842e-09,-1.5869670187231014e-07,4.987116443993253e-09,0.10000000938613479,-4.63363021268587e-09,5.234491949272858e-09,-2.0638027735934412e-07,1.3341876694499929e-08,0.027067487852896404,5.755880771963294e-09,1.7066076582329573e-08,-1.8683845241305506e-08,0.09999990684768445,-2.310277267984429e-08,-1.8511067525398765e-08,0.09999941765930513,-1.3262378871885613e-08,-3.3027136721964884e-09
3,2020-07-14,Simple + Baseline,0.034292192301418216,-2.023013596277076e-06,-2.0006813423925714e-06,-1.7218506819532959e-06,0.0400202966002017,-1.0250989563841144e-06,-3.320092516731218e-07,-2.8634679093237366e-06,-1.5360037531220714e-06,-5.90364080411094e-07,-1.3234596069907788e-06,0.0999985072270585,-6.21077297382589e-07,0.0631109517671044,0.03330932253045058,-1.8108834664652733e-07,-5.408839153705987e-07,-1.8669054386863765e-06,0.09999569287883119,0.09999735633392112,0.09999815142027069,0.0012653397769231524,-1.1691142754634096e-06,-1.2981974045354513e-06,-2.496329220471733e-06,0.09999812468537145,-1.4683211813361906e-06,-8.573509310758447e-08,-2.493209762385824e-06,-1.6707469381782527e-06,-3.463934054797947e-06,-3.0826832045552566e-06,-1.0784320554497786e-06,-1.7516738425298181e-06,-1.5724791650157043e-06,0.09999937033083571,-4.254939225244352e-07,-2.010721408879884e-06,-3.1020272329309974e-06,-1.173398324415451e-06,0.02807480542435187,-9.494688867946971e-07,-9.799750047777e-07,-1.4726492781647338e-06,0.0999978991596777,-8.949923712099647e-07,-5.922333052818445e-07,0.09999516079089546,-1.7778498264607775e-06,-1.5256329276248528e-06
3,2020-07-15,Simple + Baseline,0.03428585043736513,-2.06610323323993e-06,-2.1561896619054904e-06,-1.2054730955697523e-06,0.03631014119624147,-1.5170877235098476e-06,-5.088728863650605e-07,-2.4507011697604814e-06,-1.977101784486872e-06,-7.947014390147927e-07,-7.613986778437967e-07,0.09999869731465214,-3.483323162954713e-07,0.06612282918482539,0.03330363270016639,-2.6327373913188685e-07,-3.9856158536464474e-07,-1.8029110001416246e-06,0.09999619964179739,0.09999812493535779,0.09999802227147865,0.0012590422109616545,-8.278310992245064e-07,-1.8187042155172326e-06,-2.0707233897888832e-06,0.09999804525735816,-1.2236451918553522e-06,-1.4027258438488235e-07,-1.8519646415895542e-06,-1.6554552489299026e-06,-3.077082800985414e-06,-2.393020915833471e-06,-1.3477577535175833e-06,-1.4451426345024178e-06,-1.301987049422084e-06,0.09999836252028839,-9.896549498464874e-07,-1.5970868847406212e-06,-2.670698365228371e-06,-9.392660695926158e-07,0.028784503822018803,-1.0828604866321878e-06,-5.17708216981628e-07,-1.0550074347498517e-06,0.09999836575183912,-4.857116663601979e-07,-5.974499342549371e-07,0.09999585464242748,-1.3684559421014923e-06,-9.496676528619578e-07
3,2020-07-16,Simple + Baseline,0.037886418747886084,-7.47431116974918e-07,-8.920236581020337e-07,-4.5772429966790255e-07,6.848728454027556e-09,-5.507921396551084e-07,-8.714670160199193e-08,-1.079984789631509e-06,-7.715456878421033e-07,-1.1209786676600693e-07,-2.3162940581748426e-07,0.09999970186836404,-8.342063391093995e-08,0.09119900940817693,0.015057039749826107,3.264348167626946e-09,-5.497534504958362e-09,-6.738760358210828e-07,0.09999817466279788,0.09999941016791021,0.09999907413131659,0.024800723297629976,-2.0559073554100783e-07,-7.568147496165617e-07,-9.811099431144384e-07,0.0999991788229077,-6.004608761623784e-07,2.6114243199629835e-09,-5.919055042412885e-07,-7.745076509147373e-07,-1.4281670521656115e-06,-1.2003760099188695e-06,-5.065558539373875e-07,-4.169787996885367e-07,-5.363029297023694e-07,0.09999962270273259,-3.695792490975192e-07,-4.868989687474375e-07,-1.3639135662118047e-06,-3.333936013894322e-07,0.031082436028320573,-5.396257400969027e-07,-1.6635977726343289e-07,-2.7310251615793326e-07,0.09999937230965483,8.11693408377712e-09,-1.2848843280519353e-07,0.09999814111503247,-5.153172281705766e-07,-4.5686463833601317e-07
3,2020-07-17,Simple + Baseline,0.05661521927194187,-2.081456253748941e-07,-2.129591238075706e-07,-5.404360871970224e-08,8.145556389084462e-09,-9.718063754835514e-08,4.876516969721694e-08,-2.992315608233288e-07,-2.1927106888283403e-07,6.845083781767864e-09,-4.522137742331531e-09,0.09999997583176945,3.842687017658715e-08,0.09119928784293845,0.015057277054882192,1.8219745690264687e-08,3.308773116805687e-08,-1.2078924165687112e-07,0.09999932039696406,0.09999989731629813,0.0999997814205665,0.0035887509156859233,-1.5515031813600924e-08,-2.0807502018105478e-07,-2.7672366644244265e-07,0.0999998673685171,-1.1555797630867433e-07,1.8096795215930384e-08,-1.2997871837059003e-07,-1.2017472514897045e-07,-5.874181304507714e-07,-3.948306922429173e-07,-5.207884308931543e-08,-8.0193880838765e-08,-7.60575905666927e-08,0.09999996377957819,-3.6766543877608445e-08,-8.017374339447605e-08,-4.504660699009443e-07,-2.432613132787782e-08,0.033545353913805906,-5.904096569965961e-08,1.1024989516758409e-08,-2.340581329190057e-08,0.09999988825200268,3.575840449923524e-08,5.66061912431226e-09,0.0999992701400812,-7.37283354311019e-08,-5.802982571339471e-08
3,2020-07-20,Simple + Baseline,0.08754623639682227,-7.862487501293132e-08,0.026607870391499897,-9.34132198748299e-09,1.6248237779960833e-09,-1.921027278072528e-08,1.0281156079836544e-08,-9.232455494274367e-08,-8.121511069785798e-08,-3.0163055306843474e-10,6.93954226331518e-10,0.09999999671195076,1.0330639015185285e-08,4.998987101034291e-08,0.03503526472959027,2.1036121221000166e-09,5.742844909076844e-09,-2.356076173865824e-08,0.09999971409024974,0.09999998426925373,0.09999993393447798,0.017267248715486894,1.1787469948602415e-09,-7.142650119959276e-08,-9.340971896243795e-08,0.09999997224644842,-3.0848777789908243e-08,4.701878020226269e-09,-4.047374343989193e-08,-2.0293930923395966e-08,-2.9283598701274977e-07,-1.5600547008902608e-07,-6.109920252259497e-09,-2.3400082259394047e-08,-1.6352521884492844e-08,0.0999999910811704,-4.005065385666823e-09,-1.6669651344139482e-08,-1.7589636113886937e-07,6.093288931174111e-10,0.0335453267624726,-5.653031226502542e-09,3.035656570208253e-09,-5.833481354937531e-09,0.09999997481719192,8.281099775554083e-09,4.831154290328334e-09,0.09999966984993922,-1.6779681127629935e-08,-6.917603320531442e-09
