seed,date,strategy,NYSE:SEM,NASDAQ:SLM,NYSE:CPB,NYSE:GHC,NASDAQ:SPSC,NYSE:FF,NYSE:OIS,NYSE:MTD,NYSE:AN,NYSE:FCF,NYSE:LC,NASDAQ:ORLY,NYSE:FHN,NASDAQ:CGBD,NASDAQ:CMCSA,NYSE:NBR,NASDAQ:PAAS,NYSE:JOE,NASDAQ:PLAB,NASDAQ:SHYF,NASDAQ:OLLI,NYSE:DDS,NYSE:ROG,NYSE:LXFR,NASDAQ:RDWR,NYSE:JEF,NYSE:SO,NYSE:HII,NYSE:PGR,NASDAQ:EFSC,NYSE:MPC,NYSE:MLR,NASDAQ:MRNA,NASDAQ:KHC,NASDAQ:MSFT,NASDAQ:SFM,NASDAQ:PTCT,NASDAQ:AVGO,NASDAQ:IRMD,NASDAQ:SUPN,NASDAQ:TW,NYSE:AVNS,NASDAQ:WSBC,NYSE:CVS,NYSE:KGC,NASDAQ:RVNC,NYSE:QTWO,NYSE:CLH,NYSE:TRN,NASDAQ:SCHL
19,2020-03-18,Simple + Baseline,-8.048151165720796e-09,0.10000010511030365,3.4628048517340545e-07,3.028795073930903e-09,4.9709762209143545e-09,9.939375765829903e-09,8.09649114204084e-09,0.10000010433539554,3.995908587115403e-09,1.0293804190974773e-08,1.960853942747073e-07,1.0180951289439064e-08,2.804425881747129e-09,-1.0075160235611048e-08,2.0615447537836444e-07,4.492392333381801e-09,2.6524892438108285e-10,-9.241518225178858e-07,7.103015903772603e-09,9.93859202651502e-09,5.557780764696062e-09,0.1000000936814875,-1.0225972271787764e-07,0.10000009399010676,5.509890620019389e-07,9.916808555098106e-09,0.09999204906690169,0.10000009456028378,2.014182262412646e-07,1.057637973560628e-08,4.428900898295798e-09,2.1178600921103526e-07,0.10000007625197327,0.10000011125761764,6.576439204046507e-07,2.054865182629199e-07,0.10000010435262131,6.224085412947152e-09,1.0374870897985387e-08,0.09999898847595501,1.0262196578958947e-08,1.0451636001267144e-08,5.291226957939851e-07,5.951998690848707e-06,7.659978472327947e-09,8.986797682952151e-09,8.115256036286126e-09,-2.0933352252691907e-08,1.0444041365154445e-08,9.303164006506039e-09
19,2020-03-19,Simple + Baseline,1.7433883700081497e-08,-2.0257544585608548e-07,2.1678416658755736e-07,3.382420057621205e-08,3.2392712437294317e-08,2.0062755691473514e-08,5.1657654871330895e-08,0.10000010782362125,3.481186401381161e-08,3.417461476474294e-08,0.09999980272255275,2.125836409738348e-08,3.700429113293288e-08,0.09999974094763406,1.4623373969211763e-07,2.6146029286787182e-08,7.214993593265135e-09,-5.019890155271481e-07,2.1827083666639597e-08,0.09999979213551292,2.979693284099274e-08,0.10000012706210326,-4.4599720077944983e-08,0.10000010858322897,0.09999978686246849,1.6392315413097012e-08,-1.3847762385066297e-07,0.10000010058732614,1.289832682075227e-07,3.006310048861525e-08,6.303064614109516e-09,1.626165071207752e-07,-1.9580751720417962e-07,-1.5597847051189198e-07,4.1691998934865826e-07,1.4393635853429287e-07,0.10000011374180116,4.002997486821347e-08,3.102524803694032e-08,0.09999946978882257,4.39757394268041e-08,9.760453112144404e-09,3.5413437753764787e-07,-1.5874718237797332e-07,8.205493910068833e-09,8.30779777798419e-09,2.885335502529116e-08,6.50309191582954e-09,3.889026428078877e-08,4.187087145250894e-08
19,2020-03-20,Simple + Baseline,1.153478823553057e-08,0.09999946147087098,-3.6970979464995775e-07,1.6848444180594436e-09,-7.173269051303084e-09,-6.390851877277699e-08,1.4273620371988574e-09,-5.582657599914268e-08,-3.1418340808273494e-09,-5.827122731454661e-08,-4.783791277088347e-09,-7.264183860410259e-08,9.362713689679867e-09,1.0543866215633762e-08,-8.067899666840056e-08,-1.4242265727126081e-08,2.8403882491912794e-09,-1.6423502251581402e-07,-4.0916588821724955e-08,0.08513453232991533,-1.314226365559334e-08,0.09999996300218052,-2.2161212907481215e-07,-6.657110654195284e-08,0.09999994514781796,-5.2601845080898294e-08,-2.150017019194313e-07,0.09999986770421446,-2.3885757442618764e-07,-9.588314940855756e-08,0.09999995322090581,-2.722278657636753e-08,0.09999989145161536,0.09999988777597293,-8.056742377495375e-08,-1.7708290436538476e-07,0.09999978864429317,-1.396387747384569e-09,-3.946255772478313e-08,0.09999994959855861,-2.425142848561683e-08,-2.5712172684542017e-07,6.266032739191433e-11,0.014869382838350672,-6.901518120226522e-08,-9.193668955625545e-08,-2.1106935109652366e-08,2.914636372060609e-09,-4.07867455074578e-08,9.988247976441042e-09
19,2020-03-23,Simple + Baseline,-5.3769733864374314e-09,0.09999984703935515,-1.712199942620514e-07,-9.585672530939674e-09,-1.4930488971053224e-08,-2.156803518742902e-08,-9.677778756827878e-09,1.7528590542030004e-08,-1.3497704970360014e-08,-1.9276119204763622e-08,-2.24067229607318e-09,-1.1023445483517963e-08,-5.744026612802563e-09,-2.7420670451658334e-09,-1.2759581181417411e-08,0.09999998486549153,-4.139271981127973e-09,-1.745126907772911e-08,0.08246094699175367,0.07283582856918241,-1.6808030086060963e-08,6.016083438613366e-09,-1.4306853631757381e-08,0.1000000256720912,0.09999998265654841,-6.999078879775456e-09,-3.7114694480534025e-09,0.10000001395345051,-7.233010407792173e-08,-2.124143378194556e-08,-1.4629928292821799e-08,-1.1325451237276339e-08,0.10000001104737234,2.4708732883010272e-08,-1.7772054726974295e-08,-5.800298768596252e-08,0.0999999425121042,-1.2295392843992074e-08,-1.6242614900914894e-09,0.09999999482775572,-1.3829563137630906e-08,-2.669443277341705e-08,3.774876601981144e-09,0.0447040650158981,-8.916721052959021e-09,-3.515399598137632e-08,-1.6466575236084935e-08,-8.908915509465966e-09,-1.0923402277434232e-08,-2.0051575123460865e-09
19,2020-03-24,Simple + Baseline,-1.3266144370717898e-08,0.09999991706256965,-1.2460989351843545e-07,-1.9160123932596408e-08,-4.21318275326647e-08,-6.972130655453277e-08,-3.451970808818938e-08,1.5905134401277133e-08,-4.304322166755754e-08,-6.673123435877577e-08,-9.362043534526286e-10,-4.4066039959248145e-08,-7.116251339892847e-09,8.055827680796318e-09,3.1437951509631065e-08,0.09999992883565084,-3.9025320173847514e-08,5.095454688897981e-08,0.07805797227886413,0.06736591872494341,-3.2283789170825914e-08,0.05457801418136703,2.231114282424554e-08,0.10000004200671249,0.10000001437240057,-5.805458544791372e-08,-7.081091554207989e-08,0.09999999964027233,-2.2574087062407555e-07,-5.2211396378087904e-08,-7.726395766854153e-08,2.141006333754508e-09,0.10000003187794464,-1.3822665870477613e-07,-1.059612255743603e-07,-1.5314106818940974e-07,0.09999998287441526,-2.9764240093308757e-08,-4.356420955867802e-08,0.10000007613475083,-4.295060702153211e-08,-6.433918514523725e-08,2.794991796936553e-08,-1.7144997232108575e-07,-6.561414898667386e-08,-1.4623858887559136e-07,-5.351362563183619e-08,-2.7080008083272865e-08,-1.5877040688013463e-08,2.1511835665336613e-08
19,2020-03-25,Simple + Baseline,1.5508742527505711e-09,0.09999993934751493,-7.518392355237752e-08,3.899019295027306e-09,-2.8156475050675586e-09,-1.6520176321531386e-08,7.4459850624368445e-09,-4.639164499777878e-09,0.06714556216647391,-5.000442890385435e-09,7.355026671634217e-09,-1.709760469579963e-08,6.376634699467229e-09,5.345009556066008e-09,-2.2500639907843492e-08,4.112080810244974e-09,1.0497500925523384e-09,-4.1517285662690323e-08,5.914676114820862e-09,0.10000000371816421,-1.0016946310522097e-08,0.04801371656844993,-1.0172292960031181e-08,0.09999996833767182,0.09999998684386151,-9.477032560149313e-09,-7.169751152399633e-09,0.09999995145324507,-8.69798573125119e-08,-1.982739121569023e-08,0.08484161103173708,-7.592711107245011e-09,0.0999999631808428,-2.7611095551147327e-08,-3.530555086376202e-08,-4.851610019677737e-08,0.09999991612025161,4.2092994126929397e-10,-7.893616601258052e-09,0.09999998518699077,-4.091588907841558e-10,-5.532004846263117e-09,-1.649867992400202e-08,-1.3536246266158895e-07,-6.3743021426020325e-09,-1.984719763937716e-08,-3.700090539155265e-10,4.149165113902865e-09,-5.4458078663763145e-09,-5.58170047568532e-09
19,2020-03-26,Simple + Baseline,-2.4248316110389577e-08,0.09999957388234149,-3.346412092148282e-07,-2.911286272848952e-08,-8.68774168432432e-08,-1.1755634622333651e-07,-3.200830467951219e-08,-1.0036225124798555e-07,-6.775211693110483e-08,-9.92421948678347e-08,-5.333769382146927e-08,-1.275846213613618e-07,-1.8969576885518608e-08,2.5973779601335697e-10,-2.6192974529122543e-07,-1.0575739340857542e-08,-2.9066935007204658e-08,-3.209024939998032e-07,-1.5013734969341252e-07,0.0999999050403008,-1.1375922269289805e-07,0.01506641240935312,-1.049661801729737e-07,0.09999984165495729,0.09999979940563633,-9.574713661815933e-08,-7.9454577440859e-08,0.09999975786341266,-2.967113044977179e-07,-1.8427824290613666e-07,0.09999994292257451,-1.4401109972705332e-07,0.09999981385314227,-1.851366999691211e-07,-3.0200070430386263e-07,-2.635693185383851e-07,0.09999911506295879,0.08494106017772682,-9.60720225991091e-08,0.09999984225981745,-9.220825721362885e-08,-5.9836986477034e-08,-1.548654927398132e-07,-5.084588118027713e-07,-6.755624184875998e-08,-1.434798043916071e-07,-7.911265922703168e-08,-1.853566904783084e-08,-1.3732766503991836e-07,-7.075864412952094e-08
19,2020-03-27,Simple + Baseline,1.1085948547530793e-07,0.09999921359791683,-6.431234323342699e-07,5.414994506169058e-08,0.10000021265516071,3.9029129486213134e-08,1.4858654327131936e-09,-5.790165733338376e-07,8.904490931835753e-08,-1.2674680979562285e-07,-7.13956706680967e-08,-1.0977252638950424e-07,1.0547656709007828e-07,1.1159948601156702e-07,-2.240082937523852e-08,-1.5818988091349083e-08,4.1825179690135936e-08,-2.1082942037173314e-07,1.2856673093385747e-07,1.8973058685961528e-07,3.2382078971139026e-07,0.025914650029704864,-3.699612971564066e-07,-4.398574478773064e-07,0.09999985805371008,-2.2749011426317867e-08,-4.673508046852655e-07,0.09999928625988011,-5.105693489892626e-07,-1.1003856800699685e-07,0.09999992350587386,-7.93588238356042e-08,0.09999912764927761,-7.452425985193313e-07,-4.5265598358709407e-07,-4.4775765795431846e-07,0.09999911216816665,1.9766247251443895e-07,-1.3727380031338515e-07,0.09999986384894771,-1.4858168839325226e-07,-2.0883304965929423e-07,-1.552177346421307e-07,0.07409354271693627,-5.0872682795695795e-08,-2.99747024577955e-07,5.1034026210108025e-08,1.400422660094221e-07,-1.852516643921324e-07,0.10000024104320737
19,2020-03-30,Simple + Baseline,-2.658560442035681e-10,0.0999999317502709,-8.690140850452115e-08,-7.883109064166516e-10,0.10000001824992598,3.514157259736118e-08,-2.9290855664976242e-08,-1.0553397216510721e-07,-1.2780038992349991e-09,9.230037078129218e-08,-4.0950314955082045e-08,8.421317255881652e-09,-7.316540521631335e-09,-1.4522927698339517e-08,4.011025927928679e-08,-2.40974237719654e-08,-1.07374894279393e-08,1.2686991173689287e-07,2.8430633534767164e-08,1.7573717169721356e-08,0.09999997299721082,0.016184498924750337,1.5820945792111012e-08,0.06051350388633959,0.10000000136291647,-4.285944776716972e-09,-5.011466118762565e-08,0.09999989222191451,-5.483619009446362e-08,-9.522647234875889e-09,0.10000002798401827,-5.597262762680835e-09,0.09999992634908299,-1.212589918983237e-07,-6.182502224356103e-08,-8.504923025494295e-08,0.09999984723570407,1.458630704608917e-08,2.66904022617096e-09,0.10000000443387728,-2.866588408736681e-08,-3.169010688608969e-09,-1.2638264037804502e-08,0.023302735077871464,-9.497929994331414e-10,5.443379313954861e-10,2.401712406461162e-09,-6.08066262959374e-09,-2.749041172958699e-08,4.732056120582543e-08
19,2020-03-31,Simple + Baseline,-3.3351848013157783e-09,0.017718586443263937,-6.502405432230727e-09,-2.9627498059066306e-10,0.10000000456159433,5.474864478538122e-09,-4.850100123878307e-09,-2.1524889258636845e-08,-2.3475849036025413e-09,8.933267572581187e-09,-1.0719218372179494e-08,3.3930636012064733e-09,-3.4540741351133206e-09,-1.7450150528039226e-09,1.1726010255138971e-08,-2.9518761223245144e-09,-4.0474474517178806e-09,3.1160672460122324e-08,1.0457681779959493e-08,-1.5247466351003386e-09,0.10000000289967383,-6.517999200144887e-09,-1.164612343245259e-10,0.09999998426709149,0.10000000832700538,1.4397850599735885e-09,-2.0143584914647257e-09,0.09999998404676712,1.8367708080382201e-09,3.983609564045791e-09,0.10000000735187589,-2.818201636062754e-09,0.10000000464550737,-1.441037378167697e-08,-1.40173083538766e-08,-1.1720180554304165e-08,0.09999995255104456,9.332711159283788e-10,0.0822815698113074,0.09999998897934216,-3.5071314160591174e-09,8.3668124030225e-10,-3.4547348235031005e-09,-5.6596193239491285e-08,-3.4803287801675145e-09,1.2969788409707257e-08,1.0669607445385442e-09,3.0995080754020242e-09,-9.059052573723399e-09,-2.565461720084055e-10
19,2020-04-01,Simple + Baseline,-5.347211609348018e-07,0.017706064039515315,-1.8600575814549208e-06,-2.4086705656154823e-06,0.09999604475835396,-2.8180182714303968e-06,-1.5688877776016254e-06,-3.3351102381975807e-06,-2.346435529114012e-06,-3.7069850031976142e-06,-2.6133278851344977e-06,-7.579152998898572e-07,-1.6897102012759432e-06,-1.5171252017249663e-06,-2.865145638837366e-06,1.5261264195525772e-07,-3.024273617986963e-08,-6.07451457306575e-06,-2.028780049440385e-06,-2.566273473761325e-06,0.09999545652659811,3.6354867569935458e-09,1.4319793262960882e-06,-8.149566540056822e-07,0.09998890055927522,4.513188943811257e-07,1.116570166148121e-06,0.09999788209563766,-3.2894093463775904e-07,-1.998344272030624e-06,0.001500095608062544,-4.247117663653456e-06,0.09999798646561453,0.027785933324893184,-2.690880844354145e-06,-4.00490402230938e-06,0.09999067459620312,-2.597632640735991e-06,0.05312751106104349,0.09999187613729611,0.09999401377342161,2.040466609129656e-06,-5.778840682960147e-06,0.09999096586192895,-3.108414052361845e-07,1.5380011448303765e-06,-1.8428693892350868e-06,-8.955999701873444e-07,-2.6450167962864234e-06,-3.2086713875810624e-06
19,2020-04-02,Simple + Baseline,-1.6219004530551478e-07,6.424322518061414e-08,-3.2114999855510043e-07,-3.0868950039073077e-07,0.09999931610847776,-5.736852515567856e-07,-1.849086608275476e-07,-5.945557507914972e-07,-4.299102586056013e-07,-9.876388500011962e-07,-4.704158247238164e-07,-3.3147056463742466e-07,-2.435205605592522e-07,-1.029723686756871e-07,1.1520029538019681e-07,1.0182278343131681e-08,-4.681733042981842e-08,-1.924162862660289e-06,-4.16244287812671e-07,-3.8865219209943006e-07,0.09999912436466564,-1.845261729227459e-08,1.223518215969064e-07,-2.8820132210477257e-08,0.09999723047338067,-2.349275906155303e-07,6.087136405878417e-08,0.0999995417797867,-3.1240857834349246e-07,-6.883623126429083e-07,1.7609123516358527e-07,-1.1809152112354093e-06,0.09999991058073944,0.10000002651386347,-8.352182799912873e-07,-1.391856350737612e-06,0.0999968949954576,0.005250785380094319,0.004331757074703179,0.09999853197582084,0.09999893607820086,7.419603412705775e-08,-1.303577755923492e-06,0.06219960536307523,0.028242933770272306,-3.707698074323633e-08,-4.910830588151892e-07,-1.767196063982506e-07,-5.923559640885916e-07,-4.3919965229984757e-07
19,2020-04-03,Simple + Baseline,2.2977074137496045e-09,1.9324287391405074e-08,-1.0577402935080618e-07,6.254378095752991e-09,0.09999996948197848,-9.433774697650948e-08,1.9726128988682577e-08,-1.0886708248350905e-07,-1.6119077155960787e-08,-1.9067862058750897e-07,-4.8165351098521947e-08,-5.9570950059249176e-08,-1.7990841851448839e-09,8.491894201366334e-09,2.1118306555081286e-08,4.724591435408311e-09,-7.470099578637606e-10,-5.733954549405887e-07,-4.0720108213217064e-08,5.650099631067567e-09,0.09999992378809804,9.34955373566448e-10,4.704626278447611e-09,2.003297441285301e-08,0.09999945291874315,-5.916798612470494e-08,-1.972685345562771e-08,0.09999993198448244,-8.698197245593235e-08,-1.472827236777778e-07,2.4033230763677128e-08,-2.3142209327004727e-07,0.10000000777980184,0.10000000196805815,-1.8371963100492641e-07,-4.055176082624646e-07,0.0999991900237379,7.307639292954051e-08,3.20780109985578e-08,0.09999981112682198,0.09999987109905101,-1.5318081762069638e-08,-2.0846747798685749e-07,0.06491606518511403,0.035088258041893486,3.1810084930787535e-09,-4.246014364238944e-08,1.457333133971106e-08,-8.679078752669094e-08,-1.6897009713224335e-08
19,2020-04-06,Simple + Baseline,4.431161240494462e-07,-2.0374316822915654e-06,-2.3069956346684434e-06,6.174166377045164e-07,0.10000076748446385,-3.0996570421745485e-07,4.839846022322818e-07,-2.0316494398222374e-06,5.659967044465917e-07,-8.335573771276325e-07,-1.928788676328335e-07,-4.4034522618870225e-07,4.0952418363914095e-07,4.7293259127576763e-07,-1.1018720969342443e-06,1.795602276100517e-07,3.232087213466176e-07,-2.7056299036058748e-06,1.301633038335925e-07,1.510263952456986e-07,0.10000039284444887,-3.8350215161563306e-07,-1.138426447380584e-06,-1.9797111835512557e-06,0.0999994117367108,-3.9107637676467637e-07,-1.3487749285361083e-06,0.09999772646728941,-1.6856839070793282e-06,-1.0935928346272493e-06,7.321552915599291e-08,-1.1713782067156084e-06,0.09999740803388747,0.09999772297680445,0.06755544203617656,-1.9631028329122337e-06,0.09999705129761002,0.0022499231841682957,-7.672154482440752e-07,0.09999880574389709,0.1000001143952968,-9.36139856271758e-07,-1.047688820475436e-06,-6.976674282462067e-06,0.03023384912633112,-2.623056512049344e-07,9.88199062733831e-08,7.122299919524967e-07,-4.818302811487967e-07,3.333652336228061e-07
19,2020-04-07,Simple + Baseline,1.1740129589513775e-07,-1.6753248349517783e-06,-1.9820612681052805e-07,1.0005868882159736e-06,0.100001222740926,4.770465762726827e-07,2.4547162928340374e-07,-1.3552335897974853e-06,1.0537671130725945e-06,2.2633379114917934e-07,1.9994495201070024e-07,-6.730648706987501e-07,2.500537994388841e-07,4.073411440232759e-07,-1.1476713607374442e-06,5.9252260563224166e-08,1.9491688301761368e-07,-1.7048682599160438e-06,5.333934739419822e-07,1.0522111827681277e-07,0.10000116527462703,-2.85289200929309e-07,-1.088138458461594e-06,-2.1173166231434707e-06,0.10000061699102017,-4.937963492519462e-07,-1.1802906277047502e-06,0.09999758529082675,-5.943764953684573e-07,-8.38899345350124e-07,2.2057280175746892e-07,5.759018409150014e-08,0.09999827997621792,0.09999879316627484,0.06004024740835099,6.532661725944532e-08,0.09999806776648895,0.025023942383880282,-4.7462588188288335e-07,0.09999972741439457,0.1000006140646301,-9.624666647090971e-07,-8.666332148816576e-07,0.0018091807053940232,0.013140579607601994,-2.4974627884190005e-07,1.5740152773577125e-07,6.087996259001388e-07,-3.151048496528877e-07,2.140905283723032e-07
19,2020-04-08,Simple + Baseline,2.2022847019463847e-08,-4.16306795891129e-07,1.58488962380596e-08,6.682028839097897e-08,0.10000026972322766,1.8377032262744044e-07,1.4614556936928706e-08,-3.6895854047760454e-07,1.0938322429333264e-07,3.3128826087571536e-08,-3.2457390027998035e-08,-7.774664527651194e-08,2.624606781899155e-08,1.7819911483893956e-08,-1.7395034602159638e-07,2.6409123725384073e-09,4.984703377033161e-08,-5.571097832316848e-07,1.680128709834773e-07,2.27981877446896e-08,0.10000019657387102,-6.087789607886678e-08,-2.168618269631283e-07,-3.99929439908757e-07,0.10000020748536662,-1.7087133594869233e-08,-1.5296809318320112e-07,0.09999949287119833,-4.8483571563274585e-08,-1.4453156345354704e-07,1.9196332948441626e-08,-4.637162414722817e-08,0.09999966525548912,0.09999974643927342,5.574690185981473e-08,1.178958295286715e-07,0.09999941005497372,0.04569038307932262,-9.996950955153098e-08,0.09999985281185661,0.10000010646276085,-7.659237640108896e-08,-1.6534978530567153e-07,0.05328427326545872,0.0010285183344600883,-3.9808929907205946e-08,7.351738090129643e-08,6.946459997888985e-08,-1.566612254950867e-07,6.181964965077057e-08
19,2020-04-09,Simple + Baseline,-3.4312754549491406e-07,-1.3863512007634822e-07,6.729474753183625e-07,-6.378313037176055e-07,0.09999859065141939,-3.1591636932129103e-07,-6.26146553543941e-07,-3.873146021677563e-07,-7.45423693685806e-07,-5.21768814911934e-07,-4.489854087010002e-07,8.018784196619734e-08,-4.340046686417509e-07,-4.7120917245264775e-07,-2.728706975501007e-07,-2.0932980703848264e-07,-2.3513130122495077e-07,-9.944923376193238e-07,-8.651928419711237e-07,-6.407358715008707e-07,0.09999838957012747,-1.2099884211650432e-07,4.4908325711003996e-07,0.026401446038638372,0.09999823676701433,4.49060026607663e-08,4.923405831173947e-07,0.10000017651276327,7.33158736009602e-07,-2.476234715397011e-07,0.055103547638519774,-1.0186599153967748e-06,0.10000073857978818,0.10000033916442218,-5.430947635883002e-07,-2.171997175868751e-07,0.09999879161708264,-1.0327384214873264e-06,-6.00007623682069e-07,0.0999981767146355,-1.350115726770667e-06,3.790294058716129e-07,-8.351127231068624e-07,0.018634115705899575,0.09988089272805535,1.8969615312998592e-07,-3.6159919051978445e-07,-5.513016064030162e-07,-4.7628424116369606e-07,-8.377524525354156e-07
19,2020-04-13,Simple + Baseline,-7.191124605593803e-09,-1.7030589005504017e-08,2.3247521920833116e-07,-4.239420198954494e-08,0.09060273448434443,-4.088400354980598e-08,0.10000001008074022,-6.573766068436403e-08,-5.8249891078741934e-08,-7.661103498454348e-08,-3.9623010326175765e-08,2.07602502920491e-08,-1.839237561382453e-08,-5.667110239901815e-09,-4.793884863560705e-08,-3.6029608775199023e-09,-8.1205771736096e-09,-2.7668606369909434e-07,-1.318723791025794e-07,-4.060259405170674e-08,0.0999997403652253,-2.6775666788305118e-09,6.46118784356347e-08,2.8232167636567857e-09,0.09999951173943292,1.9957329171362266e-08,7.391519317130449e-09,0.10000000985819434,4.1434657210659066e-08,-2.7417490712447092e-08,0.009400386359180045,-2.39958379306826e-07,0.10000000155553897,0.10000002457318907,-1.3569912373094425e-07,-4.274300595868604e-08,0.09999965038373768,-1.108725474284493e-07,-8.058776155773574e-08,0.09999958574138902,-2.6330279376413045e-07,7.194783496615483e-09,-1.4615165102850038e-07,5.329835049434344e-08,0.10000000958116442,1.7891875043095027e-08,-3.212004148261107e-08,-1.365482227539644e-08,-6.566008772793876e-08,-9.131223794488981e-08
19,2020-04-14,Simple + Baseline,-3.214722289219548e-08,-2.725354027113069e-07,2.4390340848450627e-07,5.880314820197985e-08,0.0932032433416933,1.0385131156581884e-08,0.06918741705851783,-2.450823684112378e-07,2.611111395576501e-09,-3.927315554988207e-08,-3.1475106419454473e-09,-1.176121207447208e-07,2.17393544797798e-09,5.268002859093691e-08,-1.541208508912583e-07,6.001138732542495e-09,-3.135220907746147e-08,-3.5119700967692774e-07,-2.6586013643840498e-08,-9.213312864182322e-08,0.09999989404704333,-7.02708047124466e-08,-1.6806930171572643e-07,-3.2484599153303976e-07,0.09999978140784278,-3.5376376292531777e-09,-1.4111775268754906e-07,0.09999965809669656,2.4038382922198005e-08,-1.2956290727603606e-07,0.03295647190059305,-1.1865784131429461e-07,0.09999984972679467,0.09999992433923766,-3.986073885666182e-07,1.1564897590725775e-07,0.09999943976495503,-4.2156069036866854e-08,-1.9438796639347845e-07,0.09999959331462757,-8.56211957139701e-08,-1.1245486929482968e-07,-2.1744458747120547e-07,0.004657861848934321,0.0999999469270564,-6.354216274433342e-08,-2.7748975741930655e-08,4.502013384338089e-08,-1.0749857726459811e-07,-7.220850080521295e-08
19,2020-04-15,Simple + Baseline,-4.6890024664711044e-08,2.0389387081355098e-08,4.0198133138806054e-07,-3.27921662019709e-08,0.10000022380338128,1.330716431632075e-07,-1.8843736541055863e-08,8.217298183628152e-08,-1.1423705178751111e-07,8.051191664220348e-08,-4.644130498753848e-08,8.858802651994538e-08,-2.73902269050671e-09,-8.140639426605086e-08,1.774825635105033e-07,-2.1159651245784123e-08,-4.498063645621298e-08,7.269528528618865e-08,5.3096092474835755e-08,9.456348258694467e-09,0.10000003883278792,-1.1307610830091803e-08,1.3788920501658292e-07,1.9527372013118756e-07,0.10000009497106381,-4.030772911886719e-08,1.0156275200959015e-07,0.10000016306357584,3.2009043446990036e-07,6.454236461195929e-08,2.0968979858504454e-08,5.290344234688564e-08,0.10000036313210346,0.10000023615977761,1.1742724593725486e-07,3.081114889334776e-07,0.10000012692381428,4.7974906062559466e-08,1.1493880103044185e-08,0.1000000301803604,0.10000048087772713,8.600364885534947e-08,1.1247571865323789e-07,-4.168516606202216e-06,0.10000005197183645,9.536550267057002e-08,2.9353638903638438e-08,-3.526687872955316e-08,3.0546346196657934e-08,1.914671882993306e-09
19,2020-04-16,Simple + Baseline,-3.596430215294949e-07,-3.317941828961537e-06,9.306266509274119e-07,6.287812338498388e-08,0.09388871455717107,9.467101118738084e-08,-1.2197707620999755e-06,-3.353843108884754e-06,-8.556621707239349e-08,1.889439706415819e-07,-4.892049068769308e-07,-2.6683191603237787e-06,4.137334934704391e-09,3.72678171057181e-07,-2.1371478415636475e-06,-9.421182404364846e-08,-1.0685559092459302e-06,-2.8040996212145913e-06,-8.004054270964787e-07,-9.462372259056544e-07,0.09999851230898164,-9.825869584750566e-07,-2.189365102338786e-06,-4.18718940643309e-06,0.09999755737003625,1.4807428887212674e-07,-1.7556889360385132e-06,0.09999372726881654,-1.300015319746586e-07,-4.622438310855835e-07,-3.439385024350161e-07,-1.0139797283329129e-06,0.09999583711828997,0.09999592538659012,-3.7077831755769175e-06,-2.083642414465294e-07,0.09999178234480495,-1.2351340917652885e-06,-2.3458737692270725e-06,0.09999419375459592,0.09999656417331218,-1.167520830532931e-06,-2.0353267723465114e-06,0.00619304643545894,0.09999792050042695,-1.368267406865274e-06,-5.664850664760333e-07,3.794337102389168e-07,-1.8390102900462657e-06,-1.0674760965051138e-06
19,2020-04-17,Simple + Baseline,6.889716771521651e-08,-4.247800175490046e-07,1.07621357465921e-06,2.644211483467798e-07,0.09677308137873432,4.49788687515268e-07,8.626023947608276e-08,-3.756295516062331e-07,2.3247230553794384e-07,3.306914992588006e-07,1.031528261074281e-07,-1.3591702919619373e-07,1.0746054716040916e-07,7.899447881871709e-08,-7.488224229798258e-08,3.185275134205398e-08,1.053518798419831e-07,-2.6872498317196993e-07,2.988558233366348e-07,1.2443674240289335e-07,0.10000034505826902,-3.775561741371096e-08,-1.0405650854771667e-07,-4.1305940586933213e-07,0.10000011302355853,1.7940220279939174e-07,-6.189123447821986e-08,0.09999893646982759,6.773481803331292e-07,1.72492003808706e-07,1.3920820489434586e-07,2.2942646227566617e-07,0.09999989785589306,0.09999950970619782,-4.229578914205917e-07,8.129679782090282e-07,0.09999826768726254,2.0920290844204204e-07,-6.853588232459043e-08,0.09999924963532275,0.09999986019884291,3.085311205582885e-08,-2.583580373004926e-08,0.0032266883865243227,0.10000007264135274,6.56813429192207e-08,2.0785518988337077e-07,1.7762463352383386e-07,-5.716290406599165e-08,1.8139587891356797e-07
19,2020-04-20,Simple + Baseline,-5.933462739818991e-08,6.219010875853148e-08,8.719551988991523e-07,-7.720272906492995e-08,0.09999993494743313,3.48322732218969e-08,-1.9177755142303334e-07,1.6314196302908894e-08,2.577510526830929e-07,-3.672327813831495e-08,2.847104461327323e-09,-1.3384463498838365e-07,-1.3643097850327284e-07,3.892255773347817e-08,4.128414920143114e-08,-9.817810323505932e-08,-8.887104097518246e-08,2.0304940754833694e-07,8.196498345526987e-08,-6.389007322299865e-09,0.09999991596080784,-7.421186767942122e-08,-1.513110909895395e-07,-2.800871115775202e-07,0.10000032486291946,7.368065014489795e-08,5.628455982227883e-08,0.09999978216259985,5.355173084885166e-07,-7.678624151468433e-10,1.7246161603328733e-08,1.3827207882057884e-07,0.1000000189346922,0.10000021397680457,-1.2844254389344478e-07,8.01467345088306e-07,0.09999956531532113,-8.587657145567785e-08,-4.487854368507364e-08,0.09999987083082543,0.09999985574906488,1.4120495504044658e-08,-3.855292194556406e-08,-5.366207065755366e-07,0.09999981019246969,-9.82828200702575e-08,-4.302018998072195e-08,-5.060832966835071e-08,-1.4802455206570736e-07,-3.4588375678700285e-08
19,2020-04-21,Simple + Baseline,-3.730456541000521e-08,-3.467968979690499e-08,3.919325941044905e-07,-1.4895784282500171e-08,0.09999996116818699,-6.620915872991768e-08,-5.17698554063192e-08,-3.958787310835869e-08,-7.474286381223002e-08,-9.71583500599931e-09,3.758745026469957e-09,-1.3060882208462515e-08,6.225636779659221e-09,-4.3814644607428755e-09,1.0197945696816333e-08,-7.333819166609953e-08,-3.751799695364413e-08,4.990363049452674e-08,6.950444730898389e-09,-3.1531491796565846e-07,0.09999996602528836,-4.833804804347713e-08,-1.6027678811655878e-08,-1.8534689701638455e-08,0.09999992444699687,-2.6288434594581844e-08,-3.680044477329637e-08,0.0999999030831523,2.6579873147665875e-07,2.42800110332937e-08,2.945939471114016e-08,-1.5015925556101852e-08,0.10000000112855988,0.10000012803755022,3.7675661741278176e-07,3.1151166423562716e-07,0.09999993082424756,1.4551574759533435e-08,-6.678587280736271e-08,0.09999997444613036,0.0999998884742707,-2.351035398207133e-08,1.8340204900760978e-08,-6.708685991876935e-08,0.10000003637010034,-3.481497136559321e-09,-2.3248965093226832e-08,-4.6551014170225004e-09,-3.3326880258838266e-08,-6.949548314532927e-08
19,2020-04-22,Simple + Baseline,-2.741499774853022e-07,-8.997155716629982e-07,-6.342198331405716e-06,-1.2345887344850155e-06,0.099995603718732,-6.729715813546437e-07,0.0020410564208638853,-1.0689551391384717e-06,-1.7852778394824402e-06,-2.1071559787630633e-06,1.0325927492278452e-07,-1.0081007231322205e-06,-2.3417754575353352e-07,-2.8071298591332255e-07,-2.23491402623089e-06,1.3509766307846405e-07,-1.2655500192344618e-06,-3.6525086528758475e-06,-2.3725580609881748e-06,-1.3022923550940712e-06,0.09999396643740066,5.621311251586838e-07,-2.043602034198178e-07,-7.608701719079503e-07,0.09999294819920639,2.1323669172788202e-07,-1.1719610095280921e-07,0.09807107829692634,-5.140447168424459e-06,-1.7049669168899579e-06,-4.440840591460873e-07,-2.2535086582658247e-06,0.09999736520380957,0.09999616466978666,-4.178819175978885e-06,-7.738162659212938e-06,0.09999267719653654,-1.509455877826321e-06,-2.7836309867431523e-06,0.09999584088737479,0.09999577659749377,-6.077746697348657e-07,-2.1622654292202704e-06,-8.534674662648593e-06,0.09999808766925972,-1.2492334463145159e-06,-1.6531903095519608e-06,-9.841673667909221e-07,-4.474292718669868e-07,-2.335718677714746e-06
19,2020-04-23,Simple + Baseline,6.676049866463344e-08,-7.739604740003323e-09,-2.1278563468760115e-06,-2.679499127388024e-08,0.0654156190718133,-3.543140418320983e-08,0.06739379236001718,-6.7077366575123e-08,-1.4645282698865704e-07,-3.602131000190768e-07,1.135992510872946e-07,1.516717130056161e-08,6.305447804643054e-08,4.7246089648058215e-08,-4.0616317663575425e-07,-4.944658045493387e-08,-1.1021148674259161e-07,-8.804072236169859e-07,-3.5158788598817086e-07,-2.945400766855817e-08,0.09999890848022423,2.465959178125299e-09,7.66437201040666e-08,-9.123973381213409e-08,0.09999801691467337,1.3880566009831727e-07,1.1532360391052681e-07,0.0672130244362093,-1.3802966446653326e-06,-2.466641909640003e-07,5.278349912738685e-08,-5.825753082552718e-07,0.09999984473574863,0.0999990843504302,-1.0755640773921053e-06,-2.6814438450093788e-06,0.09999791673054509,-5.583733194437706e-08,-5.151213532705649e-07,0.09999916802112371,0.09999925639592012,-1.325230807431051e-08,-2.89030586705428e-07,-3.1920151105170006e-06,0.09999976272469578,-1.2043374076421315e-07,-1.1663204613687853e-07,-1.2148884765687845e-09,5.646015864609355e-08,-1.84888101782646e-07
19,2020-04-24,Simple + Baseline,-1.5870682858568888e-07,-4.7493639578789257e-07,-7.814327531212492e-07,-9.646930635888122e-08,0.08594915049345668,-2.5875143678463313e-08,0.06009759912819604,-7.270648370296879e-07,-2.2701194887870912e-08,-1.2963640067694334e-07,-8.922564185040557e-08,-6.207865364030346e-07,-6.802864864756785e-08,-3.179820699001671e-08,-7.844340448059658e-07,1.210582345345381e-07,-7.127688001836481e-08,-1.037808995874469e-06,-4.901419674136538e-07,-3.297309342917739e-07,0.0999992251150543,-1.420202176769784e-07,-4.623633741703271e-07,-4.3868916663000935e-07,0.099998599388896,-2.6177223059100468e-08,-2.5691556944263694e-07,0.04993343106828899,-7.118491259869282e-07,-1.1226248627377786e-07,5.0580809431619975e-08,-2.784474848998637e-07,0.0999992384755361,0.09999936706616504,-1.1756602497898742e-06,-1.7316855277837695e-06,0.0999982892748718,-3.8939719562695205e-07,-2.1045116719770983e-07,0.09999907260219941,0.0999989174077189,-5.430335693712248e-08,-2.6979902556291597e-07,0.0040410671210579395,0.09999968706188685,-2.6485053889206327e-07,-4.757167705696395e-07,6.936026719733632e-08,-5.273295497496473e-07,-4.13669756617286e-07
19,2020-04-27,Simple + Baseline,-7.161065639061619e-07,-4.298347235097099e-06,5.8396041660161055e-06,9.556318852157672e-07,0.09808401902910188,4.3540861873792173e-07,0.04379588120191348,-4.245886782079099e-06,2.9957800898630217e-07,-2.4054583869683453e-07,-1.4666361313832898e-08,-2.3286522303104735e-06,-3.4627848427259226e-07,5.995844509179848e-07,-1.9135736095875673e-06,6.011525676442598e-07,-3.2688456148979553e-07,-3.0270662903456374e-06,3.9518052559023984e-07,-8.88658298810938e-07,0.09999888065671908,-1.3926988861654319e-06,-3.1615947057352497e-06,-3.6947481903149574e-06,0.10000051090742884,-6.519776710488816e-07,-3.091840577901741e-06,0.0499210636306813,6.077112060612841e-07,-1.7178646483656978e-06,-1.1341292024995967e-07,1.1962985915216652e-07,0.09999865522221567,0.09999938020517654,-2.0788423490152213e-06,1.624418163972407e-06,0.09999639692162018,2.1130356719203252e-07,-2.1522088794268733e-06,0.09999779516950799,0.09999992599869872,-2.208789028808792e-06,-2.158832004439766e-06,0.008239802951094007,0.09999967687761852,-1.182306447139966e-06,-4.3710443121542006e-07,8.577548363377934e-07,-1.6632391244110162e-06,-4.979333659984952e-07
19,2020-04-28,Simple + Baseline,4.155954134645046e-07,-4.741632110973002e-06,-2.457215320933061e-06,7.447525636985378e-07,0.08594637632991475,-6.459043855265149e-07,0.035080781292487595,-4.132342702267672e-06,1.1723621748432633e-07,-9.968673629340797e-07,7.627618613039156e-08,-2.5348681534942404e-06,6.137148021019787e-07,5.615709131352932e-07,-4.014018954086267e-06,4.805164159120796e-07,-5.181557772661423e-07,-5.380066640932157e-06,-8.678359220912151e-07,-2.726911961186009e-07,0.09999854857386266,-4.574177638321043e-07,-2.431878439527288e-06,-3.9166962486051534e-06,0.09999533953291206,-7.161855246648257e-07,-2.957404451281576e-06,0.04990423800742829,-3.2463421300901894e-06,-1.5168775588538706e-06,0.02917817379676869,-2.521677953084117e-06,0.09999588325508862,0.09999187737267794,-4.586598772791318e-06,-8.132777592476756e-06,0.09999222502465169,-1.687490862042172e-07,-2.4017647597662084e-06,0.09999628847185671,0.09999742392879636,-1.7572328368430368e-06,-1.9621732233203144e-06,-1.2150843312801629e-05,0.09999824548392826,-1.0745437894446512e-06,-7.576166898628125e-07,1.0708644170689692e-06,-1.366881042211392e-06,-7.525725664990905e-07
19,2020-04-29,Simple + Baseline,1.19143008057379e-07,-1.3541923534200222e-06,-1.586438909160382e-06,1.7295416102106526e-07,0.054596915307861725,-9.968210537364142e-08,0.06359646367911373,-1.274594077148529e-06,-1.391054285182115e-07,-3.815220187820923e-07,1.562520803592274e-07,-6.575836495598715e-07,1.9769184637260889e-07,6.25580350245142e-08,-1.4598281526559233e-06,7.593694005293087e-08,-2.0375608841108467e-07,-2.198570788782669e-06,-4.0063172140762127e-07,-9.178592906711773e-08,0.09999918527353753,-2.111630228604859e-08,-5.425265210549192e-07,-1.0431267229368358e-06,0.09999795368104822,-3.656334428123938e-08,-6.759612183396662e-07,0.0075837642194229995,-1.4623444208704358e-06,-4.717939623925393e-07,0.07426547541867395,-1.0256596184475168e-06,0.09999889144116304,0.09999667248898633,-1.9277968629172154e-06,-3.9747819378903685e-06,0.09999655052515162,1.5371136921956988e-08,-8.34142830963858e-07,0.09999892364977359,0.09999907411622805,-3.8606761166984295e-07,-5.984180711459571e-07,-6.33555883678067e-06,0.09999945157294858,-3.280736583095011e-07,-2.4229058906526034e-07,1.609894309931438e-07,-2.875651440447716e-07,-2.3602893304901777e-07
19,2020-04-30,Simple + Baseline,1.4053221566102299e-08,-9.391597287240479e-07,-1.4186397167113028e-06,-5.5899200096756184e-08,0.09999849961002859,-1.425871565415329e-07,0.08810033761215709,-2.437225984772761e-07,-7.283638863767625e-07,-6.823446493315635e-07,-2.7062160460559897e-08,4.751628407263436e-08,8.332241046620581e-08,-6.59486220537042e-08,-1.070359988099604e-06,-4.980768426378751e-08,-6.293837054484699e-07,-2.386236493830857e-06,-5.463914161141901e-07,-5.615034889434835e-07,0.09999805698958619,1.8590699477021995e-07,-8.445585398121346e-08,-8.680840411909468e-07,0.09999791095419368,7.03107883456813e-08,8.413601595341301e-08,0.0027956478542484836,-9.031059237110477e-07,-8.951629960698798e-07,0.05143851225195547,-1.6066326651208248e-06,0.09999942253597097,0.09999830387591445,-1.4281002736604737e-06,-2.339894041502002e-06,0.09999706849538798,-2.3165472852936717e-07,-1.6100857281721206e-06,0.09999822773011849,0.05770505093251846,-3.0911490223209067e-07,-1.2708967488622531e-06,-4.32181545027014e-06,0.09999928555437285,-7.933563573515872e-08,-1.964072470375375e-07,-7.405643854737504e-08,1.136457586135499e-08,-1.045241425103427e-06
19,2020-05-01,Simple + Baseline,-3.5712508440306204e-09,-9.999863154732533e-08,-2.4228597741297515e-07,1.5807261727704843e-08,0.0999997791255366,3.168603107246035e-08,0.0806797838815196,7.747826876890357e-08,-5.51663742921741e-08,-8.096176808189951e-08,1.00554937810123e-08,1.3785037635718751e-07,8.347935430366947e-09,1.3111535040265246e-09,-1.514497009285266e-07,-5.410256588353852e-09,-4.19224958271501e-09,-5.455682599547618e-07,-3.119726425265579e-08,-3.1571282088492215e-08,0.09999971535456706,1.301592444932794e-08,6.307842302833484e-08,-5.3396256598822885e-08,0.09999948621945468,5.401226563938217e-08,1.2297778509382255e-07,0.002796347511789018,-9.048707258771841e-08,-9.752350824471508e-08,0.016529744317321383,-3.6119009054900523e-07,0.1000001091532168,0.09999968963079964,-2.575633522022939e-07,-6.356507770697205e-07,0.09999935009673494,2.7650393668707116e-08,-2.2697991687362443e-07,0.09999980301855371,0.10000026190043407,3.3583705397411104e-08,-1.7685060827133306e-07,-1.5760358028839211e-06,0.10000000075939745,3.553156131431319e-08,3.632270595276672e-08,-9.74780874502087e-09,9.500629557753733e-08,-1.0073455861274904e-07
19,2020-05-04,Simple + Baseline,8.612722577976945e-07,-3.89919923988644e-06,-9.303430164508566e-06,9.385250456894365e-07,0.09739744122612164,-2.337252568634562e-07,0.06682225031036063,-3.706884054350503e-06,2.400532047283686e-07,-8.265912064295612e-08,6.232725377338212e-07,-2.7090470012647105e-06,1.0134654966603868e-06,7.068865044048551e-07,-3.488109230174041e-06,7.177178120011452e-07,-5.782060611901633e-07,-4.729611486044086e-06,-4.986981651208601e-07,1.1626770335678044e-07,0.09999823036729263,-2.6066582430445404e-07,-2.0885985650571226e-06,-2.604248137131702e-06,0.0999952004000493,-6.476071794708149e-08,-2.9489055414792795e-06,-6.931430753916743e-06,-3.5003010120750505e-06,-9.317743531360641e-07,0.03589237310132385,-1.9029026513536979e-06,0.09999398426400742,0.09999135771475645,-6.281358282714793e-06,-5.7651980601732306e-06,0.09999322314031622,6.83432954348394e-08,-1.7643203708270665e-06,0.09999756332839767,0.09999691326847983,-1.7429490216948255e-06,-1.5515997909366221e-06,-1.2496281269043333e-05,0.09999784732638227,-9.371941051092333e-07,-5.765527188611975e-07,1.3040739241614176e-06,-9.961578183960071e-07,-3.5221244809863676e-07
19,2020-05-05,Simple + Baseline,-9.676859060447721e-08,-1.6802307321479764e-06,-3.656800725125967e-06,-5.2440515717320876e-08,0.09999945604375836,1.6703615026661598e-07,0.06245073140512332,-1.223219589781974e-06,-3.466508672985807e-07,-4.627715043374001e-08,1.6863943674827663e-07,-9.784220565268727e-07,-7.117546749859443e-08,5.633802694215955e-08,-1.1812348884889465e-06,3.591058847888487e-07,-2.4947113099812498e-08,-1.8682950048229068e-06,-3.04301193567855e-07,-3.6803674700880407e-07,0.09999880664675753,8.661210680311717e-09,-8.385374838340385e-07,-6.786728883081334e-07,0.09999751362233712,-4.2195500427887265e-08,-8.607386470041454e-07,-2.665880341151052e-06,-1.6866086319795743e-06,-5.20598360317178e-07,0.035886790884234104,-6.952736738062125e-07,0.09999820804538974,0.09999635938531644,-2.6557234647876816e-06,0.0017091716932600572,0.09999688525394623,-1.3142474339777678e-07,-4.047884884063775e-07,0.09999900170424245,0.09999892959717066,-5.034089442422265e-07,-6.497590194595965e-07,-6.470980363936624e-06,0.09999967009994258,-5.510257419571218e-07,-4.986921138278572e-07,1.1127089725588945e-07,-3.758912603655881e-07,-2.647941475179304e-07
19,2020-05-06,Simple + Baseline,2.39839015259034e-06,-6.486964897489599e-06,-1.968071906304263e-05,3.592475046606098e-06,0.1000011110409502,-1.8514580632398602e-06,0.04951531936085275,-4.914365057596347e-06,2.0374076853612053e-06,1.2038018618745616e-06,3.0632552926109653e-06,-6.04543448592715e-06,2.8825977515419517e-06,2.0471020597107206e-06,-5.5148618747021445e-06,1.0999388784531853e-06,-1.7893854396399658e-06,-6.577589210775049e-06,-4.0087514098465435e-08,1.8606943642657182e-06,0.09999976325360718,1.9532495547629854e-07,-5.091286424123293e-06,-5.11677948298143e-06,0.053802502077048606,-5.536203484175429e-07,-7.007278672420726e-06,-1.2474713088033215e-05,-1.2827804039262039e-05,-1.4248678535833015e-06,0.017456450911537514,-1.6408636341006206e-06,0.0999891094463363,0.09998103473142662,-1.1874383994779662e-05,0.09998252973543079,0.09999106790578276,1.5211702544525261e-06,-4.0879757342390275e-06,0.09999763128330913,0.07940671652703742,-5.615009056260313e-06,-2.631480199205599e-08,-1.9745555229651438e-05,0.09999356669488664,-2.3369473193515e-06,-9.715674071625823e-08,3.39049372985553e-06,-1.2814573149190198e-06,2.073550959151989e-06
19,2020-05-07,Simple + Baseline,2.8621387649353544e-07,-1.9313659434847668e-06,-8.903472385215648e-06,1.067845830973285e-06,0.09999993950195013,-7.642076329344243e-07,0.040781454697638324,-1.7949268490342784e-06,4.599557681163706e-07,7.595829989570221e-07,1.4634351699955528e-06,-2.2920763453098833e-06,5.613960709594541e-07,1.4286810936570434e-07,-2.1766839755364982e-06,5.030816713955012e-07,-6.231779399169457e-07,-2.4019675774306778e-06,-6.21438298150956e-08,-1.7899017400405828e-07,0.09999913191377241,3.309027616173413e-07,-1.3425668029990541e-06,-1.0078402921490178e-06,0.06478098401433437,7.667114198645361e-08,-1.3292799056766865e-06,-3.627318694410307e-06,-4.8939183357069845e-06,-4.5364242894365765e-07,0.02951631619513739,-7.469250699692299e-07,0.09999698618990242,0.06498810855314015,-5.031248558142455e-06,0.09999162949339431,0.09999584623722851,1.1358118221861879e-08,-1.677276566112764e-06,0.09999868844634464,0.09999920987259663,-1.011094148144493e-06,6.319988329198459e-08,-9.444995371911633e-06,0.09999796203004381,-9.976949473036838e-08,-3.984119792149515e-08,5.623609000424032e-07,-4.966009662356284e-07,-2.0960822960244746e-07
19,2020-05-08,Simple + Baseline,4.964635318069255e-07,-1.7114967919153067e-06,-8.29861034049643e-06,7.003204741308223e-07,0.09999937791614494,-1.7170614739147e-06,0.04301176176837236,-1.684244970463945e-06,5.800629692941752e-07,5.433918729092848e-07,1.5505275812553379e-06,-3.760667927685903e-06,5.323893747048238e-07,4.210250525567169e-07,-2.8748309693483037e-06,4.4464542421800836e-07,-1.4767600598059337e-06,-3.0133864747282206e-06,-5.690377170768977e-07,0.0021768709175723692,0.09999875535622907,-2.048828974905146e-07,-2.0095968487802154e-06,-1.541602540570672e-06,0.06830224420915047,-9.135627626399811e-07,-3.0441703338777784e-06,-3.6468317853042428e-06,-4.265301433235078e-06,-2.3746371216907418e-07,0.04821469285756876,-1.0666433205265456e-06,0.09999647232252522,0.06497508516424623,-4.988095097250727e-06,0.09998974297043545,0.07339898089623002,2.280894892140801e-08,-2.091696255278182e-06,0.09999922877912892,0.09999707151190487,-2.2175829176449795e-06,-9.325528231333446e-08,-8.18596533478666e-06,0.09999677089832833,-1.5479374255083766e-06,-5.780509624583694e-07,7.342227155829372e-07,-1.5065726885521873e-06,1.8024091067871035e-07
19,2020-05-11,Simple + Baseline,-1.2881556630830654e-07,-8.552410519560916e-07,-2.6984284171679615e-06,-9.8886155008892e-08,0.09999959134631647,-3.5018773733870765e-07,0.0430059979942924,-3.3679099252357487e-07,-2.4891861521942784e-07,1.4957895610585248e-07,2.7261767522727694e-07,-1.2293285884551675e-06,-1.5011571471041068e-07,-5.0301134144782016e-08,-5.869655682876138e-07,6.684160457231817e-08,-3.382027721196344e-07,-6.703778321304264e-07,-3.4398119962702667e-07,0.0021739024711411262,0.0999992924232408,-1.3880612996561398e-07,-6.296222963329057e-07,-2.7685809827425565e-07,0.07128900121191402,-2.778049359627937e-07,-7.082111165564009e-07,-1.1942745278522235e-06,-1.2616700489847968e-06,-8.958629575837294e-08,0.0482087045346675,-4.78912936521284e-07,0.09999931828677548,0.035351025682852574,-1.926846177340954e-06,0.09999590754075526,0.10000032639854001,-3.0783138058861246e-07,-5.398680413927147e-07,0.0999995629137598,0.09999903163257003,-3.8569495023084143e-07,3.256513364975593e-08,-3.356648491383908e-06,0.09999922230412611,-6.912598619311818e-07,-3.7641972736175845e-07,-1.3149513384942902e-07,-7.193735841076884e-07,1.6516793050216835e-07
19,2020-05-12,Simple + Baseline,2.686417361140152e-08,-9.190630193155002e-08,-8.651438111634352e-07,-1.1581660830007641e-07,0.10000000072967812,1.8199276688905354e-07,0.05248747493516071,1.4280534314732742e-07,-1.679564736709329e-08,6.875931697800998e-08,-9.923789314828357e-08,-2.547559441759723e-08,-2.0999355380447335e-08,-2.8472955765336396e-08,1.3859413501002672e-07,-9.270703501302759e-09,1.0765349540165226e-07,6.08031658956024e-08,2.9543951453608018e-08,1.6789418133792753e-07,0.10000006307491141,-5.274557813268383e-08,9.156262917688804e-08,7.952086306104342e-08,0.05227964104251822,7.380761045832559e-08,-6.11657553216324e-08,-3.425596477779849e-07,-2.968006296861896e-07,1.5760494776425367e-07,0.046917458268237906,1.6454820776415966e-11,0.10000014277208197,0.04831773539999593,-4.284325433271832e-07,0.09999880644666977,0.10000050009181474,1.0053671909334058e-08,1.9916476817004245e-07,0.1000001169476235,0.09999992074480006,9.440221432039807e-08,1.0848070468869122e-07,-1.3290254925641731e-06,0.10000014979204137,-1.0091026498270853e-07,-1.3510879271165365e-08,-4.889112442608e-08,-1.664612488424598e-08,2.1145691729819245e-07
19,2020-05-13,Simple + Baseline,-2.0181100614311805e-07,-3.327265002221635e-07,-8.694177588229157e-07,5.905325775459652e-07,0.09999990317787298,-1.0383887568297335e-06,0.013586044493271046,-6.301069060821002e-07,6.812369901896811e-08,1.2810158164557403e-07,7.813918778444619e-07,-1.1826353879129563e-06,8.242859484223334e-08,1.5639221137461667e-07,-1.0207532486708489e-06,5.2580042142019955e-08,-8.215582016907146e-07,-6.354785052551161e-07,-2.951034534909041e-07,-4.668115252411404e-07,0.09999929777623194,2.1879797620064455e-07,-7.347540529343879e-07,-4.223861370961852e-07,0.05788476067086226,-3.959839426609448e-07,-1.5222924925760795e-07,1.61278567133367e-07,-2.817209522818343e-07,-5.295290629476635e-07,0.05343156618387759,-4.0085695665496587e-07,0.09999936293680833,0.07511697317310097,-1.0371700465799162e-06,0.09999842106017677,0.09999914191566642,-2.211354227732006e-07,-1.360418918926172e-06,0.09999919238147088,0.0999994752289827,-5.231121913395318e-07,-1.1768841909923105e-07,-4.712454090431458e-07,0.0999986125608456,1.0309857392524736e-07,-5.997908974879583e-08,2.0209654912620552e-07,-5.482747533848966e-07,-5.418611676205096e-07
19,2020-05-14,Simple + Baseline,2.9959671771565027e-09,1.081093379556011e-07,-2.516002140105833e-07,1.242931242949335e-07,0.10000003737669039,-1.344954534246657e-07,0.01207654400405033,-7.710578461824075e-08,4.7240190189927894e-08,7.054480296442478e-08,7.487018969901654e-08,-8.704544068604897e-08,4.2021132745599116e-08,-3.565351871090436e-08,-2.7608181202146633e-07,-3.333454318255895e-08,-5.0309236454628364e-08,-1.6698269903451035e-07,3.1206025121610346e-08,-2.0117485049147664e-08,0.09999994931217093,3.8701485947099106e-08,6.936267992838483e-08,-7.015211917835822e-08,0.059373852705923796,1.9095795785234894e-08,2.060082269891073e-07,2.85383847163935e-07,2.013980642589514e-07,-4.346941317583972e-08,0.053433364494467436,-1.0373451839227178e-07,0.1000000765085624,0.07511751026316286,-2.350107555723668e-07,0.09999958457172359,0.0999998087500089,-1.0003536238340459e-08,-3.2266206810006624e-07,0.09999983783160293,0.09999990972522868,5.8827691298366244e-08,-2.72201070478626e-08,5.675097860327126e-08,0.09999981790110084,2.4760315438167646e-07,1.3883578926722043e-07,3.34562838079849e-08,-3.566704039846329e-08,-1.695920300408085e-07
19,2020-05-15,Simple + Baseline,-3.493313930981101e-08,-1.1708284981933799e-07,-4.294918284586101e-07,4.504515597495982e-08,0.09999976804223758,-2.676718477646303e-07,4.269272068806628e-08,-3.323959327475277e-07,-7.268912095941847e-08,-7.737278699051435e-09,1.7456758380336342e-07,-2.8728177988545114e-07,-1.3616222303384375e-08,-7.957985689171637e-08,-4.247093172688884e-07,2.0697581621348607e-09,0.03481242289654981,-3.7073615334102877e-07,-1.1410266712881351e-07,-1.6688557131584967e-07,0.09999955820895184,3.900466004756778e-08,-1.3727652639262885e-07,-9.150744096067409e-08,0.04673292124265335,-2.612082590638909e-08,2.850762547011571e-08,2.052429004927779e-08,-4.87689919807165e-08,-1.2435837852417647e-07,0.04708448237361238,-2.3870363533052146e-07,0.09999967613599539,0.07137848931587149,-4.3143449356944827e-07,0.0999992597451413,0.09999949829562926,-1.4924010602756297e-07,-3.584604585676037e-07,0.09999956780816935,0.09999957526308018,-5.617116707866629e-08,-1.1695807633025078e-07,-3.061601599117834e-07,0.09999982328081346,3.208226959152709e-08,-8.97696437391284e-08,-1.042810312988521e-08,-3.1751348945618547e-07,-2.024210226973099e-07
19,2020-05-18,Simple + Baseline,3.0269255832710997e-07,-4.278560670512398e-07,-3.3328326903934048e-06,4.2503981477681377e-07,0.10000012643787286,-2.939503474635214e-07,2.5787633945066307e-07,-6.569609040887393e-07,3.557138914274815e-07,1.0376855427228597e-07,4.3211655788002815e-07,-9.669716844052561e-07,3.3709720067180483e-07,3.155509763305885e-07,-7.482693508686928e-07,1.5461832421143493e-07,0.03755123873210217,-6.11626662394099e-07,-3.626008218792425e-08,2.8288977718890433e-07,0.09999985178848227,5.798988241511955e-08,-6.776166524044032e-07,-3.49284637884351e-07,0.011798808693069181,-5.8027048354105766e-08,-1.0605101511140864e-06,-1.6565894484195382e-06,-2.455642993203345e-06,-1.1757959575545634e-07,0.07929653045812028,-5.222727167241353e-08,0.09999883036457044,0.07137434058587803,-1.5429515544815904e-06,0.0999982963431408,0.09999912406501531,1.9228159199194303e-07,-2.6478116393426586e-07,0.09999996872518369,0.09999952051197168,-7.447524843972217e-07,4.7563458541629356e-08,-3.469023068589825e-06,0.09999954955292599,-2.8705846595414304e-07,-8.549110535997164e-08,4.0758660611999e-07,-2.1649490174960737e-07,2.638914543989742e-07
19,2020-05-19,Simple + Baseline,6.557538970216645e-08,-1.2112910970235246e-07,-1.5196505289743688e-06,7.372271967501124e-08,0.09999991195715965,7.696037539196094e-09,1.172457787908001e-08,-1.9674925944189706e-07,-2.1106548406645294e-08,8.411635600593526e-08,9.788674715788992e-08,-2.2178251478628372e-07,7.148755539269394e-08,1.0392501948323004e-08,-2.1336711718046107e-07,2.7672511370027645e-08,0.08691507449302077,-2.009471611829912e-07,5.2678372613306446e-09,7.117647494130045e-09,0.09999988991062252,1.9534240773328033e-08,-7.792767089363469e-08,-5.3051468941556186e-08,4.4010054613598166e-07,6.860213193485992e-08,-1.9019459795165063e-07,-5.58346646759035e-07,-9.670130056442336e-07,4.74760873301672e-08,0.08009310626280557,-1.3604530794357316e-08,0.09999976025812593,0.03299971159459493,-6.384437019079391e-07,0.09999925218469564,0.09999964660022848,-9.635502343155718e-08,-2.3241981769045728e-08,0.0999998668238906,0.09999978521247783,-3.876873001725544e-08,3.6157464657402685e-08,-1.7825308470709361e-06,0.09999994552663338,-1.7028994624098135e-08,-5.559177757533812e-09,6.207813354350479e-08,-2.6965970533250573e-08,-1.0288876814901526e-07
19,2020-05-20,Simple + Baseline,1.4460673330637916e-08,-1.4178536316265526e-08,-6.501995886077161e-07,1.710104496560255e-08,0.09999997741083762,1.1413788344147806e-08,0.03158866247407452,-3.974675073499511e-08,5.782725655068487e-10,4.438521101697289e-08,4.0728810038300546e-08,-3.750238060624721e-08,1.3872854485987477e-08,3.409420487773631e-09,-4.245548385786283e-08,4.687049450318114e-09,0.08691511193033812,-3.726252623125848e-08,1.1682826642026533e-08,3.278870500475027e-10,0.09999996567786532,7.224630354822381e-09,5.980825378206373e-09,9.26064654414431e-10,1.9779674533163196e-07,3.801062440966681e-08,-2.0419959851612554e-08,-1.6264221786297503e-07,-3.707292506034407e-07,2.7445219478993997e-08,0.08129705763537536,2.0496469326697767e-08,0.09999995969763799,0.00020167524862269324,-2.4416927929624355e-07,0.09999970395761089,0.09999989272120136,-1.6851694823871896e-08,1.5676774247565307e-08,0.09999996721673879,0.09999993971606608,9.43863852998925e-09,2.4457559384621963e-08,-8.544012539003705e-07,0.10000000016456978,3.902051882047357e-09,1.3365979700024333e-08,4.4781274485075556e-08,1.0595439676132386e-08,-6.245139503314115e-09
19,2020-05-21,Simple + Baseline,1.9738942075866188e-07,-1.0916749628070385e-06,-2.122930413088821e-06,-8.0298913892791e-08,0.09999910075264246,-2.3140948622159763e-07,0.04743102919504902,-1.5044091090199771e-06,-9.17378930500367e-08,-3.3191827968180925e-07,5.7572874699730525e-08,-8.185253194954874e-07,9.291881250252609e-08,-1.1803435057721e-07,-1.6619777161568883e-06,-9.51795658107568e-08,0.07813624503167867,-2.2518669259100088e-06,-2.426448222203851e-07,-8.957288716894044e-09,0.09999894434593862,-5.195427215983896e-08,-6.048286700657002e-07,-8.082880483744974e-07,-1.1951140537681442e-06,6.556758636391594e-08,-9.106623230618491e-07,-2.4665738991608186e-06,-2.603358141318867e-06,-3.550089192306832e-07,0.07427640144081933,-1.4201431554578009e-06,0.09999882276742557,0.00019973409032221623,-3.0778081971326678e-06,0.09999613781752986,0.0999981619245457,-2.3430453089224147e-07,-4.7515724201707097e-07,0.09999921091172327,0.09999808756838853,-5.237136174417722e-07,-5.999991583489597e-07,-4.212856630042592e-06,0.09999978994271132,-4.0660305664887125e-07,-4.926406092942302e-07,1.3075240133782679e-07,-1.0554265487966148e-06,-4.688535507053105e-08
19,2020-05-22,Simple + Baseline,-7.303998951466705e-08,-8.176816667001273e-07,-1.793674377862964e-06,-2.2876491255702099e-07,0.09999905845554521,-3.5261334331196576e-07,0.047429293952320255,-9.69819155117223e-07,-3.200971168776735e-07,-2.4511524060823827e-07,-1.0459056951929614e-08,-7.595950641978702e-07,-1.0242209956372236e-07,-8.811559768188226e-08,-1.1563067278312745e-06,-6.52278697681725e-08,0.07813419578263614,-1.4270133836017568e-06,-4.4936756219004683e-07,-2.3016511520111941e-07,0.09999891603629979,-5.343273561653241e-08,-4.4212299153511565e-07,-4.775465869560412e-07,-1.4439893101051376e-06,-2.1468753470701205e-07,-5.80962719667231e-07,-1.483948162984005e-06,-1.8482633776472293e-06,-2.8192588015472515e-07,0.0742743025549162,-9.353792812797478e-07,0.09999935954010175,0.00019755633663234742,-2.136954766616561e-06,0.09999743834165511,0.09999863829186893,-4.3229095429267993e-07,-6.129547708548496e-07,0.09999923429104061,0.09999863734916925,-3.191702098801646e-07,-3.779167604888276e-07,-3.2728600999102528e-06,0.09999956833136546,-3.94862396572501e-07,-4.854997793844364e-07,-1.1455419781234461e-07,-7.170208917616593e-07,-4.745648087105411e-07
19,2020-05-26,Simple + Baseline,-1.2598840989171532e-06,-3.233501473740599e-06,5.123546520832698e-07,-1.4367713320883243e-06,0.09999354474388933,-1.5014546223285627e-06,0.06905449019976849,-2.93450274153705e-06,-2.654144806362712e-06,-8.659318504385304e-07,6.601364836203349e-07,-1.8854341116109322e-06,-1.232611981070699e-06,-7.592117913280893e-07,-2.7400597301426633e-06,-1.945727377442115e-08,0.04590896959742526,-4.174483926343078e-06,-2.385264960291202e-06,-3.0931934161138583e-06,0.09999122435166335,1.2414725614773615e-08,-1.736003965232653e-06,-7.862881739751279e-07,-5.702219010007079e-06,-1.0603008892521026e-06,2.1332931519676964e-07,-1.3827768313937298e-06,-1.5080646075156678e-06,-1.5903041466288337e-06,0.07425584108152826,-2.9884403326555406e-06,0.09999868589253749,0.01088900197666743,-2.7915273848412063e-06,0.09999623422817452,0.09999472804506362,-2.2622604810345526e-06,-2.1060294986579586e-06,0.09999404594796316,0.09999508072312825,1.4561244035257482e-07,-1.7650083052964194e-06,-5.3406544567831e-06,0.10000054754112474,-1.3993766166168475e-06,-3.282950132802496e-06,-1.5280819720235635e-06,-2.6402103883104936e-06,-3.8725259605073345e-06
19,2020-05-27,Simple + Baseline,-9.470636367972747e-08,-9.892905824364589e-07,1.1459808262511052e-07,-2.754801419013482e-07,0.09999781298681219,-3.6111831926930887e-07,0.09843730972570273,-9.759116591655925e-07,-5.022983990961267e-07,-1.1870357078480471e-07,2.072384468871401e-07,-5.54635177535784e-07,-1.2658689700558837e-07,-1.126829898816451e-07,-1.0405530398152667e-06,0.00837397230931345,0.03815778286905417,-1.6153045805825417e-06,-5.992367428576208e-07,-5.2897905171811e-07,0.09999713963486614,6.360414831382084e-08,-3.4603177581592684e-07,-1.2422091751491117e-07,-2.7909368292983414e-06,-1.2964695689601376e-07,1.9230765154029472e-07,0.004348029211726192,-6.523089380645829e-07,-2.7123281396360206e-07,0.04092112743703294,-1.031193723532679e-06,0.09999976625273067,0.036153114249285495,-1.2857150272142382e-06,0.09999814035047724,0.09999800724138755,-6.37915877323125e-07,-6.073691891504927e-07,0.09999828211864287,0.09999815969126008,1.528914199506669e-07,-3.68786282673704e-07,-2.950937452683005e-06,0.07364273721234223,-2.140683194639692e-07,-8.234999255261548e-07,-1.8244267573411769e-07,-7.909566325433758e-07,-1.0068450112988984e-06
19,2020-05-28,Simple + Baseline,4.838897988609821e-07,-2.7656521784318504e-06,-4.640758398521391e-06,1.9437979008370735e-08,0.09999619937086865,-1.1740807467452394e-06,0.10000014502178131,-4.847066855553279e-06,-3.8510352018430504e-07,-2.57876986516204e-07,8.568160083618516e-07,-2.5577016575174567e-06,2.621003163977205e-07,-2.1238756969958903e-07,-3.7617395530640994e-06,0.029476951489345034,0.043640226165059325,-5.3525606001565635e-06,-5.18382084603384e-07,-7.88253677595673e-07,0.09999465401004161,-2.851074714806007e-07,-1.1344596655947895e-06,-1.9235052597383434e-06,-5.621924290258907e-06,1.0702312829141753e-09,-1.9316462032419133e-06,0.004336298522234344,-5.64464737408006e-06,-6.134674970061954e-07,0.025791710059680742,-2.846618336133991e-06,0.09999748286571945,0.03614119955905426,-4.365041866681054e-06,0.09999020638532807,0.09999525136048097,-1.2939990140315025e-06,-1.7513289109870582e-06,0.09999574176121652,0.09999462005971098,-6.877482395957427e-07,-1.3757699726667258e-06,-8.617295415136417e-06,0.06071855954651358,-8.025389082912979e-07,-1.4783586386503587e-06,3.941147422878223e-07,-1.7723873287712525e-06,-1.80807569507691e-06
19,2020-05-29,Simple + Baseline,5.6038250268209584e-08,-8.058419778429314e-07,-2.070024316804091e-06,5.544410526640141e-08,0.09999881371547588,-2.0582305378461e-07,0.10000000414266072,-1.5095680020852203e-06,-4.0814821682134576e-08,4.205038406158693e-08,2.4667194489877854e-07,-7.491045822675441e-07,5.7312978672966444e-08,-3.738078203692267e-09,-1.3432149361366894e-06,0.010220670019960715,0.09999998762308147,-1.9620781092761576e-06,-6.126784096500794e-08,-1.0566779038934945e-07,0.09999834875306819,6.1975554030470505e-09,-2.0369478980169747e-07,-3.6690738974498533e-07,-2.4538488530828265e-06,8.611044948498851e-08,-4.405820393015111e-07,0.004336316480656515,-2.3981686886882e-06,-5.970553331437702e-08,0.025791883208409867,-8.791823272244702e-07,0.09999963787741087,0.04164276340529277,-1.8725614392353655e-06,0.09999572433799221,0.09999832642668723,-2.8924364482681385e-07,-4.5640282620193045e-07,0.09999889734592489,0.09999817300448971,-6.836916194753766e-08,-2.328645578083189e-07,-4.441764327154696e-06,0.01804412150899542,-1.1318959304144339e-07,-3.142748892536411e-07,5.651127382341003e-08,-4.3317083763234146e-07,-3.932717625600978e-07
19,2020-06-01,Simple + Baseline,1.868605276974515e-08,-2.0324186869514264e-07,-5.860837199314683e-07,3.1772019734535614e-08,0.09999975470462863,2.4532297751328398e-08,0.09999999179195626,-3.923201207291026e-07,5.543065323707167e-08,6.774899149193226e-08,9.68363556804049e-08,-1.6584322447137712e-07,1.0438713209153661e-08,1.605252332021619e-08,-4.143250499805998e-07,0.012124249228652254,0.10000004907999858,-6.564602801583129e-07,1.514090854446974e-07,-5.7606070284188205e-09,0.09999959144784508,-1.7214002611687697e-08,-1.2946895236951023e-08,-2.6454287391939723e-08,-9.22370935556351e-07,3.2704533412663335e-08,-3.83301650313211e-08,2.438493957146526e-07,-8.650243070057079e-07,-1.1694329841422361e-08,0.028197583427586752,-2.1459916158114364e-07,0.10000001729935533,0.041643256701359176,-5.43590819575839e-07,0.09999837763018492,0.09999957359788421,2.82218550863748e-08,-3.3752621725639454e-08,0.09999976744346883,0.09999953286771562,3.4014361569159265e-08,-2.7224169149097506e-08,-1.973162757504213e-06,0.01804447440010025,5.756980133420673e-08,-1.0036663344996102e-08,6.081976124177599e-08,-2.6245955070730076e-09,-3.1115273369656946e-08
19,2020-06-02,Simple + Baseline,9.346159988248418e-09,-6.154990305238284e-08,-2.4720504821322205e-07,2.0775445825215637e-08,0.09999994333777719,1.7486412921601232e-08,0.0999999965630326,-1.1767678304395954e-07,1.4234155441818408e-09,1.6773656138082988e-08,1.8843661870421457e-08,-3.6632478657004904e-08,6.789982148237221e-09,7.535065065961877e-09,-1.4946291034200963e-07,0.012123905517883091,0.1000000116382049,-2.347488173253401e-07,5.131315342390757e-08,1.0777726290048524e-08,0.0999998981530911,-2.813774599717504e-09,-6.390229885280645e-10,-2.5157233306477972e-09,-3.922069271634532e-07,3.5656279989462575e-09,-1.0177219612420724e-08,8.215289311285634e-08,-3.7071033537204875e-07,-2.4592477495865543e-09,0.03505819999041569,-5.646281842914259e-08,0.10000000419877136,0.052821653366281654,-2.145733822099802e-07,0.09999929713480454,0.09999986120283187,2.2898289202964358e-08,2.5836178083546937e-09,0.09999995512297888,0.09999986039071786,4.468552062795035e-09,-2.089393090630144e-09,-1.0096236561432636e-06,1.5925459957146863e-08,4.697572028466446e-09,6.075944663199416e-09,8.486455222940232e-09,5.1674706855528766e-09,7.634486381571751e-09
19,2020-06-03,Simple + Baseline,-3.2810747852280324e-07,-9.037161503894744e-07,6.071145581840402e-08,-3.291105759963753e-07,0.09999742425264486,-4.983510215883975e-07,0.09999926755150708,-7.88148982876911e-07,-1.2161619625503431e-06,-1.3504692832992466e-07,2.2054196703170314e-08,-5.191737657964897e-07,-2.8438207391378964e-07,-4.949724077412581e-07,-1.1836637794921194e-06,0.012106579729761605,0.09999890805888419,-1.6223559004001085e-06,-3.6810333401456726e-07,-6.913645192539978e-07,0.0999973691830248,-8.473381651005299e-08,-6.171393332387054e-08,-5.758461494127125e-07,-2.935802438831277e-06,-2.756171761363742e-07,3.4557021652953814e-07,-1.8907957370209326e-07,9.431224680809588e-08,-5.084883345670198e-07,0.035942190557053166,-9.218614559675941e-07,0.1000000377847193,0.051991326397366394,-1.5526613577788973e-06,0.09999843207003885,0.09999819100099464,-1.2664463772306183e-06,-1.6588860908476268e-06,0.09999777728521161,0.09999819032381653,1.1618955392509781e-07,-5.146694099477273e-07,-1.513064955947912e-06,-7.601045001164387e-07,-3.3704733144538715e-07,-7.353757431498611e-07,-4.865731685699632e-07,-1.0196348508023796e-06,-1.565209006762453e-06
19,2020-06-04,Simple + Baseline,-2.9914672589796104e-08,-6.293579401039198e-07,-1.273515461617335e-06,-4.2465048289921016e-07,0.09999821253899185,-7.862900781515093e-07,0.09999970758563392,-9.819157229842567e-07,-3.4756235928151686e-07,-5.6545118461345725e-08,1.4283409293689233e-07,-1.1744115538624985e-06,-1.8398459654896479e-07,-2.3724871122384068e-07,-1.1572706214815587e-06,0.02557694967756106,0.09999930680549933,-1.3444578264647552e-06,-3.2592809266317727e-07,-1.911567036372765e-07,0.0999980138760919,-2.14058886429988e-08,-4.097690910437307e-07,-3.8227659460815106e-07,-2.32900431648233e-06,-2.890723424399002e-07,-2.804228076555966e-07,-7.991508668157019e-07,-7.287966522507916e-07,-2.116647898620424e-07,0.036418540916201975,-7.597483060704595e-07,0.09999958633284182,0.05198853677941199,-1.6408674251956114e-06,0.0999971585589324,0.08605165296560986,-7.950603289003742e-07,-8.732596736446432e-07,0.09999869729603053,0.09999843667198696,-1.0609879994247538e-07,-3.7475449217121964e-07,-2.1403560454095802e-06,-8.253873957682707e-07,-2.9239363800861216e-07,-4.895382851713195e-07,-1.6275734492141222e-07,-8.025654570871242e-07,-1.0731295861936566e-06
19,2020-06-05,Simple + Baseline,1.6348497565246575e-07,-4.765739027580231e-07,-1.6278551430876475e-06,-1.527196132812724e-07,0.09999900639880181,-5.166996379124316e-07,0.09999990418210694,-8.088315397992178e-07,1.4407285873217179e-08,1.4443148992953594e-09,2.0000454574114143e-07,-7.644963229032477e-07,-1.1433241604672703e-08,-4.2594173242683446e-08,-8.861386411099918e-07,0.05952183071116867,0.07074616025909443,-1.0116557044295694e-06,-6.366706296380297e-08,7.809607801175304e-08,0.09999879804928832,6.499783205538066e-09,-3.339529967574979e-07,-2.387420167233997e-07,-1.547529984466204e-06,-1.5004224436458847e-07,-5.303189442346135e-07,-1.0012227216098034e-06,-1.1882206299408087e-06,-9.143985578632266e-08,0.04166806111386229,-4.582127937517184e-07,0.09999952420098819,0.051986089172673174,-1.2540088602227997e-06,0.09999759314256843,0.07610276102927938,-3.105008152877103e-07,-2.611347552932577e-07,0.09999926922801435,0.0999989470921544,-1.3257024796117251e-07,-2.247309467279048e-07,-2.5981527037532275e-06,-2.7592021707755846e-07,-2.1570340005181012e-07,-2.2893404587392792e-07,8.389319111396777e-08,-5.425927671732449e-07,-5.375721215373117e-07
19,2020-06-08,Simple + Baseline,-2.0661344255515052e-07,-3.7603285410295536e-07,-3.4430843628351467e-07,-3.7004839993853085e-07,0.09999912076552701,-2.8054385233428456e-07,0.09999968075454883,-3.6418915376881626e-07,-3.4646328283825466e-07,-6.14631839308509e-08,1.9283884519907617e-08,-4.7680446799115755e-07,-2.909738547745202e-07,-1.5039200616460694e-07,-4.07721193314914e-07,0.07944162752776147,0.07074465487551788,-4.814899037592277e-07,-2.439063515699706e-07,-2.8839387621098837e-07,0.0999989140103303,-2.9077260702214318e-08,-2.685696463216219e-07,-1.0650262241457391e-07,-1.122002775597586e-06,-1.9552150317051884e-07,-1.2215800131799552e-07,-4.391769808182756e-07,-4.3634921132773844e-07,-1.6091796211015452e-07,0.04166519481927477,-3.748526434210787e-07,0.0999998408416896,0.06331445136660468,-6.178465989469107e-07,0.08744723281063362,0.05740320762889585,-4.786639226504595e-07,-1.9436838112012485e-07,0.09999940482593356,0.09999937426516867,3.8405488641299565e-08,-1.969856231855765e-07,-1.3476886217683353e-06,-2.098373143019225e-07,-2.568514046847818e-07,-3.3862386040566364e-07,-2.749689947801591e-07,-4.2319874787429686e-07,-4.794842724207363e-07
19,2020-06-09,Simple + Baseline,-2.5558382740443687e-07,-1.4696171742510202e-06,-5.116174643055636e-07,-6.261974610692187e-07,0.0999963406124398,-9.088692756571532e-07,0.09999950210885193,-2.4756262847298494e-06,-1.195762255336843e-06,-1.227957400399724e-07,2.213533156935734e-07,-7.092725644325414e-07,-4.610403769442706e-07,-8.271768250486981e-07,-1.8388088520502337e-06,0.06170654781336718,0.07175333682204979,-2.868802605186828e-06,-6.173736899434836e-07,-1.4278371238057202e-06,0.0999958440018158,-3.37248191181246e-08,-2.361925078701889e-07,-7.788907250468881e-07,-6.310770692555325e-06,4.2053760442484165e-08,6.87047114302092e-07,-1.1443639532201631e-06,-9.985432801449317e-08,-4.242596962556396e-07,0.04156167492556539,-2.261542921145634e-06,0.09999944040795108,0.06764310970847065,-3.1893024050351386e-06,0.09999644654781938,0.057396686938121735,-2.0069199661342768e-06,-1.203901692759923e-06,0.09999558666208704,0.0999965903712764,6.381312461151412e-07,-1.0971740776335797e-06,-2.7864444251062592e-06,6.904200779136635e-08,3.344255900639823e-07,-9.065218205925825e-07,-4.2724545808269557e-07,-1.4788769829137585e-06,-2.3737621468445767e-06
19,2020-06-10,Simple + Baseline,-2.4024517987791966e-08,-4.032732510895101e-06,-5.802187142095073e-07,-1.501361395410859e-07,0.09999566950669472,1.032308169054611e-07,0.09999932729071047,-5.927044753849648e-06,-9.869670389895237e-07,-6.068486641883285e-07,1.5676226692520606e-07,-1.5010400477598483e-06,-4.5725053347957483e-07,-5.241386166206075e-07,-4.282138980416247e-06,0.03923526080318501,0.09999919446820996,-7.030486679876774e-06,-1.5527629271674884e-07,-1.488277653665175e-06,0.09999302706201661,-4.492066371735738e-07,-2.440406096505423e-06,-3.9167306241161175e-06,-8.747801031558251e-06,-1.3535550378462942e-07,-1.1602042289485566e-06,-7.072770939746162e-06,-1.5766298724122296e-06,-1.683723442314638e-06,0.03384451352586146,-3.41529787468291e-06,0.09999772274749652,0.06763602475885955,-6.664718624803898e-06,0.09514408496218904,0.057381448231064024,-1.913277832955104e-06,-2.614084101449154e-06,0.09999316525651854,0.09999612184673186,-7.085671734659108e-07,-2.483128802832518e-06,-9.587473511186735e-06,0.006872518109191836,4.300220122806469e-07,-1.2811926762049386e-06,6.441037733603764e-07,-2.2508419178558764e-06,-3.531601251453607e-06
19,2020-06-11,Simple + Baseline,3.93964084470636e-08,-1.2705029243918243e-06,4.532001714920321e-09,1.087584340322929e-07,0.0999984165860899,4.960155954697178e-08,0.09999999396169622,-2.0126985257036064e-06,-2.0775435958642304e-07,4.852269505071746e-08,2.639958911805545e-07,-3.170413704646927e-07,2.9608624892380927e-08,-7.971398341029897e-08,-1.6008865288027925e-06,0.015344021423334695,0.08369373990069942,-2.545607918125845e-06,3.376992334351545e-08,-4.4643201206816577e-07,0.09999758687275526,5.559785984831066e-08,-4.1444199010792583e-07,-7.645479066532145e-07,-4.294131318418172e-06,1.5403353863745826e-07,2.9251933420669855e-08,-2.1558142599816925e-06,-3.585041099382611e-07,-2.326691705877449e-07,0.000822319516437898,-1.1256594920708394e-06,0.09999962470077466,0.09330148651447356,-2.9215801706064713e-06,0.09999997720408552,0.09999963111560958,-5.743037502288736e-07,-8.226799931863403e-07,0.09999778445213423,0.099998574321816,1.2528643196298697e-07,-4.709788703849163e-07,-4.615958984765856e-06,0.006874597016923868,2.926420264075261e-07,-3.2379972955335783e-07,1.1294790648187445e-07,-5.916727745267553e-07,-9.527559644403432e-07
19,2020-06-12,Simple + Baseline,-8.46590743177678e-07,-7.102406802648924e-07,-5.7314576058284944e-08,-2.14003792589682e-06,0.09999430753367894,-1.2553221108246639e-06,0.09999954693969346,-1.7364090611890058e-06,-1.8741994908376398e-06,-4.2321614924939795e-07,-6.667960033077205e-08,-1.0016102323880746e-06,-1.3705330630558341e-06,-1.6577044128262331e-06,-1.9097324257472524e-06,0.03526946161062224,0.09999921835105205,-2.832597597174966e-06,-8.286188867789994e-07,-1.638188884088917e-06,0.09999398342905338,-2.0304593946250743e-07,3.1422800384789706e-07,-2.5135550762010377e-07,-5.140044856018034e-06,-6.502521059241311e-07,1.0341912109488443e-06,-5.680286482494388e-07,1.0510282862077879e-06,-4.591719693583478e-07,0.05065122953240619,-2.97220075198954e-06,0.10000022254414768,0.03768952039550654,-2.504971324288983e-06,0.09999632685693054,0.03474067623992305,-3.483478927756497e-06,-2.0630301211802443e-06,0.09999561931839494,0.09999561522160187,9.45235837257936e-07,-1.3581148219399656e-06,-3.002012924010035e-06,0.04172277027847921,2.204057533473538e-07,-1.7146511425346848e-06,-1.367559114317396e-06,-2.1231075014214354e-06,-3.840756835818384e-06
19,2020-06-15,Simple + Baseline,-3.206159090315233e-08,-1.5460679250158974e-07,9.798402090908722e-08,-2.525037985231716e-07,0.09999812093505718,-1.5281406509730204e-07,0.07333593282312059,-5.112707268582706e-07,-2.852890261611617e-07,6.92957615325354e-08,1.9724254428620145e-07,-3.2122763912467916e-07,-1.0079950469868876e-07,-6.445264418556664e-08,-6.617789484413168e-07,0.03526989202914674,0.09999988161067339,-9.873880929455489e-07,-9.337239806950458e-08,-2.3611870999832947e-07,0.09999793773196929,7.14604083611453e-08,1.0675287735477563e-07,1.183569173468164e-08,-2.2481873832459547e-06,-4.989969554794538e-08,3.9749633796648186e-07,-1.23622563988646e-07,5.501320618615351e-07,-1.2571698388270033e-08,0.07632552530212237,-8.525605562537068e-07,0.0999998811690504,0.09102849890748738,-1.062077100844893e-06,0.0666510065476677,-8.414135073368505e-08,-8.803986344628737e-07,-5.753988568122085e-07,0.07333990059443408,0.09999850479821815,7.183952353022464e-08,-1.928299136605882e-07,-1.3692577523454397e-06,0.08406641212340986,8.570283726850694e-08,-3.780547764811666e-07,-6.536814188754436e-08,-4.999450003586898e-07,-9.063852970940787e-07
19,2020-06-16,Simple + Baseline,8.070808826468801e-07,-3.0262367469171525e-06,-7.358057549800053e-06,8.136382749294758e-07,0.09999748790973281,-1.3394242495330076e-06,0.08701707865999263,-3.580944465611166e-06,1.2062159260515608e-07,-2.345590104757572e-07,1.0282276620568778e-06,-2.088668502085584e-06,3.4127013916022604e-07,3.273035631233244e-07,-3.7676058494323892e-06,0.03223184555176317,0.10000023225948608,-5.089044972022871e-06,2.7605228061032355e-07,-2.2196162267908145e-07,0.09999594887699562,2.845052238362985e-08,-1.6053610107325051e-06,-2.3322735425698457e-06,-4.048000139495359e-06,-8.096438035878145e-07,-2.5686715501127846e-06,-4.547246042897022e-06,-5.941154708853626e-06,-1.3153785417623823e-06,0.030051301091795997,-2.024465558066951e-06,0.09999788679228168,0.09999237504116852,-5.938006205401569e-06,0.06664252668654633,-4.850339559802355e-06,-4.4991792810945587e-07,-2.8220848854717547e-06,0.09999673037233418,0.0894389955188691,-1.767540399911992e-06,-1.117097483397016e-06,-1.0053411638360143e-05,0.09471530702434228,-2.8971984695250665e-07,-6.598893427977165e-07,9.954119381454132e-07,-1.438051455519898e-06,-1.1352349737770325e-06
19,2020-06-17,Simple + Baseline,5.990113855737099e-08,-6.30451323511455e-07,-2.2160390367417796e-06,2.356837506347059e-07,0.09999943107302983,-1.0264197570864423e-07,0.09999992082852985,-7.127050713375495e-07,6.168038187503338e-08,1.796667478367339e-07,2.467993840222531e-07,-1.8919280877564886e-07,7.821665814793756e-08,1.4491940677712776e-08,-8.364403694413802e-07,0.017057216406430247,0.049025264513188276,-1.4186995647847406e-06,2.5503306756866725e-07,-1.9768873629483168e-08,0.0999990129441846,1.8784284007371022e-08,-1.5432674717567862e-07,-3.2071876325178556e-07,-1.2813508433496173e-06,3.4100582395213656e-08,-1.7175401049619648e-07,-9.01978742842489e-07,-1.7275673744806046e-06,-9.805812812303134e-08,0.04426140787682744,-3.795707721970679e-07,0.10000006988973911,0.09999770249289933,-1.937663887898865e-06,0.10000179760235758,-1.1490917338385532e-06,6.855804858111761e-08,-6.368095168305862e-07,0.09495911086181183,0.10000075989199378,-8.035975986477314e-08,-2.145475401057177e-08,-3.7567841046695373e-06,0.09471573938020404,1.3204948331846684e-07,3.5995025081940674e-08,1.245120881674131e-07,-1.1090835505895747e-07,-1.3374447922633766e-07
19,2020-06-18,Simple + Baseline,5.70351058600507e-07,-6.322719721123859e-07,-1.0868869837248866e-06,-5.4035302268954e-07,0.09999807651047522,-9.436222310608107e-07,0.08833178092398611,-6.228530054066059e-07,-5.827877464120264e-07,6.726614552732121e-09,-1.678074898125723e-07,0.042009613887564724,-1.8516827805172626e-08,-3.5845724052485374e-07,7.665060023361621e-08,0.0015032405943445025,-5.834920932102693e-07,-2.507091464301419e-06,-6.195527134381333e-07,-5.592519000318005e-07,0.09999931257820593,1.1016677038311865e-07,-5.425566998921494e-07,-6.402955165097522e-07,-3.0835105461459477e-06,5.65575632516629e-07,1.7292790447959494e-06,5.510363118471279e-07,-1.662926562973317e-07,-5.307743853263377e-07,0.0778493361537489,-4.584029899676934e-07,0.10000003720081095,0.0999998765140134,-6.661305603552584e-07,0.09662246793688409,-6.874308244823684e-07,-7.277425521352263e-08,-8.361735012783066e-07,0.09999703723914279,0.09999919502668572,4.2339443500390946e-07,-4.5372655741729415e-07,-1.5196741091803494e-06,0.09370592462057042,2.977535852674458e-07,-5.231595202395224e-07,-2.3099180738260803e-07,-3.4609422886864286e-07,-2.420229895460881e-07
19,2020-06-19,Simple + Baseline,-5.027801157629147e-07,-2.38639421987053e-06,0.07323442737047912,-1.0578360385002635e-07,0.09999588451901302,-1.109991498496566e-06,0.08121281888382233,-4.013717506007759e-06,-1.535319518035185e-06,-5.191257438316569e-07,6.395711369667639e-07,-3.6168648469129776e-06,-6.756127581047051e-07,-8.488615376843983e-07,-4.0493220661216e-06,0.02499066188391629,-1.6815449759763187e-06,-4.370053764559617e-06,-1.434786982474589e-06,-1.7190607932635492e-06,0.09999394411227717,-3.136358821858814e-07,-1.5551904499661975e-06,-1.6651201874744852e-06,-3.876820229856802e-06,-1.2784574849465623e-06,-4.2165337505001585e-08,-1.9687320290096133e-06,-8.245814417314785e-07,-1.171493108656845e-06,0.02695528689817536,-2.028894644302346e-06,0.09999906292238783,0.0999969237656637,-5.312026154047194e-06,0.09999606143626481,-2.9300189703290828e-06,-2.4284993019460977e-06,-2.772026912436524e-06,0.09999629720147983,0.09999740367607576,-2.769691636588921e-07,-1.0633133335362682e-06,-2.5690728888980345e-06,0.09369938928246563,-4.679802731084731e-07,-2.162401634996108e-06,-5.761211950173051e-07,-2.498142845264343e-06,-2.433870544244456e-06
19,2020-06-22,Simple + Baseline,9.593250056204421e-07,-3.145643591088271e-06,0.07321828132208356,1.4130709497354423e-07,0.09999504054702174,-1.7628652777432517e-06,0.08121445858165859,-6.194314200472732e-06,-4.6234252919422165e-07,-3.993082487891859e-07,1.1217784773829647e-06,-4.444314674171175e-06,1.8995039554485554e-07,-2.2911677026867423e-07,-5.855511569348274e-06,0.032466752569847164,0.011407339533140425,-6.098227330811023e-06,-9.08916946090462e-07,-8.172862420162664e-07,0.09999266426960964,1.8468397944554798e-07,-2.417926569200075e-06,-2.1145217320878597e-06,-8.590636089777744e-06,-7.798083816690195e-07,-3.057679780560553e-06,-4.860401942053632e-06,-9.534049091037981e-06,-1.2046135932104048e-06,0.0018515457583675315,-3.4189067484743625e-06,0.09999654073151457,0.09998900784623344,-1.010487769845332e-05,0.0999875999461629,-5.713310312845321e-06,-1.8268967615025496e-06,-2.9135663854990484e-06,0.09999532754182976,0.09999516134417064,-1.2819667522760117e-06,-9.858379251617657e-07,-1.3603651725486751e-05,0.0999987026896796,-1.289732915677749e-06,-2.53411824363716e-06,5.986167999400064e-07,-3.3103895317389934e-06,-1.69550162074877e-06
19,2020-06-23,Simple + Baseline,3.644449788108086e-07,-1.1338039653243587e-06,-1.9433401485989603e-06,8.045740069302731e-08,0.09999775196401234,-5.471819793809721e-07,0.08866634206824173,-2.5522405238995363e-06,-3.849869773279673e-08,7.039081667625062e-08,6.27659220842875e-07,-2.1332976422141783e-06,-5.881047848628206e-09,-2.372136025832236e-09,-2.770883332850831e-06,0.03094656962649501,0.043980412440453386,-2.6271682338123413e-06,-1.8957545686833258e-07,-2.0002056440569423e-07,0.09999655379940121,1.7675416985753523e-07,-1.0643407890440916e-06,-5.225644760835541e-07,-4.2096004251348126e-06,-3.187642979715151e-07,-1.1045395598065151e-06,-1.9197103347953597e-06,-5.024972719676533e-06,-3.604736695576194e-07,-2.4406343096122043e-07,-1.3231782170687003e-06,0.09999886016249497,0.09999426985961017,-5.274600530587571e-06,0.09999344454288017,0.03647716270380787,-5.328515143976274e-07,-8.995660907843933e-07,0.09999828600196366,0.09999770444552822,-3.531375185370348e-07,-1.135813457564796e-07,-7.405952481479103e-06,0.0999995599809362,-6.805303435679895e-07,-1.018203367765121e-06,1.1858102282130944e-07,-1.388266844220456e-06,-4.4700508034178444e-07
19,2020-06-24,Simple + Baseline,7.087840445099255e-08,1.3788583945429428e-07,3.1330538144536084e-07,1.5662227346546717e-08,0.09999984516209148,8.273529820125579e-07,0.07854604269366298,-2.8040559244841734e-07,-1.658855184762186e-07,-1.576098076186957e-07,-7.634348439347803e-08,-1.6559318619850154e-07,1.0704030845010063e-07,4.86034790302524e-08,-3.1484547058086277e-07,0.019164477304615436,0.06321927976889083,-4.967483978688203e-07,8.543816774475069e-08,1.9639891846149775e-07,0.09999915903093512,-2.6979630733779837e-07,1.2647693913242197e-07,-1.418135273293765e-07,-9.645981235993776e-07,2.472631717840677e-07,-9.286847128036716e-08,-2.5200208320085594e-07,-1.961827632233039e-06,-4.809430757602318e-08,-9.482559625871716e-08,-8.33217827233511e-08,0.10000015716992607,0.06398808690042747,-1.8541164386148903e-06,0.09999810732111195,0.021891039132741975,1.9567571719882388e-07,1.576515259325095e-07,0.10000074164724782,0.09999994733725952,-2.667848731240439e-07,1.7704556456993302e-07,-2.9437923803770177e-06,0.10000015672886184,0.05320070766074012,-2.6909023453396077e-07,-1.0551226806128255e-07,-1.0161257298799563e-07,6.424574996685655e-07
19,2020-06-25,Simple + Baseline,-4.581378682383616e-07,-7.93352324641829e-08,1.5602057436799592e-06,3.405368534567379e-08,0.09999701510895144,3.260566044834142e-08,0.08218741872020315,-4.2061630227317257e-07,-9.565235100985563e-07,-2.4755369498818435e-08,5.842339477727817e-07,-1.3523038129137465e-07,-5.194282054187302e-07,-4.96214159127379e-07,-4.0491297942297045e-07,0.014844813262072891,0.0784588471696437,-8.015101974232973e-07,-4.2745356402866814e-07,-1.925264877460709e-06,0.09999722851806697,3.548738698097494e-07,-1.1126763869267642e-07,2.99007455259989e-07,-2.2695000039884016e-06,-2.632347971098135e-07,1.276657344318348e-06,9.630641184452573e-07,-1.4818678082696928e-07,-1.6784080480622862e-07,-5.550048555793783e-07,-6.476636460210112e-07,0.10000010050044755,0.02453930328747711,-1.1278986592797468e-06,0.0999987635478642,-2.9238541119874144e-06,-1.3294638054846837e-06,-5.940504799197808e-07,0.0999954299444509,0.09999857215400694,6.773134507102684e-07,-3.9793965276271615e-07,-1.2386590382686168e-06,0.10000080503353541,0.09999995063709949,-1.5656019825188088e-06,-6.368079247835914e-07,-9.819958884701297e-07,-2.4173528918135928e-06
19,2020-06-26,Simple + Baseline,-1.9593000990795062e-07,-3.2545752931682747e-07,1.2402813784314752e-06,-2.756044575646305e-07,0.0999984475742669,-3.7058827486958324e-08,0.09999976032068604,-3.6897497058433206e-07,-4.916312888509086e-07,-2.0774931994189983e-07,1.523556234636185e-07,-2.890714201749563e-07,-3.3255221744478123e-07,-2.391962300619765e-07,-4.116659912106141e-07,0.013682869131841477,0.09687721165595778,-5.292406724065229e-07,-2.405033883816978e-07,-7.941314567606926e-07,0.09999827021598758,-7.492186569563322e-08,-4.1531935106882616e-07,-2.0856350603496933e-07,-1.4520701501852207e-06,-3.2756186450509447e-07,5.550671749109866e-07,3.4263774838434833e-07,8.725551102002052e-08,-2.282027674717942e-07,-4.3476223969297076e-07,-5.447265552714356e-07,0.09999993647002836,0.043280448561251794,-6.831410843717266e-07,0.09999932632309393,-1.2466376577056811e-06,-6.848890641781224e-07,-3.485309206945589e-07,0.09999815086101081,0.046178207623055904,1.9901900001345487e-07,-2.9413707391943995e-07,-6.510199617638823e-07,0.1000003167342586,0.09999957779784893,-8.614655343905427e-07,-2.632609656554063e-07,-6.833658727899329e-07,-9.582338967716438e-07
19,2020-06-29,Simple + Baseline,-7.676918440377923e-07,-7.745018029355683e-07,1.6888989866257407e-06,-1.2231990039520867e-06,0.09999665095564104,-2.473299470741297e-07,0.09999919809088147,-1.7962631989288178e-06,-1.5464896015256246e-06,-5.28631475789469e-07,1.0256581419022443e-07,-1.2641912058316295e-06,-1.088437446222749e-06,-9.260622748621623e-07,-1.1705558563052036e-06,0.010683375101112277,0.09999933557357873,-1.0621034998616627e-06,-8.235162819306979e-07,-1.6180918390267143e-06,0.09999536626345769,-4.282475602057799e-07,-1.0636273762104302e-06,-4.794228061416619e-07,-2.48188139133362e-06,-9.420849747449596e-07,6.341904199196178e-07,2.5466609210618294e-07,6.95325428483078e-07,-6.387960513264394e-07,-1.0859562675871998e-06,-2.3822294599481137e-06,0.09999948277195128,0.07384792554319633,-2.0294537502305115e-06,0.099998751179437,-9.819706412799484e-07,-2.1486609529846166e-06,-1.0044230908174804e-06,0.09999740691820477,-1.9238505481638845e-06,1.62593605577834e-07,-6.145279221475001e-07,0.02051080097319565,0.09500885008326276,0.09999877535315771,-1.8449317598441664e-06,-8.529754605086444e-07,-2.124862623301129e-06,-1.5898994314088202e-06
19,2020-06-30,Simple + Baseline,-4.5767407344870993e-07,-5.637750504531726e-07,-6.347459639521232e-07,-7.38903389229357e-07,0.09999651851758133,-9.079880818319754e-07,0.0843600310089469,-1.3386068132674113e-06,-1.2084440833150157e-06,-7.301435347055113e-08,3.5313281984416224e-07,-1.705756525285271e-06,-3.156048095678265e-07,-6.613844243546832e-07,-2.2389751051744954e-06,0.024083325868625022,0.09999810039600447,-1.5687340080956195e-06,-1.0244796417932936e-06,-1.4185556155040088e-06,0.09999605972573053,1.8965124696565724e-07,0.025299898370257857,-1.017585633115558e-07,-4.384080814002694e-06,-5.563059974669187e-07,3.6216010579104456e-07,4.661586589751265e-07,-1.6745126728795237e-06,-1.8010136436221527e-07,-1.6766207081099738e-08,-1.7841402708727552e-06,0.09999947586466583,0.05079984446834507,-2.6768602846441348e-06,0.09999735019496238,-1.8054200365975808e-06,-1.9304392100562742e-06,-1.7040603936767017e-06,0.09999778187745877,-2.4882101307301444e-06,3.3550223498830117e-07,-1.423612596782741e-07,0.020508344861830376,0.09500160604956027,0.09999943740054373,-1.6933615287609237e-06,-7.276244189454369e-07,-1.1682123743791547e-06,-1.573008360213363e-06
19,2020-07-01,Simple + Baseline,-1.1912692263770674e-07,-1.9293157744172133e-07,-7.648100808354029e-07,-1.5552940027159308e-07,0.09999833317655385,-2.663109790703857e-07,0.06447907116160592,-5.957524102283909e-07,-3.079712920283908e-07,1.1629118993914465e-07,2.2023763703774251e-07,-1.1706429295054017e-06,-6.467680660637265e-09,0.008735753947413334,-1.321708024352919e-06,0.029318993364900226,0.0999989735528083,-7.527312111016698e-07,-4.579674844784793e-07,-3.860804990092982e-07,0.09999818928047442,1.4265209349446662e-07,-3.0382017249331746e-07,-1.9629360636440718e-07,-2.280790754140527e-06,-1.7865290142108516e-07,-1.6865010292814405e-07,2.2552427590367716e-07,-1.1222404912673211e-06,8.475568654070544e-09,1.5823025776185457e-08,-7.039142339382121e-07,0.09999966855978613,0.05079959447461805,-1.801423548845473e-06,0.09999837142102702,-9.428766562772841e-07,-8.411223108920388e-07,-9.953735230283218e-07,0.09999916226262898,-1.3676450125431703e-06,-9.461468598329113e-08,7.891469941732695e-08,0.05169496480917491,0.09499802642486561,0.0999996095174788,-8.002706406219339e-07,-1.507423682453184e-07,-4.970501894406202e-07,-5.730408611066344e-07
19,2020-07-02,Simple + Baseline,1.2916480324006264e-07,-7.052954264733841e-07,-5.572674098986624e-06,-1.364120280217454e-06,0.09999496506818395,-1.9079531965482605e-06,0.04704409659502421,-1.8658429449394037e-06,-9.881803357750723e-07,1.6210914780539118e-07,7.798587273370564e-07,-2.8683497116567687e-06,-1.1542025600463339e-07,-7.739027955503566e-07,-4.027918131172599e-06,0.04091137812220835,0.09999767811772707,-2.873346675470982e-06,-9.625427833971881e-07,-6.694483801205822e-07,0.09999488381131129,4.1648069754521083e-07,0.009246932773603668,1.6033150665516796e-07,-6.14955733667881e-06,-1.2042088706214152e-06,-1.1311943436286435e-06,-3.567206722025095e-07,-3.295674894103373e-06,-1.3936096488460773e-08,-1.2013775092744126e-07,-2.133029415363665e-06,0.09999810416186061,-5.627559520545684e-06,-3.7632830381290752e-06,0.09998993316359478,0.05621067932423186,-2.2739890296945883e-06,-1.4473495362222799e-06,0.09999806753742294,-3.6835166751065068e-06,4.24129908971803e-08,4.4740446440124916e-08,0.05168773258068371,0.0949875241703557,0.09999830978384448,-2.0547025474522165e-06,-6.507661800674188e-07,-1.4260132747783206e-06,-1.9573438266852766e-06
19,2020-07-06,Simple + Baseline,3.1716988189903564e-09,-3.768921514865823e-07,0.026715863172242102,-3.495448019967524e-07,0.0999979816611231,-4.934189462912638e-07,0.0502686310018819,-8.920599576547002e-07,-2.955181675226713e-07,-1.8922175198439818e-09,2.434621091524416e-07,-1.3004635476262624e-06,-7.570985734742759e-08,-1.190905278134446e-07,-1.9077348667391095e-06,0.04708042830568069,0.09999954007961553,-1.2906596879037341e-06,-3.229341783575687e-07,-2.770147812250129e-07,0.09999791951357272,-1.7747738473570483e-08,0.0092459756805886,-1.0197311867376468e-07,-3.032425270723553e-06,-4.6011863618864297e-07,-4.215933816751407e-07,-1.7926445302557588e-07,-1.5987647792060095e-06,-1.0764718669512824e-07,-1.5088831279389276e-07,-9.053038127537232e-07,0.09999952546258091,-2.7378549854287725e-06,-2.0176595753163145e-06,0.09999510225663692,0.07067416034800189,-7.454900857118554e-07,-5.70852317105751e-07,0.09999925463238317,-1.3828331997811312e-06,-4.560690798191081e-08,-2.9200300503740913e-08,-3.968604234722994e-07,0.0960508382725044,0.09999936077955755,-8.427164462749002e-07,-1.195119246743947e-07,-6.376988135658886e-07,-6.217670348343409e-07
19,2020-07-07,Simple + Baseline,1.616856319747345e-08,-6.354825991262033e-08,0.029140810543222432,-5.4031061012933954e-08,0.09999939469542302,-1.0652800831646483e-07,0.050269121245818074,-2.2848159812612907e-07,-1.4556409693554962e-08,9.690053243516974e-09,1.6295848098533378e-08,-4.100859427537092e-07,1.4298537393226728e-08,1.6274585131470864e-08,-7.728811560645184e-07,0.04094760520498114,0.09999993275555759,-4.526005322992647e-07,-3.4278731362474e-08,1.2277865964870893e-08,0.09999945611136328,1.738216770299922e-08,1.0743194484454795e-07,4.921371718585242e-10,-1.3146266394701135e-06,-6.543649996976328e-08,-1.227209792520066e-07,-1.6004140182599307e-08,-7.328090510026382e-07,-1.411075895707979e-10,4.164204567536661e-08,-2.576970820453003e-07,0.0999999975877015,-1.1688136102762149e-06,-8.516170597511344e-07,0.09999788322617882,0.10000014265092462,-1.4636874821005185e-07,-1.1213163021149893e-07,0.09999987774040871,-4.389644884122757e-07,-2.7958277635507466e-09,8.400606746292962e-09,-1.0460890840812831e-07,0.07965347941672701,0.09999992258393114,-1.6892190067082923e-07,-4.832226416652634e-11,-1.0625534596773255e-07,-1.3797553964240076e-07
19,2020-07-08,Simple + Baseline,2.168379862899869e-09,-4.054743798303692e-08,0.028539319400397938,-1.105300169514562e-08,0.09999979148251742,-3.758054357700467e-08,-5.892048491991475e-09,-1.0063820785521237e-07,-4.850996372340859e-10,-1.5760356620931052e-08,-1.8013771114986525e-09,-1.589160052873097e-07,4.409467354829372e-10,8.17821894577917e-09,-3.500608198350387e-07,0.05280902582255306,0.09999999162864036,-1.9368097760147796e-07,-1.3485627457755957e-08,-2.090326940121449e-09,0.0999998158802811,-1.083954395666984e-08,1.4820919424038294e-08,-3.312249364866496e-08,-6.293059372310619e-07,-2.302049523666535e-08,-4.835261359417899e-08,-3.63202256001086e-08,-3.497304087999348e-07,-1.1099792675323515e-08,2.2382762980523895e-09,-1.175436267748221e-07,0.0999999872893098,-5.458281538640708e-07,0.099999953940475,0.09999904192637325,0.10000004688788713,-3.787128408723545e-08,-4.982809208800028e-08,0.09999995625576506,-1.5536926288962803e-07,6.838645043209118e-10,-2.4978827328837248e-08,-6.232464488389815e-08,0.008763530259108863,0.09999998463317308,0.009892684422123989,7.288718693123227e-09,-4.988300175805277e-08,-4.807617725730903e-08
19,2020-07-09,Simple + Baseline,2.932214655165602e-09,-4.64660741924687e-09,0.004113763258529408,3.148173436329819e-09,0.09999994272651569,-5.6585693919899184e-09,3.6343440319171987e-09,-2.117932627496193e-08,8.732262837515618e-09,-7.783720982539858e-10,-1.257960125423042e-09,-4.8499600102021395e-08,5.299081060698306e-09,4.894397596578659e-09,-1.4645972714298664e-07,0.04846716463436421,0.1000000020392199,-6.881538346914479e-08,5.056767129427289e-09,8.137145054259664e-09,0.09999996071168148,2.283423377552364e-09,1.5075829094042915e-08,-4.706446200475042e-09,-2.7979150256066846e-07,2.8692140465574045e-09,-1.2539171552491142e-08,-7.749371691936089e-09,-1.6297545739414611e-07,1.9433516724313408e-09,9.055721496962441e-09,-3.207698683343502e-08,0.10000000801840798,-2.398634083884301e-07,0.09999999429400722,0.0999995824321121,0.10000003107676528,-1.404415405807296e-10,-5.967585159818042e-09,0.10000000118122808,-4.8739743911500346e-08,2.742026643476445e-11,-1.4995588151069054e-09,-2.0103217275653073e-08,0.03752785699446988,0.10000000748903815,0.00989273067442288,4.348622158974431e-09,-2.6520105814158023e-09,-6.9915074559418145e-09
19,2020-07-10,Simple + Baseline,-3.375111143439192e-08,-1.9688753264821177e-07,0.0010481221274637788,2.2688674147047524e-08,0.09999981435141432,-1.4342378635614063e-08,0.014954113894166055,-1.350973740953575e-08,-2.1994674295152867e-07,-1.155268580751524e-07,-1.3923351166759454e-08,2.3253480587446777e-08,-4.869823349290541e-08,-3.308409433194522e-08,-2.7182543258540344e-07,0.04846080780849991,0.09999993002546442,-4.526784292329342e-07,3.098438019706113e-08,-1.1805808576430858e-08,0.09999964709724908,-3.7996676892891703e-08,-2.5587918062835656e-09,-1.1797084239489526e-07,-6.488967880688123e-08,-1.5118216482731711e-07,1.034289186184866e-08,2.2189706573775276e-08,-7.442743381214353e-08,-2.449000618028203e-07,4.339720914149228e-08,-2.9765178795055723e-09,0.1000000616127811,-2.4794481918113487e-07,0.09999997871969409,0.09999972524060458,0.0962760441447027,4.532172035146582e-08,-1.1733384556737855e-07,0.09999985265319092,1.85881775325347e-08,-1.9494115236318578e-07,-1.1021800564668874e-07,-3.1789259072149877e-07,0.03926544659898203,0.09999983193896793,-1.1019393702936159e-07,-5.626476302950732e-08,-1.1645141270175895e-07,-1.9919035550471566e-07
19,2020-07-13,Simple + Baseline,2.196721694040271e-07,-2.9954785595046695e-07,0.001038178427176829,3.6889805557176515e-08,0.09999895359172367,-2.3505572269656456e-06,0.04400824595244911,0.011441689991766514,3.333985132820659e-07,2.2466039846590228e-07,6.94937508426927e-07,-4.697853419329998e-06,3.2494919565380117e-07,7.583488504377219e-07,-3.451694819930763e-06,0.02677311011800195,0.09999656705529515,-9.482733074522388e-07,-5.34455076969392e-07,4.852620915239409e-07,0.09999942517307694,6.29389558741546e-07,-1.344077037008134e-06,-4.7363199345849916e-07,0.058117991306009004,-8.319785451675825e-07,-2.26148532409186e-06,-8.9830822272339e-07,-3.9535646954227475e-06,-9.897545031484007e-08,0.016105999023066676,-5.3589686697991225e-08,0.09999924043687958,-2.7584129783418506e-06,-4.349807473502593e-06,0.09999702359661608,0.06414079013124413,-5.600855602329532e-07,-1.2532882995156355e-06,0.10000084273204426,-1.0565432600330739e-06,-2.0694874015823896e-06,4.80645386890404e-07,-1.9050886856233562e-06,0.03924696625004628,0.09999864240147191,-7.100754231483687e-07,1.587940027160068e-07,0.03916913208682942,-2.687259331209723e-07
19,2020-07-14,Simple + Baseline,1.2786949541894496e-06,2.5432437930294327e-06,0.019944034610060384,-5.909106900296326e-07,0.10000035350896111,1.4133984358123019e-06,0.009529302610596315,0.011450976458606479,9.88728858706838e-07,9.711266088534895e-07,-1.3387687005343374e-06,1.892174361370778e-06,1.6382635282803341e-06,-3.8371653128174096e-07,8.70197193159002e-07,0.06455579819061324,0.10000040498181856,2.1036705842494515e-06,-2.246761815521296e-07,2.5974601470789685e-06,0.10000336232461715,1.1699840207467312e-06,5.496941671111013e-06,1.535434871037269e-06,0.08983107037298774,3.724275088363649e-06,1.416871494421728e-06,2.1288005799069009e-07,-1.2564121451886618e-06,2.946027289542343e-06,1.8274826257218521e-06,1.9273810308278137e-06,0.0999995261873351,0.0017724641377577556,-1.791271177473711e-07,0.09999986307276003,-1.6558607686266507e-07,-4.10857619043821e-07,2.764271280863461e-06,0.10000204298331154,-1.8798986051324886e-06,2.0212796122520645e-06,1.0458754489010568e-06,-9.922890942416975e-07,0.06369122987316055,0.10000220240134919,2.3354250518542357e-06,-1.6358345960664824e-07,0.03917995514891337,2.959575226788311e-07
19,2020-07-15,Simple + Baseline,1.8265905265442165e-07,-1.0251416810739519e-07,-1.527160719308179e-07,-6.071931279399138e-08,0.10000004239379401,3.740916731450043e-07,0.019497756053217734,0.02911076072664705,8.778876469728674e-08,-5.388791268503626e-08,-2.3764794136583595e-07,8.292631550177666e-07,1.863491446302526e-08,-3.18791257748998e-08,-1.9820056249023375e-07,0.0645503319837832,0.10000003636966377,-3.47193635900844e-07,-4.053527763631186e-08,4.598954122940556e-07,0.0999997953368906,9.151893190161353e-08,1.600550263828803e-06,-1.1896429010636167e-07,0.07391128680283375,8.935266750714285e-07,5.192301420813672e-07,1.0297530873147032e-07,-6.581795076746331e-07,-1.499614833967673e-07,3.3562177469546e-07,7.549287767040453e-07,0.09999996488786599,0.0017722177469383588,-1.5284693364901717e-07,0.09999986356862187,-2.3505358184261543e-07,-9.632065984560803e-08,8.164904654625873e-07,0.1000005270071155,-6.994516299933671e-07,-1.7919812005868546e-07,-5.2469791542353054e-08,-6.66047748648997e-07,0.05220705655641184,0.09999985359351708,-6.751862867633458e-08,-4.975041410623198e-08,0.05894778125342321,9.811018756167984e-09
19,2020-07-16,Simple + Baseline,1.3343761816019348e-06,7.000385953354249e-07,-7.2218332368452354e-06,-3.3031744612453683e-07,0.09999802792350523,-7.608231311635515e-08,2.088659440257012e-06,0.029108302832260114,9.131465934567855e-08,-2.5326148473218927e-07,7.934269012041694e-07,4.411749981110469e-07,1.3444111668583957e-06,8.979356804868727e-08,-3.476953879037206e-06,0.08752450596517775,0.10000019837161944,-1.8676873145025777e-06,-7.721885184365237e-07,4.282422628224209e-07,0.09999818189710599,6.392770694486999e-07,2.5817746550124455e-06,-4.2292339591386725e-07,0.07390145437088504,1.2322039598330598e-06,-8.669585594643896e-07,5.2419350040476e-07,-4.067859885646186e-06,5.526812644974082e-07,3.668495365761051e-07,-2.2050763405805867e-09,0.09999836571233284,0.03600406419641691,-3.3275337621226243e-06,0.09999643345415409,-3.3956868153921327e-06,-3.4556654904205923e-06,-1.4124718696676987e-06,0.09999881382831537,-2.9597152493622675e-06,-1.442217865223058e-06,1.9879314242676515e-07,-4.9142647031076385e-06,0.022648005812188236,0.09999816559001652,-2.0696632870821133e-06,-3.481989754494978e-07,0.05085359008420691,1.1966187462280413e-06
19,2020-07-17,Simple + Baseline,1.7520042201843175e-09,3.3979587476011876e-07,-5.715597982496504e-06,-4.975204149199423e-07,0.09999622117628808,-8.85208994152892e-07,1.8951721983203826e-07,0.029106063282783562,-7.685428375784984e-07,1.5927569506628065e-07,4.282021622038195e-07,-1.5184768987558962e-06,2.6561236137471816e-07,-4.854880835635362e-07,-2.5680649917598214e-06,0.09741709029149552,0.09999783468836881,-1.7935575345920326e-06,-1.111970630048208e-06,-8.136300556174601e-07,0.09999726709087385,4.777109580827601e-07,9.987822283442312e-07,-2.54007107954453e-07,0.07389576897400674,1.8041974888947166e-07,-8.609091462930918e-08,7.059818725586e-07,-2.8964342501446955e-06,3.5360060988330123e-07,2.7230527448108553e-07,-1.4489351060773058e-06,0.09999930821809824,0.09855634625121065,-5.6883051311357035e-06,0.09999673512855271,-3.1431053485625306e-06,-2.5369961813342934e-06,-2.6210347090300705e-06,0.09999723296026941,-2.735799549991997e-06,-2.389803730472431e-07,1.3074740209383571e-07,-3.582592077522969e-06,-2.4995722939722057e-06,0.05685049802367655,-1.9665159492103156e-06,-6.125275462362748e-07,0.044233116329508174,-1.4985404270915032e-06
19,2020-07-20,Simple + Baseline,1.177811904176669e-08,1.5602015693398117e-07,-2.88563904100892e-06,-9.23423040039111e-08,0.09999863958182809,-2.1044288001779673e-07,1.9524653168205215e-08,0.029106178611967706,-1.572673809126524e-07,5.7946791135671814e-08,1.683717473995735e-08,-5.654581373801755e-07,1.2297036978679791e-08,-4.0349357568477815e-08,-1.1261145183642312e-06,0.09741675902786144,0.09999960568323939,-6.981628096991086e-07,4.6047913885132594e-08,-1.3050531915621496e-07,0.09999909512959654,4.86516964050781e-08,3.1101768061660366e-07,-4.431305826760906e-08,0.10000012005727987,6.547125838996277e-08,9.079773574148056e-09,3.0777909530067983e-07,-1.3441869689574781e-06,7.308042638258456e-08,5.1959248974665574e-08,-5.193614225214258e-07,0.09999991407297791,0.10000010142569277,0.04229284651379686,0.09999855151966594,-1.1649099827711969e-06,-7.769965017677758e-07,-8.714282594711374e-07,0.09999917819511282,-9.97227761035448e-07,-3.70325830533937e-08,5.388007299032457e-08,-1.719030539687909e-06,-6.013835631160871e-07,0.031202786790609803,-5.826340993467564e-07,-8.202199071293186e-08,3.981487791099893e-08,-4.115649810956999e-07
