seed,date,strategy,NASDAQ:DGII,NASDAQ:EXPO,NASDAQ:ANAB,NYSE:TPX,NYSE:ASGN,NYSE:FIX,NASDAQ:ONEW,NYSE:PAGS,NYSE:TPR,NYSE:KEX,NYSE:WGO,NYSE:FHN,NASDAQ:HEES,NASDAQ:KIDS,NASDAQ:CRDF,NASDAQ:FIVN,NASDAQ:RYTM,NASDAQ:NTNX,NASDAQ:TRUP,NASDAQ:FBMS,NYSE:DE,NASDAQ:SDGR,NYSE:GMS,NYSE:INSW,NASDAQ:SHYF,NYSE:STC,NASDAQ:ORLY,NASDAQ:ALGN,NYSE:BCC,NASDAQ:MRNA,NASDAQ:LKFN,NASDAQ:TBBK,NASDAQ:ICUI,NYSE:CMP,NYSE:EGO,NYSE:ETRN,NASDAQ:PLMR,NYSE:HLIO,NYSE:ALLY,NASDAQ:FCFS,NASDAQ:RVMD,NASDAQ:TER,NASDAQ:KALU,NASDAQ:FARO,NYSE:MOH,NYSE:GKOS,NASDAQ:CAPR,NYSE:DUK,NASDAQ:BBSI,NASDAQ:PNTG
23,2020-03-18,Simple + Baseline,-6.199796270178346e-09,2.5050403231389673e-08,0.10000000146508015,-6.401370680062056e-09,0.10000000180915744,-9.868686522925995e-09,-8.161238063123297e-09,-4.829551043142307e-09,0.1000000018831558,-3.680851254170108e-09,-6.290454078757083e-09,-4.335262884569794e-09,-4.1888450318162265e-09,5.136725021904369e-08,-2.4923612431943627e-09,0.10000000063954725,9.990716905909617e-08,0.10000000105866588,0.10000000067971544,-2.4855024056081415e-09,-8.07226359362827e-09,9.941529117599581e-08,-4.498803767514734e-09,-4.066348661200607e-09,-2.8604164065279386e-09,-3.0303897455326898e-09,-2.6334924956564963e-09,-3.1861088384846958e-09,-3.738972253965613e-09,0.10000000524112786,3.0759154677907562e-09,-5.165573847441489e-09,0.10000000253941016,-2.6807636196722704e-09,-4.432863375943527e-09,-4.173257594001341e-09,-8.289372626066055e-09,2.310156893551957e-08,-5.284598883461058e-09,-3.501217660713606e-09,0.10000000138236789,-2.456446457846464e-09,2.0207541374740465e-10,-2.553278652751153e-09,-1.0593351085115224e-07,-3.278916620152426e-09,0.09999994270270651,-1.1570688963435551e-08,-5.501763985999771e-09,-5.676013659945848e-09
23,2020-03-19,Simple + Baseline,-1.1802733714145517e-09,1.687572477106574e-08,-5.377439327607075e-08,0.09999999871075607,0.10000000321611904,-3.5490280953564044e-09,-2.5394091519052217e-09,-5.538309214565557e-10,-7.672601543429519e-08,7.572327855971693e-11,-1.3401882644020155e-09,-3.7428135684485535e-10,-2.526800942307047e-10,3.225137454632582e-08,0.09999826317832822,-7.942966206154923e-08,6.070692019270991e-08,0.10000000281083554,-9.463954441788073e-08,7.659744702195596e-10,-2.525032161719836e-09,0.09999999879953989,-3.8028346613038396e-10,-1.9430197952220256e-10,0.09999998211334088,4.1636918605786616e-10,7.14560180603549e-10,4.3234711506226786e-10,5.5830588171995277e-11,0.10000000531153931,3.9898431851628756e-09,0.09999996774955305,2.1441877451057983e-06,6.573313371042235e-10,-2.954438978588948e-10,-2.605526655467878e-10,-2.6320080078837952e-09,0.09999995302214287,-7.754081737289498e-10,1.943783546250134e-10,0.10000000296808559,7.972564441160876e-10,2.3761774508363573e-09,7.388468588572348e-10,-5.985868490841276e-08,4.1873804027342274e-10,-5.554332811659898e-08,-4.505975805413437e-09,-1.0723637610652246e-09,-1.1663555263253744e-09
23,2020-03-20,Simple + Baseline,1.6633688926956622e-08,3.717151289480284e-09,0.0999998979104745,-3.687221084695178e-10,0.09999996843144343,8.050540071025694e-09,4.687062449930265e-09,1.2662027857280208e-08,0.08444130984594143,1.1951677110919907e-08,1.5628059785793016e-08,2.454451836435011e-10,6.7106698709952455e-09,-3.828327261039773e-09,0.07085860827972183,-4.136464065597974e-08,3.0006461195238166e-09,0.09999997539007362,-4.4447999357886506e-08,1.1235883670381701e-08,4.357616421094121e-09,0.09999999323492513,1.1981108297477544e-08,1.9386221250986805e-09,-4.0014563076229644e-09,6.69376601660175e-09,2.1483194017284892e-08,-4.811395755298791e-09,9.435350021002173e-09,0.09999998787434008,-4.138314134039114e-09,-1.7030531057756296e-09,0.09999994483084282,1.2813965866059703e-08,2.1023974159755088e-08,0.04470034104398866,0.10000002006069955,-1.3654138384980002e-08,1.721987683515525e-08,1.3832068035054445e-08,0.09999996892575032,1.4931439166140633e-08,2.131472294023912e-08,1.3300423016691149e-08,-2.4635813932297457e-08,-1.377547514852849e-07,-2.3215313245858963e-08,2.02598585616422e-08,1.4129846951483619e-10,3.127157540267075e-09
23,2020-03-23,Simple + Baseline,-7.115865334793887e-08,-3.4285322191902126e-08,0.1000000303727944,2.3100186210609794e-08,0.03967906996119083,-5.46334945796421e-08,1.5099515119674453e-08,3.135631193751634e-08,2.2182387365147367e-09,-3.6885550897239276e-08,-2.4035773018330827e-08,6.901513586410578e-08,2.694188427433329e-08,7.879419374353706e-08,4.111570178614566e-08,0.09999975399866066,1.838282649439649e-08,0.10000005542993413,0.03675127638011277,5.767977780655997e-08,4.043780835414809e-08,0.0999998915985419,3.272334972871309e-08,2.3702584885488022e-08,0.05572827369013425,1.8436046439839406e-08,-2.0215501874357595e-08,-1.3596908531850017e-07,1.885656453908848e-08,0.09999994874991473,8.0650458308961e-08,4.018378700240221e-08,0.10000002696932923,6.647260026699173e-08,-4.083615807378561e-08,-5.521243051398465e-10,0.06784127502447497,1.163260966583372e-07,-1.0875749588730877e-08,-6.374616667565855e-09,0.10000013142388949,-4.9785532093969295e-08,-3.371850881506344e-08,-2.938700971528779e-08,7.875646254511144e-08,-1.0782829537738711e-07,0.10000008946436578,-9.667621282532728e-08,3.935842710879308e-08,1.1268919874825677e-08
23,2020-03-24,Simple + Baseline,1.0180549211743617e-07,-8.066764514313901e-07,0.0999986800286504,0.0032854624504672415,-5.530501628327727e-07,-1.223298370806396e-07,2.4421035601560654e-07,1.9419668610838374e-07,3.627113688501115e-08,3.971285526824289e-07,2.1012822566886355e-07,1.4925353122547968e-07,2.415773646601767e-07,-7.531986629311551e-07,2.202067068102056e-07,0.10000000258511463,-1.0517047005583867e-06,0.1000009624695003,0.03607446748843815,-3.075836849562058e-08,2.4493233091963785e-07,0.10000028779163726,2.1201938610574014e-07,3.1971352133773306e-07,0.10000024099206645,3.1926750790948695e-07,-2.6875628978605003e-07,1.9443056897954135e-07,2.3763463633045365e-07,0.09999872823311325,3.9203374684723e-09,2.495490513310949e-07,0.0999995377591609,-2.3282313934755815e-07,2.964391034771814e-07,1.0698328133787051e-07,0.06064007266960446,-1.4113470666388141e-07,2.544464577889521e-07,2.547631595652666e-07,0.10000027196289146,2.9957563410729226e-07,-3.5619358647098574e-08,2.793331377736734e-07,-3.65427102820317e-07,8.020262640757484e-08,0.1000002421351035,-2.78289318525316e-07,2.141606047682181e-07,3.2781978330483423e-07
23,2020-03-25,Simple + Baseline,-8.884690926002374e-08,-3.600339373103937e-07,0.09999951924040998,0.058256958925277574,3.3089484448889806e-07,-3.366193043720987e-07,6.239269717786106e-08,1.3082437945887441e-07,-1.2134135392737544e-07,7.017878829107248e-08,9.572184194707709e-08,1.6733192232730953e-07,2.9730481314332537e-07,-1.4068103505500326e-07,0.10000025945912752,0.09999958589604173,-2.003800651308977e-07,0.10000010437663498,-2.6138724783167175e-07,1.1766100522744025e-07,6.462354122253756e-08,0.1000001936907869,1.2517667781238554e-07,1.5027091900711085e-07,0.041743249346989565,1.5281607963628253e-07,2.731118985069255e-08,-8.229044078128908e-08,7.96964952178068e-08,0.0999995677159972,3.566614719077185e-08,1.9381153610512436e-07,0.09999967288934794,-1.8715410344656367e-07,1.1046116947033458e-07,8.189716112031366e-08,-2.4072417850869153e-07,5.72203922088409e-08,8.897838755975242e-08,-4.4533208342052596e-08,0.10000054915663556,-7.13198439052371e-09,-7.956015962489035e-08,-9.849896214219732e-10,1.5637145747295717e-08,-5.571177712844813e-08,0.09999999392871053,-2.2847325808041915e-07,1.8311543835058393e-07,1.4287122424513565e-07
23,2020-03-26,Simple + Baseline,3.570662792862291e-08,1.6636649253120404e-07,0.10000062491340724,1.963074720687457e-08,6.226748336707526e-07,-2.5402666567791983e-07,-9.926353656677764e-08,-1.6768771503477897e-07,0.01008857954260379,8.847645386390359e-08,-1.0774897261261455e-07,-1.3084447850341756e-07,0.09999990535908128,9.822071783074114e-07,0.012298075089290518,0.10000082828500947,1.1553662877759323e-06,0.10000058918017557,1.8877779607892722e-07,-1.6470796570299772e-07,-1.0757864850743747e-07,0.10000070559425678,-2.0807535084485548e-07,8.050913177971479e-08,0.10000020885343679,4.9001565540169204e-08,-9.62219806167726e-08,-2.42359289154751e-07,1.6327839182776995e-08,0.10000051495652199,3.0702287991137036e-08,-4.9837392608871606e-08,0.009632828430242086,4.042014113217128e-08,3.384148737082312e-08,1.5483150997010693e-07,0.09999999866817565,2.3533003424087157e-07,-1.3874821896389132e-07,-8.346513574458872e-08,0.10000087765579856,-4.0643877765964734e-08,2.9636632134955805e-08,1.173067603178892e-07,-1.3244875254277842e-07,-1.1087294562642579e-07,0.06797454808447416,-2.5649920051771825e-07,1.1327954728835267e-08,3.8321464294508735e-08
23,2020-03-27,Simple + Baseline,3.898957789936008e-07,0.1000010436320249,0.08089457095747236,0.06436746534920842,-3.4195930153672574e-07,-5.938178559015961e-09,-4.771374513280663e-09,-4.443669543535323e-08,-4.690126813474165e-08,5.000755512047462e-07,1.241825088321364e-07,-1.8316865165410028e-07,1.2721742223307855e-07,1.1726934662739546e-07,0.1000001056094613,0.10000211267410526,4.4253400482609567e-07,0.10000061313571246,6.905142357855158e-07,1.7168900397143144e-07,3.820412191107176e-07,0.10000051606317599,1.248616510761419e-08,4.1004866366398247e-07,-1.5575865349742303e-07,1.3961206250201685e-07,3.8280149872955265e-07,1.5475128231499114e-07,2.766266788188127e-07,0.1000003839724933,1.390235338969965e-07,5.0842057255764405e-08,0.1000001003848125,-3.7083900645015555e-07,3.519596238500843e-07,-2.6532468632937485e-07,0.10000054046783191,-8.552545956673013e-08,1.7774192353816454e-07,1.422392677706929e-07,0.054726121670832344,5.53292217721171e-07,7.168747270028277e-07,4.469043223984205e-07,1.8118817788535206e-07,4.6283624911562744e-07,-1.2629355763036825e-08,2.8255887770908046e-07,1.1087567120357735e-08,1.0232124134052336e-07
23,2020-03-30,Simple + Baseline,7.282316286484134e-07,0.10000130164797053,0.08089943445623729,0.05814537478290343,0.02601008156580348,4.888623830025854e-07,8.89816690512142e-09,-2.0492248177528884e-07,2.5398022823817664e-08,7.580507747106933e-07,2.6184964662077117e-08,-3.277270344813849e-07,4.6155797443021265e-08,1.011955822470318e-06,0.10000010356391797,0.10000359540496226,1.483138099101283e-06,0.10000109279273015,1.1000774396360714e-06,2.0158173869135198e-07,3.962432812555966e-07,0.10000134162690033,-1.6024682061664332e-07,3.160739010777263e-07,-5.327555868815403e-08,3.8936277689573623e-07,2.2269593413309045e-07,2.8199600714387006e-07,2.530386872849625e-07,0.100001073509694,1.7103796225987365e-07,-2.2821258657152406e-07,0.10000075317350589,3.597409907685981e-07,1.7555717071579993e-07,2.9178254269568737e-07,0.10000134203118902,2.3830430697653726e-07,-4.118124606670355e-08,3.82053507709549e-07,0.01105705742846622,6.31714438593183e-07,6.259812781380149e-07,6.049753889569601e-07,0.02386647625119872,3.477669753900469e-07,-1.2975966737218423e-08,3.1262595070970814e-07,-1.1528764538398415e-07,2.2355270450091297e-07
23,2020-03-31,Simple + Baseline,1.7357272895919413e-06,9.247715163643308e-07,0.08088225081205003,8.085626459836775e-07,0.06588272683104174,-2.2317320764335124e-07,1.5166874403150128e-06,1.6538971688161405e-07,-3.976752775476688e-07,2.495721098733794e-06,1.434514044842137e-06,-1.6784346631491936e-07,0.07467744531210875,-1.024286658894324e-06,0.10000264490549443,0.10000246038608218,-1.451427810673502e-06,0.10000012232696975,-9.296040092225977e-07,-5.974992177886707e-07,6.806482504756364e-07,0.10000079224112601,6.275578022828519e-07,0.05346322330097038,-9.842371729482068e-07,1.532008159419936e-06,-1.346770953192413e-06,1.1982498610900033e-06,8.395208619765544e-07,0.09999800829010104,-1.2860877986140168e-06,0.010743166851600313,0.10000043716269923,-1.0855391690001539e-06,9.62731744798333e-07,6.28449624376269e-07,0.10000319380768005,-2.8840245705553747e-06,4.5513744291256203e-07,8.769107809058713e-07,-5.0367651868392296e-06,7.455986848092231e-07,1.3990541381514755e-06,1.5407111203558856e-06,0.014339225113219636,-7.623147613041937e-07,3.383516770730086e-07,1.6796437221286153e-07,1.0556596499395895e-06,3.714257584901612e-07
23,2020-04-01,Simple + Baseline,5.860481812741441e-07,0.010465118627445428,0.08087515490800247,-1.437650598245756e-07,-9.347079143361488e-07,-5.04097912535885e-07,-1.1220521635736143e-07,-4.2895305644476647e-07,-1.1642511107041615e-06,-1.2586665780807591e-07,-1.938786608456802e-07,-1.7318281102452605e-07,0.09435886892470734,-9.300740952834812e-07,-8.43605473459693e-07,0.09999840388076434,0.09999623473495803,0.09999849962087003,-2.1746045894541562e-07,-3.4184170148869484e-07,-7.664063729640137e-07,0.10000044654398715,-2.8332471739750365e-07,0.1000003928660742,-1.4177805379845884e-08,-7.756921825183659e-07,-6.773949298579294e-07,-1.050998265380456e-06,-2.8170367128256894e-07,0.0999980520885437,2.0177998720876817e-09,-1.4505348259642922e-07,0.09999497070183787,-1.2162331071693213e-06,-8.020104520515387e-07,-5.1545926421358745e-09,0.09999968633248556,6.789690638226881e-08,-4.462704841892438e-07,-4.184895472947091e-07,-2.3795757207621154e-06,-1.019167107423778e-06,-6.455421476837603e-07,-1.4013059070414946e-06,0.014333283737207492,-1.3348852125714485e-07,-8.612032433983493e-07,-8.658091974040578e-07,2.0013448604418643e-07,3.4680467114274566e-07
23,2020-04-02,Simple + Baseline,2.8508777174500413e-08,0.10000010945818112,1.9534190760946457e-07,-3.1968726798012774e-08,-1.6254794352804522e-07,-2.3408305336465202e-08,-2.6180116753061147e-08,-2.587078570303935e-08,-3.713862295858008e-08,-3.007080364147589e-08,-2.6164183090680463e-09,-3.560632775064501e-08,0.10000000431868113,-1.7298934760855916e-07,-7.542176693644181e-08,0.09999967769155388,0.09999889766804868,0.0999998065316324,-2.6782402156436357e-09,-1.0783043918788338e-08,-6.894652065975364e-08,0.10000003366308209,-6.810952302977081e-09,0.028456043489842955,-3.119692752384869e-08,-1.213809557548804e-07,-4.50355893313424e-08,-6.630889319328044e-08,-5.103941041165639e-08,0.09999992131751984,4.179348802552104e-09,-2.7238008617685523e-08,0.09999906655879626,-2.5580663564220406e-07,-5.2281870638479807e-08,-2.237019296823835e-08,0.10000000924121347,-3.143246819023554e-08,-3.8428890828417556e-08,-6.198294071498622e-08,0.07154802223881013,-1.0651922862185088e-07,-5.685142799123637e-08,-1.8781337622594003e-07,1.402574945032382e-07,8.044634303227521e-09,-1.588541815777341e-08,-4.1024720267769225e-08,-2.8567719635307312e-08,-1.5412341727030453e-08
23,2020-04-03,Simple + Baseline,-3.7380663327133536e-07,0.09999885710022374,0.09999657367879218,2.0443716866123026e-07,-1.1969039875374304e-06,-6.005748904701559e-07,5.86308824510229e-08,2.8966419026587694e-07,8.889315445339228e-08,-3.2134138988633824e-07,3.197437056332956e-07,1.408207353452279e-07,0.009873423602492793,-1.9506252871836524e-06,4.993889771693527e-08,0.0999975470711679,-2.422164241605929e-06,0.0999995472581313,-8.558528984703929e-07,-1.3721409115039902e-07,-1.0028552421156487e-08,0.09999870605623258,3.1673754571089236e-07,0.021630102463199023,-3.546386796431052e-07,-3.235273509457201e-07,-3.823077785842236e-08,8.731892764870488e-08,-4.1901303134625305e-08,0.09999889272680358,-4.89198055148624e-07,3.392437937660246e-07,0.09999923958364539,-1.1405527500552713e-06,4.5174844755625393e-07,0.09999920788965214,-5.613119684984078e-07,-9.677992106741304e-07,3.78710672503807e-07,-3.2580376585169784e-07,0.09999912302095887,2.0589901933960934e-08,-2.842274427118336e-08,-1.1231005193640569e-07,0.06851816495334517,6.210877855022824e-08,2.3573469306857485e-07,5.819199530948595e-09,3.242443478122522e-08,-2.0159845241268795e-07
23,2020-04-06,Simple + Baseline,2.7813007113883183e-07,0.10000139988105777,0.09999986558229917,2.409955054789911e-07,3.7114731268424515e-07,-1.1244371496636671e-07,2.968198144001857e-08,-3.03491925293345e-07,-1.972106121231897e-07,8.925165276151797e-07,-1.671177399413853e-07,-1.1654348406903658e-07,0.031239209700330912,5.246814234579066e-07,-7.466434800851034e-08,0.10000229150054189,4.81696339353495e-07,0.10000164659096679,1.3210923283998627e-06,3.064122445796141e-08,7.646561672124454e-07,0.10000153474114999,-2.6555308049175397e-07,1.260836616075772e-06,1.70984973891416e-07,3.989383770541609e-07,2.088689721432087e-07,-1.656909222459515e-07,5.80987574608447e-07,0.10000019107282496,6.635061952841656e-07,2.8391104965244333e-07,0.10000051600138066,1.619804496454304e-08,4.784770216778348e-07,0.08092769334277224,4.433795821416297e-07,7.504956221302268e-07,3.297078325758344e-08,4.825847471223199e-07,0.09377543633162695,8.53669941679947e-07,8.822124250815387e-07,7.896487170706544e-07,0.09403708766393978,2.3128177203513772e-07,5.279764589755859e-08,4.4640435789515146e-08,4.2063010684349874e-07,5.383314302960381e-07
23,2020-04-07,Simple + Baseline,-1.0812399757730876e-06,0.09999394020019059,-8.360594726109969e-07,-7.583494038574554e-07,-1.812711688321092e-06,1.8949730489115414e-07,-2.8323871645870105e-07,9.724504084546652e-07,6.05393725638022e-07,-2.966884034178805e-06,5.897682173318321e-07,5.538380722229623e-07,0.07011448921758957,0.09999692380831639,6.263532324075098e-07,0.09998603596209865,-3.3595681991979875e-06,0.09999586310791167,-5.36901358288463e-06,1.3301707899832335e-07,-2.016254088296237e-06,0.09999593088281573,9.448407397482214e-07,-3.765406635323368e-06,-5.731088922456277e-07,-1.0584711084934767e-06,-5.078115634198006e-07,7.936551379722387e-07,-1.7899559710187064e-06,0.1000000604775057,-2.703584491999463e-06,-8.053217934706498e-07,0.09999902497812663,-2.3787709581264323e-07,-1.2486155088598237e-06,0.043474751115181696,-1.505924789545945e-06,-1.8361382097575326e-06,-1.7212742877958736e-08,-1.5309312288889594e-06,0.10000062775622527,-2.440359610493683e-06,-3.1396231980159133e-06,-2.7624929047394093e-06,0.07747689420582768,-6.698463962614704e-07,0.009007824628547314,4.215839795970344e-07,-1.3805790585275203e-06,-1.7143901602305369e-06
23,2020-04-08,Simple + Baseline,1.1570131086163123e-07,0.08242128426542274,-4.0462141767716736e-07,2.1517655926604345e-07,8.303395377065692e-07,3.6020722375453997e-07,1.7480173794544757e-07,1.538019972512514e-07,9.82026477217657e-08,1.7902426464740108e-07,3.69807231150701e-07,2.038336138840102e-07,0.07524025211513845,0.09982362358816411,1.572934917641515e-07,0.09999689447137777,-1.0921182278103592e-06,0.09999979873630468,-1.1761433677150618e-07,3.9445420730717115e-07,2.5809475871432645e-07,0.10000028003856816,-3.452098757405426e-08,7.325084275632396e-08,1.7575189982650879e-07,4.123949224064884e-07,-3.1659329782598577e-08,1.0755404640843002e-08,-9.706296404648692e-08,0.10000017990270861,-5.7284226222653216e-08,2.0080810452801799e-07,0.10000053056471477,-2.1062002809373196e-07,-3.4874606854562223e-07,0.0700491572228018,3.677353880158093e-07,-2.394769865311865e-07,-4.1439772676211064e-08,5.080112002871443e-08,-2.868995316827383e-07,1.6493910522351585e-07,1.737987834455382e-07,-2.522299631786177e-07,0.10000108570266565,-2.904052837222587e-08,0.07246414806488856,3.965258390444082e-07,2.0592716870255725e-07,2.6333965040179175e-07
23,2020-04-09,Simple + Baseline,-5.195247473753086e-08,-3.166107800976491e-07,-2.963829196033049e-07,3.414574124591165e-08,0.09854145476164926,-8.881680714520009e-08,-1.570904297983075e-08,9.79454740543942e-08,5.376138916383538e-09,-1.796697073694826e-07,1.3282615866149257e-07,1.2570107949030708e-07,0.06061279116574595,0.07405480162056233,3.423745001559565e-08,0.09999825706932686,0.09999923823642178,0.09999961400916216,-3.922502843041291e-07,2.0181735372639404e-09,-1.3772826389020492e-07,0.09999981250707972,6.100897390977914e-08,-1.174955699634328e-07,3.199988160777863e-08,-2.0531405695376847e-08,-1.2378216720874477e-09,4.7759870057365714e-08,-1.0662146493988911e-07,0.09999978585891854,-2.3121966180919068e-07,1.2801519892806732e-08,0.09999969973388369,-1.5023648380930157e-07,-2.498105893375637e-07,-3.8050415354402546e-08,-7.138483743610053e-08,-1.4067698989931483e-07,3.2498652205298574e-09,-4.125681825504365e-08,-1.872868878519872e-07,-1.559992235756405e-07,-1.762163955729919e-07,-3.186314724584699e-07,0.04443960447350977,-9.37014438599336e-08,0.04624534594943069,-1.9936743869395033e-08,2.1758705538184358e-08,0.07611258676270538
23,2020-04-13,Simple + Baseline,-5.554076754247764e-07,-1.8048015498626426e-06,0.02849476683535326,4.5089828187294926e-08,0.04877904347077385,-3.7726883790202736e-07,-4.777587350103667e-08,-5.620496257447129e-09,1.514412934819378e-10,-6.913273776159077e-07,-1.9923288097887692e-07,1.5891541034326306e-07,-2.3439519642277037e-07,0.09999922298090602,0.008700186656753057,0.09999690921477795,-8.117777511483609e-07,0.09999947129289029,-7.289207286080795e-07,-3.215052380582018e-07,-9.689155848872587e-07,0.09999952329066306,9.818110802151259e-08,-4.09542750486209e-07,1.5928262450452413e-07,-1.925561199702674e-07,-7.478286471229097e-07,-6.766637432012083e-09,-1.972933215988594e-07,0.0999991854356099,-6.012147018756986e-07,0.004765488235367066,0.09999886474003089,1.4696256441685172e-07,0.09999948892777821,0.07888363795897939,-5.449494196235972e-07,-1.0782440729086851e-07,-9.498301328435537e-08,-2.235283781594162e-07,3.231122311837049e-07,-8.916776765894244e-07,-9.267103972039463e-07,-6.258729053316301e-07,0.09999941674576295,-5.782220962224527e-07,0.030397620814705453,-6.689979218354792e-07,-8.847225836808731e-08,-9.721068595564309e-08
23,2020-04-14,Simple + Baseline,-2.0629835823882678e-07,-6.392577566822862e-07,0.02215295423857683,-9.056426584543847e-08,0.035323703973699834,-8.230392871141037e-08,-8.802174338791124e-08,-5.037419435834785e-08,6.218609514039593e-08,-3.625172280971158e-07,-1.1084109328230428e-07,6.8121850950634534e-09,-1.8232725515690773e-07,0.09999967652545731,0.011432250175390542,0.09999828784431948,-3.4703134499816846e-07,0.09999969900788037,-2.3834961126338035e-07,-1.2453638404813806e-07,-3.785329821739832e-07,0.09999966617119074,-2.6696966846738067e-08,-2.0790738391459428e-07,-1.1112125689924098e-07,-1.430099805773187e-07,-2.3269257477324094e-07,1.3530897898692449e-09,-1.3430657792798734e-07,0.09999994282838645,-2.5032151853683464e-07,-9.573816481146734e-08,0.09999971986106715,7.205964510626957e-08,0.09999974997327103,0.09999984457125156,-1.942225374721861e-07,4.0092444360651794e-08,-4.701618519175402e-08,-1.0589026126057801e-07,7.761954185771043e-08,-3.722686563287391e-07,-2.3764766540975098e-07,-2.61192496154365e-07,0.09999983936541648,-1.3198429341640132e-07,0.031100278335750253,-9.909995833301545e-08,-1.3684009940033124e-07,-1.8410043077459404e-07
23,2020-04-15,Simple + Baseline,-7.07597111120977e-07,-9.25439012166983e-07,0.045737585710167374,-5.508106978567343e-07,-9.830436998913025e-08,1.6742763337706326e-07,-3.746295769673516e-07,-3.5071918092707936e-07,4.093919611103933e-07,-9.435620798234897e-07,-5.709840364749697e-07,-2.446413785117184e-07,-9.370961716838412e-07,0.09815378318035607,-5.542243632169462e-07,0.09999707849928229,0.03803700206912102,0.09999929233498174,-3.821092967636977e-07,-5.522244970800639e-07,-8.217850852060418e-07,0.09999878814630538,-3.283036591705766e-07,-8.455887737498261e-07,-6.286521413448269e-07,-9.474142860890041e-07,-5.434146095674236e-07,-2.0042443873740525e-08,-3.8378909235987255e-07,0.1000001293714477,-3.3435257196114706e-07,-5.46991157415055e-07,0.10000103200706663,7.483678197172178e-07,0.09999899820234293,0.09999930402720279,-6.131277061824358e-07,4.654156324500478e-07,-2.3745091791342216e-07,-1.788192699449001e-07,7.199450715238272e-08,-8.226215594338041e-07,-2.3578698785706888e-07,-2.1280150059870156e-07,0.09999927873506485,-4.313592513712958e-07,0.018092772832437327,9.539330621079533e-08,-8.126543729730285e-07,-8.674957847522539e-07
23,2020-04-16,Simple + Baseline,-9.285620716927787e-07,-3.6618603736428736e-06,0.04572390170461361,-5.1121663443765876e-08,-1.2379646839888376e-06,-6.683026838109892e-07,-6.343185277474683e-08,-6.681706540842371e-07,-1.732234035593284e-08,-1.3038115099996145e-06,-8.550506875417981e-07,-2.2273750207130473e-07,-1.3861440210569112e-06,0.03994347980467496,-1.2721998650499719e-06,0.09999265000845974,0.09999620937584128,0.09999850946396907,-2.2821525858186614e-06,-2.0357556568160554e-06,-2.5613100952959027e-06,0.09999791741420369,-6.224566939543923e-07,-1.2112148730768087e-06,-5.481608796165992e-07,-1.770380362324326e-06,-2.6848243384049513e-06,-6.238553423527327e-07,-8.815344263066742e-07,0.09999586291992411,-1.1380262109729954e-06,-3.0408385934846245e-07,0.09999665474895268,-4.6186631516173635e-07,0.09999795677476106,0.09999884240025343,-1.490803267147051e-06,-4.930049291626644e-07,-3.453186485608358e-07,-1.0759735651076213e-06,-1.5315196273689487e-06,-2.162645788280684e-06,-1.7549489670674482e-06,-1.3276892732857467e-06,0.09999645914295244,-2.1546285388776075e-06,0.014407310911299214,-2.454333249955177e-06,-6.018946628134803e-07,-8.742833693400332e-07
23,2020-04-17,Simple + Baseline,-6.0094633933097e-08,-7.684538400966607e-07,0.10000011437680523,-5.985664983543926e-09,-1.7978223693099683e-07,-6.766409483529626e-08,3.664085151108275e-10,-4.7196340136319144e-08,1.710173692622167e-08,-1.905968687611223e-07,-5.501786844018036e-08,-1.6064160985843226e-08,-9.853733705441802e-08,0.0069098281626078775,-1.3635783444327464e-07,0.09999738724638298,0.09999898218297859,0.09999976010833064,-2.996536659266207e-07,-2.7842219280102126e-07,-4.901880765909298e-07,0.09999975388246005,-3.081852239462856e-08,-1.1331677455576526e-07,-4.207043971114342e-08,-2.9033563929635915e-07,-4.748296237597817e-07,-5.649794559408867e-08,-9.527559164840506e-08,0.09999946224888023,-1.417396851784203e-07,-1.3016517187584318e-08,0.09999900905742379,-7.00867704275425e-08,0.07540048841551736,0.0999999088222981,-1.820986726047569e-07,-5.5622671834606576e-08,-2.643448104465323e-08,-1.6050683373755992e-07,-2.0925123271514475e-07,-3.7188016808919034e-07,-2.9074858665680225e-07,-2.277857849787961e-07,0.09999936445553927,-2.420170782563797e-07,0.014010562990125368,-4.228584878478017e-07,-5.066786788346646e-08,0.0036916219694216046
23,2020-04-20,Simple + Baseline,-3.963514025722065e-10,-1.4341660310811376e-07,0.10000008665139616,-6.483233001711168e-09,-4.715666635152632e-09,-2.851095616465599e-09,-4.398187953652204e-09,-1.4827529261820216e-09,6.848662615934267e-09,-3.022880369838865e-08,3.127597220105066e-10,-3.843762026235576e-09,-1.7816610367160724e-09,4.28447959296891e-08,-1.683119766370622e-08,0.09999908200624193,0.09999974808972754,0.07076749730362149,-3.790480679345997e-08,-3.261388931401794e-08,-8.717593476438523e-08,0.09999998733111297,-1.7020677705664302e-09,0.025028384416928024,5.556127754607328e-10,-4.3823802759291966e-08,-7.028689306462104e-08,1.690954862520228e-10,-1.623055116800468e-08,0.09999999875932403,-1.61964239349017e-08,-4.412706458802051e-09,0.0999997564447712,-1.5851315547733242e-08,0.08003619203098836,0.1000000100433209,-7.507569436201171e-09,-1.4253493823994662e-08,-7.250236115991245e-09,-2.8355902895115895e-08,-1.683856161489251e-08,-5.861342347928625e-08,-4.2833952428328755e-08,-4.195566658217812e-08,0.0999999102672862,-2.4877331234928355e-08,0.024170154439272437,-5.974330428507481e-08,-1.2672198659682356e-08,-1.284067416934228e-09
23,2020-04-21,Simple + Baseline,-1.1218253775828707e-09,-3.48539621157974e-08,-1.768766694092251e-09,-1.8802436575449146e-09,-8.605744813113331e-10,-8.436224857231258e-09,-1.912930691655588e-09,-3.7644449238701265e-09,-8.57654814770267e-10,-7.998624903303255e-09,-5.208961976015469e-10,-4.553873408163058e-09,-1.5484575435511212e-09,1.0384032935423562e-08,-3.354451298598395e-09,0.09999966018183581,0.09999992766500958,0.03376779450237593,-8.600717112376157e-09,-8.973097685334766e-09,-2.2773579868417936e-08,0.10000000188600817,-2.528140384135045e-09,0.10000000077597788,1.0793107345845892e-09,-1.0925686212045254e-08,-1.701744194675942e-08,-3.280504799483298e-09,-6.22352719010084e-09,0.10000001189137663,-5.9859373696551726e-09,-7.428737519988533e-10,0.099999927809541,-1.1065134146336032e-08,0.09466581154984902,0.10000000480265506,-1.6994660840096226e-09,-1.2416070990259716e-08,-5.214230827743292e-09,-1.2301524387301236e-08,0.029834222585203577,-1.324127805175847e-08,-1.1408450239452038e-08,-1.436134946906308e-08,0.09999998353305395,-8.432009007946316e-09,0.04173291249647088,-1.7232773411411122e-08,-2.8942522365198345e-09,-3.9032169144738904e-10
23,2020-04-22,Simple + Baseline,4.5182287718448e-09,5.870524026959999e-09,1.0312912809906108e-08,1.2413091643926995e-09,1.0945951161957884e-08,1.0732076169627756e-09,-1.52704922988787e-11,1.9346716970945376e-09,1.3312394530265716e-10,5.744823305691277e-09,3.0911866973677795e-09,2.6412190749928437e-10,4.666926571448884e-09,1.5855642456598862e-08,3.782612211135031e-09,0.09999990268966268,0.09999999877892293,0.03376784476906181,4.584565669064127e-09,2.7962295172146094e-09,3.5204559432800133e-09,0.1000000064779005,1.897443743547937e-09,0.10000000921257601,6.012880835495841e-09,6.4170647246393484e-09,5.796893136642369e-09,1.95049925385842e-09,2.2179887707211305e-09,0.10000002075838836,4.488667157239643e-09,3.6469094929368764e-09,0.09999999879286775,-6.289624957398547e-10,0.10000000765307504,0.10000000815454982,7.875783038897454e-09,-6.543083906967094e-09,-1.0664166786390708e-09,-4.3964422324473685e-09,0.020678778809797124,6.7919255140860255e-09,3.529491556924557e-09,1.7854486792476008e-09,0.10000000922005067,1.0028744283818252e-09,0.04555328085387237,3.6734480758847654e-09,3.9905492625411775e-09,4.852733783791656e-09
23,2020-04-23,Simple + Baseline,-1.7858878416386797e-06,-6.691840808597701e-06,-5.459219768994863e-06,8.935916556926814e-07,-3.1491678909464607e-06,-2.598672675024276e-06,5.112852749722567e-07,-1.209745976210727e-06,-1.8324843083060877e-06,-1.5645343773583768e-06,-1.0186281892420877e-06,5.378473904035059e-07,-1.3752481916329358e-06,-4.7725067270705206e-06,-2.435505338990984e-07,0.09998083819783109,0.09999086198649344,-2.2808185669580985e-06,-3.1569759508633635e-06,-1.4668796254005187e-06,-4.148152162227529e-06,0.09999998459887426,-7.600028513060291e-07,0.07830917433815143,-5.970674228154193e-07,-2.4635809182736145e-06,-5.912982920591743e-06,-1.8714511015957756e-06,-8.183467255945684e-07,0.09999372658393539,-1.5496217649528586e-06,6.021852814294942e-07,0.09998393033041814,-2.4357577082024226e-06,0.09999876489635043,0.09999881486404562,-2.1857727506526147e-06,-1.315943905285576e-06,-3.0613428752789793e-08,-7.7094825428024e-07,0.06279286466604915,-4.3344204013361875e-06,-2.961681023062031e-06,-2.6236763375227853e-06,0.09999252719923996,-2.4878703955161203e-06,0.05903651260682703,-5.582432691988717e-06,7.527881316953907e-07,2.1083160758702943e-07
23,2020-04-24,Simple + Baseline,-1.722775989037846e-07,-1.6281027481746062e-06,-1.4647600580374555e-06,5.780844518890103e-08,-6.070578499611574e-07,-4.857699227271313e-07,2.4317221516036648e-08,-1.2247351935056832e-07,-2.0128255872344015e-07,-2.846047381840625e-07,-5.4221485224687234e-08,-3.655443772205211e-08,-1.2205024896737207e-07,-1.0835699220846894e-06,9.037339091751862e-08,0.09999249798824593,0.09999716073092446,-4.0096975615608603e-07,-5.242532365402142e-07,-2.7879154730160315e-07,-9.871295662048064e-07,0.1000000735280134,-6.614901734476733e-08,0.07803969156828361,-3.7771170727352965e-08,-4.773894982126968e-07,-1.2149710530541596e-06,-2.9351859976822315e-07,-1.40756337512418e-07,0.09999921311823888,-2.829028309711173e-07,1.1363974974969919e-08,0.09999448766256065,-5.923204669477466e-07,0.09999993178449941,0.09999992382743832,-3.165807892429564e-07,-3.378409602222778e-07,-5.648287869448618e-08,-2.3904809653882173e-07,0.03508090162670698,-8.840747748899172e-07,-6.320670081334356e-07,-6.022613656715084e-07,0.09911657830036828,-3.5419314561136355e-07,0.08779545751134425,-1.2084253537389072e-06,5.616867063097113e-08,3.2329319330082443e-08
23,2020-04-27,Simple + Baseline,5.354256214816369e-07,4.656023931825272e-07,5.422100013781608e-07,6.926629497324251e-08,5.190806163161204e-07,2.722400744110213e-07,3.033691201352301e-08,1.4131402861344232e-07,1.4730916859720454e-07,4.838548107460046e-07,3.0295718796719137e-07,6.436200274421077e-08,5.431537037887097e-07,1.0267827196945816e-06,2.0906806698268292e-07,0.09999904752013242,0.10000071700442746,4.338766718148748e-07,1.344036755630313e-07,2.9798925103669275e-07,4.034855874090946e-07,0.10000031947643175,2.6276194774010883e-07,0.09514391263677605,4.228040228995847e-07,4.823045309295654e-07,6.330076236560046e-07,2.052655789865836e-07,2.7765982035445983e-07,0.10000083718665072,4.228898478203827e-07,1.480622286137799e-07,0.09999943227719099,2.748825512350189e-07,0.10000049433975779,0.10000049852505837,2.906311935824642e-07,7.587919967617677e-08,1.2746640311757788e-07,-3.132876372892307e-09,0.0879575003745979,3.147156304390788e-07,8.074999567453624e-08,2.7061803385730416e-07,0.027726538085710614,2.0446433583820196e-07,0.08915899355262163,1.5464318215119773e-07,1.2688507945613633e-07,3.0560255063356415e-07
23,2020-04-28,Simple + Baseline,-5.154075375644e-08,-3.3956373291890564e-07,-9.908587836316372e-08,8.737701652971864e-08,0.08318301791745163,-4.7021899213497434e-08,3.614777393581944e-08,-5.6585238025193417e-08,-2.5697014104415187e-08,-3.1287170946756315e-08,-6.07749932486701e-08,5.154908501345728e-08,3.1527951198279544e-08,1.7458611889500755e-07,6.054661328194956e-08,0.09999908072991506,0.09999961753213843,0.0017212654953959214,-8.022664041478544e-08,-6.377363024032185e-08,-2.4389046498218376e-07,0.09999999616222499,-3.000671951067023e-08,0.038272733252817145,1.0132216887023534e-07,-5.0617775076812926e-08,-3.359357560361576e-07,-1.2754405631295063e-07,4.298232763287047e-10,0.09999953480024916,-2.5199230632352937e-08,7.489507582723718e-08,0.0999992225927988,-4.23196463644482e-08,0.09999984638093201,0.09999996648337593,-1.2696737075252542e-07,4.026767465920495e-08,-9.017418755920536e-09,-5.320441426488683e-08,0.09999997055200566,-2.1624393737618628e-07,-1.4286445429740897e-07,-1.3930595891038762e-07,-3.641638397117417e-07,-1.8632118367262846e-07,0.07682820343461551,-3.1885610370567637e-07,9.142183633907503e-08,6.509296120604385e-08
23,2020-04-29,Simple + Baseline,-1.6791584804126214e-07,-8.367592886007893e-07,-7.356572986725132e-07,5.4879588765809357e-08,0.08318021600204639,-4.281607007234438e-07,0.009582765613051547,-2.489979552030651e-07,-2.1852196645699033e-07,-2.507453596764653e-07,-2.439714254604418e-07,-1.4782885186882245e-07,-3.104980291192992e-07,-7.26999980035773e-07,-1.1453736225786562e-07,0.09999847367704211,0.09999865356480718,0.03335237761865011,-2.4048195324182996e-07,-4.70652644483657e-07,-6.668377580681558e-07,0.0999999321076987,-2.0912439953834458e-07,0.02907257038293859,-2.0652693968513824e-07,-4.5855464664907256e-07,-7.386847982300046e-07,-2.8223090633200416e-07,-1.8001404118035264e-07,0.0999991568252548,-3.85490158618459e-07,-1.200873068160653e-08,0.09999825815888323,-4.402958314315298e-07,0.09999987892599578,0.09999971500176368,-2.4524852534902967e-07,-2.3824451017802043e-07,-1.1324943652946086e-07,-1.923950743219699e-07,0.0999996677919434,-3.5187952297620855e-07,-3.962488611780741e-07,-3.2432100754277594e-07,-7.625561955502877e-07,-3.3275094682219085e-07,0.044830806682937784,-7.789158291305732e-07,-2.3948133266826072e-08,-4.026095527351976e-08
23,2020-04-30,Simple + Baseline,1.8966411321836018e-07,7.211601577356743e-07,1.0658560149130648e-06,-3.5539146595302486e-07,0.09999999333063472,4.4911840302083486e-07,0.017302006273767313,-1.9459761858600256e-07,2.149266833668781e-07,-2.4089603625933848e-08,0.003250940168165395,-1.6179088721485095e-07,-2.0864495693895339e-07,0.005006271817350443,0.02282448292392624,0.1000006843262235,0.05641827572507259,0.10000020934584807,9.716468565772928e-07,3.559657891641779e-07,7.378469406232375e-07,0.09999986508488568,-8.156756408434724e-08,0.016597991808192502,-5.393403399330776e-07,1.1165740719083967e-07,8.744052147361859e-07,2.1237118314624277e-07,4.2810668443605566e-08,0.10000121765675071,5.641590821931904e-07,-1.9811786547157438e-07,0.10000055863866687,-3.2008406794174084e-07,0.10000046824033015,0.09999927757320674,7.826528959104508e-08,1.6920109306711791e-09,-4.6159946701757453e-08,-1.1486517965726962e-07,0.041489855329557276,8.477112142099928e-07,4.502954281425576e-07,1.3461920934731102e-07,1.3093929928822756e-06,9.955774254052189e-07,0.03709963541624793,9.452924268668718e-07,-3.989962246903241e-07,-3.69931746442404e-07
23,2020-05-01,Simple + Baseline,5.670868947619997e-09,-1.6860448673268635e-08,3.064787671348892e-07,-2.5781859281852887e-08,0.09999998226579405,-1.2868144787055885e-08,0.012328610177523033,-3.118556758240096e-08,1.3562127009208682e-09,-7.349552794509692e-09,-1.7379373220205554e-08,-2.6093017666838533e-08,-3.2201309281671106e-08,4.3807499006934507e-08,5.7764675809065755e-09,0.09999994972883523,0.018529747576927876,0.02011794364579884,1.6913874769720076e-07,-8.794093594803513e-10,4.688261334049685e-08,0.09999998791627618,-1.655840848769622e-08,0.06361918489027739,-6.148427322508422e-08,-1.4200154918140548e-08,-7.145806970221378e-08,2.525857110543312e-10,6.4854319881626875e-09,0.10000018339237585,9.901410469150996e-08,-1.665945729618433e-08,0.10000020800476134,-6.384850942462499e-08,0.10000008022068764,0.09999990231785692,2.4247049401937975e-09,4.455698696101981e-09,-5.347961531738966e-09,-2.299278716207952e-08,0.04148984634920358,-1.9017397397594478e-08,9.41888109862448e-08,3.3861607491556896e-08,0.10000005680420156,2.9496055826746077e-08,0.0439141066735813,-9.546576870467926e-08,-4.645855946389284e-08,-3.524790530676893e-08
23,2020-05-04,Simple + Baseline,-3.2547203177170797e-07,5.7220030182254685e-08,0.005045000879755538,-2.9138972025592567e-07,0.09999993431219777,-3.2707175868368037e-07,0.012318594268600666,-4.404367411064269e-07,-2.542225062981692e-07,-6.367680346364456e-07,-3.4956075251497654e-07,-2.0682238605359105e-07,-4.402445402657174e-07,-1.585861301833994e-07,0.005834309267962581,0.0999992222014319,0.030732933956605934,-3.5382623613503854e-07,-2.8337572832391604e-07,1.3143914493608163e-08,-5.35437992520285e-07,0.0999999485915214,-2.805836366178099e-07,0.07803243102608076,-2.6026122566220144e-07,-6.078415991857295e-07,-3.48697042951118e-07,-4.30242291087087e-07,-3.125592421193911e-07,0.10000038118479274,-2.313509377279105e-07,-1.6747381509764357e-07,0.10000028876054456,-2.4783851961990525e-07,0.09999988156193405,0.09999952828173114,-1.9619114674495445e-07,-2.010137219272289e-07,-2.2130400833234667e-07,-2.692416925526441e-07,0.02246196350496385,-4.627978894936937e-07,-2.7327390051337405e-08,-4.379874649002068e-07,0.09999948080747698,-1.7633920773452197e-07,0.04558618499136918,-1.3654253931458777e-07,-2.7709169223939734e-07,-2.6135802851898074e-07
23,2020-05-05,Simple + Baseline,-2.0089483482953253e-08,9.704535331273961e-09,-1.2722845302704196e-09,-1.86406586940809e-08,0.09999997210720434,-5.396634773486634e-08,0.012318542669257627,-5.292984385391098e-08,-2.510716720756178e-08,-1.334980565894657e-07,-3.717242770179214e-08,-2.7831075109994905e-08,-5.1543520027234704e-08,-4.6245314873734465e-08,0.01884543081260326,0.09999959021980241,0.030732838075956448,-6.662464593015058e-08,-4.8857662534496905e-08,-7.682866483457849e-09,-1.4812891371352916e-07,0.09999998698567707,-2.55917601723095e-08,-2.1019329422736828e-09,-3.173904815400589e-08,-1.3878156628861347e-07,-9.593170797915081e-08,-7.145249937573985e-08,-5.4779188697243956e-08,0.0999999417650631,-4.491808128098277e-08,-1.445052557445179e-08,0.10000009130311908,-6.231171918349665e-08,0.09999997253388472,0.09999993459494667,-3.565219962930189e-08,-1.9997157604974086e-08,-1.715812106379565e-08,-3.647177470294099e-08,0.10000000500320887,-1.0110895648700748e-07,9.169748918343463e-09,-9.640958022830726e-08,0.0999998431364765,-2.908631321773846e-08,0.03810554035514787,-2.6074239877665135e-08,-3.25307216370631e-08,-3.190399983488984e-08
23,2020-05-06,Simple + Baseline,4.4017150613108677e-08,-5.114746573891857e-07,-7.16441993262324e-07,9.612515931301059e-08,0.09999947491470695,-2.543021635581257e-07,7.469736218611441e-08,5.038953118707075e-08,-1.1057160086322321e-07,-2.1212236217594832e-07,1.027368563599395e-07,4.6125332736353784e-08,-3.5784395007744224e-09,-7.161125025978187e-07,-2.876578103188138e-07,0.0999986976327876,0.020255004743927742,0.08218330308261976,-3.465507122834551e-07,-8.357594865741421e-08,1.3899297820593048e-08,0.099999562066672,1.0641095250291317e-07,-1.2370040993162364e-07,-1.846994158427397e-07,-1.8227366874365305e-07,-3.2256592080492983e-07,-4.225099796021723e-08,-8.227301638137955e-08,0.09999919899048226,-2.543222571505026e-07,2.8483147827880832e-08,0.09999848122419021,-4.691461583249804e-07,0.0618661850916154,0.09999959277754217,-2.902360146304445e-07,-4.3587369560897996e-07,1.1443174607200065e-07,-1.9254175069767557e-07,0.09999967002898288,-1.47488073830185e-07,-2.9822858572425975e-07,-3.9586429110381215e-07,0.0999998834004655,4.6511910200325844e-08,0.03570728578333765,-4.1203699726787696e-07,1.4434548495353288e-08,6.2825210879977295e-09
23,2020-05-07,Simple + Baseline,-4.7694751184093063e-08,-2.6054533248259305e-07,-2.356307404701899e-07,2.605548026181042e-08,0.09999976677991117,-1.3869446221389658e-08,0.01747811938694889,3.277593411533363e-08,1.9522282318957663e-08,-9.040780687936553e-08,3.961278858335999e-08,-1.2434693186138195e-08,-3.329361141185258e-08,-2.7832808650298253e-07,-1.0396711169590668e-07,0.09999937650429981,-2.4224885182692714e-07,0.09999996075312809,-7.488080697805243e-08,-6.967924485460724e-08,-4.779532202761288e-08,0.0999998624580297,2.82576093972009e-09,-1.970168090787866e-08,-6.651383272510596e-08,-9.228635611995395e-08,-6.472287570057681e-08,-3.142788080469375e-08,-4.0547901109472826e-08,0.0999997691022782,-1.3397146186392975e-07,-1.0705925314885068e-08,0.09999927791451034,-2.0314400968789673e-07,0.07204665611934731,0.09999992351694285,-1.4223568270783459e-07,-1.895170217730005e-07,-1.4976583832348757e-09,-1.4795166638545884e-07,0.09999991711125167,-8.848662124266127e-08,-1.57002823580315e-07,-1.973353936995875e-07,0.07577768025443608,1.4741245633234185e-08,0.03470280901375612,-9.36896272760846e-08,-1.3896821488672891e-08,-4.808665220520557e-08
23,2020-05-08,Simple + Baseline,-4.3827210148274696e-09,-7.732212959814051e-08,-5.406313198401323e-08,7.917943015956601e-10,0.09999995304758416,-3.2063095515579646e-09,0.001972031617170472,3.765954435334877e-09,2.119970376523884e-09,-1.8694594033406628e-08,0.0722275119764677,-1.0765990283508999e-09,-3.407008746047742e-09,-6.664722460429118e-08,-1.5237565163327216e-08,0.09999975139233146,0.015586220594925185,0.09999999290766887,-1.3762557249739601e-08,-1.1496002233985681e-08,-1.051302805842362e-08,0.0999999816334114,1.1886111821749674e-09,-1.9615466421390118e-09,-7.922504236482654e-09,-1.8879065757517454e-08,-1.6264382121557932e-08,-3.774983279365463e-09,-5.894623869434067e-09,0.09999995906565053,-2.2497891606417247e-08,-1.345018142369711e-09,0.04969078457362911,-4.298468234917256e-08,0.05077098106082482,0.0999999896419943,-2.075802460576255e-08,-3.291990833889973e-08,1.0476497881343418e-09,-2.4756272250432663e-08,0.09999998665535015,-1.7370730934880366e-08,-3.046021462228959e-08,-4.008042451849158e-08,0.07577768237767979,1.671668224955455e-09,0.03397575947252059,-2.3529415646055235e-08,-1.6986027377394278e-09,-3.7042194671751275e-09
23,2020-05-11,Simple + Baseline,-1.7933308082156156e-06,-3.086138454610882e-06,0.02298385013726909,3.012862759417207e-07,0.09999785300228864,-1.2212873941256352e-06,0.0031094722914849905,-1.6078565872778688e-06,-1.0039775373060717e-06,-8.315362875818342e-07,0.0726220749296214,-8.462792314497459e-07,-5.418526764667386e-08,1.852754917203378e-06,9.322000230967792e-08,0.09999753207999953,0.07011763378263235,0.09999857661254073,-1.0248380293917266e-06,-5.036823722579767e-07,-3.7839493635426516e-06,0.09999944790392279,1.5263581172321073e-07,8.207369319592787e-07,4.1919531058134103e-07,2.8093365050079883e-07,-3.4011158985800183e-06,-5.691191720580437e-07,-4.669175689883514e-07,0.099997667175428,1.0691432218981876e-06,-8.274786991617294e-07,0.014843632512407605,3.9377181883491264e-07,0.004038628606881142,0.09999926334974571,7.936221641587793e-07,-1.4382314981026337e-06,5.001981762679428e-07,-7.052363869757158e-07,0.09999982436838542,-1.648869569993821e-06,-2.1454027796451933e-06,1.2558614128700726e-06,0.07576782726547877,-1.302582844596797e-06,0.036548917371988864,-2.980173736711811e-06,9.886699292222558e-07,1.1893286691467021e-07
23,2020-05-12,Simple + Baseline,-1.6794282962758352e-07,-9.017857762398025e-07,0.0633716006746554,3.003846557065211e-08,0.09999953441106778,-1.7314465556910762e-07,0.03220009708599936,-1.7388488381905375e-07,-7.976826624392858e-08,-1.5502604133394408e-07,0.053813394619707314,-6.219681594500071e-08,1.6238449314578478e-08,4.612700998376014e-07,1.549700473794483e-08,0.09999895210456167,0.005166906262094785,0.09999974504180893,-1.5664199742302318e-07,-5.5890981861105134e-08,-1.008056314436176e-06,0.09999991028192522,3.242229611072413e-08,1.0885801976623069e-07,5.295711169045538e-08,4.537137034603822e-08,-8.818060091632767e-07,-6.214805600880644e-08,-4.766565754815832e-08,0.09999958406554846,3.827752023813304e-08,-4.8936079990894576e-08,6.340267869626149e-09,1.4121888956164291e-07,0.028801434361849218,0.0819241666760791,2.4944979029166143e-08,-2.209855147149578e-07,8.314915103642844e-08,-8.21755831601002e-08,0.09999996897182296,-3.424623015216982e-07,-4.018268329367383e-07,3.860995957420906e-08,0.09999999255946929,-1.804309612127887e-07,0.034729555668440056,-7.739017839713756e-07,2.4057754880579608e-08,1.4560823443144299e-08
23,2020-05-13,Simple + Baseline,-1.4854973655002428e-08,-2.963434075830803e-07,0.09492694038194854,6.1669135110804165e-09,0.0999998722192267,-3.722523552238501e-08,0.042954103453712665,-1.7786724113237913e-08,-6.420057109737739e-09,-3.34109882646778e-08,0.013933371236329923,-6.5977521305781385e-09,-1.0218910383196094e-09,-2.354824353489648e-08,0.05604988488013651,0.099999563100841,-2.3943266104031065e-08,0.08840270166861816,-2.8948234729423035e-08,-1.3625297307119808e-08,-2.8970749020633973e-07,0.0999999881988719,3.02848143562837e-09,5.5289909848177325e-09,2.76276372689867e-09,-3.2463799298684974e-10,-2.4151514733208015e-07,2.1052976430514462e-10,-1.102287234460586e-08,0.09999991711110773,-2.1473451041381875e-08,-5.9169723313983115e-09,-1.4109157421948226e-08,3.2042717535161904e-09,0.03127389203598852,0.043009000459081285,-2.7652923478312933e-09,-5.277458806533117e-08,4.59609232990457e-09,-1.3329501555109956e-08,0.09999999218288431,-7.558182490299442e-08,-8.704484237872801e-08,-5.507491186462247e-09,0.09999998703738593,-2.957535854595649e-08,0.029452346638196496,-2.2423344245041515e-07,-6.062369275892159e-09,-1.3145513660388958e-09
23,2020-05-14,Simple + Baseline,2.1458540064308913e-09,-8.593362102152485e-08,0.02754993803460531,6.555082038588979e-09,0.09999995733820541,1.2348461269770937e-08,0.01929191768981564,-1.8202024718639626e-09,5.941235231271925e-09,-3.5868035229538504e-09,0.01116173080575325,9.518031970307425e-09,-8.440416528552001e-10,-1.6332160474029404e-09,0.10000000261115544,0.09999983623125108,-2.684490598219586e-09,0.07466879429584418,4.48609988492269e-09,-6.676923208633205e-09,-7.644475178989086e-08,0.09999999238586812,-6.79226397839467e-09,9.299677372903661e-09,6.2614846968011516e-09,-9.081420764963502e-09,-5.7495006599361164e-08,-9.221876431820502e-09,9.209853360560484e-09,0.09999999080873741,-1.4956937053170448e-09,1.2282956887074073e-09,-1.0383831541524655e-08,-1.0225499734125182e-08,0.058082860531750796,0.08009518356310495,-4.098205916014567e-09,-1.2095991613236266e-08,-9.51168633915871e-10,-2.358459203585574e-08,0.10000000071632976,-2.7233703273038998e-08,-3.53875451427896e-08,-1.6982074642172133e-08,0.10000000398926717,-7.703831724413197e-09,0.029150189303682426,-5.2647351565489636e-08,-2.8194355866118293e-09,2.540808830695899e-09
23,2020-05-15,Simple + Baseline,-1.175320826485455e-08,-1.3501936019470586e-07,0.027240216902490698,3.1698826124461444e-09,0.09999985722788561,-5.9265363749336447e-08,0.03434033123773949,-4.2121223790387834e-09,-8.35342934418439e-09,-3.970851932138209e-08,0.01069800946861093,-3.017003709960298e-08,-3.305272240961998e-08,-9.963126337887318e-08,0.09999999468223093,0.09999980602760268,-1.026570419976589e-07,0.060867692887698936,-3.0693985733487104e-08,-6.1538061695273e-08,-1.0720648893073497e-07,0.09999999184681979,-1.111014038317131e-08,-4.9716156369877606e-08,-2.2740943147287204e-08,-6.898855336115131e-08,-8.242861791247187e-08,1.1301390716721536e-08,-4.918075321279882e-08,0.09999993697495364,-1.194473175642964e-07,-2.2779785261205003e-08,-1.2218457050171536e-07,-5.56667747847495e-08,0.058082596494669146,0.08009496539787808,-1.998169610000657e-08,-6.550703795681312e-08,-1.6346603816800115e-08,-3.821105242907308e-08,0.09999996180449387,-3.265290612509517e-08,-4.9563216799464974e-08,-7.174367259258143e-08,0.09999992701436286,-2.7314647659804503e-08,0.028678525412510304,-9.985617081588533e-08,-5.105323556981382e-08,-2.7227342927629842e-08
23,2020-05-18,Simple + Baseline,2.8857026627747615e-08,-7.350560375146778e-08,0.03240762920923995,2.0619043832153577e-08,0.09999984734016928,-1.765311256091933e-08,0.024624376224084546,-9.858916335075617e-09,-5.2723848455866793e-08,-2.041364885518918e-08,0.012740058214037878,7.942217865067356e-09,-1.751961322369588e-08,-5.6376054382106236e-08,0.09999996782744024,0.0999999082005382,-5.890694387378548e-08,0.0732370959439546,-1.084982456550757e-08,-4.7980325419804475e-08,-1.0048667372039292e-07,0.10000001728723334,-2.417730242692359e-08,2.8641775825274375e-08,-1.2426836370737156e-08,-4.9388019046286276e-08,-2.2642471766998233e-08,-3.9550897932874116e-08,-2.5241451059917118e-08,0.09999998356407422,-7.796202885353283e-08,-4.825828666928538e-08,-1.2798487200014953e-07,-7.043932513902988e-08,0.022939640516830964,0.08009520932819522,-3.753602979199409e-08,-9.564174458567589e-08,-4.457554749241474e-08,-9.262031540462049e-08,0.09999999090871439,-5.4804447702156676e-08,-8.875647695254831e-08,-1.3118449332157736e-07,0.09999994696633355,-2.9495819617130567e-08,0.027219644720197465,-8.816674317243618e-08,-2.5576116035431435e-08,0.026738250489493926
23,2020-05-19,Simple + Baseline,5.43801920154807e-09,-8.432193615499946e-09,1.4157665380557973e-08,8.178674218994063e-10,0.09999997942335903,5.026247343487523e-09,0.020056963816468047,4.300844448161301e-10,-2.1004881724266476e-09,4.720949222412678e-10,0.014008089660867204,4.156354207672323e-09,1.9103057967672836e-09,-4.367670686463172e-09,0.09999999652967408,0.09999997246620648,-6.558317684429294e-09,0.070786852843132,3.0348627324546555e-09,-1.8399643478974873e-09,-1.785771234472034e-08,0.10000000448672344,9.045095929503006e-11,8.059964406215158e-09,1.4157664755067442e-09,-3.509107598646472e-09,1.043583648368296e-09,-2.3762678322579336e-09,2.8987759852094864e-10,0.1000000048900359,-5.562453122486246e-09,-1.6065337774821866e-09,-3.199179652443574e-08,-6.986197780170321e-09,0.0679286123561624,0.10000000517439381,-1.299959463790428e-10,-8.623415533098667e-09,-2.3998393888255584e-09,-1.2334041381477154e-08,0.1000000016968455,-8.494082924618983e-09,-9.12423253100701e-09,-2.267900707928413e-08,0.09999999310609474,-1.3310242809477493e-09,0.02721964612782406,-1.3128529265522523e-08,9.688301344191693e-11,2.2438081810421732e-09
23,2020-05-20,Simple + Baseline,-2.7260907789856515e-07,-1.670550872796706e-06,-6.755660588807894e-07,-9.210869709575281e-08,0.09999865751577028,-8.26027100985436e-07,0.020055434174271924,-2.1984142341965295e-08,-3.1752419023740725e-07,-9.488218197297785e-07,0.022046556717434267,-3.56468347809502e-07,-3.7001811944449513e-07,-1.2601404861838052e-06,0.09999985033929777,0.09999820411726693,-1.2890981620338002e-06,0.09999915829108645,-7.782479374706864e-07,-7.45533801745061e-07,-1.2832692828110046e-06,0.0999996579201526,-2.2927148660166908e-07,-6.320165113015307e-07,-4.443385040359794e-07,-7.18749790416945e-07,-4.6527200143643864e-07,-4.4457624614970875e-07,-7.159579655434206e-07,0.0999989768767057,-1.2099438774238598e-06,-3.575207189678355e-07,-1.0873589063218907e-06,-8.601951894701029e-07,0.05199154675064499,0.09135706260284182,-5.590340147475487e-07,-6.839719145155191e-07,-2.5208028730025296e-07,-6.694744647695785e-07,0.09999953326975526,-6.647009286083861e-07,-7.969040782777579e-07,-9.625900210116243e-07,0.0896735306821912,-2.2330055933307375e-07,0.0249064252806742,-8.951294209701841e-07,-3.879773479987079e-07,-4.204272294212194e-07
23,2020-05-21,Simple + Baseline,-2.9365217298424833e-08,-6.695469044259971e-07,-2.654302530359084e-07,8.898371156238814e-09,0.09999953883102813,-1.8297275408807431e-07,0.04089041974337331,8.768463043373162e-09,-6.264644133497852e-08,-2.551073305313986e-07,0.052726146604761284,-3.335631981473906e-08,-4.960370354776984e-08,-4.122861356572852e-07,0.09999995520689524,0.09999902958449747,-5.874839054644107e-07,0.09999976570140078,-2.050641241638054e-07,-1.8058651682589102e-07,-4.3872206231391837e-07,0.0999998952630618,-2.8189692805348974e-08,-1.2945376838254297e-07,-7.689103707925086e-08,-2.1318583248557833e-07,-1.9983364654033095e-07,-1.0842718597392182e-07,-1.4547536672466993e-07,0.09999972003323404,-3.170979475210591e-07,-4.168117093368986e-08,-5.845417242593684e-07,-2.485604787812698e-07,0.012063539472751326,0.06958749174314399,-1.4181431989958988e-07,-1.9322310801919449e-07,-1.9480483156012902e-08,-1.7514741396014087e-07,0.09999987577580585,-2.0622077844977856e-07,-2.1297016707380124e-07,-2.981449426724081e-07,0.09999986783461466,-6.070989230902905e-08,0.024741965847479806,-3.4799392615740967e-07,-5.2378733749034186e-08,-5.458762468932291e-08
23,2020-05-22,Simple + Baseline,-1.0020547814904602e-08,-2.2080403682482583e-07,0.0237524193920447,6.858915698670477e-09,0.09999985437889373,-3.949306237277171e-08,0.05671107393046914,7.008300928070549e-09,3.3891669112737323e-09,-6.47645510322878e-08,0.058794889970836865,-5.0548840710646505e-09,-1.54777449752025e-08,-1.2335869559961636e-07,0.10000000037149419,0.09999958107410901,-2.046681521218892e-07,0.09999995835045168,-4.65323283523296e-08,-3.786773964499051e-08,-1.4252563456677472e-07,0.09999998459822299,3.982592455076592e-09,-3.606629678531511e-08,-8.084336420935881e-09,-5.136127381111648e-08,-5.724177035732426e-08,2.1124188688533256e-09,-3.118567286186047e-08,0.09999995907071822,-9.736107661383607e-08,-6.385486373567914e-09,-2.3652165315538358e-07,-6.368234007559601e-08,0.01028290496991681,0.06824799645345306,-2.763235412734782e-08,-6.062960349749277e-08,1.4470104590013657e-09,-4.02134752073282e-08,0.0568120856803729,-6.17788882052217e-08,-5.365228808768557e-08,-6.734157028173209e-08,0.09999997876103271,1.5792169438578496e-10,0.02540126541610633,-1.2240613247387888e-07,-2.5960887374008513e-08,-1.9194812985382432e-08
23,2020-05-26,Simple + Baseline,-8.618604505427366e-09,-2.3121216684430297e-07,0.017796707301796215,7.529519614348989e-09,0.0999998106888971,-8.824958071836164e-08,0.05503878136838889,-1.9106516631483297e-08,-5.143046095600875e-08,-9.690267542322228e-08,0.06730447031221222,-2.1287421633845385e-08,-3.109293484931893e-08,-1.7263952884031126e-07,0.09999998289103801,0.09999960686010068,-2.2875436847978355e-07,0.09999989742632526,-1.156493517891624e-07,-6.207647114515546e-08,-1.9671841585094282e-07,0.09999993788457553,1.1472802236179457e-09,-4.656019882535478e-08,-3.3775767074876905e-08,-6.375363288088135e-08,-1.7203038482567705e-07,-1.5926114025364203e-08,-6.25894399591317e-08,0.09999993774353483,-1.478383680377331e-07,-6.1519177143070884e-09,-3.97562966311926e-07,-1.0911840409633216e-07,-8.986029312791099e-08,0.0682477553181076,-6.812946622835731e-08,-1.1150313771599591e-07,-3.258960344651699e-09,-4.324233456818109e-08,0.0568113271631454,-1.1784197949112367e-07,-9.669333756903557e-08,-1.4355296712743275e-07,0.0999998073048086,-8.756282108019709e-08,0.02466704739756053,-1.708952193226795e-07,-3.977646206538809e-08,0.010138274827169317
23,2020-05-27,Simple + Baseline,4.492343738364142e-11,-4.148504563747037e-08,0.017796809252466184,5.035823080557413e-09,0.09999987321180817,3.6758998152681915e-08,0.04869520410323758,-3.7937815543769525e-08,-5.456482979769396e-08,-3.338143249000906e-08,0.06730414251052529,-1.842514572429106e-08,-3.575458334410077e-08,-2.560871715546161e-08,0.09999997567321717,0.09999990674659269,-5.477267670658104e-08,0.09999995598001804,-7.1761957292616676e-09,-5.70400245562217e-08,-7.859662589903352e-08,0.10000004019882339,-5.5224163255764286e-08,3.353843060504546e-08,-7.880473300150974e-09,-4.567455595799858e-08,-6.555780372028786e-08,-4.983980237068661e-08,-2.1996965249341403e-08,0.10000002162904195,-4.3670688320431334e-08,-4.149000611014604e-08,0.02622142640745261,-6.813392089381002e-08,-5.7522752431853414e-08,0.0682481565715436,-3.669534103017506e-08,-4.5440195832150765e-08,-4.3465162699871525e-08,-1.0012239781264136e-07,0.011558303143819766,-8.28162340076291e-08,-9.05109191235542e-08,-1.26984800958769e-07,0.09999990626205511,-7.474141413325229e-08,0.023773658694507205,-9.077240602874489e-08,-6.467816755322921e-09,0.036404143709313636
23,2020-05-28,Simple + Baseline,9.975395648655543e-10,-3.02416440394191e-08,0.006057967922398172,-1.6005592308596811e-09,0.09999997761099552,4.375369901536923e-09,0.047171016557480246,-6.937681494997066e-09,-4.3278338685865514e-09,3.1563827429968274e-09,0.05091415837210487,-1.9968533767355594e-08,-1.7767465176541486e-09,-1.4979133962073995e-08,0.09999999668680111,0.09999993428583143,1.4449778434812172e-08,0.09999999012426071,-6.57664750330071e-09,-2.028287033836482e-08,-1.4965743970705704e-08,0.10000000518441475,4.044105878909606e-09,-1.9106598282074185e-09,-1.1114201559522849e-08,-3.45199837492923e-08,-3.20483056576925e-08,-1.5814005266700346e-10,7.812045717444452e-09,0.09999999623448885,-7.717414647273599e-09,-6.930128649632792e-09,0.05600099965938748,-3.01941341691823e-08,3.0742722086098648e-09,0.09023978090278612,-1.1630794389420028e-08,2.0990288478369376e-09,-7.023659775709045e-09,9.602083564590273e-09,2.262171657903728e-09,-6.997856252652524e-09,-1.0991256854897145e-08,-1.1175294688723337e-07,0.09999997762180042,-3.714872200784063e-08,0.023773586302572577,-2.0108721712671312e-08,8.993989645826972e-09,0.02584300364021367
23,2020-05-29,Simple + Baseline,-3.999328523324887e-07,-1.635650075840621e-06,-8.118188285482413e-07,-2.3831976755657834e-07,0.09999869576452022,-7.268052600014012e-07,0.04409334032057341,-2.41978237344577e-07,-1.8553052519186648e-07,-9.65625330353428e-07,0.045484897151079506,-5.156834358746176e-07,-4.039565388136434e-07,-7.536456132958988e-07,0.09999981449043951,0.09999924475161406,-7.342196904850128e-07,0.09999952380011604,-6.966357175765277e-07,-9.676217949962991e-07,-1.1735632747468923e-06,0.0999997023349579,-3.1180090211814364e-07,-6.163590446279814e-07,-4.65511592339345e-07,-6.935135999056093e-07,-9.131998019822935e-07,-4.009379748105677e-07,-8.826544493857128e-07,0.09999967048299736,-1.3143306161086101e-06,-4.590050342457276e-07,0.06493684024120534,-8.153904473782057e-07,-2.1191974796372417e-07,0.09490077941540678,-3.672420466892035e-07,-6.479884592268729e-07,-4.292939390060448e-07,-5.443805246044787e-07,-1.7095599023817995e-07,-7.967091535619375e-07,-8.798133972336446e-07,-8.106177296265665e-07,0.0999999024251891,-4.427232263584399e-07,0.024774831035242063,-9.352698073545789e-07,-6.191699662829413e-07,0.02583694100746273
23,2020-06-01,Simple + Baseline,4.1861238999229796e-08,-3.3948539262678457e-07,-1.029879130923723e-07,-3.417534012293154e-08,0.09999969017893319,-1.3220033238385072e-08,0.04808959082192195,2.886084085591624e-09,-2.928558376859212e-08,-1.3151071646752102e-07,0.045485306560496055,1.3103877017417195e-09,-1.308893675309001e-08,-1.6049174568646762e-07,0.09999996650848472,0.09999990944687252,-4.652458158261994e-08,0.09999985425290692,-2.9643653700716826e-08,-6.603021595694823e-08,-2.6897648133646103e-07,0.09999996302482823,-5.176483640965715e-09,7.290993717038219e-08,-2.2237951548653172e-08,-1.5558277176187725e-07,-6.156533088305477e-08,-7.498260455066744e-08,-5.471815985812722e-08,0.10000003252936604,-1.7466463251272638e-07,-4.6908194171434646e-08,0.06174415694062025,-1.6937799261374202e-07,2.2808944750170165e-08,0.0941845637099373,-3.317516974568166e-08,-1.4784468882085552e-07,-2.0732638386894668e-08,-1.7808213595258427e-07,0.02184210802297013,-1.720837083657012e-07,-1.3840526331085456e-07,-2.2989875008143688e-07,0.10000010018163137,1.3054117836671435e-08,0.024757830582918517,-6.58919416182673e-08,-9.600913235179015e-08,0.0038998545143297796
23,2020-06-02,Simple + Baseline,4.7837057893342854e-08,9.235456076886956e-08,0.019494975731229554,-7.673129631737851e-08,0.09999975528216011,5.339016488975054e-08,0.04808937656104515,-1.0519925097057992e-07,-1.2670752677026783e-07,-2.8888286474437304e-08,0.057349025177121746,3.0601174011697243e-09,-3.401988540882181e-08,-3.3764768844224944e-08,0.0999999179487121,0.10000019178704019,2.017225643837372e-07,0.09999979189857103,3.157021812391432e-08,-9.956249015550714e-09,-1.149669274213492e-07,0.10000004821683414,-1.065435541992966e-07,2.1193469582542151e-07,-1.5488677205547884e-08,-1.0592218936407748e-07,6.008264504169815e-08,-2.1050401663196964e-07,-3.511049084683257e-08,0.10000011290879282,-2.0727458972218228e-08,-1.2713503387247495e-07,0.02878489651929756,-1.5178575393148553e-07,-1.9365925133652312e-08,0.09418565502459071,-7.224327887306565e-08,-1.1020065283180122e-07,-1.3956085663907534e-07,-2.3421525438333511e-07,0.027379089161414325,-2.1292332885882238e-07,-2.3449040324816468e-07,-3.2539619739712617e-07,0.10000005685978343,-9.120183376204186e-08,0.02471916930443297,8.408011357816759e-08,-7.945669267108287e-08,-2.702734444672458e-08
23,2020-06-03,Simple + Baseline,4.3465182238667746e-07,1.0282519885796205e-06,6.036492952222584e-07,3.6693167174154075e-07,0.10000062894090085,2.6060891401538506e-07,0.07676323792058128,3.7968157647647e-07,1.925394353152179e-08,5.889290164718546e-07,0.05735616516085156,3.0708786642789475e-07,4.0103502056800937e-07,4.802642088375691e-07,0.10000029973073682,0.10000131679581063,5.390117662659833e-07,0.10000038672347548,3.4964952498973865e-07,4.407633630281813e-07,6.268978569820969e-07,0.10000064098700386,2.0330826126092628e-07,3.3395814343351707e-07,3.7267880244921055e-07,6.961774157208599e-07,9.364795894248914e-07,2.7513922197517627e-07,3.075422180374707e-07,0.10000033723553611,2.6845617852790975e-07,1.8217881064683955e-07,0.028786472702121004,3.176335979012058e-07,3.7433060744901335e-07,0.09419178030123908,0.0067513930266897716,3.637471183180664e-07,1.7134406313539646e-07,3.8661069825050235e-07,0.018583658535594322,5.838562091608449e-07,2.396788996008393e-07,2.780854806124972e-07,0.08851314620546845,4.213962326017783e-07,0.022984921161835817,5.968023134010452e-07,4.3214333679152437e-07,0.006051039600249769
23,2020-06-04,Simple + Baseline,-1.6434482280429047e-07,-1.0382568866559291e-06,-2.3514833336457124e-07,-1.49738598382068e-07,0.0999989505892431,-5.171270999480809e-07,0.07592017899864999,-5.3701190657933934e-08,-1.7908852396939942e-07,-7.079509045826883e-07,0.08754937804287145,-4.105320458526458e-07,-2.3434590988680134e-07,-5.173425118437013e-07,0.0999999346617612,0.10000021758038684,-8.674563519964138e-07,0.09999976909444673,-3.9981641842524936e-07,-7.214619035898916e-07,-8.852747942731418e-07,0.1000000258613546,-2.1244026770273427e-07,-5.360101355146174e-07,-3.467539585973219e-07,-4.297577210514045e-07,-5.244228899105139e-07,-1.989440712194685e-07,-6.6906348679781e-07,0.09999983827889246,-1.06903912985973e-06,-3.551510124879767e-07,0.02878597654450653,-7.116223553084997e-07,-4.422279549141737e-08,0.09999982884732993,0.023535204493388136,-5.788269462196967e-07,-2.8779401135445915e-07,-3.0362310491403394e-07,0.0098352223173367,-2.558232406305795e-07,-5.964129112933058e-07,-5.926517606128393e-07,0.046278607191041626,-1.1282599242569415e-07,0.022066585984196637,-4.891801171808851e-07,-4.069752376179734e-07,0.00604608790338172
23,2020-06-05,Simple + Baseline,-1.6893018266480845e-06,-4.099730330179397e-06,-1.6862597768453684e-06,-6.213256042358012e-08,0.0999985410975238,-9.681387493517594e-07,0.07307845173075332,-6.048047670082523e-07,5.878952486618215e-08,-1.7841013273164316e-06,0.09999911135050561,-4.211101456599126e-07,-8.70803759554329e-07,-1.8853204176251946e-06,0.0999993581501991,0.09999748808273218,-1.7813316015277515e-06,0.09999907346697753,-1.534656403472958e-06,-1.4037294193015184e-06,-1.8155359928207833e-06,0.09999884142347623,-4.385318992645194e-07,-4.5982858357368414e-07,-7.284024731549713e-07,-1.1079136359852567e-06,-3.159559485174107e-06,-9.56233072775103e-07,-1.0511479723364302e-06,0.09999868869036926,-1.2905122075329547e-06,0.025809338853453035,0.05727111796194682,-1.5009268412033647e-06,-5.933126970763151e-07,0.09999897395953998,0.023527261111748788,-1.1430052460503458e-06,-4.338387182376089e-07,-8.692456377863235e-07,-9.823341140253775e-07,-1.5562182606169375e-06,-1.4952613185406893e-06,-1.307249005554232e-06,-1.8616049559293404e-06,-1.3268390253862813e-06,0.0203702518570459,-2.44512815464309e-06,-3.506414519159316e-07,-8.785830827504172e-07
23,2020-06-08,Simple + Baseline,-1.4292113877127047e-06,-3.911743778400611e-06,-2.0857853466446984e-06,-8.835899403537363e-07,0.0999962696314102,-1.706226500853865e-06,0.07614820478616979,-1.3452401222059282e-06,-5.576364433367757e-07,-2.650650259259829e-06,0.0999987889506363,-1.6182766784374562e-06,-1.5757328623910251e-06,-1.9394543795582375e-06,0.0999991713138926,0.09999742349752981,-2.5531977333316076e-06,0.09999897376259795,-1.4020458659042537e-06,-2.8840565803853404e-06,-3.2440952477953574e-06,0.09999920219003634,-1.2904905746273233e-06,-1.45328175862791e-06,-1.5114343480497409e-06,-2.3275732526768377e-06,-3.378347331070688e-06,-1.5455229309669133e-06,-2.3750513163405195e-06,0.09999885457361986,-2.5527942844828676e-06,0.025792744505250334,0.0599883050965713,-2.2632696980666555e-06,-1.159174792563246e-06,0.09999916143808536,-1.4934575694633358e-06,-1.3557565814157544e-06,-1.446976090442773e-06,-1.3684590338771745e-06,0.01727311976466168,-2.143581726539645e-06,-2.5007861176608833e-06,-1.9662132159541408e-06,-1.7339503155040324e-06,-1.2975069589437185e-06,0.02088065144534156,-2.9566952727274613e-06,-1.3964369609589528e-06,-1.558760391093232e-06
23,2020-06-09,Simple + Baseline,-4.766134000304846e-07,-1.366176356742613e-06,0.04259389490097316,-2.634016613013717e-07,0.09999727135652386,-1.3987297757604852e-06,0.08624345615280651,-1.4415934321199958e-06,-1.3339309047655364e-06,-2.0471764600885334e-06,0.09999890302894839,-1.0319133455434657e-06,-1.3357280000322435e-06,-1.0569677900915133e-06,0.1000000346347856,0.09999999260975638,-1.9627553616787155e-06,0.09999932090153925,-1.122304041783182e-06,-1.9311859576674976e-06,-2.112501998428364e-06,0.10000100667544955,-1.5804877184368654e-06,7.246122776742198e-07,-6.54351476791364e-07,-2.6612932400552376e-07,-1.6682785633594287e-06,-1.0361721920224735e-06,-1.6534828905013187e-06,0.09999973846993664,-2.2130525437371143e-06,-3.4057152474466664e-07,0.023355424135853873,-1.383089241320164e-06,-5.583704311564996e-07,0.100000780674775,-6.33122944039244e-07,-6.364695853239736e-07,-1.331510425505501e-06,-2.818528049267918e-07,0.01726022083765424,-1.9188514405374966e-06,-1.585686976224751e-06,-1.525168277595e-06,0.0038213919382784974,-1.5903213423218771e-06,0.021542234134835168,-1.7588748195841828e-06,-9.634169248822087e-08,0.005227192460403882
23,2020-06-10,Simple + Baseline,-1.076330710968406e-07,-5.776160178656007e-07,0.04223588619580648,-7.879552835321919e-08,0.0999991672991969,-3.428251315628871e-07,0.08981788492374128,-2.606544803853819e-07,-1.8798691079798865e-07,-5.566991631352945e-07,0.09999979575469316,-2.2617258941166197e-07,-2.576596951379066e-07,-2.7762187697424485e-07,0.09999997704026992,0.10000007049245838,0.006648984289364351,0.09999984795542828,-2.2902480727615886e-07,-5.38565799679425e-07,-7.963845889042355e-07,0.10000017354751585,-2.5634444953716624e-07,-1.8542051608541995e-08,-1.3927655198480365e-07,-1.6037670875159923e-07,-6.135781677227676e-07,-2.3501371138427664e-07,-3.9369319448034536e-07,0.09999992275184569,-5.80228029597919e-07,-1.0709225870460494e-07,2.1864540360683035e-07,-3.803641766034832e-07,-1.0232311085776847e-07,0.0999999948685945,-1.544654905443129e-07,-1.4721327678083119e-07,-2.4081654591442476e-07,-8.118999268493108e-08,0.0035548539950086525,-5.784110775851917e-07,-4.270022179984338e-07,-4.1826749343084777e-07,0.034755306795469336,-3.065765938827294e-07,0.022998519677240963,-6.475999045168674e-07,-6.6143822962561e-08,-1.1250268772564585e-07
23,2020-06-11,Simple + Baseline,-4.9331451983407675e-08,-3.86172310443985e-07,0.023016226635888377,-1.1437999173152444e-07,0.09999948513308887,-2.3278352027039204e-07,0.09886018725569182,-1.638286791804074e-07,-1.1428602906980128e-07,-3.2874186242181324e-07,0.09999985944327662,-2.1194209016644416e-07,-2.0245383793993998e-07,-1.5828457878269401e-07,0.09999996812253532,0.10000005782801008,-1.7006696421129317e-07,0.0346750543702557,-1.0188608420812679e-07,-3.804039726969856e-07,-4.928529233747444e-07,0.10000011573954995,-1.8038301378437853e-07,-1.244932145422371e-07,-1.6996564843277073e-07,-2.872614811109656e-07,-3.6643814036382185e-07,-1.1189894851798632e-07,-2.847617508542592e-07,0.0999999661624051,-4.0884344245579684e-07,-1.950173852738815e-07,0.0006049471556506846,-2.658027339577715e-07,-6.451249388810173e-08,0.06385310144715459,0.04904917219872637,-1.2788888704517063e-07,-1.9099425767682782e-07,-1.0045661324955749e-07,0.04646624311230066,-3.1228149782124796e-07,-2.5763140410308245e-07,-2.3544713507740615e-07,0.06274417047301482,-1.4152737980008132e-07,0.020739106992815625,-3.733561330727577e-07,-1.7704739904788582e-07,-1.7841685390692244e-07
23,2020-06-12,Simple + Baseline,-5.897332491716533e-09,-1.754265542964333e-07,-5.9915544243502585e-09,2.2279647567353332e-10,0.09999989912744206,-5.5637930418515024e-08,0.10000000268699724,-7.73680748432682e-09,-1.8081884111630263e-10,-8.172426044354428e-08,0.0999999854667839,-2.4118083805404568e-08,-1.334886537180059e-08,-4.813632324918318e-08,0.10000000595762358,0.09999996555996783,-9.011435764004146e-08,0.01622451719728366,-3.6297886061641806e-08,-8.077522908620072e-08,-1.5588592086041718e-07,0.10000000793544522,-2.8096019504945122e-09,-5.713645645715901e-08,-2.027749180897026e-08,-6.198826736972002e-08,-1.4202897204988485e-07,1.0125221447915289e-10,-5.409123584569198e-08,0.09999996521171137,-1.015003524122708e-07,-4.292312060022815e-09,-1.7394225489938437e-08,-4.968587930058258e-08,0.02246138813567424,0.08110106754237635,0.049049237426524436,-7.141961722158502e-09,-6.178799541324402e-09,1.329839332636233e-08,0.050686017574074815,-6.96898260734257e-08,-3.1442510316464375e-08,-2.8939793390516156e-08,0.04042138733019703,-1.934558369010231e-08,0.02074336845378309,-1.4568163172491378e-07,-1.4175327556503665e-08,0.019314786078848362
23,2020-06-15,Simple + Baseline,-1.3065881153697263e-07,-2.0601573878427905e-06,-9.129786397569024e-07,-2.3913607416972254e-07,0.09999815695825885,-1.16441612246666e-06,0.09999985198350177,-4.88892846204072e-07,-8.28748341737184e-07,-1.2208628550368405e-06,0.09999936699778048,-5.923415654026961e-07,-5.609155134727885e-07,-1.290633757304131e-06,0.09999987283192527,0.09999876398592368,-1.38565424625223e-06,-9.591249535504251e-07,-8.04490014470715e-07,-1.1046176545951343e-06,-1.8733496337634065e-06,0.09999993258515434,-5.250400937492913e-07,-4.005254990607059e-07,-5.035003507973882e-07,-1.1026243850722107e-06,-1.2292871437511919e-06,-8.485976856485905e-07,-9.285858874315148e-07,0.09999928200329414,-1.5008883519929294e-06,-3.93094092345477e-07,-2.547816838594256e-06,-1.3832678843108837e-06,0.03683740586919344,0.07065801273251698,0.0794439130025453,-1.0792239832206176e-06,-5.050357692760498e-07,-6.493854103688922e-07,0.050681537352609676,-1.0416639439123147e-06,-8.786517502452631e-07,-1.1974133713292295e-06,0.040418013936025406,-8.485612316010289e-07,0.02200141302201658,-1.3431068694436057e-06,-5.278203783580719e-07,-4.63036002390291e-07
23,2020-06-16,Simple + Baseline,-1.7710876747358616e-08,-7.111603763565918e-07,-2.1589411802011618e-07,-5.5308999484425884e-08,0.09999949822771759,-2.475122476517176e-07,0.09999995487584638,-1.1044309987788694e-07,-1.0765443267014735e-07,-3.1113053942271386e-07,0.09999986517997697,-1.1369772384426456e-07,-1.118268114871467e-07,-3.8919586205279116e-07,0.09999994526943662,0.10000005403630445,0.0015435050369660569,-1.6768513944639463e-07,-1.5525341220220567e-07,-2.7778653413325043e-07,-6.072269099869699e-07,0.10000000266880481,-9.703443969018828e-08,-8.064923681311949e-08,-1.0371122621411141e-07,-3.2421717234346825e-07,0.09999999650036764,-1.6291266769917367e-07,-2.0811061612368093e-07,0.09999989952189424,-3.71333098403152e-07,-8.070864044259384e-08,-9.775015509331905e-07,-3.753419399174219e-07,0.036837372976513925,-2.514243802249165e-08,0.03404574088366603,-2.1997420886952966e-07,-9.155504580172408e-08,-1.446089826143234e-07,0.03347976662502246,0.009077038614993899,-1.8396675617739055e-07,-3.190027307237469e-07,0.06176623698899548,-1.5331866057952555e-07,0.02325929971737021,-4.5627842134241667e-07,-1.2179485447686442e-07,-8.079195078053021e-08
23,2020-06-17,Simple + Baseline,-2.238484911405296e-09,-2.800004102324427e-07,-5.166448818903826e-08,-4.17382365769378e-09,0.09999987722635903,-5.1143283254645193e-08,0.0999999953530103,0.02366940981471866,-1.1982390606464118e-08,-8.067812297175795e-08,0.09999997835943064,-1.4023553327820137e-08,-1.1676128501032981e-08,-1.171689588676552e-07,0.09999999110876209,0.10000000146482788,0.022089355458210596,-3.756488828612639e-08,-3.6334247869925597e-08,-6.260409977671063e-08,-2.0809051866609216e-07,0.09999999113574579,-7.553396288206162e-09,-1.5731435888243337e-08,-1.573262909752766e-08,-8.493856452878387e-08,0.09999998875422937,-2.8167425630612952e-08,-4.1114831258923497e-08,0.09999996889817857,-9.382509511614448e-08,-6.502719518809606e-09,-3.9798593004227466e-07,-9.472059759247346e-08,-1.473710675373041e-09,0.03057028887409819,0.0340456713844498,-4.8402402255029366e-08,-8.798486045479876e-09,-3.6782986133751076e-08,0.0015706485482488847,9.974412715931646e-09,-4.3969211921539334e-08,-9.091848977395168e-08,0.06216507512186006,-3.217884672962485e-08,0.025891973063669357,-1.7271999322524089e-07,-2.1335089994708527e-08,-1.2243513914149167e-08
23,2020-06-18,Simple + Baseline,-2.2351654154583492e-07,-8.545547772095879e-07,1.836469787002588e-08,-1.8634783145248303e-07,0.09999933253234207,-4.88594096410061e-07,0.0991513805692533,-3.3705976981211765e-07,-1.6881970117612338e-07,-5.83470710084235e-07,0.09999965987368813,-4.556574641881964e-07,-3.889995773199313e-07,-2.533642925057697e-07,0.0999999014372993,0.10000011290344343,0.048239708037435505,-2.4128891598424862e-08,-1.588835740232016e-07,-7.275083623204064e-07,-6.692780448711316e-07,0.1000001455240129,-3.760875432928416e-07,-1.135406763930563e-07,-2.550009417744747e-07,-4.941667384002627e-07,0.0999996099650839,-2.452572759503799e-07,-3.973861074179926e-07,0.09999982199310248,-7.725464164888527e-07,-3.1236824084137954e-07,1.7359270549097972e-08,-3.2226783236928123e-07,-2.2808664426446448e-08,0.08656583463725645,-3.4233245843643144e-07,-2.5756668756903165e-07,-3.7719398362759323e-07,-2.102381469939747e-07,-8.146625672908586e-08,-3.6450782148246246e-07,-4.81048579385393e-07,-3.2860545075526025e-07,0.04453265097482425,-2.8004295968414216e-07,0.021524651787562757,-5.84261961409089e-07,-3.175749648721824e-07,-3.894133545788632e-07
23,2020-06-19,Simple + Baseline,-1.2579950998137687e-07,-3.710433130718379e-07,0.06528463585568438,-2.5172247047805337e-07,0.09999966061325367,-2.0665065308681108e-07,0.10000036123358656,-1.9375378237915294e-07,3.3943519328968664e-10,-2.7040219580811703e-07,0.0999997987267538,-1.0600821024640215e-07,-1.2578888680685005e-07,-2.4427423653356926e-07,0.09999981462801306,0.10000015793463021,0.08413736682888769,-1.1276021216040191e-07,-8.597953279541905e-08,-3.3546096851149464e-07,-3.54607530864936e-07,0.09999985824843524,-1.8090066399591337e-07,-1.1346310324953522e-07,-2.2745521152552724e-07,-2.9565160068981766e-07,0.006705371690930185,2.7911153899679245e-08,-2.1612284553233731e-07,0.10000021389525171,-1.3736618259372395e-07,-1.4679936819277192e-07,1.968162858565462e-07,-2.0299451728090119e-07,1.1224266995248373e-07,0.08656457038049714,-2.0815612851653325e-07,-9.459899034975626e-08,-1.333573074078519e-07,-1.8991892158543937e-07,-1.8469388898971482e-07,-3.291272521029754e-07,-2.4975318266068144e-07,-8.271274907270433e-08,0.0370476837929332,-2.9844524369178517e-08,0.020266545839798443,-1.1680273020791299e-07,-2.1418746833167083e-07,-2.3966552939549314e-07
23,2020-06-22,Simple + Baseline,-1.9500442248690488e-07,-5.736436509913196e-07,0.07713422964803587,-1.4390611272583058e-07,0.09999956766378817,-2.808503382135415e-07,0.09999984812671926,-1.927872965480453e-07,-5.9483357827515854e-08,-4.0428519331018633e-07,0.09999979363655452,-2.2198980194801488e-07,-2.0509207335796356e-07,-4.324041902516935e-07,0.09999984861574349,0.09999983890521781,0.09999957041195584,-1.2339974598990865e-07,-2.2215048470527936e-07,-3.3248158408076385e-07,-4.989116725972638e-07,0.09999989903829565,-1.4608073633739272e-07,-2.0938219135414262e-07,-2.3062015022377782e-07,-3.7385264070914755e-07,-3.846761429973429e-07,-1.530851985838899e-07,-3.7033633436364713e-07,0.09999995373500362,-3.612368197690098e-07,-2.0111559772025573e-07,-4.062957213810832e-08,-4.23701297380075e-07,-8.846129813629132e-08,0.08656330919012335,-2.8436028872523625e-07,-2.967946014676256e-07,-1.8628406024953674e-07,-2.450720554072032e-07,0.007480121211279458,-3.506471624707555e-07,-2.915539357616267e-07,-3.4794955869762044e-07,0.0025755354566692487,-1.511313503169529e-07,0.026258395087027764,-3.448048628891867e-07,-3.023568842301613e-07,-2.3873926157807563e-07
23,2020-06-23,Simple + Baseline,-1.3432887241284926e-08,1.0250417343222447e-07,0.07713519204433938,-4.4897894124762224e-08,0.10000009374236443,6.988859296997075e-08,0.09999996794947069,-3.683731057782766e-08,3.487860265937554e-08,8.986004344432195e-09,0.0962601046355267,-1.1015001185616863e-08,-2.0053914754223965e-08,8.565462867875431e-08,0.10000001863608271,0.10000030271938376,0.10000013117237251,8.493356100173845e-08,9.513604666294914e-08,2.0796485305231934e-08,3.667349891848919e-08,0.1000001015425239,-3.334657172385042e-08,1.1288081809055395e-07,1.8680319536452314e-08,1.975716908016071e-08,6.137138944062857e-08,2.9775397495728528e-08,3.100405259618157e-08,0.10000015351179298,1.6011999404057114e-07,2.5413032656742828e-09,3.939464302116394e-07,4.069819586131462e-08,7.929555091739197e-08,0.1000000779262187,6.795421462055547e-08,1.36989209532078e-07,-3.1417240652167485e-08,9.229599603642752e-08,7.256536964108388e-08,3.801440584302993e-08,6.603894250716978e-08,6.409877945418274e-08,2.84673988717564e-07,3.4766470430825103e-08,0.026601590910623755,1.0242781149505359e-07,1.9286301354454305e-08,-1.5488675346362647e-08
23,2020-06-24,Simple + Baseline,5.382863200678472e-09,-3.7520411993419686e-07,0.09041495774627213,-9.666866482063598e-09,0.09999971577020407,-1.616644193056152e-07,0.09999996510602181,-7.442637385439414e-08,-7.63126555657093e-08,-1.4317547475424404e-07,0.08611634608644522,-5.266039358402101e-08,-2.72959662687089e-08,-2.511484211340014e-07,0.09999992073525374,0.09999983671341445,0.09999968104440748,-1.2448967468957617e-07,-1.5558293766000308e-07,-1.2709356226715902e-07,-3.131030263356143e-07,0.0999999805435371,-1.581606153317685e-08,-5.686827028614798e-08,-6.533620587688022e-08,-1.1474982319035698e-07,-3.2587340658805756e-07,-4.6722667744656585e-08,-1.6268298715426424e-07,0.0999998919608061,-2.871174521390658e-07,-5.147519094345036e-08,-5.143386963668265e-07,-2.2176383043128296e-07,-9.215379258415262e-08,0.09409947015180506,-1.5197507687345912e-07,-2.1311300908931628e-07,-5.446565018461683e-08,-1.3997411487330997e-07,-5.4184282269829043e-08,-1.660337552257373e-07,-1.5586222129896904e-07,-2.1325338059035487e-07,-2.0669861384863515e-07,-1.592865578201315e-07,0.029376054463726382,-3.437797513396703e-07,-9.621590448523719e-08,-2.1940713244067537e-08
23,2020-06-25,Simple + Baseline,5.791578097343483e-09,-1.1275874669602188e-07,0.10000001059712957,2.2062434775882695e-09,0.09999993626381701,-2.049658802203106e-08,0.09999999569948526,-8.22414955587954e-09,-2.7441505668734113e-09,-3.1234628717241826e-08,0.09999998915194237,-2.189386862144485e-09,8.002989724843314e-11,-5.975682874834606e-08,0.0999999866423259,0.09999994924515454,0.09999990229360443,-1.8646346435884797e-08,0.008970448349358616,-2.030253770024871e-08,-7.998993187776605e-08,0.09999999633269163,6.654641356519949e-09,1.7964001494930973e-09,-4.79613549542449e-09,-1.9215375389556326e-08,-1.0554397062412011e-07,3.1346473917364385e-09,-2.9763290763526894e-08,0.09999998752396808,-6.158493584972669e-08,-1.3647770822200419e-09,-1.892806628307077e-07,-5.018591330051572e-08,0.015340839978526189,0.046314104765090486,-2.5636171572348067e-08,-4.0577366272757716e-08,-1.372192388469363e-09,-1.6524066317838837e-08,-4.5544610182478205e-09,-3.885452841816703e-08,-2.249983414113118e-08,-5.348663723552885e-08,-5.213086541861063e-08,-2.3882709904925624e-08,0.02937605450996977,-1.0811540851345296e-07,-1.3600759019027157e-08,-1.9003431833410604e-09
23,2020-06-26,Simple + Baseline,-4.3789227415373865e-07,-3.2682029519658163e-06,0.0999986635472442,-5.38056639278518e-07,0.09999733726057326,-1.2268901278749716e-06,0.09999960217248945,-7.959050415219924e-07,-3.736274203336602e-07,-1.421981459621421e-06,0.09999895295406282,-8.647265344002638e-07,-8.614152958042091e-07,-2.3556012603896e-06,0.09999910357771782,0.0999980010443516,0.09999773956625255,-5.413877590940133e-07,0.015566783979415149,-1.2305488850680658e-06,-2.3894700453326004e-06,0.09999923384687286,-7.390765333546308e-07,-2.714102244266637e-07,-1.150663034855808e-06,-1.8325434062396217e-06,-1.8723706311603261e-06,-1.1655188955551407e-06,-8.857544539923329e-07,0.09999837605931726,-1.6242416716320485e-06,-4.6019447746278437e-07,-3.5311176614212138e-06,-1.677836218063808e-06,0.007836066471556508,0.046305364329929606,-1.4509970403464399e-06,-1.7155737594934896e-06,-3.3227035142599166e-07,-7.229966138937109e-07,-8.86977243647235e-07,-1.0320933444575234e-06,-6.402936226164458e-07,-1.037719529466369e-06,-1.5400618200741817e-06,-4.2113928027416827e-07,0.030350052001677532,-2.4665704603579115e-06,-8.403007181118756e-07,-6.5626195873479e-07
23,2020-06-29,Simple + Baseline,-5.59974115805984e-08,-1.2799862038738516e-06,0.09999964764793758,-1.0239817783673425e-07,0.09999917989420186,-3.186913027888861e-07,0.09999993383333895,-1.9512219853092795e-07,-8.181639059717604e-08,-4.100512249934482e-07,0.09999976716676001,-1.745288158628814e-07,-1.5964148670364224e-07,-7.354576664189492e-07,0.0999998167000793,0.0999991700853892,0.06606397442943424,-1.3118291229977358e-07,0.07285500705556387,-3.480952480834828e-07,-8.656013385106293e-07,0.09999987496627663,-1.494051099913508e-07,-2.6548177463853682e-08,-2.4655856554611146e-07,-5.826031045629303e-07,-7.878415066135448e-07,-2.919317983911767e-07,-2.426272150891817e-07,0.09999967973385114,-4.6743068488862003e-07,-9.749968534673525e-08,-1.4614750004585113e-06,-5.159895706881719e-07,0.0172025880394281,0.012284502705883573,-3.6015606373300805e-07,-4.517805307664266e-07,-8.742724970320896e-08,-1.7905238731694404e-07,-1.515429791091337e-07,-3.5514856481231924e-07,-1.653691016358588e-07,-3.029812364560611e-07,-5.789742137750374e-07,-1.092268092678702e-07,0.03161059104386174,-9.60242974100404e-07,-1.8547398818527606e-07,-1.1721650665749692e-07
23,2020-06-30,Simple + Baseline,-3.665246790883362e-08,-5.34343261136954e-07,0.07471302891866817,-1.5017300257841364e-07,0.09999960440634942,-1.515140870336068e-07,0.0999999168073287,-1.675380881513123e-07,-7.143598767193394e-08,-2.3869460408517313e-07,0.0999998233351942,-1.51150090567095e-07,-1.1844261278804621e-07,-3.204473086971777e-07,0.09999989575044825,0.09999954651372644,0.06606378687546526,-1.1287365919157896e-07,0.06983171752346065,-2.1482862833738177e-07,-4.58528282501043e-07,0.09999998378160423,-1.420009010120719e-07,-6.875129274960987e-08,-1.6601253716067914e-07,-3.543994248009491e-07,-5.107052049969023e-07,-1.4768483140404124e-07,-1.8369912860413926e-07,0.09999994807979165,-2.754065296833637e-07,-1.2618096843233144e-07,-7.331195460896926e-07,-2.823517830972226e-07,0.017201844480121825,-1.1723134927823949e-07,0.041411264975011575,-1.8198821713990556e-07,-1.3031819120561872e-07,-1.1232719609379756e-07,-9.656200818874078e-08,-2.2622424391270718e-07,-8.489848975571606e-08,-2.0010960471945073e-07,-3.281971307166749e-07,-7.72294150947218e-08,0.03078767966346099,-4.79160272866713e-07,-1.8598072830962863e-07,-1.0296916352359988e-07
23,2020-07-01,Simple + Baseline,4.677445170530019e-10,-2.0062582012634147e-07,0.07471301089935142,-1.3992288616739935e-08,0.09999989290083684,-2.6842749209462334e-08,0.09999999041451527,-2.9553067036968738e-08,-6.6978966719815695e-09,-5.18701954004883e-08,0.09999996746679869,-1.3217371198830947e-08,-1.520824988918103e-08,-9.294358147671478e-08,0.09999997699237484,0.09999980292102181,0.04701905101280291,-2.286183211965051e-08,0.07959142996351179,-4.274958882167999e-08,-1.4991316549409472e-07,0.09999998868135353,-1.2449059765930327e-08,-7.988423632868092e-09,-2.4425563211083624e-08,-1.023050083522319e-07,-1.9032171173919603e-07,-2.6325583235286704e-08,-4.362158077574575e-08,0.09999997814192663,-7.00599812193847e-08,-9.31813251693389e-09,-3.067001776604574e-07,-8.020526802884506e-08,0.008061725685584954,-2.1301793773038973e-08,0.05982959759351324,-4.081856508440757e-08,-1.3440827039869453e-08,-1.6099731266154308e-08,-1.605634117264949e-08,-6.582120308355157e-08,-7.741019903137873e-09,-4.910322900484588e-08,-1.2227937832742506e-07,-1.507523783365386e-08,0.030787698043353164,-1.6597551486288082e-07,-2.6987979529775334e-08,-1.0206350219206247e-08
23,2020-07-02,Simple + Baseline,-9.184687781211407e-09,-9.155170535613795e-08,0.10000000391968497,9.764300867474796e-09,0.09999998537350219,-3.058300795224884e-08,0.09999998546264502,3.833907164208542e-10,7.490901690713077e-09,-1.4075795406837137e-08,0.08414225616518517,-2.5266532333743297e-08,-5.489124215332026e-09,-2.8986717870770727e-08,0.10000000624490979,0.09999991290022568,0.0297841356670961,1.696093706669549e-08,0.05015702611527657,-1.3720571665900566e-08,-3.5652409928657134e-08,0.0999999998426677,7.703733676406928e-09,-2.987088657236891e-08,-4.34793672177091e-09,-1.8811855526630632e-08,-7.463817129889288e-08,1.392301117945785e-08,-1.7756784868664566e-08,0.0999999846058875,-2.6539686901690674e-08,1.8108473116393842e-08,-1.211804890488345e-07,-2.2632163940731637e-09,0.00806177980177886,0.009789333270783249,0.08887156809151109,1.528937605563487e-08,1.780337228886186e-08,3.0332947150243485e-08,4.678969182646137e-09,2.20987700958956e-10,2.820258710879784e-08,1.6219262801463315e-08,-3.445689282721425e-08,6.248144574654633e-10,0.029194468363120625,-6.53545942956356e-08,1.779116015137505e-08,-1.6918322745431823e-09
23,2020-07-06,Simple + Baseline,-5.6419728782198846e-08,-3.725454255901061e-07,0.09999998250233824,-3.408944145594373e-07,0.09999922262288133,-5.512212609247512e-07,0.09999985638197649,-3.2523248198628173e-07,-2.936568344821759e-07,-3.829429152122652e-07,-3.0414870890792965e-07,-4.5913094810381835e-07,-3.914212964850595e-07,-1.6093473660937191e-07,0.09999984600989191,0.10000015411209916,0.04852066557806667,-6.912853615947306e-08,0.036873172852419867,-6.248793456147756e-07,-8.723943269618635e-07,0.10000017061890765,-4.4492242834142597e-07,-1.1167237688135502e-07,-4.044334108656696e-07,-5.429714819425426e-07,-3.3436675363964585e-07,-2.9330766059224237e-07,-4.114763819170484e-07,0.10000002190685317,-6.357499420450109e-07,-3.8132321166906394e-07,-1.0843511595050801e-09,-5.078356226213374e-07,0.06789547716679895,0.034947963609349514,0.08897854016877595,-4.102816275436317e-07,-4.113988836519911e-07,-1.9362575410249175e-07,-3.816861074153543e-08,-2.8233740383204536e-07,-4.1039011260104086e-07,-2.4849381693781915e-07,-1.0297796964197894e-07,-1.5031123988925936e-07,0.022797568539796777,-3.3908287349744777e-07,-4.443998268372572e-07,-3.370960172318668e-07
23,2020-07-07,Simple + Baseline,1.1116830373067694e-07,-2.6017559856424445e-06,0.09999870108390412,-1.2535779390904385e-07,0.09999782752974722,-8.603350156294461e-07,0.10000004029323846,0.017984547927214975,-2.3455583437877331e-07,-9.820895670118848e-07,-2.4619624175385487e-07,-3.315279913243661e-07,-3.4630395457069493e-07,-1.5940281515797922e-06,0.09999957566630754,0.09999831842943938,-1.975657797576986e-06,-6.111077637365306e-07,0.018688493977115285,-8.331809596630132e-07,-1.8721002115227543e-06,0.09999940949635848,-2.770089695503601e-07,-4.3652975466381756e-07,-6.152044672572116e-07,-1.1712178839653284e-06,-1.2760437171556315e-06,-4.995319312762013e-07,-5.183317740454344e-07,0.09999854793708876,-1.6593442814634328e-06,-2.2591702702661276e-07,-4.006937953570352e-06,-1.162394018676597e-06,0.06168418515719173,0.09999906256070414,0.07674821755191227,-1.576802121311638e-06,-9.125733577821845e-09,-4.532707724519876e-07,-6.184984743701733e-07,-7.814069615464028e-07,-5.401522746035532e-07,-8.269561989771441e-07,-1.1357994322673016e-06,-2.7659117065682125e-08,0.02493549451463915,-1.1511646603553992e-06,-6.243881430554758e-07,-3.0770224774202784e-07
23,2020-07-08,Simple + Baseline,-6.472803945139924e-08,-2.37017428752764e-06,0.0999986527071368,-8.063027695214911e-08,0.09999866429632116,-4.2381666194971897e-07,0.09999996343020824,0.03232549701256755,2.126407814919091e-08,-6.27465617589878e-07,-2.655042380092104e-07,-9.271866560524369e-08,-1.091378755348354e-07,-1.3552604326508807e-06,0.09999946652994075,0.09999738045026117,-1.6837446417368644e-06,-6.159563004952726e-07,0.04226257210516246,-5.134083364342558e-07,-1.4684135400039258e-06,0.09999911034037733,-1.3543820573926172e-07,-4.665285042966526e-07,-4.683673125912676e-07,-9.58281151805139e-07,-1.9086536411749465e-06,-4.3341804550043085e-07,-3.40725655147128e-07,0.09999858199762705,-9.887801473531793e-07,-5.668359244451395e-08,-3.5698067115421146e-06,-7.431315150496238e-07,-8.556951363976419e-07,0.09999917784043652,0.09999917284998068,-8.856217506986502e-07,3.1101424138833615e-08,-4.4659525035871333e-07,-4.951744890395333e-07,-8.465268635496132e-07,-2.702657313542311e-07,-7.125440333272032e-07,-1.4956122239128975e-06,-1.541479043072421e-07,0.025449717861187448,-1.6532240542334473e-06,-3.446547784077215e-07,-9.338427504518971e-08
23,2020-07-09,Simple + Baseline,3.05699541765959e-09,-9.125117215039603e-07,0.09999965792663101,-4.533168840278925e-09,0.09999965258254674,-9.270990765948898e-08,0.09999999959111075,0.04198840941382238,1.63633805259884e-08,-1.3709515268685745e-07,-4.909297261854513e-08,-8.362942182223243e-09,-3.650042034313815e-08,-3.860245264772703e-07,0.09999992249049679,0.09999890374586116,0.004430692653726495,-1.278512326812094e-07,0.04289448108558898,-9.216651750840792e-08,-4.985704086926922e-07,0.09999983622108226,5.603827016265925e-08,-5.715227508951466e-08,-8.644080626469164e-08,-2.6694514053582335e-07,-7.32912294385027e-07,-1.0710215530775909e-07,-7.330355563068674e-08,0.09999974504854214,-2.400643876703722e-07,-1.3277231540505395e-08,-1.5168312179152128e-06,-2.092880897479973e-07,-1.978971860382811e-07,0.07169982788570788,0.09999981363270699,-2.1049022153130923e-07,3.3875697676301955e-09,-9.341802717361552e-08,-7.74264574641745e-08,0.013546848877978248,-2.2346685969525813e-08,-1.9203589110721752e-07,-5.299915948599674e-07,-1.2496140320303578e-08,0.02544977240549697,-6.1633280095158e-07,-4.4195343205360637e-08,3.0077164995257324e-09
23,2020-07-10,Simple + Baseline,1.5318275933767005e-09,-3.5988609356576903e-07,0.062416862829926374,1.7676850619781082e-09,0.09999991723336539,-3.144304982073162e-08,0.09999999545160977,0.04198842645466508,8.863737959257512e-09,-3.615944738961536e-08,0.01345033150188505,-7.276675555465575e-09,-2.348060527939803e-10,-1.1064999559642268e-07,0.09999998589641998,0.0999995426154001,2.620959546413704e-09,-2.0364384388436226e-08,0.064994036984511,-1.2584537037251653e-08,-1.6378859873681939e-07,0.09999996507114005,3.233580587497008e-09,-1.844633943062133e-08,-1.4819066705200797e-08,-7.248550998130449e-08,-2.799996403320737e-07,-1.1951890368827976e-08,-2.2205434088947206e-08,0.09999995127615903,-6.762411470644238e-08,3.956865432227625e-09,-6.433016838712526e-07,-4.985828136815015e-08,0.02882889895997034,0.013685577483552784,0.09999996573614381,-3.895229708219657e-08,8.088792636577863e-09,3.3026638297773186e-09,0.03848091573258678,0.012055175810921278,1.2093178422445905e-08,-3.554421823631709e-08,-1.8321524091962787e-07,5.438321991574173e-09,0.024102805086242823,-2.2633974656083357e-07,3.8864441496738384e-10,1.70770126253576e-09
23,2020-07-13,Simple + Baseline,6.733082695590648e-07,-8.72986560961294e-07,0.05919673825234803,3.037424450589996e-07,0.09999797465602897,-1.1265155582379572e-06,0.10000032023218315,0.024657427394055905,-1.6401729406140021e-07,2.1032361458744988e-07,0.013451330052657352,-1.5063722581697315e-07,-1.1515259946551392e-07,-2.898909874614551e-07,0.09999994711629193,0.09999894092335986,-7.684558877255734e-07,1.0701708312829382e-07,0.05568444745265918,1.9933879531845321e-07,-1.3564576624782475e-06,0.10000106093383569,1.7236199938022186e-07,-3.396358261663101e-08,2.6939658165866123e-08,-1.468214781147142e-07,-9.89564534463526e-07,1.1172994346938764e-08,-8.71959808051368e-07,0.10000022149175422,0.053052987506319864,-5.629164287900837e-07,-2.047485751128683e-06,-1.4725484161084672e-06,0.037882323587664385,0.018342208992953322,0.09999912017340536,-2.264087913360018e-06,1.8526114218179044e-07,-1.2368677607953397e-06,1.5120512137059031e-06,0.012051538508434982,-7.247710791479287e-07,-1.1492632661250416e-06,-6.062067079563473e-07,-4.6522406209365394e-07,0.02569840439122797,-6.367817262695576e-07,-6.752299174551182e-07,3.4310011752927584e-07
23,2020-07-14,Simple + Baseline,1.165884585380094e-07,-3.5471660735880836e-07,0.019576101522052382,3.6895740939256893e-08,0.09999943680950431,-2.679630956038899e-07,0.09999999518076515,0.007158476854482269,-1.471088659025241e-08,8.095175404049213e-09,0.02650738719275939,-2.0736571430526606e-08,-1.732042686617555e-08,-8.110284981858274e-08,0.09999997330931551,0.0999995591044087,-2.637463253469988e-07,2.74296154997735e-08,0.09999998988005136,4.894696140274817e-08,-4.888538194700559e-07,0.10000016099172862,3.1043916529305975e-08,6.594156062649966e-09,4.135234566885253e-09,-3.4615361970047736e-08,-3.9052079450258573e-07,3.3158156388801818e-09,-1.978017870547107e-07,0.10000001049409231,-4.8478781767093235e-09,-5.391483464082419e-08,-8.861115410257104e-07,-4.4553260557684836e-07,0.09926802303413362,0.010121172329392561,0.09999979602508043,-5.872873050877372e-07,6.6586929022882884e-09,-3.348880410148475e-07,2.5232794126030644e-07,0.012051517194383975,-1.5402592902901727e-07,-3.330649121879546e-07,-2.1615181600402797e-07,-9.758990207229368e-08,0.0253234526111208,-2.365975444793645e-07,-1.1964132816855766e-07,7.331694777496815e-09
23,2020-07-15,Simple + Baseline,-7.644608921055708e-08,-4.706199979402519e-07,0.04124324569858819,-6.76656714956693e-08,0.09999943627182768,0.021464793651109378,0.09999994269538848,0.013852770339318374,-1.5283683457364598e-07,-1.4525835517610086e-07,0.07654206865881441,-5.079131714248141e-08,-1.9648981879858635e-07,-3.87550622424862e-07,0.0999998719034247,0.09999967329246694,-2.083854104825899e-07,-1.1355264016586378e-07,0.09999993868263148,-1.753161321074734e-07,-5.327735912442863e-07,0.0999998879338206,-1.477914675759161e-07,-4.799158544200526e-08,-1.1160197207744005e-07,-3.3549988668391644e-07,-3.503940667396178e-07,-1.8747480205902703e-07,0.0060932774072393805,0.0999998643304791,0.002343458228953373,-1.0798657085509002e-07,-8.878174173420969e-07,-4.545125674631142e-07,0.08476689199741615,-1.5155899089190145e-07,-2.887547430643456e-07,-4.559263018277112e-07,-1.6100260065162073e-07,-4.7258104470813054e-07,-1.8777446159907835e-07,0.02767349144957707,-2.8715937221244167e-07,-3.7542307820797714e-07,-3.638546715931739e-07,-2.0612900026246042e-07,0.0260302624201826,-4.283816177176816e-07,-1.849163512223567e-07,-9.918930123042215e-08
23,2020-07-16,Simple + Baseline,-5.5291189498489975e-09,-1.8319445211688757e-07,0.06980516515816934,-8.938635855779503e-09,0.0999998420891405,0.02146477596679712,0.09999999204624985,0.013852750295860137,-1.3172400423604589e-08,-3.0936491405140015e-08,0.04866003617873564,-2.194390302869368e-09,-2.7588102983800798e-08,-1.1090118108995374e-07,0.09999997443277009,0.09999986250063145,-6.729337958159785e-08,-2.313165764726113e-08,0.09999998616007678,-3.353613194991588e-08,-1.8858773323822688e-07,0.09999997465922839,-1.9270195537879414e-08,1.0714306791056858e-09,-1.5879450747807922e-08,-9.707891645042276e-08,-1.389521198360281e-07,-3.854181714705226e-08,0.03482740553603666,0.09999996805227494,-1.7094285888339831e-09,-8.708140620831309e-09,-3.776583406849347e-07,-1.3231171515617353e-07,0.03380854592279744,-2.798145945652099e-08,0.02388034466121753,-1.1441382432302315e-07,-1.987265081191798e-08,-1.2631351693140862e-07,-2.6146423454508748e-08,0.027673470287737225,-5.810863684479533e-08,-1.051326460713163e-07,-1.3046002958490716e-07,-3.850482347974453e-08,0.026030273486735735,-1.5649491712867205e-07,-3.117102568859407e-08,-8.764539676643217e-09
23,2020-07-17,Simple + Baseline,-1.661816651477924e-07,-2.9991148486645425e-06,0.09999733744753397,-1.1946575491714927e-06,0.09999230623050055,-3.567704255090851e-06,0.09999891475959716,0.003072037019137096,-3.470047516802532e-07,-1.9436984011646214e-06,0.04865474974070038,-1.935538723573724e-06,-1.8002821610267808e-06,-6.3245425136476665e-06,0.09999742661753164,0.09999996381553798,-3.368872318733834e-06,2.123886879227787e-07,0.09999902255430246,-4.2377245087957905e-06,-1.766581489534798e-06,0.09999838667069659,-7.865464874920893e-07,-3.5276157180128456e-06,-3.1226482151850734e-06,-5.057248937130113e-06,-1.1772574607021401e-06,0.0010481265339636714,0.09999686616097211,0.09999860378891155,-3.7718925971034456e-06,-2.0569615140382316e-06,-3.474981248407512e-06,-4.510569910500239e-06,-3.7432209365052104e-07,-2.8481352216374165e-06,0.010546129503457364,-4.092453198597778e-06,-6.923471951223854e-07,-1.2225627153817346e-06,-1.5046015484040915e-06,0.008561148313811476,-5.252909783536797e-07,-1.5048009740598657e-06,-7.711797975456727e-07,1.0710351399077225e-06,0.02821512145002754,-8.02923728190617e-07,-4.4710552004580885e-06,-1.4410558381528653e-06
23,2020-07-20,Simple + Baseline,-7.027435026224186e-08,-1.0410962250226529e-06,0.09999918431439227,-2.0427008621972843e-07,0.0999979302514736,-9.018290858850198e-07,0.09999982127556474,0.0074796719045720815,-1.3926532335717336e-07,-5.234293810788393e-07,0.020506160834212583,-2.4764873562251817e-07,-3.0763162756748723e-07,-1.7970990886798983e-06,0.09999968732012617,0.09999995858344322,-1.238559107050105e-06,-8.174849195782133e-08,0.09999976098968485,-9.229763568015498e-07,-7.052072702595049e-07,0.09999972026809144,-2.9482383661099253e-07,-4.175154704421352e-07,-4.866439872717234e-07,-1.5434142957321397e-06,-5.327457581708366e-07,8.941628379006277e-07,0.053853004230006114,0.0999996990928231,-8.574757967502981e-07,-2.1826181684077151e-07,-1.4863483671639651e-06,-1.3922410334471172e-06,-8.12572734832182e-08,-5.225679171227682e-07,0.02679500904996127,-9.086627082595998e-07,-1.924716821195392e-07,-2.6787025781129034e-07,-1.17288426719874e-07,0.06141686588916661,-7.004578690555274e-08,-4.942375830286454e-07,-2.752164317993197e-07,1.2600574943026755e-07,0.029971981402624717,-3.062469682073128e-07,-6.705461087922272e-07,-1.5982631190767662e-07
