seed,date,strategy,NASDAQ:FHB,NASDAQ:ONEW,NYSE:JOE,NASDAQ:OLED,NASDAQ:ZS,NYSE:KEY,NYSE:RRX,NASDAQ:OPCH,NYSE:ARW,NYSE:VVI,NASDAQ:LSEA,NASDAQ:KLIC,NYSE:LEN,NASDAQ:SLGN,NYSE:CMP,NASDAQ:HOPE,NASDAQ:NWBI,NASDAQ:LITE,NASDAQ:HWC,NYSE:UVV,NASDAQ:LSTR,NYSE:ALL,NASDAQ:ICHR,NASDAQ:IBOC,NYSE:LII,NYSE:SMP,NASDAQ:WINA,NYSE:BTU,NYSE:MCD,NYSE:AWR,NASDAQ:TRS,NASDAQ:ATEX,NASDAQ:POWI,NASDAQ:ROST,NYSE:PNR,NASDAQ:JRVR,NYSE:TRN,NYSE:BBW,NYSE:GNRC,NYSE:HP,NYSE:FDP,NASDAQ:EEFT,NASDAQ:MORN,NYSE:SMG,NASDAQ:AAOI,NASDAQ:POOL,NASDAQ:SIGI,NASDAQ:TCMD,NYSE:GKOS,NASDAQ:ZM
25,2020-03-18,Simple + Baseline,0.10000001412191027,8.618192615244888e-08,0.10000002224009379,-2.3047053097091315e-08,0.1000000205557301,3.5586295460630364e-08,-5.078483912615978e-08,8.697341383259995e-08,-6.507521258865809e-08,8.676744277306384e-08,0.1000000212751545,1.7881509138497525e-07,-1.3406919670932398e-08,1.0950587240846868e-07,3.218112588583015e-08,1.454251867962208e-07,-7.315376158885034e-08,-5.4830603196217874e-08,-6.341894550568876e-08,0.10000000897937998,2.548042643791772e-07,-5.929538701548241e-08,8.624146987423723e-08,8.712234973435272e-08,9.448707993689241e-09,2.4150056003472357e-09,4.349770819220704e-08,8.683112795823956e-08,1.3177727823662551e-07,0.10000003941576628,-4.092312422125512e-08,4.643563049677012e-07,1.3741057961750545e-08,-5.669649538374091e-08,-5.831609844202036e-08,7.975400556579317e-08,-1.114395982761175e-06,-1.2434455032268615e-07,1.85748746772743e-07,-5.186239515852256e-08,0.10000002645680159,-6.55565128721605e-08,-5.651149662229382e-08,-1.4663289557474497e-08,-2.444657845574131e-07,0.100000013903063,0.10000001935131515,-1.2185691484887247e-07,-6.095000166365324e-08,0.10000002008138495
25,2020-03-19,Simple + Baseline,-1.183388446217194e-06,2.911275270868067e-08,0.0999999901113901,-3.613246392154513e-08,0.09999998791463927,-1.053186086142975e-09,-5.057127237158581e-08,3.036717146987425e-08,-5.996534047358677e-08,3.332736200991744e-08,-6.208467714629474e-07,8.270439727427484e-08,-2.9251312041227746e-08,4.2543835360000296e-08,-2.7428405101459387e-09,6.361043179166255e-08,-6.47475887299425e-08,-5.3397335969672594e-08,-5.8064513889384295e-08,4.608043563630422e-06,1.2827352145428144e-07,-5.5318129323875075e-08,2.9570082080616148e-08,3.3260359088303906e-08,-1.7286148272240463e-08,-2.086277777024925e-08,3.3812894878500563e-09,2.9357720402659595e-08,0.09999943749944333,0.09999999790787514,-4.536959090582421e-08,0.09999946601913952,-1.309653993219418e-08,-5.515690132226352e-08,-5.406456703984792e-08,2.643524636804769e-08,-6.752171166049831e-07,-9.566660935462043e-08,8.70215243169789e-08,-5.019623036597343e-08,0.09999999155617102,-6.077471964303292e-08,-5.5330140288852375e-08,-2.9677366979607493e-08,0.09999947804741695,0.09999998449675736,0.0999999883730006,-9.247438651651656e-08,-5.547377403187015e-08,0.09999998752741078
25,2020-03-20,Simple + Baseline,-2.850071375435478e-07,-5.532154005401522e-09,-1.8845325709289184e-09,-1.2032322286844108e-08,0.10000000210353892,-8.202395141459123e-09,-1.7741454120956195e-08,-8.507579582189613e-09,-1.744267859914671e-08,-5.980880508816777e-09,0.10000000380008296,1.609639115997394e-08,0.09999998679512659,-9.273484584894308e-10,-1.3888498048689729e-08,3.4310912247323136e-09,-2.4740073069183446e-08,-1.9809425592617098e-08,-1.8881201220415536e-08,9.623913229027664e-07,1.3660152620257988e-08,-2.2946695096134165e-08,-5.9220376949052635e-09,-9.75456131812814e-09,-1.2326242111352655e-08,-1.649126948943536e-08,-1.4190946040448831e-08,-5.335190209110564e-09,0.09999992617395267,0.10000001004070583,-1.8463802745343997e-08,-4.052127285607122e-09,-1.9202883063310352e-08,-1.5756091449554503e-08,-2.239685890657987e-08,-1.072349716570847e-08,-9.143401626719881e-08,0.09999997297560778,4.050186216247921e-09,-1.7663848546924323e-08,0.10000001840285368,-1.5111430799938908e-08,-3.105776010153957e-08,-1.2177311346573061e-08,0.09999996395750507,4.261339979731219e-09,0.0999999819427511,-5.046900499800215e-08,-1.1659232030429018e-08,0.0999999777055144
25,2020-03-23,Simple + Baseline,-5.983152914111384e-08,1.0324132134972137e-08,0.09999816930131447,2.4165142689296087e-08,0.10000008204713469,1.7252998075495985e-08,3.123494992503533e-08,0.10000001946780958,3.1045189793703225e-08,1.0158773860418037e-08,0.1000001112160477,4.674241239346716e-08,2.869472109540757e-08,9.387808109732094e-08,3.855494685738045e-08,6.713136822844009e-08,3.586770734340334e-08,2.516492361420587e-08,2.879822749049231e-08,2.788713202203612e-07,9.512353003183845e-08,4.427645306312931e-08,1.1583708908628557e-08,1.0985517723939719e-08,2.26435507766333e-08,4.585482035748944e-08,3.012594133807628e-08,9.928672933347956e-09,3.969129345256213e-08,0.0999999930044906,2.9796581578576827e-08,9.594448613611979e-09,5.022662542544371e-08,3.0692902781416174e-08,4.321358675644805e-08,2.0271977803968085e-08,2.2911268271828843e-08,2.3420211824166858e-08,5.623902576275952e-08,2.7628169000690115e-08,0.09999999893660785,2.3858695921914605e-08,0.10000008666438141,2.2225335070164682e-08,0.10000002604044649,-2.1088398311900807e-09,0.10000005419276314,4.224050712623161e-08,1.2361276486273781e-08,0.10000002772844181
25,2020-03-24,Simple + Baseline,6.818342018904952e-07,1.174834031480497e-07,1.1468828471077995e-06,3.4430346761881533e-07,0.10000255686096578,2.6926051860656664e-07,5.29475892034828e-07,0.10000028005907292,4.358141201953443e-07,1.0386070235824033e-07,0.1000029092031563,6.517999896646596e-07,2.900884113899015e-07,2.105682264480452e-06,7.028731139825975e-07,7.717300526349505e-07,8.006173030694778e-07,4.577238078680307e-07,2.2385422350092142e-07,7.038859018936054e-07,1.0302249826548305e-06,7.678391210206764e-07,1.8015879414854982e-07,1.1198797335625425e-07,8.659325162066637e-07,1.1885669616975865e-06,6.757368828215223e-07,2.0136991442137577e-07,0.1000004110615397,0.10000012570558263,6.236475988344888e-07,2.0590545443683527e-07,5.862981326467458e-07,4.3209832077842657e-07,2.985602194843382e-07,3.116981185326278e-07,7.624510501480805e-07,6.566587338519364e-07,8.360344636228033e-07,0.06953035528222398,0.10000061647201922,4.449945483860522e-07,1.4864684352203914e-06,2.846269663630779e-07,0.10000052359549079,0.03043818228155017,0.10000091433022444,3.750960876619891e-07,2.2474229115493954e-07,0.1000002232785982
25,2020-03-25,Simple + Baseline,-9.601573195655267e-08,1.3136242865989247e-08,2.1779882758994972e-07,3.4809868058877574e-08,0.09999992324268182,2.2665202283158607e-08,4.5153162017425955e-08,0.10000000814950064,4.1096314136027854e-08,3.495380983888762e-09,0.09999983803356935,-3.169395296907195e-08,0.10000000591364853,-4.336850678010767e-08,9.948262626004292e-08,-2.5580889003091264e-08,-5.9080042427213703e-08,2.874262135897567e-08,2.365281942777614e-08,-7.17783123611793e-08,-8.161693888539537e-08,-2.3766679989243123e-08,5.5570114932836475e-09,5.715925735686188e-09,-5.452724631339421e-08,1.0037174865626025e-08,-1.995454805558367e-08,7.141756378502414e-09,-6.083670823437092e-08,0.10000000080388548,6.828074049480576e-08,2.1127041445376185e-08,7.242134600057915e-08,0.09999998327641935,2.5689429486772835e-08,1.4142771558741074e-08,-1.784098120324922e-08,6.178604629886798e-08,-4.287869088931225e-08,1.2992696083211263e-08,0.10000005664112593,3.4571342807416735e-08,0.0999999981391168,2.126419558691013e-08,0.10000004248256575,-1.5351064733423e-08,-9.463389857299161e-08,3.823786444640791e-08,-8.636708148316734e-09,0.09999996256816297
25,2020-03-26,Simple + Baseline,4.4463755194502586e-08,-1.6796524544333752e-07,2.155916300602156e-07,-2.6838497336904554e-07,0.1000006454979642,-2.1623901786828732e-07,-1.314440299727429e-07,0.09999986797716731,-2.0167642199083937e-07,-1.1786674478677202e-07,0.10000143231364314,-1.4385944191906778e-07,0.09999986463559025,6.924920539291901e-07,-4.1022049719084234e-08,-2.8088264953343078e-08,-8.732969144556802e-08,-4.609646822228654e-08,-2.5156473415411127e-07,-4.432249332243987e-09,1.8412514192866344e-07,-9.56733734290411e-08,-1.5237764278088122e-07,-1.5083135445230161e-07,-3.883621064444809e-08,2.619212680549789e-07,-1.0106043089166115e-07,-8.740780134892051e-08,-2.3401653604471316e-07,0.10000020222534184,-1.3843091631094875e-07,0.039114442267367655,-1.673844058745127e-07,0.09999977706291306,-1.7864171103537276e-07,-1.377190562807345e-07,-5.077170969719345e-08,2.6633993292489603e-07,-1.2218392951587643e-07,-1.7211049648584314e-07,0.10000048282130332,0.017729502786615416,2.535266918874176e-07,-2.0606893009925739e-07,0.09999993209274986,3.895504372778171e-08,-4.393319176302607e-08,0.043155398577874024,-1.3665672147262945e-07,0.10000040624362569
25,2020-03-27,Simple + Baseline,-1.250512187048577e-06,-2.813162852511246e-07,1.1729934147877496e-06,-1.1843457091150655e-06,0.10000077904807492,-1.0986573852240703e-06,-2.851472198280347e-07,0.06116938608284487,-3.697091266338055e-07,2.740114492940829e-09,0.10000578874453972,-1.7918791364832796e-06,0.09999825617058708,7.664848786779716e-07,8.372666233903819e-07,-1.4571096599800573e-06,-1.3392897553551057e-06,2.096841446654751e-06,-1.1143221564500692e-06,-1.3333648536347795e-06,-3.075969822232897e-07,-6.497479968479899e-07,-1.266168403402049e-07,8.934276513670367e-08,-1.8390873949140404e-06,1.096443898012646e-06,-7.63235174522984e-08,1.7542838208410311e-06,-1.762346596690928e-06,0.09999813610412774,1.6490072665133563e-07,-1.2516847187264282e-06,-4.416610816756189e-07,0.09999840267490075,-1.011185419917787e-06,1.2486167242019243e-06,-3.104475762943111e-07,1.0106995652981144e-06,-1.8014316331872444e-06,-3.430324275375807e-07,6.981022223967216e-07,0.026474586390230224,0.08391440599508336,-1.0950943807260797e-06,0.10000044312607283,0.0999989242367414,-3.46793905388334e-07,0.028451325862814385,-3.178544543936598e-07,0.10000178790509108
25,2020-03-30,Simple + Baseline,-1.947218817553994e-06,-2.0468754181664444e-07,-5.3398632775519275e-06,-8.839913373271947e-07,0.09998522285386817,-4.739520970077235e-07,8.178763863984129e-07,0.04253049643990622,-8.350381817801961e-07,1.1384754762614248e-06,0.0999836439280785,-1.061099541210175e-06,0.09142829856473494,0.05155999541282128,-2.6292348314019176e-06,-2.3068061876124685e-06,-9.181453300482834e-07,4.2271700383609124e-07,-3.0760617422388423e-07,-3.921559187679383e-06,-5.450410706822753e-07,1.8716247776925487e-06,8.34289027206657e-07,1.0165789728030773e-06,-7.667903857167486e-07,-4.301267213221159e-06,-1.4466927608385104e-06,-5.416602039449895e-07,-2.2153805004965697e-06,0.09999684605603541,-1.147434661919988e-06,0.03744460345041787,-1.2246837004554626e-06,0.10000045947538401,4.986380903477389e-07,5.870047539362441e-08,-1.3203595561707054e-06,-4.190013022819621e-06,-3.752604729720527e-07,-9.339473165141108e-07,-4.749873449854563e-06,-5.398787091648765e-07,-5.325120412203684e-06,9.260895226674906e-07,0.09999689203481461,0.09999708771831359,-5.041543223408386e-06,0.07712536971127872,9.159313194260612e-07,0.09999813925041315
25,2020-03-31,Simple + Baseline,-6.748299739210439e-07,-1.0149623387713866e-07,-2.4142796537288635e-06,-3.345906895708324e-07,0.09999532205412415,-2.0244761817684447e-07,-1.861909263021267e-07,0.06876360979605893,-5.09245674168435e-08,6.3102016770184e-08,0.09999013161536144,-4.415552837220152e-07,0.026249247219081076,0.08077154860967434,-8.941325910611227e-07,-3.744924450060711e-07,-6.620493980016501e-07,-4.202205194259632e-07,-1.721299524882574e-08,-1.281791343177433e-06,2.2970251879986896e-07,4.43728688753995e-08,-2.0896809620914723e-07,5.153267445321845e-08,-8.325924595163044e-07,-3.153512230657177e-06,-1.0379301718758049e-06,-6.397864665837059e-07,-2.494055705677692e-07,0.09999968886103518,-8.990576027999141e-07,0.09999963007691397,-1.0690781247865559e-07,0.09999965058549043,2.7517154272762865e-07,-3.0542584453899567e-07,-8.611181644639762e-07,-1.0485005137492096e-06,-1.5475805240328384e-07,2.3719759771960282e-07,-6.538940731917907e-07,-3.794960663303719e-07,-2.660060466001042e-06,-7.401767860061213e-08,0.09999903864125229,0.09999867454892655,-1.2830890245583923e-06,0.024256028614555402,1.1194553217247217e-07,0.0999990315881374
25,2020-04-01,Simple + Baseline,-6.400089587847765e-07,-3.561377449792163e-08,-2.1356891404673743e-06,-3.1504034363417984e-07,0.09999468566994762,-5.7661532507309354e-08,-7.28508495977278e-07,0.03786848105569364,-6.404023401521005e-07,-2.1051738252949347e-07,0.09998854177824215,-8.703856233364771e-07,-5.260878589203667e-07,0.09999282650074613,-9.77477807270832e-07,-1.6799777641757494e-06,-1.227684181923978e-06,-1.0279022485989207e-06,-1.360584395155094e-07,-1.4424532233176805e-06,-2.1171684247228876e-06,-1.1892290559640264e-06,7.598920032803146e-09,-1.93306718117438e-07,-5.925492509217124e-07,-3.251665869531444e-06,-6.811998390213149e-07,-6.646882013138829e-08,-7.542781172342658e-07,0.08965393392684907,-6.974366512833692e-07,0.08307478606374583,-5.071006526937408e-07,0.09999932082820769,-6.130192466592937e-07,-7.359925100144628e-07,-8.509564783853554e-07,-6.965859153484939e-07,-6.411404711297301e-07,-2.5169052394166425e-07,-6.74247986352265e-07,-3.799788526103901e-07,0.08946231126659067,-2.838608537754783e-07,0.09999885512368371,0.09999881628725171,-1.9978847624921303e-06,-1.2414108391505583e-06,-8.566516080181406e-08,0.099998623719205
25,2020-04-02,Simple + Baseline,7.126032717595223e-07,-3.429938083089262e-07,1.1985684193918564e-06,-5.329598247413138e-07,0.10000069158874678,-3.827983502992006e-07,-5.771870252341797e-07,0.09999929264749147,-6.363955416745136e-07,-4.7289961555803694e-07,0.10000204379612548,-2.539667566501039e-07,-4.356701005388843e-07,0.0999974291355745,4.997635180398643e-08,-2.0807991320242615e-07,-1.451602066062371e-07,-6.016189671751205e-07,-4.269393012477127e-07,1.186333619806467e-07,-4.686292448174496e-07,-6.835852418428376e-07,-4.2145887708732536e-07,-5.151429900996588e-07,1.0371594141686799e-07,-7.655576053741162e-07,-1.8667034962240107e-07,-1.8628826883351263e-07,-5.703788026779964e-07,0.10000089475780458,-2.36645256795002e-07,0.09999965016736823,-1.0982538994956928e-07,0.09999916723377225,-5.65793577302051e-07,-6.022538352875e-07,-3.610939391354455e-07,5.316468172452534e-07,-1.0623029829024307e-07,-3.4133589784119303e-07,1.6868207855894193e-06,-5.02866516683518e-07,8.974932202813429e-06,-6.592811658057914e-07,0.09999933073645668,0.10000038325196313,3.9687279567429625e-07,-5.883744849048606e-07,-1.9542218591626923e-07,0.10000041678271636
25,2020-04-03,Simple + Baseline,1.7928590542175545e-07,-7.856181258685151e-08,4.0776793194009166e-07,-1.7420089686138058e-07,0.1000002977548541,-1.1748944759467586e-07,-1.5778340852298832e-07,-7.435597028045146e-08,-1.8689658764190393e-07,-7.068528016192846e-08,0.10000152827096218,-1.5939875766964874e-07,-9.562440932823302e-08,0.09999908073659099,2.1852779485752643e-08,-7.505542929705275e-08,-7.947877815141505e-08,-1.1058180305431573e-07,-1.5422087325901207e-07,0.09999988491233171,-9.99669523553694e-08,-1.8392033575953825e-07,-6.210406294781533e-08,-1.013532504711495e-07,-3.022679541833568e-08,-1.8110798864123236e-07,-7.930752196901867e-08,-1.226404245555585e-08,0.09999983103753611,0.10000012096353368,-9.863086746837908e-08,-1.4933753770000317e-07,-9.37570137127238e-08,0.09999979133688047,-1.5139874197382343e-07,-1.132531846735162e-07,-1.0720869655863062e-07,1.8344042648858604e-07,-1.1341434338987183e-07,-1.0402989048410238e-07,4.3647934581127514e-07,-1.250076973754546e-07,0.09941331655006402,-1.7705815096636754e-07,0.09999985256748548,0.0005885897679878065,5.551858976051776e-08,-1.9646750385149496e-07,-7.093214779235764e-08,0.10000020386025242
25,2020-04-06,Simple + Baseline,3.8799127198322944e-08,-1.3021660891390656e-07,3.397619435892491e-07,-1.0939075783478602e-07,0.10000042938311936,-1.0639902975240246e-07,-4.0958059442592905e-09,4.063200091800665e-08,0.07153835760702736,8.413977648690788e-08,0.10000420263353565,-9.24188245198022e-08,-6.106884466198025e-08,0.1000005855922035,-7.376999707029656e-08,8.904137362700853e-08,9.763065003175194e-08,2.6000083312098754e-07,-1.5367928104427248e-07,0.028609536095253085,1.33358686000101e-07,1.8833159752625904e-07,5.392186222107853e-08,5.2558314590232146e-08,1.2672702348146266e-07,4.755733111301283e-07,1.377906415638978e-07,7.580143204663823e-08,0.0999997140954617,0.09999987144504273,1.1225627453554302e-07,-2.7539249634886813e-07,-1.929049330691816e-07,0.0999999863924952,1.5211938266593076e-08,1.4132801798629055e-07,1.304708589575255e-07,1.3561477414036293e-07,-1.5067713005796235e-07,-1.2590021110449507e-07,-4.909865340721246e-08,3.464934735079537e-08,1.52749223830251e-06,1.2215597954431882e-08,0.10000008730593653,0.09984367749618915,-6.463035974019664e-08,-4.9775525754252385e-08,9.847880512170565e-08,0.10000077803069493
25,2020-04-07,Simple + Baseline,4.0005911070102913e-07,-2.385621155200895e-07,-2.0490893798976005e-07,-6.972444316619126e-07,0.09999928652036051,-4.249054653843363e-07,-6.569575053527188e-07,-6.110834223937785e-07,-7.824255644222169e-07,-4.35841275831702e-07,0.10000033403152986,-4.748532354613167e-07,-4.7675907557098927e-07,0.09999770052474005,-1.7664204679856483e-07,-2.9652505737708566e-07,-4.711973710969393e-07,-7.681987247999806e-07,-3.6605058454318526e-07,2.384851298176564e-05,-8.292014474943851e-07,-8.614848937619708e-07,-4.4513382050941647e-07,-3.988205648290221e-07,-4.824831887354362e-07,-1.0761563408653123e-06,-4.5208005471328316e-07,-1.5851988442381627e-07,0.09999932961957646,0.10000035762626724,-3.708700029984282e-07,-1.5498009660681698e-07,-2.8121898508072075e-07,0.09999924059644962,-6.406797522813222e-07,-5.884434762549122e-07,-6.741878245358696e-07,-4.7726211167983466e-08,-2.436460755950199e-07,-2.8663024180609234e-07,4.093532980075834e-07,-6.980462923277824e-07,0.09999793995169547,-5.60618115065383e-07,0.09999910136029437,1.783523077946578e-08,-3.1887689870027065e-07,0.09999926876895017,-2.723790942758056e-07,0.09999969790128192
25,2020-04-08,Simple + Baseline,1.001356275623888e-07,-1.4526174906159457e-08,3.969561596829974e-09,-8.958867147291898e-08,0.09999985447049461,-3.512453561886197e-08,-7.663734544146746e-08,-3.530137674497629e-08,-9.782951959748758e-08,-1.462877672745245e-08,0.1000003762220134,-7.524813246098817e-08,-3.76168978054671e-08,0.09999920432997499,-2.2432851649183778e-08,-4.246512920739811e-08,-9.217163295477951e-08,-9.548374737769578e-08,-3.3344057388309105e-08,7.771693912230032e-08,-1.675685067256191e-07,-1.2290595395489006e-07,-2.198059972996155e-08,-1.8549087356237905e-08,-6.717742548614054e-08,-2.322248081102291e-07,-5.4686887034939976e-08,-9.04566080977817e-09,0.07233578857854994,0.10000002257940412,-4.4716089754869615e-08,0.02766730554009421,-2.9541049739371717e-08,0.0999999251979204,-7.028094401015894e-08,-5.671155333820998e-08,-9.571577371206956e-08,7.902443049735964e-11,-2.0358917917233642e-08,-1.637295207026928e-08,9.729643038819104e-08,-7.346064431727006e-08,0.09999937520508023,-6.128493703274044e-08,0.09999987942816736,3.650812696421001e-08,-5.3073082379839075e-08,0.09999991282529515,-6.740896609605563e-09,0.1000000235404828
25,2020-04-09,Simple + Baseline,-3.7515919929045814e-08,1.2741163850814972e-07,1.2297120511699265e-06,3.770181426911644e-07,0.10000217563687078,8.192380181808682e-08,7.494553478517948e-08,0.09215279029880723,1.1547463707479563e-07,1.5292117523941116e-07,0.10000364583718784,3.5301278574114224e-07,-2.370512596582381e-07,0.1000011519841041,3.452471961029948e-08,7.362107169037726e-08,2.861055257485657e-07,5.958539477572451e-07,2.3988357687085202e-08,7.026589286154615e-07,-1.4485786039609445e-07,1.5564995427666697e-07,8.702157340292548e-08,2.5467553858370614e-07,4.889369668052222e-07,5.442003012281501e-07,1.5429163667753572e-07,3.834716743816558e-07,0.10000004703848923,0.09999969042767319,6.217781567093817e-07,0.00010286996928508127,7.056290946275438e-08,0.044444351750154744,3.6441246052417556e-08,4.942225772653965e-07,4.733032672159058e-07,-1.1960262096355457e-07,-2.8473798202204883e-07,1.9380688978558784e-08,-3.000170245857017e-08,2.1119209854823204e-08,0.06328201534024312,2.440454779424564e-07,0.10000084842841109,7.41129805628726e-07,7.910514701762883e-07,0.10000033340467135,2.2998304617422931e-07,0.10000087289208844
25,2020-04-13,Simple + Baseline,8.324840111368619e-08,-1.566656760385832e-08,3.7320620244506735e-07,4.752662456730718e-08,0.10000061129711374,4.744507341016622e-09,5.173418174192437e-08,0.05969389483779533,4.6778119606320906e-08,-1.3592467145761025e-08,0.10000190608050932,1.5984758959829434e-07,3.675902496828377e-08,0.10000051039806027,7.81506232668713e-08,5.8349338163870723e-08,1.5261914531306533e-07,9.477894918316044e-08,2.58606535430581e-08,2.8528917492272657e-07,1.0934117857538974e-07,9.702232259145155e-08,1.0259871030807365e-08,-1.4159931722873234e-08,1.1853344673276832e-07,2.4233056488962124e-07,8.070238747222635e-08,-3.936143017988877e-09,0.10000008307256925,0.10000011561472733,1.408773635077517e-07,0.0096626762598803,7.027950947328617e-08,0.04444457082276679,4.529750201914048e-08,1.778833603145733e-08,8.59592744674816e-08,1.3354809184429149e-08,8.113932551799576e-08,4.269281416922304e-09,1.089640508936392e-07,4.832925991838193e-08,0.08619230942286149,2.9877798839237676e-08,0.10000007999476834,1.71281344493662e-07,2.3102822876815478e-07,0.10000002032205035,2.4554361098060533e-08,0.10000003959551838
25,2020-04-14,Simple + Baseline,-6.735466040299956e-07,-2.2817427763406146e-07,-3.0203808481703717e-06,-2.6898081181363295e-07,0.09999798890524275,-7.726608185170308e-07,-9.124710831428148e-08,0.059678250921691274,-9.477453907128058e-07,-1.2141938846232142e-07,0.07691058817771423,-4.7486315465682705e-07,7.78390404185208e-08,0.09999742419051812,-8.598558109530828e-07,-1.9037758788463179e-06,-7.736533873406436e-07,-2.972534069865416e-07,-8.629374975091036e-07,-1.4276788513758742e-06,-7.856376205907216e-07,-3.6641126489619473e-07,2.800797990889812e-07,-4.749261066164606e-07,-6.370255184790894e-07,-3.6513534814419006e-07,-1.242358210345607e-07,-2.832923415721672e-07,0.0999991034123442,0.09999953244709966,-1.5586670862015486e-06,-1.111157586926737e-06,-6.108717012731044e-07,0.06344912284436291,-1.7676322170064396e-07,-1.18335404837276e-06,-6.087153850026165e-08,-5.335229022271558e-07,-1.0014096800309635e-06,-1.1874449522907014e-06,-1.3687196333459635e-06,-1.5383454813971599e-09,0.0999987242918023,-2.8268114119227457e-07,0.09999934210636409,-5.654474043752327e-07,-2.4292103215719955e-06,0.09999806948712209,-6.712283312151286e-07,0.10000000030494689
25,2020-04-15,Simple + Baseline,-1.478578189231814e-06,1.3500258399446444e-06,-1.9704228284298714e-06,2.247180307479265e-06,0.10000081608143806,9.378224369087165e-07,6.811806444899028e-07,0.10000043006299045,1.8466890193225691e-06,-1.2175010683480952e-07,0.09651374688935932,-1.0588810448939488e-07,6.408431051291715e-07,0.09999724416741727,-1.6847956045716232e-07,-1.4714358784813651e-06,-5.117972478412009e-07,5.101894757159106e-07,-1.9880509582731586e-08,2.9527169141936444e-07,-4.479679339785925e-07,-1.5747897727447958e-06,7.27783743647095e-07,2.0341452038348483e-07,-8.433799199070866e-07,-1.3066219116600246e-07,1.4015123690477169e-06,1.2602588341454055e-06,0.026242352485473724,0.09999964981995856,-4.056615190923453e-07,0.03728221861550003,-1.95778846876263e-07,0.0399572217269937,5.475608039589781e-07,5.484351812734408e-07,1.1325107562111327e-06,-5.503720619031168e-07,-1.7775388944117692e-06,-3.617397244487611e-07,-2.383680878151191e-06,1.75070427395768e-06,0.10000102428368696,1.9056968853030674e-06,0.10000533598821255,7.821640619905779e-07,1.8775635250963636e-07,0.09999807721367714,-1.932603182406171e-06,0.09999936310776761
25,2020-04-16,Simple + Baseline,-3.4026005675589013e-07,-8.097862099521002e-08,-9.85554803865425e-07,-4.5947044162397036e-08,0.09999922320717065,-1.6690487032513005e-08,-6.626591045486466e-08,0.0999998538761022,5.5934736298855114e-08,-3.101292813797283e-08,0.09862925551385127,-4.6889000402958e-07,6.92270299330694e-10,0.09999808880054803,-1.8206034101104142e-07,-3.3151757022563414e-07,-2.490543289588486e-07,-2.6742314660325144e-07,-2.035128171322137e-08,-5.728794880351492e-07,-3.243099567469824e-07,-5.410035220147695e-07,-1.0171314671172193e-07,-6.464307215337672e-09,-5.883188878093342e-07,-5.483344338889148e-07,-1.4159985390512296e-07,-1.1794728904185029e-07,0.05979659899477516,0.09999972762690647,-3.4400115644931024e-07,0.03728509284951469,-1.9346766956268553e-07,0.004302750553615494,-4.3855454759965354e-10,-2.3416641318586526e-07,-1.1462056671974985e-07,-1.4495512707068959e-07,-5.014587808381199e-07,-1.7649708617175387e-09,-6.312259820904104e-07,-1.2214367737495668e-08,0.09999940359319508,3.655335087144975e-08,0.10000011536566054,-4.1994942726278894e-07,-4.0208660896661695e-07,0.09999960647746811,-2.846123566428543e-07,0.09999951172484205
25,2020-04-17,Simple + Baseline,1.8808829416264804e-08,2.544984073077689e-07,8.480000213716773e-08,6.224159078935473e-07,0.10000204655127187,1.7934475170545048e-07,2.131486299140373e-07,0.10000000408011334,3.56297910564682e-07,-1.2309856169466914e-07,0.06114083964842044,2.8081682683599433e-07,-2.0628714023310562e-07,0.10000082486434478,-3.392722014770434e-08,-1.027092538929729e-07,3.8355283503789475e-07,1.8474907339087927e-07,-4.2299642570031065e-08,1.3644542921347892e-06,-1.5251153681789008e-07,-2.4691458839248055e-07,-1.872611773237473e-08,-2.9648016317935548e-08,5.497559342040571e-07,3.937901379968093e-07,8.992638899176998e-07,4.18200634546219e-07,0.08300469643961436,0.10000032285564114,2.585325148789094e-07,0.03728009263187064,-1.1260936015114192e-07,0.018559621584821544,-6.753020106705573e-08,1.8322606388803145e-07,7.123810244782495e-07,4.9542213376137465e-09,-9.764290841477657e-08,-2.772021501815243e-07,-1.0231390993430069e-07,3.461818436809114e-07,0.10000157915496752,5.969536687926542e-07,0.10000194993829375,9.575494046471626e-07,5.566073772967886e-07,0.0999995097457818,-4.453999092950585e-07,0.10000072634700873
25,2020-04-20,Simple + Baseline,8.76898468410436e-09,9.05883534734744e-09,9.857094485881975e-09,1.0529932576173265e-07,0.09999998748735689,1.6494059094636587e-08,4.508276812210025e-09,0.09999999993844137,5.799375982943554e-08,-6.726369923341579e-09,0.06114085462218903,7.467875254324028e-08,-1.7349535571758546e-08,0.09999999097401191,-1.2915190292769363e-09,-1.4969122003173984e-08,7.952457435827893e-09,3.5448576667364116e-08,-2.8217081481429613e-09,1.1431511072568283e-08,-3.566163941658452e-08,-5.1470699901336135e-08,-9.645337537567114e-10,-1.0957068618763333e-09,1.3830694168044688e-08,6.352010651771492e-09,1.6889615084491697e-07,2.9973161072285694e-08,0.026977212329441377,0.10000000511688077,5.273385528594936e-09,0.0426642720519701,-1.654562206181189e-08,-4.739060863680844e-10,-7.297424886673539e-09,2.767089885855612e-08,-3.3750004910512427e-09,0.06921685618139446,-1.597890143491352e-08,-1.940578150676665e-08,-1.3025497320062373e-08,4.6820875473427343e-08,0.10000000501911539,9.014790113885601e-08,0.10000033979326636,6.4950105573830515e-09,1.3583825324208894e-09,0.09999991879175678,-5.2917494614618265e-08,0.10000008069508069
25,2020-04-21,Simple + Baseline,5.444511317598044e-08,-3.0216627617497594e-07,-5.932179078268314e-07,-6.050356060577418e-07,0.09999870845884559,-3.444766431929779e-07,-4.082375480451081e-07,0.09999938958704417,-6.903997870295106e-07,-3.6052673248361687e-07,0.07529214654601425,-1.0022421387637807e-06,-5.056026686738058e-07,0.09999784887516718,-1.4843930348066566e-07,-2.5100898132718467e-07,1.1069036870007524e-07,-5.567682792989834e-07,-3.8344893521397896e-07,-7.641072874281373e-07,-6.222622714172295e-07,-1.0447801691626819e-06,-3.21814585086473e-07,-3.513418344192497e-07,-1.6476662435583075e-07,-4.991074608017319e-07,-3.33058941874042e-07,7.577164039268941e-08,-1.1228092726597036e-06,0.09999973586585638,-2.343890238938443e-07,0.09999916064032105,-3.204948635701099e-07,-7.423169272706834e-07,-4.7464116744530297e-07,-2.9008764249740935e-07,-3.0483244731691933e-07,0.024733981538597558,-5.046853048555572e-07,-4.519854583820942e-07,5.867327526931357e-08,-4.034512990532534e-07,0.09999807551150341,-6.968812369406306e-07,0.09999936112535093,-5.713163970867033e-07,-7.94445750353146e-07,0.099998736896608,-3.410060784003167e-07,0.10000006031322374
25,2020-04-22,Simple + Baseline,-8.15061439822563e-09,-3.4500573468975784e-08,-2.3782146016826386e-07,-1.6976431180455358e-07,0.09999948454953862,-5.192358312143517e-08,-8.639868777397394e-08,0.09999992126589836,-1.750854932273811e-07,-1.6700261711512034e-08,0.06479293159559382,-3.326645279317435e-07,-9.41846943891417e-08,0.09999893376497242,-5.58613390327311e-08,-6.643390079070295e-08,2.6385154284851916e-08,-1.259704076970241e-07,-6.202822643519112e-08,-3.4673826290335766e-07,-2.2621877452916448e-07,-2.7667349225320977e-07,-3.977341935891876e-08,-2.3164445201403204e-08,-5.3089346979986664e-08,-1.6615745301706882e-07,-8.601984623634667e-08,1.4492201477173215e-08,0.007689542960982266,0.09999987809592623,-5.4880274497200955e-08,0.09999983197907907,-9.556512172959684e-08,-1.5026536421743963e-07,-9.84608871854364e-08,-3.738986540040996e-08,-7.491274399259737e-08,0.027525088429380357,-1.3873301611142605e-07,-5.74995912882261e-08,-3.3155750457794834e-08,-8.656945149726585e-08,0.0999991207450225,-1.5830522065044916e-07,0.09999979410206192,-2.104944697493505e-07,-3.166438011364246e-07,0.09999971046660236,-4.7686642156245604e-08,0.10000001710850638
25,2020-04-23,Simple + Baseline,1.4867508410150484e-07,-7.044419267305287e-07,-2.8609644987474722e-06,-1.6076666555797269e-06,0.09999271261880222,-6.155434673546585e-07,-1.333203771457148e-06,0.09999833302493179,-1.974916779052393e-06,-8.66193419190344e-07,0.06477890552348675,-3.129164363958593e-06,-7.526659907360144e-07,0.09998655435539477,-8.099892137635841e-07,-8.110576715851859e-07,-9.39340744955989e-07,-2.707532817447071e-06,-6.354133344349348e-07,-3.418818489689357e-06,-3.355759720379056e-06,-3.1421013407366224e-06,-6.760036776076077e-07,-1.1297269753332199e-06,-1.5114253002519204e-06,-2.568262710726492e-06,-1.3211250430106265e-06,-1.6220898552263803e-07,-2.3778848306437077e-06,0.09976373255117066,-2.0287723934082043e-06,0.0999983462888606,-1.0028030511172661e-06,-1.6002891697067316e-06,-1.3839969817493137e-06,-1.395933618876393e-06,-1.6159418932065287e-06,0.035559958167564104,-9.068888229571721e-07,-9.347919561283318e-07,-3.324682105747895e-07,-1.0210229189362683e-06,0.09998955202062913,-2.1686290015458496e-06,0.09999680919939541,-2.1437040892544184e-06,-2.659711466277877e-06,0.09999702547889175,-1.1441006465920597e-06,0.09999772378519528
25,2020-04-24,Simple + Baseline,-6.034958355584364e-07,-3.4109930574302336e-07,-2.012809849194796e-06,-1.2261362795896806e-06,0.09999662862048961,-5.486063234873406e-07,-1.0152602785465825e-06,0.09999937633566008,-1.2732728950714802e-06,-3.552720536796704e-07,0.06477521693511612,-1.959028091357314e-06,-7.204095931054886e-07,0.09999174996154692,-9.683531487049423e-07,-1.005033329733276e-06,-1.0651346423726988e-06,-1.3901081417115357e-06,-6.490037833601108e-07,-2.54747292413517e-06,-2.2423806101779333e-06,-1.752397314469024e-06,-4.4001036587382013e-07,-5.131479679568687e-07,-1.1627873955589048e-06,-1.9082755976607343e-06,-1.0787744669399822e-06,-2.145387767602928e-07,0.01460844766077891,0.09975682245165332,-1.3388048267087655e-06,0.09999915542288863,-9.631968267381942e-07,-1.018864954519065e-06,-1.0477456905189367e-06,-8.220368200493242e-07,-1.2221612036397482e-06,0.0209240498871812,-9.900975471532259e-07,-4.873431517702772e-07,-6.277497312819994e-07,-8.714388334885016e-07,0.09999376390916513,-1.2687240578906877e-06,0.09999833092314737,-1.3473194700708629e-06,-2.093016095051064e-06,0.09999857942213058,-6.385219717415767e-07,0.09999962242627168
25,2020-04-27,Simple + Baseline,-2.3755828772436542e-07,-2.704380371402519e-07,-8.043390152920909e-07,-7.035928941881275e-07,0.09999872670784832,-3.5082337164476165e-07,-6.211649476172104e-07,0.09999956779010623,-8.08825220402801e-07,-3.019347649457076e-07,0.03207807411822545,-9.940249837350683e-07,-6.343146242865746e-07,0.0999951694090042,-4.4474277217729267e-07,-5.395627010696691e-07,-4.099504480383745e-07,-6.144359223920918e-07,-4.347918909301846e-07,-1.1828775950431676e-06,-1.2699952181881418e-06,-1.0912758122832582e-06,-2.733924126163619e-07,-3.7070224078201886e-07,-4.626323468687189e-07,-8.794296022932375e-07,-5.707007506190708e-07,5.279598025219594e-08,0.014604379782672115,0.07954919608005231,-5.762273351946706e-07,0.09999958275049635,-5.024426100328336e-07,-6.62101993555485e-07,-7.636577010602581e-07,-4.0245247087760466e-07,-6.43573699728771e-07,0.0364362853608636,-6.078123106651032e-07,-3.844618112638739e-07,3.4979815121694855e-08,-5.456781700793883e-07,0.09999664029474091,-8.428785951149038e-07,0.09999923931732989,0.0373653465599467,-9.422771789503068e-07,0.09999910657390104,-3.8076263112049117e-07,0.10000012328447602
25,2020-04-28,Simple + Baseline,-1.9387029000596026e-08,0.06018005716558821,-4.0101827076378416e-07,-1.5236357808220167e-07,0.09999901042454334,-1.1088144424111236e-08,-1.8132047605021292e-07,0.09999988827585815,-2.392646207082702e-07,-3.704115044525656e-08,-3.362639562284357e-06,-3.64989277715673e-07,0.001990209444497472,0.09999662702591883,-1.0382712217386954e-07,-1.946052774308113e-07,-2.1277491737025114e-07,-2.920144621835113e-07,-6.2849199346137605e-09,-6.78123130700214e-07,-7.287357007851987e-07,-5.18091331205472e-07,3.4085522291187367e-08,-9.236707204382201e-08,-2.5548995645937653e-07,-4.367258066386235e-07,-3.1611015680885254e-07,-6.031675092464798e-08,-2.0275964443432705e-07,0.10000001678329837,-3.2797508261942694e-07,0.0945035567752314,-1.1093757155586496e-07,-9.242247380168892e-08,-2.1880455987560387e-07,-2.4168055178531454e-07,-2.934234041469656e-07,0.03235827944543802,-1.5809311068667538e-07,-9.874717355389022e-08,-8.55725486855995e-09,-1.0104149047536917e-07,0.09999774303226491,-3.2662139451000004e-07,0.09999956077151942,0.010987085259112265,-4.936101661868922e-07,0.09999974931066839,-1.202787857779542e-07,0.09999965332404444
25,2020-04-29,Simple + Baseline,1.6394899507640682e-08,0.060822028022043756,-2.7047952589135214e-08,-3.348343666155808e-09,0.09999985970474401,-3.6646412006966265e-08,-6.018369521081788e-08,0.09999998570080654,-8.73831642258229e-09,-2.186670739508354e-08,-1.637827074835055e-06,-1.72176817400146e-08,0.03742218488963249,0.09999863059046155,-2.7135174615201764e-08,-2.925638565994125e-08,-7.961105428014316e-08,1.9410972118028915e-08,-7.916923391525122e-09,-9.774614932358069e-08,-2.4607063432080404e-07,-1.462312434753937e-07,-3.965262876193795e-08,-7.501673515847093e-09,-1.8471573305131596e-08,-1.2407284314679477e-07,-8.945419330197164e-08,-1.9278053628671517e-09,-2.693293680978083e-08,0.1000000567270749,-5.5785553116893743e-08,0.075542845005611,8.388090220182085e-09,1.0868073173874655e-08,-5.103724637628335e-09,-2.1760144976885742e-08,-9.056701999395519e-08,0.02621824010647231,4.004048891030861e-08,3.8231216216358565e-09,5.2883872201996584e-08,2.3455006960075016e-08,0.09999909141652813,-6.652072867240837e-08,0.09999994905872875,5.849172467002315e-08,-1.130855312557881e-07,0.09999998902858023,-4.6694482066504894e-08,0.10000005847221147
25,2020-04-30,Simple + Baseline,7.683356053962409e-08,0.07693312356605474,1.9158887981527558e-07,1.4151499461060798e-07,0.10000012032538327,4.5077294303481484e-08,9.053141224857649e-08,0.1000001125824691,1.6121742287211987e-07,5.850179690031402e-08,0.014113248341653225,1.658168274926286e-07,0.0019100568740013952,0.09999975682940722,7.160723155629011e-08,1.376148949829593e-07,5.630109556408005e-09,9.899019113757994e-08,6.596393371081815e-08,1.2367681249814914e-07,9.162963884757537e-08,1.7561766185708632e-07,8.077929929637057e-08,4.6826853607585993e-08,7.666735175451179e-08,8.078863477232807e-08,6.045420890519793e-08,-1.6966335449217603e-08,2.0483271693699483e-07,0.10000016772109342,-6.420490174354951e-09,0.07398560746960413,6.498483720371029e-08,1.5613603069367373e-07,9.896660277833087e-08,-8.735299596187465e-10,1.269307141584688e-07,0.033053803837608385,1.1453942848158493e-07,5.5019124533831223e-08,1.7946486435355265e-08,9.994777625180943e-08,0.10000001701725028,1.6638560791882065e-07,0.10000020447201148,2.2766712803950073e-07,1.0235819865146778e-07,0.10000020175267141,9.766002432911835e-08,0.10000002164219975
25,2020-05-01,Simple + Baseline,-6.824496355922268e-08,0.05087234707007861,-6.608486419800365e-07,-8.260327429739785e-08,0.09999892346306408,3.484117886214839e-08,-1.6710758240469035e-07,-1.4984214173531969e-07,-2.0848112650865245e-07,-3.5641371684089594e-08,0.09999312489123631,-3.024466603577359e-07,0.08305387936452681,0.09999642581707399,-1.2511591298279744e-07,-2.5616867569371353e-07,-2.5806311959132943e-07,-3.221062087000278e-07,2.8967884592150454e-08,-8.53463904705757e-07,-5.962195042254817e-07,-6.594112446318547e-07,7.750110693446702e-08,-1.5464257947526727e-07,-4.5972056470104467e-07,-4.2892464509889604e-07,-2.9891101360820866e-07,-1.5891527799560395e-07,-1.6655814320667193e-07,-7.804967530007644e-08,-4.940420919068077e-07,0.09999997475353534,-1.2125973679025176e-07,1.1603264873185827e-08,-2.5919574495792154e-07,-3.177583710039156e-07,-4.142352972147292e-07,0.004876378921136292,-1.7501457610589837e-07,-1.258457025696569e-07,-7.091936592954882e-08,-5.6606269372038305e-08,0.09999741749967786,-3.098796817749669e-07,0.09999948302993227,0.06122223268252894,-3.9667014334423896e-07,0.09999977041946229,-2.968673946326607e-07,0.09999943826898064
25,2020-05-04,Simple + Baseline,3.2839935009788085e-08,0.05087121442898257,-1.268031649805799e-07,1.8644722425625774e-08,0.0999997496815379,2.9336852741382977e-08,-2.3365612158174e-08,7.826554829111616e-09,-3.8595300082050724e-08,1.432873494202633e-08,0.09999592589825418,-2.7015464435498003e-08,0.08305403644776228,0.09999828481013362,4.66636373513895e-09,-1.9957397832869834e-08,-3.200999069617071e-08,-2.038088872367938e-08,4.207922370526849e-08,-1.942738750065017e-07,-2.167973908416489e-07,-1.7828576189485618e-07,1.208075198994689e-08,6.050327505354349e-09,-9.155057955908484e-08,-6.011696479378146e-08,-4.948909383589607e-08,-1.0593413399297408e-08,-1.5188120187536078e-08,2.1465397527165422e-08,-8.775608360211457e-08,0.10000009142251808,9.855305181969156e-09,1.60376281795422e-08,-3.867967079853657e-08,-3.694707973694193e-08,-6.356517932075348e-08,0.012209112097730155,-1.6335187911580283e-08,1.379486262930166e-08,4.8687852145275803e-08,-1.1535744430866484e-08,0.09999892909262771,-5.3992893389920806e-08,0.09999995559731578,0.05719147306756474,-4.696727766664176e-08,0.09668247487026481,-2.2563176415916158e-08,0.09999995779481209
25,2020-05-05,Simple + Baseline,-6.866126682631717e-07,0.060435967187016576,-1.8696575602981565e-06,-1.1120345956811914e-06,0.09999683750143065,-3.236520367164446e-07,-9.069298962132709e-07,-6.299969532601824e-07,-1.6705731104211882e-06,-9.946045838950924e-08,0.09598230715351938,-1.2795488347081423e-06,0.09874069235983522,0.09999529539664438,-9.717751927096672e-07,-1.2532142737247306e-06,-4.852839614681951e-07,-8.609481889346688e-07,-5.39432958002126e-07,-1.8283812182474128e-06,-2.270327927304662e-06,-1.7647897628913262e-06,-3.7377986594278144e-07,-3.113409314380652e-08,-1.3134598885221623e-06,-1.0371480603514615e-06,-7.272718319869645e-07,4.2572173886707876e-07,-1.8355944624581121e-06,-1.7559307953920157e-06,-4.947853252529e-07,0.09247887152986033,-8.414382571122859e-07,-1.2397205050777658e-06,-1.3092511383739107e-06,-5.6942798333851846e-08,-1.1654286042197808e-06,0.012711510152580097,-1.2777974935547005e-06,-1.8265262775582408e-07,-6.270075075935645e-07,-9.663730041231138e-07,0.09999623949757284,-1.2394007836705101e-06,0.0999982629649993,0.09078454163737554,-1.4420463549033375e-06,0.04891696674852456,-7.022751945808709e-07,0.09999927356612288
25,2020-05-06,Simple + Baseline,-1.7707492305941105e-07,0.07090646918803806,-6.878761537287542e-07,-2.3232370980033762e-07,0.09999884600313469,-3.3419329148447936e-08,-1.9554969862562565e-07,-5.8917225617633006e-08,-3.596208449246535e-07,1.609074121961055e-10,0.09999955636430295,-3.470426550203815e-07,0.09999998816634512,0.09999757536946892,-2.3613965143061652e-07,-3.106780076588563e-07,-1.6489603642117135e-07,-2.2192271527077882e-07,-7.12216404148542e-08,-7.172537404187502e-07,-8.264116650011075e-07,-5.053853429104779e-07,-2.7895585490061616e-08,-3.5472451040079297e-10,-4.142268497504661e-07,-3.7753215317764197e-07,-1.898508693685576e-07,3.489428203308864e-08,-4.791413255575452e-07,-3.802958350494859e-07,-1.4829065036648968e-07,0.0729024234950931,-1.8613687940028835e-07,-2.1626172057866146e-07,-2.685755756582803e-07,-1.3656733564032444e-08,-3.100574227031749e-07,0.0035292534488370617,-3.087604284357477e-07,-8.829290193245298e-09,-1.4676422648844806e-07,-1.7577890101703755e-07,0.0999982262824973,-2.751222924701903e-07,0.09999962688516244,0.09999993214623278,-4.7523703535030784e-07,0.05267788425487557,-1.2356920520806109e-07,0.09999985671164993
25,2020-05-07,Simple + Baseline,-9.761705650121402e-07,0.09203907312955598,-3.4495930906523125e-06,-6.516644251373062e-07,0.09999322924087369,5.441973031461183e-08,-5.37465290929835e-07,-1.5418020894912967e-07,-8.825001749045193e-07,1.616736570912416e-07,0.09998208561417021,-1.414478201108376e-06,0.09744655060812916,0.09999001727610118,-9.896959700401091e-07,-1.1585575410760081e-06,-1.827345251674467e-06,-1.3072521728260612e-06,-5.6192319863188516e-08,-3.8499458406354505e-06,-2.410557705955355e-06,-1.814178943379473e-06,1.2492433365565107e-07,-9.185495668329173e-08,-2.1513647284064176e-06,-2.493004728993073e-06,-7.557653513138292e-07,-3.2112031849889933e-07,-1.1713044827660196e-06,-1.1753281774578088e-06,-1.6884244765566036e-06,0.057930461313454425,-9.784780302142516e-07,-2.6942816937888104e-07,-9.496639995667493e-07,-5.134552948396364e-07,-1.2592261976150764e-06,-3.7786478796486627e-07,-9.796112206501695e-07,-3.545251755264448e-08,-1.2375221310896967e-06,-2.946361154176826e-07,0.09999268033658185,-7.927236079148536e-07,0.09999813405605419,0.09999766360970744,-1.8311729458793334e-06,0.05267370450759584,-8.590045864503748e-07,0.09999781950411371
25,2020-05-08,Simple + Baseline,-3.098292935256992e-07,0.07805348135385978,-1.7132136329997844e-06,-2.481652102372698e-07,0.09999733561679129,8.320508324858799e-08,2.0082740760774042e-07,0.029312628654469014,1.3239122986589952e-07,6.53054636436252e-08,0.0878515137224129,-7.776868711711336e-07,0.0999966810308108,0.09999539853447162,-1.8530816795586184e-07,-1.051126882761649e-07,-7.279430530010887e-07,-7.031682733341855e-07,-3.3519014399220996e-08,-1.6648106834863329e-06,-3.056095087992267e-07,-1.2225834217039177e-07,4.839302855457662e-08,-1.0765251684630607e-07,-8.974222600586822e-07,-8.676060231629557e-07,-7.604464231332824e-08,-2.3907685382128496e-07,1.0025037912017277e-07,1.220178334117922e-07,-9.87701762842546e-07,0.029599737517866823,-5.407670511082537e-07,2.43864698493755e-07,-8.727233338305477e-08,-3.377448968771673e-07,-1.0678570163328156e-07,-8.972148200019264e-08,-1.3305368709780663e-07,-1.9746858363225405e-08,-3.525446136726983e-07,1.6760552666929335e-07,0.09999694073419649,0.008126635666246633,0.09999955607528344,0.09999889476054442,-8.528352252320357e-07,0.0670836835572285,-4.961541038943336e-07,0.09999943422071078
25,2020-05-11,Simple + Baseline,-1.5987506427435158e-07,0.08756958328201393,-7.058906941308295e-07,-6.138316258574544e-08,0.09999899124665387,-1.1626004968174189e-08,-2.9989798697799514e-08,-1.3542134780385392e-08,4.306038255248502e-09,1.883553564396329e-08,0.0784193279135165,-2.598410716682311e-07,0.09999957985400915,0.09999772504135614,-1.0707182102433395e-07,-6.504974508867443e-08,-2.438901659556971e-07,-1.651637412790078e-07,-3.948100410473269e-08,-7.35037177895234e-07,-1.3848634199481829e-07,-3.8622230812143634e-08,1.5938240765340223e-08,1.4609058233716347e-08,-3.0196638330839194e-07,-3.5851727878064085e-07,-3.1049701306295555e-08,-2.1575946490308072e-08,2.1209954813264835e-09,-1.0163503991535828e-07,-2.804204036739336e-07,0.02959950944926307,-1.5043246667122213e-07,-2.402950262330615e-08,-1.1523969381120719e-08,-5.5698690604251906e-08,-4.540143250231235e-08,-4.164099862256216e-08,-9.529963626968786e-08,-3.45257490554121e-08,-1.8171911027837655e-07,2.210439064937655e-08,0.099998571474124,0.004422250456482349,0.09999993384418684,0.09999957141297786,-3.672947409874686e-07,0.09999992889667098,-8.448142356288066e-08,0.0999999114832189
25,2020-05-12,Simple + Baseline,1.1720241952828884e-06,0.09907642038194961,1.6751529804377854e-06,4.164335607324501e-07,0.10000134354563164,3.126053620000004e-07,6.262378527120374e-08,0.02639913088216937,6.958939046476907e-07,-4.282752642073792e-07,0.08237561315714084,1.7777100263743677e-06,0.06334710519671241,0.09999834955808361,1.0964441575137399e-06,1.0817597129966604e-06,5.348197255847653e-07,-2.2303852848160713e-07,3.686983643762512e-07,2.148294706906075e-06,1.023234622130719e-06,-2.4865079781249176e-07,-1.5838093941403038e-08,-8.294760857979585e-07,3.7433404936089136e-08,6.556334544865904e-07,-1.4892511782563058e-06,-4.468162768240859e-09,5.737584415154198e-07,2.1074099302690958e-06,5.181211989003423e-07,0.02341279523195963,1.6827950429003666e-06,1.089825276000155e-07,5.137376522261446e-07,-8.837122081895339e-07,-2.715874658173881e-07,8.5452938752111e-07,1.9072249214096434e-06,6.567373298553682e-07,1.6858831744410822e-06,4.00092033313484e-07,0.09999827474686089,0.0053669052084939954,0.09999966116672072,0.1000019041205025,1.4422619460106245e-06,0.10000104244691378,5.529072610846982e-07,0.09999980168241247
25,2020-05-13,Simple + Baseline,-3.3513562363033643e-07,0.0990825566262146,7.345251587659769e-07,3.213315307245533e-07,0.10000141811036542,7.912926612036447e-08,3.431642204310644e-08,0.01359864483484042,3.021257933681029e-07,-8.19278525361365e-08,0.10000139668646912,5.561841234455353e-07,0.06904601760338525,0.0999994841947585,3.6755817976336235e-07,-8.716459963724504e-08,1.1370114673424787e-07,7.469444392651285e-08,7.486739066720072e-08,1.2694938020655327e-06,-3.1498622524158085e-08,-1.3459768593054142e-07,-3.221059007244111e-08,-1.2987595131185924e-07,1.6160919736085255e-07,2.0684714261364108e-07,-3.5531524786268214e-07,-3.02095741760531e-08,3.5562985289149837e-07,0.0062167939177138086,2.315399119153654e-07,0.10000027645075803,6.299722429190697e-07,8.989619213128027e-08,2.60095561390882e-07,-1.638775351800664e-07,1.1056320100996202e-07,1.7775740273872962e-07,4.894382634439542e-07,1.4869375119490542e-07,3.0451896682247136e-07,1.0029173993573289e-07,0.09999979104968659,0.012046055705553517,0.1000003528863013,0.10000069895644553,5.449495034246587e-07,1.100347278928597e-07,-1.1765698164857313e-07,0.10000015794568791
25,2020-05-14,Simple + Baseline,-1.4292262073836342e-07,0.08191356040612824,1.222087327068662e-07,1.524421690585604e-10,0.10000033955134847,-2.2979991741431128e-08,-5.980152995905036e-08,-3.932070857779059e-08,-1.1276358841720144e-08,-2.224660016144796e-08,0.10000058898754308,5.819278284856117e-08,0.059096329442367125,0.09999954657600747,1.7976376255562346e-08,-8.985773255391727e-08,-3.410823131329752e-08,-5.897060494921632e-08,-2.519377220784261e-08,3.4874914767452195e-07,-1.3288041876397993e-07,-1.3240680215397817e-07,-3.0786344969741914e-08,-4.368117860474358e-08,-4.845830230848327e-08,-4.0496962185793325e-08,-1.536698612116102e-07,-1.68517980350859e-08,-3.8820231906119685e-10,-1.1610270244998649e-07,2.6340878694378073e-09,0.09999996432026687,7.075188811553398e-08,-4.948254561030901e-08,-9.199452788595367e-09,-6.504156893626661e-08,-6.210490679871123e-08,1.7524979978927258e-09,3.464985409897025e-08,-9.159392205878134e-09,1.2330807669093546e-08,-3.2688878641580245e-08,0.09999969950359773,0.06678345142849249,0.100000004172632,0.09220740368223068,7.202052960328113e-08,-6.347990601278812e-08,-7.375038545322645e-08,0.09999995947934942
25,2020-05-15,Simple + Baseline,-9.584850189100852e-08,0.09999995048874251,-4.006206939583752e-07,-4.834713434785823e-08,0.0999985342047314,-5.019401622854953e-09,-2.927937425807308e-07,-7.887261705333642e-08,-4.6450198437521956e-07,9.6917399802843e-08,0.09999519201192898,-2.2843458924737577e-07,0.05909434269963859,0.09999721493722141,-3.0771195178579715e-07,-2.832886411033276e-07,-1.8147866653350747e-07,-3.7801124914840504e-08,4.548486880573953e-08,-7.961128254641587e-07,-1.1607099187072367e-06,-6.238347880853381e-07,3.463621279561409e-08,4.280293916749699e-08,-6.447484348253934e-07,-2.0248938621400108e-07,-3.2122780848426807e-07,-1.3339921705622836e-07,-4.570008025047589e-07,-3.09758845510018e-07,-2.390599826110537e-07,0.09999988705175278,-1.6304869968495008e-07,-2.0188851183485305e-07,-3.5683135200287174e-07,-5.806670795473773e-08,-5.612384743640657e-07,-9.444866933505688e-08,-4.4948110270880786e-07,2.8347005175348708e-08,-4.9596702209952966e-08,-1.9213958966637084e-07,0.09999769178579047,0.06678146357368318,0.0711608109819033,0.09808914698059847,-8.468367785585984e-08,0.004895624925516583,-7.361483890458468e-08,0.09999950455707646
25,2020-05-18,Simple + Baseline,-1.0760726857934296e-06,0.08388709455930629,-8.508471355378432e-07,-9.767990881320082e-09,0.09999654182034415,-1.2182232897439188e-07,9.620049111320267e-08,0.048562149987000064,-4.60037465226105e-07,1.2106435494043682e-07,0.05665969744709088,-1.0376174254177122e-06,0.09999828455955553,0.09999739134942541,-7.286519688042119e-07,-1.0801414932616007e-06,-6.614367078316565e-07,8.511526486530941e-07,-3.126599327643211e-07,-1.185869003546855e-06,-1.1404528519299796e-06,-7.5097921946839e-07,3.3840669513554327e-07,3.324511771078703e-07,-1.3289561616545598e-06,-3.011711318847474e-08,-1.8052646426046933e-07,5.836925786208672e-08,-9.015904091250458e-07,-1.3256045519537684e-06,-1.0185446580067213e-07,0.10000008982039071,-9.688164512877591e-07,1.2729253011653979e-07,-4.592109532155131e-07,7.213421952902324e-08,3.8356519540531104e-08,-9.392347708850666e-07,-2.195536883111344e-06,-1.2247988652123538e-06,-6.917237862924233e-07,6.78184020590183e-08,0.09999812739450352,0.03976359822682407,0.07116198516185705,0.09999460147517593,-2.5174683331502974e-06,7.646915388251389e-07,8.019984379537933e-08,0.0999997761316213
25,2020-05-19,Simple + Baseline,-7.171960032159836e-07,0.084405154211,-2.250192514267134e-06,-1.969746313446105e-09,0.0999957653499224,1.0418132349618393e-07,-3.031398938783916e-07,0.04856078505308965,-4.835531999324926e-07,2.4021268438106456e-07,0.05665402648755671,-9.252674322453976e-07,0.09999951608665943,0.09999555013081589,-9.116549780653474e-07,-8.46296253771438e-07,-5.524147740351678e-07,-2.7790384490472548e-08,-6.317264954434828e-08,-2.786924580602889e-06,-1.9508420996398254e-06,-8.012490903009345e-07,3.075036222124852e-07,2.9168992255462973e-07,-1.04767878506649e-06,-1.499664230801303e-06,-2.690114894345354e-07,-4.5533677880761914e-08,-6.84648901637224e-07,-1.659723364744386e-06,-5.477607728719619e-07,0.09999948366275575,-7.428047331599494e-07,-1.5342203214638184e-07,-3.678115786476828e-07,-3.510366094987109e-08,-9.732196392126458e-07,-3.760077487083092e-07,-1.3111996793074262e-06,-3.668785509802577e-07,-1.2185898997045556e-06,-1.774713876149681e-08,0.09999563677935237,0.0359219618370218,0.07450195687600039,0.09999694819065164,-1.7031233978287638e-06,-5.803500370153745e-07,-2.0986462934887687e-07,0.0999987300136184
25,2020-05-20,Simple + Baseline,-8.984472059995308e-07,0.0948814661294179,-1.905501415759077e-06,-1.9911879430951446e-07,0.09999713865389237,-1.9334960141829817e-07,-3.196032571903998e-07,0.04087986611963177,-4.567281143699234e-07,2.4374526657427905e-07,0.05426548478525967,-1.078028062447662e-06,0.09999951784323767,0.09999762515390796,-8.184529151198674e-07,-9.296264899371932e-07,-5.40162833111325e-07,1.4121089155335904e-07,-3.7654806642227154e-07,-2.1342897157022277e-06,-1.3253212735578248e-06,-3.5997742987249626e-07,9.421638142537052e-08,3.0915182428559594e-07,-7.006830849039086e-07,-9.145036216215628e-07,8.273965766094472e-08,1.4613992373694724e-08,-8.399212992363931e-07,-1.9705094272065117e-06,-4.2761502754400164e-07,0.09999951817367814,-7.078887175174364e-07,-2.96845392025472e-07,-2.3835619542587373e-07,1.958651642022278e-07,-4.7471079238951054e-07,-3.615250877149809e-07,-1.1730549988209507e-06,-2.1819491457905839e-07,-1.0420250512003653e-06,-2.348030021626428e-07,0.09999795555768601,0.03534160576166187,0.07466489640098235,0.09999769260285742,-1.3686708393659272e-06,-7.758724236019012e-07,-1.2195361871083976e-07,0.09999955250112202
25,2020-05-21,Simple + Baseline,-4.6032684617684887e-07,0.09999995051239985,-1.1144219801577122e-06,-1.062011689025965e-07,0.09999826736457167,-6.529205510591653e-08,-1.4207024565135885e-07,0.03281508632323286,-2.6710441741567664e-07,1.4967917943659838e-07,0.045731843553132215,-5.536058600559042e-07,0.09999971059008768,0.09999872004579671,-4.663584311276691e-07,-4.617955367701838e-07,-2.520935122011939e-07,1.6522790700199512e-07,-1.6720397265399522e-07,-1.306557634083775e-06,-7.130175552661561e-07,-1.1705705407531671e-07,7.512097011284948e-08,1.6962852967540832e-07,-3.864181600582514e-07,-4.918435651099087e-07,1.2447089586605116e-07,1.9901643507857093e-08,-5.025221316339723e-07,-1.1197872598208832e-06,-1.786345464671068e-07,0.0999997127851629,-4.212671657972596e-07,-1.736341968599559e-07,-1.3506031915465716e-07,1.5370893931796752e-07,-2.5810864237194966e-07,-1.7058118467978565e-07,-6.848863625657149e-07,-1.025628062252721e-07,-5.17335671082579e-07,-8.842115104274793e-08,0.09999892431386086,0.046563821121052014,0.07490732691321965,0.09999868170823131,-8.157559001918525e-07,-4.120494122663474e-07,-2.759391392511485e-08,0.09999977652321804
25,2020-05-22,Simple + Baseline,-1.9374933638849505e-07,0.09999998968393027,-5.715996395577139e-07,-2.3862219410510173e-08,0.09999917765426652,-2.5886187802694668e-08,-6.163612932816447e-08,0.014052780253963325,-9.151866933814769e-08,5.500265535470548e-08,0.04271870493698633,-2.3484543602651634e-07,0.09999989446954456,0.09999935226082493,-1.9809345669794992e-07,-2.031919002865461e-07,-1.0846007064625278e-07,8.677974588540427e-08,-6.780468635044936e-08,-6.936424617974576e-07,-3.557665125198354e-07,-3.6456011381305605e-08,3.457467068097545e-08,6.505621795922129e-08,-1.8083489514113486e-07,-2.3391323554484374e-07,6.692926128093753e-08,7.487646394517047e-09,-2.188754231944513e-07,-4.791969019620108e-07,-7.124161387222975e-08,0.09999990148674093,-1.6753446563952675e-07,-5.359031492758935e-08,-5.390093648984851e-08,6.046641501556789e-08,-1.0300686765332902e-07,-6.131843846354462e-08,-2.998702880398476e-07,-3.9742736384723777e-08,-2.2250330903063371e-07,-2.8838400609302856e-08,0.09999948263838174,0.06832906667293039,0.07490754299045228,0.09999940877151525,-3.586197164805263e-07,-1.6735957247168683e-07,-6.759682447295591e-09,0.09999993539099998
25,2020-05-26,Simple + Baseline,-4.4913180671749105e-08,0.10000000571867527,-1.9516327690342052e-07,1.698789411421104e-09,0.09999974014613724,-2.245340679581611e-09,-6.523284575264645e-09,0.048501707828635394,-1.02428876544393e-08,7.764498057781589e-10,0.0427188004075691,-5.85449053657269e-08,0.09999999047736156,0.09999972102831281,-4.3041832232369376e-08,-4.2275559816555057e-08,-2.7416002015913777e-08,3.1839160562643775e-08,-8.206711483253117e-09,-2.624171331607083e-07,-1.1360219457129793e-07,2.4320066113509846e-09,2.2029375412307542e-09,5.429338395768826e-09,-4.1153647697784275e-08,-7.428422825192647e-08,1.6798211302612328e-08,2.1236092277499186e-09,-5.434167699405085e-08,0.008781555583860012,-1.4620791969602789e-08,0.09999998961395715,-3.294024293932607e-08,-2.861743323782141e-09,1.3119075165290373e-10,1.355878126522512e-08,-1.5799173524340874e-08,-3.848537996715281e-09,-7.123331160312881e-08,-4.470051709364393e-09,-6.932283177292847e-09,-1.9986383926202332e-09,0.09999979360161847,1.999456184086596e-08,0.10000001585356111,0.09999983427315787,-1.0267146929967406e-07,-2.7986103198009462e-08,5.742921142150944e-09,0.10000001207226329
25,2020-05-27,Simple + Baseline,-1.386824363204803e-06,0.09999994619422055,-4.403088913282216e-06,-7.172840656832446e-07,0.0999945027765785,-1.352705818039377e-07,-1.1745577352200245e-06,0.0652299252057117,-1.2694634965954991e-06,2.2975035893374954e-07,0.04270675022075146,-2.291153688812275e-06,0.09999866648530407,0.09998941125250403,-1.608995312688486e-06,-1.3216871951544988e-06,-1.7118786258828266e-06,-7.786019005762398e-07,-4.295979145902305e-07,-2.9800191390867543e-06,-3.1065030037376452e-06,-1.7696827926842398e-06,9.17627173700805e-08,-6.368517710412914e-09,-3.1472581105088883e-06,-3.0046747794924547e-06,-4.078235528881916e-07,-1.5915577209634975e-07,-2.4769421658764473e-06,0.008771114355761403,-1.2066442543621005e-06,0.08337620568117053,-1.5429703977912596e-06,-9.85134663179782e-07,-1.979131959156789e-06,-1.990341326533204e-07,-2.1569834347615623e-06,-4.6486392102222533e-07,-2.297741874330733e-06,-3.063952820837319e-08,-1.26341008019052e-06,-7.698673125537725e-07,0.09999517196594378,-1.1869012316001096e-06,0.09999867383730165,0.0999957197498948,-2.97107140136168e-06,-1.4752148038888991e-06,-1.0187960251068703e-06,0.09999748037080167
25,2020-05-28,Simple + Baseline,-7.906683162770934e-07,0.09999929011128272,-2.525452507658222e-06,-6.892918752766731e-07,0.09999699025418766,-1.176669775073466e-06,-1.7511732337570076e-06,0.06521430682750208,-2.726913288310864e-06,-3.737296595747038e-07,0.036276644331452154,-1.0219894287631124e-06,0.09999786481418955,0.0999938468945442,-1.9435154847126532e-06,-1.9095664191626974e-06,-5.44463433158818e-07,-9.74773060476869e-08,-1.1504965903003712e-06,-7.75395253663702e-07,-2.5702578533127535e-06,-9.630990932865203e-07,-7.248172001681777e-07,-4.932421487201405e-07,-2.0334705789892475e-06,-1.4635617672446875e-06,-7.27044406853632e-07,-7.428556337874697e-07,-2.005061789538899e-06,0.01983080879038836,-1.020081044146968e-06,0.07256233518085425,-1.1740573477525755e-06,-1.9400179374816185e-06,-1.603519565155691e-06,-8.846946637076195e-07,-2.049113275988423e-06,-7.238848261210049e-07,-1.8467720268741372e-06,-3.7851571109137334e-07,6.272960430290819e-07,-2.0379041650557366e-06,0.09999672834230651,-1.1294889260287369e-06,0.0999985796075209,0.09999796268876988,-1.7966713791084458e-06,0.006180436851184984,-2.7528104075186205e-07,0.09999963349753822
25,2020-05-29,Simple + Baseline,-1.3307970145427534e-07,0.0999999461965176,-9.119233484525341e-07,-1.262662558049814e-07,0.09999926518325913,-1.3730785051325028e-07,-3.767900729714548e-07,0.07107244656306175,-6.531607864963612e-07,-4.627326748500471e-09,0.02667502189951012,-2.498970376094687e-07,0.0999996845555275,0.09999692004402425,-4.374601352652887e-07,-3.832592317934832e-07,-7.564474866195851e-08,3.115670172598347e-08,-1.357037184788864e-07,-2.6712553492730116e-07,-9.478437635543497e-07,-2.688170808386656e-07,-4.77374109869204e-08,-3.8802941740862983e-08,-6.311924897895982e-07,-4.6164218190237e-07,-1.270832349882201e-07,-4.0756442261403215e-08,-6.011599067990907e-07,0.0315252636835608,-2.059994900455056e-07,0.07074467557558274,-2.489801501113203e-07,-3.897871600984494e-07,-3.748310638977173e-07,-1.280327106525794e-07,-5.538985132783365e-07,-6.201435123599066e-08,-4.606367338587495e-07,-2.8553901765775178e-08,1.9923662088666466e-07,-3.673763588878124e-07,0.09999831279149077,-2.7826250284921896e-07,0.09999973970217065,0.09999931561202655,-5.14464097991378e-07,-8.482648266730919e-09,-2.8735264286175958e-08,0.0999998850179274
25,2020-06-01,Simple + Baseline,-1.0521344395247178e-07,0.09999993748927449,-4.983217454731688e-07,-1.4511047754121315e-07,0.09999972909948335,-1.0505325808475018e-07,-2.4723066013923256e-07,0.07107137643615584,-3.306132127193608e-07,-8.212076756179802e-08,0.02667443397406326,-2.118489844253274e-07,0.09999982928329522,0.09999815198336956,-2.439254664938308e-07,-2.1432142295009669e-07,-1.841649559294861e-07,-1.52395009615513e-07,-1.2055362456063906e-07,-1.8806189230096509e-07,-5.949711135710505e-07,-2.941139476661201e-07,-9.372227014028549e-08,-1.2944728433931513e-07,-3.5201696173972625e-07,-3.3618684010537875e-07,-1.1234409317972447e-07,-6.22100542525267e-08,-3.0382570658222205e-07,0.03356177806615804,-2.0701172797160613e-07,0.06870431268383871,-2.018471105640274e-07,-2.0549433757745453e-07,-2.81934268135171e-07,-1.6249901122363183e-07,-3.059441056892793e-07,-6.499516251212904e-08,-2.3287420953592025e-07,-7.654364718453963e-08,1.1553374062984304e-08,-2.0917231382233006e-07,0.09999886156012394,-1.9717329238387738e-07,0.09999984366454982,0.09999970170400706,-2.894105879500904e-07,-1.470010577022355e-07,-1.611685269716892e-07,0.09999988564900283
25,2020-06-02,Simple + Baseline,-1.6497414081716842e-06,0.09999987847895991,-2.805144537141222e-06,-3.9619678379207426e-07,0.099998651811512,-5.911669190153756e-07,-1.1032444234005968e-06,0.07941687965646851,-1.0668142838381005e-06,7.015559142729005e-08,0.025330081015622556,-1.7144929704177575e-06,0.0999983603518559,0.09999799591099925,-1.4773804147534156e-06,-1.5879065397658908e-06,-1.202833530910776e-06,2.6271918095117226e-07,-1.045413994850874e-06,-2.3124204326245564e-06,-3.026448961923059e-06,-9.554741064520453e-07,-1.109826375498641e-07,-2.9890181506071707e-09,-2.3074668300186636e-06,-1.5333794034709672e-06,1.7328148664073248e-07,1.1027823556469908e-08,-1.824548500620794e-06,0.03355297949692313,-8.449867799927078e-07,0.061751516399174276,-1.3516859442238274e-06,-1.0884261747700683e-06,-1.6438094082059909e-06,1.7132108556977807e-07,-1.2051262110796283e-06,-4.09289896435845e-07,-2.154827344401881e-06,-3.099520115723595e-07,-7.018945981016963e-07,-1.0200816354953406e-06,0.09999882468255097,-6.050747726989361e-07,0.10000012203262691,0.09999657802040507,-2.2235632642252328e-06,-1.100462651317661e-06,-7.416913292956519e-07,0.09999955692228162
25,2020-06-03,Simple + Baseline,-1.6872078434437823e-06,0.09999958608081141,-2.766684078790774e-06,-9.163394557681928e-07,0.09999867285813112,-8.308979818566373e-07,-1.2482790063183659e-06,0.08316828842534632,-1.3343231631018688e-06,-1.308587555881736e-07,0.021597603870717248,-1.7645324410925714e-06,0.09999864441346375,0.09999802538400858,-1.4064975373888585e-06,-1.38272956962296e-06,-1.2553695050600393e-06,-1.0403928999338536e-08,-1.0736404824124801e-06,-2.652804441523965e-06,-2.3640698230775317e-06,-1.1142076586666767e-06,-3.5450550314671464e-07,-2.499248768717151e-07,-2.3899583367685342e-06,-1.5501468227842036e-06,-2.463267520814266e-07,-4.114663706158785e-08,-2.2799041226101978e-06,0.03354475416279626,-9.324965799341116e-07,0.061745718536241036,-1.3742632415993225e-06,-1.2705566294229209e-06,-1.516144625429124e-06,3.346726282607698e-08,-1.3855852974467714e-06,-4.7294237156233906e-07,-2.2083441077596434e-06,-4.3874645995657284e-07,-6.589875038963519e-07,-1.0155582231085363e-06,0.09999847179395754,-9.567995644030352e-07,0.0999996970948639,0.09999639626265426,-2.0758809510004895e-06,-1.3528865201282037e-06,-8.223828810130671e-07,0.09999963826375603
25,2020-06-04,Simple + Baseline,-2.5008497639878048e-06,0.0999995850147254,-6.8957735768849326e-06,-1.8534738133616533e-06,0.09999538583030167,-6.209022232150539e-07,-2.249434518654363e-06,0.07488126695784814,-2.401571504082562e-06,1.3219413542075145e-07,0.021580526271221003,-3.4586620056818185e-06,0.0999986242186838,0.09998460321252016,-2.3982764012017783e-06,-1.9240979477499776e-06,-2.541720210236661e-06,-1.6699931502557699e-06,-6.344383176702698e-07,-8.064691676618642e-06,-6.74569944032387e-06,-4.343774041672766e-06,-2.1452351307434427e-07,-8.093609433099642e-08,-5.709315436065554e-06,-5.2085472192429854e-06,-1.803226193824116e-06,-3.31763402092979e-07,-4.694150363819072e-06,0.0335295392873366,-2.013461107951951e-06,0.06173570381184678,-2.204672619493471e-06,-2.113170057471822e-06,-2.5448818755315767e-06,-8.298950563376145e-07,-3.091131058024901e-06,-7.784188094813262e-07,-3.137194086504219e-06,0.008414267527987688,-2.0740015124413253e-06,-1.4078515967941701e-06,0.09999143824400542,-2.755398370785839e-06,0.09999735525504935,0.09999245452391545,-4.285633342762485e-06,-2.108145840068641e-06,-1.4956090315764885e-06,0.09999638196849835
25,2020-06-05,Simple + Baseline,-1.8817474301516615e-07,0.1000000089907192,-1.8554378373868188e-06,-1.0467486074942835e-07,0.0999995796866559,2.7630525539477844e-08,-2.0213721221474692e-07,0.08089908561270352,-2.5427650949795427e-07,1.6533280563441175e-08,4.001730239883384e-06,-5.33748998409178e-07,0.09999998135880296,0.09999359537498033,-2.2846574700926682e-07,-1.219561329970733e-07,-2.2487980480996556e-07,-3.84218647454935e-08,1.0992784307295828e-08,-2.3430623031556603e-06,-1.8236701684762258e-06,-8.15816348029491e-07,5.607508980886989e-08,4.852173295378533e-08,-1.187965127071298e-06,-1.2177529428228988e-06,-6.17467250347852e-08,4.208022706161324e-08,-9.082340610873745e-07,0.03353201950950507,-1.709450290625395e-07,0.061737372318356486,-2.1937559911757042e-07,-1.4796622169638295e-07,-2.7102102268009864e-07,1.6374021952631762e-08,-4.001654001714831e-07,4.8732624786523246e-08,-4.0037911923754157e-07,0.023854044373659965,-2.5936757477948185e-08,-3.294094794585369e-08,0.0999970026585246,-2.3408413443674173e-07,0.0999998557266385,0.09999829928898665,-7.905432882573427e-07,-1.8664156105172643e-07,-5.070298773970961e-08,0.09999991290359897
25,2020-06-08,Simple + Baseline,-1.236364897763721e-07,0.09999979914702901,-1.4624293001624338e-06,-4.303666232212356e-07,0.0999986007000589,-3.527467739350428e-08,-4.917663315248314e-07,0.09758593769549626,-5.4011248915144e-07,-1.2540913447579907e-07,-7.522880235534668e-07,-8.057298439457718e-07,0.08916333661762625,0.09999458771239142,-2.5546266382466245e-07,-4.974385058411274e-08,-5.968991389574991e-07,-7.829388683886312e-07,-1.2856562419539655e-07,-1.8540565115724605e-06,-1.5317770523377828e-06,-1.357790301685289e-06,-1.1116279388269313e-07,-3.88956489998612e-07,-1.187812629078023e-06,-9.843523697268364e-07,-1.6177275020422554e-07,-1.3705416624854022e-07,-6.825812241546508e-07,0.028662868700457114,-6.455231510354347e-07,0.035319307745729514,-6.381940978382497e-07,-3.7464270976179063e-07,-8.713968180120561e-07,-2.935388713259229e-07,-6.603760613279179e-07,0.02392561301554509,-2.1254065466140879e-07,0.02537870447369376,-2.6035952325815598e-08,-2.085057404955696e-07,0.09999627338667519,-7.686098690455906e-07,0.09999907283442953,0.09999863158857422,-5.875045513230683e-07,-5.237027326283245e-07,-6.451081922681273e-07,0.09999872317843485
25,2020-06-09,Simple + Baseline,5.159554499756171e-08,0.10000000045462716,-3.112990737516596e-07,-2.1310116590928963e-08,0.09999994991376858,6.404831814388149e-09,-6.04440203422386e-08,0.09758604980295561,-5.834904491769216e-08,-2.241841614461388e-08,1.509061005155012e-07,-1.1836110821023165e-07,0.09360163969735172,0.09999773171067178,-1.1470441587366492e-08,3.602183468518613e-08,-8.021342867209068e-08,-9.580439667775678e-08,-1.409853557880133e-08,-5.053476532461108e-07,-4.0322722789424285e-07,-3.0135077242268334e-07,-1.8541748836170352e-08,-4.1235796786159105e-08,-2.1298932848796883e-07,-1.873891545747488e-07,7.618025962027806e-08,0.002486610456018907,-9.256043490544921e-08,0.02866351566970736,-8.790756379070968e-08,0.035320013156022935,-8.139827011969981e-08,-3.092474236070802e-08,-1.63326037343942e-07,-3.812109411651462e-09,-7.756530041678491e-08,0.0239259426277778,3.668098502110056e-08,0.018422908445991384,1.1668533017256283e-07,-1.0403565673133737e-08,0.09999855609373155,-6.556269552878654e-08,0.09999995900092944,0.0999998298000231,-4.6053583818426414e-08,-3.937055057006359e-08,-4.2751781980030425e-08,0.1000000194491476
25,2020-06-10,Simple + Baseline,-1.6094677783820742e-07,0.09999965812516544,-5.593860636822847e-07,-3.757386452932123e-07,0.0999999070808052,-3.906995284590822e-07,-5.145694623060047e-07,0.09999967562309357,-8.165307865012815e-07,-3.565999598584617e-07,0.006923735135869093,-5.423212522224025e-07,0.09999943542741307,0.09999866613227626,-3.9000304934606317e-07,-4.7418290927466715e-07,-1.022491653475017e-07,-2.8617433023762065e-07,-6.447632835737631e-07,3.209932672048815e-07,-1.0512287747433222e-06,-7.557680061273092e-07,-2.991204980316275e-07,-4.019101245033619e-07,-7.489120612964969e-07,-5.421961611751551e-07,-1.5902093509974812e-07,0.0012082473679599953,-7.492866769439197e-07,0.030844022489364336,-6.231515787753164e-07,0.050257878906846166,-1.1064187145067256e-06,-6.666929261694287e-07,-1.3214355620967009e-06,-5.371210904200894e-07,-4.3827622210793644e-07,0.010788431046623047,-5.010303168535453e-07,-2.7118621574850895e-07,1.504189385957634e-07,-5.721426894829781e-07,0.09999910328712643,-5.343413960415197e-07,0.0999998043185407,0.09999959707079531,-5.122183911568155e-07,-8.049088406959143e-07,-4.5702742679327287e-07,0.10000002854293712
25,2020-06-11,Simple + Baseline,2.8231383392845767e-08,0.09999996885937457,-1.1489480599454713e-07,-5.764253219099436e-08,0.10000000108682068,-3.4570877411244266e-08,-6.984671484736747e-08,0.06406147577863898,-1.5946147420919496e-07,-1.3265093232708587e-08,0.10000042854746077,-8.185353280031189e-08,0.09999994076564424,0.09999948654031898,-3.319979874347684e-08,-4.7211912441979097e-08,6.201616089307447e-08,-1.759706436933258e-08,-5.6648440369549854e-08,2.3156154753105278e-07,-2.929098586999524e-07,-1.5714953910199695e-07,-1.3518312566477848e-08,-2.8024581142514074e-08,-1.7014457781391011e-07,-1.0089566193250684e-07,4.928056790754432e-09,1.3994311772112312e-08,-1.9186703528921006e-07,9.859400727886052e-08,-9.207589668729138e-08,0.05924154975352134,-2.274752005821663e-07,-1.1298544234330157e-07,-2.6811351772975254e-07,-7.268180948058843e-08,-6.867418619181742e-08,1.6816628126531576e-08,-7.191194170556141e-08,-2.0104357526114786e-08,1.1901818349172395e-07,-7.35794323946954e-08,0.09999965599969991,-9.337660072871763e-08,0.07669995421638777,0.09999993012435394,-8.606513955550149e-08,-1.2261373301460362e-07,-3.781738009143117e-08,0.1000000199543117
25,2020-06-12,Simple + Baseline,-2.3143174987237548e-07,0.09999975424947564,-4.5233058262798845e-07,-2.6257446915162103e-07,0.09999964482132727,-2.898881900213814e-07,-3.2830410194597343e-07,0.09999970218549394,-3.7607629642439117e-07,-1.3515374667420752e-07,0.08204799713647963,-2.392967693190372e-07,0.09999970605807008,0.04197471470942881,-4.245286240409259e-07,-3.1778600763766626e-07,-1.666047593973405e-07,-1.5269033552464262e-07,-2.9511588671485945e-07,-3.0477181337904476e-07,-1.5159816265058034e-07,-1.5991665200862634e-07,-1.7432582231280976e-07,-1.5740346330901282e-07,-3.271786390208049e-07,-3.560502131245623e-07,-1.0503347884864286e-07,-1.0554344393710721e-07,-4.547316894792526e-07,-7.843596929032084e-08,-2.8919134307494565e-07,0.05924044487528944,-3.8985256073225705e-07,-2.4916749278847937e-07,-3.221326286560574e-07,-3.2567173342778104e-07,-3.096310422688582e-07,-2.0223936833303641e-07,-2.7321704519493334e-07,-2.501518841474183e-07,4.276960171323311e-08,-3.7197522224489777e-07,0.09999956569164435,0.040050315612228465,0.07669845079633965,0.09999958595076003,-3.690131090834128e-07,-1.9013383023917433e-07,-1.6865555540464474e-07,0.09999983272424398
25,2020-06-15,Simple + Baseline,-1.9416022778038854e-06,0.09999962699788296,-5.357879709198401e-06,-9.837608125346963e-07,0.0999965859510812,-5.63179641467749e-07,-2.441836614532319e-06,0.09999950541576766,-1.629193094133131e-06,7.588425029235214e-08,0.09998056304153184,-3.1126536904377612e-06,0.0999982836946206,0.09998822404648572,-2.5853596598109787e-06,-1.8069955037510005e-06,-2.2065885541643633e-06,-1.4609222033608136e-06,-5.313846857179484e-07,-3.201865596794866e-06,-4.622250809954379e-06,-4.367600449445435e-06,-7.711697766895757e-08,-4.868009547282746e-07,-5.043130023590795e-06,-4.680609078947368e-06,-1.7555966909760732e-06,-2.2499192117634428e-07,-3.481618382156667e-06,-3.95867308981049e-06,-1.613238796999285e-06,-2.14397110427007e-06,-2.2901175614203985e-06,-1.5378729034566674e-06,-1.9141498817492456e-06,-1.3439060186973938e-06,-2.454097972883956e-06,-3.726527015600306e-07,-3.6117186776332244e-06,0.039727151768133774,-1.5311225478140474e-06,-9.821750195658813e-07,0.09999325172487063,0.04004037974977399,0.02036778138939406,0.09999321444125374,-2.155064572118201e-06,-1.3379460746060504e-06,-1.7767233070059566e-06,0.09999700614681797
25,2020-06-16,Simple + Baseline,-6.526802652814788e-07,0.09999989898310202,-2.261296985128171e-06,-2.6195057726006777e-07,0.09999897236593751,-1.6967115476591733e-07,-7.614165448000868e-07,0.07720262401437834,-5.05093384942996e-07,-1.5336423848307062e-08,0.07189440556223682,-1.1285674658710755e-06,0.09999954909365706,0.09999414391910275,-8.643929127158613e-07,-5.852877737462135e-07,-7.177658338784751e-07,-3.8827434140267157e-07,-2.0546475659783345e-07,-1.3770899847642685e-06,-1.9989598361968892e-06,-1.5324514695450695e-06,-4.158193895578389e-08,-8.826951654915005e-08,-2.0374573660746318e-06,-1.8644128342709983e-06,-4.6893031252722785e-07,-2.452174866038801e-08,-1.2159058800983257e-06,-1.2954759015832185e-06,-5.079382002488766e-07,0.04614382093343912,-7.63587405913405e-07,-4.476076671968004e-07,-6.551686805960619e-07,-2.910853225643312e-07,-8.585930861784095e-07,-1.1734008507840197e-07,-1.2438544261858334e-06,0.0273145759055933,-3.8737842552120496e-07,-2.5850007741471004e-07,0.09999647866648231,0.0774866390372861,-6.287275583137988e-09,0.09999717843561504,-7.874913363251321e-07,-3.0551991216743544e-07,-4.556443477507045e-07,0.09999926045019905
25,2020-06-17,Simple + Baseline,-8.5249191193661e-07,0.09999948225131507,-1.4013728705595454e-06,-6.805239517334085e-07,0.09999967614488524,-7.385158205772759e-07,-1.3111246495597638e-06,0.007895977461368407,-9.172109653877525e-07,-3.918484757500601e-07,0.04331658485813304,-1.2979217868179074e-06,0.09999887351699044,0.09999626187161828,-1.2086177370188167e-06,-9.462920533937617e-07,-1.046579241128354e-06,-5.536433631005191e-07,-8.726960067524448e-07,-1.1519643097596977e-06,-1.9059329607082637e-06,-1.7395346486121585e-06,-5.562163418348249e-07,-8.150663808148272e-07,-1.7644386590717997e-06,-1.3029875642372214e-06,-3.916405545037853e-07,-3.105654253180616e-07,-1.26989602828093e-06,-4.5717756590999304e-07,-1.011069598815283e-06,0.04614231475114688,-1.1941227081854762e-06,-9.269999780001128e-07,0.025850477502453995,-7.473438979305642e-07,0.047511648506281624,-2.64474478904406e-07,-1.4074919501849813e-06,-5.447176225701489e-07,1.5786460251766332e-07,-6.973042069869815e-07,0.0999974819370216,0.09999866158986974,0.029327067833466947,0.09999848229761775,-7.92470257156093e-07,-8.299651063374288e-07,-7.760776503282571e-07,0.0999999271983624
25,2020-06-18,Simple + Baseline,-1.8791400139079003e-07,0.10000011200407456,-1.297358726370755e-06,-2.1591548195628763e-07,0.09999838412384818,3.20183572971309e-07,-1.4806888277706805e-07,2.49971327426195e-08,-3.7986421511260377e-07,1.8591815502219167e-07,0.09999275299264147,-8.297962140356948e-07,0.09999990905045004,0.09999670133228183,-5.886119138074951e-07,-2.3100767183764231e-07,-3.9131628434763223e-07,-7.073880038550889e-07,1.6354551230900112e-07,-1.44322100608533e-06,-1.815033304604306e-06,-1.128560106329215e-06,2.0575234183435469e-07,7.120928099860263e-08,0.011084548853337704,-1.3497024487183226e-06,-4.173020693611743e-07,2.023684680590516e-08,-9.215917485815203e-07,-1.4158404712106167e-06,-4.0299135496702917e-07,0.013929759839604917,-7.081141467646707e-07,-1.5194108522091e-07,-1.457256154384429e-07,-4.1833974842836485e-07,0.04966044916987916,0.02667476917437758,-5.468426641989962e-07,-6.698918432951658e-08,-8.068324667723848e-07,6.492868344497437e-08,0.09999685443478909,0.09868663607714652,-5.445639200139509e-07,0.09999840559760666,-9.673295911273977e-07,-4.798184119277867e-07,-2.5544572918577e-07,0.09999864923167652
25,2020-06-19,Simple + Baseline,2.6697946111721076e-08,0.09999995287206576,-3.2090302815282485e-07,-6.736751671103955e-08,0.1000001715661936,2.1063576626840026e-08,-3.5511860752820803e-08,-2.9863513508830084e-08,-9.062667288124429e-08,-2.488227222124498e-08,0.10000038906253055,-1.721478399928247e-07,0.05883515295172006,0.09999862929631737,-1.0567986837502115e-07,-1.3900771050075202e-09,-2.095012741350285e-08,9.050330025029349e-08,2.057934557223774e-08,3.238861896274332e-07,-5.690936955889186e-07,-3.10452774293122e-07,-4.58031559355701e-08,-3.5487881940595834e-08,0.01108497380604606,-3.6567852206455684e-07,-7.89853221112176e-08,9.83209483743605e-10,-2.8783378979373407e-07,-2.1811987038589342e-07,-3.2396911499475884e-08,0.07234693308469224,-1.4666141382773368e-07,-4.520814985527546e-08,-1.8555525591976145e-08,-8.620636706966097e-08,0.04966038045548849,0.050930706556279626,-1.0047517777742306e-07,-1.6874638688382728e-08,-1.4463492995568727e-08,5.598487737235916e-09,0.10000086732302765,0.03407475097511414,0.023069989439792746,0.09999958639128127,1.7660718963955827e-07,-6.75544387069735e-08,-4.200580866217452e-09,0.10000016003848845
25,2020-06-22,Simple + Baseline,-1.9543855195119602e-07,0.10000003724869665,-3.406646160325731e-07,-2.7196571402750353e-08,0.09999977437034525,-2.2099175426047065e-08,-2.673009249451054e-08,-3.212967328045176e-10,-4.180112828872789e-08,4.367979054103599e-08,0.09999978981446996,-2.2299749280395077e-07,0.05542119190616535,0.09999901328945583,-1.3133154775735855e-07,-1.0609210805917174e-07,-1.704021661630156e-07,-2.582059294751635e-08,-3.295720586236345e-08,-1.3002103544835684e-07,-4.609818068868687e-07,-2.6124159707526533e-07,4.315724092902121e-08,1.3124330441825901e-08,-2.424651708904101e-07,-3.706678660929574e-07,-9.486919307486765e-08,0.0022013989360205504,-1.881852502307252e-07,-3.619699166368356e-07,-1.6949088665644543e-07,-7.414961542361958e-08,-1.5495090058097397e-07,-9.522108027425323e-09,-9.340874150153739e-08,-1.0447388042134213e-07,0.07762115363458298,0.0509296558574401,-1.9605415508664633e-07,-1.8150481828373968e-08,-2.836392106387087e-07,1.8770863758216906e-08,0.10000018540287342,0.020887042897877347,0.09294623415466888,0.09999958863574847,-1.5327499099514988e-07,-1.4166356891810903e-07,-9.615463118430435e-08,0.09999976823321939
25,2020-06-23,Simple + Baseline,-1.9097850389213544e-07,0.0999999739160225,-4.1389634533521657e-07,-7.056792323881934e-08,0.09999970097831518,-3.411538358537493e-08,-1.631130694776217e-07,-4.8640852244968894e-08,-1.6988941921676484e-07,2.388822123998703e-09,0.0999993070145172,-2.662554696063863e-07,0.05542012524431032,0.09999911428028362,-2.4682223200427384e-07,-1.6488163965759447e-07,-1.7992081009908773e-07,-1.5490492321136136e-07,-5.122898741375541e-08,-3.163053112112674e-07,0.03862673727653153,-2.6595360402722546e-07,-8.91262610766632e-09,-1.7205355402494467e-08,-3.082400108952451e-07,-3.861289457744857e-07,-1.886592716716019e-07,0.0014524175074262476,-2.1628234233852723e-07,-3.4868391500100377e-07,-1.848792464357378e-07,-9.135643330864287e-08,-2.3636717659825555e-07,-8.262629615042742e-08,-1.655629188824003e-07,-1.2795315899112423e-07,0.099999691626963,0.053845793434606895,-2.604422712070605e-07,-5.952144949032941e-08,-2.5339919662344084e-07,-6.788213871565318e-08,0.09999966968985227,0.011351484183605882,0.03931293425967803,0.09999957092288847,-2.542276950366262e-07,-1.5013192412010403e-07,-1.322871984596912e-07,0.09999976016155883
25,2020-06-24,Simple + Baseline,-1.0296262499428915e-06,0.09999974670806802,-2.604862118910762e-06,-5.947374808179875e-07,0.09999846391135639,-3.686799417532513e-07,-9.741176743652098e-07,-1.6018364268311246e-07,-9.93040341471977e-07,1.1888953858830853e-07,0.09999641059667297,-1.2135431938637955e-06,0.05541466798172883,0.09999721172095609,-1.2825886945743837e-06,-1.0461960572355978e-06,-1.051671617026854e-06,-7.076356870034397e-07,-5.121063083224301e-07,-1.6663744365761868e-06,0.03862110824826968,-1.3541552865930045e-06,-9.07639246357654e-08,-4.882579588181794e-07,-1.6837804184843402e-06,-1.3052119897646003e-06,0.027965683803688704,0.007463657482010329,-1.2511577821302812e-06,-1.406141405987611e-06,-9.381359378697947e-07,-5.26449526215548e-07,-1.2819170471500691e-06,-4.6513561237905086e-07,-1.5621055677505229e-06,-8.157566867993472e-07,0.09999863874828915,0.05437019698634906,-1.4322025479528967e-06,-2.7944396218772314e-07,-6.694447592814548e-07,-3.1822265559457837e-07,0.09999710387290497,-1.280146108531894e-06,0.016216537756930622,0.09999690010299242,-1.3233545664641684e-06,-1.4813577998720738e-06,-1.1282771154757693e-06,0.09999886624142472
25,2020-06-25,Simple + Baseline,-2.477860176288417e-06,0.10000120388869983,-7.635434191491238e-06,1.1635179130726024e-07,0.0999949896793792,5.681579107993251e-07,-7.240376765461267e-07,7.409908313256955e-07,-9.124417258899293e-07,8.43880872194451e-07,0.0999851140363367,-1.6594180151958435e-06,0.07285533069040952,0.09999028300334499,-1.6612213731470314e-06,-1.8853325676072856e-06,-3.856868014570075e-06,-1.3944252687260973e-06,2.348222825395102e-07,-5.846609504307596e-06,-7.924999257129745e-06,-2.7968949610625315e-06,1.2076495386752329e-06,2.1736601694682594e-07,-4.292872723174808e-06,-4.569032853518467e-06,0.07947171223110742,-1.5283627157802511e-07,-2.704006938314546e-06,-5.4517826922928095e-06,-1.646832064293582e-06,-2.2411727823402328e-06,0.0009162788668145924,-2.365169634304553e-07,-1.0556366642358537e-06,-1.430490050230399e-06,0.09999757168043893,0.045880900767498414,-1.733304601622975e-06,8.615853294731888e-07,-3.853609186993583e-06,5.070763463477906e-07,0.09998940913346438,-2.3587905612439024e-06,0.0010034869237160724,0.09999069899697981,-3.9126408477043e-06,-2.269176686735874e-06,-5.462842846383598e-07,0.09999506162497623
25,2020-06-26,Simple + Baseline,-5.38994428991428e-07,0.10000050128924778,-2.786023429496874e-06,1.7691465107899991e-06,0.09999932102291693,3.738697196168558e-07,3.365985137979495e-07,-8.914402051741516e-08,6.523982954256668e-07,-8.417265683413665e-07,0.09999042431850512,2.2214737506583255e-06,0.09387861670261168,0.061328563573292263,1.202557930065254e-06,-5.882533807920272e-07,-1.541919392296132e-06,3.5684264384487335e-07,3.065346680229452e-07,-1.827730627833985e-06,-1.058780682760474e-06,-2.773825304990904e-08,7.210620109320032e-07,-6.020551384852882e-08,-1.6971160202772243e-06,-2.8408056720566985e-06,0.0999998842182408,-1.7421133425300519e-07,-7.178782827924212e-07,-1.068257169010205e-06,4.616487459758091e-07,-9.911992980947511e-07,-6.671732787371505e-06,-2.4608378234246595e-07,3.7510393168684254e-07,-8.425554763014391e-07,0.05034328320762037,0.06315264152797408,0.03133480923448212,1.1712491143122616e-06,-1.7413683615911662e-06,3.587169844545692e-07,0.0999930118719768,-1.516350610890027e-06,2.062940952122676e-07,0.09999693912736317,-1.1188935592607866e-06,-1.6585810092746843e-07,1.9259017000407943e-06,0.09999872162949293
25,2020-06-29,Simple + Baseline,-1.49600159071884e-07,0.10000001538138725,-1.057787242693274e-06,4.6959151857193397e-07,0.09999987683646501,-1.830469907094344e-08,8.434453713468167e-08,-2.1810861619124384e-08,2.34887786932061e-08,-7.624410377908409e-08,0.09999440302068377,6.749385453377317e-07,0.10000003019643239,0.016223114739981354,3.361680559878892e-07,-1.5317299967178616e-07,-4.926553380519128e-07,8.382257587106231e-08,-1.3901639064588008e-08,-7.982408744594426e-07,-4.688555721182954e-07,-4.202459583267925e-08,-1.1541303706129056e-08,-2.1031193770366374e-08,0.0783913947550992,-1.1532846516025802e-06,0.09999997045110273,-1.7724575274385105e-08,-2.9168948149027824e-07,-3.3658887766221616e-07,1.1934331203424237e-07,-2.4330702097835145e-07,-1.924749477283194e-06,-9.741484996984842e-08,8.897760174224776e-08,-1.9802310555365497e-07,-1.3924363617091407e-08,0.07406819068179153,0.03133484905108108,-1.493483304510124e-08,-4.565543497361924e-07,4.9372503429540776e-08,0.09999640936304206,-4.3008881721120306e-07,4.317233101397517e-08,0.09999890820727776,-3.9774178987822747e-07,-6.022363559043473e-08,4.262109936347246e-10,0.09999982506128599
25,2020-06-30,Simple + Baseline,-2.5432800465399843e-08,0.10000002671428773,-4.3878895290254403e-07,1.7244921455377145e-07,0.09999987639688687,1.4169227838813525e-08,6.28987086529356e-08,-5.348499379262016e-09,2.7626698842890466e-08,-2.0848011398399508e-08,0.09999653513984766,2.3573060778545226e-07,0.10000005509580043,-1.3596841774280085e-07,1.1846673261378803e-07,-2.297070853107077e-08,-1.4865904193123967e-07,2.9771552125992458e-08,1.1006444027957509e-08,-3.8451671661887144e-07,-1.9980935823083952e-07,-1.0261919835371946e-09,2.0830857414190506e-08,3.0216124351688032e-09,0.07839145568991587,-4.858688524612388e-07,0.09999999378719081,-2.4890131627147914e-08,-9.478498880485682e-08,-6.607635887452063e-08,3.2090566158970224e-08,-6.068437937844936e-08,-4.83544381685006e-07,2.8423003146998586e-09,4.622642002675592e-08,-6.080571363717022e-08,-2.410132503065395e-08,0.10000001287552945,0.0002631476751192227,6.064107336021715e-09,-1.654150909359772e-07,3.597179579625739e-08,0.09999797735581464,-1.2634209387960838e-07,0.021353648192433898,0.09999958160546654,-1.2628524166491353e-07,4.456979732684036e-09,4.493795808140234e-08,0.0999999244997442
25,2020-07-01,Simple + Baseline,-7.348839576573052e-08,0.0999999688224322,-2.787452876896935e-07,-2.8282607927317188e-08,0.09999990231370762,-3.8965871362040796e-08,-5.882091759953151e-08,-3.3765137000510925e-08,-6.785513338590645e-08,-1.80892707162616e-08,0.09999949579065928,-1.3934059990747047e-08,0.06212411577382193,0.05473450880690295,-1.4934596750388212e-07,-6.563261484247315e-08,-1.2453347190116326e-07,-7.329187546610966e-08,-3.4906181107434155e-08,-2.870862137984458e-07,-2.150473111999858e-07,-1.0066463508793582e-07,-2.928014046357283e-08,-3.5966312962829994e-08,0.08681057396521964,-3.1129291045688173e-07,0.09999991037614744,-1.9665025793214385e-08,-1.3974495679005255e-07,-1.0187919879972393e-07,-7.285773519394517e-08,-7.549959141400189e-08,-2.2196346808894454e-07,-6.483533527793742e-08,-6.299483045712818e-08,-7.647581578637485e-08,-9.323776885713954e-08,0.08792478491451072,-1.3147400573895442e-07,-2.8541687990601334e-08,-1.0859185541149047e-07,-4.708674083726001e-08,0.09999877067182415,-1.1351556349826348e-07,0.008411943400126753,0.09999973483286945,-1.3634293476614566e-07,-6.281841586463167e-08,-4.508655365790073e-08,0.09999993361646042
25,2020-07-02,Simple + Baseline,1.682914355696242e-08,0.10000040707920496,-1.83609033938669e-06,2.4921449796147986e-07,0.09999712002102436,6.33206573517368e-07,5.259180359176802e-07,-4.48219009011498e-08,-2.17388572368818e-07,-1.189785867162926e-08,0.09999497396685622,-2.4201545440762314e-07,0.06090192702473763,0.054730878171419396,-4.5930025456784084e-07,-1.4365997509701954e-07,-6.418793654000584e-08,-3.538435906687957e-07,4.34690498674466e-07,-3.629397151700381e-06,-1.7885624034628662e-06,-5.848631445689758e-07,3.5521900942784214e-07,7.177386267035253e-07,0.019688398923937433,-1.4169714076103924e-06,0.09999987846014936,5.3082073553336434e-09,-1.7158063354921672e-06,-2.6712819076373278e-06,3.4199160819887674e-07,-3.937347910398856e-09,4.906412975494886e-07,-9.530855719453053e-09,-1.5454438353561151e-07,-6.545699397882254e-08,-4.899857288154869e-07,0.07269892941932997,0.04765207678154423,5.7568517625461945e-08,-1.8626984969996643e-06,2.088008397442609e-07,0.09999532835577961,0.011040363900518296,0.03331770792113376,0.09999804265009374,-1.2303139662386832e-06,-3.036238800430338e-07,8.107182362738067e-07,0.09999845910033406
25,2020-07-06,Simple + Baseline,-9.197756357635189e-07,0.10000019261136857,-3.8075341847228082e-06,-1.5747316097712222e-07,0.09999627770950999,1.9310829418002602e-07,-4.5281893420399073e-07,-2.716164166333841e-07,-7.594270239702622e-07,-1.1339295851669365e-07,0.09999040128157295,-9.327160274915065e-07,0.03504782897035099,0.054722821488341754,-9.336630019087065e-07,-6.400746664532314e-07,-1.2517176599284817e-06,-9.58992781640203e-07,1.5037762368416445e-07,-4.093441873423063e-06,-3.245604581228373e-06,-1.4055147683085683e-06,1.8659787631433365e-07,-6.12245670775841e-08,0.019684359767566297,-2.5236457711467315e-06,0.09999819575841483,-3.6515493873558933e-07,-2.2183542068564417e-06,-2.3351096304642057e-06,-7.817005681739957e-07,-9.609249435029268e-07,1.1018068914270484e-07,-3.4962823946255067e-07,-8.148470850279704e-07,-8.802364095442993e-07,-1.5630991312836201e-06,0.03108937238023942,0.052228438385265044,4.844732012473065e-08,-2.4390020579619965e-06,-1.8102631868452527e-07,0.09999189560770624,0.011035303992884434,0.09625900528124602,0.09999562744070135,-1.6887076360655089e-06,-6.160578268513162e-07,-1.8062248213986877e-07,0.0999975484013409
25,2020-07-07,Simple + Baseline,-1.5277447505867915e-06,0.09999813351792179,-2.946365916217721e-06,-1.84949316132152e-06,0.09999742067187838,-1.623278265664171e-06,-2.2569665379023e-06,-1.2697022649766271e-06,-2.1112210095403554e-06,-3.3703115017689006e-07,0.0999936733732703,-1.443531863634269e-06,0.03503567050927118,0.0821257869067202,-2.5846348330206454e-06,-1.918103833983571e-06,-1.1702377341681205e-06,-1.5763311115353447e-06,-1.2647825256381216e-06,-2.3777568913705442e-06,-3.317334454834822e-06,-1.294396251953935e-06,-1.4401908625943244e-06,-1.197495084737941e-06,0.01967894224397313,-2.3139699906700924e-06,0.09999730214679704,-7.612231479027056e-07,-2.606192881569134e-06,-1.1788087647599148e-06,-2.0990758914165033e-06,-7.068147089158016e-07,-2.4876058795925867e-06,-1.3304064047573334e-06,-2.4862792398490125e-06,-2.1051007742309275e-06,-2.698456253176838e-06,-9.977809015897635e-07,0.05222095227651284,-1.1487494229146933e-06,-4.730905732918769e-07,-2.26196444136669e-06,0.0999934134026959,0.011029796389878667,0.09999852835047988,0.09999596473161682,-2.624461092753286e-06,-5.053397663874257e-07,-1.4945836418995137e-06,0.09999820610274836
25,2020-07-08,Simple + Baseline,-3.3546707761839155e-07,0.09999951366961038,-1.6425938267128818e-06,-8.481432202423157e-07,0.09999837620283396,-1.6916471383469185e-07,-8.781609094758753e-07,-5.178486721574858e-07,-1.0111403592836386e-06,-1.5004573642657103e-08,0.0999949198596823,-7.268939628767022e-07,0.09999966011037204,0.08212414875113333,-1.1456440421614504e-06,-5.819094461330696e-07,-2.954916774686478e-07,-1.0260530744090308e-06,-1.4503868879200155e-07,-1.448117206224061e-06,-2.2694113122486772e-06,-9.026488872789037e-07,-2.768596019367883e-07,-4.3590849053484113e-07,0.06570250226958708,-1.3880353402224778e-06,-8.343904161736879e-07,-1.922419439932496e-07,-1.5291769001755452e-06,-5.928969682582988e-07,-7.965352117887005e-07,-4.068851161324603e-07,-1.274258956036656e-06,-5.328673797461722e-07,-1.0814941747476266e-06,-1.118616621569811e-06,-1.1447437959676153e-06,-1.1158196645358062e-07,0.05221982547864462,-3.986141287927929e-07,-1.9246103138944838e-07,-5.868373038536805e-07,0.09999513810028604,-7.540786554375399e-07,0.09999930364398257,0.0999975972600573,-1.3650738730194304e-06,-3.2417961605245725e-07,-5.15587593254522e-07,0.09999883804871204
25,2020-07-09,Simple + Baseline,-1.8825645558155485e-07,0.0999992315316554,-9.287551148257054e-07,-8.652433231890173e-07,0.09999896831342847,-4.049577595719497e-07,-8.787101885304984e-07,-7.751666545650084e-07,-1.0989191433181115e-06,-2.902862353413049e-07,0.09999694942258823,-5.56641544389573e-07,0.09999916628062029,0.0739490965687648,-9.463932413930715e-07,-5.536067516694799e-07,-1.314818542075209e-07,-1.0025478172404668e-06,-4.207352224617278e-07,-6.499671252198873e-07,-1.5603348736502063e-06,-6.5938159901854e-07,-5.553911901277068e-07,-7.798831810015507e-07,0.07387040218610727,-8.45744839032025e-07,-8.382936024471857e-07,-3.298250663473994e-07,-1.229015332052478e-06,2.0122013051531144e-07,-6.167379661619408e-07,-3.0111387511745764e-07,-1.2174085624366037e-06,-5.535562868974602e-07,-1.0129378025015665e-06,-1.2778756834297414e-06,-8.90039960072592e-07,-1.519324783767724e-07,0.05221811010471008,-6.969117798520382e-07,2.8553492294418805e-07,-6.529197464263049e-07,0.09999672131501838,-7.827947888679772e-07,0.09999931165736191,0.09999845641253913,-9.64192264209605e-07,-3.0334599166332065e-07,-4.2832273030996526e-07,0.09999943840507056
25,2020-07-10,Simple + Baseline,-3.038407327344552e-08,0.09999998693223844,-5.372226273372072e-07,-2.1142867696354492e-07,0.09999941514550276,4.435313590705983e-08,-1.784706243731874e-07,-8.064676996775947e-08,-2.9612606927318165e-07,3.87218295473317e-08,0.09999757638561428,-2.2104820399300007e-07,0.09999991437009081,-7.3839867762686e-07,-2.9248306307847996e-07,-9.603912710555265e-08,-3.0365459304654635e-08,-3.711290840132757e-07,2.616214347273368e-08,-4.94811343206761e-07,-9.062740602058351e-07,-3.226225462621495e-07,1.7771131375866496e-08,-6.303459765408686e-08,0.08301127915612776,-4.808172154456559e-07,-3.321096048396618e-07,-1.714744906204006e-08,-5.479925830720819e-07,-1.5571590712330425e-07,-1.9200044555279207e-07,-1.4330931855511135e-07,-3.743168733903269e-07,-1.0811653255115429e-07,-2.690297054928543e-07,-3.49846654518814e-07,0.06039196575437687,2.146223521767389e-08,0.07517389039084563,-5.39061459379517e-08,-2.3739393054761106e-07,-5.552654983038034e-08,0.0999978004701571,-2.966871819874912e-07,0.08143842766672765,0.0999991310159395,-4.377386978611788e-07,-1.0470586889119278e-07,-8.869366705766685e-08,0.09999958535147194
25,2020-07-13,Simple + Baseline,-4.441575340702748e-07,0.10000021111374917,-2.2562357942379702e-06,-2.2360810242896915e-08,0.09999788264466185,1.945801508564436e-07,0.012399628385226952,-7.707141433436345e-08,-2.8914379977860033e-07,-2.025479077525122e-08,0.09999442262580109,-3.274783308261488e-07,0.07879709717734022,-4.688595732330173e-06,-5.126066231328256e-07,-3.197591470711968e-07,-5.665762592666545e-07,-4.2989342885620995e-07,1.6613631379805906e-07,-1.7583090581654118e-06,-1.8606441331518939e-06,-6.903784478502564e-07,2.2398160320442313e-07,1.784426373828779e-07,0.08300944416883697,-1.9523319308569254e-06,-7.781504987310583e-07,-9.430897717459662e-08,-1.3986547471303233e-06,-1.70912277672924e-06,-3.752630200667103e-07,-4.868947044347367e-07,1.1250537510633062e-07,-1.2734702361021777e-07,-2.6992295523817624e-07,-4.126905944010742e-07,0.09999886703808529,1.0921598465747028e-07,0.07637202898583913,1.008957792639714e-07,-1.6729811347017283e-06,-1.4935194450152024e-08,0.09999531408708306,-7.469250903645157e-07,0.04946387766875594,0.09999735292486518,-1.2400411739073918e-06,-2.2009149099220745e-07,1.0729914216736186e-07,0.0999984780373216
25,2020-07-14,Simple + Baseline,-3.3119522443659317e-07,0.1000000831901189,-1.606722223799188e-06,-8.691649531796098e-08,0.099998624636622,1.5137680174617913e-07,0.0061695966157909845,5.818467007832847e-08,-1.425870064035845e-07,1.620850673863225e-07,0.09999499084869928,-4.127836400095222e-07,0.07201827894150302,-3.4663220834631444e-06,-3.469625821890326e-07,-1.949409591211402e-07,-3.958509545188075e-07,-2.882234349884342e-07,1.142714763629825e-07,-1.5500305975078101e-06,-1.556350784349459e-06,-5.167136730607044e-07,2.2868808927018635e-07,1.3344199368661095e-07,0.09999924449477857,-1.2346178942642841e-06,-5.129402316364146e-07,3.233374139207131e-08,-8.820697891792182e-07,-1.3810661988963728e-06,-3.5874583702700843e-07,-3.904724865187886e-07,-2.2368760223610768e-07,-1.4918871819334794e-09,-2.1190414561957232e-07,-2.3573093782264363e-07,0.09999946836618785,2.7295793800004476e-08,0.07637097371257877,2.7479182673600178e-08,-9.885340986991545e-07,7.248743208735301e-08,0.09999624681950986,-5.008608742908368e-07,0.045473746763041695,0.09999804787466357,-9.196327602317291e-07,-1.7324995749291668e-07,-2.588737635791058e-07,0.09999887523774167
25,2020-07-15,Simple + Baseline,-2.778979416480173e-07,0.09999964288408437,-1.8545478628126008e-06,-7.812381703981671e-07,0.09999778606341482,-4.605097744249055e-08,0.006168233673230861,-2.2411817729922662e-07,-7.911145303273978e-07,-9.61278922185945e-09,0.09999126932059076,-4.877633365053627e-07,0.09999992677927434,-4.16485895877174e-06,-5.406845540669913e-07,-2.0339033357942225e-07,-4.5592078099545397e-07,-8.137759398833536e-07,8.450684849297779e-08,-2.0138456313948204e-06,-1.7540686163853436e-06,-5.32373406538054e-07,-1.622814144592619e-07,-1.338023838632838e-07,0.09999837991914336,-1.4437259748881458e-06,-1.0439602019218815e-06,-1.378660762451586e-07,-1.4709697257628948e-06,-9.225948189654809e-07,-4.897016593815456e-07,-5.1188500804784e-07,-5.575836129470929e-07,-1.6961987924662933e-07,-5.203396634262347e-07,-6.495973141878418e-07,0.09999869350096226,-1.0732083382804745e-08,0.04841533701638071,-2.558578429671794e-08,-6.842351794928045e-07,-3.265785496968974e-07,0.09999363146729014,-1.1446996206374115e-06,0.045468000214182576,0.09999741903701938,-1.0663078385929793e-06,-5.950504170533666e-08,-1.9556588862991035e-07,0.0999983028770528
25,2020-07-16,Simple + Baseline,-5.704380900257534e-07,0.10000018184465384,-3.152866132547606e-06,-1.3686266462030576e-07,0.09999692152011498,2.897204585253806e-07,0.006167999015268961,-7.0631169278648356e-09,-4.085920298593265e-07,1.572362296993247e-07,0.0999894801567118,-5.577630550289813e-07,0.10000024753933512,-6.5705291107137065e-06,-7.639835540569757e-07,-3.136734445462311e-07,-7.784881560054777e-07,-6.770868804043337e-07,3.0157291796820664e-07,-3.854972648253473e-06,-2.5989412962667765e-06,-8.853530232517799e-07,3.735180068753469e-07,1.8845266334829333e-07,0.09999808229630117,-2.348338618958474e-06,-1.16137820885492e-06,-1.899834639161436e-07,-1.4310136543407566e-06,-2.1425995978753617e-06,-7.093783978353003e-07,-7.91868790651077e-07,-1.4366721792857517e-07,-1.7630295554067962e-08,-3.3602020894228315e-07,-6.3122479298365e-07,0.09999856179665934,8.138147715272862e-08,0.06724001870748239,1.9375028529452013e-07,-1.9675514828945185e-06,9.746209014730733e-08,0.09999048444781675,-1.2431438830277453e-06,0.026658757673124697,0.09999610947806387,-1.5389834777996318e-06,-1.42095079235827e-07,-2.633396268157233e-08,0.09999761631517992
25,2020-07-17,Simple + Baseline,-2.21739545767212e-06,0.09999881440166762,-6.605792444217569e-06,-1.1801856843431628e-06,0.09999562090276592,-7.770383660186021e-07,-4.058011892038804e-06,-9.18824309419082e-07,-2.7907404695288336e-06,1.415551883288648e-07,0.09998666860927281,-1.4271008866142447e-06,0.09999762627002295,-1.1325980088447602e-05,-4.030987026723617e-06,-2.3157645572741778e-06,-2.570709812992246e-06,-1.6501131873543219e-06,-6.764371258145017e-07,-5.284381927626732e-06,-6.221122269248981e-06,-1.810692069526304e-06,-1.2620569999330697e-07,-9.99409794536312e-07,0.09999233475644492,-4.637424807214335e-06,-3.146130220454645e-06,-6.434494750780597e-07,-3.0439491413599526e-06,-4.058526920840329e-06,-3.658552324667875e-06,-5.59430491549521e-07,-2.491815549193042e-06,-7.177824414925833e-07,-2.6445422990531933e-06,-2.543830779663797e-06,0.09999509489373908,-2.130252391445806e-07,0.06722902663606088,-5.012595008368988e-07,-1.6864531996269385e-06,-1.4773622121442867e-06,0.09998676758054846,-3.5663931142435432e-06,0.03293026256094519,0.09999082267239734,-4.794126618509555e-06,-2.3733590714273914e-07,-1.909681064096834e-06,0.09999639558253577
25,2020-07-20,Simple + Baseline,-9.817932282391744e-07,0.09999995219192408,-4.908950846766699e-06,-7.832906085475581e-07,0.0999958208199492,1.8213403438364195e-07,-1.7685500778266306e-06,-1.1756556932566881e-07,-1.3689308732979608e-06,6.652542119995673e-07,0.09998709406003276,-1.7109518740043808e-06,0.09999900594622127,-9.637042098991168e-06,-2.0836443805311455e-06,-8.32128093746202e-07,-1.5027611192519154e-06,-1.3808639504138913e-06,1.5745537957063818e-07,-4.3270895733768905e-06,-6.0390629326423035e-06,-2.0369929713298526e-06,2.736525203801442e-07,-1.907049519581565e-07,0.09999500797652396,-3.4650764882769683e-06,-1.7504697214243118e-06,4.877687747451819e-08,-2.458543978166832e-06,-3.891590586580138e-06,-2.4861115760953427e-06,-4.860842693487579e-07,-2.2403115287745945e-06,-4.96218954443261e-07,-1.8181864788318707e-06,-1.9473793431703645e-06,0.04447126094387372,2.2044322945579065e-07,0.09999706619857286,2.2557799033496333e-07,-1.7274213288832657e-06,-2.4314019234615097e-07,0.09998919740754787,-2.3889091786708875e-06,0.05564500858132758,0.09999291718283637,-3.6767955787827355e-06,-4.845092956429943e-07,-1.3077880176392842e-06,0.09999647939289494
